93 300
die -0.00014980997 0.0006836082 0.0016702623 0.0030340627 -0.003208918 -0.0027128237 0.0025931122 0.0042500165 -0.0018511929 -0.0016322355 0.0026652014 -0.00062126835 -0.0017364819 0.0022759272 -0.0017298977 -0.0013322949 0.0014401603 0.0006149014 -0.0027261963 -0.0035837118 0.002541847 0.0012060192 0.0027832792 0.00027721215 0.0021587524 -0.0010257623 -0.0009265454 0.0018478377 -0.0028522182 -0.001857129 -0.002367098 -0.00040150143 0.0034181098 -0.0024877405 -0.00097237405 -0.0003320508 0.0028802 -0.0022489391 0.00012040884 -0.0012746052 -0.0034182977 0.0013570782 -0.00274041 -0.0014963378 0.0002398453 0.0004435306 -0.0023623272 0.0032823882 0.0018651051 0.0034577874 -0.002445254 0.0017732575 -0.0015765049 0.00066534465 0.0024403045 -0.0009615583 0.0018229433 -0.0018477852 -0.0010494224 0.0030277981 -0.00035815805 4.475822e-05 -0.0014435268 -0.0024709147 -0.0007468682 0.001093318 -7.1945855e-05 0.002203316 -0.0013912462 0.0005200014 0.001997731 0.0029792094 -0.00010055497 -0.0033805072 0.0017329885 0.00056561624 0.0020832822 0.00016077897 -0.0011942675 -0.0024830946 -0.00029041426 0.00079534505 0.0016781697 0.0035465565 -0.0018437275 0.00045245988 0.0020428845 -0.0014022286 -0.00025582733 0.0019437671 0.00089738 9.29059e-05 0.0012458505 0.00010546508 0.0035745748 0.0025351855 -0.0025833535 -0.002414537 0.00010534179 0.00231497 -0.0028312698 0.0011368704 0.0022688925 0.0022633902 0.0027378837 -0.0026538544 0.00046686258 0.002100002 -0.0017634936 -0.00206791 -0.00036665823 -0.0027678777 -0.0020139965 0.0024890886 0.0008015598 0.0026899644 0.0024626027 0.0025631445 -0.0008500832 -0.0010829638 0.0008884613 -0.0008919302 0.003171934 -0.0031621277 0.0023761266 0.0015973217 -0.0017015329 0.0009742356 -0.0005881849 0.002807177 0.0034397002 -0.0009652014 0.00017270756 -0.0030114907 0.0011344259 0.0013231407 0.0017851564 0.0017570343 0.0025660174 0.0020805793 0.0028111076 -0.0029935567 -0.003389558 0.0001379232 -0.0007123999 0.0022217822 0.0013332797 -0.000889478 0.0008785643 0.00014367876 0.0028757867 -0.0037987484 2.0043277e-05 0.0008352241 1.9391917e-05 0.0030750479 0.002157205 0.0016261871 -0.00040088044 0.0032966598 -0.0028525672 0.0010282752 -0.0021462762 -0.0016892839 0.0008793804 0.0017093186 0.0028136896 -0.0015481525 0.0022604247 0.0031968534 -0.0017704794 -0.0027894264 0.0018888577 0.0023827674 0.000112714195 -0.0021528583 -0.0025209638 -0.0013352799 0.0018144978 -0.0011031284 -0.003518087 0.0018761716 0.0011586351 -0.0022686664 -0.00021962238 -0.0010464643 0.000769573 -0.0024564157 0.0011290713 -0.0023934536 0.0007531017 -0.00063827104 -7.1329676e-05 -0.0025514832 -0.0007582358 0.00060833996 0.0017640812 -0.0011692096 -0.0031027177 0.0012837992 -0.00024262791 0.0013089291 -0.0022723817 -0.00036441186 0.002727495 0.002242511 -0.0011199353 0.0015510586 -0.0027966837 0.0017958613 -0.0015463097 -0.001584463 0.002963736 7.144623e-05 0.002831048 -0.002172702 0.0010925267 0.0021560525 -0.0036874386 -0.0021266858 -0.0024964605 -0.0016296414 -0.0015528599 -0.0033568605 0.0023708516 -0.0017434264 0.0030463098 0.0015960044 -0.0023920098 0.0013945011 0.0018947101 -0.0028163271 -0.0024246394 -0.0003627371 -0.00336372 -0.00034485935 0.00026273797 0.0006561809 0.0008738113 -0.0012853213 -0.0014952259 0.00020150784 -0.00031395684 0.0025380827 0.0016179497 0.000851803 0.00070579175 -0.0010358865 -0.0014803989 -8.721233e-05 0.0008606915 -0.00055407325 -0.0021349853 -0.0024604022 -0.003785366 -0.0019505199 8.724064e-05 -0.0012627518 -0.00270515 -0.0015099691 0.0017126973 -0.0010006996 0.0034109186 -0.00040364644 -0.0030965705 0.0030200188 0.0030940967 0.0024190252 -0.0030215885 0.002040143 0.0010181878 0.0014787181 0.0014696378 0.0010216255 -0.00062803243 0.0035106833 0.003483619 0.0016571623 -0.0018921371 -6.174862e-06 0.00055109255 -0.0026738986 -0.002801213 3.716612e-05 0.00011129823 -0.001539932 -0.0021077704 -0.00220878 0.002653055 0.00023356978 -0.0010577004 0.0029158888 0.003227502 -0.0012784242 0.0035114356 0.0026793522 0.0022310782 0.000105007035 0.003285011 -0.0029703034
, -0.0026967563 0.0036856928 -0.00016389668 -0.00062851724 0.0014441864 -0.0016786328 0.001337663 0.0035239463 0.001871706 -0.0028753506 0.0032975757 0.0014515055 0.0011274479 -0.0020322502 0.0027365943 -0.0014043185 0.003336268 -0.0014316734 -0.0026795426 0.0018239957 0.00064637425 -0.0012272509 0.003591281 0.0031533816 -0.0032158303 0.0009242451 0.0015294567 0.0011591527 0.00032271535 -0.0003993682 0.0003036576 -0.0013342252 -0.0021398135 -0.00079018297 0.0011390571 0.003215523 0.0032950533 -0.0022494704 -0.0029543948 0.0036016884 0.0009696454 0.0013819312 0.0022880773 -0.00105604 0.0026968543 0.0014066614 0.0011253856 -0.00075663097 -0.0007460184 -0.00047655773 0.001632884 0.00019906455 -0.0034117417 -0.0028015627 -0.0024491777 0.0005111518 0.0010120639 0.0035398605 0.0020533632 -0.0015147188 0.00032035587 0.00165389 0.0024754507 -0.00035650065 0.0012001462 -0.0016685292 -6.232077e-05 0.0030134893 -0.0011997524 -0.0033590205 0.00204908 -0.0011382297 9.025866e-06 0.003068339 -0.00048889517 -0.0012211131 -0.0021334772 0.0027168388 -0.0022260281 0.0011303927 -0.0016991823 0.0018544199 0.0013582456 0.0019966566 -0.00045674035 -0.0010742801 0.0029044063 0.0019601814 4.1008057e-05 -0.0034557865 -0.0021307177 -0.00033725638 -0.00021714615 -0.0007707486 0.0035391657 0.0005892016 0.0023780137 -0.0025759793 -0.0010476909 -0.001706554 -0.0022932 0.0003654111 -0.0018386095 -0.00040560632 0.0014574853 0.0014143897 0.00045027805 0.00078688015 -0.0021247563 0.0024257947 -0.0023124474 0.0016017586 -0.0028140375 0.0007837738 -0.0019261752 -0.0011681783 -0.0008501096 0.0019495286 0.0022864433 -0.0025035623 0.00031225724 -0.0022287457 0.0028432366 0.0032931606 -0.0008104194 0.00083230616 0.00016315914 0.0013594072 -0.0028446 0.0007903514 0.0023733121 0.0011816919 0.00070664944 -0.004085946 0.0025609508 -0.0016730523 -0.0014404772 0.00086632953 -0.0008144758 -0.0005426218 0.00074654527 -0.0028890555 -0.0035053086 0.0032069294 0.0023749275 -0.0027397247 0.0005913663 -0.00031612001 0.0019056657 -0.0028356337 0.0015441303 0.0008568715 0.0033715193 -0.0018264262 -0.00018770274 -0.002254764 -0.004065029 -0.0035377564 -0.0004345412 -0.0014759488 0.0016511683 -0.0020892841 0.00030853107 0.00020234588 -0.0013907636 -0.00038605274 0.0035679946 0.003312571 -0.0017828873 0.0039173285 -0.0024542992 0.0020599177 -0.0010361224 0.0013116682 0.0013163391 0.002369279 -0.0009318279 0.0024791404 0.0025967755 -0.003127017 -0.002948713 -0.002031268 0.0005483074 -0.00096240686 -0.0029410261 -0.0030376622 0.0034713538 0.0013880152 -0.0029075777 -0.002389572 0.0013784907 -0.0016695267 0.0009922152 -0.0012928167 0.0010033553 -0.0029496776 0.0020282557 0.0012619607 0.00034009138 0.00077846635 -0.0031936981 0.00096237083 -0.00031990552 -0.002955246 -0.002984758 -0.00061961735 0.0015711879 0.0018472882 -0.002168733 -0.002464925 -0.0016794075 -0.0012168406 -0.0025474038 -0.0033861517 -0.0006253499 -0.002864652 -0.002594674 -0.0029753193 -0.0016073069 -0.0008896174 -0.0031255516 -0.00032661363 0.0024634027 0.0021310367 -0.0026762642 -0.0012882234 0.0011892425 -0.0033316545 0.00030836542 0.0022725442 0.0019624773 -0.0032284737 -0.0014387845 -0.0021994312 -0.00041472 0.0032181635 0.002373416 0.0012316183 0.0020316544 -0.0019521342 0.0035375932 -0.0027941184 -0.0024559798 -0.0004973645 1.5628138e-05 -0.0017343934 6.193109e-05 0.002344107 -0.00021104481 -0.00029409677 0.0012681481 -0.0024643105 0.0028137832 0.0030402525 -0.0038278664 0.0008645048 0.003896287 -0.002427297 -0.0028645066 -0.002865968 0.0030522991 -4.1229752e-05 0.0035924613 -0.003530757 0.00061837694 0.0007374684 0.00080229045 0.0012752288 -0.0030577024 -0.0030002007 0.0004966244 0.0017710316 0.002628628 0.0022623248 0.00012658989 0.0034867683 -0.0028489348 0.0015370079 -0.00071089185 0.0012863505 0.0025570153 -0.0021142955 0.001872679 -0.0030715067 -0.00054693816 -0.0025471759 -0.002157113 0.00335756 -0.0007523272 0.0011555139 0.0034588326 0.0038569865 -0.0026690294 -0.0009921029 0.004074696 0.0025187754 -0.0002448392 -0.0029718354 0.0014217517 -0.0027885218
. 0.0027649165 -0.00092311355 -0.0004152928 0.00035812907 -0.00015571002 8.900916e-05 0.0024603524 0.0011685138 -0.0012220759 -0.0008452987 0.0021407355 0.00038518102 -0.00044318737 0.0031480312 -0.0017454581 -0.0009533185 0.0034688967 0.002542442 0.0005155037 -0.0033935213 0.000468665 -0.0012585025 0.0035565535 0.00041541577 0.00054502895 0.00086590403 -0.0011687208 -0.0017905874 -0.00025673292 -0.0011999845 0.0023164924 0.0028893834 1.8620605e-05 0.0008882333 -0.0022208006 0.0008287717 -0.0021476273 -0.0031337047 -0.001843495 -0.0026253068 0.002244897 -0.0022332857 0.0029652894 -0.0025179558 0.0013763286 0.0036487186 -0.00239457 -0.003264409 -0.0011857704 -0.0005447151 0.00015887833 -0.0027489925 -0.0030923754 0.0013484375 -0.0031319493 -0.002495184 -0.00043907503 -0.0025195577 -0.002171192 -0.002889966 8.4601954e-05 -0.0015465895 0.0021000823 0.00060621614 -0.00135631 0.0022966252 -0.001820254 -0.0011999893 -0.00276721 -0.0016469145 -0.0004544734 0.0023276971 -0.0005096257 0.0013759814 0.0025367874 -0.0021478327 0.0011604195 0.0024438328 -0.0012540927 0.0026437517 0.0020500326 -0.0023477199 -0.0024023324 0.001943706 -0.00050398277 -0.0021535226 0.0031362409 -0.0015247763 -0.0014531622 -0.00032990333 -0.00059542136 0.00017981316 -0.0010920871 -8.291035e-05 0.00011443713 0.0010137225 0.0030997305 -0.0019703172 -0.00077624567 0.0019796796 0.0027823509 -0.001570646 0.0035393375 0.0030809836 -0.0012680014 -0.0004456228 0.0014679077 -0.0012323523 -0.0025751058 -0.002161852 -0.00042406103 -9.583274e-05 0.0013975962 -0.00070084323 -0.00031959696 0.0010786029 0.0017823181 6.063739e-05 -0.0017402946 -0.003913631 6.4732594e-05 0.0028087846 0.00082478166 -0.0028583931 -0.0025082233 0.0027367377 -0.0013362631 0.001650687 -0.0022100005 0.003379868 -0.0021195547 0.0015355838 3.4320423e-05 -0.0032806396 -0.0013010332 6.0116427e-06 -0.0022563206 -0.00070534216 -0.0030908817 -6.680656e-05 0.0031734342 -0.0013901556 -0.00057347066 0.0014038708 0.0032156454 -0.0023254284 -0.0028707667 -0.001370153 0.0033638554 -0.00015864187 -0.0026642059 -0.0010695575 0.0032163311 -0.0028416424 -0.0014887216 0.003323475 -0.0038149692 0.00078155025 6.770941e-05 0.0028765653 0.0028033499 -0.000987902 -0.0018661125 0.0029966426 0.00042045763 0.0020244478 -0.0029363728 0.0034834258 -0.00073791953 -0.0011150503 0.0004566127 -8.636114e-05 0.0015831151 -0.0005783736 -0.001032751 0.0008581833 0.0026565767 -0.0021278898 0.0009298464 -0.002545267 -0.0025449663 0.0003562094 -0.0033513065 0.0008489671 -6.7089524e-05 -0.0011181005 0.002335436 0.003975943 0.0030043276 -0.0013648691 0.0010443192 -0.0014124203 -0.0034634867 0.002194249 -0.00048937957 -0.0005069291 -0.00061782164 -0.0018232855 0.0013730195 -0.0016513214 -0.0034800791 0.00319283 0.0013257599 0.0032043916 0.0023601984 0.00077123573 0.003353206 -0.0008777755 -0.0022572312 0.0011615388 0.0012662788 -0.0022934854 0.0030864917 -0.0013574284 0.0035094717 0.0001715101 -0.0026976971 -0.0016863518 -0.0032254914 -0.0013523926 0.00019285752 0.0030907278 0.0028439674 -0.0026409128 0.0009162739 0.0006814495 -0.00064938306 -0.0032093003 0.00016501168 -0.0026205883 0.0021899613 -0.0022249385 0.0019367691 0.0037509627 -0.00047460265 0.0016419458 -0.00022276842 0.002003195 0.001669543 -0.0038809835 -0.000455503 0.00084987585 -6.118621e-05 -0.0001688944 -8.004883e-05 -0.0011915482 0.00044599109 0.0012561319 -0.0014381562 -0.0010249482 0.00030900005 0.00036117606 0.00015398324 -0.0014242957 0.00080583355 -0.0006631741 0.0012995052 0.00036103558 0.0014790121 -0.0025030982 -0.0020126395 -0.0012737353 0.0036908109 -0.0013305179 -0.0037946177 -0.00031154155 -0.0009521396 0.0024923682 -0.003838779 0.0010798428 -0.0033917956 0.00019008412 0.0020073655 0.002772946 -0.0021686307 -0.0013468511 -0.0020097983 -0.0022398129 -0.0040014624 -0.00072331185 -0.00014011758 -0.0023115273 0.0022419377 0.0005093297 0.0016806775 0.000831706 -0.000232135 -0.0021954537 -0.00083830155 0.0016035144 -0.001305837 0.001257398 0.0010566538 -0.0004682075 0.004052967 0.0035884934 0.001075656 0.0023181357 0.0024306455 -0.0024243116
mit -0.0016890259 -0.001760987 -0.0026366073 0.0027780042 -0.0007369772 -0.00252341 -0.001066151 0.002636075 -0.0010623751 -0.0015244302 0.0006911801 -0.001017841 -0.00067982415 0.0004216892 -0.0010447254 0.0023144458 0.0016386844 -0.0030853974 0.0021149612 -0.002582772 0.00033687823 0.0010939508 -0.0013348878 -0.0006836683 0.0027158984 -0.0013213819 -0.0029981472 0.0030201282 -0.0009595931 -0.001971064 0.002932595 0.0013711189 0.0016082824 0.0030534994 -0.0029727924 0.00198164 0.0008279474 0.0012022282 0.0006629521 0.0017307249 0.0013433238 0.0018112521 -0.00091585406 -0.0015749655 4.296295e-05 0.0012211167 -0.00093238405 0.0020734787 0.0015700277 0.0028648926 0.0010590785 0.0028673434 -0.0006160587 0.002962791 0.0009732385 -0.002288351 -0.0010640764 -0.0005095181 0.0017314553 -0.00039007835 -0.00081528665 0.0025781014 0.0030518703 -0.0004886761 -0.0019090805 -0.0013661556 -0.0014441456 -0.0029311974 0.00011717968 -0.0015395419 0.00096247793 0.0019920543 -0.0010527825 -0.0033909373 0.0007044939 -0.0019568035 0.0005475443 -0.00097052 0.0021035546 0.00054632133 0.0012176477 -0.0010392962 -0.0006487079 0.0034291518 0.00051252474 -0.0020491153 -0.0026418846 0.0005653795 0.002713404 0.0016248523 -0.002708841 0.0028751462 0.0013955173 0.0025253315 0.0035017647 -0.0018326426 -0.0027108395 0.0019185652 0.0029548039 0.0012762675 0.0023887502 -0.0005737256 0.0030479282 -0.0029188825 -0.0025135346 -0.0026281972 -0.0012862466 0.0017202666 -0.0018379479 -0.0027531001 0.0026226246 -0.0012004678 0.00275285 -0.0015524166 0.0011008827 0.0018347685 0.0009287754 -0.0008962341 0.0012575228 -0.003404788 -0.0008705166 -0.00040781306 0.00266832 -0.00101344 -0.0021009939 0.0018843998 -0.00021155938 -0.001557921 0.0022905322 0.0017137966 -0.0012195967 0.00061744556 0.003308032 0.0017891604 0.0019805788 0.001861177 0.0004421655 -0.0008069388 -0.0025679336 -0.0008328742 -0.00042590706 -0.0006658257 -0.002336963 0.0026499573 -0.0019550307 -0.0027355808 -0.0013704294 -0.00079179177 -0.002255229 -9.0343536e-05 -0.0015772239 -0.0008853513 -0.0024032302 0.00040631372 0.0013199816 0.00017220153 -0.0024418829 -0.0009849267 0.0022433386 0.0017802771 -0.0029504711 -0.0011577664 0.0003489392 0.00070414844 -0.0033684855 0.0014544713 -0.0026979467 -0.0021988053 0.00096068013 -0.00042486642 0.00077586976 0.0030575036 -0.0011645457 0.0032426552 0.00081074686 0.0033403747 0.0017914295 -0.0034087927 -0.0010515243 0.002261616 0.0016186684 0.0033138443 0.0019543725 0.0026176434 -0.0037223578 0.0011553484 -0.001108355 0.0017862137 0.0021677255 0.0008735813 0.002780692 0.00043214654 -0.0010086336 0.001980821 -0.0017721901 -0.00018548303 0.0031461949 -0.0020799667 0.0013183141 -0.0028677164 0.0030369912 0.0029185023 0.0004048169 0.00176444 0.0006030122 -0.0022987858 -0.0003978309 0.002622963 -0.0015642804 -0.0015018855 0.0016413482 0.0005239627 -0.0007278584 -0.0010833896 0.0022215887 -0.0020001966 -0.0015379474 -0.0030111359 -0.0020663843 -0.003147577 -0.0015696536 -0.0028560744 0.00024404885 -0.003223898 -0.0034899404 -0.0028064898 -0.0020888401 0.0020928525 0.0011154751 0.00020191076 -0.0009320857 -0.0027035107 0.0002156639 0.0005237371 -0.0002922641 0.00038855965 0.00053872186 -0.00034999248 -0.0023797255 -0.002659676 -0.0024982966 -0.0006974057 0.00060703687 0.0026614966 -0.00044727387 -0.0012640038 0.0033296563 -8.3423736e-05 -0.00081265986 0.0030833606 0.001172357 -0.0015467519 0.0023704197 0.0016176897 -0.0028632362 -7.569977e-05 0.00076036336 0.0020691194 -0.0010031223 -0.0011300888 0.0008037777 0.00045823923 0.0008472312 -0.001560278 -0.0024984796 0.002316729 0.0029398426 0.0031645156 -0.0033531338 0.00094770663 -0.0014259678 0.0030111657 0.0009785662 0.001787645 0.0010957094 0.0027333845 -0.0017022932 0.0029427896 -0.0014772249 -0.0015227103 -0.00058440876 0.0033415828 -0.002324796 -0.0006701094 0.002108263 0.00025497118 -0.0024829076 -0.0019314247 0.0028874946 0.002286124 0.0019276746 -0.00037429776 -0.0029975069 0.0013250333 0.0029792867 -0.0012425072 -0.0024046786 -0.0010277751 -0.001271472 -0.0011990648
und -0.0006037918 -0.001327785 0.0031404567 -0.0030844829 0.0014304832 0.0015871155 -0.00016313921 0.0038921186 0.003200957 -0.002114079 -0.0018570316 -0.0023312895 -0.0027867167 -0.00097579416 -0.001911226 -0.0032920535 0.0006081605 0.0012046447 0.002152507 -0.0011677404 -0.0013999466 5.389833e-05 0.0004978041 0.0027481706 0.000105343366 0.0024820797 -0.0031786207 0.0027397412 -0.000890299 0.0025390626 -0.0024463104 0.0005282023 0.00052034896 -4.6424895e-05 -0.0018486 -0.00285197 -0.002285452 -0.0028442289 0.0007255007 0.00039641396 -0.00073666184 0.0021570632 -0.00068181235 -0.0004945572 -0.0027800594 -0.0029476157 0.0031531537 -0.0018674538 -0.0019552405 0.001996367 0.002465218 -0.0021094263 0.00011632124 -0.0017233083 0.00026936777 -0.001037804 -0.0009212837 0.0010020973 0.0029782474 0.0021443048 -0.0031247623 -0.0018819211 0.0025771917 0.0007613649 -0.0016260707 0.0004259121 0.0033325315 -0.00010059696 -0.0034577495 0.00039072603 0.0021964782 0.0022194965 0.0016483192 -0.0020935722 5.5433266e-05 0.0002288392 0.0012332497 -0.0023530908 -0.0029248523 0.00043488794 -0.0028551964 0.001805781 -0.00023563064 0.00418728 -0.0017307637 -0.00022066076 0.002573346 -0.0011903924 -0.0011296154 0.00030057438 0.0011827706 -0.000841869 0.002186269 -0.0025284658 0.0013855451 0.0007494687 0.00318634 0.0019634713 0.0021062016 0.0027140875 -0.0031453925 0.0031482866 -0.0021994335 -0.00062658393 -0.0014757249 -0.0020800603 -0.0026215492 -0.0025696452 -0.0020819993 -0.00040420008 -0.0018845891 0.002072954 -0.003279611 -0.0016898594 0.0029489426 0.0024871838 0.0026742937 0.0014430678 0.000484107 -0.0026363516 0.0020692046 0.0013167516 0.0028450564 0.0022494774 0.002746772 0.0033114413 -0.0033560703 -0.0025515684 0.00045434205 0.002560545 0.0025307958 0.0022079083 0.002818398 -0.0024803057 0.002102833 -0.0010677531 -0.0033593846 0.002873962 7.298784e-06 -0.0016367119 -0.00074135256 -0.0018572184 0.0013609964 0.0016340646 -0.0006574966 -0.0027491536 -0.0016337368 -0.00040734498 0.0023177764 -0.001269063 0.00013880421 -0.00017313885 -0.0022970426 0.0004325161 -0.00023325761 0.0011445027 0.0009998891 -0.00083289034 -0.0010343196 0.003108432 0.0016879229 0.002198665 0.0010723149 0.002907695 0.0022840248 -0.0004388631 0.0030847748 0.0017922345 0.0016144809 0.00026137423 -0.0011060409 -0.0014006029 -0.002800422 0.0011409008 0.0032149754 0.0030536253 -0.00076311384 0.0016611221 0.0013136191 -0.0013296902 0.00043791195 -0.0014061596 0.0023976162 0.0017480529 0.0006139727 0.0010927722 0.0034350543 0.003012972 -0.00012024431 -0.0029247517 0.003085512 0.0023415603 1.3947732e-05 -0.00041163806 -0.0018432718 -0.0017492035 0.0028682076 -0.0012802938 -0.002069738 0.0031320823 0.0023530591 0.0032128016 0.00034125661 -0.0027225881 0.0029151249 -0.0014145123 0.0019508426 0.0019259396 0.003229429 -0.0032983255 0.0030627977 -0.003436866 -0.0024042942 -0.003147635 -0.0016081332 0.0023629994 0.0025842558 -0.0019422731 0.0006048791 -0.0015046034 0.0025168653 0.0019406759 -0.00020304184 -0.0015361381 -0.0025823356 0.0015265754 0.0006283575 -0.0009881449 0.0024785164 -0.001280537 -0.0029915622 -0.0009859299 8.623211e-05 -0.0018375238 -0.0022043898 -0.0027388304 0.003370458 0.0021525514 0.0001935439 0.0017883546 0.0029235918 -0.0005068759 0.0021846658 0.0014282182 0.0019043783 0.001958951 -0.0014284874 -0.00083624304 0.00026722992 0.0016196603 0.0013592216 0.0018962749 0.0017010221 -0.002696605 -0.0015621955 -0.002349511 0.0037252763 0.0018001349 -0.00034923045 0.0011933958 -0.0023357433 -0.0019159438 0.0014421844 0.0015093688 0.0008248656 0.0018894826 -0.0002488387 -0.0007707667 -0.00044817437 -0.0010155998 -0.0021060603 -0.0027537006 0.0021981027 -0.00015686272 -0.000358342 -0.0020955873 0.0033381823 0.00057220925 -8.6280495e-05 0.0008137851 -0.0023519066 0.00063139346 0.00096380134 -0.002763503 0.0014431212 0.0010739596 0.0020963063 0.0018931126 -0.0011219752 -0.0022714548 0.002678576 0.0013375406 0.0018399155 0.0021906307 0.0012348854 -0.0014273138 0.00023112042 0.0027264177 -0.0016514974 0.0026952764
zu -0.0023697119 0.0017856562 0.0006719227 0.0024891684 -0.0016732508 -0.0017386881 -0.001765613 0.0018953239 -0.0015960853 0.002593343 -0.0013312593 -0.003113946 -0.0017522816 0.002195279 -0.002197514 -0.0022347718 -0.0021762066 0.0022565385 0.001160284 0.00065523724 -0.0010082811 0.0016712166 -0.0017435142 -0.0006839759 -0.0019490579 -0.00027593513 -0.0010345596 0.0027587796 -0.00019572565 -0.003220891 -0.0017088772 -0.0023616448 0.0010681086 0.0031258927 -0.002075642 0.0029135596 0.0029426303 -0.0025163952 -0.0028317668 0.0033736827 0.0026708231 -0.0017585508 -0.0021116312 0.0025219584 0.0013966885 0.0030174728 -0.002398332 -0.0031577412 0.000706507 -0.0030309246 -0.0014808326 -0.0010185001 0.003095027 0.0031494028 -0.0011695597 0.0023066958 0.002918562 -0.00049678754 0.0033079984 0.0022837867 0.00080789806 -0.0013118548 -0.0017472546 -0.00097282976 0.0024693953 -0.0019036859 -0.0008209465 0.003247682 0.0008744317 0.0019243993 -0.002591778 -0.0001225632 0.0021299291 -0.0017589685 0.0026660382 0.0033412955 -0.0003468001 -0.00047406743 -0.00041545436 -0.0016439676 -0.0027622508 -0.000634759 -0.00093661906 0.002201631 -0.0022630123 0.0016958484 -0.0023007833 -0.0024873223 0.0033147067 0.0027728789 -0.0009489309 0.0011717826 -0.0018833749 -0.002841095 -0.0016537252 0.0027272198 0.0024063797 0.0031232636 0.0022254996 0.002325018 0.00048741224 -0.003307708 0.0018918181 1.1836415e-05 0.002247791 0.00021715667 -0.0010251348 0.0026515275 3.8230744e-05 -7.4966424e-06 -0.001660994 -0.002789873 -0.002628618 0.0029602025 -0.0031439173 0.0032031985 -0.0029602807 -5.9899205e-05 -0.00038968213 -0.0035293843 0.0029087993 0.0026317292 0.0011764079 0.0017192295 0.00011102808 0.003527421 0.002295313 -0.0036365439 -0.0014386909 -8.033018e-05 0.0010606141 -0.0011383332 0.0007040335 -0.00326118 0.0007591307 0.0018175138 0.0013242501 -0.0012492533 -0.0032022458 -0.0037314983 -0.00017392097 -0.0028157954 -0.0024442982 0.002179249 0.0025737952 0.00042945455 -0.0030092609 -0.0021624092 0.0028931578 0.0010321178 -0.001606539 -0.0028623657 0.0002667768 0.00096072926 0.0008937066 0.0011840598 -0.0024068311 -0.0036465987 -0.0024345065 0.00054563646 0.001537865 0.0014882123 0.00026658786 0.0017382483 -0.00020961305 0.0013285235 -0.0028852914 0.0027423208 0.0018811073 0.0022732911 0.00205719 0.0028430053 0.0002128854 -0.00045291136 0.0003896306 -0.0030473869 0.0026794 -0.002429332 0.0028565016 -0.001334422 8.238875e-06 -0.0026918177 -0.0034638455 -0.002619248 -0.0029458257 -8.139689e-05 -0.0019150141 -0.0011152801 -0.0016039212 -0.0019479234 0.0025696703 0.0015591814 0.0023826046 0.0024546518 -0.0018363058 0.0022764711 -0.0031208624 -0.0011068359 -0.0025411379 0.0012614172 0.0004212861 0.002549211 0.0009694345 -0.0022230889 0.0026625793 -0.0021005264 0.003060478 0.001404771 -0.0013550033 -0.0017072501 -0.0014522662 -0.002344311 0.0030745396 -0.0010080517 0.0027711915 -0.0032852755 0.00033370598 -0.0011121589 0.0019955847 -0.0032423052 0.0023957675 -0.0017611759 -0.0022093377 -0.0021978694 -0.0013032065 -0.0011748838 -0.00094879285 -0.0025954372 0.00011250422 -0.00016780137 -0.000574192 0.0010817271 -0.0024861167 -0.0007416905 0.0014249735 0.0029166108 -0.0030063393 0.0021079623 0.0019696006 -0.001861109 0.0030939986 -0.0033013495 0.0024149213 0.001956395 0.0005819325 -0.002180608 -0.0012248291 -0.0012445903 0.00051914796 0.00070003053 0.0027008054 0.0035213435 0.0030830503 -0.0012380674 0.0027873716 -0.00018359872 0.0020071238 0.0009661462 -0.00057589106 0.0010352031 -0.0016033256 -0.0018133677 -0.00213997 8.322332e-05 0.0017449213 0.00018860136 0.00078453764 0.0013755088 0.0023283095 -0.0024802536 0.0005443562 -0.0026534118 0.0012269551 0.0033845154 0.002779421 0.002608258 0.0028558017 0.002453892 0.0017168289 0.0028888572 -0.0015928718 0.0031756195 0.0016465287 -0.00064804504 0.002620118 0.0019129494 0.0028977275 0.0011022162 0.0032188268 0.0005264876 0.0033168998 0.0018013642 0.002245999 -0.0011605698 0.0027703212 0.0029407667 -0.0005483209 -0.00064132834 0.0014553954 -0.0026841543
eine 0.0032752617 -0.0029929527 -0.002203469 0.00093251525 0.0020947596 -0.0019285929 0.0010963768 0.0035696072 -0.0023375894 -0.0022026098 -0.0015832111 -0.0012822074 0.0005290289 0.0032633084 0.0020987266 -0.00017560908 0.0009904852 0.0029753782 0.0030660243 0.0016549006 0.0020074379 -0.0027696604 -0.0010959028 -0.0019051662 0.0020741075 -0.00070639106 -0.0032027778 0.002481784 0.002666232 -0.0013614609 0.0030688748 -0.00026880272 -0.0010963778 -0.00017694688 -1.6671229e-05 -0.001058881 0.0010265429 0.0017933834 0.0023770223 -0.0028170927 -0.00081677985 -0.0019625141 0.0025835691 0.0020981715 -0.0013477333 0.0009784515 -0.0018933176 0.00010932514 0.0033119388 -0.00072254933 -0.001616086 -0.0023899572 -0.0010585552 -0.0001064746 0.0010185622 0.0034755752 -0.00096949853 0.00081403815 0.0033105132 0.00048071766 0.00042821525 0.003256627 0.0030659707 0.002586664 -0.0021806005 0.0034311926 0.0020406146 0.0031652288 -0.0008324396 0.0010754805 0.0023091494 -0.0012419771 0.0024044274 0.0007263518 0.003219417 -0.00084790523 -0.0011979174 0.002239468 -0.0031683557 -0.0022026114 -0.0021442159 -0.00033727198 -0.0008475368 0.0027784035 0.0030924159 -0.00035685592 0.00042602446 0.00076696015 -0.0003319867 -0.0027924806 0.0026339476 -0.0014319252 0.0015746871 0.0030607467 0.0011512503 0.0013661969 0.0015365805 -0.0009436405 0.0011771694 0.00017690472 0.0019136816 0.0018053491 0.0008688636 0.002065708 -0.002900389 0.00194479 0.0031088754 -0.0013799828 0.00019622316 -0.0017389039 0.00026014698 0.00092998723 0.002692876 0.00021962172 0.00072405254 0.00054336846 0.0028834068 -0.001863658 -0.0019180235 -0.0015920385 -0.00074276386 0.0019456383 -0.0025985716 -0.0008497842 -0.0026892857 0.0019616378 -0.0008857239 -0.003222379 0.001360862 0.003246875 -0.00096687075 -0.0017533222 0.001151924 -0.00059748726 -0.0034570084 0.0030000687 -0.002649004 -0.0017722296 -0.0011195367 -0.0022592426 0.0006315004 0.002972879 0.0013905639 0.002784119 -1.8352326e-05 3.686561e-05 -0.0011370229 -0.0031052213 0.0012986489 0.00051467447 -0.0030557807 -0.0019269113 -0.0032245654 -0.0020590601 0.0014936591 0.002987959 0.0010065247 0.0005396964 0.0026547725 -5.838019e-05 -0.00047484587 -0.002914822 -0.00030821047 -0.00086357736 1.0194898e-05 0.0024083105 -0.002232084 -0.0012027835 -0.002358782 -0.00076890434 -0.0013683742 0.0007259076 0.0011033535 -0.0015836146 -0.0013894704 0.00040532113 0.0017557944 0.0015883741 -0.0009534709 -0.0013719273 -0.0020000248 6.166045e-05 0.00043817025 0.0004980787 0.002192284 -0.0010621661 0.0003041388 -0.0014935402 -0.00031772608 -0.0029192993 -0.00017708186 0.00038211263 -0.0032163772 0.0029653045 -0.003028341 -0.0033175529 -0.0028426575 0.0022936515 0.0018394366 0.0029948493 0.0007279894 0.00039540892 -0.0008571488 0.0031777653 0.0010061754 0.0012945331 -0.000368562 0.0005760212 0.0022178618 -0.00031837603 0.001119355 -0.0004284001 0.0017106008 0.0011504575 0.0009916393 -0.0018168389 -0.0018118656 0.0009537227 -0.0023401289 -0.00021937536 -0.00025149705 0.0011354794 -0.0029648857 0.0027363729 -0.00058085506 -0.0018055469 0.0014325784 -0.0007157496 -0.0026531646 -0.001459705 -0.00010919455 -0.003096908 0.00022201239 0.0010551689 -0.0012882042 0.00090762816 0.0009751788 0.0031116402 0.00063220324 0.00027088152 0.0010871352 -0.0008556902 -0.002911772 0.002784275 -0.0005570251 -0.0035273212 -0.0020878017 -0.0013961826 0.0013284067 0.0018005173 0.0021817058 -0.0021207277 0.0003075732 -0.000848916 -0.0020152177 0.0023620047 0.0015717691 -0.0009721492 -0.003021814 -0.0018291231 -0.00010813494 0.0026872463 0.0022660724 -0.0031884203 -0.0034849893 0.0022990159 -0.00052344706 -0.0010123817 0.0016556216 -0.0018706517 0.0015671877 -0.00021615604 -0.0023233828 2.1184513e-05 0.0022907709 0.0034011884 0.0008802779 0.0018702055 -0.0020330332 -0.00025727687 -0.0017375919 0.00045583933 -0.0006125215 -0.0011653738 -0.002476966 0.0033820402 0.00076912483 -0.00066382095 -0.0014386984 0.0026468232 -0.0019777804 0.0014309369 0.00031383356 0.0027921465 0.0026049232 -0.00062036415 0.0009847947 -0.0005743871 -0.0029594933 -0.0011015428
mein 0.000471867 0.002522018 0.0032852637 0.003030992 -0.0027351475 0.0019700374 -0.001660869 0.00039487603 8.948096e-05 0.0019763738 0.0015952722 0.0014690913 0.0030631707 0.00016045343 -0.0020522957 -0.0025517012 0.002403353 -0.0015520887 -0.0009285507 0.0011111359 -0.00068854843 -0.0023051386 -0.0005029714 0.0004006079 0.00075720047 0.0021117236 -0.002102029 0.0009706863 0.0022186958 0.00039789433 0.0018917688 -0.0016659719 0.00218835 -0.0025749782 0.0010603477 -0.0029558984 -0.00075792597 -0.0031939012 -0.00043534863 -0.0016121868 -0.0014281955 0.00018825775 0.0010352167 -0.0005789551 -0.0025804474 -0.001696692 0.000389888 -0.0012807503 -0.0029850472 -7.2304625e-05 0.002360623 0.002108782 -0.0034437065 0.0012703777 -0.002216497 -0.0027292334 0.00024227846 0.00013138108 -0.002231304 -0.0021483614 -0.0006923003 0.0023524642 -0.0025633778 0.0026065556 -0.00031301455 0.00054349506 0.0032777367 0.001761896 -0.001438356 0.0011583756 0.0012372916 0.0022107908 0.00027289244 -0.001629374 0.00057644496 -0.0015929219 0.0002530928 0.001879788 0.0015057246 0.003328809 -0.0025050363 -0.0019058234 0.002090796 0.0011490913 -0.0021694792 0.0002163668 0.00086032524 -0.0007144818 -0.0011990792 0.001476668 0.0034183594 -0.0024617172 1.3192891e-05 -0.0008277299 -0.0019256185 9.361739e-06 -0.0015144118 0.00298587 -0.0020684325 0.00132435 -6.415388e-05 0.0013859408 0.001028893 0.0035388689 0.00034455946 -0.002149109 -0.0003544174 0.0007332694 -0.0015947862 -0.0026112995 -0.002001592 -0.0022215166 0.0020511362 0.0013827548 0.0025898437 0.002312691 -0.0019406542 0.0009359114 0.0030580855 2.9649143e-05 0.0010736985 0.0022897997 -0.00277738 0.0031534843 0.0023328662 0.003181492 -0.0027873034 0.0017974745 0.00221486 -0.0001102992 -0.0020538564 0.002045803 -0.0020803139 -0.0023964108 0.0010526074 0.0029108033 0.00261998 -0.0016197994 -0.0034093992 0.002609206 0.0021945883 -0.0016661924 -0.0029955595 -0.0014481433 -0.001141276 -0.0013361556 -8.0879174e-05 -0.0003259531 -0.00081209565 -0.0022636468 0.0032739958 -0.0019280838 -0.002394686 0.0023523725 0.0010271076 0.0030204798 -0.0019963775 -0.0026170758 0.00025013994 3.579873e-05 -0.0031350187 -0.000554992 0.00067412405 0.0021823167 0.0021139993 0.0010159996 -0.0013448464 -0.00043115343 -0.001470212 0.0024957932 -0.002470172 0.0007404874 -0.000435942 -0.0018431536 -0.002225545 0.001982782 -0.0028622227 -0.0004980515 0.0009930634 0.002639771 -0.0026414602 0.0014223536 0.0030164788 -0.0023525485 -0.0015364924 0.0014964009 0.002184744 0.0010354451 0.0027692537 -0.00017649465 0.0008285913 -0.00059529545 -0.003211095 0.0011353426 0.0007316636 -0.0030835615 -0.00024143496 -0.00016147748 4.987074e-05 0.0027993214 -0.001015851 -0.0018090615 0.0024569565 -0.002364582 -0.0028879645 -0.0007112453 -0.0027365242 0.0005036721 0.0006474274 -0.0009447499 -0.0021375779 -0.00038657148 -0.00042969562 0.0010620444 0.0029026957 0.0019018886 0.002461592 -0.003666737 0.0026416166 -0.0010164283 0.0028247442 0.0007810235 0.0010068426 -0.0034604466 -0.0033095237 0.0029301576 -0.0008488211 0.00083063997 0.0020254315 -5.9592414e-05 0.0032989085 -0.000529204 -0.0032023499 -0.0020573272 -0.0006394519 -0.0027995596 0.002709732 0.0009412655 -0.0026851487 0.0022743505 0.0031943093 0.0017276006 0.0022931388 -0.003028573 0.00032257146 -0.0034822605 -0.0011101404 -6.120458e-06 -0.000103407365 0.00065686787 0.001305537 0.00090003153 0.0019029806 0.0026068802 -0.0023585716 0.0027006452 0.0023767168 0.003358195 0.0011949729 -0.0012716841 -0.0010820674 -8.363015e-05 -0.00020503381 0.0027773166 2.1728342e-06 0.0012482116 0.0014791022 -0.0026653388 0.0018577863 0.0027954984 -0.0007386278 0.00062300486 -0.0021742291 -0.0018481333 0.0029863499 -0.0005998473 0.002414167 0.00077704416 -0.0011951451 0.0010262098 -0.0012765843 -0.00051536754 0.00043188187 0.001695143 -0.00068009074 0.0004269074 -0.0029547596 0.0033202972 -0.002999678 0.002464516 0.0015696508 -0.0017675317 -0.0016900819 -0.0026212342 -0.0012230129 0.0028381662 0.0033870684 0.00067602424 0.0005032063 0.002837036
in -0.0016361906 -0.00023223982 0.0010515245 -0.0021379474 -0.0032543552 -0.0032142368 0.0031472533 0.0021762908 -0.0016407376 -0.0028908097 0.0004897886 0.00089226244 -0.00049123523 0.00044907315 -0.0014866767 0.0013594943 0.0006112402 0.0030918051 -0.0033058345 -0.0019182208 -0.0030086203 -0.0002757652 -0.0024707548 0.0016632441 -0.0021223729 -0.001937963 0.0015009156 -0.0027379796 0.00036987787 -0.0026268847 0.0033507147 0.0028520585 0.00067005766 0.0019131411 0.0014664981 -0.0019292589 0.0033228772 -0.00332737 0.0027388358 0.0010294499 -0.0010959911 -0.0012852121 0.0030719487 -0.0018687245 0.0028017224 -0.0018570663 0.002876647 -0.00016084836 0.002750121 -0.0009280134 0.0020441448 0.0030005658 0.0008114389 0.00058021856 0.0015828208 0.002839552 0.0029559617 0.0029769966 0.0024256848 0.002649094 0.002943761 -3.3822907e-05 -0.00035696418 0.000538297 -7.1226736e-05 0.00029625115 -0.0027991405 -0.0031122384 -0.00089845626 0.0029727784 -0.0011901209 -0.002279767 0.0017661295 0.00024073115 0.00069288677 0.0013744422 0.0010777765 0.0019902731 0.00028637997 0.00042108906 0.0030104192 0.0008644387 -0.0015925812 0.002559053 0.0017426788 0.00090318883 -0.0010864264 0.0011899729 0.002394358 0.002276961 0.0004079765 -0.0028439586 0.00013082808 0.00015836276 0.0014127148 -0.0029273662 0.0033741475 -0.002323584 0.0018507055 -0.003095737 0.003209557 0.0024453555 0.0006024686 -0.0010403721 -7.2466755e-05 -4.359361e-05 -0.0021138347 0.0019580398 0.0005480093 0.0012444743 -0.0024760696 0.0028514767 0.00013385792 -1.75214e-05 -0.003110662 0.0014489564 0.002312848 0.0024615075 -0.0020194992 -0.002889796 -0.0018285761 -8.926467e-06 -0.0026952976 -0.0026894761 -0.00059920084 0.00056388765 -0.0031804661 -0.0014081394 0.00022804317 0.0024415322 0.00062369386 -8.212838e-05 -0.002387302 -0.0025696144 -0.00033118582 0.0026121242 0.0016686085 -0.00058677135 0.00020079476 -0.0035163339 -0.00042566474 -0.0017376763 0.0018230405 -0.0007483693 -0.0015044736 -0.0033145484 -0.00058220996 -0.0025204374 -0.00046126204 -0.0014794797 -0.00072192465 -0.0013052967 -0.0027268345 -0.0005087284 0.00066542905 -0.0012639668 -0.0028067995 -0.0013924175 -0.0030585167 -9.152526e-06 0.0019527194 -0.0009874719 0.0008729479 0.0016567745 0.0027432218 0.0018449508 0.0032563263 -0.0031397452 -0.0027248736 -0.0019553013 -0.0026676683 -0.002663601 -0.0026221592 -0.0009212164 0.0005576796 -0.00096145313 -0.0029925061 0.0015153222 0.00033654526 0.0015812287 0.0022858125 0.002734993 -0.00041120933 0.0012325378 -0.0018733152 0.0005336294 0.0017630389 0.0035666963 -0.0010182199 0.0006826522 -0.001795757 -0.0007674759 0.0024424458 -0.0012787963 -0.00037221707 -0.0031366528 -0.0031513516 0.0028364873 -0.0018740802 0.0016472107 -0.0024230417 -0.00070327916 -0.0026876675 0.0025359138 0.002109624 0.001719847 0.002836403 -2.3027456e-05 -0.0031255563 0.0029875278 -0.0016155082 0.002470826 0.0018540605 -0.00041362882 -0.002475691 -0.0005220627 0.0019223009 -0.0026872093 0.00020885332 -0.0027538554 0.0028774487 -0.0009913996 0.0030274312 -0.0020699643 -0.0033219233 -0.0028993834 -0.0012793238 0.001520278 -0.00013844512 0.003086649 0.0010426386 0.0011781001 0.0009927597 0.0028815253 -0.0009429733 0.0025067048 -0.0030683547 0.0008202212 -0.00013455348 -0.00014286934 0.0023973575 -0.001083725 -0.0007904662 7.4182084e-05 -0.00010404179 -0.0014225821 0.002160482 -0.0022606514 0.0026184358 6.935552e-05 0.000996407 0.0011885702 -4.732204e-05 0.0006128026 -0.0012727386 0.0015778467 0.00027830165 -0.0010381963 -0.0031188144 -0.0034309472 0.00019804943 -0.0018665852 -0.0001632491 -0.0016813686 -0.003095374 0.0002905264 0.0021733819 -0.00057788834 -0.002587782 0.0011131555 -0.00021372527 -0.0019329018 -0.00038174438 -0.00012041241 -0.00091221667 -0.0030833462 0.0026358417 0.0014016982 -0.0011221215 0.002445827 0.00017085357 0.0024471893 -0.0005516517 0.0025193184 -0.00013030354 -0.0019248831 -0.0017493038 0.0032859312 0.00018740252 0.00041255905 0.0029590025 -0.0017883643 -0.0005485674 -0.0026924086 -0.0019712353 -0.002626748 0.0013866432 0.0008982257 0.0019992036 0.0006969075
sein 0.00072785333 0.002142591 -0.0007376041 0.0010736649 0.0027838866 4.0528284e-06 0.002272897 -0.0017533214 0.0021489516 0.0014094629 0.0017670002 -0.0033701586 -0.00023888217 0.0010986308 -0.0019899227 -0.002525191 0.002285795 -0.0021236914 -0.0017205791 0.0025267585 -0.0023073314 0.0026359372 0.0004006656 0.0014758387 -0.0009859062 -0.0017603817 -0.0032223777 -0.00022845517 -0.0018399017 -0.0012495863 0.0027649712 -0.0025863522 -0.0019999724 -0.0017941287 -0.0022909716 -0.0028502524 -0.00028285108 0.0030396054 0.0027294173 -0.0016032736 -0.002787147 -0.0008874324 -0.003001865 -0.0017428474 -0.0018938924 0.0011823925 -0.0024338413 0.00044022457 0.0008874889 0.0019243064 -0.00058735895 -0.0031940364 0.0016561885 -0.0018086963 0.0014651378 0.0008788551 0.0030844642 0.000671113 -0.00053324364 0.0021258115 -0.002277661 -0.0028037352 0.0012246071 -0.0008445933 -0.0014976369 -0.0005403696 -0.0032116773 0.00022970699 -0.0004979231 -0.0010406189 0.0008755316 0.001624216 0.0022861427 -0.002754579 -0.0015641369 -0.0027675566 -0.0031182647 -0.0010835011 -0.00056792604 -0.0025527463 -0.0017926666 -0.0007967211 0.0020784666 0.001004111 0.0027693678 -0.0028229416 -0.0015459926 -0.00019039698 0.0032480345 0.0002521184 0.0006483011 0.00043720665 0.0009991162 -0.003105169 0.0012202824 0.0021258835 0.0019289867 0.0014641469 -0.0028019024 -0.001292505 0.002791592 -0.00020638836 -0.0029132327 0.0017368877 -0.0019163971 0.00200899 0.0017988598 -0.0016427806 0.00056189304 0.001788438 -0.001273999 -0.00048005805 0.003005679 0.003076834 -0.0032318984 0.002640254 0.0033667411 -0.0009145969 0.00095092837 -0.0012906065 0.002904838 0.00016007977 0.0020070446 0.0031453162 0.0014299705 -0.0021543491 -0.00067599455 0.00014590014 0.0006745872 0.0012207093 0.0031765217 0.0016465938 0.0034497718 -0.0033004887 -0.0020205725 0.0008271683 0.0010376327 -0.0004543679 -0.0025359893 -0.0014572031 -0.0027875786 0.0028780783 0.0011233712 -0.0025396517 0.0012061489 0.0012193373 -0.0021017354 -0.0021370752 0.00047998014 0.0028229936 -0.0031225209 -0.00026109055 -0.0022597155 -0.0004480212 0.001122835 -0.0015820797 -0.0012715098 9.923788e-06 -0.0021718058 0.0027218054 0.0014907664 -0.002877152 -0.0009367648 0.0010587301 -0.0028781882 -0.0023978911 -0.0027204792 -0.0017139436 0.0028388484 0.002723471 0.00073013094 -0.0028388568 0.001915149 0.0016108633 0.00017041616 -0.0029167489 -0.00067584653 -0.00013050764 -0.0025523277 0.0008595978 4.6251607e-05 -0.0021429327 -0.0029264286 0.0019990362 -0.0030160735 -0.002002537 0.0021566756 0.00013861428 -0.0009593215 -0.0020400197 -0.00024665598 0.0017224489 -0.002288376 -0.0016228063 -0.0016017293 -0.0016820558 -0.0026678666 -0.0033904377 0.0025342447 0.0025981106 -0.0015549383 -0.0030085903 -0.0006485336 -0.0011995407 0.003100339 0.0009199446 -0.0019476587 -0.00087543885 -0.0033196264 0.000568884 -0.0013045942 -0.0010803809 0.0016898203 0.0024638386 0.0015804002 -0.0023109175 0.001994257 -0.0036680645 -0.0026659318 -0.0028232555 -0.0008018402 0.00011845165 -0.0013713354 0.00043062778 0.0029730608 0.002201107 -0.00028087938 0.0029575566 0.0004526031 -0.0006257158 -0.0021801142 0.0020508787 -0.0030007556 -0.00042541022 0.0023929025 -0.0008314519 0.0006799044 -0.0026345397 0.0018026081 0.0020976362 -0.0029459423 -0.00125739 0.0026165617 0.0010923501 0.000102551014 -0.00016439322 -0.0031895258 0.0032594427 -0.0006795152 -0.0015069398 0.0010556398 0.00046746517 -0.0018961898 0.0019957316 -0.0010941887 -0.0020410607 0.00266916 0.0022359989 0.0027111075 0.00026928875 0.0002857973 -0.002567411 0.0017857455 0.0027919267 -0.000500194 -0.000643182 -0.0010293098 4.0128027e-05 -0.0027868163 0.0019504543 0.0003735184 0.0029919469 -0.002145245 -0.0015790676 -0.0019296965 -0.0021486047 0.001026727 0.0018118802 0.00011190178 0.0011744956 -0.0030823986 -0.00030186697 -0.0025964316 0.0010216587 -0.0010077156 0.0030938655 -0.0013473029 0.0023860189 0.0013437778 0.0005296625 0.00015771194 0.0030871194 0.00082706776 0.002786399 0.0014297062 0.0021329217 0.0018283789 -0.0025619569 -0.0017457558 0.0001874654
ich 9.065329e-05 0.0010861411 0.00032591715 0.002553587 -0.0015511408 -0.00011706083 0.0026106862 0.0015666267 0.0012975815 0.0012156728 -0.00030039143 -0.002846144 0.0008706344 -0.002893956 -0.0009319973 -0.003611948 0.00010357748 -0.0024050535 0.0024929966 -0.0019324477 0.0033974564 -0.0033366506 -0.0011222938 0.0006516183 -0.0009795012 0.0005444222 -0.0016078212 -0.00035586627 -0.0021304516 -0.00366127 0.0022105046 3.7859474e-05 0.0023515797 -0.0025127053 0.0010894891 -0.0031195255 0.0026677405 0.0018023372 -0.001960183 0.002970435 -0.0020040327 -0.0030657966 0.0006414783 0.0009982446 -0.0025296523 -0.0026712155 0.0032050689 0.0005762102 0.00045745756 0.001047018 -0.0009929584 0.0007393056 0.00049354316 0.0035383212 -0.0021020684 0.0011182764 0.0023173618 -0.001955317 -0.0028412952 0.0027920878 0.0024064765 -0.0013634383 0.0018309724 0.00031370833 -0.0018254576 -0.00025825237 -0.001485234 0.0022895068 0.0003738981 -0.0028741038 4.8036167e-05 -0.00076908583 0.0025030626 -0.0005543873 0.0027344471 0.0008992727 -0.0015215273 0.002967412 0.00075752137 -0.0010418803 -0.0018633602 -0.0011578442 -0.0018032595 0.001918735 -0.003037326 -0.0020332488 0.0010580083 0.00020088074 0.0025231151 -0.0014137159 0.00021299937 0.00083090825 0.0018714742 0.0005765664 0.0034907996 0.0017620528 -0.0021494161 -0.00047572821 -0.002916962 -0.0016800816 -0.0006943762 -0.0032748836 0.003455966 0.00089833845 -0.00024060521 -0.0022096075 -0.002807442 -0.0032185854 0.0024731928 -0.00082295854 0.0013587296 -0.00148318 0.003235117 0.0013112221 0.00016346949 -0.0011585661 0.000511096 -0.0008594133 0.002724917 0.0009266284 0.00039213197 0.0015763318 0.0014526788 -0.0021461078 0.003072667 0.0009893063 -0.0019843087 0.0025546837 -0.00043009213 0.003127467 -0.0004523627 0.002630552 0.0011755009 -0.0021725274 -0.0013779113 0.0033240533 0.00022641772 -0.0021934905 -0.00030234532 -0.0013326672 0.0005988337 -0.0029918859 0.002259128 0.00057109917 0.002824745 0.0011791617 -0.0018792162 0.0009891221 3.79366e-05 -0.0035762878 0.0029003138 0.0027822852 0.0032210858 -0.0014828412 -0.002589507 0.0017678597 -0.0031403247 0.0024695448 0.00081916247 0.0023511779 0.0020612355 0.00013537898 -0.0010643577 0.0002634558 0.0031019724 -0.002409791 -0.0003663002 -0.0005839158 0.001435019 0.0027839236 -0.0017466311 0.0012814075 -0.0014865311 0.0011967479 0.002934519 0.0012512135 -0.0016173312 -0.0013163307 0.002679407 0.0032852401 0.0017275313 -0.0007121687 -0.0009074602 -0.0021283287 -0.0018412783 0.0008907316 -0.001658974 -0.0016541821 0.00283774 0.002632938 0.002967453 0.00045367936 -0.0034480041 -0.002463892 0.00063007785 -0.0033513405 -0.0024782445 0.00044941722 -0.00095452234 -0.0032047825 0.0019417901 -0.0028117837 -0.0024956763 -0.00049447827 0.00067349424 -0.00049881265 -0.0016541375 0.0026346561 0.0029132557 -0.002646554 0.0032752391 0.002149299 -0.0025774164 -0.000741627 0.0016136626 0.0022736345 -0.0016285168 -0.0030603495 0.0010367777 -0.0032603156 -0.0020226478 -0.00046349817 0.0016395086 -0.002222797 0.0014105432 -0.00023238685 0.0010324948 0.0020432156 0.00033628388 0.002636626 -5.180402e-05 -0.0029549764 0.003087442 -0.0012879154 0.0012805574 -0.0011992679 -0.0021758687 -0.0024412996 0.001798791 -0.0008281532 0.00075458904 -0.0031976348 -0.00169626 -0.001828621 0.0030023302 -0.0033497266 0.0018324049 -0.00041499268 6.151682e-05 0.0031166452 -0.00093380705 -0.0020762654 0.0004129573 0.0026838554 0.0025746047 -0.001196657 0.0013615361 0.0017591233 -0.002158039 0.002112953 -0.001950878 0.00083503214 0.0019307468 0.00087259524 -0.0019922364 0.000764517 0.002817914 0.0031975233 -0.0036120263 0.0019155882 0.0014481546 -0.000714141 0.0030734756 -0.0011410748 -0.00029479063 -0.0018078346 -0.0010418567 0.00036515744 -0.0017131035 -0.0017845896 0.0022697174 -0.0016646032 -0.0021430142 0.0026187133 0.0030058536 0.0015466121 -0.00031904108 0.00046535945 -0.00040919997 0.0024299351 -0.0017648339 0.0008040916 0.0015039181 -0.000660483 0.0008313812 0.0018112636 0.0034082152 0.00067022204 0.0034925228 -0.0023214554
für 0.0016157532 -0.0009838741 -0.0014325868 0.00041349523 -0.0014178602 -0.001978234 0.0012173278 0.0032505968 -0.0022371968 -0.0031877402 -0.0010459737 0.0024710314 -0.003296654 0.0032142862 -0.00016792287 0.00048781006 -0.00045000672 -0.0017921823 0.0010505565 0.001917326 -0.0023047032 -0.0005965298 0.0006996714 0.0014174007 0.0023989493 -0.0011582782 0.0021920933 -0.0019151708 -0.00084668596 0.0028160491 0.0018468606 -0.002870782 -0.00045757173 -0.0029677558 -0.0006147279 0.0019851527 -0.0024066197 0.0017465075 0.002103823 -0.0011257138 -0.0032930302 -0.00096971047 -0.00077161496 0.0012309894 0.003059943 0.0008503128 -0.0006079581 0.0010112834 -0.0021763283 -0.0002841446 -0.00038258193 0.0032905673 -0.0020216785 -0.0021998542 0.0006231591 0.0010929626 -0.0022357027 -0.001806526 -0.00033023176 -0.0011509324 -0.0029347187 -0.0013453194 -0.0010269416 0.0021948956 0.00020931069 0.0006472289 0.00016704095 -0.0009876515 0.0008760118 0.00015045464 0.0020327389 -0.00019468217 -0.0027973126 0.00019745162 0.0034007663 -0.0016272359 -0.0019036749 -0.00065741595 0.002743568 -8.270838e-05 0.0031489797 -0.0028490745 0.0029515107 -0.0027842685 0.0030969067 0.0005751123 0.00084553444 -0.0018707061 0.003119914 0.0018877465 -0.001686507 -0.0031597586 0.002345292 -0.0018212328 -0.0029782914 0.0011843888 -0.0015077767 -0.0024652912 0.0031365633 -0.0004862846 -0.0004690175 -0.001372836 -0.0012643404 -0.0013892505 -0.001783104 -0.0019696825 -0.0026369873 0.0031892154 0.0018229003 -0.0011842983 0.00074541854 -0.0025318463 0.0024861463 0.0028065303 0.00015491879 -0.002192898 -0.00090507657 0.0016133274 -0.0008271305 0.0007332712 0.0031739634 0.0016862499 -0.0015952081 0.0018980647 -0.0009051341 -0.001919683 0.002301786 -0.0032578507 -0.0003624896 -0.00023964468 -0.002803795 -0.00017078588 0.0020020162 -0.0021707756 -0.0024163404 0.0022207717 -0.0013261595 -0.0027163613 -0.00013012085 -0.00041917784 0.0025561082 -4.4474837e-05 0.0025340514 -0.0031805662 0.0014763721 0.0019182 9.9419914e-05 -0.0011008978 0.0004889431 -0.00046118392 -0.002605772 -0.0024959387 0.0004184381 -0.00080734666 0.0033055947 -0.00023041992 0.0017034116 0.00046700911 0.0026368496 -0.0028045587 0.00081214606 -0.000508743 0.0004890118 -6.826367e-05 -0.0023424597 0.0029727537 -0.0008686211 0.00077059376 -0.002261288 0.0016027904 0.0031034844 -0.00035528414 0.0022085395 6.9409543e-06 0.0027703575 0.0032544439 -0.00018572992 -0.0007623331 -0.0031600615 0.0033418143 -0.0009525694 0.00094569067 -0.0007455453 0.0027305528 0.0025308824 0.00035884517 0.001235546 0.0024500438 0.00084190886 0.001852618 0.00018618107 -0.00081341696 0.0014506119 -0.0010865536 -0.000804935 0.002811056 -0.0030592922 -0.0012526495 -0.00094482745 0.0017950129 0.0025287452 -0.0020750272 0.0019232498 -1.0062314e-05 -0.002950884 -0.0008959527 -0.00049851864 -0.001242056 -0.00025935328 -0.0018544653 0.0019843217 0.002918161 -0.0006050722 0.0010725167 -0.0001238127 -0.00026970063 -0.0025900847 3.1145468e-05 0.00096588023 0.0021611636 0.002130335 0.001175932 0.0014251068 -0.0026528102 -0.00057269825 -0.0019511933 0.0023245462 0.0025441472 -0.0014971676 0.00041764212 0.0017357301 0.00049125036 0.0002923753 -0.002047557 0.0031030518 -0.0023588662 -0.0018545798 -0.0020766205 -0.0019589087 -0.0015180991 -0.002994761 0.00025859268 -0.0012537111 -0.00075999385 0.0020391545 0.00092703337 0.0006756276 -0.0005115663 0.0032971364 0.00019884155 0.0018100175 0.0031337426 -0.0031831472 -0.002975462 0.0030497187 0.0009521253 -0.00038104114 0.0016427552 -0.0016471795 -0.0022275038 -0.002652683 0.0025127998 -0.0006123999 -0.0028510073 -0.0022264312 0.001985463 -0.00060704275 -0.0018603253 -0.0007991971 -0.00044710754 -0.001215466 -0.00079758087 0.0013560358 0.00060195767 -0.0009968317 0.0011587961 0.0018611648 -0.0029043218 -0.0028707741 0.0020869114 -0.0029332677 0.00023012531 -0.0030114036 0.002849691 -0.0015650927 -0.0020522217 -0.0006599957 -0.0002641844 0.0024578986 0.0030984238 4.702422e-05 0.0012726699 0.0016228427 6.0208415e-05 -0.0016271123 0.00013838778 0.0008440743 0.002742735 -0.00100161 -0.0034859346
haben 0.0018229751 0.003498843 -0.0023833585 -0.00020062481 -0.00172611 0.0020147318 0.003377915 0.00035072936 0.0016697436 0.002055353 0.0015467489 -0.0027447161 0.0009572654 -0.0004704186 -0.0007558695 0.0015211019 -0.00027830974 0.0034411978 -0.0002012474 -9.879029e-05 -0.0007163458 -0.003036197 -0.003100112 0.0016560103 -0.0022068925 0.0010400335 0.0007196645 -0.0023766754 -0.0011572891 -0.0021601801 -0.0027964998 -2.2737633e-05 0.003351695 -0.0022542286 -0.0015178334 0.0028573587 0.0031816757 0.003152439 -0.0032264115 0.0018119989 -0.0022969246 0.0021693853 0.0021336547 -0.0011787785 0.0023940324 -0.0024596122 0.0015966467 0.0015460893 0.0020791302 0.0020890732 -0.00082162005 0.0013806599 -0.002103688 -0.0020054367 0.00077472284 -0.002959982 1.6214293e-05 0.0005325973 0.002746305 -0.0023858869 -0.00068999175 -0.0013912038 -0.0017841315 -0.00015807911 0.0014544147 -0.0015680137 -0.00047285264 0.0030113233 -0.00059279456 -0.0012317233 0.0025294574 0.00046718432 5.0996197e-05 0.0030473932 0.0027965023 0.0012851433 0.0009994352 -0.00065046444 0.0025643364 0.0018659472 -0.001801907 -0.0021212606 -0.00023205543 -0.0021948975 0.0011358921 -0.0031436966 -0.000555697 0.001200552 0.0013125975 0.0009407498 -0.0029073649 0.0011263203 0.0018093804 0.0011784363 0.002726448 0.00083648995 0.0022443745 0.0029346417 -0.0004147678 -0.00021203693 0.00074030936 -0.0025161193 0.0020799371 -0.0015396187 -0.0010134731 -0.0008081942 0.0027552422 0.0007947605 -0.0006002963 -0.00095439586 -0.00079603394 -0.00041587517 -0.0017388137 -0.0013323104 -3.0550993e-05 0.0016223679 0.00066814705 0.002323715 0.00036140106 -0.0013942829 -0.002438905 0.0022279876 0.0024301286 -0.0019523324 0.0016134469 0.0033878435 -0.0021606013 -0.0011320966 -0.0030290259 0.0012981824 -0.0011155285 0.0008479348 0.0032769346 -0.0031741897 -0.0032092226 0.0007126026 -0.0028456699 -0.0031365089 -0.003344591 -0.00046061605 -0.0003159298 1.7602793e-05 -0.00056178274 0.0030794127 0.0030407587 -0.0023091277 0.0026836495 -0.003148368 -0.00031468665 0.0006766925 5.6196594e-05 -0.0015045442 0.00016829853 0.00021216986 -0.0030272545 -0.0015491063 -0.0028858797 0.0010508619 -0.00034255732 -0.0022228484 0.001888305 6.712804e-05 0.00069705123 0.0018039338 -0.0015121256 0.0025718675 -0.0025253412 -0.0010321118 -0.0025540106 0.00067730644 -0.0026761012 0.0030461457 0.001834582 -0.0023364378 0.0021756033 0.0022169012 -0.002526978 0.0013839836 -0.0025411383 0.0031554932 0.0014358909 0.00012913978 -0.0031495637 -0.00030958338 -0.0003043133 0.00016301709 0.0031697478 -0.00061590376 -0.0028301533 -0.0032480014 -0.00022071827 0.0004237569 -0.00027343398 -0.0006992608 0.002904096 -3.8233193e-05 0.002155151 0.0012076204 -0.0023704977 -0.00078328693 -0.0027197166 -0.0021407534 -0.0010643416 0.002253287 -0.00021610431 0.0029080012 -0.000705884 -0.0015285354 0.0012807096 0.0006593968 -8.1967155e-05 -0.0010033444 -0.0020403867 0.0012795805 -0.0024368041 -0.002998287 -0.0032711392 0.002374211 0.0010224116 0.0022467126 0.0032499945 -0.0024324108 0.0012398581 0.0007575726 0.0019511909 -0.0011429739 0.0031951412 -0.001997476 0.002282405 0.0023439548 -9.7765194e-05 0.001582927 0.002218776 0.00070710387 0.0022947108 0.000852344 -0.00036330073 0.0022970806 0.0016875559 -0.0014043053 0.00068962685 -0.00018000911 0.0016447526 -0.0017094046 -0.001301818 -0.0005713137 0.0013648042 -0.0022599068 0.0026075894 -0.00092695595 0.0020593181 0.0010823276 0.0023560706 -0.0014296821 -0.0013359083 0.0010181853 -0.0006944623 0.0020495239 -0.0022271613 0.00075685664 -0.00012198375 -0.00014017483 0.0010796 -0.0010556357 -0.0016697791 -0.002922991 0.0010444728 0.0019791168 -0.002188115 0.0031043468 0.0012390165 -0.0018333262 -0.0004382293 0.0014381413 -0.0021656847 0.00095994317 0.0019294441 0.0022608845 0.0014835261 0.0012234012 -0.0008848623 -0.001980113 0.002703932 -0.0024125006 -0.0006592702 -0.00097224885 0.0019797527 -0.001987084 0.0011050636 0.0007557142 -0.0011803989 -0.002392025 -0.0026419517 0.0011997686 -0.002895253 0.0022079374 -0.0008769854 -0.003082584 -0.0015495159 0.0023946944
Person -0.0005411437 0.002538731 -0.0031593225 -0.0030315001 -0.0018184214 0.00011720643 -0.002110485 -0.0023481702 -0.003080611 -0.00038008325 0.0026050184 -0.0028654218 -0.0018978129 0.0005576158 0.0010626371 -0.0032738706 0.0029204164 -0.0025333206 0.0016068098 0.0028638414 0.0019752982 0.0017312791 0.003068026 0.0011633271 -0.002368532 0.0019816475 -0.0031705403 -0.001998349 0.0017528993 -0.0030169594 -0.00185429 -0.0012669014 0.001282911 0.0016980282 0.0005466886 0.0018850741 -0.0007737673 0.0012960851 -0.002264084 -0.00033651886 -0.0026916575 -0.00014902216 0.0016910264 0.0015419144 -0.0013831278 0.00090581924 0.0027308264 -0.0018216906 -0.0011174482 2.9947214e-05 -0.001392513 0.0030399293 0.0023464274 0.0033331718 0.0028744205 -0.0024601887 5.863815e-05 -0.0022875888 -0.001509914 -0.0030213795 0.001260906 7.6041083e-06 -0.0023743054 0.002718182 0.00014367275 0.00030278802 -0.0010557083 -0.0008775275 -0.001170427 0.002409754 0.00089441944 -0.0016038031 0.0018505605 0.0001698354 -0.000750101 0.0027903977 -0.001599087 0.0027602727 -0.0016141677 -0.0021549002 -0.0014852829 -0.0014260209 -0.0003292497 0.00014886385 0.0017633341 0.0017145029 -0.0006062037 0.0013735527 -0.0001873918 2.9254325e-05 -0.00023120723 -0.0008161781 -0.0015252262 -0.0013966595 0.00025881495 0.0010784534 -0.0028957466 0.0019980841 -0.000709321 -0.0009120958 -0.0015465793 -0.0015106858 -0.0012474481 -0.0030319376 -0.000116646894 -0.0029736918 -0.0015436552 -0.0023856931 0.0027867418 -0.0004280744 -0.0027332548 0.0018578167 -0.0027622464 -0.0005484746 0.0007347877 -0.0021986656 -0.0028004495 -0.0021806026 0.0027649621 0.00247157 0.0013929759 0.001212847 0.0016027837 -0.0012460256 0.003348461 0.0026885204 0.0013173501 0.0026973414 -0.0027996798 0.0006891671 0.0030050743 -5.8294136e-06 -0.0019835453 -0.0014919944 -0.001041169 -0.0005645054 -0.00091053627 0.0022473203 -0.00052253774 0.0007603583 -0.0011582823 0.0023449254 -0.0023687552 -0.0029575322 -0.0011583148 -0.0027151995 -0.0020452484 -0.00010029049 0.001045624 0.00027632545 0.0018490652 -0.00088526285 0.0008009239 -0.00012558003 0.0028331878 0.002827975 -0.001221448 8.460802e-05 -0.0021073667 -0.0011158165 -0.0023155364 -1.8445986e-05 -0.002025225 -0.0013200096 0.0003034382 0.00085237063 -0.0029204083 0.0008195351 0.0015141641 0.0020416211 -0.0013482508 0.0032317962 0.0031929673 9.62653e-05 0.0004922482 -0.0030280398 -0.0016765221 -0.0003535674 0.0013844931 0.00014881346 -0.0031307177 0.002291918 -0.0027904795 0.0027855467 0.0014234851 -0.0024870087 0.0014261946 0.0031054725 -0.0018912727 -0.0026862 0.0033114548 0.0005370178 0.002703436 -0.0032434391 -0.00038965436 0.0021052654 -0.0005224271 -0.00080779614 -0.0023261842 -0.0020302164 -0.0023927893 0.0031149522 -0.0005450517 -0.0026794085 0.002780377 -0.0011490837 -0.0003685184 0.00018523782 0.000939533 -0.0017416459 -7.311083e-05 -0.0012637115 0.0028283058 0.0021893275 0.00060982234 -0.00209288 0.0006264457 -0.00036495758 -0.0026072175 -0.0021695448 -0.0011191061 0.00078345183 -0.0029047306 -0.0019795736 0.0025334693 -0.0013137084 0.0027845204 7.336601e-05 -0.0019689535 -0.0016004149 1.0084781e-05 0.0013202191 -0.0019894072 -0.0015239967 -0.0025785386 0.0023627968 -0.00054462795 0.0010391454 -0.00027934505 -0.0030955812 -0.00017429686 -9.3152994e-05 0.0011962131 -0.0027217234 -0.0020690425 -0.0026487145 0.0011243789 -0.0013397486 0.0003359718 0.0015570633 0.0017507136 0.0010011069 -0.0007909631 0.00032861848 -0.0022337015 -0.0020779446 0.0033327907 -0.0012293543 -0.0034703384 0.001084333 0.0029940177 9.910188e-05 0.0011553098 -0.0017617027 -0.0018403518 -0.0029683707 -0.0022575648 -0.0026950575 -0.0024428605 0.0028939652 0.002931864 -0.0007107741 4.8873535e-06 0.0028439446 0.0006911619 -0.0012526845 0.0010715122 0.00086790934 -0.0018496406 -0.0016392961 0.0033063944 0.0026330836 -0.002889864 -0.0017401805 0.0002537876 0.00053957175 -0.0031328236 0.0032896663 -0.0018975434 0.0016744883 0.0033708015 0.000999942 0.0014856075 -0.0008732553 -0.002705793 0.00077923475 -0.00016502268 -0.0033414448 0.0026827813 -0.0028662528
Verein 0.0017247312 -0.0011496632 -0.003093662 -0.0030079007 0.0020221684 -0.0019204227 0.0019701698 0.00013443523 0.003152696 0.0021767963 0.003389972 0.0027294315 -0.0027421582 -0.0031496526 -0.0019065598 -0.0006426133 0.0019029563 0.0013914289 -0.00064630585 0.001447521 -0.0010783499 -0.0025356717 0.0018354818 -0.0032744172 0.00031805097 -0.0015945116 0.0022149435 -0.0012839915 0.00074989547 -0.0023769184 0.0032751274 -0.001910312 0.001309967 0.0010493025 0.0028654113 -0.0017079675 -0.0013606533 -0.0022151324 0.002129486 -0.001364402 0.0014997133 -0.00047146628 0.0025197724 -0.0020526077 9.233702e-05 0.00024813757 -0.0027363105 0.0029396878 -0.0005766598 0.0023315435 0.00016756248 0.0017935075 0.0006274814 0.0031536247 -0.002976193 0.0030994045 0.0030496304 0.0005731492 0.0015492208 0.0012110826 0.0014405703 -0.0010091172 0.00090210367 0.00029928255 0.0014785004 0.002948552 -0.0024482808 0.00022633905 -0.0031515574 -0.0006182998 -0.002924921 0.0011511445 -0.0002945477 -0.0003837165 0.0022768092 -0.0024923878 0.00017819091 -0.00059156463 -0.001436188 -0.0022008822 -0.0026399475 0.002684094 -0.0025232232 0.0022335334 -0.0012286691 -0.00047860225 0.00091881154 -0.0027483702 -0.0014741005 -0.0027402036 -0.002928395 -0.0015792197 -0.0010204267 0.0001774434 -6.281428e-05 -0.0021949485 -0.0010503213 -0.00094281154 -0.0022390974 -0.0020514762 -0.00084891554 -0.0026610817 -0.0024705098 -0.0023434246 0.0013131191 -0.002838863 -0.0012001868 0.0022498965 0.0020528995 -0.0021315557 0.002139969 -0.0025505458 -2.6489499e-05 0.0022618605 -0.0010888758 0.0032102906 -1.584522e-05 0.0015926067 0.0025281752 -0.00330616 -0.0019746372 -0.0021079825 -0.00022865726 -0.0022649248 0.00010787009 -0.002360889 0.00013114158 -0.00038708895 0.002164577 -0.0026510574 -0.0009937302 0.0022220484 0.0032721544 -0.0011543838 0.00016176514 -0.001810855 2.667545e-05 -0.0028423571 -0.00286301 -7.406973e-05 3.9164705e-05 0.001518625 -0.0034047132 0.0006646664 0.00069339917 -0.0019789315 -0.00030110084 0.0018157836 -0.0019971726 -0.00013957181 0.0014439172 0.00023220417 0.0009922204 0.00253229 0.0024048851 0.0013010886 0.0022144632 -0.0028379695 0.0024340637 0.0016806378 -0.0019624126 -0.0014093115 0.0018214443 0.0019280497 -0.0034392949 0.0003657086 -1.3819963e-05 0.0004527873 0.002220485 -0.0018711393 0.0029258397 -0.0030918173 0.0020880038 0.003259643 -0.00109759 -0.0030859762 0.00198092 -0.0032505922 -0.0027137639 -0.00021206209 -0.0023965314 0.0032143453 0.002370375 0.00023830286 0.002340372 0.0030959523 0.0021365406 0.0018804458 0.0019079965 0.0017223359 0.0017748054 0.002073004 -0.0029111383 0.0029920842 0.0028267794 0.002980657 -0.0030233893 -0.0013385 -7.603911e-05 0.0012878388 -0.002886706 0.00020106733 0.0019934145 0.003242631 -0.00085744413 0.00050351245 0.0021578893 -0.00032006484 0.00063704816 -0.0032403753 0.00023987316 0.001265328 0.0014175255 -0.0033398874 -0.0015462247 0.00093583955 0.00020578085 -0.0021858993 0.0014783703 0.0009486998 -0.0026758837 0.0032712456 -0.0027217837 -0.0012596323 0.0031012478 0.00033815854 -0.0017313338 0.0002936035 -0.0014685316 -0.0021952533 -0.002553879 0.001403736 -0.0029799615 0.0016157205 -0.0021044728 0.0018782844 -0.0012434191 -0.0021042223 0.0023081303 -0.003375315 0.0006426956 -0.0009051107 -0.0022390354 -0.0024169267 0.0024081727 -0.0018487618 0.0016509023 -0.003296826 0.0006316046 -0.00051023706 -0.0017675861 -0.00075843686 -0.0027656553 -0.0010768075 -0.0012280698 -0.00073468563 -0.0013395586 -0.002962974 0.0014821296 -0.00058401475 0.002204292 0.0011427575 0.0031666674 -0.0016424634 -0.0033136534 0.00038387306 -0.0026996292 0.0022842272 0.002465356 0.0002162981 0.0023907714 0.002714349 0.0013996594 0.001984982 0.0032538595 0.0007586028 -0.0025997013 -0.0025518495 -0.0010828716 -0.00021070291 0.0030232032 -0.0030151538 -0.0009017441 0.0030927896 -0.0006354016 -0.002826627 0.00039603547 -0.0018077082 -0.0018936759 -0.001997883 0.00028015868 0.0029235026 0.0014443736 0.002752343 0.003385191 0.001957009 -0.001856786 0.0023358364 -0.0029106522 -0.0019088549
dass 0.0026853709 0.0027998607 -0.0018367068 -0.0026538598 0.0026656268 -0.0013585208 -0.0012365422 0.0027383391 0.0017604735 0.0011769385 -0.0003406096 0.0028537812 0.0027610608 0.0023418393 0.0030055651 -0.0021157372 0.00047706248 -0.00047159658 0.0021211163 0.003130148 0.0017644229 0.0012233282 0.002316476 0.0019798237 4.1595515e-05 -0.0027625428 -0.00087972573 0.003003272 -0.001786358 0.00018567426 0.0016623811 -0.0023315072 0.0027843134 0.0004805369 0.00075566483 0.0028680481 0.00055734714 0.00021719918 -0.003119401 0.0033811338 -0.0033427228 0.0027646797 0.0017537728 -4.600852e-05 -0.0025379683 0.00325165 -0.0003939058 0.001801475 -0.0009470617 -0.0015318599 0.00013578663 -0.0026026168 -0.0022907176 -0.00304293 0.0016881798 0.00027624963 -0.0002074959 0.001801432 -0.0006173026 -0.0024945938 0.0009966901 -0.0019920315 0.00014355694 0.00317984 -0.00038805747 0.0021404794 0.0015437078 -0.0010661302 -0.0018641748 0.0029029776 0.00074940204 -0.000106997744 0.0003993433 -0.0017104982 0.0012523435 -0.00093457225 0.0012956223 -0.0014001722 -0.00035777417 0.0014270503 -0.0023738919 -0.00089999416 -0.002950223 0.0008531311 0.0007040607 0.00077574054 0.0003522375 8.2580984e-05 0.0009458797 -0.0004000047 0.0020718507 -0.00097590976 -0.0016797772 -0.0017557556 -0.0031159518 -0.0024872299 0.000806812 0.0013195224 -0.001993644 -0.0031883346 -0.0020458372 0.0015397244 -0.0028787768 0.0017919912 0.0021679266 0.001875833 -0.0025287094 0.00097162655 -0.0020292732 0.0030246675 -0.0015112988 -0.00077917834 0.0016909882 -0.00023742374 0.0016250234 -0.0013352218 0.0017013972 -0.0032621173 0.0021506334 -0.0006626144 -0.001854156 0.00017819236 -0.00030400947 -0.00020335305 -0.0005537018 -0.0029245478 -0.002616248 -0.0023866878 -0.0028715753 -0.001350082 0.00308687 -0.0004587616 -0.00242443 -0.0022745093 0.0011614661 -0.0007817726 -0.0006426649 -0.001500345 0.0017992177 -0.002883586 -0.0024597275 0.0023230058 -0.0024262618 0.00077567034 0.00021348917 0.0030924731 0.001234656 0.000580201 0.0010315529 0.0006484657 0.000794005 -0.001081994 0.0013851983 0.0019433746 0.0030590782 -0.0001774539 -0.00065046694 0.0019981104 -0.002851069 -2.2091515e-05 -0.002213829 0.0015905766 -0.0031423045 0.0010894749 0.0029195545 -0.00070655695 -0.002880646 -0.0026208654 0.0010035447 -0.0015013368 0.0019894587 -0.0003518718 0.0026347064 -0.00010877351 -0.001976846 -0.0018769186 0.00023108772 -0.0017374655 0.002200855 -0.0011430036 -0.0019615444 0.00047686172 -0.0017626188 -0.0027582985 -0.0019184597 -0.0007281282 0.00035271846 0.0014409432 0.002339761 0.0020194077 0.0020683142 8.720339e-05 -0.0021604532 0.00302041 -0.00015401807 0.0014849604 -0.0004692123 0.0018308959 0.0017801113 -0.002498386 -0.0010106359 0.000104409 0.00066693104 -0.0030743082 0.0016532518 0.0010505167 -3.0090954e-05 -0.0009877381 -0.0025447917 0.002456501 -0.0028539002 -0.002587244 0.0014511765 -0.0028827344 -0.0010059009 -0.0007396729 -0.00082505465 -0.002601842 0.0011924587 0.0002371322 0.001181583 -0.00043984372 0.0022382436 -0.0033040268 0.0018786499 -0.0017345028 0.0006287675 -0.002360352 -0.0008802422 -0.0021127954 -0.0010758747 0.0031601335 0.00090161816 0.0006734633 -0.0021663292 0.0019128686 -0.0026059551 -0.00087709655 -0.0020452524 -0.0023995247 0.0008638325 -0.001180506 0.00080854556 0.0013815095 -0.0020009722 -0.00076402177 -0.0008491777 -0.0033072876 -0.003288378 0.00045421463 0.0015697797 0.0001602715 -0.001552004 0.0012456507 0.00036364532 -0.003138268 0.0025885345 0.0026371512 -0.002742744 -0.0003315138 0.0020939594 -0.00085397717 5.7850888e-05 -0.0016698204 0.0018355739 0.0022821769 0.0008542927 -0.0014163299 -0.0008039489 -0.0013043504 -0.003359598 0.0025347697 -0.0001959457 -0.000104565705 0.0024687718 -0.0028036127 0.0021940158 -0.0024160994 -0.002046095 0.0016891183 -0.0011173662 -0.0011365691 -0.0021080829 -0.0012743077 -0.00096059946 -0.0012777116 0.002998325 0.0032412414 -0.0001661215 -3.2571945e-05 -0.0017508311 0.0029069125 -0.0016111709 0.0019912631 0.0032803235 0.0021671378 -0.00023523305 0.0018274433 0.0024582932 -0.0014728006
Veranstaltung 0.000256553 0.0024415334 0.0019240722 -7.567392e-05 0.00074851373 -0.0023215269 -0.0029097265 -0.0010900396 -0.0018486087 6.309888e-06 -0.0012475473 -0.00017694346 0.002458875 0.0032659469 0.002591003 0.00045171523 -0.000700752 0.00097094796 -0.0008762325 -0.0031871067 0.002341245 -0.0031265614 0.0014894423 -0.0013092897 -0.0018284678 -0.0002819612 -0.00244301 0.002803108 -0.0024463418 -0.0032395571 0.001980511 0.0014573799 0.0016783875 0.00075649313 -0.0013154469 -0.0016028597 0.0006668787 0.0026433256 -0.0018002468 -0.00065581955 0.00051788613 0.0020823532 -0.0020472917 -0.001558787 -0.0007845128 0.0006709063 0.0018831147 0.0018597282 -0.002765957 0.0025756245 -0.00072262617 -0.00086403335 -0.0030412958 -0.0017441962 0.0029560917 0.0012876458 -0.002535249 0.0011397863 -0.0022870484 -0.0030604142 0.0013937474 0.0006623878 0.00039435044 0.0029701488 0.0019767326 -0.0015663424 0.0010233059 0.00097283215 0.00059390545 0.0027091205 -0.0022466744 -0.0006947762 0.000535422 0.0020001773 -0.00011526031 0.0028203777 -0.0017184701 -0.0028305522 -0.0025169437 -0.0011640517 0.0032061187 -0.001769741 -0.0016587517 0.0032582362 -0.0024724118 0.00059994025 0.0018787376 -0.0023920985 0.0002742613 -0.0009292813 0.0020163588 -0.0015281104 -0.0021585617 0.0033076478 -0.0014019136 0.0028953133 -0.0026220947 0.0022923597 -0.0012343089 -0.002540063 -0.00037736664 -0.0007932713 -0.00035513143 -0.00022058899 -0.0020529598 -0.0014373426 -0.0010211236 0.0026004144 0.0015834793 -0.000304586 -0.0017111895 0.0017828615 -0.0029886803 0.0005989024 0.001203062 -0.00054409564 -0.0014267771 -0.002696126 -0.002583966 0.0019797788 0.0012623013 0.00014558897 0.0033503624 -0.0027521355 0.0002391019 0.000108224995 -0.002717559 -0.0032366812 0.002392335 -0.0009510864 -0.002593587 0.002859283 -0.0019305926 -0.0015087501 0.0004814008 -0.00094735424 -0.0028843519 -0.0014317448 -0.0032549826 1.2618711e-06 -0.0014697181 -0.00027249532 0.00079181686 -0.0007025204 0.0030852323 0.0021546504 -0.000458292 -0.0003892077 0.00045828818 0.0020377662 0.003098611 -0.00092511973 -0.0005015436 -0.0011550526 0.0003142973 -0.0020523672 -0.001007205 -0.003143213 0.00015321508 0.0008052476 0.0012456687 -0.0009750705 0.0017083744 -0.002385859 0.0031483362 0.00013959853 0.0008888243 0.0016049367 1.1556163e-05 0.0012981365 0.0002663189 -0.0031831237 -0.001050192 -0.00079539674 -0.002933648 0.0011679806 0.0015338582 -0.0008986585 0.0025197323 -0.00036291577 -0.0002580158 0.002183518 -0.0030215671 -0.0023205068 0.0021883363 -0.0023667822 0.0031697983 0.0021683604 -0.0025870954 0.0024320628 0.0022676624 -0.0022985067 -0.003203324 -0.002903909 0.0013310016 0.0019837727 -0.00071501685 0.00029981657 -0.0027391452 -0.0017850578 0.0014332127 -0.002884816 -0.0030892356 0.0003882248 -0.0027765022 -0.002378778 0.0016258137 0.0029640596 -0.002447067 0.0026112462 0.003123018 0.0013421727 -0.0015306956 0.0031410614 -0.0024358178 -0.001333751 0.00036587316 -0.003063229 -0.0036881247 0.0007926195 0.002659347 -0.0017088609 -0.0015669757 0.0011014299 0.00011790127 -0.0028747697 0.0022823524 -0.0011283216 0.0011064949 0.0010729268 0.0029934316 0.0027578108 0.0024749327 -0.0025232611 0.00017752511 -0.0002509573 0.00047783565 0.0027437934 0.0017649037 -0.003397623 0.0034349794 -0.00047214015 0.00010000742 0.0017626799 -0.0019506064 -0.0004507678 0.00055508374 0.0022909755 0.0014252763 -0.0005229163 -0.0026542484 -0.0011458332 0.003014891 -0.0030880286 0.0029764548 -2.56005e-05 -8.4590305e-05 0.0032617378 0.0029232549 0.0026244204 0.0031332506 -0.0032325243 0.0027738933 -0.003518978 -0.0028732223 -0.0030110297 0.0009678776 0.0026177948 -0.0023900243 -0.00085272925 -0.0009266169 -0.0016213995 -0.00045129936 0.0017746416 0.0014200825 -0.00075448636 -0.0011209834 -0.0005833412 -0.0014846767 0.0013247969 0.003298668 0.0026810798 -0.0025469894 -0.0021109893 -0.0031980937 -0.0018112222 0.000988315 -0.0018962168 0.00051277346 0.0030331593 0.0013162108 0.0008396267 0.003033044 0.0021577524 -0.000103560014 -0.0017039882 -0.00022306459 0.0024104628 0.0027074164 -0.0016078858
dies 0.0033521971 0.0010603672 0.0016719552 -0.001889338 0.0014095268 -4.7871243e-05 -0.0030195026 0.0022306284 -0.0030734339 -0.0023163452 0.0010071335 0.0030367917 -0.00079090096 0.0023595747 0.0016467376 0.001009662 -0.0019151549 0.0018605045 -0.0027395617 -0.0016435223 0.0018700006 -0.0029451211 0.002091937 -0.0011722123 2.7201204e-05 -0.002413971 -0.0023180386 -0.0011896027 0.0027298324 0.0015354624 -0.0032072295 -0.0022455743 0.0012710728 -0.0028877521 0.002156406 0.002156203 -0.0030164951 0.0027686835 0.0026870298 -0.00043228545 0.0005024629 -0.0020572697 0.0021745104 0.0025269582 0.0014665709 -0.0027298387 0.0017332629 -0.0010165916 -0.0006195969 0.002175743 0.00069643225 0.0016438453 -0.0021957848 0.0019180598 -0.0013642081 0.00011950881 0.0022035947 0.0015241258 0.0025961027 -0.0013725138 0.0012985157 0.0024336488 -0.001159469 0.0019386222 -0.003259625 0.003067305 0.0013563525 0.0019293932 0.0013682499 0.0014599249 -0.0010583677 -0.002000354 -0.000543902 0.0003619715 -0.0008545204 -0.0026722897 -0.0022839867 0.0029614915 0.0029598959 0.0022053926 -0.0013472945 0.00015018761 -0.0029012759 0.0027137713 0.00017963127 0.0023933344 -0.0018636836 -0.00084844534 0.0013064531 0.0009999847 -0.0020237437 -0.0024700786 0.0007039186 -0.0029651541 0.002040429 0.0021736184 -0.0010838226 -0.0018998405 -0.0028753465 -0.00057353586 0.002379002 -9.187452e-05 -0.0023881192 0.0031259232 -0.00275083 0.0016417842 0.002203289 0.00035218804 -0.0032532928 0.0020562545 -0.002715042 -0.0016541062 0.0032025708 -0.0027209092 -0.0026580074 -0.0015377486 0.0012334974 0.00068392686 -0.0016992126 -0.0014515549 0.0029014456 0.003527098 0.0033840896 0.00045813216 0.0014223695 0.00070846523 0.00052191457 0.0013912123 0.0007241357 0.00036940363 -0.0010504863 -0.0019691875 0.0027918061 -0.0024339776 0.00078793004 -0.000111319925 -0.0014304221 -0.001797696 0.0008239425 -0.0024419962 -0.0024476848 -0.0011308484 0.0014721008 0.0021081334 -0.000328879 0.002219906 -0.0027773671 -0.001746399 -0.0024618881 -0.002223639 0.0025299052 -0.0033750285 -0.0028605326 -0.0034314007 0.0032027015 -0.0008138422 -3.110747e-05 -0.002269692 -0.0008953101 0.0003317144 -0.0008085284 -0.0024829537 -0.0023117124 0.00083587295 -0.0032913845 0.0003475653 -0.0005705741 0.0028881754 -0.00027427392 0.0024681871 -0.002630872 -0.0024855365 0.0018390971 0.00037130373 -0.0015558503 -0.0008488154 0.002854303 -0.003266448 -0.0011842388 0.00038298304 -0.00020013783 0.0034051195 -0.00085511955 -0.002384955 -0.0028270439 -0.0034611851 -0.0023021614 -0.0016703375 -0.0018940481 -0.0008180017 -4.4788703e-05 -0.0016245035 0.0003568725 0.0013557253 0.0030673211 -0.0016568488 0.0017026775 0.0022673332 -0.0012191276 -0.002598301 -0.0012594755 -0.0021898495 0.00215358 0.0032228471 0.0028232797 -0.0029157952 0.0017295809 0.001992586 0.0018880939 -0.0028703706 2.759935e-06 -0.0024865407 -0.0030567362 0.00077006576 0.003426164 0.0021318265 -0.0026266016 0.00029776775 -0.0016617132 0.003158678 -0.0029852726 0.003207443 -0.002305248 -0.002542477 0.0004093506 -0.00023285071 -0.0027514158 -0.00027472587 -0.00021045729 -0.0020606215 0.0019342075 0.000939095 0.002827721 0.002716569 -0.0024028302 0.0016393787 0.0020727362 0.0017200995 0.0018894816 -0.001977454 0.0015963683 0.00030223976 1.1425709e-05 -0.00204991 0.0006168568 0.00144913 -0.0029696857 0.00277743 0.0010315215 8.8470435e-05 -0.00095458154 0.0002754754 0.0020969913 0.0016801157 -0.002276839 0.0026576351 5.0366234e-05 -0.00266278 0.002683322 0.0015597604 0.0013277559 0.0027184887 -0.0022634666 -0.002315483 -0.0009478853 -0.0014567096 -0.00029447602 2.0252955e-05 -0.0030320676 0.00069051085 0.0007336885 -0.00040911915 0.0016082459 0.00066453445 0.0021882213 -0.0004132931 0.0029659693 -0.0003347189 0.0006454848 -0.0012772446 0.0020700574 0.0010811092 0.00019022764 0.0029492057 -0.0027584885 0.0034088136 9.688605e-05 -0.00067351595 -0.0014304364 -0.0029500145 -0.000549721 0.0013042334 0.0022321208 0.0030259965 -0.0025801023 0.0034051691 -0.0028160324 0.0012106827 0.0028683394 -0.0010550736
werden -0.002593284 -0.002637425 0.00037093202 -0.0002580776 -0.0031933559 0.0009723305 0.0008407606 0.0017471826 0.0014413797 0.0009882316 -0.0032304851 0.0018919811 0.0013774704 -0.002586972 -0.0007337556 -3.0917865e-05 -0.000115800256 -0.00024200308 -0.0018481958 -9.8616e-05 0.0014986034 -0.0003481409 0.00035241703 0.0006875011 -0.0013091584 -0.0026056438 0.002938244 -0.0033092224 -0.00090255623 -0.0005403642 -0.0025418985 0.0005791014 0.0027042967 -0.00054402224 0.002665693 0.00015363646 -0.0018880705 -0.0007150635 -0.00019795424 0.0021607603 0.0023398595 0.0020084898 -0.0019546475 -0.002359399 0.0020890601 0.00092083926 0.0018340698 0.00017171413 0.0026764825 -0.0028877468 0.003339932 -0.0027078742 -0.00062961306 0.0021916027 -0.0031734672 0.0015593884 -0.0022698226 -0.0021850015 0.0008075582 0.0005523122 -0.00087868643 0.0026258873 -0.002366111 0.00016277134 0.0028545472 0.00072640507 -0.0022340573 0.0012428154 -0.0017646061 0.00015888084 0.0009861387 0.0025684128 0.002548868 -0.0016914305 0.003215517 -0.0017457756 0.0024576804 -0.002580654 -0.0026775927 -0.0002561573 -0.0027033652 -0.0011997217 -0.00019685803 0.00025582963 -0.0033199422 -0.0022059176 -0.0024908122 -6.3977815e-05 0.0018993912 -9.370374e-05 0.003397673 -0.0012909534 0.0026999498 0.002045562 0.0028350395 0.00020521498 -4.4825727e-05 0.0006065533 -0.0033565443 0.003046817 -0.0007828871 0.0025082147 0.00080684526 0.001045966 -0.00036311225 -0.0034201322 0.00048434682 0.000976803 -0.003455184 -0.0012914273 -0.0008293682 -0.0016761735 0.0013005302 0.00071923196 0.0013939476 -0.0021189288 -0.001960028 0.0015863882 0.002339449 0.0016659372 0.0015929904 -0.0022816332 0.0027939628 -0.0022733181 -0.0025238292 0.0029582821 -0.00085079164 -0.0032207442 -0.0010219547 0.0021184431 -0.0009501558 0.0017349535 0.00010701683 0.0011381279 0.00033261845 -0.0030281171 -0.0013263958 0.0028871945 0.00040077258 -0.0021881047 0.0023787431 0.002362717 0.0023664958 5.0090734e-05 -0.002989237 -0.0012597035 0.0015940823 -0.0022572668 0.0033154662 -0.0033636293 -0.0026541213 -0.0019187914 0.002008878 -0.0026371286 0.0029573005 -0.0032411776 0.0009982906 0.0009904098 -6.1296723e-06 0.003345701 0.0016991843 9.005111e-05 0.0014826176 0.0021250139 0.0009376815 0.0031187385 -0.00039543535 -0.0027339966 -0.0015678968 -0.0002982657 -0.0025581636 -0.000525558 0.0026462493 -0.0016330123 0.0017770194 0.0014661123 -0.0002676347 0.00026574256 0.0019210966 -0.0021879293 0.0012289901 0.0030928424 -0.0012551952 -0.0025481272 -0.0032054754 -0.0030725677 0.0014358179 0.0018787449 0.0023876186 -0.00065840053 0.00039355824 0.0009832818 -0.0034661884 -0.0031231418 0.0015682497 -0.0028569135 -0.0010586485 -0.0015079096 0.0019857874 -0.0012032416 0.003251333 0.00024316553 -0.0017291028 -0.0011647672 0.00044485164 -0.0018214863 0.0024771958 0.0031458437 0.0014291871 -0.002485103 -0.0019893642 -7.6463475e-05 -0.00038032306 -0.0018732356 0.002721966 0.002068806 -0.0015179843 0.00056171423 0.0015188198 0.0007397621 0.0028166883 -0.00045423047 -0.0022401137 -0.00037722138 -0.0028354663 0.0032735812 -0.0028380486 -0.00053650053 -0.0009838258 0.0010703319 0.0016710821 -0.002819559 -0.0014505052 0.0002823018 0.001227979 0.0017332269 -0.0003701492 -0.0003165366 -0.002540548 0.001325687 -0.0024798375 0.0010200826 -0.0011533094 -0.0025524916 0.002342507 -0.00029634387 -0.0031291007 -0.0031566606 0.00019528087 -0.0026843443 0.0013195402 0.0012285542 0.0011575939 -0.0018148716 0.0025179428 -0.002988525 0.0026152872 -0.00018166525 -0.0006096597 0.0012704686 -0.00077599514 -0.0014273546 -0.0006879728 -0.002249398 -0.00025808063 -0.0018370429 0.0016579533 -0.0030749678 -0.0015970024 -0.0030230868 -0.003269885 -0.000306185 -0.0027159557 -0.0018415591 0.0010155233 -0.00032060206 0.0010759898 0.0028542331 -0.0033937537 0.002019728 -0.0026285814 0.0021967478 0.0024948905 0.0028858453 -0.0027284662 0.0011994605 -0.0027343535 -0.00036269505 -0.0017794174 -0.0028039156 0.0017308281 0.0016756059 -0.0013443093 -0.0025830788 0.0013374507 -0.0011451065 -0.002900616 -0.0014777097 -0.00061709544 0.0027939468
VDS -0.0021438454 0.0026612887 0.0020175702 -0.0016249502 -0.0006275826 -0.0009486611 0.0011974046 0.00028659424 -0.0009727878 -0.0031301328 0.002223889 -0.003261687 -0.0029455153 0.0004866057 0.0009729354 -0.00025580503 0.0002879936 0.00096742203 0.0006031377 0.0023741266 -0.0011080138 -0.0025880453 -0.002466123 0.002665894 0.00066059484 -0.0018854807 0.0019266804 0.0027854461 0.0025305068 -0.0024815747 -0.0016589067 -0.0006921596 -0.0021194573 0.0015491974 0.0018306206 -0.0018982948 0.0024910972 -0.002648282 0.0021069867 -0.0014214994 0.00058422965 -0.0012169651 0.0012051887 0.0025368882 -0.0003737802 -0.0015076774 -0.002778401 0.001241416 0.0015207126 0.0023544307 -0.0013447807 -0.003173327 0.0021967248 -0.0013703527 0.001333694 0.002868449 -0.0011984884 0.0006892552 -0.0011498561 -0.0022432578 -0.0018280251 -5.3993863e-05 -0.0025280751 -0.00064739573 -0.00092751055 0.0023330397 0.0005119068 0.002088556 0.0011348027 -0.0012271883 -0.0016498341 0.0032745986 0.0024984637 -0.0031146738 0.0018310216 0.0028682963 0.0029536418 -0.0025456732 -0.0007814975 0.00052669033 0.0009647015 -0.0006167948 -0.0016033209 0.0025722608 0.0023265271 -0.00018114859 -0.0019611134 -0.0013725748 -0.001445373 0.0013217097 0.0002952266 -0.0007884184 -0.0029931287 -0.00047236148 0.002279246 0.0023845714 0.0015469943 -0.00096903753 0.002922386 0.00025806 0.00037905062 0.0020426249 -0.0019978734 0.0022985644 0.0033335555 0.0010321238 0.0011617929 0.0014259282 -0.00091702776 -0.002695257 0.0004080078 0.00032156418 -0.002314296 0.0006774362 0.0017189812 -0.002294182 0.0009019756 0.002600469 -0.002744731 0.00085129077 -0.0028336837 -0.0024339622 0.0024728535 -0.0024740594 -0.0004253001 -0.0024231898 -0.002665378 -0.002509267 0.0001314518 0.0008095915 -0.0025922875 -0.0025072729 -0.00093865383 -0.00096523477 -0.002135026 -0.001259902 0.0010527292 0.000923341 0.001981178 0.0010793476 -0.00023281391 0.0006900795 0.0029001897 0.00071756536 0.00072294223 0.00021757024 -0.0033075952 0.0016434347 0.0018197361 -0.00014579413 0.0031548322 -0.0021160152 0.0011136986 -0.0027224107 -0.0028912541 0.00076044933 0.0012724213 0.0018514678 -0.0029451216 0.0016944472 0.00082712393 0.0013731617 -0.00042327662 0.0018525566 0.0023350988 -0.002830036 -0.003225127 0.002451972 -0.00041816197 -0.0027828563 -0.0015753576 0.00043935562 0.0028237328 -0.0004918922 -0.00023642786 -0.0024230722 -0.0025982664 0.0003245603 -0.00012355357 -0.0025230336 0.00019990458 -0.00281188 -0.0009945614 0.0013887687 0.00016138649 0.0024805628 0.0024647303 -0.00013155612 0.0017053469 0.0017645726 0.003044744 0.0029961653 0.0013663502 0.0015481446 0.0024521062 -0.00063600414 -0.0018942101 0.002832705 0.00041793412 -0.0017536676 -0.00040064656 -0.0016644512 0.00302496 0.0011514997 0.0014804387 0.0020926786 0.0027502207 -0.0013936893 -0.0021260248 -0.0013049082 -0.0012355922 -0.003318333 -0.00024502538 -0.0027717645 0.003360819 -0.0011811489 -0.0023189122 -0.0030918918 -0.0014860929 -0.0033191598 0.00022504735 0.0017827423 -0.0010547927 0.0024004483 -0.0007081648 -0.0024624232 -0.0009749761 -0.0011058812 -0.0024235148 -0.003184675 -0.001323385 -0.00061749975 0.0016871151 -0.0023650653 -0.0018165471 0.00050189125 -0.00043952625 0.0010296113 -0.0004916983 0.0011085938 0.002807376 -0.002770256 0.0012422376 0.0020776445 -9.361967e-05 0.0020024811 -0.001723093 -0.001567022 -0.002624508 0.0032699604 -0.003002605 -0.0009852212 -4.3949487e-05 -0.0015643471 0.0029134692 -0.00224591 -0.002442712 0.0031508242 -0.0029823286 0.0031191593 -0.0012635082 0.0019591681 7.41317e-05 -0.0016466929 -0.0027370336 -0.0021429448 0.0024880131 0.0022957237 -0.00018391926 0.0021852916 0.001179492 0.0011778586 0.00090308365 -0.0031237304 0.0032136538 -0.0024749367 -0.00089594815 0.000627346 0.0014367865 -0.0030688392 0.0006074421 0.002157753 -0.0029243303 0.0032165386 -0.001843642 0.0032945788 -0.0023651707 0.002296648 0.003080041 -0.002999679 0.00024978127 -0.0022646922 0.0027392085 0.003213967 -0.0017462141 0.0005781108 -0.0006392584 -0.0026087556 0.0004375301 -0.0035081152
als 0.0008717436 -0.0023288575 0.0018563563 0.0025277052 -0.0009062451 -0.0014672893 -0.0030109866 0.0021460298 0.0009043837 0.0027670288 0.0011823516 -0.0010052028 0.0011038944 0.002904838 0.003048607 0.002217669 -0.002683816 -0.0023739522 0.0024552112 -0.0026480118 0.0011437032 0.0024769062 -0.00088459434 0.0022590351 -0.002699135 0.002188055 0.0016422772 0.0010604651 -0.0028234457 0.0028174713 0.002795112 -0.0005740076 0.0014721913 0.0021196303 -0.00065105426 0.0019265619 -0.0012498577 -0.00053742656 -0.0003318879 -0.0012415332 -0.0003157 -0.0027117252 0.0012906297 0.002990713 0.0016972314 0.0023595323 -0.0015072009 0.0016485498 -0.002131922 -0.0015104495 0.0033714264 0.0022424906 -0.0017571606 -0.0018742982 0.002236026 0.0011296812 0.0023408777 -0.0020773667 -0.0002473204 -0.00036609365 8.029772e-06 0.00072719704 -0.0023041 0.0014652255 -0.00102125 0.0028975203 -0.00026492323 0.003198238 -0.00046881993 0.0016412776 -0.002481409 -0.0029490795 6.461635e-05 -0.00086185086 0.0034453531 0.0016400125 -0.0020349822 0.0026228786 5.9382026e-05 -0.0029918416 0.0019240996 -0.0007261027 -0.0031795213 0.0033766364 0.002456764 0.0027818081 6.311416e-05 0.0026351016 0.002041102 -0.0024708617 0.0032281403 -0.001181352 -0.0032429658 0.0028931717 -0.0016612038 0.0031436728 -0.0024586194 0.003074993 -0.0020437362 0.0013872358 0.003298641 0.0013620041 -0.00048199928 -0.0015096026 -0.0031273037 0.0011937196 0.0025314658 -0.0015279567 0.0016412075 0.002275353 -0.0030772898 0.000718518 -0.0023084965 -0.0013790462 0.00016543947 -0.002237493 -0.0013006007 -0.0024703234 -0.0021839682 -0.002650741 0.0033567299 0.0030128995 3.7162874e-05 -0.0007873368 0.0021340218 0.00067885395 -0.0030167045 -0.0025669697 0.00034464634 0.0028807116 0.0010616161 0.0034798076 0.0023104695 -0.00034450903 0.0027941307 0.0031549938 0.0024933044 0.0030084283 -0.0033715654 0.00074147264 -0.0025449123 -0.0026308435 -0.0029248274 0.0011677871 0.0001446013 -0.0023041647 0.0015958973 0.0024903282 0.0015961379 0.0024230422 -0.0013314323 -0.0023758414 0.0013522211 -0.0011006772 -0.0022698585 0.0013039263 -0.001458455 -0.0019689964 0.00082236837 0.0025921823 0.0021389334 3.264161e-05 0.002657682 0.0009759562 0.0020432712 -0.00032711274 0.0007911662 0.0021939096 -0.00337574 0.0023114637 0.00019854055 0.0020905097 -0.0004646072 -0.0008379144 -0.0017283398 -0.0009206092 -0.00090942875 -0.0019144246 0.00034755544 0.0027025887 0.0015719488 -0.0023211911 -0.0026558624 -0.001004741 0.0010556622 -0.0032533125 0.0023430116 0.0013702806 -0.0008350658 0.0027395142 0.0028218727 0.00019299431 0.0012757005 -0.0030285171 -0.0028735334 -0.001066011 0.003078994 0.00093991525 0.0018996417 -0.0023453753 0.0012766161 0.00024198066 -0.00029514625 -0.0010089729 0.0017174926 -0.0031025126 0.0017623617 0.002161281 -0.00081646524 -0.0015056275 -0.0024644304 -0.002327458 -0.0017594264 0.0009813329 -0.0014784095 -0.0004557558 -0.0032427788 -0.0016399676 -0.00061881565 -0.0027994746 0.001042638 0.0032361161 0.0013380996 0.00043024847 -0.0017497181 -0.00041545669 0.00083113596 0.0005080959 0.00284987 -0.00029238636 0.0023550834 0.0018079455 0.001014156 0.0026298547 -0.0018200639 -0.0012465564 0.0024834173 0.0026775184 0.0012099035 -0.0017627238 0.0026890293 0.00077894964 -8.221661e-05 0.003075786 0.001550674 0.0010258583 8.725283e-05 -0.0030587036 -0.0010236277 0.00091334176 -0.0017066137 0.002527086 0.002552567 -0.0029155202 -0.0020793795 -0.0019744777 4.3803866e-05 -0.0005281256 -0.00092258403 -0.000861528 0.0013077676 0.0033001902 -0.0012825342 -0.0031220387 0.000988258 -0.0022288773 0.002448284 0.0011166859 -0.0028623277 -0.0025411511 -0.0031942907 0.0006682073 0.0008975863 0.0010537833 0.00024567073 0.00066224876 0.0011466477 -0.00035187457 -0.0030531732 -0.00022174316 0.0012699406 -0.000804738 -0.0007274451 -0.0007250053 0.0022763554 -0.0008753749 0.0029695232 -0.0011785332 -0.003363252 -0.0021086894 -0.0012579341 0.0008254994 0.001758635 0.0007138935 0.0033524998 0.0006822357 0.0020011829 2.4949697e-05 -0.0005219022 0.0018642622
durch 0.0006773291 0.0028694451 -0.0027893393 -0.0029051804 -0.00018165774 -0.00067224336 -0.0006868294 5.5340915e-05 -0.0017126327 -0.0027866166 0.002777426 -0.0011407908 -0.0010105422 -0.0005494301 -0.00044881948 -0.0032113018 -0.00052164315 -0.00035472357 0.0028883314 -0.0027358728 -0.0016032477 -0.0007115676 0.0010733386 -0.0020265954 -0.0018232891 -0.0026497932 0.0017286842 -0.0029207205 -0.0011747325 3.131056e-06 0.00047257685 -0.0033175861 0.0029313746 -0.00071763835 7.2677954e-05 -0.0028515274 -0.002683921 0.0012033161 0.0013560961 0.001094608 0.0019249746 -0.0023515979 -0.00038638158 -0.00093990884 -0.00043941522 0.0016134294 0.00048225283 -0.0024840164 0.0011575364 0.002166571 -0.0019945968 0.0010795564 -0.0014680785 0.0030169792 0.0012820361 0.0008078233 -0.0002574987 -0.002976151 0.0029437868 -0.00060872576 0.0025011161 0.0012735015 -0.0027519127 -0.00020209567 0.0008666248 -0.00082419056 0.003305267 -0.0015976849 -0.0024692651 0.0012400817 -0.0011804933 -0.0022577618 0.0007554553 0.0016903488 -0.0017774714 -0.0013761176 -0.002456765 0.0006155328 -0.0016791316 0.002912523 0.00024992845 0.0005959811 -0.0011253719 0.002685308 -0.00023766425 -0.0027523933 -0.0024553277 0.00010723515 0.0027290725 0.000977404 -0.0016941412 -0.0022260172 -0.003271254 0.0013205606 -0.003130521 0.0012165789 0.0006751372 -0.00030574214 -0.0033563303 0.001994353 -1.2534794e-05 -0.0033219433 -0.0023844854 0.0029287718 0.00070142926 -0.0028349727 -0.00024900655 0.0018082291 -0.003254628 -0.0023073447 -0.00036255535 -0.0032545014 0.00013641678 0.00067590637 0.0027719084 0.0003875433 0.00047608 0.001670277 -0.0013699031 0.0022201347 6.412928e-05 -0.00010407973 -0.0031869637 0.00023087511 0.0022941574 0.00068458857 -0.0026914168 -0.0012156643 -0.0020192286 0.0021171009 -0.0021253855 0.001842414 -0.0017043875 -0.0024708875 -0.002595249 0.0013591998 -0.0030451044 -0.0019500545 -0.0024395164 -0.0016605888 -0.0013216289 0.00036341758 0.0021046305 -0.0003487452 -0.0017389038 0.00044485155 0.0017913058 -0.0018466215 -0.0017250673 0.0016407844 0.0021129753 -0.002735415 0.002768172 -0.0033430252 -0.0024214208 -0.0019270264 0.00044515953 -9.6980555e-05 0.0011217768 0.0024842245 0.0016091872 -0.0010807174 -0.0022641623 -0.002760434 -0.00020733151 0.0032348481 -0.0024958022 0.0012790965 0.0014084612 -0.0012639154 -0.0024563514 -0.0018145123 -0.001682349 -0.0023077806 0.002052978 -0.0025786762 -0.0010055766 0.0013569919 8.898924e-05 -0.0025857964 -0.0016309767 0.0012948222 0.0007686648 -0.0006493397 -0.00036628073 0.000778877 0.00061818125 -0.00074714626 0.0018001269 -0.002729042 0.002206494 -0.0033626636 -0.00088100164 0.0022767861 -0.0012037557 0.0021393746 0.0018077348 -0.002559207 -6.8199224e-05 -0.0015252153 -0.0027456828 -0.00021773836 0.0021283498 0.002929242 -0.001643212 -0.0008819149 -0.002003409 0.00051044754 0.0008847701 -0.0033100876 0.0008076597 -0.0030303404 0.00013374601 0.0015432269 -0.0016992084 4.796275e-05 -0.0008374205 -0.0031148868 -0.0009860424 0.0014051691 -0.0029010726 -0.0020107145 -0.00025287305 0.002610766 0.0004289414 0.0032556294 -0.0025304914 0.0029543403 -0.0016191442 -0.0021167547 -0.0026347535 0.0005529347 -0.0009088965 0.0026256414 -0.00027885052 0.00085502 0.0020681329 -0.0029931425 -0.0006192059 -0.0017454777 -0.0028285447 0.0010512737 0.000804809 -0.00072637404 -0.0006147609 -0.0023643884 -0.0010329196 0.00040812607 0.002577401 0.0024052444 -0.0011269237 0.0012599112 -0.0008617779 -0.001531679 -0.0013411031 -0.0020414626 0.0012766153 -0.0025795223 -0.0026076126 -0.0015681406 0.002506089 0.0006545029 0.0019287036 0.0025875715 -0.002214422 -0.001563404 0.002669771 0.0017371298 0.0014533937 0.0029883138 0.0028758815 -0.0009257772 0.0003355948 0.0018829267 0.0030372245 0.003430445 -0.00270785 -0.0016274892 0.0015408637 0.00031236236 5.2379408e-05 0.0025243855 0.0021482701 -0.0024052502 -0.0009147415 -0.0027347994 0.0022631283 0.00095459714 -0.00075249077 0.0006408261 0.0026229678 0.0029031716 0.0020781637 0.0010496444 0.0006885638 0.0028685725 0.00051535823 0.00012688174 -0.0030967616 0.0007101699
in+die -0.002773346 0.002473637 -0.0019785713 -0.00057756796 0.00026961797 -0.00078099547 -0.002818144 0.0019908927 -0.0022541524 -0.0031125501 0.0014109326 -0.0003424731 0.0020568355 -0.0023025912 0.00021311373 -0.0006211944 0.002173018 -0.003080409 0.0020051708 -0.0032279836 -0.002521861 -3.8973645e-05 -0.0006360972 -0.0012874843 -0.0017467508 0.00144825 -0.0034410493 0.0003392993 0.0012132276 -0.0003739505 -8.91636e-05 0.0023413976 -0.0030516312 -0.0030529052 0.001359652 0.003059683 -0.0025025667 -0.0029103055 -0.00015106697 -0.002830104 0.0006026388 0.0029099951 -0.0019259133 -0.0023021384 0.0030989014 -8.362045e-06 -0.0011315796 -0.0008643721 -0.0027823676 -0.0013439741 -0.0012415063 0.00019618607 0.000103737744 0.0027696725 0.0020712165 -0.000212763 -0.0031568483 0.0010654997 -0.0019657095 0.002975762 0.0013560094 -0.00034555513 0.0021424675 -0.0011058511 -0.0013810535 5.199074e-05 0.0029068268 0.0021802082 0.0003018538 0.0011661383 -0.0009215659 0.0031780102 -0.0021664985 -0.0012420748 -0.0016402584 0.0031026532 -0.0012369875 -0.0005790629 0.002205521 -0.0029895883 -0.000969365 0.00084707804 -0.002158434 0.003573508 0.00041439882 -0.0018146227 0.0016297636 0.0027664471 0.0007116907 0.0020970742 -0.002073136 -0.001200822 0.003340746 0.0019261559 0.0007352936 -0.00073144486 0.0016832312 0.0008466025 0.002646814 9.086658e-05 0.0028761127 -0.0020008362 -0.0022335828 -0.00028220782 0.0011022508 -0.0009844735 0.0019858286 -0.0027735687 -0.0034111452 0.002519804 0.0019888955 -0.0013418134 -0.0014233531 -0.0011203797 -0.00014961646 0.0031691722 0.00040878527 -0.00066998886 -0.00091715687 -0.0011685184 -0.0030249413 0.0026206695 -0.0028169812 -0.0009580759 -0.0022855776 0.003350646 0.0018869883 -0.0003929484 0.0013100877 -0.00048863504 0.003317322 -0.0009438415 0.0018284089 -0.0018466664 0.0030847448 0.003394023 0.0018317834 -0.000227574 -0.0009048491 -0.0034137773 0.0031869293 -0.0031454687 -0.0023512854 0.0019911793 -0.0005875613 0.0024275421 -0.002951048 0.0028486038 0.0009471797 -0.0030849667 0.0014508507 -0.0019976723 0.0021628584 0.0020232445 -0.0027659617 0.0022940051 0.0012962198 0.0018892346 -0.0024273263 -0.0017937579 -0.002938897 0.0017320722 -0.0016370756 0.0016184587 0.0014438129 0.002642973 0.00086834043 -0.00018136516 0.00034555633 0.0015180211 -0.0032371287 -0.0019405683 -0.00028137094 0.0017421768 0.00013721501 -0.0031748281 -0.00028559536 0.0021119784 0.0021384219 0.0012303217 -0.001699766 -0.0009406711 -0.0009327041 -0.002037006 -0.0031816773 -0.00037405084 0.0010036686 0.0020361613 0.0012975103 0.002439218 -0.0020452118 0.0030693738 -0.0015348401 0.00030072007 -0.0013422376 -0.0015099846 -0.00050864054 -0.0026943274 0.0030151445 0.0014006747 -0.0009167211 0.00076889055 0.002579813 -0.0018339783 0.0013550022 0.00011234355 0.0010175771 -0.00039442352 -0.0032990417 0.0018274974 -0.00045208956 -0.0030367756 0.0001694269 -0.0021537924 0.0027324266 -0.0021886649 -0.0008813869 -0.0007369437 -0.0018908214 -0.0013432143 0.0023826892 0.00059205247 -0.0032979313 -0.00035704675 -0.003303678 -0.0010990609 0.0017613627 0.0011428217 -0.0020061159 0.00051818736 0.001979744 -0.0026479776 -0.0010999601 -0.0005517567 -0.0032282302 0.00076259946 0.0023809806 0.00058041833 0.000997528 -0.0007817227 -6.5772096e-05 -0.0022739777 -0.00017128185 0.0023343994 0.0011507571 -0.00018787064 0.0027335216 0.0008514671 -0.002491339 0.0025994903 0.0033858388 -0.0028699213 0.0025483668 -0.002459224 -0.00049011596 0.0015604751 -0.001564224 -0.0025368913 -0.0027459327 -0.0034241488 -0.0020695801 0.0033078315 0.0013034446 -0.0034954955 0.0024609407 0.0023215525 0.0029238358 0.0034838042 -0.003258322 -0.0006679344 0.00052197906 0.0006777934 0.0016226365 -0.002414124 0.0018194454 0.0036923378 -0.002827227 0.0028615312 0.000586603 -0.0014099765 -0.00044754805 -0.0027764472 -0.002522611 0.0018952572 -0.0011915957 0.0035212606 -0.0029565832 -0.002208312 0.0019741917 0.0027242813 0.0014597508 0.0029239326 0.0022319728 -0.0018752757 0.0033197347 -0.0016663389 -0.00079678127 -0.0020141387 0.0022979283 -0.0017728119
' 0.0010436121 -0.00018831213 -0.0004475794 -0.0019167068 -0.00198727 -0.0013781392 0.00032518408 0.0011533385 -0.0012113536 0.00045987233 -0.0017948349 0.0032673215 -0.00039433833 -0.0022639346 -0.00070020463 0.002256932 -0.00016132124 -0.0015275055 -0.00266511 -0.0022082583 -0.0010225343 0.0023202326 -0.0021676172 0.0004500273 -5.7187244e-06 0.0013550093 -0.0029995092 0.0025588102 -0.0011262785 0.0014523846 -0.0031096449 0.0016320575 -0.0025992724 -0.0011318321 -0.0005088725 -0.0010666683 -0.00017346318 -0.00011274005 0.0015875839 -0.00055127667 -0.0014286574 -0.0022198479 0.0028616844 0.0014608881 0.0031586818 0.0020880834 -0.0014556292 0.002760587 -0.0021675213 0.001191991 -0.0009886753 0.0001854095 0.0011472207 -0.00069426757 -0.0016746472 -0.0003471938 0.00035894345 0.0023545232 -0.0018285573 0.0015052675 -0.0011058559 -0.0026715845 -0.0019384425 0.0006695082 0.0028041005 0.002752624 0.0031841565 0.0024674628 -0.0012259615 -0.00089949917 0.003000801 0.0022633444 0.002251729 0.0021467232 0.00068042596 0.0009962266 -0.0029503217 0.0027185874 0.0029805966 -0.002143443 0.00039055274 0.0028103935 0.0011319249 0.0029301774 0.0025686533 -0.0007505741 0.002908243 0.0020851698 -0.00021736862 -0.00013365777 0.0034137522 0.0019506381 -0.0021651986 -0.0011404091 -0.0009724377 0.0014638861 0.00059348834 -0.0028936318 0.00062589464 0.0032712247 0.0008400574 0.0013733892 0.00096407486 0.0028910765 0.003079517 0.00073508924 -0.00077655195 0.0012690487 -0.0029988769 0.0026826998 -0.0014553561 0.003316853 -0.00322787 -0.000774307 0.002819693 -0.0011944924 -0.00055015937 0.0017258887 0.003308614 -0.00057436636 -0.0022303844 0.0036677516 -0.003012128 0.0005156439 0.0019439918 -0.002267057 -0.0019267588 -0.0033164327 -2.2944561e-05 0.0019956685 -0.002703872 -0.00080778124 0.0030186682 -0.0020815134 0.00091948593 0.0014081668 -0.0014412566 -0.0018811459 0.0024487914 -0.0014078484 0.003079382 -0.0011271517 0.00088163913 0.0019683726 0.00035051795 0.0012594197 -0.0023232694 0.0025673872 -0.00037975717 -0.0017330404 0.001839211 0.002955307 -0.0018913939 7.9511505e-05 0.001628271 -0.00081029994 -0.00025557942 0.0026545844 0.0024646078 -0.0017758332 -0.0010671155 0.003061981 -0.00041752824 -0.00317008 -0.00038301022 -0.0022667006 0.0004083267 0.00041119655 -0.0016179563 -0.00101091 0.0026183943 0.0015674043 0.00086132175 0.0007096471 0.002928728 -0.0016197187 0.0019476451 -0.0005737474 -0.0025049408 -0.003173619 -0.00075065176 0.0029863007 0.00048808908 -0.0030169229 4.05076e-05 -0.0013711576 -0.0009768207 0.003133577 0.0020527379 -0.00032286876 0.0010078663 0.00024736108 -0.0037250635 0.0010720089 0.0024583787 0.0011790711 0.0007746801 -0.0013849627 0.00080027996 -0.002668339 0.0012326217 0.0009326302 -0.00015780587 -0.00010692031 0.0009901773 0.0006297949 0.00054795283 0.003384935 0.0011775725 0.00033964802 -0.000983064 -0.0022850283 -0.0031832547 -0.0011878613 0.0016442406 0.002464743 -8.64915e-05 -0.002186859 0.00075952336 -0.001504329 -0.00031629784 0.002909166 0.0025540479 -0.0004130478 -0.0021179302 0.0011704604 0.0033708818 0.0028132584 -0.00075846066 0.0024296322 0.0031180168 -0.0033607206 0.0029822106 0.0002618398 -0.0019730527 0.0013111803 0.003210306 -0.0026623753 0.0024827423 -0.0026246782 -0.0024016162 0.0016365395 -0.0014982595 0.0017284353 0.0025960703 0.0028388393 0.002030092 -0.0030332026 0.0010969131 -0.0028636716 8.1459024e-05 0.0034483434 -0.0015924969 0.0014800873 -0.0022667276 -0.00265995 0.003004591 0.0011659013 0.0021787747 0.00084461115 0.0005061328 0.0013421489 -0.0024941321 0.0017616515 -0.0018425484 0.0014699961 -0.0015196935 0.0006220004 0.0010065219 -0.00075382873 -0.0026696047 -0.0021468874 -0.0033287674 0.003422931 -0.0012070732 3.0357713e-05 -0.0028450468 -0.0012790415 -0.0020866804 0.0010157715 0.0019320176 0.0012472114 0.00326824 0.0007140842 0.003114373 0.0027242347 0.00065426674 0.0008528453 -0.0025866036 -0.0006627681 0.002125861 -0.0021977597 0.00079455564 -0.0025161032 0.0036212655 0.0004106171 0.0004497472 -0.0016423685 0.0023006022 -0.0027069347
