228 300
die -0.0002557638 0.0045631877 0.0017124383 0.0057968665 -0.004133308 -0.008362414 0.008743773 0.016250052 -0.0029079719 -0.004491002 0.0045244265 -0.003808606 -0.0016820665 0.001382028 -0.0026692858 -0.003631301 0.005308346 0.0005791737 -0.0014471402 -0.007352159 0.0019032107 0.0005554423 0.0065500634 0.00175862 0.004164218 -0.0043261386 -0.0068464964 0.00124994 -0.0054326802 -0.006933383 0.0016119241 -0.0011297786 0.004871922 -0.00010923902 -0.0034373922 0.00061156927 0.0050695823 -0.0077354778 4.804222e-06 -0.00030987794 -0.006359774 0.0008407183 -0.002280279 -0.0050640698 0.0038051556 0.004197511 -0.002249766 0.006849032 0.0027012788 0.006801826 -0.0006162569 0.0030430835 -0.0028388125 0.0025416547 0.0021341143 0.0033971132 0.0035909098 -0.00015897774 0.0005477364 0.005598699 -0.0034227988 -0.0021623976 -0.0020797288 -0.0028985182 -0.0030033458 0.0052889213 0.0034573928 0.0041732653 -0.0038343347 -0.0017433766 0.0029884204 0.0042619715 0.004177494 -0.0059795184 0.002350444 0.0029104995 -0.0009782857 0.00056229514 -0.0026614843 0.0033625795 -0.001983631 -0.0038163099 0.0001998505 0.01455372 0.0015978785 0.002002032 -0.00032312426 0.0010484632 0.0079067005 0.0018460425 0.004665679 -0.00074097444 0.002250734 0.0011598974 0.0092720585 0.007839823 -0.0011309417 -0.004533158 -0.0012017369 0.006336426 -0.0049756877 0.0014046989 0.0056739696 0.003967089 0.0030302403 -0.0049618683 -0.00035655196 0.002441918 -0.006104726 0.0018941922 -0.0038499488 -0.002718381 0.0005537727 0.0056609996 0.0017325643 0.004611493 0.0048157955 0.0038702993 0.0037652354 -0.0067650503 0.0023831876 0.002564852 0.0066939835 -0.005441843 -0.00029530932 0.0054017343 -0.0024744081 -0.0023366176 -0.00095498026 0.0078127235 0.0070194933 0.005353861 0.0027247912 -0.006347058 0.0026612266 0.004205994 0.0007891656 -0.0014846036 -0.002518253 -0.004009924 0.002587793 -0.008997988 -0.0051065534 0.0027142565 0.00022010854 -0.0012754186 -0.0045741703 -0.0020826529 0.0037705617 -0.0034612615 0.002530825 -0.011487942 -0.0022503538 7.451635e-05 0.0005561492 0.007237717 -0.0017879093 0.00022723177 -0.002288841 0.010443143 -0.0026143247 0.0020028972 -0.0063803424 0.00072660163 -0.0019192309 0.0014226465 0.0016460355 -0.002722227 0.001772498 0.009627357 -0.0060036145 -0.0033991763 0.0033338184 0.004701511 -0.00042055317 -0.0026037877 -0.0020949484 -0.0069065522 0.0033830975 0.00030850904 -0.0026462448 0.004984817 -0.001894462 -0.0039895712 -0.003672323 -0.0015259655 0.0058780336 0.0035527418 0.002107146 -0.008868132 0.0008712666 -0.00070336816 -0.0057442444 -0.001511247 0.0007831155 -0.0042119506 0.003444704 -0.004960469 -0.0010396662 0.00029779266 -0.0032531405 0.0009891192 -0.0041606333 0.0010831979 0.0032524243 2.8986713e-05 -0.004472116 0.002770781 -0.0035008725 0.0007975406 -0.0027393524 -0.006340319 0.002211829 -0.0036530055 0.004418848 -0.0064398292 -0.0023486756 -0.007038115 -0.011041943 -0.007406364 -0.00050845003 -0.00082892255 -0.0055921343 -0.006150292 0.00043153614 -0.0036514674 0.0031284932 -0.00011415809 -0.004403129 0.005622565 0.005259243 -0.0042301323 -0.0045553306 0.0031230045 -0.0051984224 0.0029735232 -7.343901e-05 -0.0006102309 0.0008304774 -0.009213241 0.0012083461 -0.00034012002 -0.0015681774 0.003768314 0.0032962423 -0.0060925907 -0.0007688077 -0.0014837908 0.00014923618 0.0026771436 0.0033865895 0.0008724691 -0.00062348525 -0.0017745049 -0.010936812 -0.0061817537 0.0057836957 -0.0021899866 -0.011686975 -0.0056935814 0.00506382 0.0027428668 0.0055520735 -0.009187657 -0.008666847 0.0038018008 0.006852948 0.0060861562 -0.0094572995 0.0028131094 -0.0021734769 0.0025418245 0.0023582245 0.00021907485 0.0026512137 0.0061441227 0.0068882173 0.004597253 -0.0090537695 0.00036679595 0.0011392881 -0.004716015 -0.0048854626 0.0032663168 0.0004503415 -0.0016802043 -0.010381096 0.0007537454 0.004575669 0.005926669 -1.4377079e-05 0.010580459 0.004578885 -0.0011927751 0.008910029 0.008519916 0.0022643618 -0.0031601402 0.0072952537 -0.0047857016
, -0.0029705134 0.008735512 -1.741027e-05 0.0027486535 0.00026612147 -0.008973937 0.009041569 0.018820547 0.0005838574 -0.0064842873 0.005695701 -0.0026155342 0.0011408165 -0.0030653113 0.001646772 -0.004527899 0.008438345 -0.0014882883 -0.0011013078 -0.0029784346 -3.752458e-05 -0.0020783758 0.008422427 0.0049637957 -0.0008918786 -0.0029132997 -0.006172228 0.00047287354 -0.003053528 -0.006848425 0.005335223 -0.0023820428 -0.0003328248 0.002198404 -0.0020732193 0.004579198 0.006028546 -0.009238933 -0.0032359187 0.004790108 -0.0028217756 0.00074388116 0.0028857223 -0.005525389 0.007287798 0.0062824446 0.0012678955 0.003605002 0.00027153004 0.0038135825 0.004136346 0.0019042109 -0.0049664224 -0.0003401818 -0.002850639 0.0061653596 0.0031563533 0.005839055 0.003977269 0.001643562 -0.0033698478 -0.0012807901 0.0016245937 -0.00070185045 -0.0016275796 0.0036441104 0.0043805684 0.0055285236 -0.0044533666 -0.0064651794 0.0034859495 0.0005296124 0.0053839325 -0.00030361355 0.00031961864 0.001857431 -0.0060031405 0.0033047101 -0.0041340087 0.008463059 -0.0038942874 -0.003795913 -0.0004935593 0.016020907 0.0037697009 0.00078410876 0.00015445935 0.005149268 0.0102608 -0.003667977 0.0026886892 -0.0014218551 0.0011950654 0.0004612676 0.010799558 0.007507218 0.004277106 -0.0052248263 -0.0025859203 0.0033818923 -0.0049875886 0.0006214104 0.002347708 0.0017277212 0.0020867304 -0.0017392625 -0.00067001535 0.0013035337 -0.0077271136 0.0073870174 -0.0068309633 0.001645374 0.00020998904 0.004870306 -0.0007404066 0.0013768773 0.0019060867 0.0036185386 0.008116091 -0.009837667 0.0022151342 0.0020877658 0.0073935157 0.0005295645 -0.0040381625 0.0056821485 -0.0006880076 -0.0029190965 -0.003359102 0.007157454 0.0069918083 0.009341361 0.003883843 -0.00866119 0.004493454 0.0020584343 -0.002969334 -0.003208683 -0.0072539016 -0.0083011 0.0005962748 -0.01036579 -0.005846383 0.0064684288 0.0036859426 -0.0070569916 -0.0068187867 -0.0018310726 0.005655884 -0.0073788394 0.0013053752 -0.008914578 0.0005674117 -0.0028556765 0.00063473237 0.0030306336 -0.00924799 -0.005344698 -0.0030314878 0.007575888 0.0018799659 -0.0009563319 -0.00531411 0.0031981044 -0.00491485 -0.0006784075 0.0022445428 0.001966202 -0.002445825 0.012244615 -0.0077333585 0.0013886242 0.00072377484 0.0044171577 0.0009410388 0.0017263832 -0.00044214708 -0.0046550315 0.004692826 -0.0013995714 -0.0021334162 0.002001866 -0.0034441662 -0.0031928835 -0.0074965484 -0.0036937029 0.010166143 0.009086902 -0.001612084 -0.010637933 0.0017160657 -0.0016589414 -0.006246687 -2.5650792e-05 0.0030324373 -0.008932056 0.0041657374 -0.0036071923 0.0028769406 -0.00033469178 -0.007017259 0.00067745015 -0.0027300431 -0.0012767046 -0.002228367 -0.003397038 -0.002520002 0.003702714 -0.0029653162 -0.003860865 -0.0032001564 -0.007403374 -0.003502216 -0.008200169 0.001432805 -0.008248869 -0.006957659 -0.014798412 -0.010906479 -0.007621204 -0.0007706523 0.0006812983 -0.0025420256 -0.0015586435 -0.0052167256 -0.0036741735 0.001326216 -0.005617334 -0.002420325 0.0076385317 0.0060952557 -0.005182062 -0.004095494 0.0021803463 -0.0029047944 0.007515279 0.0018844546 -0.0004283554 0.0021340842 -0.01221415 0.007120232 -0.0035841002 -0.0039091124 0.001100419 0.0022173864 -0.01056151 -0.0017824954 0.0018338244 0.0017682015 0.0032078375 0.0045187343 -0.00080323714 0.004815702 0.003974614 -0.013018292 -0.004386127 0.011288897 -0.0035422347 -0.014164377 -0.00821125 0.00727562 0.0046371087 0.006486595 -0.014768197 -0.006440446 0.0016707835 0.0054986225 0.0059835752 -0.011329589 -0.002016311 -0.003542711 0.0031161301 0.0038474472 0.0013027305 0.004298668 0.006854844 0.0014861187 0.0052141394 -0.009877876 0.001672243 0.003406427 -0.004586785 -0.00086765375 0.0008239142 -0.000114585535 -0.0027816617 -0.0124871135 0.0073516704 0.001715914 0.0082631465 0.004878804 0.013769495 -0.0008735888 -0.00073868164 0.011119979 0.010052007 -0.00018425538 -0.0071079 0.006597032 -0.005360551
. 0.002607142 0.0020952425 -0.00029407433 0.0025145977 -0.0008447465 -0.004273185 0.007007021 0.010219015 -0.00196509 -0.002927653 0.003603724 -0.0019850251 -0.00036007463 0.0025537242 -0.00242145 -0.0026282852 0.00641775 0.0024187707 0.0014909204 -0.0061359513 -4.7054593e-05 -0.0015793397 0.006427305 0.0014948266 0.0019946822 -0.0015256025 -0.005689782 -0.0021733858 -0.0022175391 -0.0049459944 0.0052602123 0.0022905064 0.0010862302 0.002690677 -0.0041166954 0.0015510393 -0.00056920963 -0.0073561184 -0.0019810991 -0.0020187257 -7.681529e-05 -0.0025347497 0.0032737204 -0.005230281 0.004120433 0.00649173 -0.002409293 -0.00057895645 -0.0007315914 0.0019498 0.0015815424 -0.0017902969 -0.0039367387 0.002718936 -0.0032454191 0.0007882084 0.000795843 -0.0012612101 -0.0011229984 -0.0008228278 -0.0023110865 -0.0033713793 0.001671907 0.00032138405 -0.0029477596 0.0054457956 0.00092237815 0.0002489861 -0.004703283 -0.0034201825 0.00037001586 0.0033331842 0.0026479878 -0.00059186126 0.0029997723 -0.00042128208 -0.0011163586 0.0026813755 -0.0023850852 0.0069682873 0.00071235583 -0.005778017 -0.0035020602 0.010210435 0.0020689406 -0.00096881686 0.0014047137 0.0003981522 0.0045945863 -0.0003633002 0.0022980997 -0.00043732513 -0.000322095 0.0006386484 0.004402844 0.005046655 0.004146394 -0.0036354575 -0.0016990001 0.0050305077 0.0011148539 -0.0013870491 0.0059294035 0.004298905 -0.001020857 -0.002167212 0.0007853205 -0.0009789761 -0.005774239 0.0009323529 -0.0031163655 -2.2572809e-05 0.0033042897 0.0016636483 0.000494837 0.0024949634 0.0034809536 0.0010563041 0.0017904054 -0.008111269 0.0012623008 0.0053410875 0.003401174 -0.004602852 -0.0046026674 0.0055909622 -0.0018871811 -0.0008702874 -0.0024826962 0.007108996 0.0007549349 0.006446912 0.0018554862 -0.00569054 -5.1378865e-05 0.0021813903 -0.0030267886 -0.0030860947 -0.0068804505 -0.004577966 0.003041553 -0.0058854446 -0.0020559926 0.0033148716 0.0038924334 -0.0048985435 -0.007245515 -0.002164795 0.005619983 -0.0028054526 -0.002863264 -0.0068450663 0.0015453617 -0.0033735482 -0.0010861449 0.006535475 -0.00672052 -0.0001798366 -0.001416146 0.008213821 0.00296384 -0.00023330729 -0.005134368 0.0048223506 -0.0016685803 0.0018779703 -0.0038291658 0.0025450538 -0.0010479257 0.0037060494 -0.002636904 -0.00051812874 0.0027147522 0.0012348349 -0.0014445663 0.00041524082 0.0028938057 -0.006343538 0.0022979442 -0.0015683292 -0.0019026257 0.0026444448 -0.0057482766 -0.00048928295 -0.0026489757 -0.0014675187 0.006224182 0.008458651 0.0037613797 -0.0061782454 0.001113272 -0.0014155924 -0.0076360223 0.0029738387 0.00065561576 -0.0041003786 0.00068266713 -0.0046828436 0.0030321493 -0.0023181732 -0.005676716 0.0028505106 -5.0777882e-05 0.0042066025 0.0027857649 -0.0008801113 0.00081894087 8.5109605e-07 -0.0028155856 0.00040785212 0.0002657026 -0.0060499148 0.0025492478 -0.0042319125 0.004612841 -0.0031295787 -0.0052357605 -0.008677871 -0.008756064 -0.005360587 0.0017497148 0.0037767761 -0.0001806611 -0.004782708 -0.0005586652 -0.00076961727 -0.0005813228 -0.004549627 -0.0014446267 0.0006681776 0.004702639 -0.00332746 0.000292064 0.0063203736 -0.001868179 0.0042122183 -0.000583201 0.0011683846 0.001593734 -0.009861424 0.0016449922 0.00053945964 -0.001008506 0.00077180093 0.0012056809 -0.006410919 -0.0007779412 0.00097302545 -0.00014905169 0.0010255288 0.0022271706 0.0014078247 0.001274542 -0.0009816039 -0.0045739096 -0.0039486163 0.005647157 -0.00034119358 -0.005345454 -0.005700077 0.00052130065 0.0015136946 0.0052721286 -0.0079762805 -0.007853781 0.00023132944 0.0017694754 0.0052630673 -0.0087181125 0.0016763203 -0.005743568 0.0010854588 0.0027251784 0.002094436 0.00033216324 0.0005078783 0.00060821127 -0.00011129417 -0.009383672 -0.00040537748 0.00035245583 -0.0038720977 0.0005504664 0.0029440776 0.001999643 0.0006355512 -0.0064717066 6.574292e-05 0.0006483197 0.0059285876 -0.0005391165 0.007018281 0.0021467134 -0.00031108948 0.008239736 0.007959747 0.0010859184 -0.00023640569 0.005454015 -0.0037935353
sein -0.0018551222 0.0014635733 -0.002562158 0.0049936688 -0.0013928876 -0.007053237 0.003773231 0.012125267 -0.001928684 -0.0037833499 0.0021702533 -0.0035105417 -0.0006082989 -0.00026177484 -0.0018393706 0.00045569896 0.004768655 -0.0031457657 0.003086606 -0.0056003905 -0.00020843092 0.00067155674 0.0016657752 0.00044451596 0.004218825 -0.0038427378 -0.0078001106 0.0025990568 -0.0031187527 -0.0059485678 0.0060216263 0.0007707877 0.0027642108 0.0048761866 -0.00490991 0.0027710323 0.0025485153 -0.0032058225 0.00046690984 0.0025057883 -0.0010313196 0.0013862066 -0.0005407021 -0.004368523 0.0029208567 0.0042421357 -0.00085428666 0.0048588743 0.0021721057 0.005513537 0.0025619909 0.0039046234 -0.001565361 0.004523602 0.00068775227 0.0012315444 0.00029404028 0.0008466808 0.0028818448 0.0017437508 -0.0032126668 0.0007985343 0.0026175315 -0.000763782 -0.0036687437 0.0019155097 0.0013526717 -0.0013895645 -0.0018617866 -0.0034103424 0.0017869319 0.0030792432 0.0022327274 -0.005454902 0.0011924385 -0.00012753882 -0.0019037714 -0.0005892315 0.00091956457 0.0051367534 -0.00020000458 -0.004613533 -0.0018651764 0.012191532 0.0031689063 -0.0008660729 -0.0044302214 0.0026160884 0.009125375 0.0015332618 0.00024151662 0.002316001 0.0021625387 0.0032720128 0.008045883 0.0024565482 -0.0015283127 0.00020299865 0.0019646788 0.004454643 0.00075783744 -0.0004480377 0.0057029054 -0.0015643189 -0.0022878083 -0.0045344117 -0.0019612538 0.0020231474 -0.005285392 0.00048799877 -0.00015079486 -0.0011418525 0.0047721188 0.0008833115 0.0017781003 0.0033242335 0.0027251013 0.00010544024 0.004873975 -0.007917678 0.00036965424 0.0023312254 0.005450856 -0.0027994516 -0.0041797366 0.0049599092 -0.0007782581 -0.004153071 0.0020510762 0.0056344606 0.0016904532 0.0057023773 0.0053366893 -0.0009326176 0.0032140813 0.0041585695 -0.0004444858 -0.0033538768 -0.0066302223 -0.0057048085 -0.00057430024 -0.0054635233 -0.0038649887 0.0047064973 -0.0011587257 -0.005454866 -0.006047708 -0.0016905784 2.9001276e-05 -0.002933174 -0.0017845329 -0.006931397 -0.0041349092 -0.00021289544 0.0017448254 0.0034731408 -0.0056405654 -0.0020718672 0.0007258217 0.0074247797 -0.0027721545 -0.00044071587 -0.0030839657 0.0025592297 -0.005581744 0.0012868063 -0.003643277 -0.0030419086 0.00059397885 0.004668477 -0.00259454 0.0025936132 1.1792192e-05 0.0051661 0.0005161603 0.0029224032 0.0020659314 -0.007835759 0.0002734893 0.0033993917 0.0022949614 0.0057552094 -0.00056507456 0.0012938742 -0.0065810275 0.00079041667 0.0029686403 0.0065408023 0.002959968 -0.0042005857 0.002914179 0.00043400045 -0.005413731 0.00283511 -0.00050531316 -0.0040023704 0.004548143 -0.0051466874 0.002955119 -0.0036207715 0.000654885 0.0025900898 -0.0010817115 0.0029162443 0.0009916528 -0.004077659 -0.0030282806 0.0036237054 -0.0021364216 -0.002353192 0.0006986378 -0.003337531 -0.0013106819 -0.0040612197 0.003490384 -0.0053995084 -0.00424841 -0.010379801 -0.007913438 -0.0072947633 -9.468522e-05 -0.002216963 -0.0029200448 -0.005570804 -0.0050983327 -0.004278826 -0.0020530173 0.00078021834 -0.0005246394 0.0035894962 0.0016528844 -0.0038856503 -0.0014148625 0.0032930297 -0.0018420455 0.00310318 0.00027723445 -0.0013444169 -0.0023631684 -0.008954705 -0.00034219096 -0.0011937728 -0.00030141269 0.0036826958 0.00085633615 -0.0068304236 0.0021713544 -0.00040397214 0.0005194838 0.005174069 0.0031942376 -0.0005158306 0.003644028 0.0022306668 -0.008537439 -0.0033760467 0.0053301863 0.001277873 -0.008065211 -0.0044404394 0.0033990678 0.0033866311 0.0025507896 -0.008476079 -0.0068959 0.0029365993 0.0058771065 0.0061221607 -0.008585584 0.0015789835 -0.0039584134 0.003946108 0.0016992347 0.0011112359 0.0037058457 0.004808067 0.0010175921 0.0052098185 -0.00713529 -0.0012705721 -8.457075e-05 0.0017687266 -0.004013065 0.0019477981 0.0024375576 0.0001815525 -0.009001632 0.0004898903 0.004383592 0.006765471 0.0027294264 0.0057695834 -0.0018511228 0.0015223112 0.0074422155 0.0034364786 -0.00227574 -0.0036845056 0.0019922345 -0.0027795075
und -0.00073675445 0.0008819059 0.0031365913 -0.0014424474 0.0008675484 -0.0017510443 0.0033910663 0.010805252 0.002577453 -0.0036847682 -0.00081076927 -0.0041976124 -0.002775885 -0.0014782152 -0.0024265964 -0.0045778435 0.0028154405 0.0011456886 0.0029478248 -0.003331168 -0.0018263703 -0.00021938846 0.002675758 0.0035464205 0.0011614037 0.0006217311 -0.006636469 0.0023790402 -0.0023885197 -0.00035313622 -0.00013098247 5.4367363e-05 0.0013547655 0.0013644515 -0.0032320006 -0.002366394 -0.0010158566 -0.006080607 0.00061562983 0.00090270006 -0.0025641266 0.001866106 -0.00041304014 -0.0025789822 -0.0007084916 -0.0008203413 0.0031083627 0.00018015299 -0.0015131966 0.0039684274 0.0035793437 -0.0013474508 -0.0004728913 -0.00073731685 0.00017873837 0.0015088808 0.00014192214 0.0019883479 0.0038772363 0.0038042106 -0.0049135564 -0.0032894905 0.0022056296 0.00041573826 -0.0028376607 0.0028395972 0.0053674444 0.00087987754 -0.004866567 -0.00096426375 0.0028286506 0.002939091 0.0040600123 -0.0034804076 0.00039936704 0.0015400649 -0.0004925205 -0.0021983765 -0.0037729626 0.00372841 -0.0038721713 -0.0007340498 -0.0010738482 0.010491169 0.0002685165 0.00067695597 0.0013145555 0.00020530791 0.0035060965 0.0002695788 0.0033242078 -0.0013573106 0.0028087567 -0.0019648394 0.0047533084 0.0037289036 0.004070483 0.00065211917 0.0013673542 0.005036758 -0.0044656144 0.003356592 -0.00036160674 0.0002980149 -0.0013143567 -0.0033076243 -0.0031438486 -0.0023024708 -0.0044986857 0.001954242 -0.0038732495 0.0021645247 -0.0017489952 0.00022899502 0.0035371582 0.0036315676 0.00397908 0.0022338934 0.0030352143 -0.0057987333 0.0029467598 0.0032241202 0.0047988566 0.0009142855 0.0011999568 0.0054210867 -0.0037306813 -0.004505573 0.00018737924 0.005394624 0.004673633 0.005898964 0.0042343196 -0.0043724393 0.002937667 0.0005447356 -0.003923616 0.0010309848 -0.0028414729 -0.005062553 -0.0008856238 -0.005325762 0.00036248623 0.0030804991 -0.0001364881 -0.004754345 -0.0049095917 -0.00094678416 0.003912553 -0.003357111 -8.529831e-05 -0.004519824 -0.0036409372 -2.1023694e-05 3.7707836e-05 0.0034763396 -0.001245153 -0.0014875967 -0.0021789817 0.007195104 0.0018520625 0.002714011 -0.0013434641 0.004286476 0.00068087375 -0.0005118979 0.002417771 0.0010692918 0.0013675736 0.0038755345 -0.0034292361 -0.0017943186 -0.001939443 0.0025107947 0.002923163 0.0027719168 -0.000527687 -0.0015229554 0.0022485713 -0.0006034458 0.0010100773 0.00030067738 0.00065089134 0.00078292354 -0.0013747712 0.0008815062 0.0063327835 0.0063530426 0.0003850842 -0.006631 0.0030711037 0.0023121391 -0.0031812505 0.00018334897 -0.0009555287 -0.004489988 0.003868414 -0.003445423 -0.0009063759 0.0027052339 0.0005805624 0.0028706763 -0.0007396223 -0.0018566711 0.003179603 -0.002592177 7.20188e-05 0.0025501812 0.0028182722 -0.0038103277 0.0024058656 -0.0062127262 -0.0028333338 -0.0053571784 -0.00080810627 -0.00010413173 0.00072181586 -0.0072242157 -0.0036112643 -0.004511788 0.0037255038 0.002420499 -0.002447444 -0.0031765194 -0.0037426413 0.0004128353 0.00065208954 -0.0019872908 0.001218235 0.0013200059 -0.0010953476 -0.0017948562 -0.0011564619 0.00012240135 -0.0031591256 -0.0007506158 0.0030581155 0.0014956333 0.00012046359 -0.0027555933 0.004553054 -0.000787973 0.0014829104 0.0021225451 0.0028654032 -0.002061177 -0.0023927945 -0.0010515399 0.0012425997 0.003073687 0.002838513 0.002744605 0.002530281 -0.0022554721 -0.005688318 -0.004898144 0.0069712955 0.0011739542 -0.0055385274 -0.0012193468 -0.0004137081 0.0002392221 0.0026828772 -0.00357705 -0.0023025305 0.0023952203 0.0017919075 0.0013546986 -0.0040987474 -0.00057558465 -0.0038229253 -0.0020886064 0.0027615528 -0.000661618 0.0015538982 -0.0007347147 0.005311485 0.0021761728 -0.0041141897 0.0010178741 -0.0019850286 -0.0005187129 -0.00029378856 -0.00096859975 0.0016965428 0.00083455944 -0.0025912628 0.0036707772 6.519493e-05 0.0009914072 0.0032625184 0.005674546 0.002589536 0.0022634831 0.0043249377 0.0019257643 0.00024824403 0.00072760496 0.0006445411 0.001641354
eine -0.0025744305 0.004501639 0.0007482741 0.004376052 -0.0022353092 -0.0055401963 0.0022773338 0.009901076 -0.0023100744 0.00073712005 -6.674903e-06 -0.005187533 -0.0016738919 0.0016399492 -0.00280864 -0.0038094472 0.00041099274 0.0021739982 0.0019615854 -0.0018162848 -0.0013511343 0.0013625646 0.0008358073 0.00026130956 -0.0006366808 -0.0023518887 -0.005062478 0.0024556823 -0.0019614876 -0.006601861 0.0008189387 -0.0028686186 0.0020318325 0.00468201 -0.0036675853 0.0036469293 0.0044036643 -0.0061788275 -0.003053758 0.0040192427 0.00069696625 -0.0020880383 -0.001866421 0.00019051993 0.0038617682 0.0055555366 -0.002326923 -0.00079835654 0.0011524588 -0.0008448381 -0.00021407513 -0.00014926092 0.0022233366 0.004460485 -0.0014161898 0.0052107116 0.0040678703 0.0006591655 0.0042130155 0.0041115484 -0.0012267317 -0.0028509866 -0.002149653 -0.0012510335 0.0010559104 0.0008528734 0.0015342922 0.0046359277 -0.00082397903 0.00030820674 -0.0018508022 0.00080830394 0.004926207 -0.0035164298 0.0030653863 0.0048332023 -0.0024218108 -9.629503e-05 -0.0014429075 0.0022351784 -0.004006563 -0.0036578437 -0.0019252477 0.009560983 -5.943776e-05 0.0026847182 -0.0037558202 -0.0007853506 0.008717487 0.0026889672 0.0015513997 0.0007118287 -0.0011905519 -0.0022175354 0.002185776 0.006395278 0.0034133687 0.0016232777 0.0013174291 0.0050179777 -0.00097274716 -0.0032309284 0.0041200924 0.0011704155 0.0025423132 -0.0013547066 -0.0015817028 0.0028915848 -0.0029136478 0.0027198035 -0.0040755332 -0.0027889935 -0.0010287812 0.0050114896 -0.0025560625 0.004364067 -0.0015133128 0.0007889422 0.0026968387 -0.00732423 0.003960079 0.00494845 0.0035932886 0.00018938298 -0.001695073 0.006035945 0.0018010477 -0.005762598 -0.0017074373 0.0032480583 0.003579041 0.0031158938 0.0024643347 -0.0055664247 0.0018993665 0.0037286738 0.0006387751 -0.0033527578 -0.0066239294 -0.0077611925 -0.00018132491 -0.006880421 -0.0037825925 0.0039239125 0.0032189821 -0.0018435466 -0.006969528 -0.0028579158 0.0048863995 -0.0013572765 -0.0017178837 -0.007938632 -0.001083693 0.00037114706 0.0012306243 0.0040117214 -0.0050315065 -0.0045040622 -0.0037386697 0.0052687256 0.0016920216 0.0021307692 -0.0026470616 0.003320136 -0.0021033813 0.001202113 -0.003631881 0.0020734845 0.0015676906 0.0066777132 -0.0008504175 0.0025021478 0.0012616215 0.0011658084 0.00011436874 -0.0034021316 0.0030054026 -0.006144228 0.0041069696 -0.0003895369 0.00048117767 -0.0006702012 -0.0056252964 -0.0038673913 -0.0053316425 -0.00045088553 0.0014515547 0.0028766384 -0.0009405452 -0.0062288623 0.0027458817 0.0015648141 -0.0012899801 0.003117893 -0.0007496405 -0.0009362236 -0.00197108 -0.0036289606 -0.0011233564 0.0006112148 -0.0015780276 0.0023035386 -0.00028210334 -0.0013862866 0.003066381 -0.0036222863 0.00089393783 0.0021931685 -0.001865857 -0.0024474454 -0.0023222128 -0.005595853 0.0025123633 -0.0035823304 0.0039237957 -0.0061519765 -0.0020638178 -0.0073194224 -0.002985767 -0.0068043834 0.0036042288 -0.0011761069 -0.0049091433 -0.0041281325 -0.0026085675 -0.0025525477 -0.0007990738 -0.0037478835 -0.0012943925 0.002729107 0.001753893 1.8748458e-05 -0.0038629898 0.0015101435 9.752121e-05 0.005205427 -0.0032043315 0.0012991022 0.0020586394 -0.0072447234 0.0049252464 -0.003656461 0.001628741 0.002851066 0.001729553 -0.0068114502 -0.0022010223 -0.0014516924 0.0016006805 0.0025358929 0.0043393644 0.004391207 0.0041387714 -0.0007274025 -0.0019465968 -0.0029479705 0.005848102 0.00028483776 -0.006575886 -0.0017214434 0.0006454492 0.00067423104 -0.0006712208 -0.0057743303 -0.0018853745 0.00069055095 0.0033029641 0.003888771 -0.002080479 -0.0019819501 -0.0015264435 -0.0018139983 0.0019393872 0.0028534287 0.00494617 0.0043684104 0.005102126 0.0044230125 -0.0030829997 0.0030922724 -0.001128018 0.0018203956 0.00024294446 0.0015439457 0.0028591254 0.0018710532 -0.0026471245 0.0030946406 0.0045037963 0.004311889 0.003982434 0.0069809416 0.003259968 -0.000992343 0.006562446 0.0068975035 -0.0004891803 -0.0028952968 0.0042628185 -0.0040659113
ich 0.00317679 -0.00081531773 -0.002199712 0.002485304 0.0016175283 -0.005165215 0.004567714 0.0102904625 -0.0030039758 -0.0037401163 -0.00054220116 -0.0030607386 0.0005067952 0.0028511358 0.0015950529 -0.0015689823 0.0032322847 0.0029190353 0.0037657733 -0.00053066056 0.0016640254 -0.0030924764 0.0010708814 -0.0010102979 0.0031374162 -0.002505104 -0.0065967054 0.002162934 0.001077096 -0.004182199 0.005331031 -0.00072990876 -0.00033811625 0.0012542692 -0.0014064312 -0.0005355924 0.002261657 -0.0013575486 0.0022019648 -0.002288652 -0.0024874099 -0.002402789 0.002833265 0.00024166895 0.00064924615 0.0032022877 -0.001837762 0.0020374286 0.003789293 0.001231244 -0.000492654 -0.0015436278 -0.0017560516 0.0010187994 0.00082930236 0.0059183226 2.498447e-05 0.0017838613 0.0041010403 0.0019965866 -0.0012617646 0.0020139848 0.0026662333 0.0023821283 -0.0034571476 0.0058477256 0.0041169184 0.004186701 -0.0022539725 -0.00025872263 0.0029473845 -0.00044344587 0.00478234 -0.00069566746 0.003560744 0.0005117969 -0.0029783056 0.0025320363 -0.0039844015 0.0010768912 -0.0031374001 -0.002809347 -0.0016479815 0.00900565 0.005066925 0.00049426686 -0.0008292877 0.0021630428 0.0042906962 -0.002801332 0.00479194 -0.0018162854 0.0020788515 0.0035986714 0.0043797907 0.004426832 0.0024290401 -0.0021218783 0.0005163803 0.0024704877 0.0007658804 0.0019249484 0.002781442 0.003025384 -0.002657114 0.00065416424 0.0026582805 -0.0011632192 -0.0023617556 0.00044501718 -0.0016653398 0.0010076851 0.004171696 0.002022473 0.0011952304 0.0017081446 0.004106142 -0.0011632952 0.0006420825 -0.004814763 0.00012720878 0.0039511705 -0.00060545304 -0.0021563063 -0.004158601 0.0041001015 -0.0012290356 -0.0051725446 0.0011542191 0.006018531 0.0010260687 0.0018617647 0.0025942128 -0.0025887822 -0.0025585007 0.0046849563 -0.003316278 -0.0036664184 -0.004045409 -0.0057314313 0.00051459245 -0.00039758545 0.00039605293 0.0042195674 0.0005264269 -0.0019787138 -0.0044898693 -0.0037450332 0.0028737008 -0.0015549833 -0.0032243892 -0.0062220297 -0.0045044897 -0.0025025872 0.0018639045 0.0053209546 -0.0012887374 -0.00021173836 0.00155476 0.0039928225 -0.0003946212 -0.0024024139 -0.0027827544 0.00048139188 -0.0015482566 0.0022954382 -0.0028705895 -0.0017885308 -0.0025891543 0.0027962967 -0.0036869629 0.00046025388 0.0019438304 -0.00022110062 -0.0016184074 0.00018693182 0.002015843 -0.0016005083 -0.00014328463 -0.00047499232 -0.0014847094 0.0018910521 -0.0012985198 -0.00048678642 0.00010794179 -0.0013080443 0.003125151 0.001906112 0.00031598262 -0.006560295 -9.28599e-05 0.00039825862 -0.0064972774 0.003580214 -0.0020795194 -0.0061118826 -0.0018821198 0.00011522999 0.0030059482 0.0024805053 -0.0009833821 0.00022856392 -0.0019029168 0.0040118545 0.0013099104 -8.570287e-07 -0.0022110438 0.001422064 0.0019019318 -0.0008652253 0.00045420608 -0.0031319878 0.0012602906 -0.0009983048 0.0018794042 -0.0041671246 -0.0037544947 -0.004290261 -0.0064577633 -0.0031530783 0.0008204903 0.0016445714 -0.0051459917 0.0010276913 -0.0017429473 -0.0028751614 0.0014428613 -0.0016399084 -0.0038845215 0.00093006 0.0017177511 -0.003945836 -0.0009278919 0.0030002396 -0.0023584578 0.0028713287 0.0007883722 0.0023124446 0.0006914469 -0.0042405264 0.0025910754 -0.0011946562 -0.0035493844 0.0035131334 0.00042650747 -0.007532734 -0.002905541 -0.0017326465 0.0022936156 0.0032748731 0.003635367 -0.0013129535 0.0011995172 -0.00042936104 -0.0060892343 -9.687533e-06 0.0048844125 -0.0015455475 -0.00800988 -0.004155918 0.0017770893 0.0047735213 0.003450719 -0.008133728 -0.00661077 0.0028653478 0.0015549926 0.0011403434 -0.00202699 -0.0014685116 -0.00027248784 0.000378293 -0.0018083808 -0.00040577463 0.0041477224 0.0049402155 0.0028474925 0.0034646192 -0.0061118864 -5.5662782e-05 -0.0013518687 -0.0006034857 -0.0017673017 0.0007124914 -0.0022279583 0.0033100175 -0.003791481 0.0011839913 -0.00037846438 0.0058240574 -0.0013631175 0.0058068717 0.0010236757 0.0028712691 0.0057429126 0.002832107 0.0011073308 -0.002395783 -0.00061642914 -0.0022476162
es 0.00031497856 0.004973725 0.003347496 0.0047003166 -0.0032419588 -0.0015778933 0.0021052905 0.007825724 -0.00057494134 0.00019530085 0.0028053832 -0.00047631067 0.0030798176 -0.0003807116 -0.0026165596 -0.003969889 0.0048334547 -0.0015989741 -0.0001969717 -0.0012865936 -0.0010799672 -0.0026886435 0.001841231 0.0013087951 0.0019129898 0.00014292437 -0.005780326 0.000674211 0.00053863996 -0.0027237928 0.0042830347 -0.0021555757 0.0030528288 -0.0011292156 -0.00044189542 -0.002308055 0.00065895665 -0.0066283355 -0.0005919678 -0.0010020845 -0.0032530697 -0.00014487747 0.0013414692 -0.0027600573 -0.00032892518 0.0006808198 0.00046953154 0.00090573495 -0.002502272 0.0020676772 0.0034824358 0.0029793228 -0.004191485 0.002461482 -0.0023850105 -7.457225e-05 0.0013536183 0.0011563058 -0.0012662385 -0.0005517166 -0.002574742 0.00092272804 -0.002922631 0.002370286 -0.0017125618 0.0031203292 0.005470454 0.0030135305 -0.002995211 -0.00031254833 0.0019064551 0.0030298398 0.002866525 -0.0032160284 0.0009975581 -0.00014022276 -0.0016456435 0.0021845785 0.00059919374 0.0068733487 -0.0035520745 -0.004639267 0.001167736 0.00791951 -8.9732515e-05 0.0011941101 -0.0004612982 0.00080413173 0.003709544 0.0013942275 0.0057252534 -0.002952145 0.0006458323 -0.00024009401 0.0016299151 0.003311728 -0.00063075975 0.0016442335 -0.0028054505 0.0037711186 -0.0013736968 0.0014690477 0.0030223334 0.0045484025 0.00059985893 -0.0036378268 -0.00090313854 0.00097202923 -0.004238126 -0.0001295843 -0.004148238 -0.0021953317 0.0035880562 0.0033489019 0.0031545078 0.0035574243 -0.00057135156 0.0017831748 0.0058776117 -0.0035059007 0.0020318087 0.004356992 -0.00057365175 0.0018011568 0.00079031097 0.0055300123 -0.0031705513 -0.00026003248 0.0020183467 0.0029620533 0.00020032583 0.005976581 -0.00052769535 -0.0045801653 0.002010967 0.004762108 0.0019450953 -0.0035642541 -0.006456463 -0.0011608402 0.0020341782 -0.005354832 -0.004192565 0.00013177938 -0.00048774475 -0.0034266682 -0.003687874 -0.0010243654 0.00096054253 -0.0045134947 0.0031328814 -0.006635938 -0.003733535 0.0018851886 0.0013252682 0.005619011 -0.004493614 -0.0034776975 -0.00096212013 0.0044379453 -0.002984865 2.049635e-05 -0.002016337 0.0036378063 0.00044215666 0.00087322184 -0.0020459327 -0.0011396254 -0.0017276376 0.0064658886 -0.0050181574 0.0004144752 0.00044697072 -0.00034764438 -0.0024749222 0.0016998197 -0.0026496192 -0.0039713355 0.002015506 0.0034287213 -0.0021514772 0.0033279422 0.0010767976 -0.0034198922 -0.0037425614 0.0012238106 0.0054225195 0.004700559 0.00339019 -0.0041566156 0.0009701536 -0.0005780946 -0.0066696797 0.0017474999 0.001712993 -0.005971195 0.000831838 -0.0025161856 0.0012670908 0.0022326412 -0.0028853095 -0.0020065915 0.0013065349 -0.0015198562 -0.0025463388 -0.0020853365 -0.004770349 0.0013194899 0.00022909943 -0.0016122856 -0.0028663632 -0.0033778306 -0.00087531423 -0.0013253987 0.0038372942 -0.0007432317 0.00037509244 -0.00937571 -0.0019139115 -0.0042379824 0.0039845984 0.0012841403 -0.0013775302 -0.005265322 -0.0045275795 0.0017568344 -0.0007953951 -0.00020157751 0.00071986765 0.0025919345 0.0052851127 -0.0014907918 -0.0044922614 6.858295e-05 -0.001850193 -0.0007114584 0.0024719764 0.00017817986 -0.002711481 -0.0026683132 0.004907939 0.001380754 0.0016033606 -0.002305982 0.0013696431 -0.007766481 -0.001981562 -0.00026043638 0.0009023369 0.0023119384 0.0028835714 0.0016413225 0.0028837146 0.003084887 -0.0067972997 0.00011018529 0.005934606 0.0027654986 -0.0042822124 -0.0038423664 0.0009118133 0.0021994058 0.001174858 -0.0026561467 -0.0033834921 0.0017207739 0.0037361742 -0.00034467143 -0.0022155545 0.0032810026 -0.002667766 0.0013420918 -0.0015180956 -0.0023118153 0.004997253 0.00094987877 0.00454482 0.0024790526 -0.005577085 0.0012092111 -0.0008334372 -0.0018060592 -0.00091518334 0.0035975764 -0.00039735297 0.00026890505 -0.008031609 0.0052132434 -0.0018092743 0.00588243 0.002208508 0.0030375826 -0.00079504075 -0.0024932658 0.0022083723 0.006508461 0.0034170772 -0.0013562035 0.0030507601 0.0016265886
auch -0.0017484713 0.002106483 0.0011668055 -0.0004758828 -0.0037633292 -0.0066163964 0.0068555055 0.009360774 -0.0023738518 -0.004564533 0.0015574903 -0.0009814468 -0.0005448006 1.2215609e-05 -0.0020127713 -0.00019869434 0.002958351 0.0031272194 -0.00257536 -0.0042736274 -0.0033572302 -0.00072345196 -0.00014518456 0.00254843 -0.0009621172 -0.003840792 -0.0021230124 -0.0031488002 -0.0013575517 -0.005675895 0.0056707584 0.0023803103 0.0015454666 0.0033776541 7.927156e-06 -0.0013708904 0.004636254 -0.006680681 0.0026220544 0.0016665693 -0.0028421492 -0.001807823 0.0033317297 -0.003891857 0.004968244 0.00043120835 0.002958036 0.0019408809 0.003327761 0.0011613382 0.0032389746 0.0038363475 2.491247e-05 0.0017825612 0.0012677134 0.005514323 0.0041538966 0.0040688724 0.003288021 0.0042779306 0.0012638037 -0.0013841218 -0.0007147852 0.00024292653 -0.0014633017 0.0028295065 -0.0006727548 -0.0019521831 -0.0024096153 0.001479173 -0.00054325885 -0.0013992317 0.004297746 -0.0012445311 0.0011214069 0.0027794442 -0.0008157706 0.0023737145 -0.00058944355 0.003934508 0.0020651915 -0.0017799281 -0.0024855337 0.009257068 0.0038180386 0.0017903957 -0.0024490042 0.0027274073 0.0074149356 0.0021461109 0.0026748166 -0.0031986765 0.0006929245 0.00068974134 0.0047999527 0.00037565202 0.004276757 -0.0035678523 0.0011323662 -0.0006598851 0.0019629684 0.0025049353 0.0027651857 3.50742e-05 0.00014289563 -0.0014257907 -0.002599745 0.0022082266 -0.0022108853 0.0036129504 -0.0045001716 0.002873804 0.0016397006 0.001847319 -0.0026863115 0.0025990577 0.0036521151 0.0032303336 0.0007297932 -0.006389386 -0.0008595746 0.0021420748 -0.0005987736 -0.004013446 -0.0020748528 0.002884678 -0.0035766577 -0.003442449 2.106452e-05 0.0054542376 0.0027539572 0.0037865026 -0.000763929 -0.0049003875 0.00059668516 0.004355819 0.00093981205 -0.0025378088 -0.0028909873 -0.0073096845 -0.00062192045 -0.0054043126 0.0007050729 0.00077915145 -0.00082360994 -0.005414945 -0.00417411 -0.0032189235 0.0012534965 -0.0036572486 -0.0008742418 -0.0058461595 -0.0040107416 -0.0010934403 0.0010296891 0.001238833 -0.0053646313 -0.0023035128 -0.0041716117 0.004386443 0.0020644313 -0.000509672 -0.001752331 0.0030402334 0.0009855404 0.0016785129 0.0025762029 -0.003684367 -0.0030276335 0.001919938 -0.0052577686 -0.0029446054 -0.0016721732 0.00045172372 0.00033034265 -0.0012022494 -0.0027245437 -0.0018794368 0.0012589976 0.0025658319 0.0028281182 0.0046819914 -0.002325151 0.00019361751 -0.0041047093 0.00015124453 0.004824037 0.0072869197 -0.00037204818 -0.0032900064 -0.0017054797 -0.0008094803 -0.0010541691 -0.0006262456 0.00066402555 -0.006051852 -0.002115347 0.0005954037 -0.00064550515 0.0010506908 -0.004260492 -0.0009366141 -0.00378556 0.0035324695 0.00237531 0.0003074069 0.0009233293 0.00092420675 -0.0035519707 0.0023403044 -0.0023336413 -0.0004045388 0.0013809958 -0.0025973506 -0.0014871688 -0.002940961 -0.00026641556 -0.008336137 -0.004277392 -0.005948873 0.004000737 -0.0004975611 0.00065625703 -0.003892342 -0.0045046564 -0.0040082014 -0.001195755 0.0005772333 -0.0013762198 0.005659071 0.0029394024 0.00019048057 -0.0001978071 0.005048365 -0.0020444845 0.0045329295 -0.0031343806 -8.092811e-05 4.83431e-05 -0.0049722483 0.004056607 -0.0014890984 -0.0014509538 0.0009209444 0.0010380375 -0.0056781797 0.0012800689 -0.002536414 0.003627694 0.0016179135 0.0024586418 0.0020535805 0.00092844677 0.0010769698 -0.0055556637 -0.00082736183 0.003702049 -0.0015801875 -0.00841951 -0.0058667567 0.0021840676 0.0004381085 0.001146082 -0.006914364 -0.0064097927 0.00078822946 0.004492059 0.001817232 -0.006558871 0.0015520633 -0.0022181561 -0.0013755399 0.00019040843 -0.00054590794 0.0011007702 -0.0013466885 0.004750629 0.0031486382 -0.0054889303 0.0027138314 0.0005782812 0.0012901156 -0.0017529101 0.00451746 9.3166374e-05 -0.0019266495 -0.00661541 0.005170704 0.0013335139 0.0036771463 0.0035991627 0.0029668945 0.00028040586 -0.0025840593 0.0014548164 0.0010505915 0.00154504 -0.0010099777 0.0045280196 -0.0004975206
in 0.00062069553 0.0036985402 -0.0006623479 0.0022146858 0.0024141977 -0.0022501154 0.0047793775 0.002932374 0.0016647929 0.00038941653 0.0024422107 -0.0046051913 -0.00014648099 0.0007307989 -0.0023314792 -0.003457747 0.0038313703 -0.002193996 -0.0011938899 0.0010109678 -0.002561429 0.0024596115 0.0019612168 0.0020099233 -0.00014853891 -0.0031128207 -0.005562228 -0.0004690676 -0.002940461 -0.0032547433 0.004344225 -0.002893047 -0.0014279619 -0.0007959713 -0.0032241282 -0.0025098468 0.00059008744 0.0008396242 0.0026640203 -0.0012401863 -0.0040214895 -0.0011867211 -0.0028371997 -0.003122973 -0.00049824076 0.0026612834 -0.002437016 0.0019281972 0.0011510239 0.0032418247 0.00011346477 -0.0026145743 0.0011513915 -0.0010327301 0.0013678118 0.0025428522 0.0037991947 0.0013453467 1.5512842e-05 0.0032542353 -0.0034684534 -0.0037291052 0.0010397517 -0.0011002788 -0.0023823087 0.0011512905 -0.001837831 0.000955076 -0.0015040946 -0.0019725014 0.0013362807 0.0021819507 0.0039526406 -0.0037412657 -0.0013444347 -0.0018663247 -0.0043059145 -0.0009132998 -0.0011322333 -0.0002865425 -0.002446249 -0.0025745889 0.0014593047 0.0053233807 0.004184472 -0.0021878523 -0.0024928006 0.00083727814 0.006469112 0.00011506475 0.002134873 0.00014526334 0.0014037761 -0.0027283586 0.0034612152 0.0042322236 0.0024880727 0.00064226636 -0.0033014622 0.00027383826 0.0018907397 -0.00013128428 -0.0015647736 0.0024029117 -0.0018735038 0.0010853476 0.0014175619 -0.0014854543 -0.0011344779 0.003447859 -0.002602273 -0.0004684258 0.004079565 0.0043353834 -0.0029497398 0.0033592964 0.004287602 -0.00048540367 0.0028203682 -0.0035041322 0.003536493 0.0015042565 0.0033261036 0.0021988307 0.00038099982 -0.0006516504 -0.00097119564 -0.0011648331 0.0005701096 0.003224232 0.004558062 0.0041834125 0.0044550383 -0.004699302 -0.0013929498 0.0019369884 0.0006154329 -0.0017190552 -0.004576781 -0.003900756 -0.0029225315 0.00050380896 0.00037446976 -0.0015405623 0.0015734097 -0.0001646055 -0.004524581 -0.00248072 0.0015798147 0.0014029113 -0.0032293524 -0.0032298178 -0.003145841 -0.00074797083 0.0013229632 0.0001428921 -0.0028074249 -0.0005301229 -0.0028502508 0.005595855 0.0015124935 -0.0025155449 -0.002633691 0.0020085454 -0.004044472 -0.0025560514 -0.0032734966 -0.0021420866 0.0026911027 0.0052730376 -0.0009152194 -0.003049345 0.0025699178 0.0024729373 -0.000100964535 -0.0031694782 -0.00056084036 -0.0024015333 -0.0019248019 0.001533485 0.0004498141 -0.0008435151 -0.004176941 0.0013525595 -0.0044681747 -0.0021729278 0.0041740164 0.0025573478 -0.0005535911 -0.0046048434 -0.00021342326 0.0016995561 -0.004557402 -0.0012062448 -0.0009300823 -0.003513512 -0.001970058 -0.0048951795 0.0033663737 0.0021936896 -0.0027791655 -0.003192169 -0.0013469901 -0.00055993773 0.0032279675 6.106202e-06 -0.0032642086 -0.0003918772 -0.0036587163 0.000106174964 -0.0017566815 -0.003015201 0.0014225548 0.0010148374 0.0022240926 -0.0039929636 0.0006084979 -0.007325774 -0.0056185448 -0.004886215 -4.826721e-05 0.00045467584 -0.0030070648 -0.00074827706 0.0022051653 0.0014337825 -0.00021286751 0.002339545 -0.0003824068 0.0010926172 -0.0009037435 0.0014553749 -0.0038344192 0.0009331303 0.0016827334 0.0005541562 0.00057788985 -0.0030878447 0.0018323873 -0.0010565915 -0.001925729 -0.0014682364 0.0022298894 0.0015711266 0.0008536625 -0.002984 -0.003827341 0.003087302 -6.985501e-05 -0.00048263778 0.0020370723 0.0010327966 -0.0013040712 0.0023329249 -0.003918093 -0.0037022724 0.0049031307 0.0018507928 -0.000875602 -0.0013687237 0.0015775316 -0.0010281636 0.002614362 -0.0006503239 -0.002685784 -0.00035274448 0.00048967276 0.0015649195 -0.0054319403 0.0022602102 -0.0008665295 0.0034198777 -0.0017625683 -0.0019094433 -0.0005669191 -0.0010887231 0.0024161371 0.0029121367 -0.0028207996 0.001405183 -0.0028127674 -0.001173521 -0.0034685354 0.002350793 -0.0008557113 0.003053065 -0.0046147215 0.0035899102 0.002120942 0.0028289529 0.00053400913 0.006164432 0.0013588021 0.0028473055 0.0036677667 0.0044752886 0.0018721173 -0.0038683112 -6.931818e-05 -0.00053012033
@card@ 1.2673363e-05 0.0022976883 0.0004024131 0.0036289024 -0.0018965191 -0.0019513662 0.0046517192 0.005449023 0.0010299026 0.00042870748 0.00028028263 -0.0039473632 0.0010702169 -0.0032838357 -0.0012231071 -0.004256373 0.0013406221 -0.0026705484 0.0030717065 -0.0030914817 0.0032030304 -0.0033267806 0.00010415123 0.001090001 -0.00026579472 -0.0005773468 -0.0035546138 -0.0005623016 -0.002941778 -0.0052440087 0.003634302 -0.00020856662 0.0027978108 -0.0017386009 0.00036088546 -0.0029271056 0.0034256582 -5.2281623e-05 -0.002072676 0.0031290217 -0.0030536538 -0.0031757613 0.00074788724 -0.00023340415 -0.0014151472 -0.0015006156 0.0031548773 0.0018689284 0.00060262415 0.0020962972 -0.00049596373 0.0011204111 0.00011586904 0.004112705 -0.0021364943 0.0024253908 0.0028682093 -0.0015743427 -0.0024083976 0.0037988552 0.0012941618 -0.0021419348 0.0016571352 7.708628e-05 -0.0024714384 0.0011558188 -0.00033669916 0.002827647 -0.0004624784 -0.003654197 0.0003724797 -0.00039646574 0.0037558817 -0.0013839805 0.0028995476 0.0015921857 -0.0024348437 0.0030452823 0.00024342869 0.0008346369 -0.0024944472 -0.0027396362 -0.002281381 0.005471617 -0.0018948248 -0.0014753212 0.00027263185 0.0010318619 0.005134495 -0.001447704 0.0014752921 0.0005619581 0.0022458725 0.00096207054 0.005404693 0.0034732893 -0.001770925 -0.001222714 -0.0034075086 -0.00032978944 -0.0016441107 -0.0031302152 0.004508173 0.0014065307 -0.00026514602 -0.0028863421 -0.0031664213 -0.0031583575 0.0012137406 0.0006105547 0.000167386 -0.0014537217 0.0042442954 0.002337012 0.0006635138 -0.00062841387 0.0013090051 -0.00048259788 0.0042141587 -0.00075069565 0.0007971982 0.0025806294 0.0025882078 -0.0030024222 0.0020752456 0.002112398 -0.0022983968 0.0015791842 -0.000521297 0.0047595617 0.0007651236 0.0047859186 0.0019642941 -0.003011873 -0.0008183365 0.0042563183 4.8953687e-05 -0.0031970148 -0.0019218375 -0.0031373298 0.0005502811 -0.005007616 0.0017699313 0.0013965511 0.0030666192 0.000119964825 -0.0038103778 0.0008309723 0.0009816288 -0.0047398345 0.0027829893 0.0002839067 0.002475942 -0.0016443313 -0.002587236 0.0032475372 -0.004238207 0.002182707 0.00021994289 0.004699317 0.0021115781 0.0005480079 -0.0024538152 0.0010621333 0.0021988577 -0.0025490618 -0.00088508235 -0.0009972949 0.0013421891 0.0048450897 -0.003177306 0.0011205828 -0.0008786983 0.0019634422 0.0026979316 0.0010304634 -0.0014922222 -0.0031778596 0.0032885063 0.0037622282 0.0020783711 0.00015361668 -0.0018238836 -0.0027165154 -0.0028855393 0.00090982823 -0.00017374638 0.00016208945 0.0030665349 0.0006375988 0.002965352 0.00044194164 -0.0052445335 -0.00208633 0.0012042664 -0.0049201297 -0.0018817459 -0.0007336567 -0.0002694745 -0.003471435 0.0008935102 -0.003081707 -0.0031457704 -6.1013863e-05 0.00073106686 -0.0011234772 -0.0028949215 0.0027657275 0.002638375 -0.0028660537 0.002922821 0.0006008275 -0.0028562222 -0.0019415532 0.00205111 0.0007933195 -0.0026703407 -0.0060491883 -0.0013696023 -0.0049896273 -0.0012931392 -0.00012491141 0.00026109643 -0.0029995842 0.00081248896 -0.0008529287 0.0010662784 0.0014543001 -0.00039296458 0.004213688 0.0011802911 -0.0033794031 0.002246313 -0.0003487224 0.00074560073 -0.00010032025 -0.0024270914 -0.0027361936 0.0016701311 -0.0033236782 0.0015002403 -0.0032702605 -0.0020468354 -0.0014801443 0.003495416 -0.005578705 0.0012603053 -0.0004642927 0.00055375445 0.0040672147 -0.0002066366 -0.0016743186 0.00082792813 0.0029463908 0.0003036485 -0.002742127 0.0031362749 0.001414822 -0.0052412543 0.00066617096 -0.0008848906 0.0021448217 0.0025133176 -0.0020260331 -0.0037707435 0.0009931964 0.0040498823 0.0044055 -0.00572332 0.0021484585 0.00053339475 -0.00019070921 0.0034319637 -0.0015250501 0.0008119723 -0.0011441112 1.4320512e-05 0.0012762231 -0.004018446 -0.0016552957 0.0024163383 -0.0025860702 -0.002969052 0.0037399437 0.0031959452 0.0014371632 -0.003027191 0.0014391524 0.00030034655 0.0044906316 -0.0015776415 0.0032623052 0.0019712744 -0.000533417 0.0025996526 0.0036049713 0.0034319512 -0.00052982854 0.00481592 -0.0028243074
man 0.001485482 0.0008305562 -0.001416698 0.001581496 -0.0017733194 -0.004547426 0.004004893 0.0085852565 -0.0027357477 -0.00443176 -0.00018350696 0.0010831902 -0.0032576583 0.002817335 -0.0005484667 -0.000590682 0.0013942517 -0.0017812309 0.0015824136 0.00021427548 -0.0026106946 -0.0007967145 0.0024194065 0.00213681 0.0032583075 -0.002587564 -0.00049582165 -0.0021817433 -0.0020694705 0.0005073007 0.0035893344 -0.003201293 0.00015247717 -0.0019624643 -0.0016510235 0.00244329 -0.0014597683 -0.0007046534 0.0019698087 -0.00065279595 -0.0047091553 -0.0012315292 -0.0005851895 -0.00027630193 0.0046458663 0.0025987094 -0.00055033166 0.0025669609 -0.0018694091 0.0011280488 0.0003581885 0.0039178324 -0.002610262 -0.0013351263 0.00047659778 0.0030582263 -0.0014403295 -0.0009378431 0.00030916103 -1.1608254e-06 -0.004221073 -0.002368878 -0.0012287612 0.0019453402 -0.0007319346 0.0024697478 0.0017247624 -9.004281e-05 -0.00025084242 -0.0009393785 0.0025838655 0.00042020457 -0.00087118347 -0.00093159935 0.0036751411 -0.00052226457 -0.003292687 -0.00043724658 0.0021164643 0.0024987129 0.0024448733 -0.0048939097 0.0023541185 0.0020876802 0.0046017 0.0011974642 -0.00022262997 -0.0007398131 0.006771132 0.0018832418 -7.2564253e-06 -0.003513645 0.0028217393 -0.0014591155 -0.00053403387 0.0035506561 -0.00087899243 -0.0033878956 0.0026482597 0.0012463798 -0.0014283025 -0.0013320234 0.00025620614 -0.00066750386 -0.0015897943 -0.0030589583 -0.0030834803 0.0033492115 -7.316838e-05 0.0006065145 -0.00084288145 -0.0025630742 0.00359533 0.004317819 0.00051408855 -0.0013686672 6.2579944e-05 0.0021888348 0.0012483904 -0.0018517085 0.0039680577 0.00326107 -7.6383294e-05 0.00096598093 -0.0020946744 -0.00024318273 0.0020430519 -0.004744057 -0.00051498803 0.0020516664 -0.0012129749 0.0026508472 0.0030933514 -0.0037804355 -0.001726188 0.0035649438 -0.0017916908 -0.004191323 -0.00241865 -0.0032361804 0.0024874231 -0.0027080753 0.0017037116 -0.0021119853 0.0019575567 0.0004326986 -0.002567718 -0.0016185688 0.0017936463 -0.002076515 -0.0026898265 -0.0058987876 -0.0005184225 -0.0011555877 0.003559137 0.0015809817 -0.00012945244 -0.00024813775 0.0017563857 0.00035072968 0.00091460627 -0.00014933973 -0.0014387364 0.0009888756 -0.0035445415 0.0028834848 -0.0014017646 0.00028386104 -0.0024643622 0.004578496 0.0012352205 -0.0005303099 0.0028116438 0.0010348689 0.002578787 0.003001827 -7.727908e-05 -0.0032947895 -0.0023979298 0.0040559894 -0.0005897865 0.0023544456 -0.0021496473 0.0019382852 0.0008424231 4.1193325e-05 0.0035343408 0.0051699434 0.0013328169 -0.0010150624 0.00027899942 -0.00082780304 -0.0009855345 -0.00060422096 -9.6133816e-05 0.00074945897 -0.0022643371 -0.0029254858 -5.4777993e-06 0.0013689323 0.0011638663 -0.0021464522 0.0010694853 0.00046092906 -0.0026889967 -0.0018867658 -0.0019673526 -0.0006210439 -0.0006099798 -0.0023393973 0.0014375248 0.0008213604 -0.00085993897 -0.00056068134 0.0006326788 -0.0021696156 -0.0042100707 -0.004087437 -0.0022972473 -0.00021126751 0.0029622866 0.0014915224 -0.00030543335 -0.003946483 -0.0014319075 -0.0028543049 0.002400941 0.0018350125 -0.0024532 0.002271357 0.0032218935 -0.00017732619 -0.000643306 -0.00055738457 0.0023029957 -0.00083235156 -0.0020707631 -0.002627987 -0.0019312339 -0.0050848047 -0.0018451867 -1.996852e-05 -0.0016986463 -0.00017533389 0.0028594304 -0.0022774618 5.850247e-05 -0.0006152889 0.003978198 0.0014132834 0.002955562 0.0037533862 -0.002500622 -0.0026414746 -0.0001372149 -0.0008396691 0.0021935445 0.0012818552 -0.005661872 -0.0040884577 -0.0011515082 0.0041826046 0.0003415581 -0.006668444 -0.0046817376 0.002373596 0.0011032892 -0.00021785988 -0.0036520425 -4.4075277e-05 -0.0027120085 -0.0003146876 0.001758402 0.00014301157 0.00047822655 0.0023950175 0.0034279814 -0.0016158058 -0.0060649426 0.0023067605 -0.0026626103 -0.0006550189 -0.003983662 0.0042530512 -0.0013902505 -0.0021559831 -0.0043386933 0.0011390334 0.003476827 0.005661063 0.0005507719 0.0048046615 0.0021946623 8.8451176e-05 0.0008879151 0.002753578 0.0009109935 0.0013583166 0.0008385001 -0.004398633
hier 0.0017525589 0.005173695 -0.0023288757 0.00095679413 -0.0021196462 -0.00049275823 0.006046573 0.0055965646 0.0011989049 0.0007699426 0.0023535306 -0.004119281 0.00095562206 -0.00084217486 -0.0011348431 0.00051400205 0.0014382956 0.0034192072 0.00034496508 -0.0017661992 -0.0010521244 -0.0033083444 -0.0014509062 0.0023187064 -0.0013989909 -0.00034611367 -0.0019015038 -0.0026013297 -0.0023572603 -0.004348808 -0.001062359 -0.00037922806 0.003966767 -0.0012215404 -0.0026214912 0.0032996368 0.0041119107 0.0007488658 -0.0032925413 0.0022053996 -0.0035539581 0.0019091791 0.002341516 -0.002686909 0.0039852755 -0.0007871 0.0016123248 0.0031058632 0.0024170505 0.0036023753 8.457938e-05 0.00198754 -0.0026453962 -0.0012051262 0.0006719133 -0.0010698142 0.0008156006 0.0012549636 0.0034272936 -0.0012258798 -0.0019825955 -0.0023552643 -0.002063946 -0.00029919387 0.00044257913 0.00030143643 0.0010656927 0.0038523395 -0.0016714969 -0.0022443056 0.0029753358 0.0010430447 0.0018947743 0.0019630447 0.0031216082 0.0023405342 -0.00040556313 -0.00041849923 0.0019227518 0.004358461 -0.002507601 -0.0040192907 -0.00089442125 0.0025846343 0.0026276007 -0.0023993738 -0.001477753 0.0022241366 0.004794052 0.0009106186 -0.0012565425 0.0007440154 0.002242433 0.0015893364 0.005174262 0.0031398002 0.0028878173 0.0019907113 -0.00092711585 0.0015229436 -0.00016459652 -0.0024314967 0.0035166743 -0.00078219443 -0.0008533391 -0.0018697121 0.0024077096 0.00096447964 -0.002468591 0.0007826605 -0.0022603136 -0.00039176914 -0.00067241676 5.9703594e-05 0.00033609875 0.0025179922 0.0016157118 0.0028831125 0.002346964 -0.0039091976 -0.001746902 0.0037013786 0.0039893566 -0.0029261715 0.0005379333 0.005071504 -0.0024294325 -0.0026351248 -0.0031732465 0.0034558894 0.0004128305 0.0036032952 0.0043830085 -0.0047763 -0.0025064945 0.0020257204 -0.0033391712 -0.0045229495 -0.0055115824 -0.0031138067 -0.00043947296 -0.0025761437 -0.001366088 0.0042008455 0.003505788 -0.0037776676 0.00012670389 -0.0036115581 0.0009571221 -0.00089014083 -8.4907304e-05 -0.004812546 -0.0007728746 -0.00015004879 -0.0027448563 0.00026679106 -0.004692929 0.00040143373 -0.0011651925 0.00085738907 0.0019645586 0.00045628895 -0.0011733783 0.0028664838 -0.0026837632 0.0024843875 -0.0030331481 -0.0015120672 -0.0027573293 0.0034844754 -0.0044286335 0.0028040954 0.002464581 -0.0013485538 0.0019853958 0.0020646066 -0.002368318 -0.0010941095 -0.0019194642 0.0037319094 0.0017860916 0.0014837426 -0.004500969 -0.0010752765 -0.001839067 -4.1900086e-05 0.0054567624 0.001993843 -0.002396942 -0.006070921 -0.00014322335 0.00039019668 -0.0027725955 -0.0002798488 0.0035735355 -0.0021411257 0.0028591147 -0.00044202214 -0.0015033194 -0.0011580647 -0.0039929715 -0.002305454 -0.001853822 0.0028706572 4.20427e-05 0.0019065526 -0.0021737735 -0.00090099557 0.0010345456 0.00018399183 -0.0006151341 -0.0031216466 -0.002339226 -0.00036082492 -0.0017250284 -0.0048474777 -0.00474322 -0.001657692 -0.0021487032 -9.089947e-05 0.004109995 -0.0020668823 -0.00042722418 -0.00045052054 0.0010708193 -0.0019773813 0.003257905 -0.0027209327 0.0014015281 0.0041896766 0.0013165263 0.0009090249 0.0013360577 0.0022226397 0.0014540724 0.0023340755 -0.00052351976 0.0017513229 0.0017001238 -0.004905688 0.0018918335 -0.0004849118 0.001101914 -0.0012052924 -0.00051873544 -0.003572809 0.0006980591 -0.0024594644 0.0033299155 0.0002281396 0.0031685533 0.0017032317 0.0030655912 -0.0011235542 -0.004471507 -0.0007809986 0.0018378606 0.0016584432 -0.006022265 -0.0010325082 0.0012905648 0.0014831917 0.002032325 -0.0048707984 -0.0040697637 -0.00254672 0.0026239944 0.0035845141 -0.0050485963 0.0033682243 -0.00019467146 -0.0013871415 -3.6076744e-05 0.0011178324 -0.0007237948 0.0020676781 0.0034363428 0.0034550205 -0.0016453908 0.0014127706 -0.00051205675 -0.0028089313 0.0017840916 -0.0010460339 -0.0004838664 -0.001040202 -0.0015467786 -0.0006518452 0.0019149256 0.003185583 -0.0007001706 0.0009492073 -0.002056115 0.0012333001 -0.00048178647 0.0048083127 -0.0008411292 -0.0044656564 0.00024900233 0.0015328574
dass -0.00067705475 0.004584779 -0.0030823506 -0.0015731594 -0.0022853024 -0.0030071489 0.0011692202 0.004082019 -0.0036019713 -0.0019627332 0.0035966826 -0.004602948 -0.0018838582 5.1427287e-05 0.0005768468 -0.004499714 0.0049447855 -0.0025315273 0.0023009006 0.0008514596 0.0015733473 0.0014558034 0.0050545027 0.001968576 -0.0013684534 0.00024160737 -0.0063746804 -0.0022890577 0.0003363489 -0.0056537716 0.00025891195 -0.0016853497 0.0020219202 0.0029564663 -0.00076552306 0.0024206515 0.00039836077 -0.001742057 -0.0024153453 9.334873e-05 -0.0042866217 -0.00035957398 0.0018938468 -0.00033646374 0.0005368225 0.0029275615 0.0027293034 4.0543047e-05 -0.00065061817 0.0018412116 -0.00032247923 0.0037381195 0.0017719812 0.004316382 0.0027712653 -7.8429526e-05 0.0009366114 -0.0013585753 -0.0006661526 -0.0015937979 -0.00041937086 -0.0012580353 -0.0027199427 0.002509747 -0.0010256909 0.002504264 0.00088409276 0.0001302775 -0.0024982865 0.001188947 0.0014449776 -0.0009229169 0.004129154 -0.0012170331 -0.00037387462 0.0040674335 -0.003177517 0.0028990968 -0.0023986239 0.0009348466 -0.0024615722 -0.0038652297 -0.0011422413 0.0059833857 0.0035544175 0.00253735 -0.0018102317 0.0026248728 0.004103615 8.86474e-05 0.0017941138 -0.0013596953 -0.0009318573 -0.0008902232 0.003357213 0.0038916313 -0.0020663494 0.0008093283 -0.001324426 0.0013005161 -0.0027130574 -0.0013611438 0.0005291286 -0.0021764748 0.00013157018 -0.004190543 -0.0020510308 -0.002181561 0.00053512835 0.0017220356 -0.0046478785 0.0018948708 -0.0014253089 0.0012147652 0.0012559507 -0.0011402165 -0.0016152747 -0.0013956032 0.0051825736 -0.0005343434 0.0021958116 0.0029483808 0.0035029342 -0.0024819602 0.0018583826 0.0047117625 0.0009582206 0.00089049776 -0.0030321893 0.0033037073 0.0050436156 0.0033959416 -0.00069922896 -0.0032026921 -0.00019011194 0.0009953342 -0.0015057675 0.0005639019 -0.003136967 -0.0024197632 -0.0012659079 -0.00082944776 -0.0032968863 -0.0015974145 -0.00068556616 -0.004528601 -0.00510883 -0.0006885762 0.002585335 -0.0016153449 0.0016171446 -0.004948917 -0.00044918674 -0.000485481 0.0031285034 0.005034507 -0.003281967 -0.00060942257 -0.0031646562 0.0026142742 -0.0022183016 0.00047292406 -0.004321628 -8.190597e-05 -0.0010940627 0.00074472284 -0.0034609397 0.00014066424 0.0013456497 0.00545923 -0.0035057205 0.0028596276 0.003927335 0.0013829361 0.00023844208 -0.003331791 -0.0014804378 -0.0032985783 0.0022516593 0.00081040844 -0.0027065075 0.0038843316 -0.0044471887 0.0018214394 -0.00036445563 -0.0027254843 0.0041648597 0.0062352195 -0.0013949143 -0.0061678365 0.0033473049 0.0005335288 -0.00023017658 -0.0027190554 0.00039326661 -0.0004938457 0.0003739773 -0.0028444405 -0.0012617644 -0.0024589724 -0.0039455546 0.002977161 -0.0015829357 -0.0019984676 0.003069483 -0.0022570575 -0.0021930917 0.0008549177 0.00062454795 -0.0022192064 -0.00075772655 -0.003854717 0.0024901342 9.2034315e-05 0.0013247966 -0.004445365 -0.0010572398 -0.005211765 -0.0064448765 -0.004982817 3.6878032e-07 0.0011931682 -0.005000706 -0.0034380415 0.0015181232 -0.002337279 0.0027949698 -0.00087143976 -0.0030987882 0.000749057 0.0017515991 0.00057603064 -0.0031575484 0.00026821977 -0.0035447592 0.0041998476 -0.00086762395 0.00039916768 -0.0003222945 -0.007336865 0.0013128524 -0.00038820243 0.0005397367 -0.0021210888 -0.0012133477 -0.0062970445 0.00029283733 -0.0015840075 0.0012621765 0.0030060294 0.0031166435 0.0016743435 1.0546066e-05 0.00066770223 -0.0060981875 -0.0043736706 0.0063846153 -0.0017968983 -0.008297886 -0.001205901 0.004787232 0.0020379797 0.0022652708 -0.006451184 -0.004800361 -0.0024935238 -0.0003066519 -0.00078179664 -0.0058087776 0.0032876073 0.0012716115 -0.000117234755 0.0005479847 0.0023628566 0.0024299608 8.952251e-05 0.0029026316 0.0023580275 -0.005545825 -0.0014391786 0.003623287 0.0015562231 -0.0040235454 -7.2326875e-05 0.0005206302 0.0003412947 -0.007485538 0.00492686 -0.000795302 0.0047193416 0.003913692 0.0050685443 0.0022352703 -0.0008198145 0.00017970975 0.003859524 -0.0001873301 -0.0050970563 0.004770684 -0.003880459
fr 0.0016550573 0.00056111894 -0.0030673512 -0.0016950475 0.0016398934 -0.004535533 0.0046322946 0.005522761 0.0026671642 0.0010188341 0.004177895 0.0013005183 -0.0026562053 -0.003488907 -0.0022776318 -0.0016464595 0.0036263207 0.0012132128 6.7416177e-06 -0.00023423781 -0.0013522974 -0.0027809807 0.0034926152 -0.00266299 0.0011553481 -0.0030529045 -0.00046495558 -0.0015072337 -0.00045533723 -0.0044967537 0.005048478 -0.0022970836 0.0019340491 0.0021605615 0.0017404105 -0.0013417285 -0.00045533496 -0.004786441 0.002080497 -0.0009766882 0.000116743584 -0.00070017314 0.0027469257 -0.0036648253 0.0017025609 0.001892568 -0.0027712048 0.0044978904 -0.00022030952 0.003870686 0.0010887926 0.0023626857 0.000110507426 0.0039813225 -0.0030430488 0.005035265 0.0037822248 0.0012819151 0.0022084268 0.002521711 6.834662e-05 -0.0020424996 0.0006154258 0.00016628011 0.00049004995 0.0048463214 -0.0008311226 0.0009942149 -0.0042589433 -0.0016469073 -0.0024918423 0.001734323 0.0015057506 -0.0014849866 0.0025127558 -0.0014990405 -0.0011662958 -0.0004272799 -0.0020878434 0.00034246827 -0.0034371512 0.00067114056 -0.003252707 0.007144973 0.00033553175 0.0002676663 -7.9504636e-05 -0.0016486802 0.002122991 -0.0028238553 -0.0012557225 -0.0019392322 -0.00059234665 0.0006106288 0.002559354 0.00013423093 -0.00040192308 -0.001961262 -0.0028179414 -0.000241123 -0.0018097953 -0.0025172196 -0.0010391503 -0.0016176051 0.0014060015 -0.0037958904 -0.0016230503 0.0024155825 0.000102287886 -0.0002588304 0.000594937 -0.002462863 0.0011685821 0.003666177 -0.00059975404 0.0040589245 0.0009578412 0.0021228308 0.004508248 -0.0057252897 -0.0013184571 -0.0006141639 0.0012485944 -0.003379376 -0.0011329321 -0.0006773598 -0.00019828092 -0.0018765542 0.0020165641 -0.00045622585 0.00066933973 0.005131201 0.0043846895 -0.0026249439 0.00087303313 -0.00052180735 -0.00044850327 -0.0042851465 -0.0051076435 -0.0027213646 -8.1616425e-05 -0.0011570472 -0.0042400844 0.001851084 0.0011113571 -0.0035496005 -0.0028343115 0.0014352992 -0.0007483987 -0.001708573 0.0012268157 -0.0031434887 -6.137869e-05 0.00221378 0.0026451633 0.003178338 0.00044089355 -0.003348044 0.0015700427 0.0048499783 -0.0018895721 -0.0009450303 -4.8358987e-05 0.002980252 -0.0046960497 0.00026474375 -0.0005267119 -0.000105706626 0.001987311 0.0008662347 0.0010814772 -0.0033798642 0.0027690656 0.0043134196 -0.0013409146 -0.0033243196 0.002177354 -0.005730239 -0.001976622 0.00041612858 -0.0019435296 0.004560498 0.0010098752 -0.00049186096 0.000798559 0.0029545887 0.0043283203 0.004490659 0.0023181813 -0.0011272789 0.0017567531 0.0021126634 -0.0054226755 0.0035298357 0.0035413054 0.00083104824 -0.0022719128 -0.0029812178 0.00084130233 0.0008920822 -0.0042333873 -0.00012140857 0.0011564849 0.0039729658 -0.0007257947 -0.00048867683 0.0006800349 0.00015642219 0.00036655692 -0.003644335 -0.0002599467 -0.00092718366 0.0011053482 -0.0050046067 -0.00093203166 -0.0010262602 -0.0012239673 -0.0062801694 -0.0017815689 -0.0013426909 -0.0017627849 0.0036912905 -0.0044807685 -0.0025832094 0.0022004666 -0.0004796646 -0.0017022603 -0.00046427196 -0.0024192173 -0.00018733213 -0.0010630698 0.0007598731 -0.003959196 0.0031626425 -0.0028878686 0.003415155 -0.0013946103 -0.0026117484 0.0022824698 -0.006917528 0.0018784283 -0.0011105962 -0.0027674285 -0.001852714 0.0031261689 -0.0049390113 0.0009600983 -0.0034865453 0.0013871569 0.00064026384 -0.0006525224 -0.00016181896 -0.0020705073 -0.0007393717 -0.0044014542 -0.0027101983 0.0011796531 -0.003489165 -0.0025767004 -0.002468368 0.003752388 0.002871446 0.004096423 -0.0055868207 -0.0056854845 0.0007466668 -0.0011104825 0.0039416985 -0.00041772705 0.0005126896 0.0010410113 0.0032490166 0.0018685088 0.0016066976 0.004792972 0.0018559643 -0.0010771725 -0.0012962355 -0.0042825136 -3.4251923e-05 0.0032787565 -0.003922012 -0.001854898 0.0045753852 -0.000415521 -0.002955423 -0.0032229472 -0.0003848 -0.0010588964 0.00051142473 0.00075036 0.006276047 0.002059487 0.002871266 0.0058292435 0.004534051 -0.001763204 0.0007654602 -0.0011180325 -0.0027104309
dies 0.002647802 0.0046248706 -0.0018784609 -0.0014739053 0.0022335465 -0.004009003 0.0015819343 0.008201148 0.0013134707 -0.00012649417 0.0004806846 0.0014212056 0.002723714 0.0019320048 0.002549478 -0.003274141 0.0022851168 -0.00046244706 0.0026617812 0.0012725267 0.0014726362 0.00091045705 0.004049784 0.0026610794 0.0008465543 -0.0041622147 -0.003622035 0.0027339272 -0.0030717105 -0.002174236 0.003447008 -0.0026461568 0.003408426 0.0015267084 -0.00037277938 0.0032655986 0.0015399423 -0.0023302326 -0.0031616644 0.003868531 -0.0046427 0.002436924 0.0019470524 -0.0016363874 -0.0009195678 0.0050153034 -0.0003161663 0.0033971358 -0.00047971908 8.31457e-05 0.0009985669 -0.001971775 -0.0028393145 -0.0021130356 0.0015170904 0.0023199841 0.0006276207 0.0026316445 6.0472907e-05 -0.0012801919 -0.00028559213 -0.0030188216 -0.00016233833 0.002995976 -0.0015056905 0.004132251 0.0032059553 -0.00021371437 -0.0029951101 0.0018361477 0.0011974935 0.0005596345 0.0023769392 -0.0028708796 0.0015567674 0.0002204374 -0.00011817668 -0.0011431343 -0.0010240517 0.004076893 -0.0031187916 -0.0028603298 -0.0035701327 0.005895938 0.0022560488 0.0014545268 -0.00066725106 0.0012007136 0.00469361 -0.00045344105 0.0037914296 -0.0013146773 -0.0012210894 -0.0012976326 -0.0005090627 -5.465996e-05 0.001546392 0.00033387012 -0.0025309601 -0.001315615 -0.0029516004 0.0016404998 -0.0012744226 0.0025760243 0.0024496205 0.0007585112 -0.002872731 0.0011141088 -0.004101281 0.004790786 -0.002975874 -0.00073689653 0.0028399748 0.0011861649 0.0020493201 -0.00039345055 0.002707063 -0.0026589197 0.0041994904 -0.003294046 -0.0011875872 0.0017304803 0.0013016002 -0.0011449493 -0.0016491059 -0.0012114898 -0.0028656446 -0.0039045634 -0.0030317423 0.0009178405 0.0046981173 0.0024492198 -0.0012673513 -0.0038889495 0.0017994097 0.00055785466 -0.0011577439 -0.0029949571 -0.0004400119 -0.005741759 -0.0025923843 -0.0003734569 -0.0032290719 0.0019786977 0.000708836 0.0015134331 -0.0014291848 9.355739e-06 0.002293482 -0.0010543044 0.0007375131 -0.00451932 0.00034686975 0.0015833214 0.0033643018 0.001684116 -0.0024857398 0.0014130663 -0.0037262782 0.0032760126 -0.0022116317 0.0020385205 -0.005135614 0.002138717 0.0016755007 -0.0008844298 -0.0033291883 -0.0031549442 0.00082118914 0.0013520728 7.5375734e-05 -0.00062792306 0.0032485018 0.00096326496 -0.0021331036 -0.0020687997 0.00040095666 -0.004302977 0.002854394 -0.00050933263 -0.0016163063 0.0019567693 -0.0030960375 -0.0035038842 -0.003606976 -0.00086135627 0.0027422244 0.004220827 0.002815109 -0.00096259464 0.0021494883 0.00011474356 -0.004904566 0.0034440192 0.00055356877 -0.00066001713 0.00027259337 7.802237e-05 0.002690975 -0.0029844528 -0.0023588326 4.0776562e-05 -0.00020249696 -0.0024396828 0.0019199464 0.00012260978 -0.0015569961 -0.00026104687 -0.002791706 0.00204795 -0.003333918 -0.004766103 0.0011386925 -0.0046284073 -0.00027031748 -0.002570205 -0.0023456903 -0.006863568 -0.0021483817 -0.0021747344 0.0020270455 -8.294771e-05 0.0005091734 -0.0046454635 0.00096123735 -0.00253785 0.000647918 -0.0030942427 -0.0018398879 -0.00023537701 0.0003394285 0.0024842846 -2.8471048e-05 0.002283311 -0.0031228608 0.0034320175 -0.002717718 -0.0016205963 -0.002015104 -0.0060470807 0.0021484543 -0.0015442508 0.0002421984 0.0019130922 -0.0011908791 -0.003986233 -0.00144721 -0.0035773069 -0.0024943142 0.0016368588 0.0027373442 0.00081357855 -0.00084967207 0.0016382955 -0.0029520856 -0.005052386 0.0051936265 0.0021826073 -0.0067669232 -0.0022223543 0.0036144827 0.0007645196 0.0010868701 -0.0056206025 -0.0006320403 0.0027154642 0.002548391 0.00029667898 -0.0037233783 -0.0009870339 -0.004795045 0.0029827808 0.00016112522 -0.00041222828 0.003939013 -0.0015823261 0.0037273536 -0.0011106537 -0.005258758 0.0018319244 -0.00080147234 -0.0020073883 -0.0030434649 0.00019040209 -0.0007710897 -0.0013062302 -0.0007129922 0.0046724677 0.00067850814 0.002416818 -0.0012256007 0.006445078 -0.00096801505 0.0019744067 0.0057909437 0.0049368143 -0.00017480184 0.00034596922 0.0043098386 -0.0023962979
haben 0.00013052231 0.0044599767 0.0019919104 0.0013898923 0.00029725803 -0.005201448 0.0001800406 0.005152689 -0.0023710974 -0.0014021267 -0.00024928924 -0.0018247488 0.0025081334 0.0028577868 0.0020855593 -0.00076638884 0.0013067757 0.0009413679 -0.00019268277 -0.0051211524 0.0020142647 -0.003425833 0.0034189299 -0.00059411855 -0.00084867544 -0.0019426887 -0.005550558 0.0025636847 -0.0037717952 -0.0057870364 0.0039827772 0.0010153181 0.0024633813 0.001955802 -0.0025777302 -0.0010394808 0.001788403 -0.00018741157 -0.0019425786 -0.00019442727 -0.0010311245 0.0018201179 -0.0018093915 -0.0033279976 0.0011221577 0.002621384 0.001908342 0.003625978 -0.0024211928 0.004289967 0.00025063916 -0.00016220873 -0.0037007497 -0.0007603254 0.0028149132 0.0035408488 -0.0016220399 0.0019719691 -0.0014986405 -0.0017120728 -0.00016651808 -0.00049121934 5.485347e-05 0.0027455161 0.0008190127 0.00056115707 0.0027959805 0.002034881 -0.00074371265 0.0014967234 -0.0017192169 -2.7070228e-05 0.0026909322 0.0006547617 0.0003052336 0.004021044 -0.003296008 -0.0025429968 -0.0033250502 0.001744032 0.0023266983 -0.0041250926 -0.0024564588 0.008882054 -0.0008105388 0.001363983 0.0007453676 -0.0012079332 0.0043659573 -0.00097435457 0.0040022465 -0.0020012404 -0.0016471357 0.0038121603 0.0015414528 0.0056705414 -0.0018509924 0.0012037025 -0.001903955 -0.00049819535 -0.0014693881 -0.00073972344 0.0013513949 0.00065924984 -0.0019085726 -0.0026942936 -0.0015103598 0.0027824866 -0.00063557975 0.0017581716 -0.0035611382 0.0018291364 -0.0017217664 0.0022419896 0.0016603932 0.0004788391 -0.00028957322 -0.0020349633 -0.00023950444 -0.00091659214 0.0020514706 0.0019555856 0.005187964 -0.003910948 -0.0011058971 0.0020940914 -0.0030785631 -0.0049515814 0.002168636 0.0016500427 -0.0007393243 0.0061429986 -0.00063420425 -0.0033311613 0.001292666 0.0006016278 -0.003444478 -0.0030727356 -0.0059053623 -0.0031574643 -0.00151819 -0.003411072 -0.00015801497 0.00064996467 0.0035940905 0.00036739896 -0.003515279 -0.0010010416 0.0019670017 0.0001768818 0.0029800173 -0.0048469417 -0.0015838183 -0.001550477 0.0005722672 0.00012767428 -0.0030973782 -0.003859472 -0.0007990965 0.004409443 0.0013897285 -0.00047254725 -0.00046720108 -0.0011462233 0.0017166955 2.9185438e-05 0.0002836633 0.0010731006 -0.00022804082 0.0046795006 -0.0018686305 -0.0034426337 -0.00026923014 0.00040725395 -0.0031557386 0.00092841417 0.0016988943 -0.0037942755 0.0033728925 0.0002926131 0.00011143934 0.003736124 -0.004641895 -0.00325102 0.0003515798 -0.0026587683 0.0058049783 0.0052101985 -0.0020791565 -0.00084580557 0.0023773613 -0.0023252738 -0.0060683447 -0.0023726958 0.0021287636 -0.0004475653 0.0001106202 -0.0016675856 -0.0017418023 -0.0022944023 -0.000111744775 -0.0030962352 -0.0040392433 0.0010757406 -0.002503365 -0.003505244 -4.494313e-05 0.0036516106 -0.0028290974 0.0020036064 0.0025283506 -0.0011365796 -0.0018771456 0.0012787714 -0.0016122849 -0.003539272 -0.0013866716 -0.007805306 -0.0074449354 -0.0019320378 0.0036760655 -0.0012768715 -0.003646374 -0.00039437704 -0.00086026895 -0.0038852023 0.0023231262 -0.002051327 1.6859049e-05 0.0033019253 0.0047549135 0.0020243495 0.0013609233 -0.00079112814 -0.0008248548 0.0014713807 0.00026098656 0.0021836222 0.0017690741 -0.0075038043 0.0048581082 -0.0007514954 -0.00048489874 0.0023746393 -0.0010479473 -0.004019579 -0.00021812212 0.0020749774 0.0022088438 0.0009573208 -0.001347219 -0.00042981017 0.003805085 -0.0027357521 -0.00067572645 -0.0021374982 0.0028850895 0.0028115062 -0.0016927129 0.00047062812 0.004788659 -0.0012840434 0.0038703512 -0.008051259 -0.00575522 -0.0026521552 0.0029332286 0.004550673 -0.0057052425 -0.00046940407 -0.0025249743 -0.0010480593 7.389616e-05 0.0013714269 0.0031383522 0.00060964975 0.0006423692 0.0008622728 -0.005169499 0.001514939 0.0036736573 0.0016251794 -0.0036376899 -0.00046421873 -0.003017353 -0.0018410435 -0.0032395455 -0.0003671631 0.0014713916 0.0060029137 0.0018697722 0.0048180553 0.0037455396 0.002266869 0.0027541984 0.001347593 -0.00015894852 0.0007447261 0.004845176 -0.0026806998
von 0.0031980143 0.002742401 0.001752357 -0.0006943355 0.0010467473 -0.0024605757 -0.00045267848 0.0072402833 -0.0034572214 -0.003475336 0.0017821521 0.0017714088 -0.0007137148 0.002023238 0.0013161374 7.7305034e-05 -0.0002160605 0.0017186722 -0.002215237 -0.0031197155 0.0016246065 -0.003130056 0.0036883077 -0.00057377224 0.0008468015 -0.00372351 -0.0048481147 -0.0013961927 0.0016545044 -0.00050748273 -0.00153495 -0.0025645231 0.001822705 -0.0019102254 0.0011127656 0.002582406 -0.0021041494 0.0005247525 0.0026177447 -8.873043e-05 -0.0007788163 -0.002235608 0.0023663964 0.0010648734 0.0029585427 -0.0011806585 0.0017300821 0.00048434112 -0.0003227924 0.0035073098 0.0015051005 0.002149632 -0.0026932731 0.0026968946 -0.001475391 0.001952838 0.0029145896 0.0022906994 0.0031648965 -0.00021781867 1.4958259e-05 0.0014400695 -0.0013568825 0.0018346545 -0.004128491 0.004775951 0.0028021806 0.002783778 0.0002751735 0.00041812344 -0.0005302451 -0.0014973028 0.0011486795 -0.0007662099 -0.0005832278 -0.0017566072 -0.0035421094 0.0031838894 0.002361115 0.0045671747 -0.0020681 -0.0017200432 -0.0035291878 0.00737819 0.0015714903 0.003017061 -0.0027918026 0.0002486929 0.004665493 0.0009007201 -0.00045281177 -0.002769664 0.0011617531 -0.002636639 0.0044936826 0.0044196127 -0.00045607812 -0.002841435 -0.003423131 0.0010512171 0.0014545261 -2.5836855e-05 -0.0010795738 0.0037930089 -0.0026084182 0.0006316205 0.0017836352 0.0005212403 -0.0050161257 0.0037945919 -0.0042173835 -0.0016183597 0.004217434 -0.0014198103 -0.0022506863 -0.0008223009 0.002196638 0.0011373251 0.00031359697 -0.0038581206 0.0034951149 0.0049139494 0.004900013 -0.00051042944 0.00027470192 0.0022795205 0.0001548303 -3.2251596e-06 0.0005799652 0.0024923056 0.00052938086 0.00070871925 0.003854223 -0.0038999075 0.0015151442 0.0010887507 -0.0018799197 -0.0030923004 -0.0012986189 -0.004973671 -0.002502024 -0.0036658274 0.00065719115 0.0032380165 5.3473315e-05 0.0008831918 -0.0052344752 -0.002176911 -0.0012127754 -0.0036953506 0.002459582 -0.0065268977 -0.0037299183 -0.0037348778 0.00344678 0.0009644492 -0.0016713521 -0.002806923 -0.0017134531 0.003301363 -0.00074538664 -0.0020644695 -0.004157611 0.0018191566 -0.0045008254 0.00020853574 -0.0010010061 0.0024480487 -0.0004545265 0.005235012 -0.004369316 -0.0026766048 0.0025011485 0.0014144359 -0.0017165019 -0.0011221772 0.0029581748 -0.0055607874 -0.00043425753 0.00097534765 0.00011951481 0.004672192 -0.0021798925 -0.0031803472 -0.004364616 -0.0036572025 -0.00018137394 0.0008424978 -0.0014697505 -0.0034686793 2.8045037e-05 -0.0016315121 -0.001966953 0.0017174546 0.0037298303 -0.0036899094 0.0023855143 0.0007248594 -0.00032153286 -0.0029865566 -0.0024925799 -0.002396706 0.0013331389 0.0036581997 0.0030521043 -0.0038135254 0.0003294107 0.002446339 0.0015296061 -0.0033007564 -0.0005462243 -0.0045357784 -0.003383348 -0.0008126768 0.0041413144 0.00029987757 -0.004132793 -0.0035843684 -0.0047133 0.0009016576 -0.002208316 0.0035663005 -0.0039469497 -0.003738814 -0.00039433246 -0.0010739141 -0.0027017673 -0.0010090068 -0.0010787746 -0.0002366601 0.0033324738 0.0003055761 0.0019695892 0.004075631 -0.0032261424 0.0030714057 0.0019071917 0.0012097639 0.0019001263 -0.005355953 0.002739467 5.2645002e-05 -0.00046989307 -0.001503835 0.0013544979 -0.0014229586 -0.003589246 0.0026806667 0.0016400096 0.0012652815 9.7612465e-05 0.00079903373 0.0027785292 0.001968093 -0.0052739955 0.0008646591 0.0024514443 -0.0030154306 -0.0010894627 -0.00016267947 0.0027687508 0.0042813993 -0.0013487755 -0.00600239 -0.0032331396 -0.0011172625 0.00131226 0.0015728663 -0.0058044866 0.0009795758 -0.0006148364 9.5069554e-05 0.0020328902 0.00022335352 0.0035313528 0.0005920006 0.0044184797 0.0008711699 -0.0024056514 -0.0010955413 0.0023077466 0.00021419546 -0.00080904976 0.0043490143 -0.0025829661 0.0033553848 -0.0033919187 0.00063801464 -0.0005783976 -0.0005338514 -0.00014078278 0.004531445 0.0028210247 0.003178398 -0.0002609598 0.0058125835 -0.0027473944 -0.00020877438 0.0045841783 -0.00190703
zu -0.0027471038 -0.0001786663 0.00038175116 0.0012744204 -0.0037171762 -0.0023351586 0.0043916097 0.008810144 0.0008018051 -0.00070559897 -0.002136757 0.00010982457 0.0013152588 -0.0030112443 -0.0012251835 -0.0015854593 0.0022935334 -0.00020939545 -0.0012107294 -0.002341204 0.0011889173 -0.0007717304 0.0025675304 0.0015863432 -0.00023111026 -0.004328816 -0.0005934876 -0.0036591825 -0.00247495 -0.0035354358 -0.00034989874 0.0001501586 0.0035150517 0.00075842824 0.0012236884 0.00081125187 -0.0005855937 -0.0038630762 -0.00029058525 0.0028300264 0.00062300387 0.0016435276 -0.0016508525 -0.0043411357 0.004155107 0.0031863658 0.0019628673 0.0021422873 0.0031945324 -0.00093685323 0.0044437153 -0.0018891721 -0.0013910107 0.0033706673 -0.0034136584 0.0041655465 -0.0012668375 -0.0010755012 0.0016518807 0.001963274 -0.0025055783 0.0013733535 -0.0026991384 5.0144972e-05 0.001509796 0.0031394488 -0.00016832289 0.0024754526 -0.0032862 -0.0011982718 0.0017471999 0.0033888326 0.0050237416 -0.0032339985 0.0035927894 -0.0002952798 0.0006676614 -0.0022602861 -0.0035141532 0.003103007 -0.0036769887 -0.003798037 -0.0010206152 0.006760739 -0.0013954616 -0.0014098348 -0.0037676299 0.0014204851 0.0066608894 -0.00019476065 0.005644063 -0.0017431491 0.0033498153 0.00260837 0.0061294977 0.0034201737 0.0009084008 -0.00054813834 -0.003997449 0.005350446 -0.0018926125 0.0026003944 0.0027828105 0.002044256 -2.6977445e-05 -0.004934622 -1.4026795e-06 0.001186551 -0.0061382283 0.00094106514 -0.002842084 -0.0016399533 0.0026778046 0.0025049115 0.0018933862 -0.0009512451 -0.00066032715 0.0023006496 0.005064027 -0.0018493037 0.0025191058 -0.0001902223 0.004862247 -0.0034445971 -0.0039945785 0.0052648946 -0.0012337758 -0.005233838 -0.0012364415 0.005051764 0.0011019638 0.005447579 0.0015463391 -0.0010935001 0.0011608939 -0.0012183014 -0.0020636609 0.0009560469 -0.0026095277 -0.0059091724 0.0023569544 -0.0011272037 0.00123005 0.0015774132 -0.0023751508 -0.0032478394 -0.0018832063 -0.0030495985 0.0051311105 -0.0055295518 -0.0026950475 -0.0063716974 0.0007672956 -0.0030784057 0.0033930251 -0.00086200034 -0.0014945744 5.0159848e-05 -0.0011981986 0.007532143 0.0018148109 0.00061850634 -0.0011689564 0.0034996127 -0.0006594738 0.0029742448 -0.00091994466 -0.0033204677 -0.0019287837 0.0035932185 -0.0050807716 -0.0007991165 0.0034150025 -0.00020936177 0.0016554414 0.0011980183 -0.00014876782 -0.0030153354 0.0028798978 -0.0013505503 0.0016112634 0.0050368784 -0.0031315212 -0.00355153 -0.0054886867 -0.003457724 0.004596307 0.005480868 0.0030657405 -0.004473391 0.00060176646 0.000962862 -0.0068487027 -0.0025261312 0.0024590832 -0.0056573604 -0.000113946764 -0.0037803927 0.003154806 -0.0017593231 0.0015391157 0.0002100712 -0.002816552 -0.00044861468 0.0008455376 -0.0031256839 0.0006060694 0.0041257613 0.00105079 -0.0031135397 -0.0026990522 -0.0029402997 -0.0008282403 -0.004065955 0.0037308284 -0.00038899336 -0.003640856 -0.0049201394 -0.0027959188 -0.0023640508 0.0038868652 -7.581426e-05 -0.0045107515 -0.0022008698 -0.0040230467 0.0021769481 -0.002754176 -0.0015622079 -0.0021869952 0.0034362553 0.0035143117 -0.0037311835 -0.0025912889 0.0023345088 2.8978027e-05 0.0036934025 -0.000494503 -0.0011694442 -0.00244389 -0.0033753635 -0.00082606386 0.0005579836 -0.0018235703 -0.001736442 0.0033789452 -0.0044173305 -0.0038707457 -0.0034497026 0.0010812905 -0.0010811298 0.002908211 0.002024416 0.0020979522 -0.0014084737 -0.0017474202 -0.0052964105 0.006063983 -0.0006006001 -0.0057521 -0.0011328341 0.0011424018 0.00062652695 0.0007163793 -0.0073935343 -0.0035438966 -0.0013860506 0.0038883162 -0.0008705121 -0.0054333773 -0.0025326388 -0.0052200933 0.00018930565 -0.0022545545 -0.002227648 0.0029366203 0.0013786961 0.0031171641 0.0045525474 -0.0076907035 0.0022363737 -0.0022758988 0.0011360262 0.0012586439 0.004692659 -0.0025777374 0.0012064677 -0.0074569145 0.0014996089 -0.0006904325 0.00039697904 0.0024754945 0.006283466 -0.0005646583 -0.002512371 0.0046534366 0.002419494 -0.0027389624 -0.0033488488 0.0018037622 0.0015256536
ja -0.002269108 0.0042093256 0.0020169704 -0.0005108036 -0.0009561299 -0.0032088812 0.0036518537 0.005037171 -0.0014156516 -0.00425943 0.0029761125 -0.0044985046 -0.0029737637 0.00015859136 0.0005881455 -0.0012343964 0.0018171071 0.000978734 0.0011179749 0.0008625683 -0.0013097981 -0.002870168 -0.0009812784 0.0031958641 0.001490877 -0.0031757697 -0.0004818196 0.0025880842 0.0014332498 -0.0044749114 -0.00012666355 -0.0010365235 -0.0015541627 0.0024903577 0.0008678493 -0.0015295541 0.0033672887 -0.0048914095 0.0020200345 -0.0010326261 -0.0005931375 -0.0014086355 0.001397127 0.0011412182 0.0010418182 3.470851e-05 -0.0027028942 0.002635728 0.0018590608 0.0037206926 -0.0006072094 -0.0026560698 0.00167057 -0.0006129919 0.0012036193 0.004662048 -0.0005274343 0.0013824836 -0.00055014883 -0.0012053355 -0.0030095174 -0.0009776943 -0.002779828 -0.0007630553 -0.0018217294 0.004008334 0.001900184 0.002874686 0.000112731475 -0.0021674393 -0.0011815492 0.0038560727 0.0041737226 -0.004183421 0.0021150357 0.0037495552 0.0017657967 -0.0024151031 -0.00138603 0.0028245393 0.00023123028 -0.002429122 -0.0022064582 0.0069594854 0.0037009055 0.00040225088 -0.0028263633 -0.00041145305 0.0017314329 0.0012273337 0.0018044648 -0.0010958221 -0.002557474 -5.5500175e-05 0.004543481 0.0045199324 0.0022037404 -0.0017887258 0.0024450014 0.0018365278 -0.0004438091 0.0021199093 -0.0006501203 0.0029419225 0.0035537942 8.645201e-05 0.0008286168 0.0015883854 -0.0026927989 -0.0011271621 -0.00095794006 0.00032782002 -0.0012835322 0.0019445992 0.0021008744 -0.0015158154 0.0017872815 0.0031136957 -0.000895055 -0.0014168349 -0.0022356429 -0.0010963057 0.0038880212 -0.0033743766 -0.0014436338 -0.0008934314 -0.002900631 -0.0038687745 1.7200458e-05 0.002805182 -0.0011262968 -3.4067387e-05 9.053784e-05 -0.0023462188 -0.0015186723 -0.00011523486 0.0005769693 -0.0003761812 5.5660075e-07 -0.001374906 -0.00031631734 -0.0016245003 0.0021549477 0.0017679308 0.0010671224 -0.0011351935 -0.005661501 0.0011715562 0.0029853384 -0.0016026481 0.0030325397 -0.0051559233 0.0002133411 -0.0030071854 -0.0026442523 0.0024284523 -0.00028748094 0.0013261343 -0.0037497885 0.0045503057 0.00089427095 0.0017392177 -0.0021610497 0.0027891176 0.0012235797 -0.002886719 -0.00368341 0.0019761808 -0.0005855334 -0.00028492685 -0.0032628404 0.00018609595 0.0034211902 0.00044376685 -0.0004093308 -0.0026444138 -0.0024400575 -0.0018833273 0.000521933 -0.0019375373 0.00047169815 -0.0015560561 -0.0022405367 0.0006991097 -0.001247783 0.0023356345 0.0045321947 0.0022617122 0.0021641832 -0.0007882866 0.0031016667 0.003016448 -0.0008976172 0.0020359724 0.0030989733 -0.0025344011 -0.0012626855 0.0013157951 0.0012343619 -0.0020850399 -0.0015816982 -0.0017554319 0.0022802206 0.0017723757 0.0016673025 0.0011975586 0.0014645153 -0.0008597527 -0.0024137464 -0.0016935677 -0.0017109514 -0.0052405153 -0.0005067412 -0.004320601 0.003988235 -0.002855531 -0.0036551107 -0.00675541 -0.004415352 -0.0054357317 0.00097573345 0.0020966304 -0.002628637 0.0011723707 -0.001490297 -0.0032505186 -0.000935312 -0.0017612478 -0.00327481 -0.0015184572 -6.463455e-05 -0.0012239352 0.00086284126 -0.0010052652 -0.0026011614 0.0018327456 -0.0005633181 0.00052536884 -0.00047567283 -0.0020552452 0.003904051 -0.0029661658 0.00083417905 0.0025913594 0.0005500129 -0.00075794646 -0.002302533 -0.001803568 -0.0019762607 0.0043134307 -0.0019870952 -0.00051241595 0.000552611 -0.0012648768 4.7941485e-05 -0.0039190194 -0.00015822765 0.0027593512 -0.0065705604 0.0015104217 2.0395455e-05 0.003426151 0.0010101291 -0.0051685977 -0.004923613 -0.0018014166 0.0039469036 0.0038287977 -0.0027724148 0.002476567 -6.344476e-05 0.0016521324 0.0012432425 -0.003435768 0.0045637568 -0.0014332737 0.0004442563 0.0017864037 -0.001470749 -0.0029595175 0.0008020173 0.0013634518 -0.003769829 0.004515383 -0.0016858496 0.0032567922 -0.0056481566 0.0035144105 0.0038238403 -0.00080546085 0.00063264696 0.00086475705 0.003313966 0.0033278728 0.0004669877 0.0029543804 -0.00061582425 -0.0039245216 0.002058177 -0.0042890627
an 0.00077729044 -0.00069140416 0.0019798886 0.0037741843 -0.0012599743 -0.003813081 -0.000507068 0.0071499124 0.0005201326 0.0016207407 0.0019038857 -0.0023359747 0.0011693398 0.0026002089 0.0027214766 0.0013032536 -0.0010394651 -0.0025395488 0.0030493406 -0.004174157 0.00091400853 0.0022745607 0.0007154314 0.002819626 -0.001872563 0.0008732605 -0.00086757715 0.00083120994 -0.0039609117 0.0007998428 0.004476789 -0.0008720982 0.0020684726 0.0031131555 -0.0016853294 0.0023298187 -0.0003744779 -0.0028327415 -0.00040883874 -0.00086390116 -0.0015949055 -0.0028730074 0.0014996934 0.0014982582 0.0031764721 0.003825109 -0.0015056542 0.0031844187 -0.0018249468 -0.00015199435 0.0041603795 0.0027391938 -0.0022538346 -0.0010513946 0.0021430403 0.0029359956 0.0030438525 -0.0013982414 0.00035278336 0.00081200793 -0.0012079922 -0.00019910737 -0.0025270847 0.0013441896 -0.001936279 0.0046714055 0.0011745394 0.004001513 -0.0015072154 0.0006573577 -0.0020376882 -0.0023707028 0.0017384707 -0.0019726085 0.0036883133 0.0026136558 -0.0032620204 0.0028407252 -0.00056398206 -0.00062053144 0.0012029044 -0.0026153645 -0.0038281754 0.008021107 0.0038606576 0.003444013 -0.0008258375 0.0037837967 0.0054537314 -0.0025929995 0.0047799554 -0.0014514195 -0.0027879183 0.003282258 0.00079461193 0.00538153 -0.0018782626 0.0021644835 -0.0026031148 0.0030658431 0.002324329 0.0014635698 0.0009062183 -0.00080161495 -0.003071282 0.0002098886 0.0021046307 -0.0013845526 -0.00017170257 0.004009467 -0.0045672306 0.0007379122 -0.0012633061 -0.00014165892 0.0005414234 -0.0015041855 -0.00033297122 -0.002033022 -0.0002441562 -0.005001749 0.003906226 0.0044278693 0.0015074319 -0.0018187611 0.00101724 0.0022874072 -0.0034057624 -0.0039223474 0.00021603917 0.0049910643 0.0026571203 0.0061604423 0.0034347398 -0.0017645847 0.003455664 0.00437793 0.002080108 0.0017111541 -0.005523102 -0.0017963416 -0.0026312238 -0.005162357 -0.003731203 0.0022582326 0.0005227261 -0.0037312536 -0.0008855375 0.0021079106 0.0028053396 0.00096696394 -0.0014107793 -0.005557052 0.0004461415 -0.0014246764 -0.002038559 0.00310496 -0.0030977663 -0.002472647 7.111903e-05 0.0055619837 0.0022087654 0.0004621012 0.00087454705 0.0019436633 0.0008631416 -0.0004841593 0.00029418032 0.0017022744 -0.0035971934 0.0050144223 -0.0016156642 0.0018613314 0.0002225964 0.00018375016 -0.0019135128 -0.0011619083 -0.00078842836 -0.004245216 0.0010921045 0.0033596614 0.0019451694 -0.0010398368 -0.0040048733 -0.0016795339 -0.00045639323 -0.0034149035 0.0044189254 0.003835149 -0.0004488445 0.00011850113 0.0028706237 0.00019325294 -0.001055631 -0.0026381812 -0.0021924232 -0.0031180147 0.003797574 -0.00059619674 0.002786581 -0.0027457655 6.6629094e-05 -2.9740128e-05 -0.0010976129 -0.00045109983 0.00190583 -0.004018198 0.00035156685 0.0026011162 -0.0011917339 -0.0018943114 -0.0030036913 -0.0043461914 -0.002098538 -0.0005088559 -0.0008394108 -0.0022142204 -0.004675803 -0.005480738 -0.0037121486 -0.004985559 0.0018493911 0.0036053776 -0.00034573374 -0.0008210736 -0.0025144692 -0.0012157251 0.0009200445 -0.00017450853 0.0019839674 0.0015681719 0.0037452544 0.0011542328 0.00012859631 0.0040842528 -0.0026116085 0.00014966432 0.0023745466 0.0021852744 0.0011756351 -0.005035677 0.0038072823 0.0005259836 -0.0005648006 0.003688693 0.0022403803 -0.0018388969 -0.00052670354 -0.0031649177 -0.00040405427 0.002060434 -0.00064958306 0.0030558784 0.0032327226 -0.002627038 -0.0050545116 -0.0037387712 0.002393427 -0.00091276097 -0.0047397693 -0.0025997641 0.002717714 0.0049230815 -0.0003896204 -0.0068284897 -0.0013012303 -0.0019270721 0.0040515224 0.0026887474 -0.0056597455 -0.0022696627 -0.0044939304 0.0011813313 0.0013519578 0.0006550002 0.0016260212 0.0017529114 0.002586459 0.0008862873 -0.0060976082 -4.7720914e-05 0.0014957672 -0.001726471 -0.0016705529 0.00073570287 0.0024319822 -0.0008579905 -0.00044876983 7.887267e-05 -0.002572259 0.00031417096 -0.00088257185 0.004016571 0.0023391268 0.00087109546 0.0057211895 0.003074501 0.0020661463 -0.0014208726 0.001253269 0.0010860392
sich 0.0005822687 0.00436797 -0.0027163127 -0.0018692729 -0.0004694027 -0.0028852182 0.0016243707 0.004609328 -0.002224058 -0.0037958296 0.0034648308 -0.002329375 -0.0010111098 -0.00077698915 -0.0007724138 -0.00418208 0.00091657275 -0.00033165407 0.0034085114 -0.0042253085 -0.0017798924 -0.0009801993 0.0025624929 -0.0014828191 -0.0011065827 -0.0038214112 -0.0006157536 -0.0031685473 -0.0022314258 -0.0019609067 0.0019984108 -0.003606601 0.003466554 0.00025092467 -0.0008002571 -0.0024697976 -0.0018564839 -0.0009098268 0.0012758005 0.0014858315 0.00077578553 -0.0026889273 -0.00018777535 -0.0021524373 0.0009328627 0.003047638 0.0005482468 -0.0011675437 0.0014452691 0.003441612 -0.0012437693 0.0016646502 -0.0019227802 0.0038271064 0.0011135967 0.0024907533 0.0004750358 -0.0022524304 0.0034974539 0.00037795925 0.0014397987 0.00039991253 -0.003017168 -0.00035063963 -1.31713805e-05 0.0007572808 0.0046415473 -0.0008269407 -0.003449173 0.00034764933 -0.0008003236 -0.0017289462 0.0023753135 0.0007379059 -0.0015140615 -0.00044805426 -0.0036719302 0.00088255334 -0.0022791508 0.0051081916 -0.00038829283 -0.0011297849 -0.001754139 0.006951855 0.0010770345 -0.0022005625 -0.0033434294 0.0011213488 0.005899322 0.00089646043 -0.00027933455 -0.0024493835 -0.002939322 0.0016474972 -0.0009901755 0.0033475044 0.0012054937 -0.0010521836 -0.0038118197 0.0034838102 -0.00080469024 -0.0033255217 -0.0010484605 0.0035924704 0.00079141516 -0.0037305779 -0.00058099435 0.0019606273 -0.0049839756 -0.0007800162 -0.0017024028 -0.003213246 0.0010766278 0.0018133721 0.0030531401 0.0010962225 0.0013237881 0.002095172 0.00032311666 3.2308526e-05 0.00068151165 0.0012646604 -0.001829302 -0.0006603828 0.0013266307 0.0021698172 -0.0029957616 -0.00253428 -0.0021209961 0.004048279 -0.0007653469 0.004268222 -0.0006301643 -0.003952655 -0.0020016728 0.0024932278 -0.003464004 -0.003161922 -0.0044723568 -0.004078038 -0.0014457158 -0.002025289 0.0013814725 0.00057698326 -0.0013248614 -0.0009115812 -0.0005725662 -0.0022657246 -0.00063018897 0.00027537314 0.002060334 -0.005626963 0.0019721333 -0.0037505068 -0.0022027781 -0.0003065718 -0.0011727937 -0.00068910787 0.00042622222 0.005229203 0.0016950115 -0.0008067132 -0.0039354456 -0.0019149312 -0.0012619998 0.0031271814 -0.0029263105 0.0009984396 0.001174343 0.0012991439 -0.0040997113 -0.0019287067 -0.0010935852 -0.0013938474 0.0018915016 -0.0027587002 -0.000849324 -0.00075265055 0.0007229883 -0.0019012474 -0.0013307187 0.0025007904 -0.0005456633 -0.0013343856 -0.0017696219 0.00050281355 0.002558125 0.0016062178 0.0021906868 -0.0052056066 0.002328687 -0.0033387921 -0.003047668 0.002686415 -0.000504304 0.00030209383 0.0024502045 -0.0039499872 0.00068695075 -0.0019508746 -0.003933515 -0.0003844163 0.0014346805 0.0035137413 -0.0014180022 -0.0018309763 -0.0031581472 0.0010303812 0.0005840152 -0.0037512458 0.00037649253 -0.004859982 -0.00020934606 0.00015608645 -0.0010922016 -0.0014937124 -0.0022289515 -0.006751645 -0.0038664034 -0.0005726537 -0.0022281867 -0.0016681474 -0.0017777364 0.0014635833 -0.00036723696 0.0024841793 -0.002429328 0.0023702555 -0.002457967 -0.00048712082 -0.0013983047 -5.919416e-05 -0.0016813425 0.003957708 -0.0010033442 0.002182335 0.0020065352 -0.0035083147 -0.0005222857 -0.0048367814 -0.001762457 0.00075988454 0.00041397562 -0.00017943549 5.840056e-05 -0.0051167016 -0.0015538898 0.00028578713 0.0032088258 0.0034639135 -0.000175554 0.001772625 -0.00015428527 -0.0012692828 -0.004039375 -0.003530102 0.0034348632 -0.0029282034 -0.0060590017 -0.0031085848 0.0038028797 0.0021394503 0.0027897735 -0.00078601285 -0.00434422 -0.0012765302 0.0041746907 0.0032663497 -0.0010872695 0.0032919433 0.0016677057 -0.0005692637 0.00074107124 0.0016317049 0.004367744 0.004548308 -0.0013760704 -0.00045980202 -0.0012896727 0.00046527985 0.0003290284 0.00181649 0.0013096961 -0.0010914486 -0.00083379075 -0.0027445648 -0.00083596405 0.0021529293 -2.8010794e-05 0.0028066868 0.003064904 0.0059112883 0.0026166155 0.0012022723 0.0028884425 0.005192658 0.0006535745 -0.0010717645 -0.0014731446 -9.1152244e-05
werden -0.0028716186 0.004238208 -0.0019705193 0.0007084146 -0.00012959003 -0.0035424107 5.7473753e-06 0.007569365 -0.0027273805 -0.0045074453 0.002241661 -0.0018651256 0.002070552 -0.002719777 -0.00017005748 -0.0016574936 0.003981694 -0.0031187884 0.0025994391 -0.004992956 -0.0028128594 -0.0002872111 0.0011322283 -0.00062190735 -0.0008459788 -8.3717285e-05 -0.0061605386 9.907903e-05 -3.0588395e-05 -0.0027551616 0.0017537426 0.0019818416 -0.0024350954 -0.0018554791 0.00021120762 0.0035256608 -0.0014441882 -0.005523871 -0.00022316967 -0.0024082584 -0.0007102443 0.0027269835 -0.0017541273 -0.003987258 0.004800404 0.00173395 -0.0010651421 0.00081974454 -0.002352855 0.00020748712 -0.00033493555 0.00080030446 -0.00043598557 0.0036371 0.00200324 0.0018618271 -0.002394599 0.0018478348 -0.0011991961 0.004210951 -5.2374173e-05 -0.0014485676 0.0018454827 -0.0012445198 -0.0024223693 0.0020803963 0.0045806463 0.003109595 -0.00083298463 5.5607183e-05 -0.00044644982 0.0038153238 -0.00016515133 -0.0024539526 -0.0013776646 0.004212402 -0.0026205136 -0.00040805875 0.0015503643 -0.00031189824 -0.0018061686 -0.0012139515 -0.00286979 0.008712982 0.0020115986 -0.0010879674 0.0006089358 0.0040008235 0.0044625886 0.0020371506 -0.0003939959 -0.0015735119 0.0038266024 0.0024406065 0.0034658038 0.0017176898 0.002401185 -0.00018114179 0.0021102536 0.001987682 0.0018788659 -0.0018713452 -0.0007563399 0.00048176674 0.0012939706 -0.0020508827 0.0016292618 -0.0026087116 -0.005424019 0.004395688 0.00039270413 -0.0013077287 -0.00026037655 0.00030969045 0.00032243435 0.0040856907 0.0014474309 -7.1364804e-05 0.0011924133 -0.0037862451 -0.0023546075 0.0041134036 -0.0010923456 -0.0020285037 -0.003524279 0.0050791036 0.0015633974 -0.0019343873 0.0011397937 0.0017939481 0.0050395313 0.0020209344 0.0029876956 -0.003339036 0.003835643 0.0046809735 0.0013146625 -0.0016723641 -0.0031363457 -0.0061912616 0.0030159696 -0.005894566 -0.0032169141 0.0032542432 -0.0001984862 0.00080504804 -0.0056194966 0.002357207 0.002252731 -0.004757025 0.001321572 -0.0055582123 0.00110038 0.0016866651 -0.0025056303 0.004269085 -0.0004775967 0.0013602418 -0.0033307336 0.0015545455 -0.0029020812 0.0021375997 -0.003653827 0.0027042564 0.00016121399 0.0025125798 0.00038334727 -0.000767921 0.00014131474 0.004430936 -0.005180555 -0.0022568386 0.00035405852 0.0028775467 -0.00010799036 -0.0034040404 -5.547586e-05 -0.00043739163 0.002914353 0.0018199211 -0.0013684538 0.00045475218 -0.0023595404 -0.0028135509 -0.0048068864 -0.00052998174 0.0034010955 0.004812661 0.0017108499 -0.0006018863 -0.001996003 0.0030790968 -0.0041532917 0.0007262258 -0.00066398433 -0.003751803 0.0002692852 -0.0044516632 0.0039654835 0.0009986365 -0.002273445 0.00064888486 0.0016711005 -0.0011806531 0.0016172793 -0.00084656733 -0.0005605972 0.00020929957 -0.0036084617 0.0013956462 -0.001038906 -0.005319443 -0.0001464937 -0.00403442 0.0034214752 -0.0041738926 -0.0024091876 -0.0049537346 -0.005310388 -0.0037824567 0.0032780508 0.00097296527 -0.0051343786 -0.0016264903 -0.0042445804 -0.0019974913 0.0017803928 0.0003198905 -0.0029981467 0.0025055022 0.00350079 -0.0033212733 -0.0021342756 0.0010399783 -0.00411735 0.0023752109 0.0021919024 -9.400652e-06 0.0009513159 -0.004494534 0.0012580621 -0.0025657173 -0.0007790859 0.0029422098 0.0018617535 -0.0033696177 0.0020202447 0.0006297096 -0.0017522089 0.00386803 0.004588569 -0.0023186859 0.0032902013 -0.0021470988 -0.0038595193 -0.00047443405 0.0010479713 -0.003111021 -0.006942546 -0.0054073124 -0.00047209772 0.0050434577 0.002321676 -0.007631734 -3.094854e-05 0.0027282096 0.004627727 0.0051838905 -0.006294084 -0.00037382788 -0.000906475 0.0012066293 0.0021028991 -0.002736664 0.0032938004 0.0048929635 -0.0012649143 0.0041865096 -0.0026579446 -0.0012866713 -0.00016030637 -0.003757323 -0.0035566029 0.003344134 -0.0010070311 0.0033812092 -0.0067756525 -0.00079598033 0.002883743 0.0053073256 0.0019283413 0.0064835097 0.0028802075 -0.0018284145 0.0058618425 0.0010686978 -0.0008277342 -0.003624944 0.004170754 -0.0026177366
da 0.0009510889 0.0015005091 -0.00042326513 -0.00077053613 -0.0023934068 -0.0038092716 0.0029451514 0.0061703767 -0.0016003343 -0.0007370762 -0.0009502519 0.0018999652 -0.00032830494 -0.0027153506 -0.0010683861 0.0012963106 0.0015346268 -0.0016105954 -0.002144696 -0.0038581241 -0.0013048764 0.0021529177 -0.00051286217 0.0011218712 0.00078402116 -2.7482625e-05 -0.005470728 0.0023762658 -0.0022052994 -0.0007331639 -0.0014342498 0.0013583906 -0.0020487648 -0.00011264072 -0.001531533 -0.0007068502 0.0007499238 -0.002484577 0.0014222087 -0.00021606682 -0.0027040388 -0.0024109636 0.0029681353 -4.939874e-05 0.004754861 0.0037292056 -0.0013846329 0.0042607454 -0.0018607742 0.0026401374 -0.00021958066 0.0007631158 0.00060506066 0.00010978886 -0.0017174718 0.0014835804 0.0010638874 0.0030551583 -0.0012846218 0.0026403156 -0.0024774745 -0.0036502965 -0.0021418326 0.00043532538 0.0018573378 0.004531472 0.0046912096 0.0032575042 -0.0022811065 -0.0019189108 0.0034806372 0.002823897 0.004032509 0.0010224076 0.00091924105 0.001995524 -0.004209449 0.0028736603 0.0023752614 0.00030414335 -0.00034821313 0.00087892055 0.0005915667 0.0075500836 0.0040283115 -9.1764654e-05 0.0019286216 0.0031742768 0.0031630986 -8.290898e-05 0.005020573 0.0015765079 -0.0017486739 -0.0006810299 0.0014878203 0.0036757803 0.0011694466 -0.0038160004 0.00011359511 0.00503519 -9.4983065e-05 0.0014977551 0.00230987 0.0035539137 0.0032523186 -0.00021763754 -0.0011658542 0.0014086654 -0.004772275 0.004402711 -0.0029148737 0.0033003304 -0.0021555698 0.0006103764 0.0032756757 -0.00038988388 0.00038270548 0.0023153492 0.005232721 -0.002922069 -0.0015305222 0.005035726 -0.0015181974 -0.0004143429 0.0007581485 -0.0007486342 -0.0021567382 -0.004638543 -0.00019340946 0.0040449565 -0.0011352842 0.0019865753 0.003986023 -0.0033653365 0.0016119934 0.0026069984 -0.0018745441 -0.003254791 0.00032147454 -0.0038954245 0.0030321677 -0.0036372286 9.146583e-05 0.0030309686 0.0007122727 -0.00019600011 -0.004780842 0.00211123 0.00082648976 -0.003274084 0.0017214196 -0.00026828292 -0.0028308274 -0.00019778428 0.0017896182 0.000955958 -0.0018366845 0.0021714496 0.0016675168 0.0012218104 -0.0009880015 0.0034655684 -0.002249717 -0.002135786 -0.001515193 -0.0023523907 -7.672017e-05 -0.000116560965 -0.0017660232 0.0016475176 0.00084271026 0.001302715 0.0014210482 0.0017202061 0.0027187613 -0.0018163822 0.002159319 -0.0029350326 -0.0017860351 -0.0026559972 -0.00037884037 0.0042783725 -0.00072956673 -0.0037646547 -0.0014006026 -0.0015544905 0.001230029 0.005656228 0.0024567118 -0.0030272305 0.0010892174 0.00026100004 -0.0061065117 0.0014304506 0.0031359806 -0.0008401267 0.001611109 -0.0030139028 0.0017105102 -0.0030601944 -4.858995e-05 0.0008270448 -0.0010020243 0.0004227424 0.0011800766 -0.00023214036 -0.00092048105 0.0039672754 0.00089409936 -0.0001075098 -0.0014601512 -0.0042783483 -0.003451145 -0.0028447276 0.0023211453 0.00064367603 -0.0015178444 -0.0061079264 -0.0023289223 -0.003725975 0.00048585428 0.0032522024 0.0008698743 -0.0015331146 -0.0029842693 0.0003949496 0.0033362503 0.0020916986 -0.0016625366 0.004253683 0.004603888 -0.0039624358 0.002105151 0.0016253659 -0.0027715454 0.00277755 0.0029812308 -0.0031810314 0.0024541942 -0.0059753857 -0.0012582392 0.001429706 -0.0020512235 0.0022092906 0.0033534097 -0.00012988303 0.0013259375 -0.003193004 0.0017418495 -0.001688284 0.0011285277 0.00398056 -0.00097623473 0.0018184184 -0.005311344 -0.0045098104 0.0054488243 0.00070778397 -0.0016068217 -0.0009898911 0.0019393562 0.0028732794 -0.0016145317 -0.0019224613 -0.0041772723 0.0018124948 8.890194e-06 0.002128191 -0.0017225385 -0.00041177147 -0.004007796 -0.0015752849 -0.0029177 0.0030005772 7.704395e-05 0.0010951437 -0.001417915 -0.00013615369 -0.005021749 0.0011644472 0.0022530458 0.0003424307 0.0023863402 0.0020285218 0.0033613765 0.0025678799 -0.002907852 0.0022191566 -0.0017003115 0.0017177565 0.0024999953 0.0010282515 0.001469409 -0.0025170129 0.0059720655 0.0029003308 0.00040106248 -0.0030921309 0.003979139 -0.0034915966
