715 300
, 0.06556117 0.3946917 -0.20891461 -0.023827989 -0.24556758 -0.37159318 0.43037906 0.9024625 -0.045323104 -0.3785023 0.105754696 -0.34704798 -0.11096651 -0.0680269 -0.2574575 -0.26077327 0.32836336 0.16579781 0.096448354 -0.22718847 -0.189041 -0.009304982 0.33930743 0.05947653 0.20075066 -0.033552535 -0.60600144 -0.15300475 -0.13585553 -0.5294501 -0.18185018 -0.107271194 0.22680864 -0.015387401 -0.04718032 0.3817226 0.16688281 -0.42004347 0.08695818 0.019205177 -0.07988423 -0.04951775 -0.024047414 -0.29559535 0.29458568 0.37174922 -0.10114662 0.031210484 0.23838307 0.22344585 0.06541815 0.21623385 0.05706379 0.19673398 0.0119966455 0.36900854 0.31924644 0.020866789 0.094274655 0.086636975 -0.19383416 -0.0992553 -0.03466594 0.043936722 -0.28417706 0.25178677 -0.08068445 -0.06211991 -0.06852806 -0.06558089 -0.055403464 0.2352909 0.454261 -0.27519387 0.19234373 0.14604233 -0.1001417 0.22274275 -0.039952144 0.2638258 -0.076533124 -0.33665362 -0.02783469 0.7422817 -0.0867722 0.15165356 -0.11385603 -0.017517246 0.37961316 0.24546203 0.2856987 -0.15743549 0.22851585 -0.057206444 0.4521486 0.49341848 0.36867642 -0.4080862 -0.024325494 0.21252555 -0.03598534 0.020705529 0.14930822 0.24929462 0.047448818 -0.22159562 -0.17021182 0.014540077 -0.28869542 0.17337106 -0.37962788 -0.17254283 -0.043356575 0.15152621 0.13118874 0.06262314 -0.008683883 0.1218775 0.29521894 -0.53011805 0.36679244 0.17494826 0.3559974 0.061669756 -0.39063004 0.21587555 -0.06440129 -0.14161216 -0.071092516 0.38005462 0.2965061 0.28989685 0.097570896 -0.4328577 0.06472666 0.20623483 -0.07058023 -0.15669313 -0.22478686 -0.3507738 0.119648896 -0.53914255 -0.2770413 0.36493692 0.15567313 -0.115314454 -0.50573784 -0.2842317 0.29675964 -0.21196118 0.19276999 -0.6144851 0.012534068 -0.25605464 -0.017764937 0.3293429 -0.29703966 -0.212939 -0.11885228 0.5101047 0.020653913 0.2984039 -0.5285337 0.22064458 -0.1990624 0.2392118 -0.09416105 -0.13254431 -0.0923771 0.7502887 -0.34953496 0.19124435 0.22042428 0.16228949 0.093131125 -0.041099988 -0.09146843 -0.35023713 0.023547245 -0.13945958 -0.15567271 0.14433864 -0.33334973 -0.09452402 -0.078841284 -0.039914265 0.5863331 0.37033907 0.17979395 -0.35386175 0.013554448 -0.0017903359 -0.07683597 -0.15581731 -0.087590374 -0.35580996 -0.047206458 -0.25766748 -0.13517722 -0.17366849 -0.3336896 0.14648783 -0.12366685 -0.18243074 0.22608165 0.033978082 -0.18150537 0.11007811 0.057385076 -0.06820918 -0.057441995 -0.25472486 -0.18047795 -0.11316762 0.36376232 -0.46710098 -0.31688124 -0.74448687 -0.5881033 -0.40912142 0.073710844 -0.18146563 -0.28246996 -0.20005096 0.011576881 -0.25274873 0.008049825 -0.28982982 -0.2772485 0.25916317 0.3033267 -0.18349582 -0.049098536 0.3131346 -0.4869798 0.13094215 -0.14959626 -0.035994 0.16197515 -0.6461828 0.17782563 -0.24316454 -0.26563242 -0.07805772 0.14162353 -0.36521444 0.040090658 0.129314 -0.01435987 0.36464155 0.13400613 0.032915175 0.19902414 -0.08685689 -0.32610166 -0.058688592 0.22070138 0.028170539 -0.5371204 -0.3337371 0.2861644 0.00085790793 0.0847454 -0.57512933 -0.47808245 0.015234073 0.19575894 0.2565462 -0.50196534 0.18108693 -0.31513232 0.037274078 0.01155267 -0.12170612 0.050621163 0.25215718 0.4321494 0.16699857 -0.16530907 0.14805631 0.3642388 0.043881826 -0.14801966 0.2173585 0.13079336 -0.057905745 -0.46320638 0.27801532 0.09524548 0.11468578 0.11302283 0.5363803 0.22076668 0.010809343 0.51778036 0.46600768 0.21023372 -0.34998262 0.2594902 -0.3926879
die 0.06494816 0.41126424 -0.2177092 -0.028218143 -0.24920401 -0.3832308 0.44378752 0.933076 -0.04293011 -0.39291823 0.11015 -0.3572093 -0.11205533 -0.07459309 -0.2616979 -0.27014205 0.34180248 0.16926128 0.10015715 -0.22946861 -0.19755912 -0.012278688 0.35149446 0.06457895 0.20208356 -0.032851297 -0.62452 -0.15899317 -0.13726762 -0.5459353 -0.184931 -0.11195804 0.22908324 -0.013848523 -0.046953455 0.3984818 0.17288429 -0.43470022 0.08673123 0.025029717 -0.07844371 -0.051063035 -0.019485448 -0.3047613 0.30706838 0.38572332 -0.10084533 0.02785429 0.24382587 0.22743541 0.07189164 0.22216712 0.057342444 0.20020749 0.0073725064 0.38365614 0.32925162 0.027239742 0.10040997 0.084949665 -0.19963364 -0.1012615 -0.03158532 0.04780685 -0.29187363 0.25769898 -0.083601326 -0.063251145 -0.07073832 -0.0720546 -0.05714932 0.23917805 0.4698622 -0.2784691 0.19662295 0.14921714 -0.107796855 0.2329238 -0.042804416 0.27662313 -0.08073516 -0.34721944 -0.029153187 0.7664532 -0.0883336 0.15505497 -0.11703666 -0.01466175 0.39332914 0.24826036 0.2922987 -0.16316994 0.23500136 -0.060061324 0.4676882 0.50841224 0.38657886 -0.4218369 -0.02655316 0.21565259 -0.036513068 0.020890547 0.15034978 0.2549948 0.04777037 -0.22512434 -0.17626263 0.013623895 -0.29939443 0.18348981 -0.39500692 -0.17440519 -0.045594152 0.15554616 0.13263538 0.061300725 -0.012309857 0.12549138 0.3085041 -0.5499904 0.37888432 0.18002582 0.36759877 0.070294805 -0.40735036 0.22275163 -0.06407969 -0.146734 -0.075875156 0.3910202 0.3059534 0.30224913 0.101264976 -0.44921735 0.068501145 0.21027912 -0.076467246 -0.16299796 -0.23659636 -0.36615613 0.12138881 -0.5576641 -0.2863886 0.38089386 0.1640798 -0.12461151 -0.5241429 -0.2940182 0.3080196 -0.22210424 0.19804928 -0.63109577 0.016239716 -0.26733938 -0.01833077 0.33547002 -0.31416908 -0.22575192 -0.123216376 0.52293515 0.026128078 0.30512428 -0.5441607 0.23050335 -0.20845373 0.24536729 -0.09675173 -0.13164389 -0.09958127 0.776913 -0.36233026 0.20268264 0.22512893 0.16699184 0.09785313 -0.03750022 -0.09277475 -0.35851097 0.025320817 -0.14586447 -0.16040613 0.14549208 -0.34522673 -0.096786015 -0.08463196 -0.04335912 0.6092225 0.387885 0.18214223 -0.36604288 0.014766702 -0.0025191575 -0.07843444 -0.15967488 -0.08868766 -0.37156567 -0.048834134 -0.2641229 -0.13602836 -0.1799615 -0.34836683 0.15109792 -0.12582783 -0.19157548 0.22770531 0.031803973 -0.1845888 0.11440461 0.059880372 -0.075227425 -0.059570357 -0.2630614 -0.1920387 -0.120261654 0.37247816 -0.48342964 -0.3313188 -0.77555835 -0.6058299 -0.42243478 0.07583219 -0.18607041 -0.2878683 -0.20192352 0.0066527533 -0.26095822 0.006409249 -0.3047587 -0.28429767 0.26901135 0.31368437 -0.19013123 -0.050145797 0.32217023 -0.5005163 0.13950162 -0.1525946 -0.036695298 0.1686818 -0.6690523 0.18939047 -0.2549189 -0.2765459 -0.08378605 0.14488709 -0.38061893 0.040874586 0.13704325 -0.013481788 0.3769904 0.13932972 0.032185253 0.21101639 -0.08432734 -0.33782873 -0.05815265 0.23276122 0.028214466 -0.55637246 -0.34668717 0.29710132 0.0021476713 0.0881309 -0.5985618 -0.4907108 0.013667622 0.20064214 0.26405045 -0.51932013 0.18200757 -0.32658285 0.038911805 0.01304657 -0.12496039 0.053828787 0.26116273 0.44057825 0.17323968 -0.17021401 0.15404439 0.378587 0.04627989 -0.14829715 0.22206546 0.13452385 -0.060330514 -0.4793855 0.29368946 0.0952689 0.11976071 0.121913254 0.55617476 0.22246918 0.011332816 0.5362841 0.48221084 0.21495403 -0.36479723 0.26677015 -0.40605336
. 0.05874462 0.33544672 -0.1799339 -0.022076406 -0.20699981 -0.3150773 0.3677855 0.7681878 -0.038291067 -0.32278875 0.090298474 -0.29530057 -0.09387441 -0.05658225 -0.22029573 -0.22250114 0.2828018 0.14376451 0.0853364 -0.19447605 -0.16345972 -0.010392965 0.2906435 0.05091384 0.17014733 -0.027331028 -0.51789427 -0.133544 -0.113904946 -0.4514827 -0.15071763 -0.088586435 0.19103366 -0.009657052 -0.04205688 0.326751 0.13800454 -0.36002862 0.07215161 0.015065702 -0.06297723 -0.045585252 -0.015333275 -0.2535978 0.25275308 0.32086605 -0.08650707 0.020295471 0.2006967 0.18767643 0.05806251 0.18027613 0.04706416 0.16893846 0.005239679 0.3135159 0.27056745 0.01670237 0.078979105 0.06862662 -0.16504268 -0.08665192 -0.025744807 0.040384766 -0.24314994 0.21634743 -0.0709798 -0.056142274 -0.06051888 -0.058050867 -0.049366716 0.20052919 0.38723272 -0.23078088 0.16515443 0.12183896 -0.08652562 0.19278091 -0.034399685 0.23001325 -0.06325098 -0.29056865 -0.027415529 0.63288164 -0.07329215 0.12670004 -0.09574552 -0.015743004 0.3227502 0.20748703 0.24232945 -0.13415463 0.19329306 -0.049188737 0.382937 0.41997415 0.3201792 -0.34825805 -0.021668434 0.18145953 -0.025047664 0.0150267305 0.12918063 0.21393558 0.03680741 -0.18750125 -0.14457096 0.009226626 -0.248013 0.14727485 -0.32439497 -0.14529546 -0.03413678 0.12665226 0.11065339 0.052631088 -0.007688462 0.10177837 0.2511935 -0.45576748 0.31269163 0.15345852 0.30191615 0.052339353 -0.33813202 0.18603696 -0.05435902 -0.12059279 -0.06268564 0.325211 0.24817586 0.24999091 0.08305655 -0.37046495 0.053137697 0.17501937 -0.06421192 -0.1360022 -0.19780508 -0.3015465 0.10271047 -0.45955008 -0.23412193 0.3130604 0.1367935 -0.10278019 -0.43587926 -0.24376869 0.25588143 -0.18142623 0.15921393 -0.5227998 0.014072623 -0.2221436 -0.01672313 0.2819005 -0.25975415 -0.18238218 -0.101116724 0.43584472 0.02322981 0.25270426 -0.45121488 0.19323404 -0.17003714 0.20509388 -0.0855411 -0.107997306 -0.08097976 0.6367864 -0.29615086 0.16558312 0.18813017 0.13594839 0.07869142 -0.03208197 -0.073391676 -0.30004892 0.019622449 -0.12074796 -0.13265593 0.122206196 -0.28897384 -0.078286014 -0.06742366 -0.03402523 0.50244087 0.32266775 0.15591425 -0.30163366 0.012075977 -0.002388056 -0.06910688 -0.12853171 -0.0745129 -0.30486804 -0.04251309 -0.22100705 -0.11127977 -0.15091531 -0.2883782 0.12730527 -0.10211702 -0.15254138 0.19282031 0.027231319 -0.15056552 0.09221487 0.049126815 -0.058904085 -0.04631706 -0.21855809 -0.15282351 -0.09800768 0.31167233 -0.3967357 -0.27388507 -0.63963604 -0.50184524 -0.34919527 0.06544345 -0.15035973 -0.23661263 -0.171022 0.008364897 -0.21381178 0.0034600226 -0.25206637 -0.23459905 0.21736063 0.2594202 -0.15655951 -0.037901103 0.27159533 -0.41340643 0.11404869 -0.1281882 -0.028953858 0.13904236 -0.5546885 0.15267247 -0.2068952 -0.22634001 -0.068772964 0.11954956 -0.3138515 0.034202304 0.11269683 -0.012572266 0.31047603 0.1138409 0.028924692 0.17216724 -0.07341814 -0.2747323 -0.049634643 0.1903483 0.025574375 -0.45504385 -0.28643653 0.24052843 6.905375e-05 0.07370736 -0.4921693 -0.40920824 0.010527392 0.16390446 0.21966602 -0.43021476 0.15410538 -0.27323797 0.030628668 0.010779833 -0.10207754 0.041965164 0.2107039 0.3639446 0.13880391 -0.1439655 0.12539668 0.31052905 0.038078222 -0.12162748 0.18637942 0.11355126 -0.047077388 -0.3940847 0.23705943 0.07862637 0.099674694 0.09657284 0.45685545 0.18708189 0.009883044 0.44350827 0.3996597 0.17869776 -0.29639655 0.2215064 -0.33544055
sein 0.047996297 0.29747388 -0.16235863 -0.017358994 -0.18471295 -0.28302425 0.3235822 0.6851126 -0.033987526 -0.2877937 0.07911617 -0.26407793 -0.0836674 -0.052736774 -0.19536082 -0.19481924 0.2500487 0.122657575 0.07735691 -0.17248967 -0.14539213 -0.0070680208 0.2541466 0.044221822 0.15357608 -0.026038757 -0.46233967 -0.114081815 -0.10212696 -0.40262732 -0.13295814 -0.07994869 0.17137322 -0.0066466327 -0.038427863 0.29225683 0.12581323 -0.31645855 0.0665048 0.01762246 -0.056676243 -0.036852907 -0.017098127 -0.22478037 0.22371191 0.2832475 -0.07580896 0.023011934 0.18147348 0.17005761 0.052538384 0.1654166 0.04384632 0.15173937 0.008213429 0.2788992 0.23991884 0.016726496 0.07425357 0.062994786 -0.14755858 -0.073245555 -0.021898732 0.03465648 -0.21698867 0.18917865 -0.06298472 -0.051488984 -0.05116587 -0.05199341 -0.042463753 0.17844959 0.34377226 -0.21024351 0.14554602 0.10838329 -0.077282704 0.16788048 -0.027575903 0.2027678 -0.05695068 -0.25732487 -0.022956042 0.5644983 -0.06420544 0.11248011 -0.090641305 -0.01195038 0.29140893 0.1864275 0.21344228 -0.11673336 0.17411506 -0.04113293 0.34393808 0.37092274 0.27943715 -0.30598435 -0.015350526 0.16096325 -0.022731915 0.014371152 0.11482791 0.18466064 0.0313627 -0.1692216 -0.13113192 0.011164751 -0.22000077 0.13014452 -0.28552923 -0.13048086 -0.028603453 0.11187601 0.09997177 0.047668826 -0.0072298152 0.08968577 0.22609 -0.40539914 0.27684677 0.13305001 0.27046788 0.048141494 -0.3006829 0.16504548 -0.047399987 -0.11061179 -0.05137853 0.28789043 0.2215135 0.2216118 0.0771964 -0.32493645 0.050324958 0.15726373 -0.054394938 -0.12103531 -0.1754556 -0.26907733 0.08811485 -0.40805602 -0.20995228 0.27977294 0.116849855 -0.09192035 -0.38652554 -0.21628617 0.22243008 -0.1612342 0.14228381 -0.46469283 0.007031171 -0.19477428 -0.0121058235 0.2477179 -0.23003905 -0.16410948 -0.088030554 0.38669896 0.0151954945 0.22454783 -0.39900267 0.16990747 -0.1553772 0.18185063 -0.07620631 -0.10134522 -0.07064866 0.566959 -0.26299828 0.15014423 0.16470996 0.12500931 0.07180443 -0.025810363 -0.065775685 -0.2684372 0.015609587 -0.10269509 -0.11385889 0.11162473 -0.25188357 -0.06791901 -0.06366029 -0.028346453 0.44363284 0.28527325 0.1379099 -0.26605782 0.012811839 -0.00016130325 -0.05970533 -0.11406432 -0.06750128 -0.27071846 -0.034201484 -0.1970296 -0.098816365 -0.13543013 -0.2503738 0.11330848 -0.091758855 -0.13640077 0.16985126 0.021200998 -0.13711335 0.08516329 0.043764442 -0.054857686 -0.040523723 -0.19153653 -0.13942502 -0.08728816 0.27630997 -0.35500622 -0.24277383 -0.57008165 -0.4454796 -0.3125825 0.056265976 -0.13945405 -0.21257031 -0.1530182 0.0032623503 -0.19336586 0.0016227363 -0.21910113 -0.20794286 0.19590423 0.2277258 -0.13993235 -0.035391204 0.2385764 -0.36732158 0.100574896 -0.11329261 -0.028162189 0.11980382 -0.49250215 0.1336474 -0.18560849 -0.20055917 -0.058361385 0.10600259 -0.27935684 0.033234365 0.098811015 -0.010947871 0.27996692 0.102267794 0.023754286 0.1553901 -0.06223612 -0.2478328 -0.04338723 0.1685877 0.024729686 -0.40720108 -0.2538547 0.21659964 0.0019064483 0.06290483 -0.43822327 -0.36310953 0.011826204 0.14944749 0.19645223 -0.3825898 0.13691846 -0.24166179 0.030179128 0.008818552 -0.09132818 0.040250584 0.19171886 0.3237841 0.12882432 -0.12596838 0.11070497 0.27559543 0.03902468 -0.112733625 0.16469029 0.10128814 -0.04243305 -0.35291696 0.21089767 0.07360103 0.089568645 0.08880984 0.4049385 0.16230361 0.0105668735 0.3937337 0.35095397 0.15544926 -0.26666477 0.1933169 -0.29727066
und 0.045602404 0.27667087 -0.14500423 -0.021810368 -0.16953573 -0.258501 0.301257 0.63750255 -0.027353935 -0.26777926 0.0709135 -0.24678577 -0.07995833 -0.05034216 -0.18220541 -0.1864307 0.2313486 0.11760705 0.07212435 -0.1587722 -0.13655974 -0.0074567823 0.23749973 0.044514723 0.13999213 -0.020638129 -0.43015566 -0.106427684 -0.09445452 -0.3692648 -0.12871413 -0.07489062 0.1582138 -0.008986686 -0.034531023 0.26660526 0.11355405 -0.2976656 0.061910007 0.014997043 -0.05505899 -0.033492442 -0.015604825 -0.20751938 0.2047397 0.25888512 -0.06655815 0.017568558 0.16478923 0.1572691 0.050254047 0.14922608 0.041670874 0.13635167 0.006943081 0.2602604 0.2226719 0.017261472 0.07029298 0.06103438 -0.1393284 -0.07213306 -0.020894544 0.03365072 -0.20118831 0.17726722 -0.05349747 -0.045224387 -0.05089305 -0.04644272 -0.038083196 0.1660758 0.322199 -0.19393764 0.13425642 0.10291974 -0.070875384 0.15462342 -0.030635482 0.18817824 -0.056745958 -0.23619473 -0.021070143 0.52530336 -0.061779603 0.10630502 -0.07927406 -0.012504593 0.26691565 0.1719647 0.20202932 -0.11178013 0.1625124 -0.042994387 0.3177884 0.34705284 0.2650821 -0.28398412 -0.015068983 0.1509475 -0.026492983 0.017058095 0.10151977 0.17350225 0.030062184 -0.1564598 -0.122936025 0.006323294 -0.20471029 0.12302283 -0.2698619 -0.117900215 -0.0324558 0.10387727 0.09457077 0.045219533 -0.0049106316 0.085523985 0.20924884 -0.3757108 0.2599077 0.1254969 0.2516209 0.047980495 -0.27422565 0.1545111 -0.04716941 -0.10365572 -0.049372505 0.26848543 0.20946963 0.20731668 0.071375675 -0.30578876 0.046854727 0.1432628 -0.054586057 -0.10883356 -0.16059704 -0.25089183 0.08148712 -0.3799618 -0.19126199 0.25909382 0.1095402 -0.08574975 -0.35924456 -0.20052809 0.21085767 -0.15086435 0.13400339 -0.43084535 0.0062597594 -0.18048857 -0.012642995 0.23116703 -0.2102804 -0.15218298 -0.08485277 0.36069322 0.018283134 0.21158768 -0.36995986 0.15983327 -0.1387776 0.16698799 -0.06518882 -0.09038805 -0.06518072 0.52726126 -0.24631003 0.13531232 0.15126567 0.11395925 0.06886024 -0.024392454 -0.06350904 -0.2443059 0.016893392 -0.098682866 -0.107168764 0.09906878 -0.23336038 -0.06364978 -0.055218007 -0.026485268 0.41637257 0.26631376 0.12578036 -0.25069988 0.0122877015 0.0017435561 -0.05426822 -0.10823971 -0.06299244 -0.25289643 -0.03158834 -0.1820678 -0.09505033 -0.12006092 -0.23302671 0.10567515 -0.08532203 -0.13112347 0.1604705 0.020988343 -0.12501407 0.07861479 0.045559365 -0.052734267 -0.036543757 -0.18204302 -0.13178606 -0.0827538 0.25271264 -0.3253602 -0.22131373 -0.5284368 -0.4110883 -0.28866622 0.056338225 -0.12473437 -0.1982809 -0.14049573 0.0037874596 -0.17545629 0.004142265 -0.20645879 -0.19158307 0.18043768 0.20961069 -0.12829678 -0.033102218 0.21923971 -0.3433396 0.090147085 -0.102291726 -0.023659565 0.113636106 -0.45295867 0.12972148 -0.17224318 -0.18475142 -0.055361938 0.1005475 -0.25626707 0.02637057 0.09101484 -0.008997392 0.25861016 0.09534944 0.025627669 0.14357617 -0.062217113 -0.22949092 -0.04262691 0.15962988 0.022580905 -0.37754768 -0.23320812 0.19804618 -0.0005246231 0.058866296 -0.4040687 -0.33401042 0.010555781 0.1358782 0.17848477 -0.35231274 0.1253068 -0.22478068 0.022502942 0.0091690635 -0.0867151 0.03620503 0.17328285 0.3056602 0.117621854 -0.115545295 0.104857296 0.25388435 0.03353179 -0.1014367 0.15063468 0.09336316 -0.0384333 -0.32286796 0.19983838 0.0641945 0.078388326 0.08348128 0.37767303 0.15527117 0.010516231 0.3638223 0.32553372 0.14666714 -0.24410892 0.17929117 -0.27229628
eine 0.053547185 0.33849978 -0.17895782 -0.020252865 -0.20862603 -0.3169441 0.36340556 0.7691184 -0.03844716 -0.31908327 0.08685811 -0.2988256 -0.09492564 -0.057850532 -0.22046028 -0.2237982 0.27702707 0.14307296 0.08568393 -0.19015503 -0.16466141 -0.0072442833 0.28554246 0.05021553 0.16784799 -0.028249504 -0.5177461 -0.12917238 -0.113979794 -0.45370466 -0.15483208 -0.09361189 0.19203693 -0.00761016 -0.041834503 0.32897308 0.14319077 -0.3593414 0.07134304 0.020980995 -0.06272747 -0.045204043 -0.020302696 -0.24831185 0.25287154 0.32024994 -0.08678735 0.020696623 0.2027057 0.18496972 0.056550432 0.18216825 0.052830417 0.17049254 0.0066740997 0.31856915 0.2737843 0.019209804 0.08464529 0.07359894 -0.1643841 -0.08636629 -0.029815717 0.038848616 -0.23904838 0.21227658 -0.06957782 -0.05133437 -0.05668209 -0.054239575 -0.051292595 0.19815059 0.38991287 -0.23385999 0.16520254 0.12747553 -0.08770097 0.18964183 -0.03400084 0.2258654 -0.068041444 -0.28867418 -0.026091719 0.63330764 -0.074641116 0.13059697 -0.10145366 -0.015982118 0.32795948 0.21031484 0.24199793 -0.13296624 0.19215097 -0.052059148 0.38109082 0.42210674 0.3194393 -0.34303167 -0.018527707 0.18167384 -0.027961664 0.013627287 0.12752831 0.21058664 0.040541034 -0.18685398 -0.14679722 0.01334208 -0.24535082 0.14942777 -0.3256276 -0.14786395 -0.038186673 0.13024202 0.10809377 0.05480471 -0.012534456 0.101493664 0.25259626 -0.4557398 0.31541207 0.15308788 0.30246866 0.057399917 -0.33571318 0.18662259 -0.05076534 -0.12599985 -0.061532624 0.32213363 0.25124663 0.24753635 0.08374516 -0.37045068 0.055218145 0.17660053 -0.060776524 -0.1367427 -0.1976555 -0.30552435 0.0995844 -0.46058577 -0.23590775 0.31405777 0.13595083 -0.100093625 -0.43601078 -0.24450989 0.255461 -0.17990996 0.16057111 -0.52409726 0.010937734 -0.21816775 -0.014046615 0.27969995 -0.25847867 -0.18692252 -0.10341801 0.43343893 0.02165095 0.25509605 -0.44910163 0.19151045 -0.17103995 0.20425546 -0.085466966 -0.10879545 -0.07885151 0.6404653 -0.29478213 0.16859253 0.18690284 0.13623005 0.079873264 -0.03573636 -0.07313551 -0.30063903 0.021499932 -0.11927073 -0.12984529 0.118964426 -0.28868788 -0.08149 -0.07060459 -0.03320837 0.49774483 0.31783864 0.15124926 -0.30209336 0.013647461 0.0007892822 -0.0635752 -0.12857263 -0.07577594 -0.30178052 -0.04470549 -0.22039258 -0.11498272 -0.14813104 -0.28428483 0.12660982 -0.10266424 -0.15783694 0.19330361 0.024404937 -0.15056883 0.094250254 0.04987829 -0.06159731 -0.049111106 -0.21870509 -0.15352856 -0.097758144 0.31086105 -0.39999372 -0.27123562 -0.6389738 -0.49689898 -0.3510522 0.06763761 -0.1550817 -0.24163117 -0.1702976 0.006010891 -0.21555471 0.0033273043 -0.25127503 -0.23480827 0.22017124 0.2565852 -0.15339005 -0.042333677 0.2670041 -0.41151267 0.11529983 -0.1308782 -0.029609999 0.13946608 -0.5525494 0.15638873 -0.21131352 -0.2237599 -0.066438615 0.120238975 -0.31513757 0.032658804 0.10977343 -0.010187362 0.31232628 0.116479635 0.032284778 0.17494608 -0.072895214 -0.27281094 -0.04884014 0.19077559 0.026195627 -0.45709506 -0.28268552 0.24108155 -0.0001407496 0.06722777 -0.49073663 -0.40351248 0.011046166 0.16542213 0.21831016 -0.42381862 0.15002996 -0.2693753 0.027843343 0.009917276 -0.1012886 0.047338046 0.21499804 0.36873952 0.14416043 -0.1383553 0.12911792 0.30911586 0.04309915 -0.12234599 0.18508618 0.11395516 -0.04580636 -0.3909172 0.24091062 0.082403906 0.09834882 0.10111092 0.4574198 0.18781704 0.008846646 0.44213757 0.3987428 0.17699946 -0.29955012 0.22056414 -0.3359712
auch 0.04945423 0.27561176 -0.15074894 -0.018064816 -0.16893233 -0.26256493 0.3034665 0.6385246 -0.03293124 -0.26878884 0.07156314 -0.2461812 -0.07683327 -0.04634464 -0.17838818 -0.18400998 0.23213992 0.11962535 0.07285473 -0.15622023 -0.13325118 -0.010333782 0.23654199 0.040111154 0.14237599 -0.023862205 -0.4309974 -0.10694548 -0.091501154 -0.37419397 -0.12353643 -0.0760251 0.15707786 -0.009160709 -0.03275029 0.2689442 0.11712197 -0.29335055 0.06355889 0.011692948 -0.055220913 -0.0379973 -0.012528553 -0.20537335 0.20672952 0.26354304 -0.07141716 0.019802274 0.17039828 0.15512085 0.046391737 0.14925788 0.04044903 0.13856293 0.007605825 0.2653994 0.22320415 0.017126806 0.07079951 0.059533775 -0.13616188 -0.06692752 -0.02053818 0.03552853 -0.20222637 0.180725 -0.05483256 -0.041608397 -0.048569553 -0.045934808 -0.03816067 0.16286461 0.32368118 -0.19131176 0.13804075 0.10210578 -0.073454514 0.15972081 -0.030933995 0.18616866 -0.05616739 -0.2387362 -0.021564579 0.5252469 -0.056829352 0.10636821 -0.08177785 -0.01064136 0.26818976 0.16918224 0.20406379 -0.11265244 0.16201608 -0.03732742 0.31840834 0.34852213 0.26402375 -0.2873913 -0.016342932 0.14859088 -0.021365035 0.015446637 0.10489324 0.17664288 0.029027732 -0.15290937 -0.117229894 0.007544198 -0.20288597 0.12215922 -0.2679178 -0.11895497 -0.02654211 0.105775416 0.092759326 0.043216053 -0.0050078495 0.08228578 0.20742255 -0.37563995 0.25775757 0.12661405 0.24692693 0.045050345 -0.28011373 0.15339993 -0.044798777 -0.10474557 -0.048288617 0.27010456 0.20612296 0.20401646 0.07001147 -0.30485922 0.041410226 0.14781491 -0.05439452 -0.11383592 -0.16205595 -0.25226775 0.08304206 -0.37584132 -0.19163404 0.26083007 0.11068794 -0.08323712 -0.3593609 -0.203639 0.21043311 -0.1494368 0.13127565 -0.43368295 0.0055163545 -0.18343367 -0.010887145 0.23349686 -0.21092963 -0.15126003 -0.081040695 0.35844254 0.01628357 0.20693056 -0.37230596 0.15635428 -0.14135908 0.17037241 -0.07059618 -0.09328775 -0.06923004 0.5272253 -0.24736187 0.1378637 0.15546586 0.1113582 0.064548716 -0.026908176 -0.061014343 -0.24528405 0.014510324 -0.09921639 -0.109736875 0.10078771 -0.23568554 -0.064857796 -0.053913344 -0.028558718 0.41410038 0.2626005 0.12605175 -0.2513636 0.0090382695 -0.00027075288 -0.057732116 -0.10525298 -0.06410056 -0.25533763 -0.037194084 -0.17921269 -0.09123387 -0.120705046 -0.23498878 0.103038624 -0.08672572 -0.1254342 0.15895593 0.023693226 -0.12744609 0.07736602 0.04446884 -0.04994092 -0.0384941 -0.17954087 -0.12792304 -0.07865364 0.2560944 -0.3302787 -0.22649845 -0.52685994 -0.41545093 -0.28791004 0.053733457 -0.12576485 -0.2014048 -0.13635017 0.0056385784 -0.17905875 0.0049408255 -0.20656574 -0.19726928 0.18068193 0.2128496 -0.13089193 -0.03277572 0.22267124 -0.34322345 0.09416692 -0.10503168 -0.022842519 0.114174925 -0.4555381 0.12803844 -0.1730629 -0.19008741 -0.053803492 0.09815211 -0.26265982 0.025848283 0.090539366 -0.007640594 0.25942189 0.09652095 0.021748967 0.14246342 -0.060438372 -0.23012 -0.03786861 0.15803926 0.019896243 -0.3809741 -0.23652738 0.20091067 0.004446099 0.0599777 -0.4098598 -0.33911783 0.01077197 0.13580889 0.17869326 -0.3511381 0.12432646 -0.22170535 0.025276273 0.0046486026 -0.08664684 0.039042488 0.17908283 0.30408978 0.11907083 -0.11775407 0.10391599 0.25510517 0.0334069 -0.10324022 0.152593 0.08933196 -0.03604406 -0.3252147 0.197733 0.06411715 0.08361283 0.078786254 0.37880468 0.15409836 0.01106592 0.3660006 0.32738143 0.14781757 -0.24793112 0.1783745 -0.27699596
ich 0.038552538 0.23259275 -0.119260125 -0.012320506 -0.14408578 -0.21336478 0.24788229 0.5246172 -0.025351956 -0.21827085 0.062088165 -0.20060605 -0.06076327 -0.04056914 -0.15130733 -0.15398738 0.19298813 0.0947785 0.056662947 -0.12956591 -0.11246792 -0.0087128375 0.19573273 0.03503657 0.11663909 -0.016975123 -0.3551533 -0.0890506 -0.07553338 -0.30721638 -0.102594286 -0.06411489 0.13273238 -0.010353407 -0.0259999 0.21962698 0.09519696 -0.24715658 0.04992458 0.010348172 -0.046273526 -0.029541776 -0.011374006 -0.17204933 0.16918421 0.21496141 -0.05702225 0.015182875 0.13492255 0.12849571 0.04194068 0.12726682 0.030648826 0.115611345 0.0033705353 0.21314687 0.1852463 0.013169294 0.053449105 0.046533115 -0.11333096 -0.05552503 -0.022001885 0.02964386 -0.16560651 0.14675304 -0.043557514 -0.03538878 -0.040900845 -0.037563372 -0.031819064 0.13787766 0.2652923 -0.16035281 0.11208014 0.0831545 -0.059182968 0.13185164 -0.021363603 0.15866424 -0.047159363 -0.19884136 -0.015178498 0.43259048 -0.05182351 0.0882529 -0.06662661 -0.010409693 0.22050771 0.14359756 0.16971187 -0.094286576 0.13279387 -0.034111436 0.25977272 0.28626984 0.21489733 -0.2334914 -0.016285114 0.1242084 -0.019470079 0.01279156 0.0870659 0.14770353 0.026556246 -0.13021003 -0.099853076 0.007977846 -0.16920952 0.09949315 -0.22329685 -0.10125572 -0.021919474 0.08842189 0.07876326 0.03755888 -0.0083130635 0.070720986 0.17585693 -0.30873227 0.2143165 0.10511124 0.20319068 0.040581297 -0.22649926 0.12859179 -0.039216124 -0.081889026 -0.038995337 0.22007485 0.16908279 0.17156583 0.054760203 -0.2535011 0.038148064 0.12263877 -0.03975403 -0.09390415 -0.13626221 -0.20333356 0.070128545 -0.31449652 -0.1624642 0.21146221 0.09002681 -0.069878854 -0.29589295 -0.16592726 0.17165218 -0.12620082 0.11410453 -0.3583901 0.004708896 -0.14733212 -0.009265491 0.19333331 -0.17684008 -0.12783234 -0.06903576 0.29587293 0.010741093 0.17273827 -0.30626947 0.13215189 -0.11426884 0.13973498 -0.05766706 -0.076653354 -0.056552947 0.43812287 -0.20561065 0.11365949 0.12699899 0.0914809 0.051955793 -0.020589452 -0.0551159 -0.20397365 0.013832157 -0.07806517 -0.09170028 0.0847493 -0.19191901 -0.056463428 -0.047592644 -0.021361696 0.34368438 0.21876083 0.107050404 -0.2051386 0.008509295 -0.0013743993 -0.04830858 -0.08803585 -0.049477786 -0.21119869 -0.02864475 -0.14985624 -0.07701083 -0.09898364 -0.19545715 0.0830173 -0.06833385 -0.10843076 0.12738992 0.017556956 -0.10787182 0.06416569 0.035406284 -0.041918244 -0.0348979 -0.14818744 -0.10724922 -0.065030836 0.21345367 -0.26932064 -0.18283099 -0.4391363 -0.33831367 -0.2386381 0.04746594 -0.10405874 -0.16282837 -0.118432745 0.002037831 -0.14337625 0.0022539445 -0.16876914 -0.1583815 0.15028892 0.17908764 -0.106060036 -0.030516535 0.18076117 -0.2826445 0.0740637 -0.08464392 -0.020302575 0.09096107 -0.3741652 0.10795307 -0.14031161 -0.1522561 -0.049856298 0.08197245 -0.21700393 0.022037445 0.0758631 -0.0078002634 0.2134788 0.07888974 0.020305548 0.11933157 -0.04668968 -0.19076045 -0.030701984 0.131516 0.020712417 -0.31088835 -0.19506757 0.16483934 0.0014714088 0.047728486 -0.33280995 -0.27741778 0.008362482 0.11436911 0.14591701 -0.2894922 0.10721614 -0.18489918 0.021497985 0.003889712 -0.07335237 0.03341442 0.1445242 0.2528305 0.09741017 -0.097069874 0.08711375 0.21074605 0.026532818 -0.0844454 0.12890354 0.075330004 -0.032530356 -0.27221495 0.1665032 0.051191274 0.06937009 0.06818528 0.3097728 0.12558658 0.004407534 0.29887122 0.2734309 0.1247369 -0.20329241 0.15019526 -0.22466135
in 0.047538787 0.29516602 -0.1562731 -0.021978574 -0.1848845 -0.2795448 0.32341757 0.6754942 -0.03430093 -0.2852934 0.077738956 -0.25863814 -0.08242769 -0.05198579 -0.19307819 -0.193358 0.24573526 0.12688702 0.07090899 -0.16956072 -0.14648877 -0.008633692 0.24953805 0.045997605 0.1465247 -0.026462909 -0.45174065 -0.11872483 -0.09937875 -0.3975703 -0.1307129 -0.077195644 0.16833737 -0.007666751 -0.033496313 0.28396878 0.12638314 -0.3162247 0.06767307 0.016815886 -0.05852286 -0.039393067 -0.012576142 -0.22168183 0.22343028 0.27652228 -0.07084539 0.020843307 0.1801393 0.16428176 0.052926946 0.16376188 0.044752415 0.14763471 0.008397918 0.28060222 0.24068569 0.020304982 0.073696956 0.065092996 -0.14170106 -0.07441892 -0.025132366 0.035656944 -0.21203043 0.1881729 -0.06323375 -0.05061672 -0.05164744 -0.046760663 -0.044012126 0.17162952 0.34206155 -0.20359682 0.14336003 0.11035582 -0.07569953 0.16901137 -0.029112024 0.19993408 -0.054191865 -0.2519385 -0.023766538 0.5562278 -0.061921872 0.11386802 -0.08782844 -0.010976157 0.28717571 0.18426993 0.21389683 -0.12083092 0.17019528 -0.042615857 0.337335 0.3650974 0.28167158 -0.30611652 -0.016740672 0.15422755 -0.021345899 0.017098637 0.11093248 0.1841569 0.033363204 -0.16430038 -0.13007875 0.011285114 -0.21492517 0.1324457 -0.2867953 -0.12443649 -0.030987853 0.11188771 0.09426623 0.046758175 -0.0057988185 0.09174303 0.21970478 -0.39941013 0.27201778 0.13201632 0.2616617 0.045818828 -0.2947736 0.16141959 -0.04983138 -0.10903282 -0.052772574 0.28488353 0.22018412 0.21806479 0.07034772 -0.32498705 0.047252 0.15623108 -0.052908666 -0.11933079 -0.17061102 -0.26837444 0.086797565 -0.40355888 -0.2027931 0.27280656 0.11548976 -0.091473676 -0.38054523 -0.2152896 0.22140466 -0.16064622 0.14148255 -0.45885792 0.0067122513 -0.19299418 -0.012283234 0.24302047 -0.22749856 -0.16229264 -0.09203611 0.37981123 0.019871406 0.22127153 -0.39346716 0.16829206 -0.14720309 0.17970791 -0.069186136 -0.10079359 -0.07354905 0.55764383 -0.26327997 0.14258857 0.16130373 0.11886854 0.070683 -0.029904874 -0.06975427 -0.259864 0.016674057 -0.10192942 -0.11187239 0.10991468 -0.25082102 -0.068386234 -0.061231088 -0.02872426 0.44053224 0.2834909 0.13308848 -0.26299858 0.00824026 -0.001492529 -0.055708144 -0.115846984 -0.0653578 -0.27019966 -0.040001545 -0.18939169 -0.1007425 -0.12946348 -0.25227493 0.10813584 -0.0936234 -0.13383572 0.16920373 0.025200637 -0.1320291 0.081659995 0.0419008 -0.04965091 -0.043370053 -0.18733661 -0.13547501 -0.08518983 0.26787052 -0.34835583 -0.23606932 -0.5622654 -0.43747777 -0.30783516 0.059857953 -0.13549305 -0.207117 -0.14977069 0.0033208362 -0.19098343 0.0023719966 -0.21663801 -0.20632745 0.19609539 0.2266448 -0.13420898 -0.03394196 0.23779777 -0.36309627 0.101359874 -0.11523477 -0.026851015 0.120713964 -0.48344007 0.13695559 -0.18364736 -0.19941586 -0.059960727 0.10491034 -0.27588877 0.03168309 0.09510933 -0.0071599837 0.27316102 0.10078284 0.02642448 0.15071912 -0.06238002 -0.24321938 -0.041121002 0.16632569 0.02113451 -0.40373138 -0.2523317 0.21314932 -0.00043543833 0.06124632 -0.43248034 -0.35904106 0.009342271 0.14691675 0.18989164 -0.37673765 0.13500251 -0.23708805 0.02488244 0.0072093704 -0.09184799 0.037992697 0.18347666 0.32370958 0.12559986 -0.12434871 0.112962276 0.27257633 0.03770414 -0.10933171 0.16562009 0.0975407 -0.043535113 -0.34720758 0.21340679 0.069610134 0.0862343 0.08888158 0.3981672 0.16247396 0.006194648 0.38347304 0.34501922 0.15720354 -0.2611485 0.19423153 -0.29160583
wir 0.04660674 0.27972746 -0.14856973 -0.017332816 -0.16786593 -0.2597864 0.3036309 0.63108754 -0.028571162 -0.2643351 0.07459168 -0.24739732 -0.07732172 -0.048067834 -0.18227796 -0.18541923 0.2326291 0.114261985 0.068155855 -0.15509345 -0.1373753 -0.005324781 0.23732564 0.043026265 0.13891326 -0.024815483 -0.42948332 -0.108840965 -0.09585828 -0.3728084 -0.12317649 -0.07810287 0.15570937 -0.010685702 -0.035316847 0.2659925 0.11531124 -0.29130605 0.06383485 0.013072485 -0.056858186 -0.036768403 -0.018032964 -0.20863412 0.20541152 0.26296774 -0.07176202 0.020047242 0.16735494 0.15746221 0.047249798 0.14782736 0.04290497 0.13650826 0.008071195 0.26169252 0.2266329 0.01648118 0.066719025 0.060973357 -0.13846602 -0.07306664 -0.021970637 0.03180206 -0.20092465 0.17597517 -0.0602663 -0.044433 -0.048060123 -0.048045784 -0.039192747 0.16534197 0.3221486 -0.19437051 0.13290946 0.0994348 -0.075236686 0.15594079 -0.028121307 0.18517156 -0.055941824 -0.23830883 -0.018649638 0.52163947 -0.057042528 0.103300065 -0.08303367 -0.011859428 0.27117735 0.17155004 0.20105693 -0.110163905 0.16133022 -0.043755617 0.31716362 0.34793884 0.26352674 -0.28377777 -0.02008191 0.14673042 -0.020377586 0.013312412 0.100885585 0.17587245 0.0297681 -0.15262663 -0.11828839 0.007065024 -0.20221949 0.12502375 -0.2685073 -0.12038044 -0.025875496 0.10825575 0.08837045 0.045269184 -0.004157719 0.0833749 0.2097883 -0.37418514 0.26068005 0.1243716 0.2503641 0.048560824 -0.27512717 0.14944316 -0.04433306 -0.10127442 -0.04902512 0.26705605 0.20965818 0.20692189 0.072248176 -0.3066988 0.04264066 0.14534824 -0.05017355 -0.1120795 -0.16318218 -0.2509144 0.07916151 -0.37481955 -0.19124086 0.2546419 0.111593 -0.0815631 -0.35919878 -0.20218737 0.20882975 -0.1467952 0.13033214 -0.43078616 0.0065523405 -0.18128432 -0.011272368 0.22818072 -0.21262172 -0.15118925 -0.085994765 0.3600548 0.01872828 0.20611228 -0.3715907 0.15791357 -0.14402391 0.16497928 -0.070856 -0.0935182 -0.0635032 0.52897865 -0.24408385 0.13338628 0.15573628 0.11412034 0.06614777 -0.029844107 -0.06331209 -0.24587384 0.012990389 -0.09656526 -0.10727972 0.09843669 -0.2383875 -0.06360215 -0.05906369 -0.029467301 0.41483596 0.263005 0.12502779 -0.24991032 0.009171123 0.0008126545 -0.057124235 -0.10923671 -0.062265612 -0.25276536 -0.037337426 -0.18431154 -0.09032104 -0.12031811 -0.23654595 0.09948202 -0.08596428 -0.12923215 0.15996978 0.022695486 -0.12854515 0.07618692 0.03893133 -0.04918348 -0.040431596 -0.17959535 -0.12696497 -0.07722883 0.25538537 -0.3296496 -0.22194937 -0.5297692 -0.41405648 -0.28978774 0.052993614 -0.12661134 -0.19900846 -0.13850413 0.008902208 -0.1743143 0.0031414332 -0.20206669 -0.19326761 0.18097034 0.20978372 -0.12544575 -0.036054347 0.22048324 -0.33796507 0.092030294 -0.10462686 -0.02839037 0.11512974 -0.45218375 0.123409875 -0.17279057 -0.183944 -0.05542985 0.098850824 -0.25816515 0.02437623 0.09495978 -0.010028879 0.25523964 0.09496041 0.02396121 0.13984248 -0.05743445 -0.22870985 -0.042245477 0.15867154 0.023382159 -0.3741196 -0.23387106 0.2002587 -0.001149377 0.059753634 -0.4024306 -0.3350628 0.008018485 0.13498218 0.17929395 -0.3547707 0.12796059 -0.2222037 0.027930312 0.004928517 -0.08783483 0.03455935 0.17295599 0.3027776 0.11851765 -0.115834534 0.10526171 0.25268543 0.032769527 -0.104662694 0.15450068 0.090804696 -0.036112644 -0.32625103 0.19955459 0.066678934 0.08144504 0.08086673 0.3791147 0.15442733 0.011157077 0.36409405 0.3291813 0.14834675 -0.24860851 0.17881106 -0.2745745
dies 0.042753637 0.25773284 -0.13654822 -0.014954794 -0.15903392 -0.24048597 0.2810756 0.58674324 -0.026640967 -0.2444606 0.06695364 -0.2284569 -0.07032192 -0.048640583 -0.16736683 -0.17272614 0.2129663 0.104985215 0.06704719 -0.1473841 -0.12152985 -0.01041909 0.21767783 0.039327696 0.12811537 -0.021028468 -0.3956831 -0.10105406 -0.088600494 -0.34706363 -0.11446487 -0.0698487 0.14803858 -0.0107486425 -0.028956618 0.24556619 0.109599195 -0.27018258 0.054310184 0.016374053 -0.05205972 -0.03603227 -0.013161222 -0.19016966 0.18919295 0.2391283 -0.060824595 0.018781392 0.15441445 0.14455093 0.04333755 0.14047489 0.038797036 0.13096982 0.004085498 0.24236675 0.20885745 0.012845507 0.059376564 0.05715453 -0.12346064 -0.06602488 -0.01985648 0.030709773 -0.18627009 0.16292241 -0.053802095 -0.039135832 -0.04336542 -0.046132818 -0.03747443 0.15034993 0.2984972 -0.17761199 0.12683277 0.09576813 -0.06819491 0.14815678 -0.024810534 0.17251243 -0.051500082 -0.22088 -0.021070972 0.48319393 -0.05843136 0.09644164 -0.07451943 -0.01026595 0.24975342 0.15711474 0.18566318 -0.10188213 0.14971381 -0.03648905 0.29580796 0.32150966 0.2396341 -0.26469645 -0.018989814 0.13527484 -0.022301938 0.009429333 0.09897902 0.16181135 0.02895137 -0.14475986 -0.11396725 0.004802993 -0.18448001 0.11327809 -0.24593091 -0.11206821 -0.023758814 0.09886212 0.08487726 0.038169563 -0.0066761323 0.07688292 0.19547825 -0.34347042 0.2384986 0.11628281 0.23142967 0.03984821 -0.2526987 0.14058264 -0.04257357 -0.090863295 -0.0464499 0.24882342 0.19042084 0.19208242 0.06436325 -0.2824237 0.040030375 0.13668917 -0.047370274 -0.10549479 -0.1484797 -0.23134848 0.07650298 -0.35212398 -0.17558292 0.23834057 0.10478649 -0.07549093 -0.33185282 -0.18383048 0.19250749 -0.14169393 0.12667243 -0.3949776 0.011385319 -0.1686652 -0.014064085 0.21418564 -0.19815488 -0.13724121 -0.07623035 0.33257592 0.017429335 0.19359054 -0.34358817 0.14526424 -0.12700975 0.15238002 -0.06341813 -0.08565431 -0.06029537 0.4891932 -0.22831313 0.12746115 0.14076628 0.10534651 0.06354536 -0.023821902 -0.059488796 -0.22848833 0.017018024 -0.086902186 -0.09745827 0.0920631 -0.21845376 -0.06247366 -0.053308345 -0.024477717 0.3795506 0.24157202 0.11919003 -0.22596128 0.011431952 -0.00024978237 -0.05354965 -0.10232628 -0.055818666 -0.2355519 -0.034161557 -0.16637543 -0.086873874 -0.11713035 -0.2152008 0.09152666 -0.08158567 -0.11913249 0.14587426 0.02016038 -0.11887123 0.073237196 0.041960187 -0.0485077 -0.03327262 -0.16263102 -0.12204124 -0.07433625 0.23658536 -0.30039647 -0.20859264 -0.48938113 -0.37948012 -0.2683886 0.04772558 -0.117504075 -0.1811426 -0.13024938 0.0072716475 -0.16375399 0.004327656 -0.18773836 -0.17883499 0.17045215 0.19623393 -0.120635465 -0.027378442 0.20282528 -0.3137054 0.08471798 -0.099950306 -0.026189886 0.106259726 -0.420942 0.11781637 -0.16181351 -0.17452298 -0.05412788 0.09381113 -0.24194267 0.02756658 0.08423371 -0.008283939 0.2406865 0.08584297 0.01968301 0.13148428 -0.052271187 -0.20762709 -0.038587492 0.14539248 0.021069715 -0.35053685 -0.21403104 0.18313107 0.0024362758 0.05484742 -0.3738701 -0.3111744 0.008645028 0.12843297 0.16877046 -0.32866222 0.11815963 -0.20416328 0.022817884 0.009704605 -0.08122195 0.033652164 0.15986133 0.2782202 0.108334504 -0.10818514 0.09415912 0.23905206 0.028494723 -0.09680776 0.14435858 0.08777532 -0.034915037 -0.30061728 0.18321559 0.059953205 0.077001825 0.072596714 0.34830332 0.1432578 0.00693478 0.33545622 0.30367583 0.1387404 -0.22720782 0.170688 -0.2563524
haben 0.04142714 0.23823051 -0.12916788 -0.015867844 -0.14824378 -0.22576405 0.26051426 0.54844135 -0.028461438 -0.23186588 0.061519746 -0.2077432 -0.0695934 -0.03953137 -0.1553733 -0.15692745 0.19791658 0.09823055 0.061190616 -0.1338029 -0.11867248 -0.0071536438 0.20482115 0.03733941 0.12269458 -0.021143334 -0.3649943 -0.09578605 -0.08159877 -0.3173011 -0.10680156 -0.06784346 0.1352529 -0.010815947 -0.02892975 0.2336895 0.09724336 -0.25163394 0.0545363 0.01147354 -0.049781453 -0.03174658 -0.013540028 -0.17702276 0.18187426 0.22614732 -0.0604003 0.017697558 0.14143883 0.13319305 0.040899925 0.13347183 0.03337559 0.11662394 0.0064110225 0.2257603 0.1903026 0.011851223 0.057687085 0.04943277 -0.12004015 -0.061783787 -0.021294534 0.030529492 -0.1715074 0.15280466 -0.048500247 -0.03959565 -0.040004093 -0.040208783 -0.032764148 0.14055915 0.2728809 -0.16477956 0.118856706 0.08677015 -0.064051054 0.13455634 -0.021121068 0.16159947 -0.043175146 -0.20751123 -0.014848536 0.44554815 -0.048225783 0.092349164 -0.06974456 -0.011429748 0.23367666 0.14944214 0.17114565 -0.09864341 0.14011572 -0.036687706 0.26913515 0.29910356 0.22384478 -0.24848607 -0.011780886 0.12695384 -0.020399826 0.0102829365 0.08794992 0.14851028 0.025558995 -0.13494627 -0.10604208 0.010920047 -0.17253837 0.10504754 -0.22946753 -0.10554328 -0.02253552 0.09356661 0.07907263 0.034484636 -0.007737942 0.07407147 0.17889865 -0.32022405 0.22495228 0.10876509 0.21243927 0.041201685 -0.23903719 0.12821232 -0.03535558 -0.090320215 -0.043130588 0.22878641 0.17503321 0.17646573 0.061060213 -0.26322445 0.036126357 0.12672278 -0.04575205 -0.09920688 -0.13830855 -0.2150049 0.0732337 -0.32526892 -0.1633159 0.2183783 0.096499525 -0.0696158 -0.30724955 -0.17335255 0.17966206 -0.12918724 0.11268012 -0.3732048 0.007931166 -0.15661538 -0.007156574 0.19753185 -0.180303 -0.12968843 -0.06915974 0.3047972 0.015264859 0.17955843 -0.31855035 0.13479434 -0.12366504 0.14736459 -0.05960987 -0.078422815 -0.059807397 0.45489892 -0.20794953 0.11705466 0.13468647 0.09699276 0.059259843 -0.020252602 -0.053943835 -0.21270007 0.010113768 -0.08050213 -0.093421675 0.08751376 -0.20353425 -0.05330666 -0.045567196 -0.023135118 0.35645413 0.22933163 0.10902089 -0.21121834 0.008131787 -0.0014256026 -0.04537532 -0.09395438 -0.053249095 -0.21343398 -0.032538828 -0.1569516 -0.081003614 -0.10435856 -0.19979726 0.08571476 -0.07181376 -0.110261284 0.1321924 0.018332448 -0.10977736 0.06461919 0.036121905 -0.044385705 -0.03183959 -0.15070899 -0.111931786 -0.06744175 0.21877912 -0.28221196 -0.19557299 -0.45330814 -0.35352156 -0.24486281 0.04841818 -0.107909076 -0.16896889 -0.122126505 0.0047412864 -0.15432616 0.005265239 -0.1741181 -0.16838497 0.15682714 0.18453358 -0.10912065 -0.027958015 0.18832906 -0.29046425 0.077528566 -0.092817135 -0.02433281 0.09535569 -0.39300576 0.10607651 -0.14756495 -0.16199104 -0.04921086 0.0869056 -0.22152889 0.024611799 0.078475095 -0.004314895 0.22152431 0.082543164 0.023740035 0.118856065 -0.054056585 -0.1927872 -0.033487175 0.13370593 0.01953256 -0.32617185 -0.20382595 0.16982089 0.003956744 0.04881488 -0.35175797 -0.2904528 0.009381291 0.11634823 0.15239592 -0.30355415 0.10794987 -0.192847 0.021137323 0.0073931883 -0.07373616 0.030696915 0.15181668 0.26193896 0.097557165 -0.10219786 0.09169669 0.2176946 0.028520724 -0.091224186 0.13491519 0.07741002 -0.03600278 -0.28055367 0.16990846 0.058540393 0.07279655 0.069402814 0.3250158 0.13361637 0.0071440367 0.31035298 0.281497 0.12686245 -0.20953414 0.15484351 -0.2401634
man 0.04426797 0.25798494 -0.13814211 -0.017592577 -0.15802915 -0.2358675 0.2792639 0.5800646 -0.026247585 -0.24131656 0.06816987 -0.22642648 -0.06962699 -0.04608704 -0.16551542 -0.16625804 0.21061647 0.10991181 0.06376124 -0.14426924 -0.12436437 -0.01035913 0.21382129 0.039977953 0.12574305 -0.019884158 -0.38983566 -0.10265472 -0.08703075 -0.3424082 -0.1186437 -0.06901018 0.14774555 -0.010766301 -0.031512287 0.2495522 0.10919326 -0.26631412 0.052465376 0.015204579 -0.051947728 -0.030672157 -0.011659463 -0.19058757 0.19244061 0.2369918 -0.06193295 0.01958389 0.15473366 0.14417602 0.04308939 0.13993633 0.035613433 0.12459442 0.006751144 0.23596554 0.20490377 0.015156446 0.06419576 0.051322345 -0.1252123 -0.06545799 -0.023422617 0.02987479 -0.18134406 0.16013736 -0.052200664 -0.03809525 -0.043919478 -0.044259425 -0.03431037 0.15021144 0.29347405 -0.17245619 0.12592703 0.0953567 -0.06455949 0.1433193 -0.022608824 0.17381696 -0.051024526 -0.21990764 -0.019121485 0.47481745 -0.05365083 0.09425192 -0.07555799 -0.008942963 0.24650943 0.15805276 0.1808439 -0.10017614 0.1486091 -0.035627436 0.29237953 0.31781995 0.2417487 -0.2586132 -0.016307838 0.13539489 -0.02055711 0.009966157 0.09713412 0.15798736 0.028119536 -0.1421871 -0.107081234 0.008818474 -0.18599407 0.11196648 -0.24551335 -0.1101904 -0.02838879 0.09522333 0.08384776 0.040663216 -0.006507313 0.07920808 0.19160588 -0.3429689 0.23335984 0.11623727 0.2299396 0.039805256 -0.25147113 0.14182828 -0.042184934 -0.09336306 -0.04854852 0.24505198 0.18798295 0.18872458 0.06614251 -0.28094694 0.037602365 0.13313365 -0.049826533 -0.10551706 -0.15029468 -0.22876818 0.075047314 -0.34616318 -0.17723964 0.23875697 0.10428165 -0.07846962 -0.3241091 -0.18634424 0.19025128 -0.13630421 0.12270555 -0.39559782 0.008246859 -0.16544504 -0.014376027 0.20908298 -0.19632973 -0.13745335 -0.07670143 0.324845 0.016776487 0.19140673 -0.33884224 0.14515376 -0.13051774 0.15584429 -0.065008774 -0.08516879 -0.06392723 0.48297477 -0.22733265 0.12801637 0.14266433 0.10060719 0.06227649 -0.02288292 -0.059812155 -0.22392797 0.011402651 -0.08599213 -0.0967776 0.09209359 -0.21879707 -0.059994414 -0.0514717 -0.025003066 0.38102245 0.24043234 0.112258814 -0.22996473 0.008064638 -0.00023742777 -0.049959138 -0.09969722 -0.052827973 -0.23004808 -0.029161835 -0.16409251 -0.08749217 -0.113656126 -0.21770932 0.09154531 -0.07942895 -0.115085624 0.1436884 0.023510786 -0.11701391 0.06871612 0.039849147 -0.04474128 -0.03627484 -0.16440204 -0.12043021 -0.07158205 0.23026511 -0.30282742 -0.20842464 -0.4795583 -0.37586662 -0.26041207 0.052446496 -0.11846983 -0.1800469 -0.12632726 0.007668459 -0.16308674 0.0065116608 -0.18983759 -0.17513943 0.16880456 0.19430934 -0.11514236 -0.028073179 0.20318325 -0.30990484 0.08597757 -0.09697903 -0.021557212 0.105475314 -0.41773614 0.11682166 -0.1574227 -0.16934946 -0.053781535 0.08912991 -0.23697028 0.027200544 0.08168679 -0.0056266473 0.23445635 0.08818224 0.022792434 0.13220811 -0.055799138 -0.20969258 -0.035593573 0.14163527 0.02085866 -0.34733132 -0.21365592 0.1833311 0.0016652033 0.0534842 -0.3723269 -0.30800438 0.004857853 0.12581137 0.16623625 -0.32420886 0.11858555 -0.20245506 0.021241765 0.0059789647 -0.07767419 0.031404838 0.16148452 0.27861542 0.109242395 -0.10401935 0.0963649 0.23375817 0.027918747 -0.0909328 0.1380825 0.08336217 -0.037044626 -0.29558808 0.17901966 0.060820613 0.07446236 0.07248456 0.34190586 0.13762139 0.008514142 0.32873583 0.30155984 0.13324179 -0.22885624 0.16408297 -0.24921203
werden 0.04402428 0.27041745 -0.1460251 -0.021080576 -0.16637813 -0.2504762 0.28852925 0.60817105 -0.0324461 -0.25654808 0.0728916 -0.23845388 -0.07634977 -0.047070958 -0.1726953 -0.180029 0.22514819 0.10948178 0.06875736 -0.14896609 -0.12821655 -0.0054999157 0.23156361 0.04193944 0.13276309 -0.020478392 -0.4144729 -0.10720707 -0.088770255 -0.36147112 -0.123807296 -0.074104875 0.15332034 -0.006956988 -0.031160783 0.26120904 0.11105894 -0.2825362 0.056612402 0.013722423 -0.054934766 -0.034724917 -0.012741326 -0.19801791 0.19867775 0.25333694 -0.06433342 0.017262625 0.15991054 0.14979236 0.044590823 0.14872846 0.041961595 0.13661644 0.009214117 0.24944194 0.21534768 0.013440857 0.06310248 0.05348442 -0.13028678 -0.06741468 -0.024893478 0.03452773 -0.19219483 0.17086357 -0.055729073 -0.04404289 -0.04678045 -0.042419907 -0.03796585 0.15617947 0.31072593 -0.18469921 0.12867 0.101745665 -0.071093336 0.15418677 -0.028325371 0.17880467 -0.053278882 -0.230773 -0.020221734 0.502736 -0.05572352 0.10442851 -0.07964819 -0.009380662 0.25818256 0.16523173 0.19333689 -0.10751051 0.15273474 -0.040307228 0.3052343 0.33504754 0.24936269 -0.2733331 -0.017443012 0.14183213 -0.024173317 0.011916483 0.09911238 0.16491981 0.03054513 -0.15177706 -0.11751343 0.006286972 -0.19234902 0.11842425 -0.26071915 -0.113369845 -0.030988386 0.101113364 0.089206144 0.038994484 -0.010506897 0.078558676 0.2041327 -0.35730585 0.24991004 0.1209733 0.2414315 0.04264988 -0.26342025 0.14832495 -0.040851306 -0.09456767 -0.050672326 0.25722012 0.20218377 0.19794193 0.06399868 -0.2938078 0.042066008 0.13852881 -0.050415926 -0.10558705 -0.15543097 -0.23949198 0.07808212 -0.36187875 -0.18821833 0.2452651 0.10513321 -0.08288353 -0.34641337 -0.19308588 0.20189555 -0.14383139 0.13103455 -0.4159158 0.009123773 -0.17446068 -0.009186157 0.22444683 -0.20495194 -0.1456399 -0.08236086 0.34342888 0.013495311 0.20175461 -0.359624 0.14983626 -0.13556218 0.16214064 -0.06874395 -0.087973826 -0.062674806 0.5096864 -0.23778467 0.13510118 0.1518257 0.10895845 0.0638827 -0.02929472 -0.061990097 -0.2376058 0.016087238 -0.09363301 -0.106658526 0.09905542 -0.22988367 -0.059943512 -0.05216282 -0.029167878 0.39933738 0.2572773 0.11967121 -0.2416732 0.012209635 0.0002095604 -0.049835302 -0.10764393 -0.05940413 -0.23998071 -0.033252083 -0.17523804 -0.09170782 -0.12109631 -0.22918572 0.10189453 -0.08314802 -0.12655891 0.15456939 0.020266514 -0.122567415 0.074142344 0.041305006 -0.04940451 -0.03831241 -0.17351937 -0.12153614 -0.074640736 0.24591309 -0.31781137 -0.2155263 -0.50790536 -0.3995214 -0.27884457 0.05071173 -0.12122455 -0.19374204 -0.13581587 0.008515189 -0.1718176 0.006198888 -0.19787048 -0.18905877 0.17351504 0.20475775 -0.12151606 -0.03366846 0.21162745 -0.33114004 0.0917796 -0.10246931 -0.024081593 0.10910151 -0.44146442 0.121919565 -0.16580057 -0.17890085 -0.057007343 0.093054056 -0.25187406 0.028085787 0.08707975 -0.008354898 0.24948907 0.09248593 0.023858616 0.13580687 -0.056897957 -0.22179945 -0.040889915 0.15394345 0.018743556 -0.36688447 -0.2247495 0.19631553 0.0016224625 0.056306545 -0.3926156 -0.32460517 0.005298287 0.12887703 0.16995502 -0.34136787 0.12438152 -0.2119602 0.023863142 0.0067054536 -0.080633745 0.03615793 0.16781545 0.29261523 0.1136983 -0.11315768 0.098637216 0.25038955 0.034500644 -0.10155391 0.14613268 0.08876168 -0.03744805 -0.3165534 0.19421992 0.061264753 0.07963289 0.081097305 0.36366972 0.14926009 0.007070258 0.34669194 0.31588945 0.14107457 -0.24100511 0.17729206 -0.2682443
ja 0.034135442 0.19531114 -0.10771899 -0.016220126 -0.11896377 -0.18586726 0.21540996 0.4483594 -0.018607019 -0.18613659 0.05497153 -0.17024004 -0.05734055 -0.038204983 -0.12960707 -0.13017839 0.16496867 0.083662696 0.04863947 -0.11028944 -0.09684595 -0.008127139 0.16944787 0.026349962 0.09937671 -0.018012881 -0.29971114 -0.07846695 -0.06562183 -0.26558873 -0.08619123 -0.05549477 0.113020256 -0.0054753004 -0.020228064 0.18879883 0.08069274 -0.2106852 0.045260645 0.008765816 -0.03687361 -0.025905093 -0.008300372 -0.1486949 0.14704384 0.18540893 -0.051686756 0.016963547 0.11737033 0.11235925 0.034136508 0.108884774 0.029861767 0.101078644 0.0018330823 0.1877424 0.16122928 0.011734096 0.049192965 0.042763416 -0.09498762 -0.05054986 -0.01580748 0.023378406 -0.13974005 0.12794155 -0.042497452 -0.031536452 -0.036636293 -0.034074165 -0.03132917 0.11697816 0.22633064 -0.13611123 0.09743221 0.07005161 -0.05076898 0.110650145 -0.020851342 0.13119256 -0.04098073 -0.16573185 -0.017183408 0.37099448 -0.04353753 0.07474813 -0.057058737 -0.010871358 0.18792096 0.11887077 0.13916236 -0.08012405 0.112585224 -0.028566528 0.22381975 0.24260853 0.18418823 -0.2033171 -0.014318317 0.10309858 -0.01737398 0.0067203934 0.070972234 0.12109739 0.02388576 -0.11235218 -0.08634665 0.0084778825 -0.14137289 0.08536557 -0.18719631 -0.087368205 -0.020632295 0.0769394 0.06387924 0.033381242 -0.0055909636 0.061288677 0.1506215 -0.26743725 0.18049718 0.08595679 0.17580801 0.02974751 -0.19566584 0.10487099 -0.030671855 -0.07195283 -0.0331063 0.18571763 0.14522666 0.14728324 0.051773056 -0.21593763 0.031670988 0.100603946 -0.03625091 -0.082105026 -0.11632721 -0.17652987 0.058106553 -0.26599044 -0.13973843 0.18282497 0.0788401 -0.06075585 -0.25310823 -0.13979602 0.14532998 -0.105988376 0.0961133 -0.30477062 0.0069731204 -0.1255346 -0.0064803557 0.16409934 -0.14730614 -0.109836854 -0.05679121 0.25468832 0.009878399 0.14673474 -0.2608035 0.11303977 -0.10298288 0.119052276 -0.04818315 -0.064756736 -0.044827107 0.37079138 -0.17080134 0.093549095 0.111073405 0.08293408 0.04554489 -0.022382371 -0.042613465 -0.17730238 0.0082177995 -0.06917848 -0.07835797 0.074510574 -0.16445957 -0.046109673 -0.03727904 -0.016328845 0.29419497 0.18813637 0.09098804 -0.1736662 0.008422133 0.0014472967 -0.041334923 -0.073423244 -0.040122557 -0.17486127 -0.027302442 -0.12920886 -0.06600935 -0.0859132 -0.16936632 0.07259213 -0.058594212 -0.08752364 0.110253535 0.016183067 -0.087737314 0.054135818 0.030653456 -0.038541503 -0.02762739 -0.12516896 -0.089728124 -0.059690382 0.17833629 -0.23106986 -0.15842625 -0.37467661 -0.28988567 -0.20215863 0.035391696 -0.0865287 -0.1428442 -0.09945736 0.0073875873 -0.12490476 0.00077049766 -0.14491795 -0.13864142 0.12646767 0.14771684 -0.088842295 -0.02625764 0.15802692 -0.24332768 0.06780051 -0.0762197 -0.020361705 0.08239432 -0.32514805 0.09012699 -0.12234448 -0.13447738 -0.042511754 0.07235273 -0.18448469 0.021407505 0.06160116 -0.0060165264 0.18154362 0.06459111 0.015837396 0.09757889 -0.043338545 -0.16232918 -0.029261135 0.10905675 0.011832909 -0.26549014 -0.16627161 0.14410056 0.002507147 0.043988816 -0.28865588 -0.24049889 0.0062267445 0.09376597 0.12937649 -0.24685778 0.08958177 -0.15515314 0.020443011 0.0065583806 -0.0592656 0.029239433 0.12445767 0.2113782 0.07986141 -0.08280273 0.07337515 0.18427761 0.02016428 -0.07321208 0.11184306 0.064397186 -0.03084348 -0.22991946 0.13789618 0.04447404 0.055331144 0.057257492 0.26896697 0.11026555 0.008724621 0.2597743 0.23344433 0.10172103 -0.17226925 0.12514102 -0.19639172
es 0.04149984 0.23718747 -0.12662393 -0.018471768 -0.14121123 -0.22066137 0.25295463 0.5369654 -0.023936912 -0.22303294 0.061177198 -0.2028368 -0.062202733 -0.03925963 -0.14888097 -0.15688007 0.19477755 0.09766841 0.060932614 -0.12982301 -0.11201736 -0.00549653 0.20219848 0.037384894 0.118054986 -0.022179358 -0.36061317 -0.088981636 -0.081154294 -0.31318584 -0.104765266 -0.06618299 0.13579762 -0.007209185 -0.026912516 0.22975047 0.098195 -0.24801779 0.048287716 0.015674843 -0.049148057 -0.027482556 -0.010938942 -0.17454064 0.17253311 0.22403792 -0.058761116 0.018648678 0.13961451 0.12944587 0.040539768 0.124816194 0.03213459 0.113629214 0.0071092984 0.22049628 0.18820103 0.015472205 0.05599915 0.046782963 -0.11383147 -0.061122242 -0.019802408 0.030977894 -0.16849622 0.1513746 -0.046204317 -0.038763154 -0.04204366 -0.036683813 -0.033092253 0.13791974 0.27059546 -0.16335908 0.11455706 0.08553833 -0.0595452 0.13110426 -0.02386252 0.1600629 -0.04795566 -0.20142443 -0.020437822 0.44048497 -0.04952029 0.09040607 -0.068867385 -0.009502997 0.22690228 0.14407143 0.17145188 -0.09437641 0.13336404 -0.03575398 0.26357412 0.28951126 0.22146833 -0.23936675 -0.016619597 0.12188395 -0.02167649 0.012985666 0.08499151 0.1487536 0.029086111 -0.128604 -0.10373369 0.008636998 -0.17312276 0.10713026 -0.22715849 -0.10187431 -0.022651514 0.088787764 0.078731306 0.034675214 -0.0049562315 0.06755524 0.1784777 -0.3154406 0.21544842 0.10515077 0.20923156 0.038152955 -0.23365803 0.124821715 -0.039388 -0.08785232 -0.04468596 0.22303969 0.17716339 0.17270865 0.055481996 -0.25819921 0.03860471 0.12104716 -0.044160865 -0.09590722 -0.13373351 -0.21342404 0.06691077 -0.31617266 -0.16486815 0.21788132 0.09332009 -0.067082256 -0.29998264 -0.16814807 0.17665367 -0.12567043 0.113573544 -0.3643175 0.008535187 -0.15061432 -0.007281734 0.19367787 -0.17901877 -0.12571771 -0.07332067 0.30153006 0.011647544 0.17784993 -0.315998 0.13326403 -0.115918286 0.14034739 -0.060206335 -0.08000304 -0.055126805 0.4425997 -0.20491204 0.1147303 0.13254623 0.0947762 0.053528424 -0.02490706 -0.052671455 -0.2092722 0.015241157 -0.08322592 -0.092797086 0.08550691 -0.20058554 -0.05780587 -0.049192958 -0.023955775 0.34850487 0.22380857 0.10861349 -0.20709586 0.010110638 -0.00037446475 -0.04847979 -0.087884784 -0.05120184 -0.21030734 -0.029265255 -0.15055831 -0.07636636 -0.1064858 -0.19937263 0.086499214 -0.07141482 -0.11108707 0.13415357 0.01959371 -0.106874324 0.063965656 0.032919534 -0.039288193 -0.036203198 -0.15350322 -0.107220456 -0.07017572 0.21328886 -0.27682194 -0.18975346 -0.44669038 -0.34605148 -0.24169816 0.046536412 -0.107094936 -0.16469526 -0.120575264 0.006872681 -0.1509889 0.0036871636 -0.17546248 -0.16442746 0.1509643 0.1780158 -0.104297824 -0.026870918 0.18713962 -0.2895157 0.08051404 -0.0913761 -0.022836782 0.0934804 -0.3860949 0.107708246 -0.14599219 -0.15647127 -0.046287082 0.08128592 -0.21872354 0.022667374 0.07396032 -0.010964212 0.21723442 0.08085506 0.020220662 0.11793335 -0.04866813 -0.19193786 -0.037177637 0.13439597 0.020267468 -0.32078627 -0.19778854 0.17110103 0.00086708716 0.04884866 -0.34384587 -0.28057277 0.009166161 0.11581968 0.14979124 -0.29750496 0.10502628 -0.19107462 0.02380808 0.005704001 -0.072843745 0.033813894 0.14502054 0.25699833 0.09613661 -0.09993246 0.08930875 0.2147109 0.02664907 -0.088328 0.12824099 0.0761032 -0.034395497 -0.27128926 0.1699039 0.054756515 0.06823091 0.06616704 0.32030547 0.1277809 0.008961804 0.30894777 0.27826163 0.12303345 -0.20595148 0.15505727 -0.23335166
dass 0.037930764 0.22870809 -0.11871725 -0.01544681 -0.13806574 -0.21416776 0.24253558 0.5146381 -0.026738545 -0.2163957 0.058060654 -0.19900408 -0.060288336 -0.0368349 -0.14440703 -0.14860032 0.18704548 0.095639594 0.05604483 -0.13160977 -0.10781198 -0.00927886 0.1944774 0.032764304 0.11204254 -0.019178255 -0.34994677 -0.08574456 -0.07884784 -0.30602774 -0.10075607 -0.060104772 0.1300012 -0.0064138356 -0.027848287 0.21748471 0.094930775 -0.23684408 0.048022125 0.011045748 -0.043756247 -0.027060416 -0.014247044 -0.17022133 0.16838808 0.21384881 -0.054595828 0.018120125 0.132975 0.12925567 0.038193393 0.122272484 0.030630425 0.11079826 0.008562652 0.2138741 0.17961776 0.014039303 0.05256821 0.0449111 -0.10973513 -0.056369785 -0.018923536 0.02993946 -0.16032417 0.14248623 -0.04526037 -0.03533986 -0.038067907 -0.035360057 -0.035007786 0.13249 0.2613744 -0.15411663 0.10931989 0.086454295 -0.0604203 0.12516707 -0.025068147 0.15169507 -0.04075237 -0.19549067 -0.018783366 0.42748094 -0.05107334 0.08722942 -0.06489771 -0.01174069 0.2182514 0.13872717 0.16563219 -0.0920784 0.12809363 -0.029494261 0.25632668 0.28474396 0.21048808 -0.23040637 -0.01529484 0.11816835 -0.019383438 0.010333785 0.083902836 0.14155477 0.023608217 -0.12724917 -0.09894098 0.009835994 -0.16328852 0.10016524 -0.21964015 -0.09566297 -0.026813565 0.0864557 0.07599125 0.034292966 -0.0077280537 0.06592097 0.1674814 -0.301766 0.21120928 0.10145449 0.20597567 0.034310363 -0.22510524 0.12324923 -0.03841765 -0.08580691 -0.0381465 0.21568292 0.1654437 0.1700339 0.05396112 -0.24859226 0.03688373 0.11685618 -0.044863436 -0.09267367 -0.13398029 -0.20295551 0.06541398 -0.3080278 -0.15585147 0.20878091 0.0930557 -0.06558232 -0.2914487 -0.16320333 0.17008148 -0.119809784 0.11197874 -0.35167274 0.006468518 -0.14850616 -0.00961563 0.18511936 -0.17292427 -0.12614629 -0.067774475 0.29177722 0.014886404 0.16926485 -0.30024347 0.12546255 -0.111739494 0.13662677 -0.054683555 -0.07330123 -0.054141518 0.42996648 -0.19943567 0.10797948 0.124624826 0.09090475 0.0506476 -0.020893684 -0.04934804 -0.20130253 0.015141283 -0.079836495 -0.08777534 0.08418851 -0.19496158 -0.0553346 -0.043258943 -0.02457732 0.33930108 0.21657543 0.099792644 -0.19947393 0.009929553 -0.0027494363 -0.047805212 -0.09073623 -0.048203167 -0.20260985 -0.02860701 -0.1471229 -0.07847475 -0.10218267 -0.1900039 0.08025279 -0.072745204 -0.10397125 0.12523924 0.01576716 -0.101684995 0.06515996 0.031943403 -0.037894376 -0.028718991 -0.14416641 -0.1066491 -0.061859358 0.20474198 -0.2680808 -0.18218316 -0.43167186 -0.33909655 -0.23288855 0.046517905 -0.10470355 -0.16274878 -0.11199196 0.0051585534 -0.1470278 0.005114636 -0.16818719 -0.15687789 0.1488767 0.17575994 -0.10091878 -0.024435518 0.17734855 -0.27741483 0.07541052 -0.08568128 -0.018113822 0.09385187 -0.37372258 0.10661842 -0.14013751 -0.15198039 -0.044047624 0.07814694 -0.2108228 0.023097863 0.076969184 -0.0059564146 0.20876123 0.0738384 0.018341525 0.11851199 -0.05159071 -0.18243705 -0.032889884 0.12708253 0.020233639 -0.3040602 -0.18782888 0.16614524 -0.0018536409 0.049743794 -0.3336888 -0.2757023 0.0038567588 0.11160348 0.14861226 -0.2888802 0.10181122 -0.18204276 0.018948514 0.0053762775 -0.068539746 0.031418543 0.14163446 0.24487492 0.09431507 -0.09568146 0.086032644 0.21181144 0.02955164 -0.08598561 0.12267691 0.07152024 -0.03372826 -0.2637108 0.1590589 0.053737313 0.06888657 0.06686563 0.3070625 0.12819114 0.009153971 0.2950413 0.2646361 0.118964456 -0.19843405 0.15008366 -0.22557676
zu 0.04610714 0.2584 -0.1357488 -0.019512355 -0.15659083 -0.24085872 0.27590448 0.5883994 -0.031299245 -0.24834986 0.06821551 -0.22296683 -0.07209639 -0.043553032 -0.16535075 -0.1684277 0.21124205 0.10950647 0.061940484 -0.1475248 -0.12323074 -0.009730156 0.22160056 0.03754629 0.12948571 -0.023770902 -0.39745453 -0.10212795 -0.08403634 -0.34274682 -0.12032133 -0.072119996 0.14729913 -0.011011812 -0.028097726 0.25141546 0.104113966 -0.26970878 0.05926117 0.012957049 -0.049468607 -0.035191827 -0.0117924595 -0.18915632 0.1936062 0.23963879 -0.06265628 0.017176902 0.15377012 0.14569454 0.045082655 0.14172632 0.036142983 0.12983619 0.004763495 0.24186197 0.20919725 0.016592281 0.06479585 0.053197496 -0.124925025 -0.062446993 -0.022859275 0.03245252 -0.18800601 0.16667478 -0.051134057 -0.03986703 -0.04248979 -0.041440275 -0.038520467 0.14927877 0.2960777 -0.17694063 0.1233581 0.092274845 -0.06912927 0.14834887 -0.022731507 0.17600754 -0.051094756 -0.21999791 -0.022138074 0.48508045 -0.055216696 0.10119829 -0.07774463 -0.011306278 0.24925932 0.15985343 0.18374562 -0.105155475 0.14891465 -0.040593155 0.29469022 0.32264647 0.24119394 -0.2666917 -0.019013839 0.13646767 -0.019381844 0.012774697 0.09344501 0.16417326 0.0265922 -0.1411636 -0.10941536 0.00852608 -0.19060682 0.116445184 -0.25039577 -0.112482 -0.023879599 0.09463025 0.082233265 0.037840366 -0.006242669 0.0783126 0.19152978 -0.34684545 0.24168304 0.118573524 0.23370491 0.042931404 -0.25505966 0.1405477 -0.04002598 -0.092029594 -0.045245774 0.24662101 0.19034842 0.1878589 0.06627669 -0.28306383 0.042282697 0.13348854 -0.04894745 -0.10524826 -0.1476904 -0.23283312 0.07365431 -0.35100913 -0.17690302 0.24032927 0.101588175 -0.07462877 -0.33361802 -0.18700755 0.19049935 -0.1404462 0.1266131 -0.40161413 0.005308032 -0.17101622 -0.008121495 0.21218413 -0.19558331 -0.1423006 -0.07798647 0.33107105 0.014288397 0.19142926 -0.345705 0.14593156 -0.1337406 0.15542167 -0.06384833 -0.08238764 -0.0620344 0.49013 -0.22956511 0.12423959 0.14445779 0.10469442 0.05918783 -0.026049051 -0.0550502 -0.231173 0.01305204 -0.08982393 -0.09941266 0.09646475 -0.21897312 -0.0626134 -0.054472487 -0.028945459 0.3795291 0.24211095 0.114775255 -0.23015937 0.008306734 -0.0021379737 -0.049860656 -0.098878205 -0.053696867 -0.23409273 -0.030095072 -0.16515118 -0.08735183 -0.11679381 -0.21889752 0.092569634 -0.07711337 -0.11578647 0.14849079 0.017533457 -0.11570289 0.07273395 0.041102707 -0.048620634 -0.03653249 -0.16777429 -0.122836344 -0.07304742 0.23901948 -0.30093873 -0.21010466 -0.4871451 -0.38295037 -0.26261032 0.046870988 -0.11404272 -0.18549883 -0.1309622 0.006230815 -0.16403247 0.0005595886 -0.19055927 -0.17973632 0.16614945 0.19869347 -0.11701128 -0.02756011 0.20740992 -0.31826013 0.08734023 -0.09572391 -0.022444664 0.1068518 -0.42287126 0.118871115 -0.15869726 -0.17303436 -0.054485906 0.09175977 -0.23777424 0.022922754 0.08766959 -0.0071874047 0.23822318 0.08596703 0.022349082 0.13354085 -0.05323412 -0.21271679 -0.03452473 0.14431451 0.016631654 -0.34618378 -0.21512106 0.18679273 0.003946859 0.050705872 -0.37734294 -0.31071588 0.0066646934 0.12550783 0.16572364 -0.3286021 0.11730373 -0.20543572 0.022898948 0.00805932 -0.07946973 0.036082663 0.16174318 0.28274813 0.107930176 -0.10607904 0.09518453 0.23965615 0.031642817 -0.094631895 0.14495668 0.08224292 -0.033007637 -0.300863 0.18248735 0.059039198 0.07179553 0.07420852 0.34950846 0.14412121 0.010665325 0.3329767 0.30588412 0.1328217 -0.22725178 0.17048568 -0.25561696
nicht 0.032329757 0.20799677 -0.111761175 -0.014454323 -0.13267261 -0.19612606 0.2291705 0.48187247 -0.021925379 -0.20044336 0.05188578 -0.18292587 -0.05721941 -0.0400157 -0.13736576 -0.13882516 0.17437346 0.08792966 0.050963253 -0.1195459 -0.100955404 -0.006266047 0.18008165 0.032231778 0.104781605 -0.020060008 -0.32040152 -0.08594189 -0.072229706 -0.2820827 -0.0983144 -0.056466643 0.12229353 -0.0074161445 -0.022257749 0.20414947 0.08560874 -0.22362019 0.04591524 0.013347975 -0.038713846 -0.024943886 -0.013208218 -0.15915278 0.1592933 0.19942014 -0.05075765 0.015153148 0.12908396 0.11479073 0.039578594 0.11163184 0.030640727 0.106866285 0.0018576827 0.19937702 0.16701244 0.009915755 0.051577214 0.044940405 -0.10408954 -0.05066868 -0.020066189 0.025166435 -0.14814875 0.1345862 -0.04509184 -0.032842454 -0.03774211 -0.03546706 -0.029427793 0.12655418 0.2451789 -0.14689593 0.10508054 0.07591852 -0.052043356 0.11653548 -0.02370368 0.14197288 -0.043531176 -0.18129249 -0.015839359 0.395137 -0.048578244 0.07816044 -0.06424869 -0.008519731 0.2049174 0.12978683 0.15546976 -0.08513796 0.12420039 -0.028566932 0.24228378 0.2625522 0.19822313 -0.21575035 -0.01662873 0.11548529 -0.01854348 0.012848198 0.0795911 0.13290146 0.023591701 -0.12063234 -0.09053302 0.007576566 -0.1569713 0.09230755 -0.20343326 -0.092385165 -0.020812407 0.08058118 0.0708162 0.030226339 -0.007794085 0.065339625 0.16070928 -0.28106323 0.19667788 0.09193342 0.1910138 0.03220357 -0.21220215 0.11778408 -0.03419446 -0.07993048 -0.038706116 0.20362155 0.15584315 0.15714791 0.052131694 -0.22862844 0.03400397 0.10625118 -0.040373284 -0.081738226 -0.12120144 -0.19104914 0.06478635 -0.28393266 -0.14353576 0.1950807 0.08052376 -0.064095035 -0.26902637 -0.15386829 0.16119818 -0.116750844 0.098757625 -0.32801652 0.008744574 -0.13989624 -0.0062299455 0.17112638 -0.15883705 -0.11349721 -0.06336834 0.274263 0.014349492 0.15871064 -0.27953163 0.12084064 -0.105832525 0.12975916 -0.051757254 -0.072354764 -0.052019138 0.3987366 -0.18815193 0.10271032 0.11935711 0.08371685 0.051687244 -0.01906013 -0.04807934 -0.1861393 0.0137075735 -0.07607224 -0.080355875 0.07935983 -0.17989983 -0.051909376 -0.045624476 -0.02400708 0.31436622 0.20137115 0.097703986 -0.18883082 0.007372334 0.00048470625 -0.04485014 -0.08512837 -0.04462383 -0.19299005 -0.027093695 -0.13871878 -0.06854384 -0.09455601 -0.17483917 0.07785347 -0.06655215 -0.09835588 0.11957499 0.015076875 -0.09388741 0.06159944 0.03344474 -0.039886188 -0.031685 -0.13537525 -0.09819177 -0.06223598 0.19522852 -0.24586712 -0.17142761 -0.39832768 -0.3105674 -0.21674614 0.043499816 -0.09640872 -0.15212342 -0.10570905 0.0019235271 -0.13070525 9.233028e-08 -0.15618876 -0.14792879 0.13870719 0.16234224 -0.09939866 -0.026212396 0.16793959 -0.25698662 0.07203267 -0.080192104 -0.020015657 0.083516546 -0.34320915 0.09350789 -0.12905976 -0.14271344 -0.045574754 0.07718015 -0.19587888 0.01815246 0.066385195 -0.0068444894 0.19198118 0.07242524 0.019180423 0.10853583 -0.04681577 -0.17010918 -0.03344807 0.12075056 0.015621741 -0.28621477 -0.17607842 0.15093692 -0.00035742816 0.04329216 -0.3095233 -0.25387818 0.0046574604 0.10482879 0.13275062 -0.26818082 0.09249268 -0.17208181 0.0186849 0.002721291 -0.067269646 0.028693767 0.13259196 0.23003131 0.09121475 -0.091353774 0.0810321 0.19137727 0.027121034 -0.07476543 0.11918851 0.06672188 -0.028573185 -0.24913156 0.14915693 0.047661714 0.058267847 0.06275556 0.28695413 0.11487912 0.0037833725 0.27590057 0.24669233 0.10805888 -0.18815456 0.13643081 -0.20556124
sagen 0.02743211 0.18054028 -0.09294617 -0.013767337 -0.10994475 -0.1673888 0.19391567 0.40552676 -0.02050533 -0.17343585 0.04889237 -0.15954304 -0.05227209 -0.031097066 -0.114277504 -0.11749822 0.14762308 0.07539028 0.045376804 -0.09843837 -0.08753703 -0.007570535 0.1493054 0.029462054 0.090281434 -0.016710144 -0.2709954 -0.06717563 -0.05742557 -0.24047287 -0.08266983 -0.04911441 0.098857276 -0.004379996 -0.018997082 0.17047316 0.076464176 -0.19100839 0.04104622 0.0077895806 -0.034055218 -0.024156047 -0.008240387 -0.12997368 0.13244995 0.1660533 -0.047401085 0.013770519 0.108160496 0.10157974 0.029262826 0.093726285 0.028526923 0.08693151 0.0055813026 0.16985133 0.14192548 0.010983035 0.04200333 0.035273977 -0.089120395 -0.04477395 -0.017626524 0.020379262 -0.12864572 0.11543215 -0.035764743 -0.026665425 -0.029188138 -0.03126676 -0.027587796 0.10794424 0.20743151 -0.12574936 0.08810197 0.06847374 -0.043121137 0.09808968 -0.01842782 0.12070489 -0.033356424 -0.15281554 -0.01491733 0.33622807 -0.036113687 0.068055294 -0.054235615 -0.008788548 0.1699858 0.11109177 0.12871131 -0.07174939 0.099385895 -0.02639869 0.20452602 0.22399849 0.16902176 -0.18383369 -0.008174154 0.095155306 -0.014493527 0.010755255 0.064263724 0.113677286 0.023658564 -0.09772872 -0.07582427 0.007160384 -0.13045937 0.07617947 -0.17084453 -0.076305605 -0.020769844 0.068102695 0.06057951 0.024916504 -0.0041611535 0.056454662 0.13081266 -0.23781827 0.16214979 0.07699491 0.16164814 0.026865296 -0.17752929 0.09431569 -0.030796086 -0.067210756 -0.031632822 0.17116177 0.12947063 0.12880298 0.04291941 -0.1952902 0.026403835 0.09114636 -0.03177497 -0.070589885 -0.10077424 -0.15838909 0.052439075 -0.24117987 -0.120389596 0.16540895 0.07145856 -0.05295294 -0.23178016 -0.1264738 0.13508996 -0.09593917 0.08906068 -0.27765998 0.0069253575 -0.118485846 -0.010732989 0.14789554 -0.13391128 -0.09502949 -0.056256354 0.23037618 0.0112935975 0.13533783 -0.2379097 0.102223374 -0.08802763 0.10456889 -0.046911277 -0.05639865 -0.04308627 0.3342136 -0.15853979 0.08775818 0.10130712 0.07155063 0.041667826 -0.019745225 -0.042674854 -0.15713078 0.009836615 -0.06488122 -0.068588234 0.06159524 -0.15158147 -0.04033445 -0.035544198 -0.015317508 0.26642466 0.16841042 0.08236093 -0.15664206 0.009014635 0.0024359284 -0.033390198 -0.06752117 -0.036602966 -0.1615261 -0.023776703 -0.11286834 -0.058991574 -0.080856584 -0.15086822 0.06375538 -0.051801883 -0.08097731 0.10214085 0.016372235 -0.07840167 0.047637574 0.024802038 -0.033020716 -0.026591614 -0.11755222 -0.08310075 -0.05376229 0.16617323 -0.21096127 -0.14584272 -0.3399088 -0.26506457 -0.18706873 0.03460715 -0.07932714 -0.12768136 -0.08651614 0.003349987 -0.11557775 0.001276549 -0.13263266 -0.12659965 0.11297083 0.13459511 -0.08218528 -0.019357733 0.13907944 -0.21985589 0.059762534 -0.068097584 -0.015593793 0.07196813 -0.29000014 0.08392223 -0.11280314 -0.11842573 -0.03420685 0.06294504 -0.1633421 0.016074669 0.05712501 -0.008364718 0.16786787 0.05708466 0.014222289 0.090710774 -0.03967299 -0.14253001 -0.027908571 0.09717145 0.01660106 -0.244204 -0.1465454 0.12695122 0.0030767394 0.03676096 -0.26119167 -0.21692309 0.003415699 0.08964487 0.11702254 -0.22524148 0.082875855 -0.14141811 0.017566247 0.0054899417 -0.05848082 0.026684972 0.10974933 0.19260393 0.07543124 -0.0722705 0.06348989 0.16461657 0.02310138 -0.068496555 0.10156746 0.056912474 -0.022068879 -0.21032156 0.12895788 0.045053575 0.04882635 0.051857315 0.23863833 0.10085618 0.008298726 0.23031956 0.20978661 0.093182616 -0.16042675 0.11631603 -0.17961122
wie 0.034708112 0.2014131 -0.107011534 -0.011334124 -0.12587243 -0.19202875 0.2179293 0.4661869 -0.021345861 -0.19202931 0.054571178 -0.17995995 -0.055410832 -0.033417754 -0.12885559 -0.13182543 0.16614127 0.082737505 0.05365956 -0.11813987 -0.09762828 -0.0030214412 0.1729762 0.032974854 0.09976163 -0.014661005 -0.31080914 -0.07888152 -0.07166949 -0.2696447 -0.08963586 -0.055911455 0.1170015 -0.00424696 -0.02464102 0.19937035 0.08361452 -0.21620831 0.044253826 0.009436034 -0.0398425 -0.029152783 -0.009778132 -0.14870328 0.15394302 0.1944157 -0.0524254 0.016208094 0.12002796 0.11224139 0.03861058 0.113216646 0.028409904 0.099554434 0.0069242776 0.19241348 0.16627629 0.009745288 0.049039576 0.042903084 -0.09987816 -0.050537303 -0.019570418 0.025568439 -0.14718609 0.13245042 -0.04209923 -0.029802412 -0.035265803 -0.032551788 -0.03212973 0.116876625 0.23479325 -0.14127965 0.10175972 0.07672811 -0.054911375 0.117612995 -0.02018868 0.13467859 -0.037511908 -0.17513758 -0.01837802 0.38506764 -0.041383676 0.08089644 -0.059986737 -0.005741316 0.19844614 0.12320446 0.15028647 -0.08240902 0.114138044 -0.02667032 0.2301991 0.25684294 0.18945779 -0.20640029 -0.014875608 0.10977037 -0.013894845 0.011299624 0.07556037 0.12591721 0.020049378 -0.1120141 -0.08565048 0.005194086 -0.14675938 0.09282556 -0.1990871 -0.08702917 -0.02347265 0.075712085 0.06730659 0.028911285 -0.0072117886 0.059056852 0.15079924 -0.2760248 0.19237606 0.09398866 0.18231648 0.032767896 -0.20093627 0.11127315 -0.035234023 -0.07652477 -0.036046933 0.19774315 0.15235716 0.15389875 0.05246046 -0.22258393 0.035608478 0.10899569 -0.03508294 -0.07896805 -0.1209943 -0.18178853 0.057772703 -0.2796664 -0.14416668 0.18972129 0.08105338 -0.063252635 -0.26006633 -0.14412002 0.15432203 -0.107071415 0.09671123 -0.3177574 0.007836707 -0.13379514 -0.01113204 0.16953322 -0.15630032 -0.11287154 -0.060245126 0.26446074 0.0142741995 0.15344043 -0.2691738 0.11582533 -0.10151105 0.122552246 -0.049201798 -0.065297835 -0.052337438 0.3882808 -0.1795938 0.102258526 0.11244839 0.08177878 0.04632258 -0.020766383 -0.04672823 -0.18232153 0.011555671 -0.06873081 -0.07697829 0.071327254 -0.17536499 -0.048700295 -0.039831463 -0.023335466 0.30467296 0.19436365 0.09141452 -0.17878622 0.009528266 -0.00028546515 -0.03865227 -0.08229877 -0.047607794 -0.18526648 -0.022099545 -0.1316324 -0.06618304 -0.09271156 -0.17103769 0.0751484 -0.06305323 -0.09514634 0.116870835 0.012993853 -0.09111632 0.058217563 0.030139355 -0.037637927 -0.031343378 -0.13312499 -0.09644999 -0.05758837 0.1849275 -0.24059914 -0.16748379 -0.3873779 -0.30253574 -0.21314824 0.040504895 -0.0896172 -0.14369184 -0.101541355 0.0027391468 -0.13009882 0.00335439 -0.15010151 -0.13930829 0.1329489 0.15800725 -0.091393515 -0.023165818 0.16466232 -0.25148198 0.0669304 -0.07503337 -0.016460393 0.08424653 -0.3351449 0.09539776 -0.12505291 -0.13691612 -0.03838175 0.07391391 -0.1884336 0.02051347 0.06408688 -0.007632456 0.18939862 0.06714351 0.019963922 0.10665293 -0.04619541 -0.16873248 -0.03136689 0.114322856 0.014700489 -0.2770345 -0.17243534 0.14827691 0.004565912 0.040736724 -0.30012447 -0.24432684 0.0040217997 0.10210589 0.13229062 -0.26074803 0.089647435 -0.16644235 0.019299304 0.006221948 -0.062396064 0.02710626 0.12919194 0.22255842 0.08522224 -0.08770626 0.076057464 0.18916412 0.023235487 -0.075860895 0.11174331 0.069526285 -0.02981809 -0.23550284 0.14367294 0.04454996 0.0571122 0.05777016 0.27655765 0.11394873 0.0068898858 0.26896855 0.24031793 0.10923144 -0.18064784 0.13194612 -0.19958177
jetzt 0.035271022 0.2105287 -0.11361031 -0.017151976 -0.12765819 -0.19485262 0.22421779 0.4728761 -0.024538329 -0.2014377 0.057088073 -0.18359667 -0.058523342 -0.037644885 -0.13491796 -0.14011164 0.17152518 0.086332045 0.05504172 -0.12033996 -0.10227619 -0.0066187326 0.1781794 0.029215751 0.1024574 -0.019907946 -0.31699753 -0.08464184 -0.07105304 -0.2775262 -0.09396789 -0.059818964 0.12075734 -0.007609285 -0.024358748 0.19836198 0.08372123 -0.21861537 0.04682003 0.012006112 -0.038584303 -0.029076084 -0.011623815 -0.15535729 0.15447143 0.19691037 -0.051222254 0.0119428765 0.12571086 0.11792385 0.0338368 0.11405498 0.029326808 0.106172346 0.006308863 0.19586761 0.16649136 0.009004197 0.05327859 0.043073263 -0.09905499 -0.050973177 -0.020441923 0.024433034 -0.14820096 0.13117309 -0.038700916 -0.03512616 -0.037896026 -0.033895947 -0.03136678 0.11987946 0.2401947 -0.1412391 0.09864179 0.07541988 -0.05635485 0.118036054 -0.022342822 0.14340483 -0.0398158 -0.1770414 -0.016586695 0.39201045 -0.044837646 0.07676302 -0.06374902 -0.008140267 0.20285328 0.1290545 0.1482359 -0.08499324 0.116164066 -0.028760608 0.23309366 0.2598088 0.19620465 -0.21366523 -0.016367372 0.11283751 -0.017477248 0.006842324 0.07506851 0.1330314 0.024477474 -0.118100524 -0.09006185 0.008364671 -0.15450399 0.090029836 -0.20018817 -0.092668824 -0.021498853 0.07936667 0.07111737 0.03206193 -0.005422203 0.064492896 0.15457611 -0.27626157 0.19237936 0.09275091 0.18259394 0.034225807 -0.20401809 0.11385653 -0.035250183 -0.076625906 -0.03923173 0.20089577 0.15210196 0.15491623 0.04964792 -0.22913073 0.030579006 0.10923902 -0.041730817 -0.08548362 -0.12242888 -0.18787126 0.060070932 -0.28180557 -0.14157677 0.19202979 0.08077156 -0.06167974 -0.26482734 -0.1513118 0.15363684 -0.11012776 0.102384284 -0.32420522 0.00926316 -0.13853268 -0.01153537 0.16973023 -0.15742181 -0.1129348 -0.061117165 0.26953116 0.013781698 0.15526941 -0.2791317 0.11418751 -0.10537965 0.12820716 -0.053351935 -0.067450695 -0.04854868 0.39214447 -0.18564852 0.100282036 0.11292361 0.08172556 0.051135663 -0.022973798 -0.047767855 -0.18235192 0.011642756 -0.07526623 -0.08200696 0.07638707 -0.17499343 -0.04921228 -0.04213622 -0.019927504 0.30877575 0.19618897 0.09558447 -0.18766378 0.009086486 -0.0039463625 -0.041530974 -0.07846622 -0.0467119 -0.18556201 -0.023734631 -0.13743351 -0.06938306 -0.09375996 -0.17825136 0.076180525 -0.061933797 -0.09280875 0.11570379 0.015808769 -0.09665126 0.057922374 0.03242063 -0.040379487 -0.028675316 -0.13644466 -0.09656597 -0.05779828 0.18824887 -0.2442947 -0.16843562 -0.39640525 -0.30851668 -0.21283893 0.037228737 -0.09663728 -0.14810558 -0.10098257 0.0050423103 -0.12871376 0.000119822515 -0.15031834 -0.14643162 0.1335428 0.15614825 -0.09462684 -0.025302632 0.16774392 -0.25492525 0.07024143 -0.0767327 -0.022465339 0.08397062 -0.341451 0.09199116 -0.12739336 -0.13880257 -0.04308721 0.07295141 -0.19536625 0.019896163 0.06896269 -0.0041197045 0.19448264 0.06911989 0.019063031 0.10501674 -0.045937873 -0.17134917 -0.03207722 0.11764962 0.013050763 -0.2842582 -0.17629533 0.1521393 0.0020529206 0.044721138 -0.30037147 -0.25223252 0.004584979 0.104504 0.13573876 -0.26110908 0.09706996 -0.16340938 0.017965252 0.0055870283 -0.062750526 0.030505868 0.13439426 0.22308199 0.085732564 -0.084567375 0.077861175 0.19140813 0.026852207 -0.0742782 0.11224765 0.067505434 -0.032147456 -0.24047926 0.14868374 0.04775755 0.060906522 0.0627585 0.2839331 0.1165209 0.0069375876 0.27139127 0.247097 0.1097447 -0.18397504 0.13227174 -0.2048025
ganz 0.03129842 0.2076705 -0.11133551 -0.014525147 -0.12567215 -0.1928504 0.21950378 0.46930894 -0.024676848 -0.19922356 0.055055957 -0.1807047 -0.054647796 -0.038748775 -0.13274023 -0.13575192 0.17234443 0.08263024 0.053349823 -0.11934491 -0.10226639 -0.005793646 0.1743106 0.02951123 0.10137059 -0.015519692 -0.3183501 -0.08029338 -0.06790815 -0.27440077 -0.093233146 -0.053239137 0.11317556 -0.009840687 -0.022740407 0.20199499 0.082992055 -0.22032289 0.044989362 0.007829095 -0.039515976 -0.023475436 -0.012891009 -0.15512963 0.15625803 0.19294977 -0.052442767 0.013505841 0.120090194 0.11297655 0.03403957 0.11175973 0.030554298 0.104744226 0.007021754 0.19255024 0.16177474 0.013015783 0.047627017 0.04624891 -0.09921272 -0.051995665 -0.015169687 0.02337164 -0.1487513 0.13052905 -0.038764074 -0.031031396 -0.03469558 -0.03336016 -0.030679364 0.12404421 0.23426755 -0.14265853 0.097359896 0.07896805 -0.05438949 0.11517604 -0.018058559 0.13564561 -0.04068055 -0.17476141 -0.017446589 0.38819665 -0.04342468 0.0768453 -0.05902232 -0.0054897605 0.19853352 0.12874876 0.1462569 -0.083018854 0.121626645 -0.027732046 0.23404257 0.2546178 0.19492142 -0.209997 -0.0100323185 0.10959497 -0.014441165 0.008301518 0.074396044 0.12810627 0.024568642 -0.11482838 -0.08663137 0.003736753 -0.1527636 0.09371129 -0.19552961 -0.08986929 -0.023018988 0.07663041 0.06738966 0.034652222 -0.005394233 0.061395757 0.15301462 -0.27658543 0.18702517 0.094350874 0.18051639 0.032666318 -0.20647472 0.11498027 -0.03025627 -0.07489861 -0.035273083 0.19571365 0.15587537 0.15009037 0.05250293 -0.22558928 0.035992462 0.10998156 -0.03606725 -0.08271883 -0.11945625 -0.18722364 0.06394876 -0.28197697 -0.1445133 0.19185694 0.08074688 -0.058791403 -0.2665337 -0.14484881 0.1547033 -0.11334137 0.10014423 -0.31988668 0.008339247 -0.13128735 -0.011903476 0.17204008 -0.15469962 -0.10988752 -0.064128056 0.2618747 0.009007855 0.15606031 -0.2753449 0.1174446 -0.10242449 0.12616539 -0.04951385 -0.068096116 -0.049031213 0.39046213 -0.1842698 0.09901033 0.11318462 0.08484279 0.048408598 -0.023588551 -0.046574734 -0.17952381 0.013479698 -0.07049123 -0.08113758 0.07328285 -0.17494719 -0.04999184 -0.04429974 -0.020649206 0.30556944 0.19666162 0.09407803 -0.18032064 0.0046845125 0.0025505063 -0.041488234 -0.07914421 -0.046218492 -0.18677884 -0.025811747 -0.13596292 -0.06531105 -0.089525774 -0.174637 0.076463945 -0.06059726 -0.096517704 0.11746308 0.016698707 -0.09258855 0.05628442 0.02765626 -0.034597803 -0.029784413 -0.13485698 -0.095227346 -0.060850073 0.19035587 -0.24392347 -0.16603774 -0.389237 -0.30578363 -0.21319985 0.042080652 -0.09274574 -0.14955771 -0.10268315 0.0011970563 -0.13161062 0.0045321444 -0.15040956 -0.14511725 0.13459876 0.15896499 -0.09656169 -0.025618922 0.1626379 -0.2550022 0.06941873 -0.075327486 -0.018431103 0.08468709 -0.3363931 0.09340755 -0.12918347 -0.13795993 -0.039663147 0.07372241 -0.19052592 0.023519529 0.068528 -0.009209697 0.19231772 0.07278712 0.014671173 0.10711701 -0.046358585 -0.1686995 -0.028213086 0.11349405 0.012757544 -0.28125355 -0.1763655 0.14582583 0.004739751 0.043728936 -0.3027609 -0.24457191 0.008722944 0.1036356 0.13594364 -0.2627935 0.0925143 -0.16363655 0.019489162 0.0066446136 -0.06630988 0.02912048 0.13315162 0.22030285 0.089203596 -0.084479325 0.07523128 0.18856233 0.021282593 -0.078015424 0.11517044 0.06662126 -0.025596237 -0.24286705 0.14367536 0.050147448 0.062409163 0.060786918 0.280693 0.115529574 0.0040147705 0.27072328 0.23963502 0.10717556 -0.18411602 0.13588057 -0.20449051
so 0.0307241 0.1783005 -0.095582105 -0.014129438 -0.11166981 -0.16821356 0.19375704 0.40751252 -0.02082024 -0.17007545 0.045026124 -0.15355039 -0.049779482 -0.034088023 -0.11637737 -0.115141846 0.14797519 0.07308715 0.041998263 -0.10327402 -0.08779652 -0.002519553 0.15010361 0.02729528 0.089815214 -0.013502484 -0.2768977 -0.06742252 -0.061249685 -0.23706517 -0.08428265 -0.046641815 0.09844969 -0.007043818 -0.021471035 0.17164811 0.07399746 -0.18920305 0.040817752 0.008795633 -0.03609534 -0.02505713 -0.0066669113 -0.13146704 0.13626002 0.16986991 -0.04602885 0.015269918 0.104759276 0.100704506 0.029542001 0.09720021 0.027728437 0.08795513 0.0027581914 0.1672432 0.14375533 0.012557507 0.041278016 0.039083406 -0.088677146 -0.04771138 -0.016950382 0.021846117 -0.12524115 0.11642252 -0.03308631 -0.026461586 -0.031688336 -0.030970294 -0.022815367 0.10742789 0.20786971 -0.12072739 0.08660354 0.066879556 -0.049211174 0.10342085 -0.014729487 0.118403874 -0.0341503 -0.14979695 -0.012053563 0.33740476 -0.03571113 0.06762207 -0.049638446 -0.005078174 0.17149279 0.110049434 0.13231689 -0.06921679 0.10054888 -0.027080871 0.20195834 0.2236173 0.16850108 -0.1862979 -0.010440812 0.09857724 -0.014115336 0.010286828 0.067451105 0.1145908 0.023333248 -0.09839697 -0.077940606 0.006888176 -0.13294715 0.08194006 -0.1732144 -0.073515594 -0.022017747 0.06676121 0.061714284 0.025976213 -0.0054979087 0.055741377 0.13733096 -0.239936 0.16313407 0.083213136 0.15656082 0.029669337 -0.17564192 0.09480188 -0.030048817 -0.067964226 -0.031906836 0.17267904 0.1300624 0.13069701 0.04698538 -0.19648293 0.029597135 0.09391477 -0.034453917 -0.073475964 -0.10058979 -0.16116382 0.055855088 -0.24352059 -0.12276822 0.167263 0.0710054 -0.052062128 -0.23155007 -0.12577264 0.13334103 -0.09778407 0.0878324 -0.27333066 0.0035389848 -0.115961045 -0.0062954416 0.14696257 -0.13559452 -0.09418957 -0.05108885 0.22767866 0.009505524 0.13749272 -0.23849228 0.09739917 -0.09064509 0.10515838 -0.043214723 -0.058580123 -0.044275757 0.3369628 -0.15463145 0.08923285 0.09968362 0.073004395 0.04508184 -0.019305969 -0.038346052 -0.15842834 0.0073144785 -0.06570299 -0.06993141 0.06745011 -0.15068257 -0.044794854 -0.03560222 -0.018975835 0.2640215 0.17214313 0.082745135 -0.15931228 0.006970211 -0.00010808251 -0.03845814 -0.06813645 -0.03658834 -0.15998985 -0.021065349 -0.11747968 -0.058833826 -0.08168265 -0.14976977 0.06674901 -0.05521132 -0.0824518 0.10204223 0.015020312 -0.08093796 0.05278031 0.02828805 -0.031385273 -0.026267096 -0.116968036 -0.08610322 -0.05223479 0.16486995 -0.2076788 -0.14392042 -0.34001398 -0.26344204 -0.18578868 0.034026414 -0.078261 -0.12458358 -0.089448996 0.0019936839 -0.11235671 0.0056546144 -0.12892461 -0.12520726 0.119013 0.13959329 -0.085150704 -0.01798925 0.14226063 -0.22101961 0.060924407 -0.06443357 -0.019191585 0.07527177 -0.29432955 0.07897527 -0.108700804 -0.12151218 -0.034617893 0.065864526 -0.16264342 0.019928714 0.05592574 -0.004743598 0.16204865 0.06022017 0.018636214 0.08930192 -0.03666722 -0.14861512 -0.028577534 0.10304151 0.014346665 -0.2399401 -0.1494319 0.12921354 0.0022712655 0.03437924 -0.25829855 -0.21682027 0.0069378833 0.085679606 0.1156075 -0.22475044 0.08035376 -0.14556089 0.014246853 0.0011443358 -0.052281626 0.022225989 0.11249214 0.19115263 0.07338431 -0.07609601 0.0678619 0.1663603 0.02234683 -0.062390782 0.099228814 0.062258366 -0.022683965 -0.2080172 0.12781224 0.039154224 0.05104438 0.053769555 0.2393038 0.09939216 0.0027710367 0.23635216 0.21017972 0.09455567 -0.15987337 0.118446134 -0.17920344
mssen 0.029212667 0.19257604 -0.102507725 -0.013067656 -0.1150139 -0.17640243 0.20824066 0.4362098 -0.019125642 -0.1848912 0.05158575 -0.16400832 -0.054095622 -0.033278454 -0.12452145 -0.12641785 0.16096428 0.07973826 0.04894478 -0.109904066 -0.09052373 -0.0066488013 0.16073187 0.029125765 0.09907847 -0.01773148 -0.2906787 -0.07483106 -0.06689432 -0.25601915 -0.08894367 -0.049907126 0.106955774 -0.007914955 -0.022309093 0.185953 0.082411654 -0.20488518 0.04183533 0.009887299 -0.037950233 -0.024769487 -0.0074179512 -0.14238489 0.14532116 0.17938143 -0.047592897 0.015750594 0.11641809 0.10661815 0.032736335 0.105635315 0.026862925 0.096335486 0.004408102 0.17674413 0.15536378 0.009600773 0.0467437 0.037777487 -0.09221366 -0.04646215 -0.014233597 0.019709315 -0.13839954 0.1234782 -0.037927683 -0.030284075 -0.034856934 -0.032797724 -0.030524192 0.112621635 0.21762495 -0.13115172 0.09326335 0.071074694 -0.051962856 0.10782683 -0.021204973 0.1272916 -0.036266614 -0.16005471 -0.01640868 0.35770258 -0.038172413 0.07582807 -0.05376431 -0.01032351 0.18501432 0.12008365 0.13879143 -0.07498343 0.109185465 -0.026509631 0.21773781 0.23999627 0.1779591 -0.19823922 -0.009610381 0.09935627 -0.015925491 0.009687722 0.07090719 0.117994934 0.021944733 -0.10937008 -0.08181248 0.004705992 -0.14100787 0.08569328 -0.18264063 -0.0808874 -0.019683106 0.06892321 0.06591314 0.028055534 -0.005925778 0.059983153 0.1432469 -0.25448883 0.17710009 0.08607933 0.17239226 0.034415405 -0.18952706 0.102740824 -0.028419822 -0.072267644 -0.03116163 0.18291932 0.1435771 0.14158405 0.046675432 -0.20786858 0.029083159 0.102052316 -0.03342446 -0.075268924 -0.111844264 -0.17402734 0.058749236 -0.25783473 -0.13339727 0.17325142 0.07424218 -0.056350976 -0.24771775 -0.13705051 0.14361091 -0.105924465 0.091497846 -0.2970413 0.0046625827 -0.124605395 -0.011661563 0.15598777 -0.14720042 -0.10616108 -0.057035625 0.2456873 0.01478631 0.14624037 -0.2560444 0.10429965 -0.09409156 0.11626572 -0.0441595 -0.06370551 -0.047205403 0.35912314 -0.170541 0.09527833 0.104285814 0.080296755 0.04347551 -0.01532785 -0.044561703 -0.16567425 0.00881 -0.06912382 -0.07108455 0.065858625 -0.16448593 -0.043359276 -0.04170921 -0.017079338 0.28409487 0.1781697 0.08733141 -0.1693173 0.009314715 0.00060367695 -0.039444134 -0.07445613 -0.039274313 -0.17419413 -0.020479165 -0.12515005 -0.06498606 -0.08576527 -0.15996648 0.06690106 -0.057371944 -0.08914267 0.11058793 0.013114041 -0.08951007 0.05423736 0.031836815 -0.03323596 -0.027493775 -0.12123639 -0.091030546 -0.05595315 0.17248268 -0.22349283 -0.15570338 -0.3630868 -0.284077 -0.19481575 0.03768494 -0.08376948 -0.13466403 -0.093721755 0.0055637658 -0.11946806 0.00074262137 -0.13999736 -0.13267942 0.12601158 0.14288548 -0.08752312 -0.021239828 0.14994694 -0.23597762 0.06545921 -0.07222892 -0.017636565 0.07578776 -0.30867043 0.087031394 -0.11692891 -0.12788962 -0.038303938 0.06993874 -0.17989865 0.019709501 0.06083325 -0.0032455362 0.1773835 0.06253813 0.015851693 0.09537421 -0.037724137 -0.15316609 -0.026687326 0.11030131 0.012823264 -0.2572637 -0.16228737 0.1343278 -0.00035381044 0.039507408 -0.27967048 -0.23089269 0.006022867 0.09323533 0.1202233 -0.23888016 0.08700383 -0.1558783 0.016770512 0.0023388667 -0.056266006 0.024870029 0.12289422 0.2085129 0.07854306 -0.0827055 0.06920633 0.17821522 0.02219486 -0.07010668 0.10512258 0.060162205 -0.025510538 -0.22539766 0.13829643 0.042094618 0.058199503 0.05484518 0.25716996 0.10444607 0.006149847 0.24940103 0.22462521 0.09993177 -0.16600163 0.121749096 -0.19072035
von 0.0349103 0.22652064 -0.120449625 -0.01677495 -0.13607077 -0.21248776 0.24414018 0.51450956 -0.022207296 -0.21515025 0.059547022 -0.19521824 -0.058993597 -0.040920857 -0.14485238 -0.14926298 0.18486996 0.093962245 0.056854177 -0.12883988 -0.1073835 -0.007912829 0.19001931 0.03101035 0.11561222 -0.01724807 -0.34490177 -0.0852788 -0.0751189 -0.30330545 -0.104507506 -0.062377434 0.12471598 -0.0045576063 -0.024685683 0.21788067 0.09317087 -0.23987924 0.05157542 0.010200956 -0.044531696 -0.030927988 -0.012565314 -0.16984574 0.16856787 0.20885743 -0.053849675 0.013477598 0.13263565 0.1251281 0.03613203 0.12389888 0.03152379 0.111692384 0.0075988877 0.21205346 0.18016219 0.01599407 0.054064438 0.049156256 -0.10791847 -0.059171885 -0.018102687 0.023513675 -0.16127552 0.14561707 -0.04639497 -0.0377841 -0.037438136 -0.034986198 -0.030313235 0.12983899 0.26073816 -0.1519583 0.106201656 0.08242018 -0.058608312 0.123462304 -0.023307048 0.1549327 -0.044296507 -0.19425261 -0.0181325 0.4175379 -0.047268637 0.087817274 -0.06588898 -0.009840115 0.21957651 0.13486746 0.16026436 -0.09240797 0.13231497 -0.03342529 0.25317287 0.27698126 0.21378477 -0.23145622 -0.016047508 0.12056406 -0.02131671 0.014362803 0.08602705 0.13892294 0.024765803 -0.12404169 -0.10021298 0.008707397 -0.16219878 0.10142557 -0.21868806 -0.09660384 -0.025825646 0.08677589 0.0770928 0.034130286 -0.009103005 0.06904064 0.1684077 -0.30029368 0.2058386 0.1002173 0.19992308 0.03962537 -0.22597523 0.12053378 -0.03570439 -0.08235209 -0.038054075 0.21453996 0.16587304 0.16268076 0.05192398 -0.24402928 0.035846516 0.11304167 -0.039031964 -0.08778607 -0.1275885 -0.20209897 0.06656746 -0.3023199 -0.15777029 0.20531937 0.0859616 -0.065625675 -0.29143232 -0.16098502 0.17089012 -0.120060764 0.1051214 -0.34454578 0.009019992 -0.14874278 -0.0076338076 0.18833888 -0.16849962 -0.12351892 -0.06506338 0.28668922 0.010543206 0.16988967 -0.30124313 0.12561281 -0.115657896 0.13248271 -0.0554952 -0.073528245 -0.053509083 0.4276515 -0.19655678 0.10695633 0.12144385 0.09040588 0.05237664 -0.024032513 -0.047613014 -0.19737095 0.00990757 -0.076367445 -0.08714018 0.078860186 -0.1902208 -0.05017562 -0.0469855 -0.023600424 0.33197382 0.21434742 0.10349321 -0.20272078 0.0045403987 -0.000571484 -0.043211296 -0.0862992 -0.048115153 -0.20231542 -0.027836123 -0.14469932 -0.0748774 -0.09794418 -0.18948631 0.08547392 -0.07046213 -0.102724954 0.1280109 0.015548414 -0.09923047 0.06382035 0.035733037 -0.040367845 -0.028591529 -0.14281765 -0.10472473 -0.06327289 0.20725426 -0.261319 -0.1806058 -0.4243464 -0.33352587 -0.23336586 0.040279575 -0.10258076 -0.1604661 -0.111261934 0.0046358583 -0.14221938 0.004803989 -0.16786961 -0.15413971 0.14873672 0.17336126 -0.10229462 -0.026583038 0.17887852 -0.27765366 0.07286032 -0.08423444 -0.021394193 0.09313126 -0.36841676 0.10396145 -0.13977236 -0.14839485 -0.046446797 0.07818214 -0.20798108 0.02230668 0.07283505 -0.008286407 0.21024008 0.07286551 0.021098964 0.113347664 -0.044456292 -0.18230776 -0.031670716 0.12494518 0.016157662 -0.30596983 -0.18951662 0.16389133 -0.0018687525 0.047373317 -0.32564682 -0.26745114 0.0059855096 0.111680664 0.14122163 -0.28365055 0.10425673 -0.17849764 0.018566526 0.00480107 -0.07232159 0.030039014 0.1432938 0.24131334 0.09637738 -0.09489787 0.085836105 0.20885888 0.027377645 -0.08289541 0.12055042 0.07194804 -0.031276923 -0.26588207 0.16304477 0.053789955 0.06488741 0.06812228 0.3024276 0.12397285 0.007049989 0.29509777 0.26472434 0.11713189 -0.2002689 0.14363244 -0.22021827
was 0.03331496 0.19107674 -0.09877812 -0.016126392 -0.11273508 -0.1794664 0.20516537 0.4305448 -0.018467294 -0.18358478 0.050564896 -0.1678777 -0.052537497 -0.031137088 -0.12556484 -0.12120529 0.1536999 0.0815106 0.04473304 -0.10940877 -0.09420309 -0.0030438376 0.16034915 0.02891117 0.09236124 -0.012412568 -0.289001 -0.0755331 -0.06479735 -0.2501823 -0.08471826 -0.054476112 0.10832517 -0.0077586276 -0.021558389 0.18562803 0.078249425 -0.2000774 0.043641876 0.007832076 -0.035463758 -0.02310556 -0.0134146325 -0.14195442 0.14375672 0.1787749 -0.044086147 0.012768297 0.11623912 0.102778725 0.034435697 0.09971944 0.028921124 0.09675723 0.003507227 0.18013619 0.14873402 0.011014621 0.047071766 0.03819419 -0.09012345 -0.05000003 -0.016326776 0.025411231 -0.1330761 0.12052603 -0.035327233 -0.033896357 -0.03337556 -0.030839793 -0.028266326 0.11292875 0.220178 -0.13158919 0.0904503 0.073065385 -0.05141272 0.10386576 -0.019199258 0.12517314 -0.03614763 -0.16078857 -0.016639767 0.35399935 -0.042390145 0.07147332 -0.054652397 -0.006314068 0.18125385 0.119150266 0.13652293 -0.07292622 0.109841324 -0.0260433 0.2180878 0.23401421 0.17818324 -0.195571 -0.0103515275 0.09841501 -0.016595358 0.011927049 0.06941794 0.119599454 0.021502897 -0.10448699 -0.08193058 0.0030438842 -0.13476895 0.0862649 -0.18487655 -0.083552785 -0.019246925 0.071326 0.06134091 0.031814076 -0.008325516 0.05606346 0.14423862 -0.25392908 0.17341045 0.08743637 0.17130889 0.029872293 -0.19074552 0.1024071 -0.027191324 -0.06947556 -0.03224046 0.18009123 0.14166047 0.13911362 0.048690252 -0.20286842 0.027570767 0.100068614 -0.037575234 -0.07910033 -0.10718155 -0.16850892 0.0577347 -0.26023453 -0.12807573 0.17198926 0.073065825 -0.055867165 -0.2443435 -0.13514248 0.1400239 -0.10396965 0.093129955 -0.29316285 0.008296353 -0.12413175 -0.008528983 0.1576343 -0.14127326 -0.1034214 -0.060022365 0.24223782 0.013661304 0.14453726 -0.25414965 0.10757189 -0.09278762 0.11093429 -0.04632637 -0.06221261 -0.0474989 0.356195 -0.1648262 0.0914266 0.103052355 0.07747751 0.047819033 -0.016024612 -0.044403665 -0.16828336 0.013357155 -0.06609977 -0.07458414 0.065432616 -0.16199751 -0.042413216 -0.037082702 -0.020792376 0.2825658 0.17828745 0.08554112 -0.1701054 0.0073214048 -0.00043592864 -0.036378 -0.074671544 -0.042590637 -0.17080775 -0.024655461 -0.12346579 -0.060516007 -0.08316542 -0.15795831 0.070799544 -0.057524577 -0.08678256 0.10983348 0.016675316 -0.08876979 0.05478528 0.027048174 -0.033770073 -0.029893762 -0.124455474 -0.08924185 -0.052389015 0.17356856 -0.22277266 -0.1544583 -0.35616055 -0.27738345 -0.1926112 0.036092523 -0.08886901 -0.13177271 -0.09506563 0.005070085 -0.11862407 0.005620354 -0.14006947 -0.13338318 0.123055734 0.1453897 -0.086701825 -0.022819841 0.15373398 -0.23104066 0.061328385 -0.068566725 -0.020211274 0.0762163 -0.30734745 0.084081806 -0.114496045 -0.12916079 -0.041289985 0.06409124 -0.17491366 0.021020355 0.06473323 -0.005173195 0.1761435 0.0635849 0.013882893 0.09979473 -0.04250764 -0.15232158 -0.027621454 0.10560289 0.013144004 -0.2532861 -0.16150978 0.13682242 0.0009940842 0.039601523 -0.27768376 -0.23041326 0.0030808034 0.09095289 0.121775426 -0.24126245 0.088505305 -0.1505487 0.014761587 0.0031630285 -0.060673617 0.022130474 0.11944944 0.20499423 0.08235864 -0.07723562 0.070399806 0.1774582 0.0206325 -0.07249323 0.10460986 0.060388044 -0.027918203 -0.22009575 0.13184606 0.043759976 0.055636264 0.055460885 0.25535107 0.10371456 0.008904437 0.24761406 0.22149378 0.09789192 -0.16985407 0.12243281 -0.18826608
mit 0.029645056 0.1987531 -0.10754856 -0.014809155 -0.12258653 -0.18652064 0.21789283 0.4543624 -0.018711377 -0.18847904 0.05357139 -0.17381947 -0.053729787 -0.035535425 -0.1259226 -0.13361353 0.16529854 0.084161825 0.05290781 -0.11459527 -0.09343209 -0.004186264 0.16740973 0.033123385 0.098597 -0.0141624 -0.307746 -0.079513736 -0.06529454 -0.26601687 -0.09268087 -0.054516908 0.109952375 -0.004672274 -0.020698076 0.19156599 0.084932566 -0.21149965 0.04505506 0.011045998 -0.04175945 -0.02533714 -0.012389907 -0.14544132 0.14646892 0.190227 -0.049456753 0.01662918 0.12096196 0.11442754 0.034418177 0.10857171 0.029895093 0.098381765 0.0035478913 0.18830037 0.1627943 0.014238771 0.048742305 0.043460242 -0.09770486 -0.04939803 -0.018299785 0.021209942 -0.14501932 0.12791039 -0.04276785 -0.028994448 -0.036117308 -0.033581566 -0.031014325 0.11925035 0.23073229 -0.13642713 0.09558619 0.07155544 -0.053861037 0.115597166 -0.022857338 0.13602774 -0.037164826 -0.16681439 -0.013961239 0.3734673 -0.041117344 0.07764773 -0.061588008 -0.009683582 0.19164345 0.12267686 0.14496273 -0.07995206 0.11377522 -0.02756417 0.22720145 0.25055552 0.19004332 -0.20383278 -0.0123821795 0.10239371 -0.014948947 0.008367331 0.07546625 0.124761954 0.025768379 -0.10846025 -0.08271236 0.0069853393 -0.1466955 0.08622673 -0.19393748 -0.0846703 -0.018035997 0.077837236 0.06478578 0.030705843 -0.00795301 0.062401 0.15142283 -0.26642478 0.18739238 0.08608766 0.17474958 0.035848804 -0.19596584 0.104997955 -0.02893695 -0.07391501 -0.03507167 0.19133216 0.144274 0.1490295 0.046932384 -0.21914324 0.034074023 0.105875865 -0.034150053 -0.07853815 -0.114373475 -0.1811721 0.058489855 -0.27064422 -0.13687414 0.1866397 0.08152238 -0.05977774 -0.25718325 -0.14076549 0.15201335 -0.109106034 0.09706083 -0.30525908 0.006379741 -0.12826216 -0.010838968 0.16101776 -0.1533537 -0.11090521 -0.06263613 0.25706846 0.009893303 0.15171951 -0.2649407 0.11118107 -0.10408807 0.118088916 -0.04756627 -0.0622984 -0.048696596 0.3786966 -0.17663637 0.10083058 0.10961692 0.07843103 0.04848144 -0.019268736 -0.04225365 -0.17874214 0.011779716 -0.06844189 -0.07400561 0.07150696 -0.16957583 -0.049315926 -0.038611367 -0.022348423 0.29708833 0.1913075 0.092468515 -0.17472053 0.0049929214 0.0026387682 -0.041711953 -0.07462321 -0.04472898 -0.17944403 -0.024739973 -0.1290402 -0.06371768 -0.08772011 -0.17104048 0.07492207 -0.059868068 -0.09365384 0.1142087 0.015323895 -0.08867385 0.054189567 0.03212283 -0.03359517 -0.029127514 -0.13081682 -0.09253085 -0.05603787 0.1794832 -0.23683564 -0.15999807 -0.37610266 -0.29591635 -0.20717885 0.041224934 -0.0872657 -0.1441553 -0.10196571 0.0042279316 -0.12746565 0.0022673567 -0.14854644 -0.14122625 0.1282978 0.15313976 -0.089927405 -0.026403356 0.15526739 -0.24565053 0.067237124 -0.078263275 -0.018553842 0.08389583 -0.328333 0.0893418 -0.119782224 -0.13116916 -0.04020297 0.069223784 -0.18790755 0.01844129 0.065422855 -0.0039090877 0.18303892 0.07039885 0.014393202 0.10317151 -0.040394563 -0.16451381 -0.026154125 0.10966857 0.016261311 -0.27278158 -0.16753577 0.14258444 0.0034980597 0.042649623 -0.29322013 -0.24019995 0.0040575312 0.0948143 0.1287266 -0.24929085 0.08782632 -0.1562028 0.01910344 0.002873638 -0.061786182 0.027519874 0.12768185 0.2158933 0.08688768 -0.08455695 0.071173325 0.18037304 0.025215358 -0.07473292 0.10700826 0.06341145 -0.027815685 -0.2297243 0.14052255 0.04807966 0.057682592 0.06121096 0.27073038 0.10708378 0.002538681 0.25802547 0.23488057 0.106618725 -0.1734649 0.13067733 -0.19419089
