45 300
die -0.00012850003 0.00023694526 0.0016223992 0.0029342812 -0.0030057286 -0.0025023795 0.0022462932 0.00322115 -0.001646618 -0.0014538112 0.002633372 -0.000505391 -0.0015355789 0.002361923 -0.0016157492 -0.00056763546 0.001091546 0.00026617106 -0.002933267 -0.003285581 0.0024742067 0.0016210615 0.0022708448 0.0003535114 0.0020609803 -0.0011533862 -0.00039876217 0.0019427242 -0.0026288 -0.0013404255 -0.0025265235 -0.00035741224 0.0031054167 -0.0025704154 -0.0008253647 -0.00046152953 0.002775557 -0.0020426637 4.0111292e-05 -0.0015863136 -0.003221367 0.0016950638 -0.0028843118 -0.0015301142 0.00017207031 4.707787e-05 -0.002569416 0.0033278288 0.0017132338 0.0031929458 -0.0026556293 0.0015269943 -0.0015341184 0.00027623933 0.0028388756 -0.0014006029 0.0014566653 -0.002205912 -0.0010817611 0.0030831269 -0.0004813471 0.00010812458 -0.0013338028 -0.0024085941 -0.00058157137 0.0009561703 -0.00019499256 0.0019648646 -0.0010168322 0.0007211487 0.001912738 0.0028835204 -0.0004451234 -0.0031090889 0.0015233712 0.00013073726 0.0023184181 -0.00018441508 -0.000988318 -0.002980816 -0.00026728414 0.00095465296 0.001745716 0.0025600933 -0.0017805604 0.0006986086 0.002216204 -0.0016457427 -0.0009420395 0.0022873622 0.0005632644 6.267007e-05 0.001215369 0.00010680509 0.0033383402 0.0018177856 -0.0029456571 -0.0024418093 0.0002982802 0.0020929663 -0.0027999948 0.0012288659 0.001724381 0.001952437 0.002477413 -0.0021508478 0.00046522947 0.002004499 -0.0010640778 -0.0020026162 -0.00032723226 -0.00279693 -0.0018704784 0.0024177223 0.0011081744 0.0024587999 0.0022491291 0.0025922412 -0.0011556227 -0.00033561513 0.00086637796 -0.0013718917 0.0029653239 -0.0033102287 0.0022543678 0.0010155607 -0.0016136975 0.0013761399 -0.00052123953 0.0023577355 0.0034920038 -0.0013397433 -2.1571826e-05 -0.0020715047 0.0013256356 0.0011404206 0.0022227832 0.0020329137 0.0030507096 0.0029446287 0.0026403805 -0.0023170037 -0.0031062705 -3.3525237e-05 -0.0009928265 0.002668856 0.0018929894 -0.00060754415 0.0004767018 0.0005078736 0.0026372713 -0.0033594875 -7.5137104e-05 0.0010579374 -0.000310144 0.0027846424 0.00293268 0.0021269026 -0.00032184162 0.0025988785 -0.0027669112 0.0010286497 -0.0016718685 -0.0016232105 0.0011918008 0.0018261058 0.002596694 -0.001826141 0.0024063096 0.002360578 -0.0013294022 -0.0029199275 0.0018587605 0.0023151245 -0.00016749978 -0.002133212 -0.0023803252 -0.0008971643 0.0017318195 -0.0012103948 -0.003176478 0.0013185972 0.0014753612 -0.0021977297 0.00024350426 -0.0008542562 0.00021508429 -0.0031790542 0.00086026994 -0.0016300313 0.00051716104 -0.00046741343 0.00063245575 -0.002689181 -0.00087706564 0.0007443615 0.0018412973 -0.0008269088 -0.0031452694 0.0015325972 6.212373e-05 0.0009630141 -0.0022592666 -0.0005104569 0.0026986348 0.0023693424 -0.0012064395 0.0010496785 -0.002779603 0.0020368935 -0.0015972145 -0.0011941865 0.0030041377 0.0002897574 0.0025480534 -0.0021175398 0.0014994388 0.0031584047 -0.0029570803 -0.0017911361 -0.0023584298 -0.001529788 -0.0012184395 -0.0028947394 0.0026906787 -0.0016463938 0.0029908936 0.0017460024 -0.0022292964 0.0013206602 0.0019019231 -0.0025916963 -0.0024879423 -0.0007438544 -0.0030063048 -0.00045385625 1.00384195e-05 0.0011914732 0.0005493207 -0.00036718187 -0.0017701729 0.0005821759 -0.0004035671 0.002307484 0.001356117 0.0014280475 0.00050542643 -0.0008644403 -0.0013268235 -0.00032465305 0.00044355198 -0.0010009006 -0.0022113312 -0.0026321013 -0.0031368923 -0.0019944042 -0.000432192 -0.0014680384 -0.0022244388 -0.0013351131 0.001499059 -0.0012339486 0.0030178353 0.00027248784 -0.0026011239 0.0031237644 0.002571168 0.0019205147 -0.0025108615 0.0019616492 0.0013125989 0.0017941837 0.0014004207 0.0007162267 -0.0011152143 0.0029040733 0.0032582066 0.0013784603 -0.0011202804 -2.895224e-05 0.00045266395 -0.002852493 -0.0027588161 -0.0001189948 0.00026239996 -0.0018985446 -0.0016404657 -0.0024101178 0.0027580599 7.7439916e-05 -0.0014402237 0.0020173315 0.0031398209 -0.001201567 0.0028350197 0.0019132702 0.0019822207 0.0002147817 0.0027671265 -0.0025338857
, -0.0027151986 0.0033339364 -0.00018932519 -0.000753676 0.001659053 -0.001547195 0.0010628623 0.0026404527 0.0020592895 -0.002791412 0.0034081398 0.001547397 0.0012790716 -0.0018397813 0.002840977 -0.0006889055 0.003148672 -0.0018899441 -0.002958987 0.0021077152 0.00059695466 -0.00082394184 0.003208219 0.0033326724 -0.0033591208 0.00080860866 0.0019232248 0.0013319739 0.00051286846 8.262035e-05 0.00020523019 -0.0013413462 -0.0024881898 -0.0008575035 0.0012533163 0.0032060957 0.0032314118 -0.0021176352 -0.0031287412 0.0032721816 0.0011167359 0.0017606373 0.0021619624 -0.0010283435 0.0026944885 0.001152991 0.0009217244 -0.000632231 -0.000974731 -0.00061386195 0.0015190886 7.08209e-05 -0.0034112758 -0.0032290942 -0.0020342935 8.7582615e-05 0.0006202703 0.0032375858 0.0020122419 -0.0014910742 0.00016154196 0.0016704107 0.0026386196 -0.00017104845 0.0013202045 -0.0017547659 -0.00013636064 0.0028949308 -0.0009413569 -0.003266577 0.0020470764 -0.0011628314 -0.00034517044 0.0032777833 -0.00065475644 -0.0016769161 -0.0020109657 0.0024698514 -0.0020825556 0.00061627146 -0.0017415606 0.0020687114 0.0013869065 0.0011912085 -0.00032228453 -0.0008002145 0.0032614504 0.001681455 -0.0005891795 -0.0031410835 -0.0024541956 -0.00037115993 -0.00019792264 -0.000810044 0.0034237725 3.839493e-05 0.0020090006 -0.0025984517 -0.0008443004 -0.001910836 -0.0022756753 0.000413004 -0.002412962 -0.0007160931 0.0012419216 0.0018176546 0.0005483061 0.0007008434 -0.0015414198 0.002470119 -0.0023835541 0.0015518436 -0.002761198 0.0007711354 -0.0016973848 -0.0013402699 -0.0010631535 0.0020227458 0.002090406 -0.0018822677 0.00039026284 -0.0026568356 0.0028328642 0.0030510968 -0.0008974989 0.00033196306 0.00028188288 0.0017006833 -0.00280875 0.00037509046 0.0025414093 0.00092092133 0.00062164036 -0.0033998576 0.002905284 -0.001787191 -0.0010969891 0.0011766762 -0.00046473581 0.0002605124 0.0005932311 -0.0022730902 -0.00335001 0.003145511 0.002146733 -0.0022877578 0.0010072482 -5.726491e-05 0.0015526549 -0.0024928222 0.0014048789 0.0011730287 0.0033261115 -0.0016296435 -0.0004833066 -0.0024548464 -0.003369003 -0.0031146775 -0.00047078117 -0.0021187102 0.0017418064 -0.0021317368 0.00067906396 0.00037269923 -0.0011337715 -0.00026687616 0.0033369926 0.003197206 -0.0015764362 0.003266649 -0.0020422933 0.0019904382 -0.00096471567 0.001342673 0.0011412743 0.0024219472 -0.00082953135 0.0028407455 0.002570966 -0.0031697813 -0.0027542831 -0.0024876175 0.00074939325 -0.0010090483 -0.0025477065 -0.002948858 0.0031005272 0.00083857065 -0.003170521 -0.0016572609 0.0012828084 -0.0014719274 0.0016321834 -0.0014934938 0.0009195214 -0.002897727 0.002150296 0.0015569328 0.0002999887 0.0010627942 -0.002910228 0.00062089803 -0.00026706004 -0.0032034975 -0.0029366566 -0.00058423064 0.0015388883 0.0014748352 -0.00220037 -0.0023498975 -0.0017520225 -0.0009849531 -0.0025429567 -0.0032172282 -0.0008528975 -0.0029455312 -0.0023277558 -0.0021440173 -0.0009956352 -0.0007146213 -0.0029782816 -0.00010938966 0.0027606308 0.002494302 -0.0023575646 -0.0012905727 0.0012956132 -0.0032228518 0.0004153855 0.0021660076 0.002025624 -0.0030850237 -0.0015594722 -0.0026151438 -0.00018320068 0.0032148887 0.0021960244 0.0018408765 0.001807679 -0.0011960713 0.0033474662 -0.0024679757 -0.0025615306 -0.00067470723 -0.00021637607 -0.0012146585 -0.00016942497 0.00254453 -5.8447313e-05 -0.00050117954 0.0008705151 -0.0029621015 0.0028392843 0.0028004297 -0.00335722 0.0007946139 0.0035821374 -0.0025885026 -0.0024635412 -0.0027249744 0.0029089523 -0.00019737445 0.0033940256 -0.0030658601 0.00097148505 0.00084617443 0.00030549004 0.0009221328 -0.002819435 -0.0031023386 0.00076765637 0.0021652465 0.0026582745 0.002017401 -0.0003276152 0.0029363814 -0.003039874 0.0013096685 -0.00015474486 0.00123913 0.0025311555 -0.0022785903 0.0018335925 -0.0032411024 -0.0004797066 -0.002880843 -0.0017962768 0.0031744167 -0.0006359413 0.0010182842 0.0031496924 0.003167264 -0.002620493 -0.0007766439 0.003569765 0.0018952953 -0.00048300595 -0.0028594974 0.0010431652 -0.0025047872
. 0.0027226605 -0.0013613651 -0.0004075642 0.00028995876 -5.1740526e-06 0.00028958468 0.0020951962 0.00014876436 -0.0010705278 -0.00064221566 0.0021013846 0.0005032652 -0.0002473782 0.0032273494 -0.0016224135 -0.00027607317 0.0031591516 0.0022056573 0.00037993476 -0.0030311267 0.00039661914 -0.00081209745 0.003157856 0.00047968124 0.00043576673 0.0008018353 -0.0006831999 -0.0016365496 1.8979043e-05 -0.0007036496 0.00218915 0.0029542008 -0.00027278851 0.0009192661 -0.002051109 0.00068710576 -0.0022399665 -0.0029604952 -0.0019721652 -0.0029816786 0.0024188827 -0.0019209144 0.0027957647 -0.0024687254 0.0012512314 0.0033239066 -0.0026169217 -0.0032638113 -0.0014174678 -0.0008295405 -5.6198653e-05 -0.002937397 -0.0029734955 0.0009303333 -0.002723832 -0.0029638617 -0.00079752185 -0.0028192152 -0.0022939227 -0.00282729 -5.4742304e-05 -0.0015150465 0.0022504511 0.00060949934 -0.0011698516 0.0021206029 -0.001932752 -0.0014623916 -0.0024733674 -0.0014589838 -0.0005411951 0.0022153994 -0.0008912439 0.001630742 0.0023484153 -0.0025287848 0.0014220753 0.0021194387 -0.0010773347 0.0021643857 0.0020387457 -0.002133688 -0.0022904968 0.0010061407 -0.00048014117 -0.0019740833 0.0032912677 -0.0017355438 -0.002134053 -4.2949272e-05 -0.0008765267 0.00012607376 -0.0011526428 -0.00012730666 -0.00015018627 0.00035939162 0.002766292 -0.0019741396 -0.0005633271 0.001836599 0.0027657223 -0.0014831398 0.0029812788 0.0027893675 -0.0014768575 5.5515364e-05 0.0014884124 -0.0013156801 -0.0019356189 -0.0021362712 -0.0003707528 -8.7279324e-05 0.0014706883 -0.0007852859 -8.426016e-05 0.0008475904 0.0016148126 5.0575032e-05 -0.0020450423 -0.0031993208 6.3477804e-05 0.0022984298 0.0005809356 -0.0030001057 -0.0026504924 0.0022212921 -0.0012599615 0.0020369566 -0.0022140888 0.0029102308 -0.0020500862 0.0011687891 -0.00025776215 -0.0024050055 -0.001054641 -0.00025957383 -0.0018708137 -0.0004032977 -0.0026050906 0.0007825309 0.0030250102 -0.0008019651 -0.0003849031 0.0012473519 0.002933618 -0.0019603157 -0.0023561956 -0.0010383799 0.0030404313 0.0002274448 -0.0028550753 -0.0006004334 0.0031849428 -0.002595345 -0.0017909145 0.0031107909 -0.0030644217 0.0012283046 0.00015111841 0.002234311 0.0028228376 -0.0009962424 -0.0014117118 0.0030175257 0.0007102257 0.0021058365 -0.0031448926 0.0032774424 -0.00048890954 -0.0018907301 0.00091735844 -0.0001534546 0.0016027675 -0.0006775029 -0.0013252329 0.0007994503 0.002768964 -0.0016930512 0.0009318195 -0.002683461 -0.002318613 -0.00013661843 -0.0030233713 0.00088829984 0.00041785368 -0.0008943495 0.0018233105 0.003331414 0.002780573 -0.0006575952 0.000794161 -0.0013010893 -0.0027993724 0.0020614483 -0.00063559186 -0.00033998335 -0.0005681051 -0.0015176134 0.0013721624 -0.0013984023 -0.003209592 0.0029449386 0.0013951341 0.0030314347 0.0023001656 0.0009206454 0.00330603 -0.001369044 -0.0022852237 0.0013909024 0.0011914872 -0.0019982888 0.0031776766 -0.0012025286 0.00322335 0.0002029721 -0.0022479969 -0.00079030934 -0.0025654887 -0.0010711716 0.00033588833 0.0032202695 0.0031347196 -0.0022119237 0.0011811974 0.00071822363 -0.00071075535 -0.0031058548 0.00029596506 -0.002724636 0.0021748045 -0.0020205658 0.0018242069 0.0033271795 -0.00015588613 0.0015784804 -0.0005106506 0.002529282 0.0013772422 -0.0030709656 -0.00070633827 0.001178024 -0.00010458208 -0.00037196503 -0.00034001019 -0.000624388 0.00020606857 0.0014320774 -0.0013536443 -0.0012466257 -4.1380383e-05 4.4042745e-06 5.5894903e-05 -0.001608197 0.001358679 -0.00072268286 0.0008325887 0.00020300593 0.0019178056 -0.0023503334 -0.0022096003 -0.0014890301 0.003307623 -0.00068994885 -0.0032623867 -0.00018905153 -0.0014435063 0.0020805316 -0.0033439763 0.000962716 -0.0030745056 0.00046341104 0.0020161464 0.002517728 -0.0025758755 -0.0019365944 -0.0022555378 -0.002559707 -0.0032692365 -0.0007225601 -0.00023616312 -0.002435116 0.0022556784 0.00033794058 0.0018439052 0.0005014407 0.00022268077 -0.0024160969 -0.0007457704 0.0014657803 -0.0016303904 0.00047048912 0.0010182009 -0.00041729567 0.0034418176 0.0028782443 0.0008371553 0.002386201 0.0020038113 -0.0020036798
und -0.0016894976 -0.0021752722 -0.0026117065 0.002744089 -0.00062519894 -0.0023314466 -0.0013652683 0.0017893594 -0.00094473525 -0.0013211921 0.0005908842 -0.0009287595 -0.0005300938 0.00043345138 -0.0009886627 0.0028714251 0.0013329984 -0.0033356196 0.0020391338 -0.0023041044 0.00027153018 0.0014471657 -0.0017051595 -0.000663723 0.0026748586 -0.0014147466 -0.002559348 0.0030845918 -0.000768505 -0.0015693535 0.002858041 0.001411208 0.0014235297 0.0030497026 -0.0028336546 0.0018222035 0.00069628377 0.0013836983 0.0005766609 0.0014798032 0.0014923284 0.002049523 -0.0010635863 -0.0015407924 -7.2318064e-05 0.0008980153 -0.0010787022 0.0020675557 0.0014064321 0.0026153119 0.0008921311 0.0027113694 -0.0005231531 0.0026930997 0.0012449789 -0.0026502255 -0.0013507411 -0.000821425 0.0016658208 -0.0003294052 -0.00092582084 0.0026126555 0.003115159 -0.00046629767 -0.0017406865 -0.001517401 -0.0015722583 -0.0031686898 0.00042085146 -0.0014083555 0.00086618983 0.001903597 -0.0013405271 -0.0032202613 0.0005479977 -0.0022372385 0.0007718066 -0.0012413361 0.0023241662 0.00018540861 0.0012081454 -0.000922154 -0.0006048489 0.00261313 0.00051651563 -0.0019191791 -0.0025511575 0.00040106865 0.002184034 0.0018630676 -0.0029758967 0.0028646132 0.0013654926 0.0025253766 0.0032904607 -0.0023849616 -0.0030177345 0.0019222721 0.0031371543 0.0011466733 0.0023958348 -0.00050738524 0.0026491343 -0.0031535476 -0.0026958156 -0.0022495294 -0.0012995696 0.0016467982 -0.001295232 -0.0027525849 0.0027348106 -0.0012516691 0.0028698628 -0.0016274959 0.001313712 0.0016494745 0.0007794828 -0.0009275845 0.000980241 -0.0027939053 -0.0008950468 -0.0008065861 0.0024824936 -0.001175224 -0.0022077598 0.0014654356 -0.0001499223 -0.0012413923 0.0023244622 0.0013310288 -0.0012540634 0.00030493902 0.00310886 0.0025506357 0.0021248918 0.0016376539 0.0007613598 -0.0006165437 -0.0021697807 -0.00014636357 -0.0005171432 -0.0001853674 -0.002090903 0.0024944926 -0.0021932577 -0.0024052202 -0.0009444796 -0.00053454965 -0.0025517263 0.00020348089 -0.0017706767 -0.0004984504 -0.0024537353 0.00061311707 0.0010912112 -1.1402574e-05 -0.0018303152 -0.000592208 0.002331143 0.0012524592 -0.0029217962 -0.0011449993 0.00074687816 0.0007385577 -0.003136402 0.0015367295 -0.002888796 -0.0024324548 0.0011146772 -0.0011248442 0.0011608489 0.002969411 -0.0011799465 0.003149541 0.00060138 0.0033391712 0.0018860941 -0.0030754148 -0.0010993348 0.0021921548 0.0018593058 0.0029113938 0.0022452855 0.0026719086 -0.003312436 0.0013734052 -0.0015979005 0.001213254 0.002009636 0.0014586952 0.002565535 0.0005144523 -0.00045497023 0.0018876381 -0.0018769425 -3.1647105e-05 0.003169871 -0.0018315753 0.0012894744 -0.0027046655 0.003290616 0.0026985935 0.0004304356 0.0016864527 0.0005205208 -0.002181205 -0.0004783913 0.002212218 -0.0015430221 -0.001341458 0.001622782 0.00085845805 -0.00065779214 -0.0009471267 0.002011011 -0.0019377663 -0.0011705594 -0.0022036151 -0.0014501393 -0.0028754985 -0.0014735113 -0.0028114754 0.0004948982 -0.0028889051 -0.0032971073 -0.0027426328 -0.00218936 0.0022252908 0.0012510986 0.000116271665 -0.0009559012 -0.002502463 0.00018024222 0.00020134462 2.9981116e-05 0.00029613107 0.00031511817 1.0132073e-05 -0.0026600615 -0.0019748658 -0.002765018 -0.00041992235 0.0005661945 0.002484498 -0.00065241614 -0.0007960139 0.003180866 3.0451547e-05 -0.0007482205 0.0028807344 0.00088238396 -0.001823622 0.002255373 0.0014739478 -0.0023627912 -0.00011794266 0.00033529327 0.0019144826 -0.0005867996 -0.00097119436 0.0006053064 0.00029267487 0.00046467799 -0.0009786492 -0.0020668502 0.0024135297 0.0025347562 0.0027843586 -0.0029513254 0.00088461174 -0.0012111017 0.0032185065 0.00095026905 0.0015658033 0.00077249703 0.002235906 -0.00189025 0.0026701821 -0.0008688783 -0.0015349386 -0.0006679008 0.0032350232 -0.002302841 -0.0007421628 0.0022772674 -2.0003134e-05 -0.002112947 -0.0021331601 0.002966014 0.0021618342 0.0016024093 -0.0010602812 -0.003064517 0.0013318912 0.0024409823 -0.0018522864 -0.0026208095 -0.00097467215 -0.0016440077 -0.00083055045
unser -0.0006370414 -0.00170934 0.0031248403 -0.0031190885 0.001513971 0.0017511602 -0.0004432187 0.0030840936 0.003294071 -0.001892037 -0.0019518038 -0.0022530172 -0.0026408362 -0.0009542833 -0.001863762 -0.002772087 0.0003008167 0.00097505335 0.0020845265 -0.00092949806 -0.0014733564 0.00039563753 0.00013638964 0.0027446784 3.5395762e-05 0.002410563 -0.0027932033 0.0028199758 -0.0006592997 0.0028908711 -0.002548102 0.0005832681 0.00033529437 -2.1925905e-05 -0.001712182 -0.0030256347 -0.0023954294 -0.002680026 0.00064843544 0.00015964238 -0.00060919236 0.0023794873 -0.00082109624 -0.00047204868 -0.0029107283 -0.0032567407 0.0029755917 -0.0018834745 -0.002107096 0.0017721571 0.0022483526 -0.0022642775 0.0002725295 -0.00199592 0.00055272545 -0.0013969704 -0.0011672487 0.0007452045 0.0029209945 0.0022349632 -0.0032112494 -0.0018701628 0.0026348813 0.00072000263 -0.0014465747 0.00024344362 0.0032087173 -0.00032727825 -0.0031767664 0.00053307525 0.0021075006 0.0021324635 0.0013828942 -0.0019017636 -9.707482e-05 -3.9770224e-05 0.0014738375 -0.0026465505 -0.002707886 6.8348214e-05 -0.0028629808 0.0019411076 -0.00015524289 0.0034057705 -0.0017518805 -0.00013755899 0.002638237 -0.00137131 -0.0016421967 0.00053764763 0.0008930786 -0.00086113886 0.0021698428 -0.002540561 0.0011775171 0.00020721866 0.0029156718 0.0019692362 0.0022741193 0.0026031202 -0.003139345 0.0031874173 -0.0025849408 -0.00086301984 -0.0016377871 -0.0016920116 -0.0026446125 -0.0025930929 -0.0015595983 -0.00041859754 -0.001769662 0.0020415362 -0.0031698456 -0.0017451743 0.0031407948 0.0023494172 0.0025473018 0.0014433931 0.00020830137 -0.002045258 0.0020413876 0.0009225391 0.0026136728 0.0021177735 0.002649817 0.0029094731 -0.003292156 -0.0022811403 0.00046167124 0.0021901906 0.0025042705 0.0018805335 0.0026104285 -0.0017690868 0.0022158043 -0.0012951879 -0.0030425077 0.0030460698 0.000404615 -0.00096708053 -0.0008186894 -0.0014132852 0.0015871639 0.0015038927 -0.0008708477 -0.0024407147 -0.0012190379 -0.00014319805 0.002026948 -0.0009795513 -2.411056e-05 0.00023146713 -0.0023639456 0.00065272895 -0.00047312933 0.0009352657 0.0015895291 -0.00046880307 -0.0009580427 0.0025921392 0.0017005538 0.0022228553 0.0014704146 0.0029190502 0.0024903235 -0.00034174777 0.002916033 0.0015712254 0.0017899846 -0.0004050177 -0.0007152162 -0.0014743696 -0.0028237805 0.0010538702 0.0029994664 0.0030052054 -0.0006522519 0.0019972366 0.0012783108 -0.0014262211 0.0006606506 -0.0017878625 0.0026900938 0.0017881809 0.0010120958 0.0013091265 0.0029589853 0.0024701115 -0.00028341572 -0.0023677526 0.0028458228 0.0024320697 0.0005442498 -0.00046629432 -0.0019638475 -0.0015591651 0.002897422 -0.0010541424 -0.0021043164 0.0033015565 0.0025767307 0.0030270368 0.0003847071 -0.0027919598 0.0028534057 -0.0012633903 0.0019288574 0.0015241341 0.0032284767 -0.003113543 0.0030520826 -0.0031492359 -0.0023316974 -0.0030349782 -0.001824294 0.00242253 0.002984747 -0.0011621066 0.0011963429 -0.0012447158 0.0026327248 0.001984055 3.2517205e-06 -0.0012398042 -0.002408514 0.0015723691 0.0005430816 -0.00087596977 0.0025899273 -0.0013561185 -0.0030116718 -0.0007950226 2.9311348e-05 -0.0021847084 -0.0018761546 -0.0028098472 0.0031218359 0.0025075863 -7.330964e-05 0.0024198827 0.0026853997 -0.00025982398 0.002167628 0.0012721554 0.0017045665 0.0023871474 -0.001573097 -0.00071513344 0.00033394975 0.0014248248 0.0010972049 0.0016594866 0.0015897307 -0.0028344463 -0.0010976293 -0.002413713 0.0032834446 0.0016633987 2.0978505e-05 0.0013418496 -0.0025297767 -0.0020877412 0.0011020257 0.0020937405 0.0012492415 0.0019980683 -0.00064564694 -0.0010760779 -5.2416135e-06 -0.0010556742 -0.001838358 -0.0025808376 0.002178494 -0.0003388126 -0.000643244 -0.002562123 0.0031349452 0.00033290626 0.0005309082 0.0008202796 -0.0024549533 0.0005490898 0.0009812023 -0.002868489 0.0016049924 0.0008125669 0.0024818222 0.0016857567 -0.0010117157 -0.0023793688 0.002402048 0.00067511253 0.0017663393 0.0021734491 0.0006970494 -0.0020025873 8.934027e-06 0.0027708581 -0.0020136181 0.003083565
sein -0.0023951097 0.0014924377 0.0006733301 0.0024527463 -0.0015935025 -0.0015876302 -0.0019729817 0.0012239058 -0.0014846083 0.0027433876 -0.0013249262 -0.0030461175 -0.0016248839 0.0022282866 -0.0021248953 -0.0017488179 -0.00235358 0.0019587828 0.0010293414 0.00087986066 -0.0010300094 0.0019807839 -0.0020403126 -0.0005988311 -0.0020167334 -0.0003489006 -0.00072867447 0.00285192 -3.245081e-05 -0.0028846525 -0.0018279341 -0.002313051 0.00085659075 0.0030990865 -0.0019587842 0.0028441886 0.0029037907 -0.0024141541 -0.0029539047 0.0031558005 0.0027783874 -0.0015518318 -0.0022259718 0.002572499 0.0013373514 0.00277951 -0.002553536 -0.0031118577 0.00054820016 -0.0031987955 -0.0015970125 -0.001141097 0.0031336618 0.002872795 -0.0009356299 0.0019934317 0.0027356315 -0.0007269182 0.0032240204 0.002380391 0.000700617 -0.0012775633 -0.0016770766 -0.0009526203 0.0025768776 -0.0019873457 -0.00092117046 0.0031376914 0.0010949523 0.0020039307 -0.0026306042 -0.00018211176 0.0018661676 -0.0015979852 0.0025289017 0.0030689023 -0.0002165552 -0.000643352 -0.0002742781 -0.0019631877 -0.0027893023 -0.0004907126 -0.00086998584 0.0015892107 -0.002230795 0.0018515557 -0.0021572856 -0.0026405775 0.0028706489 0.0029787591 -0.0011395414 0.0011568005 -0.0019093335 -0.0029027145 -0.0017686789 0.0023234566 0.0021527985 0.0031116672 0.0023505972 0.002245767 0.00046856212 -0.0032717611 0.0015304576 -0.00016145922 0.0021204425 0.00053873844 -0.0009863074 0.0025905028 0.00045007304 3.130824e-05 -0.0016346661 -0.0028199435 -0.0025986223 0.0029337194 -0.0029809147 0.0030438046 -0.0031059196 -3.345406e-05 -0.00057894306 -0.0030546992 0.0029267445 0.0023210195 0.0010915999 0.0015985649 5.114493e-05 0.00316055 0.0023538487 -0.0033374354 -0.0014524014 -0.00036012614 0.0011062787 -0.0013770956 0.00057037396 -0.002722439 0.0009585378 0.0016805138 0.0016238561 -0.00104957 -0.002882363 -0.003151387 -0.00023999924 -0.0024386537 -0.0023111145 0.002087445 0.0024238415 0.0007161335 -0.0026834877 -0.0019415349 0.0026781424 0.0012628024 -0.0017241803 -0.0025681301 0.00025787647 0.0011090752 0.0006836914 0.0010301222 -0.0019153438 -0.0033184036 -0.0023883549 0.00010698328 0.0015780847 0.0014838787 0.00057239225 0.0017680974 -3.665263e-05 0.0013896889 -0.0030367423 0.002626142 0.0020281787 0.0018058163 0.0023425461 0.0028135607 0.000280866 -0.0004903264 0.0002218891 -0.0030685898 0.0027929551 -0.0021683178 0.002820289 -0.0014176286 0.00019142772 -0.003034768 -0.0032664116 -0.0026479876 -0.0026706157 4.091674e-05 -0.002292857 -0.0015904435 -0.0017730786 -0.0014457892 0.0024205907 0.0016607674 0.0028407252 0.0023381598 -0.0018814959 0.0023337794 -0.0030681172 -0.0008901555 -0.002572511 0.0014202297 0.0006022344 0.002311862 0.0009889512 -0.0023643977 0.0026457421 -0.0020410537 0.0030242514 0.0010725632 -0.0013455773 -0.0015807135 -0.0015029829 -0.002133867 0.0030796162 -0.0008882301 0.0026273902 -0.0032830064 0.00059125334 -0.00050974963 0.0024289675 -0.0030815918 0.0024860057 -0.0016473739 -0.0020106526 -0.0019114207 -0.0011076701 -0.0011590518 -0.0009759841 -0.0025057187 0.00020323343 -0.0002011725 -0.000516235 0.001189141 -0.0025692412 -0.0010391852 0.0016357085 0.0028855847 -0.003194844 0.0024504373 0.0018127924 -0.0013338212 0.0029144902 -0.0030791664 0.0023731766 0.0018281937 0.00045661404 -0.0017854617 -0.0013856111 -0.0011018992 0.00059009093 0.0005457483 0.0024380272 0.0032659795 0.0030358275 -0.0013589293 0.0031580331 -0.00022165607 0.0017170595 0.0008402384 -0.00026686225 0.0011784094 -0.0017375594 -0.0019030889 -0.0024039452 0.0005137817 0.0020728428 0.0002860012 0.00044694098 0.0011252427 0.0026021234 -0.0025541491 0.00075554295 -0.0024437339 0.0012348325 0.0032051832 0.0024844748 0.002204047 0.002700299 0.0022468949 0.0021926828 0.0028697343 -0.001634528 0.003059851 0.00166972 -0.00073602254 0.002750973 0.0017061485 0.0031788126 0.0009684337 0.003289649 0.00040658237 0.003090135 0.0012664198 0.0022406038 -0.001125056 0.002369455 0.0024905454 -0.00068400236 -0.00059929374 0.0012257086 -0.0024486927
eine 0.0032767814 -0.0031320427 -0.002228713 0.0008610321 0.0022215233 -0.0018757171 0.0009891115 0.0031806757 -0.002247326 -0.002172614 -0.0015260215 -0.0012275536 0.0006076429 0.0033325294 0.002154492 0.00014153028 0.0009256935 0.002790142 0.0029217675 0.0018132887 0.001995816 -0.0025917173 -0.0012464686 -0.0018191367 0.0019941765 -0.00075792265 -0.002985707 0.0025460944 0.0027391994 -0.0011444178 0.0030308224 -0.00028031346 -0.0012609725 -0.00020807353 4.1984724e-05 -0.0010486145 0.0009989112 0.0018580101 0.0022887988 -0.0029609601 -0.00073082995 -0.001811273 0.0025492667 0.0021117944 -0.0013367488 0.0008772834 -0.0019898494 0.00013855903 0.0031901738 -0.00080056314 -0.0016895853 -0.0024749616 -0.001075949 -0.00029490597 0.001171706 0.0033069383 -0.0011514856 0.00068942027 0.0032973664 0.00046958632 0.00037515245 0.0032644928 0.0031409487 0.0026756001 -0.002099033 0.0034079943 0.0020089783 0.0031094686 -0.0007399877 0.0010943793 0.002338976 -0.001244082 0.0022527452 0.0008463824 0.0031475157 -0.0010497503 -0.0011466977 0.0021403555 -0.0031211143 -0.002455873 -0.002173019 -0.00023741311 -0.00083837187 0.0024136142 0.0031501227 -0.0002651486 0.0006058744 0.000651206 -0.0006329617 -0.002684181 0.002484594 -0.0014398057 0.0015490766 0.0030478297 0.0011041955 0.0011244157 0.0013993043 -0.0009716153 0.0012668002 7.273573e-05 0.0019201251 0.001826137 0.0005911946 0.0019477622 -0.002990703 0.0021391863 0.0031442181 -0.0014232742 0.00046217552 -0.0017008642 0.00021318198 0.0009317448 0.0026999053 0.00021946874 0.000826997 0.0004690821 0.002795908 -0.0018500518 -0.0020157904 -0.0013145203 -0.0007272156 0.0017590094 -0.002594857 -0.00095989555 -0.002738659 0.0017485719 -0.00084788725 -0.003063225 0.0013698437 0.0030820828 -0.00089214236 -0.0018779001 0.0011119053 -0.0002853528 -0.003308008 0.002924115 -0.0025087777 -0.001650838 -0.0009755328 -0.0019133444 0.0005716651 0.0032456769 0.0014753826 0.0027682928 -0.000108641 0.00022735904 -0.00094580307 -0.002997372 0.0011380801 0.0006418064 -0.0031122973 -0.0017691853 -0.003224218 -0.0019857152 0.0013502031 0.0028789972 0.0013065708 0.0007488061 0.002640248 -0.00036293938 -0.00040719722 -0.00295621 -0.00012903522 -0.0007978884 0.00013138614 0.0024497183 -0.002351902 -0.0012377574 -0.0022745691 -0.0010824195 -0.0011790971 0.0007050789 0.0011422276 -0.0015626556 -0.001457738 0.00043158143 0.0018018661 0.0017696767 -0.0009611715 -0.0014408996 -0.0019326394 -0.00016724136 0.00054270634 0.0004789706 0.0023496533 -0.0010290557 0.00013286945 -0.0017560121 -0.00043320755 -0.0026150912 -0.00021756487 0.0004675428 -0.002921891 0.002882054 -0.0030508705 -0.00330886 -0.0028115988 0.0024352039 0.00183673 0.003110936 0.0008325157 0.0002481634 -0.0008430076 0.003090561 0.001011657 0.001325325 -0.00036878255 0.0003985345 0.002188928 -0.00026258934 0.001070225 -0.00032256666 0.0016966369 0.0012038838 0.0008908457 -0.0018521387 -0.0017076496 0.0013265503 -0.0020707366 -0.00012024052 -0.00022245602 0.0012180859 -0.0027832333 0.0029269983 -0.00044541934 -0.0018033779 0.0014782726 -0.00067569676 -0.0026252065 -0.0015018221 -7.925205e-05 -0.0030568435 0.00017078304 0.0008691609 -0.001165066 0.00092925265 0.0009175552 0.003395494 0.00053783256 0.00061637274 0.001008533 -0.00070896855 -0.0029756562 0.0026930673 -0.00065975724 -0.003299722 -0.0021735688 -0.0012868443 0.0013978366 0.0016920423 0.0020098395 -0.0023479566 0.00033174685 -0.00093323947 -0.001807626 0.0023181327 0.0014467821 -0.0010627671 -0.00281353 -0.0017847989 -0.00015364801 0.002600719 0.0021834883 -0.0029772248 -0.0033153144 0.0023542407 -0.00076755125 -0.0011638722 0.0017589306 -0.0019323279 0.0017014637 -3.5709203e-05 -0.0022924733 -5.5703396e-05 0.002079997 0.0031723343 0.0007617343 0.0017634666 -0.0017605742 -0.00027975548 -0.0017256618 0.00036063645 -0.0005942977 -0.001251369 -0.0024436926 0.003221448 0.0009494971 -0.00071865594 -0.0014203229 0.0025960526 -0.0021071522 0.0011319311 0.00031038176 0.0028825998 0.002404562 -0.0008767243 0.0008691757 -0.0005449013 -0.0031259623 -0.0010070761
werden 0.00044417172 0.0022623178 0.003295459 0.0030002901 -0.002637062 0.0021014586 -0.0018607038 -0.00020730497 0.00016860632 0.0020950707 0.0015836435 0.0015372016 0.0031494317 0.00021086047 -0.002007399 -0.002106098 0.0022113177 -0.0017916036 -0.0010417155 0.0012987432 -0.0007516274 -0.002041353 -0.00075408636 0.00045594698 0.0006975272 0.0020195178 -0.0017875673 0.001050123 0.0023645556 0.00071428774 0.0017831551 -0.0016321638 0.0020171355 -0.0025889622 0.0011503012 -0.0030199839 -0.0008183527 -0.003074408 -0.00052614376 -0.001788171 -0.0013234903 0.000385408 0.0009522728 -0.0005473631 -0.002642418 -0.0019051424 0.0002484828 -0.0012725776 -0.003123461 -0.00020372705 0.00223898 0.0020044 -0.0033726785 0.0010382402 -0.0019866948 -0.0030170658 4.6510064e-05 -8.633669e-05 -0.0022873543 -0.0021036193 -0.0007830404 0.0023704665 -0.0024906471 0.002626541 -0.00020389512 0.00042694152 0.003209853 0.0016411794 -0.0012372335 0.0012288387 0.0012185937 0.0021613666 4.02309e-05 -0.0014897741 0.00047348754 -0.001840693 0.00040287198 0.0016897729 0.0016578129 0.0030264023 -0.0025036323 -0.0017901442 0.002136666 0.00056851225 -0.0021617268 0.00033175416 0.0009791839 -0.0008682163 -0.0016092825 0.0016730963 0.0032239594 -0.0024680004 -1.32202385e-05 -0.00084839284 -0.0020555526 -0.0003924481 -0.0017353871 0.0029774953 -0.0019380703 0.0012242151 -4.942346e-05 0.0014046138 0.00070094405 0.0033562381 0.00021267481 -0.0018623569 -0.00034755963 0.0006916632 -0.0011886874 -0.002594226 -0.0019638455 -0.0022483217 0.0021105995 0.0013374562 0.0027193213 0.0021956016 -0.0020440547 0.0009586671 0.0028726389 0.00045498266 0.001068056 0.0019928694 -0.0028739094 0.0030304615 0.0022736234 0.0028616085 -0.0027366122 0.0020186407 0.0022266961 -0.0003922409 -0.0020075089 0.0018272623 -0.0022097325 -0.0018739909 0.0012043794 0.0027880236 0.002872136 -0.0014597074 -0.0031202184 0.0031313342 0.002099052 -0.0013304042 -0.0028588818 -0.0015237399 -0.001293975 -0.0010728958 0.00022719256 -0.0001397065 -0.0010494925 -0.0020426537 0.0031651934 -0.0016633878 -0.0024106642 0.0025074773 0.0008326376 0.0028749502 -0.0015355204 -0.0023251292 0.00028169178 -0.00037199393 -0.0030964906 -0.00056551833 0.0009615759 0.002226275 0.002284459 0.0010844956 -0.0014723351 -0.00055984745 -0.0013327703 0.0020211725 -0.0021762133 0.0006961798 -0.00042173103 -0.0018692169 -0.0023731329 0.0019784356 -0.0027979764 -0.00025520526 0.00096373336 0.0025708901 -0.0024674763 0.001119628 0.0031968607 -0.002361706 -0.0012704706 0.0016274712 0.0018501425 0.0005912969 0.0026364569 0.0002599968 0.0006975048 -0.0005048334 -0.0027632823 0.0010597383 0.00067034207 -0.0029975614 -0.00020271854 1.1089094e-05 9.707784e-06 0.0029209363 -0.00083711476 -0.0020015938 0.002503862 -0.0024538673 -0.002925208 -0.0006414963 -0.0027629118 0.0002101392 0.00063800375 -0.0008388904 -0.0021858523 -0.00018595024 -0.00041292564 0.0011511581 0.0027452267 0.0019080704 0.0027150502 -0.0030807296 0.0030707298 -0.000843136 0.002893497 0.0008428462 0.0011981335 -0.003209659 -0.0031461238 0.0029719782 -0.00088623684 0.0009275622 0.0021070407 -9.992234e-05 0.003287579 -0.00041134542 -0.003238345 -0.002316146 -0.0004213308 -0.0028482515 0.0025428634 0.0012571963 -0.0028717637 0.0027852033 0.0030374848 0.0019297305 0.0022549995 -0.0031628893 0.00018615118 -0.0031155352 -0.0012218712 0.000115781375 -5.319154e-05 0.00050797354 0.0010690216 0.000653306 0.0018520436 0.0024920974 -0.0020175176 0.0026506963 0.0020882704 0.003249459 0.0014938669 -0.0011531365 -0.0012139987 -0.00020423195 -0.00043937593 0.003182035 0.00028939208 0.0013341977 0.0011763999 -0.002886504 0.0021353539 0.0027378013 -0.00055365975 0.0008141676 -0.0021469973 -0.0020090668 0.00271296 -0.00095398846 0.0022708306 0.00057391264 -0.0007394841 0.0010076741 -0.0013165943 -0.0006039946 0.00045279716 0.0016115909 -0.00054041675 0.0002336947 -0.002678979 0.0031878597 -0.0029274405 0.002365113 0.0013439696 -0.0022675446 -0.0017179693 -0.0025767009 -0.0016143211 0.002429448 0.0032319576 0.00073363737 0.00024094924 0.0030731086
dass -0.0016478809 -0.00033564726 0.0010483041 -0.0021736135 -0.0031882622 -0.0031437818 0.0030672604 0.0018964114 -0.0015790104 -0.0028753858 0.00053844485 0.0009545442 -0.00042305913 0.0005031749 -0.0014352046 0.0016000276 0.00056980876 0.002932149 -0.0034137995 -0.0018092644 -0.0030230614 -0.00015554662 -0.0026013616 0.0017365238 -0.0021713169 -0.0019918287 0.0016463988 -0.0027128982 0.00043906062 -0.0024415075 0.00328214 0.0028599189 0.00054916675 0.0018759109 0.0015166707 -0.0019028503 0.003309762 -0.0032845978 0.002672935 0.00092721055 -0.0010179568 -0.0011744817 0.003054763 -0.0018541482 0.0028137546 -0.0019260856 0.0027829728 -0.00014247397 0.0026732848 -0.0009974036 0.0020265856 0.0029379975 0.00077048695 0.00043663324 0.0016735657 0.0027114337 0.0028437253 0.002869087 0.0023981577 0.0026418164 0.0028997064 -6.683784e-06 -0.00030547119 0.0006271845 -4.0437077e-05 0.00028677858 -0.0028238408 -0.0031327775 -0.0008260258 0.0029547787 -0.001176742 -0.0022751733 0.0016460307 0.0003481817 0.0006494949 0.001183718 0.0010964161 0.0019613025 0.0003408942 0.00026305934 0.003017494 0.0009329714 -0.0015948481 0.0022882526 0.0017870994 0.0009931235 -0.00094759074 0.0010916705 0.0021541966 0.0023589993 0.00031733903 -0.0028488075 0.00010308134 0.00013790194 0.001381046 -0.0030972594 0.0032652447 -0.002368121 0.0019153577 -0.003169218 0.0032502427 0.0024310255 0.00042070376 -0.001119086 -0.000141309 0.00010299192 -0.0020801546 0.001907929 0.00073032174 0.0012803678 -0.0025150052 0.0028445262 0.00016248383 -3.308526e-05 -0.003046566 0.0013785652 0.0022436585 0.0024998821 -0.0020856361 -0.0026979393 -0.0018065706 -0.00014433711 -0.0027024664 -0.0027589905 -0.0006406671 0.0004039632 -0.0031553397 -0.0012724411 0.00022538335 0.0023246398 0.0006655118 -0.0001527559 -0.002421324 -0.0023528193 -0.0002092512 0.0025878274 0.0017791776 -0.0004962982 0.0003157166 -0.0032708498 -0.00045764662 -0.0015452595 0.0018926566 -0.0007286144 -0.0015470469 -0.0031552804 -0.00044388312 -0.0024453248 -0.00056702795 -0.001401218 -0.0007670798 -0.0011705015 -0.0027034336 -0.00046619185 0.00054652756 -0.0013502031 -0.0026047667 -0.0012279529 -0.0030704578 -0.00023956916 0.002006516 -0.0010180158 0.0009961436 0.0017148516 0.002826098 0.0018931349 0.0031706241 -0.0031558098 -0.0026887362 -0.002170178 -0.0025510003 -0.0026482013 -0.0025737882 -0.00091496226 0.0005073397 -0.00091732806 -0.0029529633 0.001637078 0.00032301527 0.0015265715 0.0023627952 0.0025598928 -0.00034919503 0.0011910948 -0.0017908677 0.0005565187 0.0016295775 0.0033551648 -0.0010863079 0.0009241994 -0.0018384326 -0.0007052869 0.0026637272 -0.0013213617 -0.0003790671 -0.0031738211 -0.0031379936 0.002950055 -0.0018870011 0.001707435 -0.0023424397 -0.00085003255 -0.002665137 0.0024722083 0.0021057813 0.0017205531 0.0028163446 -0.00016105187 -0.003119308 0.003027 -0.0016769477 0.0025397555 0.0018069058 -0.0003691451 -0.0025316863 -0.0005469916 0.001977472 -0.0024105357 0.00040429606 -0.002698686 0.0029106142 -0.00090758025 0.003162362 -0.0019227657 -0.0032170287 -0.002897374 -0.0012718163 0.0015406188 -0.000109097375 0.0030697645 0.0010765652 0.0011928785 0.0009789661 0.002754261 -0.0008657005 0.0025183759 -0.0031143758 0.0010276769 -0.00018104231 0.00010900728 0.0023483462 -0.0009585512 -0.0008353067 -1.2630362e-05 -0.00016007769 -0.0012519946 0.0020916364 -0.002162767 0.002683909 -1.789126e-05 0.00085338566 0.0010037347 -1.2366461e-05 0.0005601904 -0.0010971598 0.0015877453 0.00017365417 -0.0011087096 -0.0029556726 -0.0033876654 0.00014156774 -0.0019077408 -0.00024167998 -0.0015218244 -0.002974853 0.00033866288 0.0019871858 -0.0006767635 -0.002499595 0.0010625091 -0.00012625805 -0.0017998659 -0.000363235 -0.0001773165 -0.0010865862 -0.0032621818 0.002564613 0.0013012871 -0.00092300936 0.0024194557 0.00017884864 0.0023663822 -0.0005150519 0.0024703625 -8.890535e-05 -0.0020247516 -0.0016061887 0.003238308 0.00018571941 0.00036111852 0.0028566038 -0.002029421 -0.0005537446 -0.0026519152 -0.0021303399 -0.0027838217 0.0013339468 0.00092744996 0.0018967291 0.00075931306
wir 0.0007418347 0.0020479283 -0.0007747033 0.0009947009 0.0029044973 4.0663446e-05 0.0021789938 -0.0020815744 0.0022243203 0.0014108977 0.0018377053 -0.003318218 -0.00015277487 0.0011968777 -0.0019398915 -0.0022095682 0.0022317993 -0.00230793 -0.0018559875 0.0026161573 -0.0023156628 0.0027883898 0.0002334344 0.0015488237 -0.0010495717 -0.0018203591 -0.0030439259 -0.00019345367 -0.0017970734 -0.0010591963 0.0026959246 -0.0025808385 -0.0021649837 -0.0018479312 -0.0022337765 -0.00280247 -0.0002965932 0.0030879446 0.0026829112 -0.0017474316 -0.0027190743 -0.0007263634 -0.0030578473 -0.0017457169 -0.0018496984 0.0011231925 -0.002527968 0.0005041604 0.0008091706 0.0018601078 -0.0006236384 -0.0032526958 0.0016218394 -0.0019659437 0.001619974 0.00072901684 0.0029007902 0.0005577714 -0.00052500353 0.0021157726 -0.0023060138 -0.0028008095 0.0013089139 -0.00073743064 -0.0014575957 -0.000544859 -0.0032176452 0.00017825505 -0.00043273869 -0.0010159091 0.0008979582 0.0016473008 0.002146546 -0.0026696355 -0.0016214005 -0.002971065 -0.0031062555 -0.001179498 -0.0005210824 -0.0027680115 -0.0017820619 -0.0007095993 0.0020648956 0.0006761946 0.002864128 -0.002709168 -0.0013769288 -0.00029997827 0.0029936815 0.00037642737 0.00052194734 0.00043294838 0.0010117266 -0.0030973833 0.0011846314 0.0019105662 0.0018005514 0.0014135139 -0.0026989577 -0.0014036989 0.0028375154 -0.00019036591 -0.0031454072 0.0016169634 -0.0020148482 0.0021598847 0.0018765728 -0.0017007692 0.00076593185 0.0018449336 -0.001335761 -0.00050809444 0.0030557238 0.003054007 -0.0031494424 0.0025664384 0.0032877426 -0.0008905629 0.00090379803 -0.0010520495 0.0029365595 1.0512722e-06 0.0020100113 0.0030480328 0.0013692376 -0.0023367628 -0.00061705906 0.00027179005 0.0007229372 0.0010674392 0.00328401 0.0015592861 0.0034288694 -0.003017497 -0.0018901336 0.0008254403 0.0011546173 -0.00033397367 -0.0024101525 -0.0011864717 -0.0028427744 0.0031506987 0.001196573 -0.002558929 0.0011073633 0.0014094951 -0.0019444042 -0.0020426668 0.00032352546 0.0029205536 -0.0031913992 -0.00014115931 -0.0022830318 -0.00038189575 0.0009981019 -0.001685772 -0.0009920821 0.00018463831 -0.0022027455 0.0024529474 0.0015291597 -0.0028851205 -0.00081680325 0.001122086 -0.002768275 -0.0023357414 -0.0028161446 -0.0017587265 0.0028985455 0.002465052 0.000878369 -0.0028498953 0.0019436685 0.0016538558 0.00010557965 -0.0028628274 -0.00064885244 1.655544e-05 -0.0025633557 0.00083117746 0.00012307186 -0.0023318666 -0.0028845894 0.001977014 -0.002903532 -0.0019752248 0.0020315447 -7.635108e-05 -0.0010530348 -0.00176912 -0.00027928234 0.001804311 -0.0020606983 -0.001694481 -0.0016245247 -0.0016935025 -0.0026234605 -0.0032746552 0.0025520176 0.0026957318 -0.0014214988 -0.0031553367 -0.00061396393 -0.0012782576 0.0031447904 0.0009301947 -0.001977232 -0.0010035137 -0.0033083432 0.0006327712 -0.0013662404 -0.0010134863 0.0016627645 0.0025261112 0.0014855368 -0.0023563008 0.0020616623 -0.0033290857 -0.0024382651 -0.0027290662 -0.0007492386 0.00021830635 -0.0012200917 0.0005833118 0.0031091142 0.0022032794 -0.00021126292 0.0030060566 0.0004887821 -0.0006669701 -0.0021534634 0.0020840596 -0.0030419212 -0.00056466414 0.002464606 -0.0008050791 0.00064542214 -0.0023766581 0.0017172557 0.0024068432 -0.003019386 -0.0010924332 0.002553123 0.0010084498 1.1275564e-05 3.6677833e-05 -0.0032617599 0.0033392983 -0.0005703823 -0.0016160631 0.00089066074 0.00023206616 -0.0018594629 0.0019160666 -0.00090151175 -0.0020700113 0.002552904 0.0021367564 0.0028835926 0.00030406687 0.00022756588 -0.0026371635 0.0017356063 0.0029357995 -0.00037010905 -0.00061401393 -0.0012612476 -9.286441e-05 -0.002715001 0.0019122616 0.0004814607 0.003154113 -0.002156646 -0.0016472809 -0.0021244735 -0.0023470018 0.0009559624 0.0017223734 0.00032367022 0.0011459147 -0.0030906661 -0.000394425 -0.0025906859 0.00094543456 -0.0010092348 0.0029694058 -0.0011911691 0.0023110139 0.001357868 0.00048073218 2.7923466e-05 0.0028139544 0.0008382431 0.0028875626 0.0012517194 0.0019059103 0.0017219528 -0.0025107889 -0.0019106435 0.0002700651
in 6.67035e-05 0.00077297556 0.00032441283 0.002504178 -0.0014409679 6.603996e-05 0.0023649174 0.0008261744 0.0014226434 0.0013619971 -0.00035615196 -0.0027696318 0.0010143786 -0.0029090845 -0.00087267393 -0.0031297845 -9.946469e-05 -0.0026433915 0.002416212 -0.0016595594 0.0033201093 -0.003035898 -0.0014196779 0.00067877106 -0.0010274568 0.00048204782 -0.0012619437 -0.0002827497 -0.0019351516 -0.003292397 0.00210813 0.000121544836 0.0021388228 -0.0025242544 0.0012115686 -0.0032430247 0.0025684836 0.0019475167 -0.00204214 0.0027381298 -0.0018620935 -0.0028494 0.0005264217 0.0010350632 -0.0026436336 -0.0029296398 0.0030474474 0.00057525595 0.000306987 0.00086042617 -0.0011527326 0.00058078143 0.0006027953 0.0032610723 -0.0018638974 0.00078397983 0.0020920704 -0.002194225 -0.0029493903 0.002868266 0.002300759 -0.0013330134 0.0019416247 0.0003099541 -0.0016981856 -0.00040887203 -0.0016054771 0.0020905428 0.0006177755 -0.0027842652 -1.557608e-05 -0.0008620358 0.002217871 -0.00038197107 0.0025769235 0.000627923 -0.0013271902 0.0027610594 0.0009320671 -0.0013473268 -0.0018697435 -0.0010212817 -0.001731804 0.0012212924 -0.003057567 -0.0019184533 0.0011807061 5.5530363e-05 0.0020185832 -0.001213323 7.2995927e-06 0.0008144589 0.0018325098 0.000549273 0.003317188 0.0012814825 -0.0023747464 -0.00050553575 -0.0027952688 -0.001790378 -0.0007106333 -0.0032350253 0.0030902904 0.00068826694 -0.0003903221 -0.0018553428 -0.0028057622 -0.0033098585 0.0029441165 -0.0008127708 0.0014625081 -0.0014881432 0.0033056214 0.0012302651 0.00033151428 -0.0013382254 0.00040726486 -0.00085485925 0.0024820152 0.0014402092 0.0003506006 0.0011906754 0.001284801 -0.0022682934 0.0029703872 0.0005968249 -0.0019327117 0.0028638216 -0.0004225768 0.0027714993 -0.00044086398 0.002363412 0.0009546437 -0.001519941 -0.0012306834 0.0031202312 0.0005036675 -0.0019926808 7.685893e-05 -0.00070172694 0.0005288582 -0.002566981 0.0024307661 0.00047934757 0.0026439214 0.0014897404 -0.0014941778 0.0012209103 -0.00021313802 -0.0033130497 0.0027590236 0.0031678062 0.003229724 -0.0013099208 -0.0028190138 0.0016087203 -0.0025875284 0.0028196953 0.00088994834 0.0018712406 0.0020636946 0.00013057189 -0.0007379998 0.0002785738 0.003280818 -0.0023632823 -0.00051349524 -0.00074975024 0.0015979906 0.002205641 -0.0014183357 0.001209702 -0.0014799617 0.0011342086 0.0027456954 0.001229947 -0.0015315863 -0.0010055216 0.0026362804 0.0031877093 0.0019077447 -0.001082827 -0.00065499905 -0.0021001818 -0.0014837449 0.0010645556 -0.0020867966 -0.002162737 0.0026832197 0.003151523 0.0027652262 0.00051696546 -0.0029571552 -0.002549847 0.0005293316 -0.0032359916 -0.0024572413 0.0006764093 -0.0009655044 -0.0030413321 0.0021300544 -0.0029982836 -0.0024487723 -0.0006019505 0.0006077528 -0.0003706317 -0.0017153115 0.0022421565 0.002920183 -0.0024795132 0.0032473449 0.0024083327 -0.0025167346 -0.0006454821 0.0014307931 0.0023148889 -0.0012858035 -0.0023846398 0.0015159695 -0.0030528689 -0.0019611816 -0.00039522848 0.00183631 -0.0018909803 0.0016070966 -0.00016261937 0.00094948226 0.0021207724 0.00045205062 0.002573638 -8.035787e-05 -0.0028012695 0.0030534756 -0.0015989701 0.0015212006 -0.0012614994 -0.0023984683 -0.0021313203 0.0015909461 -0.0002526597 0.0005330967 -0.0029927061 -0.0017546029 -0.0020032537 0.002808917 -0.0029336165 0.0016780872 -0.00026988392 9.48274e-05 0.0029454336 -0.001207417 -0.002359367 0.00030442682 0.0025809756 0.002996614 -0.0012282734 0.0009788808 0.0016346722 -0.001798342 0.002248081 -0.0021184317 0.00069857074 0.0016123069 0.0013834256 -0.001613253 0.0008776841 0.002449094 0.0029037145 -0.0032446214 0.0018547161 0.0016567054 -0.00050450227 0.0030680248 -0.0013653217 -0.0005998839 -0.0022453754 -0.0012529948 0.0001208515 -0.0011450169 -0.0018132679 0.0022166267 -0.0017773352 -0.0021049203 0.0025241494 0.003167671 0.0013390515 -1.6798294e-05 0.00028623838 -0.00033756232 0.0023021186 -0.002055528 0.00021352372 0.001453775 -0.0006561019 0.00036388318 0.0012779259 0.003248437 0.0007278553 0.0031800189 -0.0020110866
von 0.001621959 -0.0011256435 -0.0014597299 0.0003638983 -0.0013279583 -0.0019462014 0.0011005622 0.002907241 -0.0021645252 -0.0031457576 -0.0010142204 0.002511819 -0.0032503393 0.0033007914 -0.00013518755 0.00079543673 -0.0005523594 -0.0019601737 0.0009359548 0.0019814135 -0.0023348865 -0.0004221633 0.00052077183 0.0014749916 0.002345096 -0.0011928256 0.0023962182 -0.0018569828 -0.0008122596 0.0030192495 0.0017788243 -0.0028575375 -0.00058614026 -0.0030194644 -0.0005689639 0.0019967335 -0.0024255847 0.0017961409 0.0020463238 -0.0012559659 -0.0032323708 -0.00082031864 -0.0008350963 0.0012220279 0.003085751 0.00074404303 -0.00070623175 0.0010696538 -0.0022363076 -0.00037171898 -0.00045288473 0.0032291333 -0.0020206133 -0.0023401268 0.00079551054 0.00093507493 -0.0024087077 -0.0019339254 -0.00033822877 -0.0011292149 -0.0029650389 -0.0013461527 -0.000979239 0.0022519985 0.00028895933 0.0006094067 0.00015267238 -0.0010583075 0.0009777723 0.00022556058 0.0020357484 -0.0001993544 -0.0029455447 0.00026751513 0.003350447 -0.0017689692 -0.0018300065 -0.00079977047 0.0028028507 -0.00031960706 0.0031598909 -0.0027701377 0.0029746273 -0.0031215232 0.003137287 0.0006788628 0.0009876734 -0.0019755377 0.002875918 0.0020397736 -0.0018101884 -0.0031677797 0.002352346 -0.0018191205 -0.0030386243 0.0009445843 -0.0016532853 -0.0024999958 0.0032451372 -0.000549614 -0.00046329576 -0.0013362298 -0.001471933 -0.0015350118 -0.0018660404 -0.0018303075 -0.002620989 0.0031732821 0.0020721108 -0.0011742003 0.00071605627 -0.0025608703 0.0024994283 0.0027988714 0.00026118374 -0.0022516123 -0.0010145499 0.0016260638 -0.00092127547 0.0009816624 0.0031886166 0.0015313572 -0.0016215262 0.0018034236 -0.00095476554 -0.0021125562 0.0023599714 -0.0031519132 -0.00034012776 -0.00039267063 -0.0027065694 -0.0002976318 0.0019678348 -0.0018508723 -0.002318593 0.0021936607 -0.001174706 -0.002603629 1.8913195e-05 -0.00010044417 0.0025162976 0.00018939326 0.002600282 -0.0032394584 0.0013594298 0.002091906 0.00029881037 -0.0009882108 0.00032468708 -0.00032870803 -0.0026756139 -0.002382399 0.00039835865 -0.00072038855 0.0031763688 -0.00032605155 0.0020046106 0.00065133534 0.0026528754 -0.0030769599 0.0008484933 -0.0004931819 0.00065338216 -3.2660464e-05 -0.0022066098 0.0030413596 -0.0009352936 0.00068755524 -0.0021945003 0.0013230562 0.0032778939 -0.0003963567 0.0022192749 3.7685317e-05 0.002701871 0.0032757884 -0.0001492898 -0.0006059106 -0.0031655063 0.0033129866 -0.00086221704 0.0007553968 -0.0006593179 0.0027417282 0.0026939032 0.0004214542 0.0010822401 0.0022123964 0.0007319441 0.002131567 0.00013739661 -0.0007182152 0.0017184265 -0.0011868181 -0.00085248717 0.0028550432 -0.0030142893 -0.0011608232 -0.00095864595 0.0019027711 0.0026728504 -0.0021915843 0.0019388476 -0.00011354938 -0.0029259925 -0.000863169 -0.0005179888 -0.0013914877 -0.0002696685 -0.0017636912 0.0019418992 0.00302247 -0.0005910341 0.0011320725 -0.00022903591 -0.00027837313 -0.002468567 0.00040519357 0.0012331355 0.0022636706 0.0021935664 0.0012312672 0.0015790428 -0.0025088536 -0.00044157737 -0.0019446451 0.002372553 0.0026127289 -0.0014522513 0.00038891402 0.0017475516 0.0005453599 0.00025005822 -0.0022021614 0.003204393 -0.0023864463 -0.0019299684 -0.0018408304 -0.0020850333 -0.0011968132 -0.0030855061 0.00040670444 -0.001304085 -0.00082573603 0.0019513456 0.0011383138 0.0006285436 -0.00045237332 0.0033716015 0.000108497596 0.0016464671 0.0029555827 -0.0031719885 -0.003083864 0.0032634987 0.00089856575 -0.0005311693 0.0015613596 -0.0014827842 -0.002186118 -0.0027148456 0.0024179367 -0.00070050335 -0.0026545776 -0.0020766885 0.002039812 -0.0008030553 -0.0020019577 -0.00066635234 -0.0004808279 -0.0011081927 -0.00066237897 0.001351427 0.0005147664 -0.0011959746 0.0009683873 0.0017809006 -0.0029965355 -0.0026208234 0.0020818936 -0.002950461 0.00016097262 -0.0030152644 0.0027742796 -0.0015191259 -0.00220361 -0.00049620384 -0.00034966986 0.002505621 0.0030550137 -7.951271e-05 0.00096128584 0.0016252883 0.00013651242 -0.0018306483 -0.00013474455 0.0007395355 0.0027941742 -0.0011803369 -0.0033854565
nicht 0.0018041946 0.0032898672 -0.0023593036 -0.00020725148 -0.00167267 0.0021309545 0.0032281864 -9.179222e-05 0.0017213045 0.0021594903 0.0014870149 -0.0026807766 0.001033241 -0.00047855053 -0.00072165276 0.0018089107 -0.00042937248 0.0033059241 -0.00023320799 7.674566e-05 -0.0007635948 -0.0028439763 -0.0032713327 0.0016620433 -0.0022169834 0.0009866923 0.0009219539 -0.0023378571 -0.0010619644 -0.0019367983 -0.002853623 2.7755682e-06 0.003256876 -0.002241468 -0.0014588129 0.0027984148 0.0031073273 0.003270288 -0.0032954186 0.0016867238 -0.0022155566 0.0023036122 0.0020455676 -0.001133578 0.0023145212 -0.0026084383 0.0015246214 0.0015429048 0.0019809545 0.001970939 -0.0008782495 0.001298479 -0.002053871 -0.0021538355 0.0009133553 -0.003143602 -0.00011072697 0.0003694466 0.0026821678 -0.0023430423 -0.00076748914 -0.0013729552 -0.0017398945 -0.00013526788 0.0015350388 -0.001651538 -0.00053658243 0.002894819 -0.00044538605 -0.0011919563 0.0024871274 0.0004165557 -0.000107983076 0.0031461262 0.0027118435 0.0011382081 0.0010996455 -0.00075974216 0.002689162 0.0016816523 -0.0018061068 -0.0020448668 -0.0002078229 -0.0026247364 0.0011346907 -0.0030673356 -0.00049610937 0.001117435 0.0010252652 0.0010562715 -0.003023109 0.0011421543 0.0017888794 0.0011625855 0.0026108373 0.00055936875 0.0020921126 0.002939016 -0.00031317174 -0.00028067827 0.00074802246 -0.0025088836 0.0018728464 -0.0016663593 -0.0010909713 -0.00062077807 0.002746493 0.00074556394 -0.00030838037 -0.00093980355 -0.0007242416 -0.00043259579 -0.0016959426 -0.0013697948 6.06742e-05 0.0015262992 0.00059260085 0.0023046646 0.00022701212 -0.0010875522 -0.0024534436 0.002017898 0.0023458095 -0.0020247195 0.0015616689 0.0031683058 -0.0021215817 -0.00096709194 -0.0030226833 0.0010832747 -0.0011296343 0.000694304 0.0031670686 -0.0027992695 -0.0031033524 0.000594091 -0.0026900435 -0.0030282924 -0.0031315899 -0.000110497065 -0.0003697574 0.00024981916 -0.00044783996 0.0030174332 0.0029335704 -0.002115613 0.002894135 -0.0030201257 -0.00045238595 0.0008394145 -3.1959335e-05 -0.0012879508 0.00015679823 0.00032800564 -0.003134362 -0.0016342403 -0.0025731882 0.0012642315 -0.00030781256 -0.0024953117 0.0018890601 7.7000834e-05 0.0008869898 0.0018206957 -0.0014085886 0.0026156136 -0.0026197152 -0.0011410789 -0.0024658598 0.00033445642 -0.002470518 0.0030184113 0.0018474888 -0.0023949188 0.0020718875 0.002217334 -0.0024768289 0.0015436737 -0.002570797 0.0031149036 0.0015605525 -7.21424e-05 -0.002997582 -0.00030176505 -0.00010288785 0.00028558244 0.0029107078 -0.0009128656 -0.0029005606 -0.0029492297 -0.00033697515 0.00046286918 2.0971594e-05 -0.0007446925 0.002853325 2.7485694e-05 0.0021431642 0.0013283672 -0.0023974765 -0.0007040087 -0.0025866833 -0.0022605078 -0.0010522272 0.0021990836 -0.00026508502 0.0029564877 -0.00076666026 -0.0017508246 0.0013003352 0.0007356871 -9.84769e-05 -0.0008294023 -0.002011822 0.0013508307 -0.0025381648 -0.002981642 -0.003079406 0.0027850228 0.0013254647 0.0023614739 0.0033005401 -0.0024087788 0.0013534442 0.0009334966 0.0020573582 -0.0011314317 0.0031343868 -0.0019334598 0.0023423354 0.0023178034 -0.00012568064 0.0016828172 0.0022113752 0.00052452076 0.0024492666 0.00080519274 -0.0004916457 0.0024698642 0.0015672076 -0.0010614952 0.0005556247 -4.1945546e-05 0.0016426966 -0.001803049 -0.001397601 -0.0003189901 0.0012824419 -0.0021914751 0.0026322214 -0.0010286758 0.001911515 0.0009391111 0.0022909697 -0.0014950185 -0.0010716151 0.0010143861 -0.0009077542 0.0019806882 -0.0019883926 0.0008527869 -0.00022928228 -0.0002041485 0.0008688712 -0.0007555126 -0.0014386524 -0.0028593407 0.0008281419 0.0017818057 -0.0019838314 0.0030403456 0.0013421882 -0.0017201483 -0.00044388804 0.0013119254 -0.0023431273 0.0006930222 0.00184144 0.002099395 0.0017953876 0.0012176238 -0.0009112979 -0.002033257 0.0027144444 -0.0024390866 -0.00055659487 -0.0010933833 0.0021588316 -0.0020901107 0.001133455 0.00068712526 -0.0013541346 -0.002737184 -0.002674095 0.0011920279 -0.0031718754 0.0019108759 -0.0009708235 -0.0030559106 -0.0017112353 0.0025645841
sich -0.0005568338 0.0022339157 -0.0031340015 -0.0030906196 -0.0016817601 0.00025220064 -0.0023393705 -0.0030294568 -0.0029402485 -0.00026744246 0.0025819568 -0.0027985056 -0.0017778792 0.000597409 0.0011214898 -0.0028049287 0.0027010834 -0.0027772535 0.0014945073 0.0030749235 0.0019101956 0.002019881 0.0027592871 0.0012172749 -0.0024230347 0.001910027 -0.00281186 -0.0018976377 0.0019130106 -0.0026625998 -0.001968181 -0.0012061009 0.0010781697 0.0016774978 0.00066832127 0.0018034865 -0.0008232088 0.0014006876 -0.0023500442 -0.0005581429 -0.00258563 7.305489e-05 0.0015937459 0.0015672984 -0.0014557802 0.00066692196 0.0025953716 -0.0018014762 -0.0012362078 -0.00014577669 -0.0015316361 0.0029043348 0.0024255018 0.0030609316 0.0031279817 -0.0027695256 -0.0001849681 -0.0025017918 -0.0015533285 -0.0029827845 0.001167758 4.2977204e-05 -0.0022786262 0.002737968 0.000269448 0.00017203855 -0.001135602 -0.0010464378 -0.00094337936 0.0025209761 0.0008448801 -0.0016749786 0.0016009896 0.0003171122 -0.0008757872 0.0025411793 -0.0014046776 0.002530688 -0.001484611 -0.0024819076 -0.0014877407 -0.0012964084 -0.0002693097 -0.0005002148 0.0017711407 0.0018609746 -0.00047335002 0.0012268181 -0.00063800445 0.00024038779 -0.0004388094 -0.0008278691 -0.0015544681 -0.001394633 0.00011759048 0.0006214069 -0.0031253332 0.0019753042 -0.0005685375 -0.0010184896 -0.0015600345 -0.0014305337 -0.0016082432 -0.0032486299 -0.0002638352 -0.002634903 -0.0015408085 -0.0024795108 0.003253975 -0.00041451823 -0.0026958615 0.001851168 -0.0027039105 -0.0006138454 0.0009052694 -0.002344197 -0.0029231391 -0.002171413 0.0025418382 0.002942295 0.0013672399 0.00086262624 0.0014741838 -0.0013666213 0.0032509118 0.0023213606 0.001377363 0.0029443642 -0.0027769012 0.00037817293 0.0030625125 -0.00024604992 -0.0021686861 -0.00084905163 -0.00090552424 -0.00072237 -0.00065248663 0.0024410298 -0.00017218881 0.0013431833 -0.0012477812 0.002751178 -0.002204966 -0.003062784 -0.0013524191 -0.0024483632 -0.001671795 0.00012238201 0.0007985019 0.00053029705 0.0016877314 -0.00056055153 0.000773477 5.4518117e-05 0.0026024876 0.0026717882 -0.00070293533 0.00038902566 -0.0020686658 -0.0015715617 -0.002274297 -2.9505389e-05 -0.0017027931 -0.001306517 0.0005141528 0.00088163576 -0.0030333425 0.00064841215 0.0016615211 0.0014719852 -0.0010325763 0.003168666 0.00317139 6.374689e-05 0.0003255272 -0.0030310105 -0.0016250244 -5.4979446e-05 0.0013674586 4.7063433e-05 -0.0029424743 0.001938083 -0.0025592763 0.002827137 0.0017537997 -0.0023505983 0.0010729396 0.002636569 -0.002063716 -0.0022057588 0.0031526543 0.00063010573 0.0031910941 -0.003341391 -0.00048687888 0.0022071504 -0.00045730805 -0.00059066154 -0.0023394253 -0.0018714763 -0.002173568 0.0029419481 -0.0005239079 -0.0027920706 0.002745708 -0.0010247173 -0.0004282147 -0.00014224627 0.00093124236 -0.0015861953 -0.00012292081 -0.0010315144 0.0028695972 0.002286264 0.00038881818 -0.0020838368 0.00092382834 0.00028972997 -0.0021271673 -0.0019700292 -0.0010352735 0.00085186074 -0.0026834302 -0.0016717426 0.0027184829 -0.0012481901 0.002751418 0.00015471433 -0.001869063 -0.0016558908 -2.5984993e-05 0.0014706416 -0.0020427918 -0.0017992973 -0.002346342 0.002295409 -0.00072115666 0.0014003832 -0.00050197984 -0.002509687 -0.00035031416 0.00012896485 0.0011409556 -0.0028687853 -0.0022603173 -0.002234658 0.0010076524 -0.0012254831 0.00039840039 0.0014048809 0.001482604 0.000713719 -0.00087088946 0.00020319533 -0.0018502676 -0.0021241838 0.0030066173 -0.0013690913 -0.0031578324 0.0011875074 0.0028620665 -5.1345738e-05 0.00088738714 -0.0013205962 -0.0014966119 -0.0028981585 -0.0026021157 -0.0029771917 -0.0021143581 0.0028369748 0.0031397794 -0.00051667 3.0128072e-06 0.0026494502 0.0003941856 -0.0016560075 0.0008961501 0.00066604995 -0.0013352326 -0.0016510702 0.0032476317 0.0025242018 -0.0028622895 -0.0018770958 0.00038936856 0.00031224467 -0.0028238778 0.0031415995 -0.0018149575 0.0015555351 0.003109811 0.0004284528 0.001445488 -0.00081583177 -0.0031299996 0.00026790344 -0.00034114398 -0.003294492 0.0023503925 -0.0025634854
ich 0.0017205873 -0.0014223997 -0.0030972161 -0.0030419366 0.0021067453 -0.0017867914 0.0017936775 -0.00044438563 0.0032431558 0.0023199648 0.0033650228 0.002794452 -0.0026406099 -0.0031387778 -0.001854414 -0.00025862997 0.0017269653 0.0011910582 -0.0007396624 0.0016402159 -0.0011184944 -0.002295404 0.0015774736 -0.0032413942 0.00028083398 -0.0016882326 0.0025082002 -0.0012340808 0.00089252356 -0.002099223 0.0031971666 -0.0018823327 0.0011622517 0.0010335724 0.0029579878 -0.0017888802 -0.0014212675 -0.0021029615 0.002056689 -0.0015209544 0.0015924323 -0.00028026046 0.002439313 -0.0020374237 3.025231e-05 2.241969e-05 -0.0028569954 0.0029670272 -0.0006861061 0.002198429 5.710601e-05 0.0016933632 0.00067823665 0.0029432192 -0.002775656 0.002839424 0.0028714328 0.00037115582 0.0015126847 0.001265135 0.0013569581 -0.0009775603 0.00096285157 0.00030285475 0.0015782038 0.00284899 -0.0025553012 0.00010270393 -0.0029471074 -0.000544226 -0.0029738862 0.0010970542 -0.00051689456 -0.00025214843 0.0021667755 -0.002728889 0.00032719062 -0.0007747726 -0.0012819652 -0.0024457255 -0.002653844 0.0027699936 -0.002489184 0.0016824947 -0.0012123429 -0.00037543048 0.001001565 -0.0028785479 -0.0018482885 -0.0025728175 -0.0031386772 -0.0015831983 -0.0010313455 0.00016987033 -0.00018323192 -0.002577803 -0.0012561867 -0.00094218046 -0.002128043 -0.0021391269 -0.0008440829 -0.0026403253 -0.002757054 -0.0025234898 0.001185746 -0.0025711497 -0.0011991482 0.0022138201 0.0024188643 -0.0021219759 0.002205317 -0.0025964451 3.9529295e-05 0.002232472 -0.0009498349 0.0030934021 -0.00011359403 0.0015998518 0.0023579677 -0.0029008521 -0.001988727 -0.0023885954 -0.0003226392 -0.0023723736 4.6568166e-05 -0.002668585 0.00018218785 -0.00015887826 0.0021738245 -0.002915103 -0.0009944342 0.0020114672 0.0031500817 -0.0006689307 0.0002795928 -0.0019576582 0.0002535717 -0.002706581 -0.0026003297 0.00041066133 -2.9193001e-05 0.0018633343 -0.003270682 0.0005813968 0.0005440121 -0.0017441183 -1.4431781e-06 0.001983066 -0.0022088436 7.093926e-05 0.0013084664 0.00049206446 0.0009455715 0.002691204 0.0022293758 0.001160485 0.0026313467 -0.0025714594 0.0024854108 0.0013128151 -0.0019405357 -0.0014156023 0.0020938464 0.0019672099 -0.0033014002 0.00043594322 -0.00012941683 0.00030380682 0.0023395244 -0.0023334927 0.0031758628 -0.0031512007 0.0020974635 0.0032226816 -0.00123849 -0.0030947076 0.0020542853 -0.0030139918 -0.0027664576 -0.00026628206 -0.0022283085 0.0029396692 0.0025653432 0.0002549763 0.0026059211 0.0032283128 0.0018066452 0.0014834474 0.0017801857 0.0021216439 0.001630707 0.0021563373 -0.0025202413 0.0029261217 0.0027763725 0.003079596 -0.0029767726 -0.001165847 -0.0001098788 0.001404289 -0.0027353424 2.8961296e-05 0.002014982 0.0031665296 -0.0008993843 0.00057996035 0.002117047 -0.00060927786 0.00064577867 -0.0031254434 0.00022197276 0.001480597 0.0014679593 -0.0032505025 -0.0016980763 0.0009527816 0.00044708585 -0.0016224321 0.0018872576 0.0011380196 -0.002603944 0.0033148848 -0.002559608 -0.0010342662 0.0032597934 0.00036705832 -0.0017857207 0.000376353 -0.0013769444 -0.0022490553 -0.0025635217 0.0015452295 -0.003027723 0.0013757959 -0.001887226 0.001836264 -0.001407342 -0.0018261457 0.0021419984 -0.0029043364 0.00047586468 -0.00070348085 -0.0022629811 -0.0025276027 0.0022716387 -0.0015182933 0.001537135 -0.0032156783 0.0006828459 -0.0006506458 -0.0019753824 -0.00096814043 -0.0028391962 -0.0011727145 -0.00090115063 -0.00077544065 -0.0016338471 -0.0030734718 0.0017476574 -0.00046512295 0.0020820876 0.001032609 0.002936235 -0.0012583565 -0.003032648 0.00043936615 -0.002983098 0.0020490326 0.0027283027 0.00017311132 0.0025568004 0.0028787681 0.0013940232 0.0018310312 0.0030249008 0.00042482596 -0.0027272077 -0.0027362732 -0.00066146126 -0.00022148351 0.0029463272 -0.0031168992 -0.000871422 0.0030223785 -0.0005333204 -0.003024896 0.00064207305 -0.0019264151 -0.0018217479 -0.002107037 6.879462e-05 0.0024542133 0.0014020544 0.0027765674 0.0030145394 0.0015560377 -0.002006508 0.002372206 -0.0031655987 -0.0016668733
zu 0.0026696709 0.002650838 -0.00180932 -0.0026698925 0.0027034797 -0.0012785544 -0.0013493059 0.002406065 0.0018142919 0.0012584478 -0.0003986017 0.0028868886 0.0028175164 0.0023360655 0.0030186898 -0.0019219633 0.00033711892 -0.0005427347 0.0021001755 0.0032515198 0.0017203501 0.0013509169 0.0021777325 0.0019647505 2.8329072e-05 -0.002779033 -0.0007257876 0.0030248065 -0.0017031386 0.00033608108 0.0016250777 -0.0023149878 0.0027272266 0.00048329454 0.00081013376 0.0027832754 0.0004915597 0.0002907575 -0.0031404363 0.0032872735 -0.0032874239 0.0028548627 0.0016826319 -2.4333845e-05 -0.002613213 0.0031224564 -0.0004541994 0.0017875037 -0.0010045635 -0.0016331839 5.955136e-05 -0.0026805142 -0.0022205368 -0.003147131 0.0017813558 0.00015308146 -0.00031193203 0.0017043907 -0.0006498475 -0.002468328 0.00096528983 -0.0019903956 0.00016532841 0.0031718456 -0.00031792463 0.0020537502 0.001499398 -0.0011760867 -0.0017492861 0.002952306 0.00070364436 -0.00014175753 0.0003042647 -0.0016432517 0.0011797675 -0.001030967 0.0013936508 -0.0015205469 -0.00027340258 0.0012972438 -0.0023818933 -0.00083861605 -0.0029133586 0.00052944 0.00067361916 0.00080841174 0.0003722295 2.8075814e-05 0.0007414815 -0.00030991147 0.0019775608 -0.0009832546 -0.0016924321 -0.0017718558 -0.0032146985 -0.0027002243 0.00070988754 0.001323272 -0.0019249454 -0.0032352237 -0.0020517143 0.0015601668 -0.003025854 0.0016957048 0.0021200955 0.0020356195 -0.002539244 0.000941456 -0.0018210695 0.0030206603 -0.0014519197 -0.0007872082 0.0017406688 -0.00027215897 0.0016956789 -0.0014005003 0.0016540838 -0.003262261 0.0020346069 -0.00042153127 -0.0018675365 3.3418826e-06 -0.00039676786 -0.0002432615 -0.0005896187 -0.00309037 -0.0025956528 -0.0022741805 -0.002869686 -0.0015087143 0.003074082 -0.00059733953 -0.0025250453 -0.001970006 0.0012008022 -0.0008914335 -0.00052724115 -0.0014227652 0.001981486 -0.0026204654 -0.0024977843 0.0025057085 -0.0023192645 0.0007174248 0.00012407092 0.0032253976 0.0014063966 0.0006862878 0.0009138582 0.00075966615 0.0007404692 -0.00091960817 0.0013670634 0.002029116 0.0029771358 -0.0002501129 -0.00040963915 0.0021516473 -0.0028330232 -0.00021771209 -0.0022155321 0.0015960882 -0.0029922298 0.0010882609 0.0030098287 -0.0006923073 -0.0029422082 -0.002721078 0.0010777094 -0.0017769464 0.0021450117 -0.00039762974 0.002617583 -0.00015968079 -0.0020650649 -0.0018915796 0.00025240862 -0.0015971758 0.002193806 -0.0011733007 -0.0018795108 0.00031612907 -0.001635996 -0.0027398139 -0.0017584177 -0.0006296545 0.00016050877 0.0012178482 0.0022872572 0.0022394175 0.0019646257 0.00011106891 -0.0019464935 0.002996724 -0.00021424145 0.0015626813 -0.00047613014 0.0019290267 0.00177292 -0.0024293964 -0.0009113389 3.3039734e-05 0.0006796784 -0.003102854 0.0016241736 0.0011220973 -5.9215025e-05 -0.0011536203 -0.0025371197 0.002532228 -0.002874606 -0.0024734 0.0014774413 -0.0028360125 -0.0010943722 -0.00070087134 -0.0006481889 -0.0022874626 0.001428685 0.00033245323 0.0012217 -0.00044268963 0.0023173834 -0.0031801695 0.0019532163 -0.0017095476 0.0005810656 -0.0023171087 -0.00083180616 -0.0021442238 -0.0011136449 0.0032403262 0.0008944347 0.00054211635 -0.0020347699 0.0018593341 -0.0026980632 -0.00076239026 -0.0021541165 -0.0021273533 0.0007706359 -0.0010928174 0.0008038729 0.0013029696 -0.0020940371 -0.00058809447 -0.00091633934 -0.0032610728 -0.003271286 0.00037323716 0.0014568426 6.723754e-05 -0.0016114227 0.0012062079 0.0005642791 -0.0031483772 0.002407141 0.0025910023 -0.002577328 -0.0002634424 0.0020162645 -0.00092747755 -9.961272e-05 -0.0014216146 0.0020248955 0.002326444 0.00069466827 -0.0015627148 -0.0006222918 -0.0013294376 -0.0032566658 0.002604637 -0.00020853354 -0.00020153451 0.0023565977 -0.0030081589 0.00211075 -0.002512575 -0.0017920345 0.001689731 -0.0011570608 -0.0011657053 -0.0021073574 -0.0013054624 -0.00089858694 -0.001365325 0.003149417 0.0031529695 -0.00012859551 -9.123128e-05 -0.0018763118 0.0026450441 -0.0016455114 0.0019766488 0.0030483757 0.0019245291 -0.00031694485 0.0018482362 0.0023166388 -0.0013048862
haben 0.00024254977 0.0022383677 0.0019247695 -9.72459e-05 0.00085030025 -0.0022321518 -0.0030807324 -0.0015563371 -0.0017705908 0.00010722835 -0.0012426835 -0.00012463218 0.0025399425 0.0033172192 0.0026331092 0.0008187628 -0.00085260265 0.0007886042 -0.00097060454 -0.003028529 0.0023086031 -0.0029014538 0.0012717833 -0.001271719 -0.0018823036 -0.0003500865 -0.002206806 0.0028690416 -0.0023506144 -0.0029960477 0.0019163368 0.0014608117 0.0015387966 0.0007516992 -0.0012550751 -0.0016218517 0.0006249642 0.0027583763 -0.0018757825 -0.00079380407 0.00060939515 0.002259468 -0.002124377 -0.0015334142 -0.0007953505 0.0005091226 0.0017900526 0.0019088752 -0.0028771607 0.0024633787 -0.0008071945 -0.00094677863 -0.0030198218 -0.0019316635 0.0031559768 0.0010732395 -0.0027059354 0.00096103136 -0.0023122 -0.0030489583 0.0013138514 0.0006760127 0.00043760551 0.0030153044 0.0020659273 -0.0016338595 0.0009556821 0.00090210023 0.0007527879 0.002766566 -0.002267199 -0.0007282002 0.0003586854 0.0021061406 -0.00018733827 0.0026323176 -0.0016270084 -0.0029848223 -0.0024081438 -0.0014196482 0.0032014255 -0.0017015305 -0.0016447065 0.002801903 -0.002427276 0.0007024516 0.0019901171 -0.0025209063 -5.1090043e-05 -0.0007856404 0.0018686391 -0.0015201818 -0.0021823805 0.0033231846 -0.0014851532 0.0025892053 -0.0028054088 0.0022943376 -0.0011275786 -0.0026327963 -0.00036482903 -0.000776466 -0.0006216609 -0.00038159065 -0.002175313 -0.0012135556 -0.0010222162 0.0025608994 0.0019195016 -0.00026468834 -0.0016919168 0.0017613522 -0.002960794 0.0005723615 0.0013327647 -0.000631817 -0.0015240634 -0.0027169967 -0.002717168 0.0023184845 0.0012405786 -8.045227e-05 0.0033162488 -0.002854082 0.00019071637 -0.00013957247 -0.0026755438 -0.003077553 0.0024217183 -0.0011653934 -0.0025539638 0.002697292 -0.0020116514 -0.0011052 0.0006042162 -0.0010329684 -0.0026845196 -0.001305737 -0.0030559136 0.00040814586 -0.0015402437 -4.1380747e-07 0.0008820831 -0.0007639313 0.0029534984 0.0023624494 -0.00021463836 -0.000243232 0.00027832174 0.002213829 0.0029989055 -0.00072161766 -0.00052039506 -0.0010360572 0.00016590915 -0.0021662712 -0.00064235704 -0.0029098382 0.00017852942 0.0004823483 0.0012816963 -0.00097045023 0.0019230479 -0.002335576 0.0032831118 0.0001832942 0.0007720414 0.0014917454 9.838723e-05 0.00092304253 0.0005017708 -0.003205347 -0.0010334621 -0.0008004375 -0.0030481431 0.0011909542 0.001580087 -0.00070915377 0.0024835109 -0.0004018774 -0.000120626566 0.001926627 -0.002891069 -0.0023157198 0.0023916091 -0.0022698087 0.0029199894 0.0018314017 -0.002703077 0.002782108 0.0021767125 -0.002211566 -0.0028529724 -0.0029822038 0.0012855128 0.0020549311 -0.0006902494 0.0004392568 -0.002775402 -0.0016920125 0.0015849487 -0.0030453147 -0.0030805876 0.0003069077 -0.0027981272 -0.0023398367 0.0015874959 0.0027411722 -0.0024687862 0.0026890077 0.0030933616 0.0015121876 -0.0015143716 0.0032235777 -0.002565794 -0.0013465275 0.00054897123 -0.0026024864 -0.0033474797 0.00092317595 0.0027207623 -0.0016748505 -0.0014024721 0.0012981336 0.000253832 -0.0028593077 0.0022734457 -0.0010541795 0.0011709094 0.00105673 0.002988494 0.0028702265 0.0024220792 -0.0027351354 0.0003513943 -0.00029291393 0.00035891857 0.0030057072 0.0016145749 -0.0029959467 0.003307554 -0.0002952855 8.592409e-05 0.0016697427 -0.0020684644 -0.00016401328 0.00047463176 0.0023593702 0.001483265 -0.0006350822 -0.002838608 -0.0013514155 0.0029850325 -0.00317566 0.0032483954 -6.5983775e-05 -0.0002990729 0.0031881332 0.003162769 0.002707006 0.0030419582 -0.0033231443 0.0025964545 -0.0032294127 -0.0026485943 -0.0029598118 0.00072473654 0.0024229297 -0.0022025437 -0.0009024625 -0.00079844444 -0.0014585262 -0.00044905557 0.0016436222 0.001209085 -0.0010239268 -0.001221566 -0.00072427944 -0.0011431887 0.0013055792 0.0032796483 0.0025929941 -0.0025342654 -0.0021691446 -0.003113196 -0.0019783515 0.001183517 -0.0019878503 0.000551789 0.0029832937 0.0011364362 0.00045188842 0.0030012166 0.0022141864 -0.00039489337 -0.002026139 -0.00034389526 0.0024293785 0.0024966754 -0.0014260181
Deutschland 0.0033418892 0.00093022216 0.0016505272 -0.0019539534 0.0015314384 -8.65419e-06 -0.0031161637 0.0018530326 -0.0029840483 -0.0023199052 0.0010741926 0.0030995896 -0.0007177766 0.0024654549 0.0017069572 0.0013770496 -0.0019640438 0.0016503831 -0.0028951855 -0.0015325414 0.001836524 -0.0027666641 0.0019288737 -0.0010745456 -5.4598448e-05 -0.0024569398 -0.0021358426 -0.0011035365 0.002785229 0.0017577143 -0.003239337 -0.002222574 0.001085094 -0.0029275897 0.0021955639 0.0021985574 -0.0030346941 0.0028197574 0.0026187415 -0.000604147 0.0005869354 -0.0018834216 0.0021175472 0.002521121 0.0014921403 -0.002836617 0.001642555 -0.00094739563 -0.0006895449 0.0021041431 0.0006722385 0.0015534433 -0.0022138106 0.0017456381 -0.0011742604 -5.631322e-05 0.0020384623 0.001405768 0.002559546 -0.0013614658 0.0012318032 0.0024466459 -0.0010594295 0.0020431872 -0.0031897463 0.0030489934 0.0013270205 0.0018577639 0.0014625174 0.0015011411 -0.0010450275 -0.0019991072 -0.0007220635 0.0004542993 -0.00092038116 -0.0028641925 -0.0022225305 0.002856026 0.0030173424 0.0019372298 -0.0013492131 0.00023881288 -0.0029129756 0.002378356 0.0002477136 0.002513139 -0.0016418396 -0.0009693747 0.0010171927 0.0011637276 -0.0021604958 -0.002463983 0.0007052776 -0.002965739 0.0020293156 0.0019245709 -0.0012394564 -0.0019559532 -0.002781581 -0.00067125564 0.002387391 -6.070175e-05 -0.0026563907 0.0029879857 -0.0028583466 0.0017930656 0.0022376785 0.00030639835 -0.0029776394 0.0021020991 -0.0027744435 -0.0016660102 0.0032003047 -0.002725491 -0.0025591357 -0.0016039255 0.0011308498 0.0006984396 -0.0017792544 -0.0011996955 0.0029176546 0.0033577075 0.0034235881 0.0003232229 0.0013323886 0.0004914519 0.0005730705 0.0015413223 0.0007620761 0.00019634674 -0.00092062645 -0.0020853125 0.0027796293 -0.0021330707 0.0009473543 -0.00015160123 -0.0012795796 -0.0016459713 0.0009651067 -0.0020615158 -0.0024876725 -0.0008802349 0.001522068 0.0020709261 -0.00045395817 0.0024454962 -0.0026052326 -0.0016432108 -0.0026249122 -0.0020846361 0.0024656707 -0.0032325175 -0.0028683012 -0.0033617704 0.0030507157 -0.00089177064 0.00025879897 -0.0020893326 -0.00091726356 4.103708e-05 -0.0007565224 -0.0024931345 -0.0021571924 0.00090466655 -0.0031470114 0.0004160049 -0.00065901584 0.0028397236 -0.0002063659 0.0021777493 -0.0024483188 -0.002512528 0.0018795953 0.0004059065 -0.0016303507 -0.0008124786 0.0028955746 -0.0030906016 -0.0011990527 0.0003325471 -0.0001231855 0.0031887237 -0.00077949895 -0.0023990378 -0.0026749577 -0.0034351028 -0.002430739 -0.0019131927 -0.0020100416 -0.00050488714 -6.412689e-05 -0.0015318831 0.0006405805 0.0012351497 0.0030270845 -0.0016784996 0.0017423389 0.0024024202 -0.0012199264 -0.0024570387 -0.0011140388 -0.0023422781 0.0021778212 0.003089226 0.0028699115 -0.0028993576 0.0017056636 0.0018257583 0.0018576006 -0.0027937826 -5.0830626e-05 -0.0023924608 -0.0030446872 0.0008312289 0.0033422199 0.0020906278 -0.0025308542 0.0006590303 -0.0014110223 0.0032492392 -0.0029240372 0.0033188276 -0.0021339133 -0.0023590329 0.0005708523 -0.00025106402 -0.002700283 -0.00023057628 -0.0001642532 -0.0020911796 0.0019824018 0.0009715334 0.0027911367 0.0025262425 -0.0023125655 0.0016665604 0.0020073438 0.0020056306 0.0017922294 -0.0016487234 0.0015267687 0.00043993804 -5.8312566e-05 -0.002124792 0.00051616284 0.0016746988 -0.0030541064 0.0028935499 0.0010933736 1.0479251e-05 -0.0011485089 2.6460884e-05 0.0021505053 0.0015638969 -0.0020491553 0.002620639 -6.773477e-05 -0.00274548 0.0028922756 0.0016060726 0.0012643833 0.002648808 -0.002334289 -0.002137221 -0.00082233595 -0.0013981228 -0.00050976133 -0.00013133431 -0.0029690084 0.0006484207 0.00083141244 -0.00023527871 0.0016108506 0.00054239365 0.0019519088 -0.00065696443 0.0028754007 -0.00043396043 0.000887835 -0.00127778 0.002093699 0.0010015263 0.00017232691 0.0028829388 -0.002737163 0.0032483407 0.0002088271 -0.0007441112 -0.0014034747 -0.0029950973 -0.00068604306 0.0009870862 0.0022445088 0.003141172 -0.002776735 0.0031174957 -0.0029266009 0.0012644611 0.0027030983 -0.0009855485
gegen -0.0026150174 -0.0027144854 0.00035920786 -0.00028045342 -0.0031352583 0.0009958004 0.000794904 0.0015569229 0.0014900063 0.001001808 -0.0032024954 0.0019164019 0.0014152331 -0.002528815 -0.0006978249 0.00012273264 -0.00016655348 -0.0003475611 -0.0019091822 -3.2307886e-05 0.0014827144 -0.00025152092 0.00027512238 0.00073839293 -0.0013505596 -0.0026286957 0.0030347926 -0.003259568 -0.0008668661 -0.00043436934 -0.0025624551 0.00057602924 0.0026133663 -0.0005469922 0.002691586 0.0001652452 -0.001886336 -0.0006973277 -0.00024302788 0.0020872804 0.0023721557 0.0020787877 -0.0019790751 -0.0023470533 0.0020949633 0.00087706046 0.0017764263 0.00019097018 0.0026420427 -0.0029223864 0.0033176793 -0.0027395159 -0.0006221478 0.0020884194 -0.0030776106 0.0014752737 -0.0023384388 -0.0022530952 0.0007960763 0.00055863406 -0.0009083991 0.0026295607 -0.002318944 0.0002017443 0.0028861247 0.0007150169 -0.0022504975 0.001223476 -0.001712972 0.00017787138 0.0009787831 0.0025652254 0.002474191 -0.0016337023 0.0031934131 -0.0018468994 0.0024846015 -0.0026281758 -0.0026530987 -0.0003890567 -0.00270653 -0.0011464903 -0.00018905199 6.9759866e-05 -0.0032805044 -0.0021424994 -0.0023982704 -0.00013784552 0.0017576534 -2.4269435e-05 0.0033248165 -0.0012946922 0.0026991563 0.0020436747 0.0028006202 8.230222e-05 -0.00012598459 0.0005934331 -0.0033133957 0.0029953634 -0.000775587 0.0025158252 0.0006764889 0.0009722021 -0.0004075821 -0.0033242449 0.0005048976 0.0009558507 -0.0033080354 -0.0012778448 -0.00084838294 -0.0016829723 0.001311557 0.0007228357 0.0014351726 -0.0021442277 -0.002010508 0.0016062426 0.0022961628 0.001796522 0.0016226645 -0.002376359 0.0027762465 -0.0023266769 -0.0025596505 0.0028457595 -0.000812529 -0.0031573924 -0.0010140835 0.00202542 -0.00089762075 0.0016872581 8.511357e-05 0.0012882057 0.00040957314 -0.003039235 -0.001240927 0.0029533133 0.00046478104 -0.0020102262 0.0023417738 0.0024840306 0.0023911656 2.922252e-05 -0.0030333165 -0.0011527787 0.0016801837 -0.0021922763 0.0032427453 -0.003287848 -0.002689302 -0.001830094 0.002013428 -0.0025937867 0.0028625655 -0.003294129 0.0011305795 0.0010769886 -1.4814307e-05 0.0031903526 0.001737791 8.077898e-05 0.0015636304 0.0021631832 0.001007028 0.0031449005 -0.00043423672 -0.0027582953 -0.0015197431 -0.0004440797 -0.0024648136 -0.00051755283 0.0026531834 -0.0016269918 0.0017307263 0.0014821512 -0.00024989934 0.00034891628 0.0019193639 -0.0022142068 0.0012764772 0.0029750778 -0.0012278646 -0.0025582165 -0.0031255186 -0.0030577101 0.0013696259 0.0017445926 0.0023332068 -0.00050014607 0.00037165915 0.0010366993 -0.0033261357 -0.0031634946 0.0015427392 -0.002859382 -0.0010389969 -0.0014471987 0.0019847606 -0.001133038 0.0033235608 0.00016056419 -0.0017083676 -0.001237326 0.00046483162 -0.0018130507 0.0024729653 0.0030649842 0.0014207936 -0.0024570564 -0.0020076227 -3.4493638e-05 -0.00037486816 -0.0018471361 0.002656702 0.002047102 -0.0014718142 0.0007378261 0.0016590582 0.0007756857 0.0028575894 -0.00039505548 -0.0021586136 -0.00028391395 -0.0027606753 0.0032718962 -0.002809646 -0.0005147203 -0.0009684973 0.0010528588 0.0016812097 -0.0027877088 -0.0014767995 0.00018421853 0.001288018 0.0017379413 -0.00040918376 -0.00017383523 -0.002579602 0.0014978704 -0.0025039285 0.0010920996 -0.0011795003 -0.0025840083 0.0023015337 -0.00018978117 -0.0031753397 -0.0031125785 0.00023614733 -0.0027185103 0.001228737 0.0011080379 0.0011709519 -0.0018734197 0.002629061 -0.002996886 0.0025513982 -0.00022455187 -0.00052155263 0.0012841594 -0.0008053697 -0.0014600274 -0.000721975 -0.002145239 -0.00018057135 -0.0018059659 0.001549179 -0.0031470659 -0.0015258461 -0.0030517152 -0.0032145511 -0.00022389782 -0.0026980499 -0.0018784185 0.00090737117 -0.0004359809 0.0010463734 0.0027949854 -0.0032705825 0.00202116 -0.0026245317 0.0021618442 0.0024894245 0.0028416717 -0.002708702 0.0011171058 -0.0026437084 -0.00038986353 -0.001747866 -0.0028304148 0.0016684581 0.0015215635 -0.00133026 -0.00253983 0.0012517027 -0.0012624068 -0.002945667 -0.001453479 -0.000711614 0.0028508552
 -0.0021274018 0.0025069006 0.0020114817 -0.0016664205 -0.0005351917 -0.0008832155 0.0010757742 -6.5756525e-05 -0.00090215926 -0.0030957332 0.002216045 -0.0032041727 -0.002885492 0.00052205275 0.0009996645 2.2819679e-05 0.000177789 0.00083985605 0.0005365381 0.0024773795 -0.0011288552 -0.0024376046 -0.002617878 0.0026756641 0.00062967296 -0.0019425454 0.0021086775 0.0028256732 0.002601097 -0.0022848744 -0.0017224681 -0.00068591745 -0.0022524036 0.0015258157 0.0018716302 -0.0019237144 0.0024283817 -0.0025735267 0.0020764142 -0.0015439432 0.0006516154 -0.0010709073 0.0011406709 0.0025514741 -0.00039507757 -0.0016057707 -0.002853467 0.0012656816 0.0014255815 0.002276414 -0.0014034702 -0.0032377115 0.002207971 -0.0015188736 0.0014757263 0.0027183348 -0.0013396586 0.0005704786 -0.0011552721 -0.0022302754 -0.0018791286 -4.515039e-05 -0.0024775886 -0.00060914445 -0.0008614455 0.0022858738 0.0004935045 0.0019974455 0.0012339043 -0.0011913416 -0.0016556125 0.003256308 0.0023675798 -0.003030496 0.0017651647 0.0027090618 0.0030013632 -0.0026546647 -0.00071960874 0.0003422978 0.0009800668 -0.0005345447 -0.0015889042 0.0022256677 0.0023661668 -9.831929e-05 -0.0018691319 -0.0014689221 -0.0016867772 0.0014157445 0.00017431803 -0.0007835289 -0.0030055414 -0.0004799396 0.0021967583 0.0021539447 0.001423985 -0.0009991756 0.0030162577 0.00017900698 0.00040277952 0.0020712072 -0.0022046857 0.0021906842 0.0032575787 0.0011982463 0.0011881483 0.0013832727 -0.0006907013 -0.0026690338 0.00042392744 0.00030412205 -0.002276236 0.0006677324 0.0018129759 -0.0023785648 0.00083425373 0.0026129852 -0.002834997 0.0011149492 -0.0028319606 -0.002603426 0.0024400759 -0.0025249273 -0.00045938272 -0.0026295003 -0.0026084904 -0.00239178 0.00016173586 0.00064050616 -0.0025629771 -0.0026397994 -0.0009971234 -0.0006603984 -0.0020360614 -0.0013355113 0.0011765797 0.0010342692 0.0021534376 0.0013641219 -0.00029774063 0.0009353261 0.002992703 0.0006702663 0.0006191604 0.00038511324 -0.0031222582 0.0017520911 0.0016743009 -2.3521849e-05 0.0030775212 -0.0019747182 0.0010803496 -0.0026411864 -0.0029790478 0.0006616146 0.001566134 0.0020146419 -0.0029300244 0.0014582238 0.0008260115 0.0013656288 -0.00027489683 0.0018727251 0.0024275063 -0.0027955344 -0.00330168 0.0023795392 -0.0003464103 -0.0030707074 -0.0013952309 0.00039721798 0.0028214166 -0.00050094246 -0.00031103118 -0.0024086505 -0.0025611024 0.00046934313 -0.00015374545 -0.0025644444 0.00027210216 -0.0029904882 -0.00087639905 0.001391797 0.00031297127 0.0025503542 0.002272172 -0.0003531891 0.0016320841 0.0020220347 0.0029662559 0.0030434967 0.0016102353 0.0015080867 0.0024068723 -0.0005772839 -0.0018547527 0.0029509738 0.0004199824 -0.0016699991 -0.00027461367 -0.0017609074 0.0030379125 0.0011128045 0.0014789883 0.0021442503 0.00272795 -0.0015321891 -0.002122064 -0.0012535335 -0.0012530037 -0.003195954 -0.00024388178 -0.002703517 0.0032694545 -0.0011740901 -0.0021916106 -0.0027507734 -0.0012444623 -0.0032148522 0.0002477882 0.0018376823 -0.0009338042 0.002549699 -0.00060823665 -0.0024347831 -0.0009676375 -0.0010551632 -0.002377019 -0.0032257843 -0.0013324729 -0.0005719189 0.0016560644 -0.0025100382 -0.0017061657 0.00047991937 -0.00049734174 0.0012205696 -0.0006001882 0.0014222967 0.002704707 -0.002634751 0.0012142695 0.0020125797 -0.00018553651 0.0022353893 -0.0017924337 -0.00151031 -0.0025692978 0.003164094 -0.0031503907 -0.0011386912 -9.319369e-05 -0.0016182176 0.0031170596 -0.0022868868 -0.0026050103 0.0030663835 -0.0027900666 0.0031883975 -0.0013299565 0.001893924 -4.8267582e-05 -0.0014283505 -0.0025643257 -0.002102956 0.0022833324 0.0021339632 -3.7983882e-05 0.0021312214 0.001275544 0.0013126803 0.0008861334 -0.0032203575 0.0030639693 -0.002688399 -0.0009913961 0.0005205815 0.0016887296 -0.0030867965 0.00058395416 0.0020945182 -0.00292237 0.0031608788 -0.0017969043 0.003188365 -0.0022060259 0.0022141803 0.0031124433 -0.0030620792 0.000110710185 -0.0025321336 0.0027329472 0.003264304 -0.0019473882 0.00031952703 -0.0007412978 -0.0025716452 0.00027562428 -0.0033712669
 0.00089323125 -0.002479594 0.0018587881 0.0024882052 -0.00078821566 -0.0013959355 -0.0031533341 0.0017469345 0.0009986248 0.0028130584 0.0011995443 -0.00097108044 0.0011810528 0.0029528856 0.0030924107 0.002568081 -0.002778571 -0.00255977 0.0023389794 -0.0025338628 0.0011057842 0.0026405025 -0.0010570697 0.0023073677 -0.0027497697 0.0021563608 0.0018384489 0.001122849 -0.0027706644 0.0030410301 0.0027372069 -0.0005450313 0.0013107159 0.0020604183 -0.0006017742 0.0019266896 -0.0012984836 -0.000459094 -0.00039665354 -0.0013884273 -0.00024090677 -0.0025431279 0.001231253 0.002991065 0.0016848426 0.0021998642 -0.0015845236 0.0016862046 -0.0022031607 -0.0015993525 0.0033261315 0.0021428308 -0.0017445503 -0.002042189 0.0024120586 0.0009456256 0.002168427 -0.0022170583 -0.0002727254 -0.00034870108 -5.5348548e-05 0.00074236764 -0.0022144986 0.0015292953 -0.00095596566 0.0028408922 -0.000301925 0.0031173306 -0.00033096893 0.0017071585 -0.0024831346 -0.0029846092 -0.00010115804 -0.00077070505 0.0033472267 0.0014787891 -0.00193677 0.0024952148 0.000134184 -0.0032113076 0.0019157549 -0.00066202425 -0.0031625538 0.002995887 0.0024862562 0.0028867347 0.00022140317 0.002548322 0.001768303 -0.002316275 0.0030938147 -0.0011824789 -0.0032209593 0.0028754962 -0.0016951115 0.0028616514 -0.0025948645 0.003042445 -0.0019770102 0.0013021284 0.0032916463 0.0014129314 -0.00072096515 -0.0016432749 -0.0032459896 0.0013711101 0.0025376454 -0.0015954186 0.001920947 0.0023164062 -0.0030960233 0.0007025963 -0.0022930787 -0.0014214371 0.0002758784 -0.0023236868 -0.0013834749 -0.0024672863 -0.0022911539 -0.0023885726 0.0033369886 0.0028235568 3.5465193e-05 -0.00087955984 0.0020784005 0.00046318426 -0.0029824632 -0.0023837232 0.00037113548 0.0026999265 0.0011647776 0.0033408361 0.0022700548 2.093678e-05 0.0029094557 0.0030959425 0.00265185 0.0031502142 -0.00319305 0.0011089992 -0.002606925 -0.0023690911 -0.00284434 0.0011112143 1.7331919e-05 -0.00210784 0.001813052 0.0025975322 0.0014248863 0.0025731241 -0.001415229 -0.002217334 0.001329808 -0.0010220105 -0.0024015899 0.0012145007 -0.0011399671 -0.0017609956 0.00083131075 0.002297556 0.0021752522 2.288328e-05 0.0028235847 0.0010194753 0.0021835803 -0.00029696373 0.00071519567 0.002107752 -0.0033013467 0.0020177038 0.00038148666 0.0020342607 -0.0004643874 -0.0008203426 -0.0018203496 -0.00089485204 -0.0008758608 -0.0017344326 0.00033099443 0.002667959 0.0016833092 -0.0025498818 -0.0025456864 -0.000982939 0.001225102 -0.0031822203 0.0021506695 0.0010925016 -0.00096868136 0.0030375381 0.0027617365 0.0002637614 0.0015670254 -0.0031399396 -0.002913975 -0.0010584602 0.00312703 0.0010680468 0.0018928132 -0.0022339677 0.0014232501 0.000103984865 -0.0002967372 -0.0011149175 0.0017194508 -0.003063155 0.0017124785 0.0019644052 -0.00082555576 -0.0014163109 -0.0024909999 -0.002193165 -0.001752509 0.0010415661 -0.0015850457 -0.00045446085 -0.003087484 -0.0012396007 -0.00033509076 -0.0026891227 0.0010706967 0.0032982668 0.0014931245 0.0006192591 -0.0016015302 -0.00039312057 0.0008420155 0.0005641289 0.0029231422 -0.00030893815 0.0023593002 0.0018723747 0.000996093 0.002470288 -0.0017069603 -0.0012812417 0.0024025426 0.0029228092 0.0010893727 -0.0013908271 0.0026037982 0.0009056282 -0.00012845958 0.002978513 0.0014456696 0.0012841527 9.9087665e-06 -0.002952041 -0.0009853408 0.00082187005 -0.0018881689 0.0023005058 0.0025527761 -0.0029882272 -0.0018480718 -0.0020056097 -0.00012871227 -0.00061709894 -0.00071930705 -0.0007907818 0.0012329224 0.003211865 -0.0014083784 -0.0028847957 0.0011642366 -0.0021700943 0.0022373877 0.0009294996 -0.0027398104 -0.0025847638 -0.00309404 0.00083177263 0.0009084261 0.0008972547 2.9187073e-05 0.0004099329 0.0010363511 -0.00046018616 -0.0027572727 -0.0002267441 0.0012615208 -0.0008981768 -0.0007165716 -0.00078223896 0.0023489154 -0.0010084545 0.0031081913 -0.0012682988 -0.003329614 -0.0021650537 -0.0014363326 0.00047506107 0.0017361522 0.0008026361 0.003107525 0.00035788788 0.0018849955 6.40325e-05 -0.00070349814 0.001980108
AfD 0.00067959045 0.0028355755 -0.0028061126 -0.0029403686 -0.00014740467 -0.0006926887 -0.00073380675 -8.371074e-05 -0.0016820127 -0.0027731874 0.0028522823 -0.0011159931 -0.00095755456 -0.00046387943 -0.00040430622 -0.003056317 -0.0005305328 -0.00049047347 0.0028002132 -0.0027153075 -0.0015695071 -0.0006643454 0.0009795289 -0.001949304 -0.001878916 -0.002659273 0.00179284 -0.0028849917 -0.0011310681 7.783971e-05 0.00047191157 -0.003327643 0.0028504222 -0.0007358575 0.00010199712 -0.002840779 -0.0026722765 0.00119917 0.0013345275 0.0009933963 0.0019445376 -0.002305475 -0.0003938654 -0.00094452803 -0.0003902379 0.0015700766 0.00043283126 -0.0024329815 0.001097099 0.0021448159 -0.001999884 0.001088155 -0.0015104724 0.0029387816 0.0013831193 0.0007220233 -0.00035645466 -0.003003775 0.0029215426 -0.0006213809 0.002485182 0.0012629232 -0.0027280007 -0.00013529266 0.00086513074 -0.00078956055 0.003295082 -0.0015974211 -0.0024402863 0.0012504022 -0.0011469891 -0.0022431684 0.0006931052 0.0017399641 -0.0017939546 -0.0014950607 -0.0024619433 0.0005688245 -0.001653275 0.0027862925 0.0002470196 0.0006273745 -0.00113665 0.002576509 -0.00017386283 -0.0026958368 -0.0023534703 4.4329845e-05 0.0026130774 0.0010287418 -0.0017580269 -0.0022610782 -0.0032646253 0.0013247891 -0.0031112032 0.001126001 0.00056955504 -0.00031395565 -0.0033220018 0.001953434 2.2205672e-06 -0.0033184038 -0.0025078573 0.0028768147 0.00063413783 -0.0027712474 -0.00021905877 0.0017969534 -0.0031690593 -0.002275792 -0.0004363672 -0.0032512886 0.00015141316 0.00068019476 0.0028327906 0.00034995997 0.00042910205 0.0016771826 -0.0013800536 0.0023323435 9.425898e-05 -0.00016880213 -0.00316151 0.0001525313 0.0022665374 0.0006137622 -0.0026918987 -0.0011440975 -0.0019958105 0.002064519 -0.0020704044 0.0018112462 -0.0016796743 -0.0023706176 -0.0024947226 0.0013733822 -0.0029621657 -0.0018939591 -0.0024181856 -0.0015036801 -0.0013396911 0.00048918003 0.0021172594 -0.00034529893 -0.0017970505 0.00052977185 0.0018369973 -0.001796077 -0.0017881896 0.001680495 0.0021128096 -0.0026792332 0.0027507737 -0.0033333488 -0.002486383 -0.0019527639 0.0005583995 -6.8189865e-06 0.0011068401 0.0023584366 0.0016313203 -0.0010976201 -0.0021995534 -0.0027058923 -0.00015394835 0.003260817 -0.0025542881 0.0012771303 0.0014352513 -0.0013544527 -0.0023790784 -0.0018117037 -0.0016553603 -0.0022655576 0.002018404 -0.0025550765 -0.0009920889 0.0014279846 8.369386e-05 -0.002565725 -0.0015978982 0.001214825 0.00077330234 -0.00068492774 -0.00032354987 0.00077233795 0.0005864523 -0.00082461006 0.0017636678 -0.0025654805 0.0022010352 -0.0033014999 -0.0007965989 0.0022050464 -0.0011889674 0.002097492 0.0018355194 -0.00247935 -6.871579e-05 -0.0014787226 -0.00269161 -0.00032625443 0.0021412869 0.0028833875 -0.0016182701 -0.00092815544 -0.0019877711 0.00046259767 0.0008817512 -0.0032933566 0.00077285495 -0.0030170858 9.086922e-05 0.0015735677 -0.0017211253 3.4945093e-05 -0.0008305062 -0.002987557 -0.0008836406 0.0014283 -0.0028571815 -0.0019276306 -0.00017653659 0.0026588198 0.00048501516 0.0032291277 -0.002471174 0.0029776637 -0.0016073352 -0.0021258192 -0.0025659895 0.000552387 -0.00093538174 0.0025559268 -0.0002484386 0.0008781905 0.0020547553 -0.0028269552 -0.0006432811 -0.001639201 -0.0028220648 0.0011259073 0.0007541662 -0.0007706885 -0.00062222657 -0.0022909483 -0.001080443 0.00045876714 0.0026243501 0.0023765583 -0.0012205709 0.0011406774 -0.00077864673 -0.0015912985 -0.0012636703 -0.0020508985 0.001254642 -0.0026077235 -0.002556701 -0.0015483629 0.0024995818 0.00062268623 0.0019421809 0.0026203555 -0.0021704875 -0.001550716 0.0025907469 0.0017130605 0.0014486618 0.0030073216 0.0029408173 -0.00085378095 0.0003595583 0.0018609698 0.0029409362 0.00334039 -0.0027319621 -0.0016547311 0.0015786919 0.00029987752 7.548623e-05 0.00248692 0.0021294344 -0.0024363005 -0.00093633024 -0.002820491 0.002315831 0.00094027026 -0.0007532273 0.00063570496 0.0025929154 0.0027736076 0.0021059134 0.0011278277 0.000612466 0.0027865653 0.00046518334 0.00016976157 -0.0031600525 0.00074151566
privat -0.0028125502 0.0022426697 -0.0019788065 -0.00062522886 0.0003767415 -0.000691601 -0.0029782408 0.0014497371 -0.0021705895 -0.0030390795 0.0014115139 -0.0002422477 0.0021533251 -0.0022672557 0.0002754716 -0.00021705985 0.0019993135 -0.003286191 0.0018702357 -0.003047511 -0.0025814692 0.00020425321 -0.0008685455 -0.0012392695 -0.0018046839 0.0013563248 -0.003142165 0.00040654314 0.0013396676 -0.00011591051 -0.00017464752 0.0023653796 -0.0032423937 -0.003068112 0.0014606244 0.003009593 -0.0025411209 -0.0028192292 -0.0002159389 -0.0029921534 0.00070225087 0.003099649 -0.0020048725 -0.0022914633 0.0030769687 -0.00017993509 -0.0012567262 -0.00083844346 -0.0028968907 -0.0014734634 -0.0013498279 0.00010952571 0.00014302264 0.0025299105 0.0022714487 -0.00045677324 -0.0033389628 0.0009136114 -0.00197678 0.0030172516 0.0012904761 -0.00032716684 0.002235807 -0.0010956241 -0.0012678594 -5.0235256e-05 0.0028459884 0.0020550971 0.00047032078 0.0012278405 -0.00094228634 0.003134567 -0.0023639463 -0.0010869588 -0.0017410836 0.0028656248 -0.0011287426 -0.00073879457 0.0023191131 -0.0032567636 -0.0009627342 0.0009795913 -0.0020983282 0.0030305102 0.00045750441 -0.0016998362 0.0017514315 0.0026450346 0.0003589916 0.002268049 -0.002281747 -0.0012106161 0.0033412373 0.0019009626 0.00060390163 -0.0011020638 0.0014989347 0.00078719365 0.0027780882 -2.5540427e-05 0.0028952921 -0.0019527934 -0.0025476548 -0.0004674122 0.0010013119 -0.0007043326 0.0020141238 -0.002793109 -0.0030725822 0.0025572774 0.002012735 -0.001356818 -0.0013575607 -0.0011463391 -3.610691e-05 0.0030477953 0.00030534776 -0.00062325964 -0.0010746642 -0.00078304956 -0.00302089 0.0023276757 -0.0029274982 -0.0010332498 -0.002369897 0.0030352874 0.0019499289 -0.00019647613 0.0013241377 -0.0007499228 0.0033701854 -0.0011442865 0.001713705 -0.0013789504 0.0032221833 0.0032643937 0.002039929 -7.227413e-05 -0.0006383467 -0.0029614775 0.003110543 -0.0028106396 -0.002237121 0.0019128132 -0.00072854443 0.0026612594 -0.0026589779 0.0030208507 0.0007337253 -0.002897316 0.0013375545 -0.0017482593 0.002133205 0.0021495416 -0.0029245073 0.0021387304 0.0017008622 0.0021239826 -0.0023891313 -0.0021758021 -0.0029089628 0.0017233428 -0.0013987534 0.0016460762 0.0015810076 0.002715276 0.00076821476 -0.00030687146 0.0004532524 0.0010871807 -0.0029834833 -0.0019872908 -0.00029575065 0.0017093762 3.8043527e-07 -0.0031755476 -0.00022100414 0.0023602517 0.002117906 0.0011625523 -0.0015662635 -0.0012134332 -0.0007635364 -0.0020307421 -0.0029584772 -0.0002732667 0.00072159 0.0016806863 0.0011673413 0.0028247638 -0.0021760666 0.0031250298 -0.0011548955 0.00023821414 -0.0013940247 -0.001426749 -0.00045634864 -0.002520605 0.002999688 0.0015471241 -0.00076242484 0.00060630956 0.0026105682 -0.001913304 0.001333071 0.00019435037 0.0009937595 -0.00062311825 -0.0033060026 0.001936366 -0.00050272606 -0.00284263 0.00018739027 -0.0020718174 0.0025732093 -0.002187476 -0.0006655114 -0.0002249408 -0.0015076904 -0.0011905933 0.0024379815 0.0006669463 -0.0030998152 -0.00011281995 -0.0031641726 -0.0010789334 0.0017500714 0.0012193259 -0.0019356613 0.00049556233 0.0019747517 -0.0025671707 -0.0011496919 -0.0007903802 -0.0030357107 0.00075343315 0.002247185 0.0008666593 0.00084099313 -0.0003130461 -0.00020784119 -0.002099101 -0.00022117254 0.0022247895 0.001011533 0.00013360128 0.0026249443 0.00095070124 -0.0024082938 0.0024399615 0.003164428 -0.003093935 0.0024800315 -0.0025333767 -0.00019078127 0.0015309372 -0.0018074522 -0.002673309 -0.0024853093 -0.0033574174 -0.0021728978 0.003192872 0.0011074307 -0.0031461027 0.0027438367 0.002400774 0.0026400287 0.003252952 -0.0030147897 -0.0007359738 0.0006893581 0.00085805234 0.0016129198 -0.0025379523 0.0015770039 0.0033820237 -0.002974149 0.0026940622 0.00098053 -0.0013985452 -0.0004818651 -0.0028607224 -0.0024891861 0.0018127091 -0.0011196319 0.003325213 -0.00271953 -0.0023075466 0.0020460875 0.0026410464 0.0012785417 0.0024861554 0.0021958791 -0.0018475639 0.0030057477 -0.0020414207 -0.00094533997 -0.0019836247 0.0020495378 -0.0015657372
Treffen 0.0010453964 -0.00044276498 -0.0004413307 -0.001995476 -0.0018668239 -0.0012606886 0.00016055707 0.00060522155 -0.0010792849 0.000540224 -0.001791529 0.0033412243 -0.0002885871 -0.0022332885 -0.0006075965 0.0026649842 -0.00029595935 -0.0017484607 -0.0027783965 -0.002013142 -0.0010512016 0.0025387185 -0.0023961319 0.00053834415 -7.027098e-05 0.0013015597 -0.0026735924 0.0026503177 -0.0009920055 0.0017497988 -0.0031739199 0.0016651583 -0.0027905973 -0.0011518971 -0.0004137933 -0.001112883 -0.00019804643 -2.8161645e-05 0.0015128402 -0.00073874986 -0.0013433984 -0.0020405352 0.0028055068 0.001506081 0.003141746 0.0019000536 -0.0015390366 0.002826848 -0.0022883252 0.0010702264 -0.0010786161 0.00010782422 0.0011691231 -0.0009476509 -0.0014734216 -0.000600214 0.00015595349 0.0021889354 -0.0018912511 0.0015215992 -0.001210791 -0.002642514 -0.0018441263 0.000696152 0.0028993215 0.0026908591 0.003100507 0.0023652723 -0.0010454787 -0.0008257169 0.0029791652 0.0022028196 0.002026081 0.002280363 0.0005780389 0.00076913805 -0.0028263666 0.0025597601 0.0030878675 -0.0023960904 0.00039297732 0.0029256844 0.001187616 0.0024200922 0.002614527 -0.0006005459 0.0030542319 0.001978739 -0.00058103347 2.7094931e-05 0.003238278 0.0019366123 -0.0022031155 -0.0011451861 -0.001091915 0.0011090307 0.00038724206 -0.0029238288 0.00071784493 0.0031743567 0.0008229613 0.0014347887 0.00063582195 0.0027131152 0.0029532497 0.0010078003 -0.0007624085 0.0012011478 -0.0026277073 0.0027076814 -0.00144072 0.0033064089 -0.0032066116 -0.00082482613 0.0029485272 -0.0013370306 -0.0006680273 0.0017250857 0.003153825 -0.00019998425 -0.0022229967 0.003390894 -0.003084569 0.00040768462 0.0018522704 -0.002595256 -0.0018608922 -0.0030910159 -2.1480616e-08 0.0017280856 -0.0026471848 -0.000965087 0.0028934046 -0.0015883187 0.0010764485 0.0012721895 -0.0012313079 -0.0017214266 0.002698627 -0.00091518206 0.0029871245 -0.00079811714 0.0009810664 0.001904806 0.00020794329 0.0014734974 -0.0020286397 0.0027577167 -0.00055943924 -0.0015169021 0.0017222944 0.0032082738 -0.0018843231 0.00022543827 0.0014452124 -0.0009327402 0.00016863804 0.0028984137 0.0025327783 -0.002142796 -0.0010175916 0.0030493212 -0.00016741669 -0.0031455518 -0.0002447673 -0.0022451482 0.00031900915 0.0003221813 -0.0015151165 -0.0014533636 0.002879227 0.0015293132 0.0008805643 0.0006898122 0.0027919759 -0.0016128697 0.0020177707 -0.0003486482 -0.002547363 -0.0032243966 -0.0005898217 0.0027243928 0.00065299275 -0.0030141904 0.00032544162 -0.0012973333 -0.001233259 0.0027770742 0.0019145207 9.542655e-05 0.00089981477 0.00033062827 -0.0033519191 0.0009565704 0.0024142792 0.001252803 0.0008575033 -0.0011924515 0.00079431204 -0.0025259692 0.0014081239 0.00076173455 -0.00012879733 -0.00023097504 0.0009513357 0.0007002633 0.00050857774 0.0031325717 0.0011637666 0.0004401462 -0.0010142333 -0.0020913824 -0.0031590557 -0.0010925533 0.0014633138 0.002474099 9.360772e-05 -0.0016750335 0.0011321099 -0.001336964 -0.0002560943 0.0030057086 0.0027538047 -0.00015570814 -0.0019515007 0.0012124865 0.0033647004 0.0028834739 -0.0006587044 0.0023898964 0.0031267144 -0.0032428827 0.0029483384 4.3771048e-05 -0.0017958687 0.0012778329 0.0030612964 -0.002367129 0.0023261819 -0.0021776604 -0.002540307 0.0018357639 -0.0015815762 0.0016059395 0.0024718533 0.0031707042 0.0019147209 -0.0029457307 0.0011556308 -0.002991058 -0.00014183228 0.0032005883 -0.0016320288 0.001355711 -0.0019653295 -0.002691836 0.0027736214 0.0010613212 0.0024181455 0.00092214247 0.0004307956 0.0012459509 -0.002688925 0.002066732 -0.0015938666 0.0015194189 -0.00180893 0.0003834351 0.0012171483 -0.00082435086 -0.0025290237 -0.0019724634 -0.0033242735 0.0032675646 -0.0014910981 -0.000285522 -0.0029821696 -0.0014642673 -0.001721522 0.0009972291 0.00191964 0.0011459432 0.0032814487 0.0006130043 0.003205624 0.0025173805 0.0008816032 0.000749705 -0.0025196983 -0.0007676848 0.001921175 -0.0026463135 0.00078608084 -0.0024429972 0.0033118732 2.3497809e-05 0.00031063796 -0.0015809389 0.0020502354 -0.0024751495
