96 300
die -7.902967e-05 0.00044418234 0.0019134411 0.0029359008 -0.0033451475 -0.0027979857 0.0027009223 0.0042598653 -0.001609781 -0.0014268623 0.0025997644 -0.0007275146 -0.0018494116 0.0022948242 -0.0020371396 -0.0011318076 0.0014004575 0.00061824056 -0.0026423733 -0.0034243595 0.0026368443 0.0013217721 0.002670356 0.00028296353 0.0023991978 -0.001351731 -0.0008605621 0.002032982 -0.0027464386 -0.0016976075 -0.0025676487 -0.00042145344 0.0036784287 -0.0023856836 -0.0008757731 -0.00047881648 0.0029098194 -0.0023483096 0.00015967702 -0.0017367186 -0.0036291878 0.0015746659 -0.0029153957 -0.0015767938 0.00025452062 0.00034926584 -0.0025294514 0.003370402 0.0018701755 0.0032850849 -0.0023831108 0.0014073622 -0.0014111013 0.00045641817 0.00277028 -0.0010737381 0.001680717 -0.002156864 -0.0010060755 0.0031683128 -0.0008443406 8.945386e-06 -0.0013943186 -0.002533429 -0.0009641546 0.0012627464 -0.00019436608 0.0022042922 -0.0015199207 0.00057270535 0.0018747589 0.0028175563 -9.682878e-05 -0.003792287 0.0018421782 0.00025251435 0.0023006126 -0.0003867077 -0.001521543 -0.0026763007 -0.0006414632 0.0008415036 0.0015555038 0.0032555237 -0.0017333672 0.0005339438 0.0018752939 -0.0016773419 -0.0007658564 0.002060171 0.0012950159 -0.00028662564 0.0015322034 -5.632317e-05 0.0038647612 0.0022678443 -0.0026248237 -0.0023878785 0.00036703338 0.002228105 -0.0031428442 0.0013993046 0.001785027 0.0025212504 0.0026646284 -0.0027319028 0.00032349923 0.0020574834 -0.0013970659 -0.0021406282 -0.00043026241 -0.0029095397 -0.0020844906 0.0026468604 0.00094353344 0.002832088 0.0026543501 0.0025671525 -0.0009544908 -0.0008423582 0.00092859374 -0.0011798871 0.0032051015 -0.0035873803 0.0021924267 0.001538793 -0.0019044864 0.0011003546 -0.000510684 0.0028998281 0.0037614882 -0.0011706278 -0.00013452648 -0.002893192 0.0011271962 0.0012759502 0.0019113935 0.0018942021 0.0029767589 0.0023939703 0.00275783 -0.002916313 -0.0032703092 -0.0001278423 -0.00068774464 0.0023051647 0.0016315036 -0.0012296921 0.0011338119 0.0003502708 0.0026665446 -0.0038731014 -0.00018864687 0.0009481289 0.00013396936 0.003193973 0.0027991065 0.0020245616 -0.00064876716 0.003253328 -0.0028718056 0.0012417571 -0.0019026198 -0.0015518267 0.0010676661 0.0018111255 0.002785671 -0.0018479208 0.0026591471 0.0031211763 -0.0016126443 -0.0029871888 0.0022736648 0.0025093937 -9.744067e-07 -0.0022228933 -0.0026912733 -0.001116428 0.0019298125 -0.0013373878 -0.003190227 0.0018281012 0.0011014296 -0.0023543246 0.00016223018 -0.00063582085 0.0007771039 -0.0028389988 0.0012586962 -0.0023474682 0.0005768462 -0.00039703853 1.1167146e-05 -0.0026744816 -0.0008949014 0.0005795402 0.0016985915 -0.0010148452 -0.0032777986 0.0015368827 -0.00026165074 0.00083545456 -0.0024519025 -0.00038136882 0.0026294799 0.0022966429 -0.0010769321 0.0010855296 -0.002664428 0.0017319632 -0.001735227 -0.0015235532 0.0031288199 5.7292027e-06 0.0028412957 -0.002429861 0.001314041 0.0024448344 -0.0034810482 -0.0021710037 -0.0022667581 -0.0016778995 -0.0017881666 -0.0035071704 0.0023312278 -0.0018308902 0.0030163054 0.0016665303 -0.0025830907 0.0014783397 0.0018761589 -0.0027387796 -0.0024999739 -0.00037198138 -0.003678729 -0.0005889043 -0.00026645575 0.00097276707 0.0005501216 -0.0010379851 -0.0016526714 0.00043968554 -0.00010883298 0.0023654616 0.001927923 0.0011234457 0.00048237163 -0.0013413514 -0.001530836 -7.05443e-05 0.0009207061 -0.00080259365 -0.0023249506 -0.0028329312 -0.003552357 -0.0022091856 0.00019327262 -0.0014196053 -0.0027573744 -0.0015524492 0.0014192642 -0.0010757812 0.003502003 -0.00039096727 -0.0031049184 0.0033757878 0.002983922 0.0022425435 -0.0027683114 0.0021530425 0.001138971 0.0016822969 0.0015875013 0.00067359116 -0.0005834564 0.0031147592 0.0039475616 0.001431547 -0.0017397741 -0.00017912117 0.00044295107 -0.0029641993 -0.003124649 0.00014105083 0.0003534676 -0.0017420371 -0.0020795432 -0.0022977262 0.0027816219 8.247099e-05 -0.0013289276 0.0028568504 0.0036858835 -0.0010138229 0.003155405 0.0023909598 0.0023821169 0.000157633 0.0032800632 -0.0027236585
, -0.0026530747 0.0034799492 0.0001354131 -0.00073795114 0.0013447466 -0.0017303192 0.0014302727 0.0034890303 0.0020513118 -0.0026729354 0.003300363 0.001343529 0.0010273792 -0.001981535 0.002434596 -0.001254278 0.0033747936 -0.0014876757 -0.002614873 0.001959105 0.0007077664 -0.0010893709 0.0035962807 0.003167812 -0.0030345027 0.0006591481 0.0014730752 0.0013838725 0.00046256924 -0.00023148119 0.00019726937 -0.0013870138 -0.0018620902 -0.0006123125 0.001223604 0.0031594385 0.0033232102 -0.0023405305 -0.0030627148 0.003118621 0.000735568 0.001574856 0.0021393285 -0.0009995156 0.0026992415 0.0013706879 0.0010308307 -0.0007153826 -0.0008463635 -0.0005432082 0.0017308659 -2.2132924e-06 -0.0031926895 -0.002999879 -0.0021357853 0.00037644667 0.0008681269 0.0032865733 0.0020201718 -0.0014048304 -0.00014758609 0.0015637296 0.0025675518 -0.0003716276 0.0010067219 -0.0015247113 -0.00016198418 0.0030332562 -0.0013255043 -0.003406496 0.0019095876 -0.001263079 -4.2241772e-05 0.0027240028 -0.00044736455 -0.0014973293 -0.0019468716 0.0022790115 -0.002434599 0.0009870575 -0.002105869 0.0019654792 0.0012156278 0.0017779592 -0.00038145593 -0.0009827084 0.002838261 0.0017132222 -0.00044267785 -0.0033139053 -0.0018035861 -0.00062792894 7.824792e-05 -0.0009906207 0.003891717 0.00044926774 0.0023426814 -0.002505514 -0.000842327 -0.0017617907 -0.0026227732 0.00055144494 -0.0023212244 -0.00017365959 0.0014045924 0.0013506523 0.00039979254 0.00075066945 -0.0018078146 0.0023330862 -0.0023884438 0.0014074077 -0.0029498676 0.00091338943 -0.0018703999 -0.000972056 -0.0006717046 0.0018907599 0.002208313 -0.0023025293 0.00040733523 -0.0024804152 0.0029834663 0.0028297908 -0.0009661484 0.00083283713 4.6291214e-05 0.0015256669 -0.0028260855 0.000824271 0.0026863697 0.0010308542 0.000453303 -0.0040595643 0.0027045668 -0.0017775465 -0.0013864016 0.0010204628 -0.00047871313 -0.00023172401 0.00068678457 -0.0028923864 -0.0034500936 0.003026799 0.0023971933 -0.0026260403 0.00071855687 -0.00056618464 0.002128779 -0.002616055 0.0014510354 0.00078541756 0.0031902357 -0.0016636102 -0.00013409814 -0.0020604979 -0.003523328 -0.0032273775 -0.0007666135 -0.0014868709 0.0016135648 -0.0019119392 0.00046548762 0.00033923454 -0.0012842428 -0.00032434496 0.003487891 0.0031784093 -0.0013061265 0.0039116116 -0.0022811855 0.0019283136 -0.0006247883 0.0014478917 0.0012514133 0.0022566717 -0.0010411757 0.002566779 0.002732476 -0.0032893915 -0.0027640865 -0.002036861 0.00046330027 -0.001164963 -0.0025543014 -0.0027158854 0.0034559846 0.0011371943 -0.0028273356 -0.0023337388 0.0012361429 -0.0014477315 0.001091853 -0.0014263046 0.0009272622 -0.0030168982 0.0020509907 0.0013938615 0.00019559801 0.0010219539 -0.00325801 0.0005854422 -0.00048528993 -0.003010834 -0.0030272806 -0.00061044417 0.0015948692 0.0014316299 -0.0020842247 -0.0026279353 -0.001828555 -0.0012081169 -0.002392553 -0.0034515527 -0.0005966917 -0.0031871744 -0.0023974378 -0.002727061 -0.0014459832 -0.0009696002 -0.0029649648 -0.00027275167 0.0022047511 0.0019466573 -0.0026665498 -0.0014118125 0.0012223286 -0.003318073 9.9397774e-05 0.0022989162 0.0019950368 -0.003158976 -0.0015203243 -0.0022322622 -0.0007781617 0.003090504 0.0019200629 0.0016027194 0.001829024 -0.0018157721 0.0034308292 -0.0025756382 -0.0022037684 -0.0006871153 0.0002457395 -0.0014981929 -0.00018620964 0.0021285352 -0.0003208203 -0.00028908154 0.0013431972 -0.0027215315 0.0027002834 0.002670015 -0.0037520814 0.000667841 0.004021825 -0.0025893531 -0.0028976847 -0.0028953494 0.002835112 -1.777296e-05 0.003697627 -0.0035939554 0.00060588756 0.0010478189 0.0006393358 0.0012035953 -0.0030286163 -0.00292574 0.00062991795 0.0020175595 0.0028698472 0.0019463211 0.00019220114 0.0030836626 -0.002433177 0.0013298574 -0.00063141447 0.0011257724 0.0025623676 -0.0023997303 0.001503237 -0.003000467 -0.00032672056 -0.0026923437 -0.002187828 0.0032583592 -0.00062978896 0.0010099383 0.0032070323 0.0039241286 -0.0021650195 -0.00069692516 0.0037756748 0.0023186202 -0.00018690519 -0.0029279413 0.001555332 -0.0025776818
. 0.002779077 -0.0012007871 -0.00020523855 0.0002837352 -0.00022096343 0.00011123571 0.0024313766 0.00092400424 -0.0010357337 -0.0006320274 0.0020714153 0.0003586569 -0.0005078575 0.003170521 -0.0019540743 -0.00066621933 0.0033871625 0.0025063357 0.0005668629 -0.003169256 0.0004930753 -0.0010455676 0.0034580943 0.00039042762 0.0006958128 0.00066574675 -0.0010338601 -0.0016061532 -8.624257e-05 -0.00096165104 0.0021349788 0.0028927624 0.00016873433 0.0010382388 -0.0020892057 0.0007166362 -0.0021433851 -0.0031671352 -0.0018771348 -0.0030795776 0.0021160587 -0.0020231723 0.002795852 -0.0025028605 0.0013573234 0.0035464366 -0.0025482036 -0.0032397523 -0.0013149899 -0.00073121313 0.00016511668 -0.0029733328 -0.00288801 0.0010914442 -0.0028141846 -0.0027227097 -0.00062824925 -0.0028075913 -0.002211819 -0.002772337 -0.00030608327 -0.0015880293 0.0021920125 0.00050785765 -0.0014714561 0.0023568596 -0.0019187647 -0.0013030645 -0.0028487572 -0.0015780501 -0.00057587365 0.0021944582 -0.0006426832 0.0011379989 0.0025691113 -0.0024271628 0.0014262735 0.0019887737 -0.0014460154 0.0024114887 0.0017813471 -0.0022397717 -0.0024276997 0.0015121646 -0.00044068697 -0.0020810924 0.0030229164 -0.001750194 -0.0019707682 -0.0001773524 -0.00031710375 -9.360902e-05 -0.0009022622 -0.00024255748 0.00026799753 0.0007183986 0.0030088148 -0.0019221716 -0.0005331769 0.001938961 0.0025343723 -0.0013713005 0.0030507087 0.0032082326 -0.0013638823 -0.00041705483 0.0013942146 -0.0012901203 -0.0021776971 -0.0022307816 -0.00044511136 -0.00017275968 0.0013260293 -0.0006420661 -0.00019721278 0.0011267532 0.0019086781 2.6147183e-05 -0.001889992 -0.003572648 0.00012364505 0.0025079278 0.0007703013 -0.0031889204 -0.0026823815 0.002615931 -0.0014446552 0.0018360702 -0.0022033257 0.003345346 -0.0018495233 0.0013281855 -0.0003012077 -0.0029895697 -0.0012308173 -0.00012489382 -0.002135087 -0.0005019457 -0.002692522 0.00031626277 0.0031045668 -0.0012506212 -0.0004941192 0.0011589663 0.0031443571 -0.0022819163 -0.002566883 -0.001503668 0.0034969496 8.787332e-05 -0.002847419 -0.0009977908 0.003096974 -0.002660614 -0.0014847502 0.0034013258 -0.003176853 0.0011281988 -7.934031e-05 0.0027289246 0.0027749795 -0.0008413338 -0.0016094357 0.003054517 0.0005843712 0.0020771807 -0.003014291 0.0032784247 -0.00032463603 -0.001330222 0.00070535176 -0.00019169858 0.0019120189 -0.000517243 -0.0011827825 0.0007576633 0.0025577426 -0.0019457309 0.001049153 -0.0027663487 -0.0022932945 0.00027367088 -0.003310849 0.0007786693 0.0003475594 -0.0007725022 0.002218988 0.0035998693 0.0030542118 -0.0011813949 0.00083539344 -0.0012500152 -0.003270203 0.0020637896 -0.00063295994 -0.000461454 -0.00063160143 -0.0016785156 0.0012811484 -0.0014029349 -0.0034176586 0.0028745264 0.0012593481 0.0031621894 0.0022622962 0.00085996115 0.0033669614 -0.0013249756 -0.0021888257 0.0011050826 0.001110392 -0.002222659 0.0032380647 -0.0013888943 0.003435937 -3.0037761e-05 -0.002421613 -0.0013322621 -0.0029573725 -0.0012990364 0.00039452792 0.0031164607 0.0026931916 -0.0026952126 0.00094360707 0.0006157203 -0.0007057932 -0.0031459401 5.609179e-05 -0.002615419 0.0021458454 -0.0021168583 0.001820191 0.003679878 -0.0006384639 0.0014737308 -0.00068021036 0.0023741873 0.001372816 -0.0035587046 -0.0006268166 0.0011242835 0.00011557495 -0.00035974532 9.5521296e-05 -0.0008529163 0.0002006139 0.0010878874 -0.0014655212 -0.0010831952 0.00032420945 0.00017393856 -2.4599769e-05 -0.0017245582 0.0010056645 -0.00083528075 0.0012680984 0.00022219191 0.001534756 -0.0025201084 -0.0022635497 -0.0013369899 0.0036429686 -0.0012142296 -0.0036609748 -5.292507e-05 -0.0011604695 0.0023202864 -0.0035906467 0.0011177363 -0.0032205018 0.00036638917 0.0021458955 0.0024764824 -0.0021843123 -0.0017628433 -0.0017363548 -0.0025151374 -0.0037453573 -0.0008326499 -0.0002298052 -0.0025328945 0.0019865376 0.0005283541 0.0018973346 0.0006429831 -0.00012078502 -0.0023630676 -0.0007625271 0.0014552496 -0.0015660427 0.0010952834 0.0013920291 -0.0002725718 0.0036639133 0.0032273459 0.0011204768 0.0023596715 0.0023730805 -0.0021447353
und -0.0016603752 -0.00198076 -0.0024800587 0.0027088218 -0.0007884402 -0.0025041085 -0.001043823 0.0024544944 -0.0009305875 -0.0013604566 0.0006330892 -0.0010677567 -0.00070880656 0.00040734847 -0.0012233809 0.0025075662 0.0015765055 -0.0031354176 0.0021418585 -0.0024512045 0.00035231633 0.0012393199 -0.0014192637 -0.0006836052 0.0028395052 -0.0015016443 -0.0028969767 0.0031391303 -0.0008560154 -0.0018006284 0.0028430694 0.001356139 0.0017583187 0.0031395229 -0.002887476 0.0019000459 0.0008252234 0.0011864281 0.00059993635 0.0014121811 0.0012572765 0.0019421062 -0.0010214734 -0.0015545996 2.9248426e-05 0.0011123605 -0.0010484941 0.0020896583 0.001508522 0.002723977 0.0010618859 0.0027006897 -0.0004704932 0.002815441 0.0011650185 -0.0024205784 -0.00117432 -0.0007278743 0.001736992 -0.00027053492 -0.0010894915 0.002567103 0.0031060101 -0.000518445 -0.0019929197 -0.0013138624 -0.0015630864 -0.0029928114 0.00012118761 -0.001544808 0.0008386607 0.0018914106 -0.0011312813 -0.00356416 0.00069866655 -0.002173454 0.000718997 -0.0012759888 0.002022009 0.00040692918 0.00096201 -0.00097326044 -0.00072024995 0.003113636 0.0005377342 -0.0019922012 -0.002692535 0.00041569382 0.0023448574 0.0017371211 -0.0025639003 0.0027226722 0.001568038 0.002412091 0.0036554043 -0.0020465734 -0.0027675305 0.0019252889 0.0031326336 0.0012385041 0.0021874264 -0.00044977537 0.002700246 -0.0028088635 -0.0025789523 -0.0025920176 -0.0013393165 0.0016795903 -0.0015538862 -0.002831044 0.0026379805 -0.0013374347 0.002735127 -0.0014867866 0.0011755463 0.0019090526 0.0010163452 -0.00093332597 0.0011385761 -0.003170651 -0.000817298 -0.00064284966 0.0026715517 -0.0013174536 -0.002233366 0.0017967969 -0.00028571792 -0.0013896656 0.002303124 0.0016757731 -0.001048805 0.00043962942 0.0031110418 0.0019880715 0.0020505171 0.0017408531 0.00054508453 -0.00070838106 -0.0022710687 -0.00052516337 -0.0004629782 -0.00057134184 -0.0022059768 0.002504492 -0.001981729 -0.002615988 -0.0011639385 -0.00090309826 -0.0021961976 8.099232e-05 -0.0017033621 -0.00082341785 -0.0025154 0.00054361374 0.0012900095 0.0002249849 -0.0020204785 -0.0007080893 0.0021039995 0.0016605774 -0.0029554362 -0.0010535183 0.0005631712 0.0007713453 -0.0032586216 0.0015226405 -0.00277343 -0.0023758512 0.0012597131 -0.00060470076 0.00093197863 0.0029473347 -0.0009369655 0.0033047695 0.0007243341 0.0032823798 0.0017553504 -0.003263117 -0.000982747 0.002113661 0.0018158205 0.003221957 0.0019916962 0.0025297718 -0.003428858 0.001410819 -0.0012512828 0.0014716535 0.0021832567 0.0010065733 0.0026238908 0.00056742894 -0.0008470928 0.0019106226 -0.0018526244 -0.00021302981 0.0031588138 -0.0019529525 0.0012251276 -0.0026996185 0.0030562591 0.0026473103 0.00029422055 0.0017607989 0.0005352716 -0.00225783 -0.00041070374 0.0022778597 -0.001481346 -0.0015444777 0.0015277024 0.0006243855 -0.00061972596 -0.0011281011 0.002198912 -0.0021456233 -0.0013293038 -0.0026839324 -0.0018304382 -0.0031249658 -0.001479757 -0.0028703318 0.00015946283 -0.0032427674 -0.0034855027 -0.002858064 -0.002136827 0.002143935 0.00103137 0.0001928257 -0.0009408294 -0.0026374718 0.00019050915 0.00046525872 -0.0004165507 0.0002853992 0.00022850008 -0.00010480018 -0.0025856025 -0.002434735 -0.002637364 -0.0005194655 0.0007233456 0.0025246998 -0.0003415247 -0.00106003 0.003171687 -0.00019788873 -0.00084348244 0.0030345747 0.0011514428 -0.0017413052 0.0022702129 0.0014007228 -0.0027141196 -0.00019091593 0.00073387666 0.0018964834 -0.0009342717 -0.0011306742 0.0006099129 0.00043284084 0.0007992265 -0.0014157875 -0.0024016895 0.0025622216 0.00276981 0.003040248 -0.003223613 0.001001131 -0.0013119235 0.003185555 0.0010943168 0.0015742345 0.0010732131 0.0024146715 -0.0014978169 0.0027601342 -0.00126937 -0.0016225484 -0.0006153562 0.003155123 -0.0025081083 -0.0006370192 0.0022951132 9.183895e-05 -0.0024113627 -0.002032102 0.0029598752 0.0021580523 0.0017163163 -0.0004850568 -0.0027463976 0.0014426169 0.0026989693 -0.0014963226 -0.0024022511 -0.0010124148 -0.001282354 -0.0009887549
eine -0.0005756209 -0.0014582857 0.0033231014 -0.0031484414 0.0013578867 0.0015221203 -8.7636865e-05 0.0039882925 0.003342712 -0.001933925 -0.0019068328 -0.0024245218 -0.002908151 -0.00092590164 -0.002217153 -0.003193986 0.0005781741 0.0012732478 0.0022181333 -0.0010733583 -0.0013603853 0.00012787672 0.00044965924 0.0026825236 0.00028929938 0.002243558 -0.0032065816 0.0028929575 -0.00078709197 0.0025941578 -0.0026203755 0.00051893113 0.00074762816 8.83069e-05 -0.0017449945 -0.002946619 -0.0022735274 -0.0029416576 0.00074679725 6.435295e-05 -0.0009196774 0.0022774755 -0.0008064801 -0.00055240095 -0.0027596892 -0.0029573746 0.0030470178 -0.001866346 -0.0019935556 0.0018830596 0.0024832932 -0.0023547746 0.00032768806 -0.0018225336 0.0004889324 -0.0011160232 -0.0010295258 0.0008036058 0.003036633 0.0022611136 -0.0034494433 -0.0019516475 0.0026149775 0.00066889235 -0.0018072932 0.00053380476 0.003303056 -8.824606e-05 -0.0036017946 0.0004224591 0.0021036582 0.0021184885 0.0016846851 -0.002448797 0.00014720063 5.543381e-05 0.0013916246 -0.0027845914 -0.0031742468 0.0002984629 -0.0031539004 0.0018446859 -0.00031994426 0.0040100357 -0.0016595379 -0.00021853065 0.002404367 -0.0014117676 -0.0014657304 0.00035793043 0.0015243604 -0.0011531769 0.002455293 -0.002660217 0.0016302649 0.0006022028 0.00319344 0.0020220997 0.002314337 0.0026823892 -0.003331352 0.003346427 -0.0025381923 -0.00036747276 -0.0015118382 -0.0021757458 -0.0026934284 -0.0025659285 -0.0018729536 -0.00048930495 -0.0019475457 0.0019743864 -0.0033173603 -0.0015727344 0.002964588 0.0026486104 0.002860795 0.0014390444 0.00039820463 -0.002477562 0.0021343646 0.0011836406 0.0028224636 0.0019254637 0.0026019155 0.0033486267 -0.0034888368 -0.0025379774 0.0005108918 0.00268851 0.002787942 0.0020659196 0.0025785186 -0.0024788196 0.0020525618 -0.0010761386 -0.0033332815 0.0029276267 0.00026735797 -0.0015459573 -0.00075349136 -0.0018763724 0.001434966 0.0014398022 -0.0006161496 -0.0027630683 -0.0014937952 -0.0006761025 0.0025007469 -0.0011667394 8.92422e-06 -0.0002745753 -0.0024554709 0.0005280029 -0.0001242855 0.0012454154 0.001458456 -0.0005969451 -0.0012629647 0.003112873 0.0016932358 0.0023746202 0.0012128145 0.0030088816 0.0024026516 -0.00036874838 0.0030466476 0.001602169 0.0019418759 0.00027035823 -0.00097055396 -0.0015209119 -0.002482811 0.0012616918 0.0031693983 0.0029654715 -0.00090988656 0.0017608517 0.00143596 -0.0015298784 0.00066805276 -0.0013530193 0.0023018152 0.0016561333 0.0008544194 0.0014145956 0.0034928871 0.002774307 7.828658e-06 -0.002952919 0.002943567 0.0025180918 6.864756e-07 -0.0004452275 -0.001939033 -0.0017578984 0.002796688 -0.0012397239 -0.0021594295 0.0033052093 0.0023225138 0.0028915298 0.00025754826 -0.0026837578 0.002844996 -0.0013723833 0.0020487327 0.0016253345 0.003335442 -0.0034105438 0.0029372077 -0.003462973 -0.0023100825 -0.0032395832 -0.001563722 0.002149689 0.0027380344 -0.0018244054 0.0007473 -0.0015378421 0.0027081994 0.0019104005 -0.0004692936 -0.0017523221 -0.002672381 0.001447131 0.00062730606 -0.00094183953 0.0023012734 -0.0012531902 -0.0030150786 -0.0009341364 5.7613183e-06 -0.0017790431 -0.002444008 -0.0028946649 0.00298193 0.0024064742 -6.401144e-05 0.0019084112 0.0028274506 -0.00036096014 0.0023833294 0.00130035 0.0021850418 0.002115198 -0.001605105 -0.0010490755 0.00023266996 0.0016237824 0.0014731257 0.0017858495 0.0015539784 -0.0029591233 -0.0014664241 -0.002554536 0.0038626783 0.001702036 -0.00041023485 0.0011287836 -0.002566213 -0.0019783669 0.0015590895 0.0014831326 0.0007855291 0.0021494888 -0.00031444724 -0.00079780526 -0.00029618116 -0.00088938593 -0.0019823282 -0.0026571997 0.0023019447 -0.00036187004 -0.0002467395 -0.0023451312 0.0037070736 0.00043027804 -1.4179641e-05 0.0006832797 -0.0024289563 0.0004564705 0.00070796063 -0.0026576556 0.0016033528 0.0010129025 0.0021152927 0.001785332 -0.0010327826 -0.0023521783 0.0024905165 0.0013807965 0.0022052864 0.0024166503 0.0010030676 -0.0015718283 0.00032884814 0.002744621 -0.0016067503 0.0028836036
in -0.002355339 0.0016961033 0.00086165057 0.0024490575 -0.0017923594 -0.0018056281 -0.0016449722 0.0019652026 -0.0014694332 0.0027233583 -0.0013158121 -0.0031929368 -0.0018231579 0.0021871796 -0.002416721 -0.002116174 -0.0021171719 0.00222706 0.0011851492 0.00074060744 -0.00093097624 0.0017324802 -0.001711873 -0.00066474476 -0.0018096884 -0.00044131672 -0.001059733 0.0029038454 -0.00015522675 -0.0031352257 -0.0018402132 -0.0023607342 0.0012922998 0.003198157 -0.0019924447 0.0029171042 0.00301529 -0.0026060173 -0.0029190532 0.0030568743 0.002488566 -0.001656394 -0.0022369248 0.0025504956 0.0014450242 0.003010636 -0.0024938523 -0.003090779 0.0006495286 -0.0031068537 -0.0014004884 -0.0011944954 0.0031787867 0.0030371074 -0.0010248973 0.0022396483 0.0028951578 -0.0006718289 0.003291595 0.0024099583 0.0004932128 -0.0013516368 -0.0017108127 -0.0010210255 0.0023219886 -0.0017656835 -0.0008999212 0.0032942893 0.00073570607 0.0018762996 -0.0026571795 -0.00020449054 0.0020906827 -0.0020373915 0.0027461487 0.0031718907 -0.00023418746 -0.0007467085 -0.0006130412 -0.0017419615 -0.003057056 -0.0005805208 -0.0010103473 0.002084807 -0.0022093346 0.001741049 -0.0023664504 -0.0026463903 0.0030245362 0.0028490387 -0.00064374466 0.00095817295 -0.0016674431 -0.0030012776 -0.0013521081 0.002677606 0.002395833 0.003135533 0.0023740712 0.0023260498 0.00020552019 -0.0031790992 0.0015918447 0.00023872122 0.0022297625 0.00010385581 -0.0010495036 0.0026328072 0.00022431553 -5.7076817e-05 -0.0017347089 -0.0029182853 -0.002739607 0.0030824423 -0.0031130153 0.00330644 -0.002838568 -7.0234484e-05 -0.00040318532 -0.0034331102 0.0029845294 0.002496576 0.0013106172 0.0013925972 -1.0934059e-05 0.003573111 0.0021771588 -0.003510387 -0.0014370413 2.9177163e-05 0.0013192433 -0.0012293425 0.00053120306 -0.0032983676 0.0008312002 0.00177415 0.0013542107 -0.0011437316 -0.0029628084 -0.0035570345 -0.0001422892 -0.002896843 -0.0024374663 0.0020257633 0.002639247 0.00046400193 -0.0028815719 -0.002379612 0.003093073 0.00112358 -0.0016745488 -0.0029445225 0.0001825638 0.0010234652 0.00095366675 0.0013044865 -0.0020707783 -0.0034486656 -0.0026478935 0.0005536273 0.0015139899 0.0016184802 0.00038182654 0.001785608 -0.0001433944 0.0013780447 -0.0029126953 0.0026404588 0.0021959813 0.0023707063 0.0021286677 0.0027864615 0.0005623544 -0.00035100663 0.00034802733 -0.0031101536 0.0025967646 -0.0023885572 0.002961071 -0.0015012386 0.0001448179 -0.0026661593 -0.0035604518 -0.0027820307 -0.0027434998 0.00012323899 -0.0018899386 -0.0013282391 -0.0015523352 -0.0019665167 0.0024876287 0.0016772996 0.0023995815 0.0023327388 -0.001871611 0.0021863286 -0.0031389887 -0.001009654 -0.0026492854 0.0014234582 0.00037893662 0.002256616 0.0008443521 -0.0022700054 0.002617209 -0.002106296 0.003097355 0.0011369648 -0.0012686228 -0.0018294575 -0.0016066947 -0.0023572862 0.0031642318 -0.001080393 0.0028240047 -0.0035254639 0.00041707963 -0.0010110511 0.0020350593 -0.0033170711 0.002509225 -0.0017638592 -0.002394829 -0.0023309789 -0.0013234917 -0.0012908165 -0.00093366235 -0.0025731511 -4.95085e-05 -9.0073845e-05 -0.0005000977 0.0010684452 -0.0025647765 -0.0007446485 0.0011693352 0.0028399634 -0.0033291725 0.002329668 0.0018486304 -0.0018558658 0.0030258554 -0.0031760964 0.0025700536 0.0018329213 0.00083730236 -0.0020201365 -0.0013756639 -0.0014029864 0.00047397046 0.00071556267 0.002775682 0.0033742592 0.0030076997 -0.0014805752 0.002813287 -0.00032783195 0.002158182 0.00082492863 -0.00062670594 0.0009914376 -0.0017616996 -0.0017609063 -0.002043974 -1.6785512e-05 0.0016997493 0.00042612385 0.0007332052 0.0013695573 0.0023225574 -0.002420871 0.00063507876 -0.0025167742 0.0013849773 0.0031901163 0.002838992 0.0023885677 0.0031721455 0.0023043214 0.001753565 0.0027779313 -0.0015774398 0.0029554581 0.0014093821 -0.000574432 0.002797973 0.0018133856 0.0028358272 0.0010224865 0.0032745192 0.00042353605 0.0031717292 0.0018851219 0.0026044482 -0.0009900905 0.0026153075 0.002846081 -0.00045115262 -0.0006321269 0.0016033179 -0.0026124772
„ 0.003319519 -0.0029240735 -0.0019801045 0.0008502735 0.0019575004 -0.0020996176 0.0013908456 0.004117047 -0.002215173 -0.0021775663 -0.001532461 -0.0014087337 0.0003434523 0.0033047579 0.0017754312 -0.00034398012 0.0012033437 0.0030856356 0.003128246 0.0016197646 0.0020912765 -0.0028338719 -0.0008830809 -0.0018786599 0.0022721312 -0.00092924386 -0.0034355111 0.0026195755 0.0026060406 -0.0014436229 0.0030073025 -0.0003535642 -0.00074775034 -5.7957688e-05 -1.0982561e-05 -0.0010009297 0.0011155144 0.0015983508 0.0023599989 -0.0030735598 -0.0010746744 -0.0019474593 0.0025544139 0.0020920797 -0.0012202493 0.0011689446 -0.0019327486 0.00015439991 0.003314243 -0.00067439646 -0.0014530611 -0.0024897682 -0.0009651547 -9.3946954e-05 0.0010735412 0.0036099358 -0.0009410296 0.0007372929 0.0033874672 0.0005329201 0.00010486152 0.0031956625 0.0031076358 0.002592095 -0.0024633226 0.0036962572 0.0020525493 0.0032932395 -0.0011711743 0.0009479851 0.0022660608 -0.0012621747 0.0025306942 0.0002836812 0.0033981393 -0.0009195005 -0.001170907 0.0020317018 -0.0035264993 -0.0021727919 -0.0024927603 -0.00033396325 -0.0010080411 0.00306546 0.0031772822 -0.00036226644 0.00030443503 0.00063277496 -0.000412923 -0.002822663 0.0031211607 -0.001697494 0.0018479868 0.0029118638 0.001576567 0.0015811288 0.0016838238 -0.000896022 0.0012872347 0.00019805181 0.0016572886 0.0019712073 0.0006672696 0.002439958 -0.002825362 0.0016401993 0.0030761973 -0.0013759352 0.00013042214 -0.0018125824 0.000100583784 0.00080985925 0.0025316814 0.00038353945 0.0006750106 0.00083367026 0.003114461 -0.0018696589 -0.0018384687 -0.0017993646 -0.0006149327 0.0020179248 -0.00235763 -0.0011730889 -0.0027933612 0.0022109793 -0.0010529929 -0.003316207 0.0013892608 0.0035820953 -0.00066400215 -0.0016716698 0.0010653881 -0.000981744 -0.0034353966 0.0031013098 -0.0028117544 -0.0017976809 -0.0010882223 -0.0024880606 0.0006680769 0.002692968 0.001335966 0.002702101 0.00013597212 -8.604646e-05 -0.0012542496 -0.0035167788 0.0016396943 0.00044763545 -0.003050834 -0.0022808267 -0.0033222504 -0.00205655 0.0016881465 0.00323569 0.0011100803 0.0006233389 0.002336935 0.00022329844 -0.00044152178 -0.002793334 -0.00038253257 -0.00074168487 1.9394904e-05 0.0024180228 -0.0022158958 -0.0012066028 -0.0020585638 -0.00040052828 -0.0014516086 0.00068265235 0.0014907322 -0.0013832903 -0.0013048868 0.00038106585 0.001587303 0.0014677135 -0.00080031116 -0.0015203478 -0.001938753 0.00028456893 0.00020268206 0.00030931103 0.0022116154 -0.00090135954 0.0005950924 -0.0014364275 -9.547026e-05 -0.0032239407 -0.000118384036 0.00052702747 -0.003484529 0.002902305 -0.0030401726 -0.0035077932 -0.0028741925 0.0022405367 0.0017513814 0.0030909402 0.0005879244 0.00014842377 -0.0009946285 0.0031829744 0.0010210879 0.0012419459 -0.00028081742 0.0004928536 0.0023092814 -0.0005434505 0.00095733086 -0.0006229928 0.0017356767 0.0009779186 0.0011603871 -0.0021189388 -0.0019457077 0.000649085 -0.0025443665 -0.00043834807 -0.00016117979 0.0011148376 -0.0032745944 0.0023861036 -0.0007299722 -0.001941016 0.0014980515 -0.00073385186 -0.0029327748 -0.0014018792 -7.420378e-05 -0.0031784321 0.00017001954 0.001258856 -0.0017502964 0.00082714006 0.0007507704 0.0032189267 0.0005605247 2.3156328e-05 0.0011410508 -0.00083126756 -0.0027107424 0.002735917 -0.00018291775 -0.0035976095 -0.0021730103 -0.0016471717 0.0012474088 0.0019337609 0.0024169362 -0.0021605727 0.00027905434 -0.0010738801 -0.0022337409 0.0021904244 0.0020035193 -0.0010343911 -0.0032573945 -0.0019940417 -0.00018551118 0.002785775 0.0025674491 -0.003595415 -0.003762151 0.0025477917 -0.00039633116 -0.00086325145 0.0014583097 -0.001782139 0.0015362066 -0.00011216868 -0.0021140906 -8.783842e-05 0.0025396443 0.003383459 0.0013616923 0.0018448469 -0.0023204912 -0.000411678 -0.0017008912 0.00026903534 -0.00090383744 -0.0010482874 -0.0024033615 0.0034088646 0.0005795898 -0.0006173632 -0.0014126872 0.0025778802 -0.0019962168 0.0018917071 0.00076865073 0.0030465454 0.0027064655 -0.00043639622 0.0011725265 -0.00059338275 -0.002660506 -0.0011975017
“ 0.00046631976 0.0022833254 0.0033900668 0.003021878 -0.0027298215 0.002095392 -0.0017609178 2.6234286e-05 0.00019725508 0.002159728 0.0015234395 0.0014551459 0.0030474074 0.00015309239 -0.002143637 -0.0022482984 0.0022469815 -0.0016578877 -0.0009107904 0.0013019163 -0.0007243214 -0.002100141 -0.0006546396 0.0004187319 0.00081612513 0.0019590387 -0.0018843538 0.0010631151 0.002360325 0.00064519845 0.0017650543 -0.0016340035 0.0021765528 -0.002512072 0.0011500042 -0.0030715682 -0.0008207225 -0.0031119073 -0.0005051088 -0.0018086305 -0.001423094 0.00037250968 0.00094845926 -0.00054860854 -0.002664276 -0.001860652 0.00028958343 -0.0012911174 -0.003100821 -0.00021396315 0.0022995642 0.0019469805 -0.0033138678 0.0010899067 -0.0020222303 -0.0029751637 0.00010698477 -0.00011393429 -0.00226603 -0.0021019822 -0.00091021025 0.0023528936 -0.0025193577 0.0025614437 -0.00030704905 0.0004659837 0.0032220427 0.0016766095 -0.0013561328 0.0011845458 0.0011807864 0.0021194124 0.00012384834 -0.0016825267 0.0005405025 -0.001776997 0.00042630642 0.0016102553 0.0015158158 0.0031249002 -0.00261001 -0.0018453414 0.0020956185 0.0006661136 -0.002152993 0.00026539303 0.0008299645 -0.0008730161 -0.0015966768 0.0015967853 0.0034503879 -0.0025638228 6.650144e-05 -0.0008757252 -0.0019468024 -0.00031545045 -0.0016677843 0.003043256 -0.0019050204 0.0012517489 -0.00015169567 0.001477816 0.00071181357 0.0035241859 0.00025719582 -0.001997919 -0.00040194896 0.00069709745 -0.0012456075 -0.0026654033 -0.0019441552 -0.00225792 0.002061937 0.0013791281 0.002674461 0.0022835461 -0.0019229731 0.0009276629 0.0029159978 0.00037185085 0.0010672058 0.0020487383 -0.0028486582 0.0029547133 0.0022595052 0.0029957418 -0.002819204 0.0019657451 0.0022260179 -0.00026024456 -0.0019845406 0.0018573094 -0.0022822723 -0.0020443986 0.0011221548 0.0027969892 0.002791713 -0.0015113145 -0.0031166307 0.0029948514 0.0021174245 -0.0015012951 -0.0028785185 -0.0015890512 -0.0012100759 -0.0012103382 0.00017974355 -0.0003096062 -0.00087896397 -0.0020867437 0.0031686504 -0.0017728559 -0.0024300483 0.0025055846 0.0009627362 0.0029903327 -0.001549964 -0.0023332918 0.00021457026 -0.00021983004 -0.00310985 -0.00048424973 0.00093424914 0.0022401644 0.0022702392 0.0010599241 -0.001434886 -0.0005878323 -0.0012599548 0.002179876 -0.0022269206 0.0007068782 -0.0003132302 -0.0018548208 -0.0023373645 0.0019810554 -0.0028878993 -0.00029554387 0.0009999267 0.0025446299 -0.0024250895 0.0012592723 0.0031172861 -0.0023706884 -0.0012463775 0.0017375156 0.001970777 0.0006392602 0.0027718542 6.884352e-05 0.0006947255 -0.00051268935 -0.002922828 0.0010968345 0.000662347 -0.0030018743 -0.00026182717 -4.9865088e-05 -2.4247427e-05 0.0029019567 -0.00092593516 -0.0020520757 0.00246885 -0.0023999147 -0.0029955844 -0.0006408237 -0.0027352888 0.0001870475 0.0006975578 -0.00093467993 -0.0021976752 -0.00023781668 -0.0003856755 0.0010865983 0.002798914 0.0018543659 0.0026801527 -0.0032427257 0.002981816 -0.0009151065 0.00293504 0.0007720617 0.001037995 -0.0033695726 -0.0032483423 0.0029431144 -0.0009122939 0.00091710594 0.0020312837 -7.618147e-05 0.0032408345 -0.0004124204 -0.0032345003 -0.0022125307 -0.0005455879 -0.0029316016 0.0024406319 0.0011798047 -0.0029280924 0.0026382222 0.0030259583 0.001910024 0.0023707736 -0.00316499 0.00034803763 -0.0031704719 -0.0012244396 -2.1031656e-05 -0.00013410719 0.0005831351 0.001221137 0.0007335902 0.0017786737 0.0024375673 -0.0021026155 0.0025913923 0.0022562803 0.0032918213 0.0013923575 -0.0011864227 -0.0012741566 -0.00016416908 -0.00035849595 0.003069375 0.00018496852 0.0014047682 0.0012859036 -0.0028373187 0.0021300612 0.0027905547 -0.00062032655 0.0007668704 -0.0021242334 -0.0020436079 0.0028651734 -0.0009215684 0.0024627813 0.00055283733 -0.00086211064 0.00094917655 -0.0013316148 -0.0006215787 0.000375742 0.0016976129 -0.00047307942 0.00027585847 -0.0027604236 0.0031912623 -0.0029294423 0.002372168 0.0013418768 -0.0020730076 -0.0016059469 -0.0025380692 -0.0015870876 0.0025189752 0.003346923 0.00070744735 0.00037026583 0.0030855353
sein -0.0016294938 -0.00023566005 0.0012189205 -0.002159812 -0.003360868 -0.0032559475 0.0032727746 0.0023785403 -0.0015659415 -0.002847902 0.00050049083 0.00086220494 -0.00057800754 0.00047333213 -0.0016483833 0.0013520807 0.0006952038 0.0031231581 -0.0032903592 -0.0018901274 -0.0029590777 -0.0002693417 -0.0024184193 0.0016821368 -0.002009104 -0.002092619 0.0014389687 -0.0026702166 0.00037108402 -0.0025972894 0.003249053 0.0028135944 0.0008280249 0.0019534847 0.0014808285 -0.0019378638 0.00336102 -0.0033925872 0.0027395848 0.00085439056 -0.0011963513 -0.0012155832 0.0030258638 -0.0018827042 0.0028692945 -0.0018045952 0.0028195789 -0.00011659413 0.0027570226 -0.0009599256 0.0021257447 0.002907475 0.0008313995 0.0005389564 0.0016293224 0.0028335026 0.0029522104 0.002871327 0.0024412759 0.0026899923 0.0027284324 -7.2478964e-05 -0.00034026403 0.0005461504 -0.00020524816 0.00040206636 -0.0028048542 -0.0030472511 -0.0010616764 0.0028903233 -0.0012228246 -0.0023014252 0.0017867961 1.3900082e-05 0.0007956599 0.0012730546 0.001104813 0.001876089 0.00013230594 0.00038391064 0.0028448775 0.0008895081 -0.0016938795 0.0026130357 0.0017964722 0.00091348035 -0.0011262726 0.0010764514 0.0022674722 0.0022804583 0.00066299754 -0.0029992077 0.00026270663 3.2814754e-05 0.0016147342 -0.00287224 0.0033865504 -0.0023292876 0.0019576342 -0.0030892817 0.003091185 0.0025284474 0.0004494508 -0.00083613204 -2.8434668e-05 -0.00017310343 -0.0021517377 0.0019371173 0.0005557252 0.00122298 -0.0025560767 0.0027918168 5.6406476e-05 5.2928015e-05 -0.0031199327 0.0015696804 0.0024371545 0.0024961815 -0.001994931 -0.002930334 -0.0017690334 -3.1160143e-05 -0.0025911017 -0.0029064366 -0.0006824788 0.00065007346 -0.0032954663 -0.0014015561 0.00022311721 0.0025860043 0.00078839785 -7.31975e-05 -0.0024588048 -0.0027212468 -0.00027800625 0.0026608272 0.001630956 -0.0005811796 0.00030651587 -0.0035717688 -0.00040354984 -0.0018323321 0.0018214782 -0.00078406226 -0.0014211219 -0.003298754 -0.000593465 -0.002715772 -0.00027574337 -0.0014940995 -0.00073549047 -0.0014290637 -0.0027443354 -0.00049080973 0.00076860655 -0.0011426139 -0.0026638617 -0.001281658 -0.0032185146 6.392325e-05 0.0019691116 -0.0008873538 0.0008648692 0.0017332488 0.0027857083 0.0018759044 0.0032584928 -0.0031888725 -0.0025507924 -0.0018458888 -0.0026765685 -0.0026838165 -0.0023575574 -0.0008336563 0.0005832105 -0.0009646961 -0.0031038988 0.0015060785 0.00041535046 0.001480202 0.002368297 0.0028237926 -0.00050844444 0.0011030949 -0.0018469406 0.0006542397 0.0018654414 0.0035000385 -0.0008849734 0.0005952998 -0.001797468 -0.0006935027 0.0023571493 -0.0013213754 -0.0003781761 -0.0032431195 -0.0032043294 0.002845642 -0.001954261 0.0017028326 -0.0024502177 -0.0009197706 -0.0027524538 0.0025415241 0.0020944695 0.001697828 0.0028558064 -0.00012100594 -0.0030719177 0.002888251 -0.0017395075 0.002381543 0.0018421625 -0.00046969604 -0.0023890925 -0.0006834904 0.0018754478 -0.0027477867 0.00018110477 -0.0028850355 0.0029604756 -0.000981162 0.0029102764 -0.0022114934 -0.00335756 -0.0029701917 -0.001270886 0.0015444241 -0.00025564458 0.003154432 0.001050282 0.0011283108 0.0009841402 0.0029467195 -0.001152324 0.0024397047 -0.0032396212 0.00090017077 -0.00017951989 -0.00019975919 0.0023682585 -0.0010319189 -0.0006763754 4.3498026e-06 0.000112099755 -0.0013689623 0.0020971694 -0.0023861192 0.002596877 0.00012627094 0.0010879072 0.0011146549 -9.1960734e-05 0.00046156193 -0.0013013525 0.0015045651 0.00046697276 -0.001059349 -0.0031687722 -0.003498902 0.00011139895 -0.0018342332 -8.0144324e-05 -0.0018022616 -0.0031835774 0.00046715885 0.0022138231 -0.0005349432 -0.0026396783 0.001152446 -0.00023689 -0.0018720577 -0.0002909437 -0.00020575547 -0.0008427523 -0.0031696944 0.0028943892 0.0013379594 -0.001201817 0.0023698297 0.00018189216 0.002322878 -0.00069458474 0.0026161622 -3.632074e-05 -0.0019421328 -0.0018011662 0.0032621485 0.00020424178 0.00037266017 0.002909097 -0.0016361959 -0.00029610054 -0.002570972 -0.0019885027 -0.002600965 0.0015120207 0.00089166494 0.0021488839 0.0006593918
nicht 0.000732873 0.0020738023 -0.00060517085 0.0010374464 0.0027247427 -1.116847e-05 0.0023398087 -0.0016778806 0.0022383835 0.0014819632 0.0017574555 -0.0034059833 -0.0002972465 0.0011081371 -0.0021370342 -0.0024810298 0.002323308 -0.0021288248 -0.0016753897 0.0025866795 -0.0022833373 0.0026930915 0.000429248 0.0014796873 -0.0008863653 -0.0018911368 -0.0032536304 -0.00015275965 -0.0018005489 -0.0011859882 0.0026707768 -0.0026009302 -0.0018657263 -0.0017174738 -0.0022456811 -0.0028560201 -0.0002847549 0.0029705153 0.0027094842 -0.001813658 -0.002889351 -0.00080143823 -0.003074225 -0.001726882 -0.0018521941 0.0012226567 -0.0025050342 0.00046206068 0.00084057805 0.0018707691 -0.0005224708 -0.0032777758 0.0017371774 -0.0018743213 0.0015772395 0.0008408672 0.0030231236 0.00055345835 -0.0005240629 0.002175014 -0.0024885212 -0.0028305876 0.001275439 -0.0008629105 -0.0016152624 -0.00045147302 -0.0032309606 0.00024395558 -0.0006218956 -0.0010834058 0.0008338625 0.001603009 0.0022814213 -0.00293201 -0.0015022586 -0.00289427 -0.003061359 -0.0012680099 -0.0006981067 -0.0026118786 -0.0019581048 -0.00076267717 0.0020118698 0.0009295484 0.00282156 -0.00281264 -0.0016128415 -0.0002900558 0.003065217 0.00027548202 0.00086250575 0.00030556216 0.0011478227 -0.0031948762 0.0013837583 0.0021047269 0.0019336989 0.0014908675 -0.0026749158 -0.0013027753 0.002667022 -0.000120157994 -0.003102611 0.001874277 -0.0019330207 0.0019303787 0.0017750595 -0.0016748036 0.00064909464 0.0017504197 -0.0013188913 -0.00055989536 0.0029532905 0.0031289859 -0.0032329408 0.0027208521 0.003464329 -0.00091705984 0.0009654604 -0.0012473626 0.0029748278 7.508932e-05 0.0020572315 0.0029604028 0.0013379629 -0.002111807 -0.0007476034 0.0001738789 0.0006958172 0.0012906006 0.0033354561 0.001617083 0.0033403088 -0.0033400347 -0.0019685987 0.0008166387 0.0010241746 -0.0003947322 -0.0024110407 -0.0014233704 -0.0027921647 0.002845475 0.0011397371 -0.002613929 0.00121992 0.0012103684 -0.002067886 -0.0022724576 0.0006096869 0.0028591887 -0.0031786894 -0.000316968 -0.0023139298 -0.0003795992 0.0011833807 -0.0014998381 -0.001061236 0.00012462743 -0.0023074222 0.0027447706 0.0014708097 -0.0027837849 -0.00088684494 0.0011141979 -0.0028401418 -0.0023589858 -0.0027310108 -0.0017753043 0.0030305812 0.0027783387 0.00077871303 -0.002850165 0.0021309482 0.0016917067 0.00015672164 -0.0029404033 -0.0007666301 -0.00010481901 -0.0024903617 0.0007593493 0.00012864947 -0.0021117418 -0.00299965 0.001913781 -0.0029003087 -0.0018575413 0.0021948998 5.3472217e-05 -0.000868537 -0.002068504 -0.00030441242 0.0018071623 -0.0023044143 -0.0016589018 -0.0016370838 -0.0017461436 -0.0026778013 -0.0033522327 0.0024988337 0.002677845 -0.0015649165 -0.0031777185 -0.000702939 -0.0012086444 0.0030691307 0.0008955446 -0.0019278147 -0.0010248102 -0.003254403 0.00046475968 -0.0014118897 -0.0011237819 0.0017220573 0.0024102507 0.001621038 -0.002464127 0.0020377943 -0.0036228474 -0.0026245697 -0.0028700007 -0.00072122156 0.0001299254 -0.0015181041 0.00032602827 0.0029244774 0.0021274856 -0.00026100856 0.0029794513 0.00034324976 -0.0006122042 -0.002160783 0.0020391713 -0.0030452467 -0.00040392007 0.0022104383 -0.0008732256 0.0004908412 -0.0025030812 0.0017018977 0.0021260907 -0.0029983744 -0.001168888 0.0027323088 0.0010225549 0.00026930435 -7.581642e-05 -0.0032963736 0.0031418921 -0.00070027506 -0.001494898 0.00112728 0.0003903849 -0.0019529694 0.0018359912 -0.0010913485 -0.0021254902 0.0027709315 0.0021665182 0.002668021 0.0002461377 0.00017550496 -0.002547182 0.0018512639 0.0027196794 -0.0005385013 -0.00049068086 -0.0010684384 2.9466133e-05 -0.0027752817 0.0019775447 0.0003992551 0.0030774735 -0.002047907 -0.0016817458 -0.0018625372 -0.0022626584 0.0012493462 0.0017186737 9.7471086e-05 0.0010996818 -0.003100076 -0.0004263502 -0.0027544308 0.0010818855 -0.00092424673 0.0030681053 -0.0013690758 0.0023290655 0.0013667392 0.000465711 6.840372e-05 0.0031746647 0.0010476287 0.002900578 0.001348183 0.002082411 0.0018803444 -0.0025624402 -0.0016652046 0.00024042318
: 9.877036e-05 0.0009821604 0.0005129573 0.0024612823 -0.0016342961 -0.000114987946 0.0027130689 0.0016066853 0.0014622442 0.0013259065 -0.00032766376 -0.0029325667 0.0007928472 -0.0029122287 -0.0011770232 -0.0035066546 0.00014890636 -0.0024123664 0.0025256316 -0.0018417693 0.0034051028 -0.003223184 -0.0011321057 0.00067162514 -0.0008241345 0.00037788873 -0.0016230048 -0.00023697256 -0.002067063 -0.0035186422 0.0020534848 5.3026517e-05 0.0025208562 -0.0024419292 0.0011601961 -0.0031660653 0.002679861 0.0017076149 -0.001996606 0.0026554915 -0.0021301785 -0.0029375842 0.0005265314 0.0010198259 -0.002509011 -0.002687748 0.0031213735 0.0006116506 0.00040940457 0.00096315466 -0.00093718024 0.00056154386 0.0006517905 0.0034016499 -0.0019679163 0.0010259909 0.0022363502 -0.0021484867 -0.002861779 0.0029203063 0.002094118 -0.0014106387 0.001914292 0.00026017637 -0.001991755 -0.00016895999 -0.0015409059 0.0022617793 0.000272321 -0.0029232644 -4.9790477e-05 -0.0008403219 0.0024424912 -0.0008346403 0.0027603484 0.00075236184 -0.0013799049 0.0026852651 0.0005974308 -0.0011081453 -0.0021036672 -0.0010883166 -0.0018687074 0.0017573183 -0.0030199091 -0.0019692932 0.0010001676 4.466894e-05 0.0021947753 -0.0013076487 0.00051508413 0.00063471333 0.0020925994 0.0004283751 0.003719867 0.0016733473 -0.0021325562 -0.00046668737 -0.0027339477 -0.001682061 -0.0009366565 -0.0031182992 0.0031684244 0.0010926378 -0.0002403259 -0.0022797114 -0.0028466056 -0.0032980458 0.0026562943 -0.0008955928 0.0013369478 -0.0015885171 0.0031435362 0.0013701409 0.00020861466 -0.0010267306 0.00064574764 -0.00085179624 0.002658867 0.001042803 0.0004634895 0.0014332943 0.0015089096 -0.0024547086 0.0029290146 0.0009766434 -0.0020723091 0.0026680075 -0.0004102255 0.0031960285 -0.00021537322 0.0025456205 0.0009364443 -0.0021176403 -0.0013234641 0.0032936283 0.00025433482 -0.0021107974 -1.651984e-05 -0.0011798409 0.00061790604 -0.0030349672 0.002336383 0.00043220297 0.0028590248 0.0012467235 -0.0017487901 0.00081199256 0.00018591397 -0.0034867465 0.0028286772 0.0027428772 0.0031578476 -0.0013629029 -0.0025686044 0.0018835461 -0.0027477606 0.0027006424 0.0006166011 0.0023136758 0.0020590408 0.00029508502 -0.00096179615 0.00034602347 0.0032066044 -0.0024004024 -0.00037042802 -0.00068750646 0.0017484507 0.0027685382 -0.001650761 0.0012005804 -0.0011949984 0.0013183282 0.0029004186 0.0012334054 -0.0017130165 -0.001250536 0.0027733555 0.0031163765 0.0019134331 -0.0007243801 -0.00095436245 -0.0022502402 -0.0016077176 0.0011171334 -0.0016880576 -0.0018853685 0.0029092287 0.0026560847 0.0028529863 0.0005773534 -0.0034094993 -0.0025653846 0.00054552354 -0.0034231143 -0.0024683045 0.000518168 -0.0010380308 -0.0030419088 0.0019516115 -0.0030819802 -0.0025740976 -0.000561001 0.00063315587 -0.0004662426 -0.0016515682 0.0023478384 0.003011934 -0.0027072842 0.0031493055 0.0021335203 -0.002506757 -0.0008069102 0.0016478521 0.0020914332 -0.0015041226 -0.0029108196 0.0011449626 -0.003321766 -0.0018820927 -0.0004791795 0.0014795037 -0.0023307635 0.0013844487 -0.00027255918 0.0010275533 0.0020750095 0.00022091597 0.0026498572 -5.119658e-05 -0.0029087292 0.003048617 -0.0012830254 0.0010462333 -0.0013290077 -0.0024975804 -0.0022668873 0.0016238404 -0.00072857155 0.00065133086 -0.0030716765 -0.0015707853 -0.0019649474 0.0031895149 -0.00318007 0.0016875588 -0.0005455503 1.9361767e-05 0.0031448659 -0.0008829901 -0.0022295306 0.0003106204 0.002447854 0.0026328852 -0.0013221437 0.0014409957 0.0016505305 -0.0021628109 0.0020627333 -0.002138572 0.00085327966 0.0019474077 0.0008735333 -0.0019889374 0.0010286418 0.0027303237 0.0031629417 -0.003544515 0.0019982401 0.0015022925 -0.0005853793 0.0032003599 -0.0013787767 -0.00027397822 -0.0020546154 -0.0007515623 0.00021171702 -0.0015958023 -0.0019217333 0.0022464185 -0.0018746546 -0.0023480116 0.0026596067 0.003183001 0.0014742167 -0.0003322657 0.00036801738 -0.00033104894 0.002287444 -0.0019452166 0.00081670115 0.0018234124 -0.00051902904 0.00061379856 0.0016287081 0.0035087313 0.00070340215 0.0035724991 -0.0021993762
müssen 0.001615612 -0.0011343685 -0.001385384 0.0003969669 -0.0014139139 -0.0019352835 0.00117246 0.0030695791 -0.0021535787 -0.0030719414 -0.001088599 0.00246197 -0.0033183931 0.003213293 -0.00022578816 0.0006533381 -0.00051588286 -0.0018465362 0.001058413 0.0020181243 -0.0023112306 -0.00045574765 0.00060804334 0.0014308383 0.0024315596 -0.0012305035 0.0022958377 -0.0018182942 -0.0007681997 0.002948723 0.0017887942 -0.0028518175 -0.0004603203 -0.0029316451 -0.00054756674 0.001930033 -0.0024323277 0.0017602696 0.002044954 -0.001277151 -0.0032958172 -0.00086431915 -0.0008346276 0.0012299333 0.0030379437 0.00075704494 -0.00069096335 0.0010235806 -0.002225851 -0.00041024148 -0.00041095578 0.0031829225 -0.0019378703 -0.0023033866 0.0007651404 0.0009691048 -0.0023607153 -0.0019278338 -0.00033365443 -0.0011039588 -0.0030527387 -0.0013563721 -0.0009779087 0.0021737574 0.00021731807 0.000630337 0.00013567417 -0.001030396 0.00089693675 0.0001976966 0.0019993838 -0.0002496973 -0.0028841046 0.00013320873 0.0033981092 -0.0017315231 -0.0017737991 -0.000857691 0.0027118581 -0.00022714943 0.0030439747 -0.0028020032 0.0029492795 -0.003046594 0.003112152 0.0005975177 0.00085350435 -0.0019680918 0.0028727334 0.0019620664 -0.0016390294 -0.0032505775 0.0024238965 -0.0018562282 -0.002948421 0.0010018466 -0.0015860557 -0.0024497139 0.0032555389 -0.0005060758 -0.00056240003 -0.0012899241 -0.0014605515 -0.0013989477 -0.0018338859 -0.001919818 -0.0026878042 0.0031805155 0.0020268348 -0.0012409429 0.0007656738 -0.0025657695 0.002470093 0.0028257954 0.00021677533 -0.0021769886 -0.0008918759 0.0015832017 -0.00088093575 0.0009132224 0.0031826536 0.0015375686 -0.0016360779 0.0017661256 -0.0009881369 -0.0020013095 0.002279553 -0.0031782847 -0.0003610159 -0.00030664154 -0.0027179099 -0.00029142716 0.0018800028 -0.001977492 -0.0023718618 0.0021522373 -0.0012382 -0.0026478511 4.474494e-05 -0.00019695914 0.0025421316 4.9785456e-05 0.0025763477 -0.0032695052 0.001409405 0.0019760947 0.00024706917 -0.0011002447 0.00046391564 -0.00035115622 -0.0026957607 -0.0024088663 0.00039176553 -0.0007138819 0.0032814026 -0.00023155336 0.0019740353 0.000631849 0.0026173112 -0.0029643963 0.00081725133 -0.0004477011 0.0006451113 -3.2187378e-05 -0.002220414 0.0030181394 -0.00090504007 0.000665483 -0.0021114522 0.0014359639 0.003240795 -0.00037937728 0.002295949 3.9831895e-05 0.0026978313 0.0032519123 -0.0002031593 -0.00061464944 -0.0031293682 0.00325594 -0.000857784 0.00085569883 -0.00068090373 0.0027365058 0.0027201492 0.0005221909 0.0011455211 0.0022542884 0.0008288662 0.0019868729 0.000113561095 -0.00073270436 0.0015948177 -0.0011328565 -0.00086863514 0.0028421185 -0.0030765345 -0.001194089 -0.0009758029 0.0019061074 0.0025982694 -0.0022108033 0.001900952 -8.389085e-05 -0.0030026992 -0.0008586378 -0.00049214065 -0.001435065 -0.00022504236 -0.0018449236 0.0019409369 0.002990898 -0.0005377948 0.0010469145 -0.00017522355 -0.0003061841 -0.0024459607 0.0002689714 0.0011850727 0.0022091395 0.0022199766 0.0011732501 0.0014383554 -0.0026044424 -0.0005382554 -0.0019789485 0.0023189553 0.0025852823 -0.0015206963 0.00040244774 0.0017091883 0.0005515827 0.00023832262 -0.002148748 0.003113163 -0.0024172587 -0.0020396055 -0.0019095462 -0.0021196713 -0.0013195855 -0.003082272 0.00035306715 -0.0012208091 -0.000823727 0.0020685464 0.0010761925 0.000589558 -0.0005437199 0.0032757116 0.0001772623 0.0017808201 0.0030369358 -0.0032256304 -0.003101084 0.003192382 0.00087509764 -0.0004230535 0.0016046858 -0.0015653498 -0.0022065577 -0.0027590375 0.0024544902 -0.00067023543 -0.0027092914 -0.0021232797 0.002105626 -0.0007189064 -0.0019610848 -0.000636141 -0.00046722454 -0.0011525484 -0.0007214209 0.00139861 0.00047897123 -0.0010519187 0.000980156 0.0019198302 -0.0030251867 -0.0026854256 0.0020668732 -0.0029776692 0.00015374062 -0.0030688706 0.0028477714 -0.0014654443 -0.0021701513 -0.00056863227 -0.00033829233 0.0024954095 0.003051723 -6.4577005e-05 0.0011149509 0.0016970683 0.0001404526 -0.0018091246 -7.7736215e-05 0.00081586395 0.0027478125 -0.0010781955 -0.00336198
werden 0.0018241823 0.0034327076 -0.0022595234 -0.00023204659 -0.001803102 0.001960038 0.0034668588 0.0004501484 0.0017585827 0.0021092321 0.0015559691 -0.002775776 0.00088461506 -0.00045052316 -0.0009282133 0.0015507133 -0.0002231374 0.0034343728 -0.00016456579 -4.7728372e-05 -0.0006655007 -0.0029914 -0.0030766902 0.0016666787 -0.0020739732 0.0009146498 0.00066050485 -0.0022718876 -0.0011575501 -0.0021423027 -0.002894355 -4.267546e-05 0.003480857 -0.002175224 -0.0015050122 0.0028875882 0.0032233319 0.003078224 -0.0032775644 0.0016006333 -0.0024338798 0.0022259203 0.0020532191 -0.0011585718 0.0024409208 -0.0024114312 0.0015490141 0.0015892923 0.0020245728 0.0020599633 -0.0007370618 0.0013050563 -0.00202521 -0.0020773585 0.0009013502 -0.002993438 -7.873968e-06 0.00041408557 0.0027532394 -0.0023030469 -0.0009191686 -0.0014090408 -0.0017570357 -0.00016726363 0.0013087888 -0.0014515648 -0.0005279012 0.0030539848 -0.0006956045 -0.0012858529 0.0024855717 0.0004214552 7.0688766e-05 0.00283946 0.0028636185 0.0011918736 0.0010501903 -0.00078449486 0.0024020656 0.001800664 -0.0019888338 -0.0020764794 -0.00028986778 -0.002226841 0.0012006802 -0.0030910429 -0.00058844895 0.0010941657 0.0011577001 0.000969563 -0.0026814805 0.0009998505 0.0019649693 0.001096422 0.0029164588 0.0008519158 0.0022740064 0.0029529545 -0.00027043678 -0.00021339697 0.0006187366 -0.0024381727 0.001903653 -0.001384656 -0.0010125623 -0.00092170923 0.0027335386 0.0007630813 -0.00049152167 -0.0009854661 -0.0008473688 -0.00047189672 -0.001826234 -0.001239084 -3.67342e-05 0.0017277831 0.0007564251 0.002327347 0.0003557286 -0.0013719428 -0.0023599605 0.0021694945 0.0025129537 -0.0021378286 0.0015590115 0.003441376 -0.0022260265 -0.0011139854 -0.002993909 0.0014056773 -0.0009315649 0.00082632 0.0031700695 -0.0032605461 -0.0031614604 0.00072777434 -0.0028569407 -0.0030761731 -0.00323472 -0.00042549218 -0.0003143981 -4.56399e-05 -0.00056981144 0.0030139233 0.003089803 -0.0023083906 0.0027282345 -0.0033411242 -0.0001466128 0.000761497 -6.5156883e-06 -0.0015942837 8.5867454e-05 0.0002531049 -0.0029648677 -0.0014454372 -0.0026860866 0.0011713194 -0.00048681 -0.0021738855 0.0018728442 0.00015438341 0.000737543 0.0018740316 -0.0014930642 0.0025999492 -0.0025423998 -0.001079674 -0.0023502796 0.0007725241 -0.0026269397 0.0030111966 0.0020291086 -0.002251074 0.002184326 0.0021813547 -0.0026106846 0.0013946389 -0.0024713257 0.0030537068 0.0015479669 0.00017670917 -0.0032306998 -0.00040091958 -0.00019452597 0.0003207646 0.00323561 -0.0006950747 -0.0027426549 -0.0032826832 -0.0002756281 0.0005291802 -0.0002836519 -0.00077901484 0.002858362 -0.000116910625 0.0021469032 0.0012185525 -0.0024551605 -0.000687774 -0.0027473704 -0.002313123 -0.0011524031 0.002238634 -0.00024047875 0.002896564 -0.00069840514 -0.0016681073 0.001344373 0.00055974396 -0.00017054699 -0.0010192003 -0.0019791285 0.001218306 -0.002380538 -0.0031666413 -0.003235326 0.0023882985 0.001031365 0.002139522 0.0033256751 -0.002432515 0.0010802984 0.0006181492 0.0018879969 -0.0012312134 0.0032124303 -0.0019918776 0.002163755 0.0023837138 -9.485531e-05 0.0015684549 0.0021841202 0.00073314516 0.0020786598 0.0007989742 -0.0005737831 0.0024541377 0.0016013193 -0.0013905142 0.00067305425 -0.00010136116 0.0017709614 -0.0017499651 -0.0011139457 -0.0005012979 0.0012647223 -0.0023796211 0.0025847617 -0.00090959505 0.0021294896 0.0010106376 0.0023045295 -0.0015742506 -0.0013372506 0.0009361765 -0.00054786215 0.0019719936 -0.002266737 0.0007114892 -0.0002407299 -0.00013151678 0.0011775659 -0.0011529477 -0.0017319141 -0.0027691396 0.0010127628 0.0019730655 -0.0022044573 0.003126948 0.0012705963 -0.0017407339 -0.00033911952 0.0013243946 -0.0021167924 0.00084996526 0.0021795437 0.0021681986 0.0014336404 0.0011355203 -0.00088328955 -0.0020892653 0.0025503598 -0.0023637374 -0.00056378456 -0.0009943428 0.0019223139 -0.0020046884 0.0011459031 0.000710706 -0.0012828485 -0.0023060539 -0.002392768 0.001317425 -0.002960626 0.002196387 -0.0007887952 -0.0030833103 -0.0014409414 0.0024239088
auch -0.00054056634 0.0022486886 -0.0030131005 -0.0030750658 -0.0018260248 0.00017585406 -0.0022123954 -0.00272608 -0.0029419453 -0.00020315575 0.0025260958 -0.002867995 -0.0018915113 0.00054616464 0.000950246 -0.0030081593 0.0027701366 -0.0026489187 0.0016072224 0.0030378727 0.0019537285 0.0019407116 0.0028673776 0.001160075 -0.0022804209 0.0018380381 -0.0029606866 -0.0018718842 0.0018981624 -0.0027945787 -0.0019934808 -0.0012273575 0.0013103103 0.0017559931 0.00065515016 0.0017519608 -0.00077513186 0.0013178727 -0.0023044497 -0.0006110066 -0.002739089 6.2621634e-06 0.0015678336 0.001556657 -0.0014660618 0.0007341106 0.0026284412 -0.0018080263 -0.0011939378 -0.000116754905 -0.001459053 0.0028821547 0.0025194034 0.0031250638 0.0031162389 -0.0026782595 -9.452732e-05 -0.0025095001 -0.001551528 -0.0029113884 0.0010238244 -2.6989421e-06 -0.0023199813 0.00266246 0.00015519139 0.00025759146 -0.0011564449 -0.0009839091 -0.0010737736 0.0024780312 0.0008151159 -0.0017118949 0.0017305998 8.488578e-05 -0.0007804496 0.002597231 -0.0013693095 0.0024389387 -0.0016206236 -0.0023665181 -0.0016294394 -0.0013336727 -0.00031483886 -0.0002931856 0.0017572334 0.0018002214 -0.00064491096 0.0012104142 -0.0005868538 0.00017884116 -0.00019928589 -0.00093280344 -0.00143822 -0.0014701776 0.00027464135 0.00075773103 -0.003034979 0.0020183204 -0.0005406149 -0.0009521675 -0.0016760527 -0.0013722433 -0.0015755708 -0.003044634 -0.00019529741 -0.0028219973 -0.0016101074 -0.0024591812 0.003172765 -0.000471456 -0.0026935965 0.0017862271 -0.002766654 -0.0005434137 0.00085348304 -0.0022142525 -0.0027862915 -0.0021897918 0.0025705043 0.0028086856 0.0013837811 0.0009261995 0.0015192986 -0.001445649 0.0032530136 0.002489453 0.0012805642 0.0028671627 -0.002772492 0.0005510175 0.0031084337 -0.00020976014 -0.0022217857 -0.0010990165 -0.0009957292 -0.0007104711 -0.00074092817 0.0023802673 -0.0001742173 0.0011679053 -0.0012103446 0.0025409285 -0.002234706 -0.0031094393 -0.0012646009 -0.0025717854 -0.001749299 -8.369629e-05 0.0010280758 0.000505871 0.0016900741 -0.0007065224 0.0007096618 3.651549e-05 0.002757466 0.002808488 -0.0007079672 0.0003705253 -0.0021542802 -0.0013347431 -0.0023258396 5.521382e-05 -0.0017715446 -0.0012916186 0.00044656638 0.00087189156 -0.0029806762 0.00061996834 0.0017623048 0.0017108369 -0.0010999072 0.0031267558 0.0033032428 0.000104568084 0.0003838561 -0.0030977111 -0.0017141886 -0.00015440762 0.0014309646 6.0186403e-06 -0.0029100352 0.002126 -0.0026433668 0.0027723613 0.0017507538 -0.002235894 0.0011995874 0.0027191262 -0.0019202349 -0.002437792 0.0031296103 0.0006574257 0.0029946985 -0.0033315066 -0.0004874079 0.0021837745 -0.0004989041 -0.00065344013 -0.002408445 -0.0018785708 -0.0022782346 0.0029063835 -0.00060733815 -0.0027245115 0.0027000916 -0.0010289078 -0.00041120496 -0.00015547707 0.0009769581 -0.001690703 -0.00014076915 -0.0010933338 0.0029212865 0.0022028033 0.0005012915 -0.0021687895 0.0009045182 7.920252e-05 -0.0022635397 -0.0020806424 -0.001009528 0.00078542763 -0.002902944 -0.0018995688 0.0025864579 -0.001289966 0.0027258203 0.00014992493 -0.0019766495 -0.0015991149 -4.2183838e-05 0.0014431418 -0.0020433061 -0.001665344 -0.0025527733 0.0022185838 -0.0008582404 0.0013112482 -0.0005129097 -0.0027036658 -0.00033484877 9.96077e-05 0.0012700531 -0.002857537 -0.0020511087 -0.0023155368 0.0009855947 -0.0013979283 0.00032363116 0.0014671806 0.0016557593 0.0008269408 -0.00095435436 0.0001377364 -0.0019693119 -0.0021915012 0.0031662262 -0.0013487999 -0.0033243855 0.0011532216 0.002815914 -2.0486064e-05 0.000998385 -0.0014871937 -0.001642738 -0.0028103734 -0.0024789202 -0.00287891 -0.0021596896 0.0029213815 0.0031073822 -0.0005772851 6.610399e-05 0.0026248272 0.00057926244 -0.0016123765 0.0011519705 0.00066493097 -0.0015167345 -0.0016850079 0.003223829 0.0024892215 -0.0029917934 -0.001773754 0.00044869713 0.0003819385 -0.0029484576 0.003174921 -0.0017778759 0.0015439971 0.00311903 0.0006742751 0.0016339794 -0.0007873226 -0.0030612915 0.00042861176 -0.00021104813 -0.0033258162 0.0025243105 -0.0025861147
sich 0.0017589112 -0.00125402 -0.0029265985 -0.003064698 0.0019536067 -0.0019744604 0.002074273 0.00018549185 0.0032688514 0.0022910547 0.003388477 0.0026845708 -0.0028076177 -0.00312716 -0.0020863586 -0.0005823227 0.001915389 0.0014145864 -0.0006242974 0.0015107105 -0.0010435783 -0.0024902236 0.0018278558 -0.003283505 0.00046248912 -0.0017791829 0.0022038557 -0.0011830606 0.0007975599 -0.0023086367 0.0031882795 -0.001920041 0.001510436 0.0011197691 0.0029265303 -0.001754649 -0.0013288083 -0.002288268 0.0021343662 -0.0016131571 0.0013618533 -0.00037970266 0.002457876 -0.00208095 0.00010637602 0.00022446421 -0.0028254795 0.0029922966 -0.00058159407 0.0022914507 0.00020856818 0.0016412374 0.00071109866 0.0030761051 -0.0028406535 0.0030602722 0.0030299963 0.0004193081 0.0015756097 0.0012951661 0.0011967877 -0.0010286234 0.00093095284 0.00027336538 0.0013366919 0.0030609814 -0.0025241992 0.0002278491 -0.003250711 -0.0006235234 -0.0030154798 0.0010830254 -0.0002982166 -0.0006063349 0.002340042 -0.0026647197 0.00030129196 -0.00083815516 -0.0015835807 -0.0022665025 -0.0028617173 0.0027049666 -0.0026245478 0.0021307948 -0.0011881058 -0.00043454437 0.00083779864 -0.0028925228 -0.0017142848 -0.0026877024 -0.002720686 -0.0017630134 -0.0008576674 7.850613e-05 0.00012031797 -0.0022860668 -0.0010600606 -0.0009213679 -0.0021236106 -0.002074538 -0.0010159367 -0.0025563044 -0.002698748 -0.0021971245 0.0012938261 -0.0029042307 -0.0012419826 0.0022285 0.0022107447 -0.0021755772 0.0021105 -0.0026616228 -6.9133355e-05 0.0023382504 -0.0010521122 0.0033189543 9.848316e-05 0.0016039903 0.0024648318 -0.003230502 -0.0019355236 -0.0022354466 -0.0001786703 -0.00252421 1.1754664e-05 -0.0023466635 2.3927232e-05 -0.00031965043 0.0021866702 -0.0025793281 -0.00082580256 0.0021303578 0.0031331708 -0.0011556688 0.0001733389 -0.0018540166 5.9406128e-05 -0.0027902415 -0.002671667 4.868262e-05 1.8625578e-05 0.0015119431 -0.0033722466 0.00055325567 0.0007391214 -0.0019373868 -0.00020285835 0.001625775 -0.0018598128 -5.960665e-05 0.00135672 0.00017816936 0.0008899015 0.0026115011 0.0024578874 0.0014050616 0.0024880748 -0.0026610722 0.002268414 0.0017031783 -0.0019766046 -0.0013117818 0.0019280491 0.0020001687 -0.0033761233 0.0004210383 -3.241582e-05 0.0003254946 0.0024577626 -0.0018772717 0.0029714743 -0.0032040402 0.0023385813 0.0033305783 -0.0011510669 -0.003135438 0.0018948703 -0.0032040277 -0.0026535545 -0.00032921135 -0.0022612063 0.0032344295 0.0023234466 0.00015493698 0.0025192832 0.003286842 0.0021588 0.0017149042 0.00198736 0.001706373 0.0016908982 0.002199568 -0.0028891922 0.0029501102 0.0027805655 0.0029515403 -0.0030431866 -0.0012530837 -0.00017087594 0.0013996891 -0.0029303802 -3.3339442e-05 0.0019001373 0.0032653937 -0.00088529167 0.0005370091 0.0021742876 -0.00056937477 0.0007023546 -0.003296036 0.00012819983 0.0012673317 0.0015059633 -0.00337914 -0.0015240425 0.0007536175 0.0002951175 -0.0020702227 0.0015278523 0.0009109587 -0.0025769712 0.0032620453 -0.0028832972 -0.001399598 0.0031012073 0.00025536082 -0.0017441012 0.00032843277 -0.001578274 -0.0021595233 -0.0025407502 0.001443312 -0.0030165853 0.001652513 -0.0023179194 0.0017667282 -0.0014915982 -0.0019348298 0.0021864816 -0.0033211177 0.0005738836 -0.00077569997 -0.0021008577 -0.002510916 0.002564546 -0.0017351266 0.0015517428 -0.003461097 0.0006042027 -0.0005035659 -0.0017334875 -0.00088783633 -0.0028667825 -0.0012760964 -0.0011801565 -0.00083121913 -0.0012783784 -0.0030749682 0.0014456969 -0.0006203343 0.0020817053 0.0011527102 0.0032416056 -0.0016891271 -0.00334607 0.0005575946 -0.0027530456 0.0022533603 0.0024992554 0.0002918278 0.002483246 0.0028321845 0.0014975707 0.0018303208 0.003320945 0.0005524946 -0.0023372825 -0.0026704536 -0.0010560158 -0.00029835335 0.002987522 -0.0031966553 -0.0010879072 0.0031590771 -0.000522874 -0.0029174567 0.00037556465 -0.0018673552 -0.0018345312 -0.002112005 0.0001380302 0.0029654603 0.0017231118 0.002885784 0.003232 0.0018619825 -0.0017768465 0.002355418 -0.0028453183 -0.0018021987
auf 0.0027192922 0.0028537952 -0.0017113765 -0.0026832884 0.0025828932 -0.0014514055 -0.0010583003 0.0030512873 0.0018475765 0.0011802657 -0.00033829486 0.0027657014 0.002654638 0.0023719384 0.0028137872 -0.0021915447 0.00055719673 -0.00036699633 0.002172042 0.0031080195 0.0018098847 0.0011633456 0.0024275812 0.0019780085 0.00016439962 -0.0028679057 -0.0010079141 0.0030886298 -0.0018247726 0.00015685675 0.0016109509 -0.002372749 0.0029961402 0.00051683636 0.00076280016 0.0028848106 0.00059836195 0.000111472866 -0.0031196037 0.003211709 -0.0034927519 0.002795735 0.0017115476 -5.995894e-05 -0.0024888034 0.0033385528 -0.0004372886 0.0018423408 -0.0009305208 -0.0015253454 0.00021778383 -0.0027016369 -0.00224213 -0.0030490786 0.0017407329 0.00035429525 -0.00021365016 0.001753076 -0.0005590263 -0.002456845 0.0008140637 -0.0020194326 0.00016524366 0.003172136 -0.00056255225 0.0022630095 0.0015649593 -0.001002192 -0.002054742 0.0028526168 0.00070155895 -0.00012894618 0.00047707546 -0.0019710439 0.0013590208 -0.0009797472 0.0013134215 -0.0015538171 -0.00058543036 0.0014445995 -0.0025806685 -0.000906577 -0.0030352783 0.0009687403 0.0007430126 0.0007588734 0.0002896919 5.7379334e-06 0.00088587054 -0.0004242608 0.002371355 -0.0011421592 -0.0015006707 -0.0018222722 -0.0028735993 -0.0023908548 0.0008943001 0.0013273056 -0.0019183531 -0.0031828838 -0.0022194677 0.0016518395 -0.0029903916 0.0020093166 0.0022032137 0.001701926 -0.0025573738 0.00096685335 -0.002046543 0.0029499098 -0.0015862621 -0.0008428861 0.0016162363 -0.00013704164 0.001608017 -0.0011902335 0.0018644978 -0.0032367962 0.002198247 -0.00075667223 -0.0017759287 0.00019026153 -0.00019634975 -0.00039894393 -0.00062088517 -0.0027824908 -0.00273021 -0.0024352414 -0.0028568334 -0.0011747663 0.0032698582 -0.00044462705 -0.002498341 -0.002467908 0.0011481694 -0.00073315785 -0.0007306892 -0.0014918651 0.0018674617 -0.0029726448 -0.0024367466 0.0021874022 -0.002431843 0.0007166608 0.00031032614 0.0030463922 0.0012130035 0.0003312176 0.0012184463 0.0006266593 0.00079197664 -0.0012617856 0.0013276115 0.0019491796 0.0031638148 -3.9742143e-05 -0.00055757165 0.002056512 -0.0030385416 0.000115495786 -0.0022121798 0.0016742718 -0.0031564438 0.0011442044 0.0029493524 -0.0006963303 -0.0028417537 -0.002658937 0.0011855781 -0.0013044298 0.0019404367 -0.00040919907 0.002845397 -6.6817684e-06 -0.0019501259 -0.0018805701 9.084228e-05 -0.0017613871 0.002292598 -0.0012333572 -0.0019233985 0.00058667146 -0.0019066657 -0.0028527183 -0.0018762464 -0.0006176019 0.0005343265 0.0014360275 0.0024538531 0.0018436536 0.0020789213 0.00013993405 -0.0023111575 0.0029880574 -0.00019596778 0.0013876262 -0.00050405844 0.0018149478 0.0017290469 -0.002409166 -0.0010781859 -5.544526e-05 0.00058123784 -0.0030666925 0.0016478378 0.0010364606 1.1395374e-05 -0.0010536002 -0.0024757173 0.002345824 -0.0029569585 -0.002709736 0.0014924279 -0.0029851715 -0.0009282337 -0.0009042421 -0.00087086926 -0.002731139 0.0010879934 0.000113891845 0.0012520183 -0.00048045602 0.0020436333 -0.0034975016 0.0017967521 -0.0018223994 0.0006917932 -0.0023880668 -0.0010200841 -0.002092568 -0.0010740368 0.0031276303 0.0008834705 0.000779047 -0.002434336 0.0018463688 -0.0027364828 -0.00080842845 -0.002106893 -0.0025206667 0.0008860486 -0.0011677457 0.0009147993 0.0013534494 -0.0018094479 -0.0007964266 -0.0009122677 -0.0034716057 -0.0033256875 0.00052007806 0.0016916124 0.00010950487 -0.001577542 0.0010897266 0.00028034483 -0.0032392826 0.0028093816 0.0025980768 -0.0028771372 -0.0004206162 0.0020159984 -0.0008140908 0.0002475874 -0.0018623858 0.0016817306 0.0024413364 0.000938656 -0.0013529873 -0.00089116377 -0.00123228 -0.0033762227 0.0025805847 -0.000105436746 -0.00018983835 0.002605439 -0.0028341624 0.002487567 -0.0024333368 -0.0021747996 0.0016037591 -0.0011223591 -0.001248776 -0.0022937877 -0.001217052 -0.0009197816 -0.0012936636 0.0028973476 0.0032109974 -0.00014132787 -7.701093e-05 -0.0017824838 0.0031569006 -0.0013418362 0.0021372654 0.0033122855 0.0022280144 -0.000106447085 0.0018287331 0.0026111885 -0.0014870679
nach 0.00026878918 0.002363054 0.0020567374 -9.051254e-05 0.0006908477 -0.0023740153 -0.0028564746 -0.0010484079 -0.0017799287 9.753436e-05 -0.0012477653 -0.00020845895 0.0023925344 0.0032897256 0.0024365687 0.0005411282 -0.00068882055 0.0009594127 -0.0008611649 -0.0031377038 0.0023632878 -0.0030680858 0.0014919497 -0.0013181523 -0.0017424884 -0.0004312016 -0.0024668092 0.0028925969 -0.0024120593 -0.003158374 0.0019096588 0.0014334349 0.0018509403 0.00083404157 -0.0012861117 -0.0016038988 0.00068022846 0.0025975618 -0.0018265971 -0.0008583499 0.000429957 0.0021617722 -0.0021188355 -0.0015623387 -0.00073024584 0.0006727466 0.0018097841 0.0018998572 -0.0028022847 0.0025459048 -0.00067889586 -0.00097421167 -0.002959725 -0.0018028913 0.0030905318 0.0012313897 -0.002585551 0.0009918527 -0.002292843 -0.003003687 0.001169426 0.000633265 0.000420285 0.0029579683 0.0018668472 -0.0014914803 0.0009512498 0.0009938829 0.00052178773 0.0027014092 -0.0023039903 -0.0007477005 0.00050695596 0.0018134719 -4.6843194e-05 0.0026665435 -0.0016270061 -0.003057734 -0.0026122916 -0.0012411197 0.0030376439 -0.0017584849 -0.0017349119 0.0031671098 -0.00244322 0.0006221979 0.0018211172 -0.0025233934 5.8340964e-05 -0.00087428023 0.0022059188 -0.0016697914 -0.002029604 0.0032350996 -0.0012164395 0.0028168052 -0.0026486611 0.0023108143 -0.0011466698 -0.002550458 -0.0005263845 -0.0007351184 -0.000564811 -0.00011452312 -0.002091238 -0.0015066204 -0.0010845176 0.0025886404 0.00172352 -0.00032435753 -0.0017362594 0.001692064 -0.003038645 0.00065948616 0.0012407452 -0.000454559 -0.0013150201 -0.0027201693 -0.0026186702 0.0020485765 0.001294943 2.4233526e-05 0.003421234 -0.0029873108 0.0001507689 0.00013740022 -0.0027988784 -0.0031797665 0.002403553 -0.0009097858 -0.002430836 0.0027908785 -0.0020472219 -0.0015101128 0.00053865934 -0.0009607708 -0.0028500098 -0.0013724079 -0.0030932361 0.00012921728 -0.0014862247 -0.00030492252 0.0008030226 -0.0007948233 0.0031022131 0.002189859 -0.00036953745 -0.00052650354 0.00055350823 0.0021111723 0.0030177035 -0.0009656849 -0.00055210915 -0.0010841428 0.00034957015 -0.0019693607 -0.000770404 -0.002984247 1.5760656e-05 0.00082161895 0.0012290666 -0.00088910764 0.0017860057 -0.0023154602 0.0032047806 0.00017851172 0.00087294035 0.0014933327 0.0002306601 0.0012998909 0.00034408495 -0.003249375 -0.0008285696 -0.00069949613 -0.0029821212 0.0011430141 0.0014440255 -0.0008713317 0.0025713104 -0.0004587402 -0.0001497594 0.002196322 -0.0030858032 -0.0024069296 0.002328053 -0.002205561 0.0031765029 0.0020183772 -0.0025285871 0.0024422077 0.0022029618 -0.0021933306 -0.0031618013 -0.0029609082 0.001295498 0.001957279 -0.000728789 0.00033796165 -0.0028318772 -0.0017038407 0.0014204433 -0.003090249 -0.0031715124 0.0003781085 -0.0028132547 -0.0024032884 0.0016463817 0.0027527695 -0.0024198135 0.0025290856 0.003035167 0.0013489655 -0.0014524902 0.0030982106 -0.0024108693 -0.0014999153 0.0004585938 -0.0029721046 -0.0036372656 0.0007570384 0.0027486482 -0.0017398264 -0.001684989 0.0009843719 9.787043e-05 -0.0029375178 0.0022747128 -0.0010968845 0.001001025 0.001134514 0.0030186665 0.0027871775 0.0024246033 -0.00250578 1.4219323e-05 -0.0003340525 0.0002518291 0.0028898017 0.0016460969 -0.003357441 0.0033608875 -0.0003721093 0.00020911447 0.0016678848 -0.0018178276 -0.00033198198 0.00047168744 0.002156151 0.0013915157 -0.00052324834 -0.0026139917 -0.0012689948 0.0029483724 -0.003258622 0.003012774 -0.00013512112 -2.4840852e-05 0.003190735 0.0028984912 0.0025934607 0.0030263765 -0.0032201982 0.0028181775 -0.0035631761 -0.0028913524 -0.0028408908 0.00093413866 0.0026051237 -0.0023808114 -0.0008034463 -0.00087900396 -0.0015169124 -0.00032196907 0.0016251339 0.0014549717 -0.00092232734 -0.000906775 -0.00068735704 -0.0014599026 0.0012398852 0.0032924607 0.002524096 -0.0027101496 -0.0020346742 -0.0030658538 -0.0018919912 0.00093935017 -0.0019462646 0.00054922776 0.0029580826 0.0012026242 0.0008843007 0.0032624514 0.0022733663 -0.0002407873 -0.0017814666 -0.00016614434 0.0024188985 0.002770542 -0.0015270967
Scholz 0.0033560845 0.001019472 0.0018699043 -0.0019197338 0.0013151268 -9.746398e-05 -0.002892108 0.002334682 -0.0029810097 -0.002224952 0.0010165699 0.0029810413 -0.0008928789 0.0023787424 0.0014376898 0.0010875636 -0.0018509936 0.0018626134 -0.0027485779 -0.0015762596 0.0019062889 -0.00287738 0.002132936 -0.0011563709 0.00016338838 -0.0025834946 -0.002342375 -0.0010612268 0.0027270108 0.0015779416 -0.0032901606 -0.0022708077 0.0014312894 -0.0028199805 0.0021690128 0.0021209307 -0.0029712282 0.0027089377 0.0026748078 -0.0006723076 0.00035801952 -0.0019342535 0.0020635899 0.0024886508 0.0014659812 -0.0027379666 0.0016819683 -0.000953827 -0.00064903183 0.002152628 0.0007746815 0.001500405 -0.0021184608 0.001840775 -0.0012260826 6.4263295e-05 0.0021734291 0.0013896904 0.0025898274 -0.0012797078 0.0010005076 0.0023733547 -0.0011399584 0.0019193263 -0.0033737896 0.003133668 0.0013174993 0.0019333754 0.0012347752 0.0014174032 -0.0010869951 -0.0020530159 -0.00056720513 6.7210574e-05 -0.000805822 -0.002768601 -0.0021748508 0.002735061 0.0028047983 0.0021259321 -0.0015602178 0.0001690794 -0.0029837373 0.0026715135 0.00023793074 0.0024272902 -0.0018740328 -0.0010060257 0.0010910865 0.0010723216 -0.0017993129 -0.002630725 0.0008824956 -0.0031044139 0.0022643525 0.0021257491 -0.0011208876 -0.0018786304 -0.0027357321 -0.00058754574 0.0021846858 3.828504e-05 -0.0026267169 0.0033018547 -0.002716629 0.0014886701 0.0021391779 0.00036074204 -0.0031325344 0.0020187474 -0.0027770172 -0.0017379717 0.0030894564 -0.0026083686 -0.0026425342 -0.0013926105 0.0013428207 0.00069615024 -0.0017092244 -0.0014103135 0.0029578875 0.00345477 0.0035304255 0.00017592993 0.0013254154 0.00074782874 0.00042502306 0.0014443274 0.00075227284 0.00044896614 -0.0008195089 -0.0020300702 0.0026978035 -0.0025150322 0.00085714797 -0.00013032115 -0.0014281794 -0.0017338217 0.0009718846 -0.002335984 -0.0024349738 -0.0012014 0.0014688761 0.0019898512 -0.00028141032 0.0022943602 -0.0027200999 -0.0019667023 -0.002302045 -0.0021456499 0.0024990072 -0.0034938727 -0.0029512332 -0.0033545082 0.0033037227 -0.00068029366 0.00022848826 -0.0021092955 -0.0011002063 0.0003769365 -0.00083151 -0.0023428232 -0.0022584102 0.00093300693 -0.0032186662 0.00039753117 -0.00056216365 0.0028056994 -2.181452e-05 0.002545155 -0.0025608342 -0.0025753076 0.0020981384 0.00047656152 -0.0015499331 -0.00088620314 0.002723134 -0.0032390144 -0.001105784 0.00028649194 -8.7343346e-05 0.0034768716 -0.0009064327 -0.0024905542 -0.0027067298 -0.0032547335 -0.0022197252 -0.001797663 -0.001783837 -0.0008746088 -6.382981e-05 -0.0015281914 0.0003443548 0.0012473244 0.0030441391 -0.0016929454 0.001674679 0.0022883308 -0.0013331929 -0.002458803 -0.0012781782 -0.002426406 0.0020731944 0.003167856 0.0027900843 -0.0028988407 0.0017461369 0.0018112487 0.0019404937 -0.0029407612 -8.448543e-05 -0.0025030503 -0.002984694 0.00071851443 0.0035220666 0.0019490196 -0.0025949485 0.00033912892 -0.0016316089 0.0030570691 -0.0028801162 0.003192711 -0.0024430805 -0.0027086437 0.00039030027 -0.0003232489 -0.0027255751 -0.00021947593 -0.00030864013 -0.0019964883 0.0019398797 0.00094038487 0.0027963654 0.0027155797 -0.0026160807 0.00154227 0.0018387855 0.0018756052 0.0017663786 -0.0019546147 0.0015314284 0.00038695085 0.00016367932 -0.0021062468 0.00082973484 0.0015782606 -0.003047145 0.0026493813 0.00095339725 0.000118466196 -0.0008910546 0.00018571812 0.0020255158 0.0014597548 -0.002243422 0.0025160215 0.00021921044 -0.0026962361 0.0026812684 0.0015394571 0.0012013632 0.0027075591 -0.0021584933 -0.0023727224 -0.0010069275 -0.0012545057 -0.00028072874 1.7975966e-05 -0.0030692627 0.00076767046 0.000750711 -0.0003095547 0.0017042011 0.0004959297 0.0022363095 -0.0006079196 0.0032697131 -0.00044828796 0.00062220724 -0.0013456183 0.002064491 0.0009434539 -1.7690256e-05 0.0030404374 -0.0026418425 0.0033089125 9.45717e-06 -0.00071589 -0.0013357655 -0.0030213126 -0.00066112395 0.0013857811 0.0025393893 0.0032002463 -0.002670344 0.003339572 -0.002715238 0.0012217751 0.0029966182 -0.0010409829
haben -0.0025946184 -0.0026735663 0.00044636647 -0.00025696264 -0.003224973 0.0009541932 0.00089556 0.0018106548 0.0015041862 0.0010147897 -0.0032410745 0.0018644334 0.0013375431 -0.0025674158 -0.0008295303 -1.259716e-05 -0.00011858746 -0.00022795513 -0.0018210784 -4.9687904e-05 0.0014876147 -0.00032299777 0.00038318074 0.0006906008 -0.0012578198 -0.0026737268 0.0029126822 -0.0032386146 -0.00088317605 -0.0004800727 -0.0025806027 0.00057318533 0.0027858305 -0.0005028598 0.0026880216 0.00014984392 -0.0018965703 -0.00075690844 -0.00019741285 0.0020443518 0.0022772304 0.00205256 -0.0020065529 -0.002375786 0.0020929512 0.0009392508 0.001775572 0.00017486524 0.0026664706 -0.0028981406 0.0033643052 -0.0027931654 -0.0005707279 0.0021615403 -0.0031060746 0.0015340699 -0.0022846328 -0.002264444 0.00080983073 0.00058184034 -0.0010218064 0.0025996899 -0.0023445247 0.00015803229 0.0027866308 0.0007701549 -0.0022385975 0.0012443233 -0.0018355153 0.00016657822 0.0009509031 0.002556377 0.0025395555 -0.0018195155 0.0032901126 -0.0018253082 0.0025191028 -0.0026993253 -0.002760206 -0.00031791054 -0.0028023175 -0.0011999365 -0.00023941453 0.00021003454 -0.0032992794 -0.0021942637 -0.0025180052 -0.00017188083 0.001781667 -7.0269e-05 0.003521407 -0.0013965428 0.0027847888 0.0020014287 0.002910895 0.00016931455 -6.954415e-05 0.0006334037 -0.0033064862 0.0030413785 -0.00087377196 0.0025591713 0.0006915333 0.0011287712 -0.000376372 -0.0034774693 0.00043926795 0.00096669514 -0.0033730257 -0.0013296978 -0.00084873853 -0.0017133204 0.0012791982 0.0007764169 0.0013902388 -0.0020551102 -0.001883633 0.0016027951 0.0023536654 0.0016802831 0.0016363704 -0.0023247579 0.0027954231 -0.0024059275 -0.0025971085 0.0030027393 -0.00088793796 -0.0032150678 -0.0010056797 0.0021390372 -0.00085454795 0.0017223691 5.2722706e-05 0.001119158 0.0003635229 -0.0030255103 -0.0013219261 0.002917401 0.00047807238 -0.002147048 0.0023751988 0.0023289174 0.0023626576 -9.603838e-06 -0.0029505058 -0.0012318833 0.0016209871 -0.0023474833 0.0033818202 -0.0033423216 -0.0027008867 -0.0019377875 0.001993505 -0.0025979464 0.0029798783 -0.003178893 0.0011059111 0.0010456291 -9.756857e-05 0.0033406245 0.001686061 0.00014237355 0.00152822 0.0021702275 0.0009864216 0.0031340066 -0.00039971218 -0.0027887414 -0.0014273846 -0.00027536257 -0.0025144455 -0.0005382631 0.0027777026 -0.0016007359 0.0017727027 0.0014618437 -0.00034136244 0.00027046286 0.0019517759 -0.002246549 0.0012704083 0.0031151855 -0.0013090731 -0.0025759204 -0.003115976 -0.0029856116 0.0014976265 0.0018146862 0.0024538108 -0.0006738117 0.0003816256 0.0010382805 -0.0034711396 -0.003127675 0.0015291639 -0.0028731658 -0.0011073572 -0.0015000269 0.0019593746 -0.0011294709 0.0032549659 0.00013374418 -0.001732932 -0.0011896571 0.00042362354 -0.0018261775 0.002510585 0.0030417673 0.0014701007 -0.0025467516 -0.0020248385 -9.718084e-05 -0.0003223692 -0.0019092443 0.0027280329 0.0019852212 -0.0015017906 0.00057137094 0.001541938 0.0007045599 0.0028911636 -0.00044619874 -0.0023197436 -0.00044053578 -0.002833759 0.0032426012 -0.0028214818 -0.00052312115 -0.0010609635 0.0010854054 0.0016747167 -0.002809732 -0.0014846058 0.0003001298 0.0011439377 0.0016765589 -0.0004775346 -0.00023794478 -0.0026025416 0.0013279516 -0.0025158683 0.001057528 -0.0010901003 -0.0026018273 0.0024409841 -0.00022863127 -0.0031672071 -0.0032340903 0.00016697818 -0.0026437233 0.0013739164 0.0011627878 0.0011175724 -0.0019501338 0.0025411022 -0.0030368974 0.002678095 -0.00019205717 -0.0006260845 0.0012377187 -0.0008490017 -0.0014184811 -0.0006373206 -0.0022835364 -0.0002801648 -0.0017388811 0.0016739317 -0.0030756313 -0.0015600503 -0.0030038166 -0.0032546131 -0.00027066865 -0.0026440208 -0.0019082042 0.0010409099 -0.00040099898 0.0012309812 0.0027947847 -0.0033918868 0.0019923595 -0.002653811 0.0021285652 0.0024107539 0.0029380466 -0.0026645577 0.0011566717 -0.0027395776 -0.000409584 -0.0017447814 -0.0028456391 0.0016869286 0.0017311 -0.0011902143 -0.002507871 0.0013122752 -0.0011761766 -0.00284979 -0.0014526695 -0.0005964124 0.0028338095
ihr -0.0021284488 0.0025553636 0.002088436 -0.0016556273 -0.0006277891 -0.00092859945 0.0012073846 0.00022142939 -0.0008902016 -0.0030630846 0.002175309 -0.0032599266 -0.0029859997 0.00047723827 0.0008737204 -0.00014717443 0.00024540073 0.0009656869 0.0006320184 0.0024470275 -0.001113516 -0.0025053206 -0.0024969422 0.002641909 0.00071730494 -0.0019965647 0.0019717023 0.002865859 0.002579823 -0.0023820368 -0.0017276079 -0.0006972257 -0.0020723646 0.0016156225 0.0018727955 -0.0019234444 0.002461846 -0.0026555322 0.0020750952 -0.0015630815 0.0005534469 -0.0011322764 0.0011519253 0.0025488478 -0.00037593857 -0.0015150341 -0.0028259833 0.0012371255 0.0014607415 0.0022982997 -0.0013249257 -0.0032654621 0.0022759952 -0.0014504909 0.0014408863 0.0028096016 -0.001275239 0.0005793157 -0.0011217224 -0.0022039695 -0.0019895132 -5.4985863e-05 -0.0024957715 -0.0006563307 -0.0009610686 0.0023590103 0.00050553924 0.0020644155 0.0010974157 -0.0012265817 -0.0016994044 0.0032221482 0.0024711625 -0.0031986139 0.0018494482 0.0027654944 0.0030262019 -0.0027080672 -0.00086512 0.00044084873 0.00084415235 -0.00057065976 -0.0016337226 0.0023991403 0.002360274 -0.00014806546 -0.0019968783 -0.0014794865 -0.0016374901 0.0013554961 0.00041159638 -0.00087644835 -0.0029079122 -0.00050731894 0.0023404718 0.002283503 0.0015366834 -0.00095251115 0.0030121156 0.0002271346 0.0002981283 0.0021239491 -0.0021918055 0.0023589903 0.0033115265 0.0010306805 0.0011446406 0.0014140684 -0.0007771553 -0.002736219 0.00040681756 0.0002839298 -0.0023405305 0.0007267701 0.0017596688 -0.002261033 0.00094849255 0.0025963783 -0.0027738695 0.0009812929 -0.0028084684 -0.0025365478 0.0024678838 -0.0026012724 -0.00049033016 -0.0024663382 -0.002688437 -0.002494641 0.00015511965 0.0007948227 -0.0025248122 -0.0025738794 -0.0010435141 -0.00088633155 -0.0020949342 -0.0013077043 0.0010605766 0.0009885979 0.0021221505 0.0011809836 -0.00026402497 0.0007422036 0.0029553114 0.0006391695 0.00069999206 0.00025636778 -0.0032186722 0.0015722322 0.0018515456 -7.29604e-05 0.0030843713 -0.0020995864 0.0010713901 -0.0026618894 -0.0028713928 0.0007746776 0.0014978537 0.0019710087 -0.0030154246 0.0016405963 0.00083045714 0.0014383119 -0.000328547 0.0018905817 0.0023919216 -0.0027947153 -0.0032561843 0.0023831383 -0.0002698267 -0.0028627794 -0.0014709069 0.00040352286 0.0029273396 -0.00047424095 -0.00026072684 -0.0024313715 -0.0026336843 0.0003915068 -0.000101730744 -0.0026212055 0.00028126186 -0.0028280576 -0.0009807856 0.0013509282 0.000297803 0.0026215296 0.0024289396 -0.00025977154 0.0017540513 0.0018177371 0.0029887564 0.0030538307 0.0014234618 0.0015428696 0.0024044379 -0.00063056254 -0.0019020529 0.0028756931 0.00039114352 -0.0016721028 -0.0003749573 -0.0017935564 0.002994649 0.0011406344 0.0014381201 0.0021132026 0.00277142 -0.0015324325 -0.0020635035 -0.0013697513 -0.0012713242 -0.003274547 -0.00021141577 -0.0028020053 0.0033408194 -0.0012529442 -0.0022465866 -0.0029771887 -0.0013656943 -0.00330209 0.00028902982 0.0017963216 -0.0011219826 0.0023890657 -0.0007222506 -0.0024698242 -0.0009834595 -0.0010934835 -0.0024938327 -0.0031948115 -0.001347828 -0.00059737836 0.0016533051 -0.0023870985 -0.001883744 0.0004584645 -0.000589351 0.001172707 -0.0006191844 0.001228428 0.0027403205 -0.0026765843 0.0013135853 0.0020220496 -2.2420658e-05 0.0021285114 -0.0018195208 -0.0016504227 -0.0026366697 0.0032429718 -0.0029991055 -0.0010582261 -0.00011729082 -0.0016824091 0.0029941208 -0.0023274764 -0.0024180494 0.0030888012 -0.0029338743 0.0031403075 -0.0013700083 0.0019447559 6.128363e-05 -0.0016047121 -0.0026949302 -0.0020376449 0.0024130105 0.0022179026 -8.179048e-05 0.0021587547 0.0012118417 0.0012600301 0.0009443033 -0.00323756 0.00323086 -0.0026257597 -0.00078466797 0.00052167114 0.001520833 -0.0031088216 0.0005824253 0.0020888117 -0.0029963043 0.0032368966 -0.0017699624 0.0032448354 -0.0023109284 0.0022455193 0.0031029517 -0.0030649812 0.00015202712 -0.0022910305 0.0028668225 0.0032981364 -0.0018641318 0.0004567298 -0.0006440954 -0.0025976168 0.00042545874 -0.0034022785
wir 0.0008915861 -0.0023891616 0.0019647295 0.0024868199 -0.0009499337 -0.0014936202 -0.0029402708 0.0021849782 0.0010013578 0.0028345345 0.0011682631 -0.001066644 0.0010327396 0.0028857698 0.0029058119 0.002314929 -0.0026419389 -0.0023929197 0.002466394 -0.0026479764 0.0011526007 0.0025311215 -0.0008709235 0.0022772027 -0.002626113 0.002114901 0.0016014752 0.0011614062 -0.0028158529 0.0028758578 0.0027270622 -0.00055546826 0.0015685398 0.0021717995 -0.00060926663 0.0019511057 -0.001234349 -0.00059945305 -0.00039310343 -0.0014395852 -0.00040586502 -0.0026446728 0.0012528427 0.0030042587 0.0017345051 0.002340542 -0.0015520008 0.0016756573 -0.0021620428 -0.0015504577 0.0034480179 0.0021435088 -0.0016548692 -0.0019433422 0.002344792 0.0010816354 0.002293922 -0.0021812315 -0.0002394223 -0.0002946513 -0.00019314027 0.0007139481 -0.0022413307 0.0014509964 -0.0011215307 0.0029781158 -0.00030799527 0.0032147907 -0.00052654726 0.001636861 -0.002550534 -0.0030115817 4.736368e-05 -0.001020284 0.0034560002 0.0015821628 -0.0019168907 0.002450121 -7.051972e-05 -0.003048665 0.001737508 -0.0007091716 -0.0032450154 0.003294991 0.0024892457 0.002823323 5.8308862e-05 0.0025565927 0.0018756731 -0.0023849066 0.0034212372 -0.0012881735 -0.003068669 0.002822245 -0.0014562003 0.0030918678 -0.002417605 0.0030814384 -0.0019518308 0.0013840809 0.0031325805 0.0014609557 -0.0006699294 -0.0013938224 -0.003164931 0.0011026642 0.0024898725 -0.0015833961 0.0017685546 0.0022327986 -0.0031262806 0.0006634641 -0.0023970224 -0.0013289604 0.00020496527 -0.0021288076 -0.0012225317 -0.002490296 -0.0021912798 -0.0026191063 0.0033785568 0.0029473635 0.000115365794 -0.0009929157 0.0020598564 0.00071341044 -0.003084516 -0.0025035243 0.0003560049 0.002945564 0.001251449 0.003430107 0.002224368 -0.0003313483 0.0028390877 0.0031415324 0.0025073416 0.0030911304 -0.0032386044 0.00083507906 -0.002561082 -0.002678808 -0.0028990058 0.0010786551 0.00015083421 -0.002305587 0.0016582191 0.0023439706 0.0016970653 0.0024943617 -0.0013854681 -0.0024053596 0.0012921875 -0.0010510215 -0.002261431 0.0013908675 -0.0012744196 -0.0018424487 0.0006871749 0.0025773975 0.0021473442 0.0001248936 0.002739248 0.001030083 0.0021173258 -0.0003166442 0.0007839595 0.0021420754 -0.003182407 0.0023449785 0.000245112 0.0020461297 -0.00030852715 -0.00074664113 -0.0017492117 -0.00093252823 -0.0009531206 -0.0018774736 0.00041844323 0.0026114841 0.0016936474 -0.0023061696 -0.0027012322 -0.0010540559 0.0011886158 -0.003116776 0.0023582955 0.0012787594 -0.00081265025 0.0027442332 0.0027758966 0.0002922212 0.0012869079 -0.0031113408 -0.0029165058 -0.0011469116 0.0031125094 0.00097333477 0.0018384429 -0.0022505156 0.001272895 8.5501735e-05 -0.00038777187 -0.0010591348 0.0016967832 -0.0031087084 0.0017656259 0.0019864114 -0.0007685439 -0.0015690204 -0.0025322323 -0.0023143464 -0.0017084192 0.00091437675 -0.0014663188 -0.000576298 -0.0031637785 -0.0015698548 -0.0005688129 -0.0028531568 0.0011152887 0.003242943 0.0012357476 0.0003540618 -0.0017682309 -0.00046609694 0.00083228317 0.00051867065 0.002755728 -0.00025742987 0.0023608494 0.0018137429 0.000995094 0.0026606927 -0.002003973 -0.0013003425 0.0022863008 0.0028297293 0.0010984159 -0.0017172667 0.0026695551 0.00085242704 8.0564205e-06 0.0030125831 0.0016762564 0.0011133818 9.222596e-06 -0.0031458738 -0.0010631621 0.0009347794 -0.0016649839 0.0024188363 0.0025441954 -0.0030526083 -0.002087304 -0.0020501236 0.00012568661 -0.00061782706 -0.0009539798 -0.0008831604 0.0011915952 0.0033316119 -0.001240844 -0.003176814 0.0009619984 -0.0020744703 0.002410533 0.0010936392 -0.0028762682 -0.0025206814 -0.0031833155 0.0007633207 0.0010076251 0.0008801956 0.00027793075 0.0005231057 0.0013211701 -0.00043478078 -0.0030235962 -0.00028630614 0.0012805864 -0.0009293568 -0.00085498847 -0.0006885754 0.0023933758 -0.0009273713 0.0029119225 -0.0012238276 -0.0033455908 -0.0021784573 -0.0013444338 0.00085457205 0.0019474275 0.00082484086 0.0032423649 0.0005607654 0.002036457 2.4293211e-05 -0.0004337871 0.0019038336
von 0.00070287695 0.002863033 -0.002687931 -0.0029286093 -0.00023418835 -0.00072757073 -0.0006373915 0.0001155117 -0.0016786694 -0.0027084176 0.0027928916 -0.0011511125 -0.001034672 -0.00052101363 -0.00052082265 -0.0032048156 -0.0004894053 -0.0003711505 0.0028921764 -0.0027214303 -0.0015511764 -0.0007324986 0.001080512 -0.0020097983 -0.0017678348 -0.0027232692 0.0017203139 -0.0028816648 -0.0011536134 8.959452e-06 0.00047057786 -0.0033587653 0.0030420802 -0.0006646732 9.141006e-05 -0.0028772627 -0.0026649444 0.0011584108 0.0013682444 0.0009523717 0.0018241936 -0.0023394546 -0.00040113984 -0.0009414917 -0.00039076628 0.0016052361 0.00047153467 -0.0024526506 0.001120716 0.0021618882 -0.0019477312 0.0010725297 -0.0014429997 0.0029968666 0.001350306 0.00076445396 -0.00029195062 -0.0030174092 0.0029282633 -0.00060737575 0.0023685158 0.0012430423 -0.002777151 -0.00021409738 0.00079220947 -0.00075930497 0.003266637 -0.0015854784 -0.002540452 0.0012178932 -0.001203331 -0.0022998198 0.00076519797 0.0015824001 -0.0017577499 -0.0014365326 -0.002421399 0.00049745163 -0.0017205747 0.0028845833 0.000143243 0.0005923878 -0.0011692957 0.0026770837 -0.00018869292 -0.0027508806 -0.0024982817 5.2267646e-05 0.0026578326 0.000989959 -0.0015919221 -0.0023402509 -0.003190044 0.0012568557 -0.003011934 0.0012076115 0.0006357207 -0.0002723228 -0.0033275187 0.0019851732 -9.711222e-05 -0.00326773 -0.0025141456 0.0030153922 0.0006842647 -0.002909131 -0.00029383556 0.0018306344 -0.0032197046 -0.002308933 -0.00041389948 -0.0032815144 9.9454395e-05 0.00072494964 0.0027947493 0.00044224333 0.00053585216 0.0016549496 -0.0013612536 0.002253346 9.520143e-05 -0.00013324985 -0.0031423757 8.3646286e-05 0.002248171 0.0007338855 -0.0027608369 -0.0011993014 -0.0020040728 0.002175453 -0.0020457602 0.0018303746 -0.0017314685 -0.002535426 -0.0025635206 0.0013551661 -0.0030483224 -0.0019446331 -0.002406747 -0.0016246261 -0.0013198461 0.00035092924 0.0021100766 -0.0004227709 -0.0017359515 0.00043631005 0.001775322 -0.0019429764 -0.0016402502 0.0016557188 0.002118962 -0.002779345 0.0027063622 -0.003313696 -0.0023690013 -0.0018515333 0.0005314937 -3.0410603e-05 0.0010440997 0.002510698 0.0015988838 -0.0010121136 -0.0022432874 -0.0027263442 -0.00020364828 0.0032507991 -0.002506512 0.0012323542 0.0015181956 -0.0012164116 -0.0024147246 -0.0018525019 -0.0015569173 -0.0022520835 0.002049091 -0.0026054212 -0.0010746345 0.0013626732 0.000103955186 -0.0025888123 -0.0015709007 0.0013610782 0.0007095375 -0.0007115828 -0.00030493076 0.00086539076 0.00067438534 -0.00076574367 0.0018844511 -0.002750818 0.0021726266 -0.0033075567 -0.0009458055 0.0022144532 -0.0011753537 0.0021042132 0.0018075386 -0.0025361718 -0.00011028471 -0.0015000781 -0.0027866042 -0.00035417947 0.0020958725 0.0029462632 -0.0016785247 -0.000922693 -0.0019887039 0.0004155304 0.0009149842 -0.003377764 0.0007557196 -0.0030458546 0.00012955588 0.0015239686 -0.0016635284 -2.1759732e-05 -0.0008385971 -0.0031234445 -0.0009719298 0.0013918871 -0.0028476296 -0.001986456 -0.00032771993 0.0024922292 0.00039133834 0.0032068097 -0.0025171908 0.0029816546 -0.0016748738 -0.0020742947 -0.0025961762 0.0005550784 -0.00091368356 0.0026583395 -0.0003752178 0.00081977854 0.0019542093 -0.0029003622 -0.00067373575 -0.001781644 -0.002838234 0.0011147336 0.00087608583 -0.00080025103 -0.0004869761 -0.0023418798 -0.0010842035 0.00032976945 0.0025515307 0.0024211255 -0.0010868533 0.0012246765 -0.0008572694 -0.0016282261 -0.0013494089 -0.0020964567 0.0013644893 -0.0026024147 -0.0026439198 -0.0015796489 0.0024629892 0.00065052276 0.0019878768 0.0025065474 -0.0022433859 -0.0014923286 0.0026855785 0.0017529068 0.0014090872 0.0030589006 0.0028875691 -0.000905601 0.00039970985 0.0018314734 0.0030896035 0.0033563003 -0.0025648153 -0.0016728556 0.0014445945 0.00027798058 7.362629e-05 0.00245337 0.002037387 -0.0023432716 -0.00088796235 -0.0027876196 0.0022135407 0.00096269284 -0.0007410803 0.0006371102 0.002593372 0.0029568183 0.0022189382 0.0011339585 0.00062656036 0.0028721353 0.00053012214 0.00014829428 -0.0030248573 0.00074149115
) -0.0027848168 0.002330299 -0.0018284135 -0.0006217503 0.00021832497 -0.00079940015 -0.0027903388 0.0018877062 -0.002154037 -0.0029932137 0.0013848378 -0.00034953255 0.002019125 -0.0022986582 6.0240207e-05 -0.00047579355 0.0021150026 -0.003100599 0.0020088935 -0.003141705 -0.0025262763 8.657103e-05 -0.0006868122 -0.001293036 -0.0016544184 0.0012928679 -0.0033671386 0.00043317725 0.0012903851 -0.0002724658 -0.00019356977 0.0023290706 -0.0029430161 -0.0029632489 0.001446936 0.003028285 -0.0024932788 -0.002947923 -0.00018841603 -0.0030730176 0.0005167584 0.0030134544 -0.0020226783 -0.0022867313 0.0031158244 -4.7814538e-05 -0.0012216589 -0.00085696735 -0.0028356428 -0.0014392824 -0.001229885 8.344568e-05 0.00023585487 0.0026434155 0.0022197969 -0.00031360835 -0.003224066 0.0009268192 -0.0019460983 0.0030457925 0.00113779 -0.00038432473 0.002188207 -0.0011581372 -0.0014295514 9.749622e-05 0.0028443786 0.0021382356 0.00026368516 0.0011665268 -0.0010081538 0.0031169339 -0.002211213 -0.001375426 -0.0016116606 0.0029554653 -0.0011022651 -0.00081989425 0.0021295592 -0.0031064504 -0.0011430446 0.0009247413 -0.0021937757 0.003337254 0.00045018058 -0.0017669725 0.0015658982 0.0026333951 0.00045267932 0.002205354 -0.0019573371 -0.0013289378 0.0034916652 0.0018176077 0.0008441696 -0.00086681923 0.001650663 0.00084225205 0.0027993121 5.6244866e-05 0.0027411103 -0.001888711 -0.0024995622 -0.00019737301 0.0010826016 -0.0009646208 0.0019675486 -0.0027860405 -0.0032062922 0.002491457 0.001970455 -0.0014350875 -0.0014398036 -0.0010592402 -0.000117812815 0.0032433004 0.00047219475 -0.00066494104 -0.0009908736 -0.0010091125 -0.0029768364 0.0024467506 -0.002819478 -0.0011500152 -0.0023965426 0.0032962263 0.0018439064 -0.00031478435 0.0013297766 -0.00050493143 0.0034735242 -0.0010585652 0.0016558359 -0.0017098353 0.003127524 0.0033056908 0.0018853355 -0.00015681403 -0.00067469437 -0.0032312272 0.0031624206 -0.0031213902 -0.0022899623 0.0018640099 -0.0006054712 0.0024897426 -0.002810039 0.0027560233 0.0010098134 -0.0029746185 0.0013613772 -0.001969767 0.002066566 0.002118647 -0.0027536214 0.0023272396 0.001611421 0.0020515518 -0.002560781 -0.0018743796 -0.0029494376 0.001834034 -0.0015122512 0.0016607698 0.0015244862 0.0026879343 0.0008234865 -0.00029974498 0.00057859096 0.0014241069 -0.0031027787 -0.002000454 -0.00011614253 0.0017715782 6.9602065e-05 -0.0032236218 -0.00033635544 0.0021956826 0.0022178637 0.0011039686 -0.0015711188 -0.0009882252 -0.0009316082 -0.002108121 -0.0029872856 -0.00018548711 0.0009411146 0.0018412684 0.001327084 0.0025074617 -0.0021612425 0.003161448 -0.0014346454 0.00026211044 -0.0014026904 -0.0015008106 -0.0004956061 -0.0026065933 0.002948498 0.0015311654 -0.00090217683 0.0005786593 0.002514142 -0.0018446608 0.0013159189 0.00017244315 0.0010250164 -0.00061049307 -0.0032380745 0.0017896837 -0.00056058704 -0.0029787268 0.00024475306 -0.0021806122 0.0027044618 -0.002317489 -0.0007363272 -0.0005364363 -0.0017185366 -0.0013405252 0.002471663 0.0006031629 -0.0033721183 -0.00039946823 -0.0033070357 -0.0011439977 0.0017314719 0.001175472 -0.0021074028 0.0005450572 0.001974963 -0.0026022631 -0.0011527586 -0.00058889046 -0.0033270305 0.00069837563 0.00212778 0.00077462744 0.0008475393 -0.000619247 -0.00014730965 -0.00215583 -4.9091635e-05 0.002218462 0.0012526673 -9.917769e-06 0.0026130527 0.00075245113 -0.0025030405 0.0025655574 0.0033910982 -0.0029702655 0.0024455988 -0.0026113254 -0.0003962696 0.0014773986 -0.0015645876 -0.002663788 -0.00269779 -0.0034537402 -0.0022132676 0.0032887207 0.0012645095 -0.0034464197 0.0025469603 0.0024784228 0.002812519 0.0034013754 -0.0031323535 -0.0006443063 0.00062266283 0.0007873107 0.0017098864 -0.0025599652 0.0018246718 0.003468778 -0.002656227 0.0027218717 0.0007264885 -0.0014581471 -0.00047029447 -0.0029151211 -0.002652173 0.0019371515 -0.0010774797 0.0034239744 -0.0029071083 -0.002279187 0.0020370753 0.0026321933 0.0013180136 0.0028617724 0.0024306676 -0.0017881218 0.0031210368 -0.0018242191 -0.00080587465 -0.0020160559 0.0023026739 -0.0016315044
mit 0.0010385743 -0.0004423294 -0.0003365236 -0.0019638475 -0.0019778556 -0.0012645171 0.00024420902 0.0007716865 -0.0010917817 0.00062054186 -0.0018581842 0.0032873321 -0.00037590507 -0.0022950552 -0.00071424176 0.0025204374 -0.00025798994 -0.0016387101 -0.002671792 -0.0020185877 -0.0010302465 0.0024957575 -0.00229839 0.00047681737 3.6724665e-05 0.0012659401 -0.0027731797 0.0026687514 -0.00097601046 0.0016883427 -0.0031843546 0.0016633921 -0.0026318477 -0.001059997 -0.00041166763 -0.0011760367 -0.00019009941 -7.104131e-05 0.0015319685 -0.0007738172 -0.0014231692 -0.0020838229 0.0027902992 0.0015119254 0.0030891954 0.0019194498 -0.0015252553 0.0027816813 -0.0022599695 0.0010569441 -0.0010306507 6.670891e-05 0.0012511659 -0.0008954059 -0.001512544 -0.00055287714 0.00022492025 0.0021761325 -0.001894166 0.001561181 -0.0013048237 -0.0026722946 -0.0018786858 0.00061725226 0.0028372705 0.0027095834 0.0030880508 0.002368555 -0.001135806 -0.00085943344 0.0029360973 0.00217026 0.0020845514 0.002132089 0.00061849836 0.00081235985 -0.0027594748 0.0024934234 0.0030019777 -0.0022925772 0.00029793673 0.0028897577 0.0011559248 0.0025295317 0.002577393 -0.0006633387 0.0029239038 0.001970236 -0.00056745694 -2.809319e-05 0.0034059675 0.0018673332 -0.002143764 -0.001213427 -0.0010030823 0.0011853519 0.00045166962 -0.0028756098 0.0007309677 0.0032408163 0.00071272365 0.0014651493 0.00066854124 0.0028506664 0.003007366 0.00088229857 -0.00082751445 0.0012233352 -0.002680716 0.0026408187 -0.0014053441 0.0032815146 -0.0032458685 -0.0007930153 0.0029056268 -0.0012481499 -0.0005609911 0.0016905472 0.0031764554 -0.00027361512 -0.0022303069 0.0034097102 -0.0030761894 0.0003410165 0.0018371583 -0.0024713958 -0.0019323829 -0.0031197472 -2.5279434e-05 0.0018225227 -0.0026422676 -0.00096061453 0.0028258846 -0.0017344271 0.0010237246 0.001234065 -0.0012962648 -0.0017525634 0.0027226848 -0.0010157942 0.0030094741 -0.0009522618 0.0009659696 0.0018614948 0.00026767934 0.0013818252 -0.0020847959 0.0026403398 -0.00040633272 -0.0015296644 0.0017235962 0.0031551865 -0.0019109783 0.00023745619 0.0015462266 -0.00082645036 0.00014592176 0.0028815398 0.0024706547 -0.0019883704 -0.0010610793 0.0031166023 -0.00018593295 -0.0031537008 -0.0002738162 -0.0022603972 0.0003573777 0.00030940512 -0.0014161108 -0.0013276231 0.0028374274 0.0015245058 0.0009771333 0.0006890706 0.0028125644 -0.0016633986 0.0019625365 -0.00040421722 -0.002509205 -0.0032658991 -0.0005742612 0.0028527859 0.00062756846 -0.0030418825 0.00035051093 -0.0011988014 -0.0011757337 0.0028327836 0.002015557 -6.186487e-05 0.00086713716 0.00032789397 -0.0034746355 0.0009977493 0.0024063496 0.0012516669 0.0008092438 -0.0012406934 0.0007578571 -0.0025313513 0.0013328253 0.0007553108 -0.00017332926 -0.00017389598 0.00089302124 0.0007038983 0.00052557903 0.0030881602 0.0011954376 0.00037066318 -0.0010228654 -0.0021390766 -0.003108 -0.0011496088 0.0015237964 0.0024364812 0.00011383427 -0.0017964019 0.0010527887 -0.0014037642 -0.0002293852 0.002956688 0.0025946128 -0.00029733742 -0.0020209618 0.0011863768 0.0033027902 0.0028710093 -0.00072645163 0.002411865 0.0030877544 -0.00324973 0.0029521447 0.0001229508 -0.0019108363 0.0012221938 0.0029650002 -0.0024437415 0.0023143503 -0.0023200826 -0.0025426308 0.0018129087 -0.001459146 0.0016041425 0.0025976908 0.0031187083 0.0019024267 -0.0030468157 0.0010667171 -0.0029326256 -1.7549171e-05 0.003286361 -0.001686806 0.0013112796 -0.0020511863 -0.0027179897 0.0028592697 0.0010918404 0.002331 0.00090901414 0.00038958862 0.0012928772 -0.0026489545 0.0020004835 -0.0016519704 0.0015800698 -0.0017217587 0.00045523734 0.0012159572 -0.000786103 -0.0025653713 -0.0020312849 -0.0032718538 0.0032328076 -0.001342738 -0.00028358065 -0.0028271824 -0.0014902989 -0.0018106218 0.0009838011 0.0018963508 0.0011416653 0.0032024805 0.0006877602 0.0032772443 0.0025472988 0.0008037367 0.0007425904 -0.002517162 -0.0007797438 0.0019352575 -0.0024778272 0.0008910611 -0.0024412188 0.003327768 9.689345e-05 0.00039663064 -0.0016042995 0.0021825416 -0.0024663038
