234 300
die -6.107999e-05 0.008870135 0.0013468391 0.0066301897 -0.0025401386 -0.011986646 0.008449024 0.023886088 -0.0023949966 -0.0073594814 0.010198573 -0.0067053977 -0.0028495295 0.0029116329 -0.004691351 -0.0074722343 0.009695703 0.003005797 -0.0014318555 -0.008590841 0.00019296033 -0.0014112083 0.010023866 0.005726815 0.0049786307 -0.0028421076 -0.011939673 0.005764608 -0.0032181677 -0.008299855 -0.0019201516 -0.0038910324 0.005570733 -0.0012864574 -0.0029619765 0.004125517 0.007564162 -0.013573018 -0.002145389 0.0009550974 -0.009016695 0.0032872194 -0.0031751853 -0.008214612 0.007109364 0.006856469 -0.00031237272 0.005429058 0.001660749 0.009731048 0.00029114555 0.0019921844 -0.006638658 0.0023899232 0.0019778637 0.0028803274 0.0024266979 -0.0018914544 0.0005484865 0.0041152 -0.0023612136 -0.0033890961 -0.00084970886 -0.00069989293 -0.0016262725 0.005111181 0.0048153526 0.0071376874 -0.007193526 -0.0060560564 0.005054193 0.0062336726 0.0069279517 -0.0074933385 0.0048102452 0.005576285 -0.002037655 0.00095219904 -0.005156424 0.0043902392 -0.00486367 -0.005704319 0.00022451731 0.018532656 -0.0012961206 0.0010598286 -0.00052394514 -0.00078313466 0.0059069702 0.0046753464 0.00765224 -0.0021959709 0.004499199 0.0018283833 0.012477501 0.009167395 0.0007364214 -0.0060245283 -0.0008283946 0.009830559 -0.005407717 0.0031145695 0.0063389 0.006108712 0.005576783 -0.0074167917 -0.00083492056 0.0046430123 -0.009988683 -0.00038769736 -0.006507224 -0.0058022495 -0.0039301952 0.008732041 0.003524443 0.008650363 0.0030518756 0.0080947485 0.009361495 -0.0098689515 0.0018058113 0.004231829 0.010093881 -0.0036059157 0.00055253267 0.008839883 0.0003806351 -0.004333123 -0.0027868932 0.010236244 0.0066287303 0.009038832 0.000457065 -0.013341422 0.0017970839 0.0067759133 -0.000121848854 -0.0047452394 -0.0038046108 -0.007008697 0.0058645494 -0.01239055 -0.009009795 0.0048325877 0.0007081592 -0.0055619217 -0.00666702 -0.0046113255 0.007968428 -0.0059712185 0.006687847 -0.01563528 0.0012999321 -0.0015522582 0.0006265611 0.010265831 -0.0050488836 -0.0020490782 -0.0016625008 0.011871692 -0.0009851331 0.0018404892 -0.012238331 0.0018669077 -0.0012659279 0.0028970663 0.0036690398 0.0007595956 0.0016969017 0.016709894 -0.008273095 -0.0025038447 0.0026857995 0.0063865245 0.0026805722 0.00019563851 -0.0020787083 -0.010289658 0.0069994777 -0.0058607277 -0.009212513 0.0061329254 -0.003260612 -0.005054093 -0.004359224 -0.0028444228 0.011509626 0.0062686848 0.0056614014 -0.013615326 0.0021848653 -0.00050347054 -0.008875172 0.00011419021 0.0036431174 -0.005717794 0.0076539936 -0.0066991593 -0.0013473416 0.0005229873 -0.0067615616 0.002534616 -0.003970839 -0.0007201518 0.002923904 0.0002726237 -0.0066889087 0.0061345873 -0.003783689 -0.0010709105 -0.0016698752 -0.0112455 0.0039855745 -0.00793937 0.007801501 -0.009086021 -0.005547264 -0.012190683 -0.013814039 -0.0105367955 -0.00060039695 -0.00054004084 -0.0051434464 -0.008944885 0.00030532663 -0.004732303 0.003149875 -0.00405783 -0.007485812 0.005211294 0.009832072 -0.006250168 -0.0073499493 0.0039733923 -0.00916923 0.0041358704 -0.0016407631 0.0007936314 0.0015588405 -0.012471941 0.0014698863 -0.00021043426 -0.0010065184 0.0034387568 0.0045730914 -0.007865095 -0.0027203043 -0.00036690765 -0.0012036192 0.0049638883 0.0036240998 -0.0001029195 0.0010984219 -0.0029078976 -0.016343256 -0.007439583 0.011299775 -0.0016648802 -0.016543115 -0.007170481 0.006567692 0.0030395652 0.0111007895 -0.014885475 -0.01449678 0.00059257954 0.008438124 0.009274585 -0.012012205 0.005630677 -0.0051291147 0.0032173037 0.0026069488 0.0009836261 0.002783112 0.007828427 0.00813855 0.0041131442 -0.011195509 -0.0015143573 0.002643994 -0.00739763 -0.0057126177 0.0020081694 0.000383917 -0.0012996999 -0.014917761 0.0034392104 0.005854057 0.007760969 0.0009174801 0.014715576 0.0066242404 8.181955e-05 0.016613863 0.016676439 0.0037485133 -0.004074545 0.009829097 -0.011083468
, -0.0025151507 0.013015219 -0.0005975711 0.0035684265 0.0021100633 -0.012224151 0.008054207 0.02592934 0.0011465789 -0.009380935 0.011853916 -0.005446594 -8.722315e-05 -0.0012286204 -0.0005892409 -0.008463236 0.012837651 0.0012528071 -0.0011505951 -0.003870112 -0.0018213193 -0.0042434325 0.012029612 0.009341522 -9.47486e-05 -0.001041647 -0.011149412 0.005616138 -4.477005e-05 -0.007817595 0.00083915616 -0.0053249155 0.00026381743 0.0006206591 -0.001197901 0.008245168 0.008612891 -0.0151129505 -0.005582682 0.006157927 -0.0054963036 0.0036355576 0.0017593947 -0.008513307 0.010449745 0.008828679 0.0035063317 0.0018089373 -0.0011690815 0.0068049915 0.004816135 0.00061435514 -0.009214277 -0.0009004577 -0.003016578 0.0048172963 0.0017703337 0.003550161 0.0038298417 -0.00035947174 -0.002034637 -0.0022546472 0.0031436419 0.0017533739 0.00010436767 0.0029044203 0.0054000188 0.008770122 -0.007836851 -0.010861074 0.0056872256 0.0025933555 0.007959462 -0.0016794592 0.0030779531 0.004397525 -0.0069247778 0.0038347838 -0.006751964 0.008974527 -0.0068863607 -0.005544862 -0.0003821377 0.019236479 0.00029240135 -0.0003725771 0.00016294261 0.0025151481 0.0071293325 -0.0005513367 0.0054686186 -0.0029492618 0.0035738188 0.0011457872 0.0136992335 0.008371947 0.0061475374 -0.006579818 -0.0021022186 0.006801936 -0.005306644 0.002492843 0.0028024288 0.0039458596 0.0046938485 -0.0041408194 -0.0008937023 0.0036463432 -0.011684925 0.0043423283 -0.009290596 -0.0018451392 -0.0050808475 0.0079026865 0.0010809634 0.0056716674 -4.833694e-05 0.008177318 0.013939264 -0.012667642 0.0015069951 0.0036425153 0.010940223 0.0026981146 -0.0028366959 0.009239949 0.0025746124 -0.004768233 -0.005330468 0.009280127 0.005982446 0.012642076 0.0011329786 -0.016161012 0.0034990346 0.004542373 -0.0036175502 -0.00646167 -0.008269217 -0.0110153435 0.004189155 -0.013564648 -0.009996817 0.00869146 0.004044783 -0.01148704 -0.00869874 -0.004617263 0.010118555 -0.009749739 0.0059740413 -0.012662704 0.004730227 -0.0044211 0.0006463332 0.0060329707 -0.0123854615 -0.007906135 -0.0019614454 0.008359609 0.0036383315 -0.0011660745 -0.011266092 0.0044238684 -0.003968881 0.0010125402 0.0044949073 0.0061395145 -0.0023248817 0.019519884 -0.009808834 0.0025082743 4.810461e-05 0.0058547365 0.0041928394 0.005138256 -0.00040082991 -0.007820436 0.0084997695 -0.008408361 -0.0095870355 0.0029589105 -0.0044830814 -0.0043618716 -0.0076627284 -0.005160977 0.015750794 0.011541887 0.002248576 -0.015110234 0.0031199 -0.001591351 -0.009172222 0.0017016394 0.0059415703 -0.010135302 0.008694646 -0.004962819 0.0022284163 -2.1058353e-05 -0.010531343 0.002503214 -0.0020909286 -0.0034900722 -0.0026291949 -0.002966485 -0.004593636 0.007128613 -0.0032975276 -0.005833239 -0.0017048627 -0.012270899 -0.001482663 -0.01250788 0.0050560073 -0.010828755 -0.010279665 -0.019490138 -0.013273623 -0.010556419 -0.0008511406 0.0010301115 -0.0016932603 -0.004404658 -0.005089925 -0.004844181 0.0014066036 -0.009831819 -0.005513188 0.006548806 0.011103589 -0.0071713533 -0.0070823138 0.0026012443 -0.007009186 0.0084000295 0.00027357732 0.0014478168 0.0029506169 -0.014887551 0.007024017 -0.0033647562 -0.003198621 0.00065872876 0.0033198548 -0.011635553 -0.003830252 0.0031306082 0.00010102278 0.0054239235 0.0045324476 -0.0018663916 0.0065689622 0.0024617794 -0.018342193 -0.0053127804 0.016762955 -0.0027233015 -0.01861599 -0.00929964 0.008575784 0.004613129 0.012447587 -0.020145314 -0.012380436 -0.0020082013 0.006903851 0.009107019 -0.013586736 0.0009988799 -0.006561295 0.0037395402 0.0040003937 0.0023385165 0.0041566663 0.008444748 0.0025620842 0.004387243 -0.011542151 -0.00045087328 0.004884775 -0.0074925087 -0.0014951141 -0.0008001051 -0.00034738966 -0.0021456787 -0.01674174 0.009655306 0.0027997703 0.009661465 0.0057823523 0.017511975 0.0013167392 0.00057147274 0.019070826 0.018612377 0.001474852 -0.007638331 0.008943028 -0.012086429
. 0.0028407758 0.006460535 -0.00076814427 0.0037443517 0.0003969033 -0.008272995 0.0077468706 0.018896371 -0.0017831012 -0.005968899 0.00897943 -0.0050557307 -0.0014099455 0.0036452785 -0.0043792753 -0.0064796098 0.011000016 0.0047118315 0.001659976 -0.0078062834 -0.0015574812 -0.0035830461 0.0101996055 0.00537997 0.0030480032 -0.0007257103 -0.01109251 0.0018354201 -0.0005643851 -0.0071110697 0.0027257055 -0.0002660096 0.0018489897 0.0020720803 -0.003909824 0.004858646 0.002162255 -0.013369737 -0.0039388672 -0.0005718784 -0.0028163425 -0.00037339985 0.002514775 -0.008465713 0.007519224 0.009440958 -0.0005504335 -0.0012231527 -0.0015027847 0.0051490893 0.0026065693 -0.0024723164 -0.0077304863 0.002805644 -0.0035722659 0.00089436525 0.00015169269 -0.0025748478 -0.0007685755 -0.0019345289 -0.0017976306 -0.004619731 0.0027266 0.0022473037 -0.002111966 0.005887047 0.0024828056 0.0033497608 -0.008072989 -0.0076658214 0.002368891 0.0053183497 0.0057629496 -0.002297565 0.0053723184 0.0023258321 -0.0025393346 0.0032532006 -0.0049097594 0.008794389 -0.0021155935 -0.008169913 -0.00369453 0.015433198 3.7365946e-05 -0.0015596614 0.0009832506 -0.0011104145 0.0040388745 0.0021071217 0.005466694 -0.0018838756 0.0019303267 0.001452956 0.00811433 0.007074573 0.0060519218 -0.005277704 -0.0015336464 0.008762002 0.00036224208 0.00017979152 0.007088749 0.006491042 0.0013106603 -0.004775864 0.00038812743 0.0010364037 -0.010073389 -0.00072486664 -0.005964853 -0.0028811928 -0.000417023 0.0050309426 0.0020782736 0.0064922343 0.0023867744 0.0050485316 0.0075534037 -0.011843532 0.00093280105 0.0073665706 0.0071465704 -0.0033362673 -0.0042221043 0.009351291 0.0005340098 -0.0032053203 -0.0041634017 0.010041275 0.00081617554 0.01067533 0.00018699377 -0.012726396 -0.00056880893 0.00491963 -0.0039061895 -0.006477319 -0.008883028 -0.008286715 0.0060002175 -0.009846114 -0.005728029 0.0056821546 0.004443094 -0.009348774 -0.0101189995 -0.0047297296 0.009831867 -0.005619038 0.00090332865 -0.011702004 0.0043738084 -0.0049243593 -0.0009687952 0.009882445 -0.010325706 -0.0026714348 -0.001087905 0.010657193 0.004444374 -0.00026734942 -0.0110013615 0.0062706904 -0.0014851359 0.0031434256 -0.0021719297 0.005604684 -0.0011686647 0.011191834 -0.0053780507 0.0002700147 0.0023815185 0.0030877457 0.0011875071 0.0030030368 0.0030945037 -0.010220015 0.0057366933 -0.006866038 -0.007791569 0.0042963345 -0.0072358563 -0.001803972 -0.0037906654 -0.002726481 0.012051095 0.011891699 0.00714738 -0.011394683 0.0024258574 -0.0013587123 -0.011468075 0.004557541 0.003490395 -0.0062385616 0.0046384917 -0.006750223 0.0029062575 -0.0022328314 -0.009280847 0.0044283075 -8.5937085e-05 0.0027095492 0.0025734263 -0.0010398884 -0.0016372391 0.003295988 -0.0031710435 -0.0014484192 0.0012108989 -0.010993781 0.003980146 -0.008650857 0.007947561 -0.0061118193 -0.008710359 -0.014746392 -0.01237869 -0.009004918 0.002032391 0.004174779 -0.00033952857 -0.0077239345 -0.0009355126 -0.0021963143 -0.0005453152 -0.008365178 -0.004527051 0.0008139925 0.009422105 -0.0053808508 -0.0026259278 0.0074587413 -0.0057289535 0.005776432 -0.002047218 0.0022126161 0.0022941113 -0.014048219 0.0023528342 0.00040508792 -0.00064920157 0.0007277706 0.0025734105 -0.009039511 -0.0026974508 0.0018253776 -0.0011460157 0.003581448 0.0028152773 0.00080344855 0.0030925404 -0.0018889522 -0.010699294 -0.0056015435 0.0115449475 0.000101061116 -0.011028943 -0.007582126 0.0023170963 0.0023056392 0.01060271 -0.014463772 -0.014061805 -0.002382062 0.0038600164 0.008652932 -0.011960972 0.0042423857 -0.009031636 0.0017869326 0.003036619 0.0028269787 0.00095267396 0.002530284 0.0022612344 -1.8067116e-05 -0.0124050975 -0.0020548776 0.0017484252 -0.0066135237 -0.00038540913 0.002358342 0.0018849854 0.0010618931 -0.011828812 0.0028544783 0.0019426394 0.00839553 0.00044323798 0.011921497 0.0041594384 0.00065606897 0.015989833 0.016326973 0.0024310027 -0.0014040895 0.008357224 -0.00984462
sein -0.0016494051 0.0038842529 -0.0028606344 0.0053510442 -0.0003219543 -0.008878346 0.0030489957 0.016089728 -0.0015470743 -0.0054222993 0.0058775013 -0.0052672764 -0.0014502055 0.0008804422 -0.0029884225 -0.0019016889 0.007427839 -0.0015704335 0.0030603486 -0.005919821 -0.0012089856 -0.0006551208 0.0036127816 0.0030561097 0.0046168226 -0.0025472338 -0.010610904 0.0057757916 -0.0011713486 -0.006486665 0.0032927294 -0.0009998597 0.0030173396 0.003937393 -0.0043341247 0.0049901116 0.00416277 -0.0065535824 -0.0009848755 0.0032331832 -0.002504267 0.0031303782 -0.0012531757 -0.006094026 0.00475094 0.00570578 0.0004510063 0.003641786 0.00137879 0.0072474205 0.002963296 0.003063342 -0.0040535415 0.00411714 0.00063141854 0.00030918597 -0.00059496006 -0.00062691985 0.0028175001 0.00035275327 -0.0022567892 0.0001958901 0.003520863 0.00068034057 -0.0024693052 0.0014131517 0.0018021888 0.00051047286 -0.0038021342 -0.006143619 0.0030688155 0.004219632 0.003705322 -0.006304008 0.0029292428 0.0014076618 -0.0022511694 -0.00038269194 -0.00058895693 0.005258289 -0.0019600294 -0.0055082883 -0.0016739717 0.013741448 0.0009050234 -0.0015893177 -0.0043266206 0.00090646814 0.006955147 0.0034736437 0.0017978799 0.0013611423 0.0037139407 0.0037291723 0.009665622 0.0028186482 -0.00042609233 -0.0005837409 0.0022781196 0.0065098475 0.00056568184 0.0007320664 0.0058453493 -0.00030850305 -0.0005181125 -0.005979489 -0.0021580234 0.0034941055 -0.007489471 -0.0016137072 -0.0015890335 -0.0033130858 0.0013919832 0.0027602727 0.0029482606 0.0059399414 0.0013849301 0.0028068067 0.00832734 -0.009443579 -0.0002246945 0.00303131 0.0075236824 -0.001475338 -0.0034305057 0.0069310144 0.0012336365 -0.0052680657 0.00083922973 0.0068508736 0.0009103437 0.007528135 0.0034940764 -0.005416945 0.0025036328 0.0055565094 -0.0008310799 -0.0052499142 -0.007003405 -0.007092754 0.0016517232 -0.007093629 -0.006210428 0.005881418 -0.0009384155 -0.008061826 -0.0069910036 -0.0033209075 0.0026730709 -0.0042007943 0.0010399629 -0.00892577 -0.0015929706 -0.0011011142 0.0017218095 0.005156664 -0.0074330186 -0.003515864 0.0014384901 0.007709167 -0.0016128283 -0.0005811588 -0.006548245 0.0032068226 -0.004883335 0.0023625188 -0.0021963764 -0.00059065566 0.000725071 0.0088329865 -0.003712768 0.0033684021 -0.00046997602 0.0060211862 0.0025875182 0.004988532 0.0021132908 -0.009511145 0.0025342922 -0.0010394937 -0.0023539707 0.0062693693 -0.0010578703 0.00062004203 -0.006545169 -2.6884209e-05 0.006233067 0.0077747637 0.0052867113 -0.00681277 0.0038506535 0.0005423779 -0.0071156695 0.0037462797 0.0012469986 -0.0045510787 0.007123845 -0.005900448 0.0024616516 -0.003398649 -0.0013486582 0.0037431354 -0.0006902471 0.0013615286 0.00073994277 -0.0037250803 -0.004210476 0.005772411 -0.0023254766 -0.003488955 0.0015356218 -0.006106538 -4.8717644e-05 -0.006587142 0.00565368 -0.0068059135 -0.006107685 -0.012885211 -0.009015863 -0.009000479 -0.00014692408 -0.0020489774 -0.0021754508 -0.007066014 -0.004945655 -0.0049843653 -0.0020415136 -0.001838891 -0.0024087457 0.0028330449 0.0045781997 -0.0049972315 -0.003143193 0.0033916757 -0.0042937654 0.0035423525 -0.00082516513 -0.00015337618 -0.001845336 -0.010412839 -0.0004143099 -0.00091755175 0.00014049816 0.0033041635 0.0015339747 -0.0072374973 0.0009871754 0.0003780827 -0.00061703596 0.0065387483 0.0031425436 -0.0011988244 0.0046330467 0.0013069977 -0.011557958 -0.003929255 0.008515687 0.0018356113 -0.010569904 -0.0049627237 0.0040719444 0.0032020162 0.0061133453 -0.011593397 -0.010344024 0.0006477685 0.0065550753 0.007861879 -0.009706171 0.0033205305 -0.0056420467 0.004224704 0.0018065734 0.0018069745 0.003411334 0.005614793 0.0014982085 0.0046242527 -0.007952292 -0.0025969213 0.00080215454 5.931076e-05 -0.0042992146 0.00072276907 0.0023308215 0.00043992538 -0.011308081 0.0019320685 0.0050712186 0.0074445023 0.003284068 0.0076925666 -0.000665189 0.0022092026 0.011994791 0.008374436 -0.0014345916 -0.0040202034 0.0032405732 -0.006860028
“ -0.0005722768 0.0040819077 0.0029423747 -0.00057671336 0.0018051908 -0.0046105045 0.0037662706 0.01688925 0.002794521 -0.005874966 0.003146589 -0.006373765 -0.0035574753 -0.00054496527 -0.0038824675 -0.0073281038 0.0060968846 0.0028489835 0.0030194197 -0.004526572 -0.0029433684 -0.0016461029 0.0052980753 0.006387594 0.002007134 0.0013393441 -0.01054263 0.005466637 -0.0011459877 -0.0018141156 -0.0020401182 -0.0017164763 0.0020004574 0.0007997195 -0.0031566005 0.00012910548 0.0008777846 -0.010339457 -0.0009104125 0.0019152289 -0.0044810753 0.0035275915 -0.0009762095 -0.0049070423 0.0017883239 0.0013640096 0.0044297734 -0.00034400445 -0.0020787946 0.0062403246 0.00428961 -0.0019177516 -0.0032090754 -0.0006451294 -6.441516e-05 0.0014228565 -0.00047058164 0.00092623016 0.004031675 0.002833878 -0.0044556092 -0.004211679 0.0029613262 0.0019781205 -0.0021082286 0.0029889601 0.0064830175 0.003166411 -0.0073410803 -0.0040467684 0.0042282105 0.004425813 0.0063241934 -0.0047915536 0.0021811097 0.003622551 -0.0014202731 -0.0018190067 -0.005523524 0.004933987 -0.0059034936 -0.0024519025 -0.0011350975 0.014079114 -0.0013298573 0.00014252457 0.00091403036 -0.0008572419 0.0029921788 0.00223352 0.0055713058 -0.0022276535 0.004417245 -0.0013839094 0.00730762 0.005191754 0.005364324 -0.00039234082 0.0014924001 0.007767907 -0.004847197 0.0044806018 0.00057910057 0.0018795845 0.0003737871 -0.005327342 -0.0034375302 -0.0007870282 -0.0075025386 0.00063603214 -0.0059054745 -1.838329e-05 -0.004524736 0.002478036 0.004770076 0.006509674 0.0031090025 0.0051695555 0.007328096 -0.008492737 0.0026490479 0.0047248225 0.007502343 0.0019505133 0.0015893596 0.008179735 -0.0019767715 -0.006178005 -0.0010327357 0.0074967844 0.004579093 0.008919747 0.0030214067 -0.009372308 0.002537589 0.0025114631 -0.004614434 -0.0014538023 -0.004293368 -0.0076332465 0.0012954909 -0.008111151 -0.0023686467 0.0048065544 0.000270062 -0.007923138 -0.0070091193 -0.0028391695 0.0071052755 -0.0052917753 0.002714691 -0.007952179 -0.0014486661 -0.0011142048 0.00015223613 0.0058188145 -0.0038632916 -0.0033353837 -0.0019207814 0.00881693 0.0029377318 0.0027760717 -0.005638667 0.005279021 0.00084772246 0.00041621164 0.0036146196 0.0033902107 0.0012833262 0.009237465 -0.0053628427 -0.0011522579 -0.0023171615 0.003743763 0.0049862224 0.0047062878 -0.00043924566 -0.0043434273 0.0047854306 -0.004504411 -0.0034235748 0.0014831569 -0.0005529682 -0.00016706326 -0.0020884823 -5.7028523e-05 0.010551774 0.008840998 0.0029187421 -0.0103917355 0.0040637753 0.0023779972 -0.005931394 0.0014128386 0.0011689679 -0.0058693807 0.0068499856 -0.0049766744 -0.0009317394 0.0026391104 -0.001982409 0.004055888 -0.0007635319 -0.0029766553 0.003113065 -0.0027163478 -0.0018386134 0.005043913 0.002468194 -0.005122481 0.0029867245 -0.00986252 -0.0017350854 -0.0085075265 0.0016624859 -0.002221564 -0.0017886887 -0.011478294 -0.0060891793 -0.0071760756 0.0038642958 0.002730578 -0.0024976388 -0.0053499048 -0.003949056 -0.0005172341 0.0006707776 -0.004726086 -0.00088357605 0.0013398972 0.0023412916 -0.0032611173 -0.0032464976 0.0009852839 -0.005974307 0.00029266725 0.0020004301 0.002304315 0.0006824104 -0.0057253693 0.0048515485 -0.00070745434 0.0018205541 0.0020333615 0.003848409 -0.0038088956 -0.003694682 -0.00035298202 0.00047913464 0.004917062 0.003241485 0.0022833378 0.0038864254 -0.0029564071 -0.0099743605 -0.0059751677 0.011173625 0.0015926927 -0.009497581 -0.002561057 0.00082554336 0.0007169601 0.006561792 -0.008124824 -0.0067936033 0.00027261465 0.0032821395 0.0038069994 -0.0064326404 0.0013051851 -0.006209754 -0.0015907738 0.0029077223 -0.00013416754 0.001877033 0.0007103067 0.0064890734 0.0022340037 -0.006275371 -0.00017115663 -0.000993404 -0.0025025937 -0.00096032483 -0.0014774832 0.0015905994 0.001224833 -0.0063933395 0.0055895005 0.0010530507 0.002794921 0.003947412 0.00918386 0.0040820423 0.0030604196 0.0099901585 0.007934575 0.0011603748 -8.8424145e-05 0.0027379077 -0.0027195094
und -0.0023137815 0.0057329447 0.0005508104 0.0042715636 -0.0013805478 -0.0062767914 0.001103204 0.011340923 -0.0018463973 -0.00015068932 0.0023392788 -0.00609328 -0.0022818737 0.0024460664 -0.0035750777 -0.005122292 0.0019372562 0.0033309683 0.0017981593 -0.0017200328 -0.0021249459 0.00047326283 0.0017286147 0.0020566718 -0.0006666083 -0.0011468282 -0.0064147543 0.004703639 -0.00030286977 -0.006344053 -0.0015042366 -0.004015851 0.002055844 0.003690068 -0.0030203655 0.0051026037 0.00529325 -0.008081693 -0.004028852 0.004450601 -3.8762344e-05 -0.00072832685 -0.002348558 -0.00071483455 0.004764585 0.0060909856 -0.0014222438 -0.002061636 0.0005532694 -9.234258e-06 -8.595781e-05 -0.00091526203 0.0006205767 0.0039073685 -0.0014181818 0.0040796595 0.003226185 -0.00052961754 0.004050627 0.0028644027 -0.0002167378 -0.0030153133 -0.0014364015 -5.1041847e-05 0.0020919794 4.3294698e-05 0.0014747769 0.0056946324 -0.0019597553 -0.0013291466 -0.0011261387 0.0014150734 0.0054938993 -0.0037929094 0.0041921744 0.005734538 -0.0023636534 -3.9146933e-05 -0.0022938822 0.001662846 -0.0050268127 -0.0037729638 -0.0016435175 0.009491683 -0.0019461906 0.0020235847 -0.0034978073 -0.0021670451 0.0062697455 0.0041235075 0.0022867487 7.537251e-05 -0.00027578388 -0.0020407569 0.0027840948 0.006011026 0.003973251 0.0013834488 0.001754151 0.006074335 -0.0008426019 -0.0023399943 0.003831951 0.0018650561 0.0036456294 -0.0021098568 -0.0016273785 0.0039075525 -0.003943194 0.00082855654 -0.0046887896 -0.0042916853 -0.0035957901 0.006013556 -0.0018029177 0.0060993046 -0.0027294983 0.0026162968 0.0046809353 -0.0077572237 0.0033867992 0.0050693112 0.0046102405 0.0014423599 -0.00079504895 0.007067676 0.0033303262 -0.006144178 -0.002548474 0.0035505572 0.0026794814 0.003778146 0.0008317884 -0.0083286185 0.001172999 0.004439148 0.00047444043 -0.0043847193 -0.0063398373 -0.008031783 0.0013416499 -0.007404347 -0.005218557 0.004482407 0.0032601273 -0.0033568258 -0.0068959566 -0.0039524925 0.00639285 -0.0019094083 0.00030827563 -0.008574023 0.0008806185 -0.00014999347 0.0011738952 0.0046938844 -0.0059154346 -0.005450479 -0.002985908 0.004624276 0.0024506655 0.0018921132 -0.0045907767 0.0035180426 -0.0012744722 0.0019501336 -0.0025018533 0.003902353 0.00162349 0.008889778 -0.001109773 0.0030724828 0.0006397738 0.0015302306 0.0016777958 -0.0018224146 0.0029285995 -0.0067520053 0.0054182126 -0.0036222695 -0.002794123 -0.00063482835 -0.005601456 -0.0040900465 -0.0048706485 -0.0009695521 0.0032646514 0.0031529379 0.00057032274 -0.0073638046 0.0032770317 0.0016594307 -0.0019297699 0.0036497288 0.0003127435 -0.00086363516 -0.00016710539 -0.003728523 -0.0016999044 0.0009307058 -0.0027590124 0.0030622694 0.00013476178 -0.0025752275 0.0027669643 -0.0031291842 0.0003195294 0.0035717816 -0.0018830459 -0.0030894005 -0.0015762143 -0.0070539415 0.0034863905 -0.004880639 0.0052195834 -0.0067129275 -0.0028581456 -0.008086633 -0.0028888655 -0.0073831133 0.0034234012 -0.0011705558 -0.0038465587 -0.0049216338 -0.0023373333 -0.0026814365 -0.00089619483 -0.0053713685 -0.0023726958 0.001756311 0.0034352671 -0.0006022671 -0.0049610073 0.001272074 -0.0013775217 0.0051390706 -0.003999374 0.0022478306 0.0023541972 -0.0073164958 0.0044968 -0.0034078364 0.0020504345 0.0023449413 0.002035666 -0.0063683474 -0.0029435805 -0.0008595655 0.000724985 0.003127961 0.0041061807 0.003707107 0.0047214734 -0.0014360851 -0.003385702 -0.002887267 0.007536789 0.0007747978 -0.0073204874 -0.0017313461 0.000772185 0.0001923511 0.0015532008 -0.007005509 -0.0037942152 -0.0009968084 0.0033216223 0.0047057047 -0.0021068426 -0.0008061255 -0.0024250366 -0.0017702908 0.001776339 0.0033313127 0.0043875724 0.004643441 0.0051150005 0.0036746727 -0.002788596 0.0021526874 -0.0005656549 0.0008002668 0.00027207218 0.00029513164 0.0028008036 0.0019788144 -0.0033792197 0.003878864 0.004797483 0.0042188563 0.0043302313 0.007522994 0.0039337575 -0.0005194326 0.009108923 0.009697966 0.0001443969 -0.002753971 0.0047200946 -0.0066066957
” 0.0033289236 0.0021578702 -0.0023761315 0.003286112 0.0024879605 -0.0077654338 0.004904548 0.016091682 -0.0026792935 -0.00577816 0.0031813502 -0.005076049 -0.00020368371 0.0036349527 0.00023104358 -0.0041673905 0.0063458285 0.0044789743 0.0038800242 -0.0015017687 0.00056365086 -0.004521492 0.0037072445 0.001625146 0.003874149 -0.001835461 -0.010100404 0.004943295 0.00241305 -0.0055059493 0.0034999305 -0.0024274706 0.00028257168 0.0006495826 -0.0013098554 0.0017538436 0.004027687 -0.0053915447 0.0008773254 -0.0013307352 -0.0042996327 -0.0007972853 0.0023992744 -0.0020024772 0.0029568756 0.00509326 -0.00048181176 0.0014657825 0.0030732055 0.003281326 0.00018558689 -0.002190534 -0.0044401134 0.0010148983 0.0004779953 0.005940985 -0.00042978322 0.0007975512 0.004374239 0.0010110718 -0.00082241284 0.0011404173 0.0034506698 0.0037749677 -0.0028253186 0.0060848463 0.00505169 0.0064214 -0.0046534953 -0.0031777227 0.004317252 0.00082998467 0.0068232683 -0.0018689147 0.0052223755 0.002342399 -0.0038698046 0.0029656414 -0.005686507 0.0022701283 -0.005042702 -0.004387416 -0.0017454305 0.012463473 0.0034011186 2.2878014e-05 -0.0010597128 0.0010585776 0.0036317955 -0.001279876 0.00678256 -0.002919706 0.0036182706 0.004188177 0.0067677093 0.00573239 0.0036785565 -0.0031705173 0.00046893078 0.0049486347 0.00019849908 0.0029636158 0.003479984 0.0044874377 -0.0011528957 -0.001262647 0.0023334033 0.00025415648 -0.0051742964 -0.00074480334 -0.0035878439 -0.00096073246 0.0013336195 0.004149639 0.0023052145 0.004361982 0.0033184814 0.0015910516 0.0045865206 -0.007316366 -0.00019251536 0.0052398625 0.0019238617 -0.001233516 -0.003788841 0.006737976 0.0003677883 -0.006679656 -5.3063995e-05 0.008093792 0.00095348654 0.0046823644 0.0014359948 -0.0074433903 -0.0029401914 0.00638662 -0.0039185644 -0.005871523 -0.005327283 -0.008076674 0.0026746904 -0.0031133222 -0.0022073074 0.0058627552 0.0009508266 -0.004965762 -0.006282058 -0.0055500707 0.005811381 -0.0034403228 -0.00050358137 -0.00944187 -0.0024352327 -0.0034988339 0.0019493299 0.007591714 -0.0037599653 -0.0018826303 0.0018956254 0.0054528206 0.0007673647 -0.0024096512 -0.0066663274 0.0015013771 -0.0014590928 0.0031526424 -0.0016502321 0.000458871 -0.0026786723 0.007960198 -0.005532763 0.0010097062 0.0016340838 0.0009879005 0.00031456145 0.001983678 0.0020482002 -0.004156395 0.0022885979 -0.0042886846 -0.005674569 0.0028777802 -0.002362629 -0.0014347506 -0.00055810384 -0.0022704965 0.0071849786 0.004223246 0.0026017772 -0.010045223 0.0009108865 0.00044953756 -0.008953555 0.0045809317 -0.00023321055 -0.007320178 0.00082728546 -0.0011705026 0.002899759 0.0024827754 -0.003507317 0.0012929137 -0.0018708793 0.0028511228 0.0011027117 -2.4374955e-05 -0.0037052706 0.003551658 0.0015748278 -0.0023279034 0.0011036316 -0.0065563954 0.002268141 -0.0039311424 0.0042265737 -0.0061251847 -0.006182387 -0.0083245495 -0.0088015795 -0.0055494104 0.0009914469 0.001920488 -0.005153817 -0.0008882439 -0.0020064164 -0.0037594736 0.0015152445 -0.004345422 -0.005892697 0.00093237776 0.005010378 -0.0052955286 -0.0028868346 0.0037055323 -0.0050783493 0.0037907893 -0.00010136535 0.0031957098 0.0012148673 -0.006978994 0.0030894836 -0.0012307182 -0.003305469 0.003398412 0.0013718215 -0.009039765 -0.0041208058 -0.0010572685 0.0014699133 0.00499179 0.0040100105 -0.0017396552 0.00246038 -0.0012073216 -0.010131478 -0.001114383 0.008790699 -0.0011802901 -0.011747653 -0.005472123 0.002963741 0.0053221947 0.007218966 -0.012516699 -0.010743297 0.0008278262 0.003010277 0.0033825175 -0.0041944264 0.0002734282 -0.0023982995 0.0009019825 -0.0015055869 0.00019457028 0.004544563 0.006189037 0.0038301942 0.0034916177 -0.0081155775 -0.0012066979 -0.00038997876 -0.0025644547 -0.0023332064 0.00011993219 -0.0022954878 0.003654212 -0.007370861 0.002826376 0.00044141515 0.0073498785 -0.00063956564 0.008984185 0.0024975785 0.0035694733 0.010955676 0.008398503 0.0018981633 -0.003166838 0.0012857373 -0.0062309466
eine 0.00051507313 0.0071143038 0.0031368465 0.005139639 -0.0023938539 -0.003292883 0.0016649666 0.011594217 -0.00018236804 -0.0013367623 0.0059206486 -0.0019787743 0.0024652542 0.00047755925 -0.0037251438 -0.005977588 0.0071184477 -0.00021291769 -0.00022976407 -0.0017359079 -0.0021235344 -0.003854098 0.0037195238 0.0035344579 0.0023579574 0.0010068475 -0.00830905 0.003215496 0.0021126976 -0.0032842625 0.0020834394 -0.0036536956 0.0033398692 -0.0018543294 -2.260833e-05 -0.00040289565 0.0018986764 -0.009781751 -0.001790742 -0.0002640878 -0.0045311498 0.0013403599 0.00083849137 -0.0042898827 0.0013600381 0.0019593232 0.0015751034 -8.470716e-05 -0.0031898376 0.0035997464 0.003925634 0.0022918025 -0.0063763107 0.002177195 -0.0026382029 -0.00062700146 0.0006466152 4.4937264e-05 -0.0012779145 -0.0016037835 -0.0018332656 0.00038770723 -0.0021414405 0.0036382917 -0.00079926057 0.0028379248 0.006073212 0.004653536 -0.0047526616 -0.002681734 0.0029333918 0.004072322 0.0041976813 -0.003904908 0.0023881155 0.0012304225 -0.0021182478 0.0024405692 -0.0007036354 0.0073301336 -0.0050632698 -0.005553871 0.0012174484 0.009694997 -0.0019049359 0.0006393775 -0.00052944885 -0.00038796425 0.0023015507 0.0029859073 0.0070871036 -0.0037530463 0.0018432237 0.0001087713 0.0031117387 0.003865232 0.0003620479 0.0009317463 -0.0026531282 0.005656265 -0.0015724618 0.0025575324 0.0033441898 0.005701192 0.0020103573 -0.0048791682 -0.0010450386 0.0022044827 -0.006342184 -0.0016920088 -0.0054462855 -0.0040088217 0.00084713905 0.0049335863 0.004085792 0.005772491 -0.0015936447 0.0041387714 0.00886421 -0.00502212 0.0015987287 0.005120705 0.001217071 0.002863562 0.0013341602 0.007436647 -0.001571003 -0.00125016 0.0009814498 0.00410252 -0.0003024757 0.007861523 -0.001941336 -0.008422231 0.0015351089 0.006013484 0.0015717227 -0.005301567 -0.0070670196 -0.00256681 0.0038951307 -0.007051819 -0.0062352065 0.0013429106 -0.0003258973 -0.0057853367 -0.0046864413 -0.0024420535 0.0031820673 -0.005767413 0.005574884 -0.008682777 -0.0016413981 0.001034102 0.0012917455 0.007137705 -0.0061811255 -0.004828975 -0.00040350563 0.004906715 -0.0019994907 -0.00016889416 -0.0050418163 0.0042949566 0.0008656513 0.0016880247 -0.0008473228 0.0010164203 -0.0017829887 0.010231708 -0.006137681 0.0010328174 8.831086e-05 0.00047306606 -0.0007637254 0.0034384367 -0.0026053356 -0.0056930617 0.004004024 -8.478995e-05 -0.005851902 0.0038340942 0.0005860996 -0.0041209133 -0.0039034358 0.00041221778 0.008257601 0.0060081314 0.005402128 -0.006491559 0.0016738761 -0.0005244521 -0.008241015 0.0026521718 0.0032840034 -0.006685502 0.0032370896 -0.0032291021 0.0010257472 0.0023534978 -0.0047473432 -0.0010779458 0.0015739166 -0.0025583466 -0.0028061215 -0.0018312561 -0.0058602514 0.003078137 2.3542507e-05 -0.00266979 -0.002135052 -0.0059355744 5.8005895e-05 -0.0035175765 0.0057565416 -0.0020599982 -0.0014419936 -0.011878087 -0.0030667628 -0.005762176 0.0039573763 0.0014749683 -0.0008748474 -0.006627953 -0.0045563504 0.0012011597 -0.000873822 -0.002451245 -0.0008620436 0.0020831637 0.007884229 -0.0024864243 -0.0060210326 0.00040461033 -0.0039315545 -0.00019664748 0.0016089532 0.0010589772 -0.0022515513 -0.0040407926 0.0049805557 0.0014685809 0.0019390897 -0.0025684529 0.00201407 -0.008440097 -0.0030524307 0.00035130215 0.000100805766 0.0034581535 0.0028600418 0.0011262423 0.003821082 0.0022966273 -0.009644768 -0.0004124564 0.008751182 0.0031133392 -0.0066689746 -0.004529022 0.0016687089 0.0023073698 0.0041401554 -0.005488451 -0.006461295 -9.431495e-05 0.0045131994 0.0013010829 -0.0033639974 0.0047773584 -0.004366399 0.001685243 -0.0014626316 -0.001804644 0.00498641 0.0018196749 0.005010669 0.0021773688 -0.006523243 0.00015734622 -7.2765375e-05 -0.003244114 -0.0011242994 0.002834986 -0.00044388176 0.00063109695 -0.010236701 0.0064722393 -0.0012073645 0.0066417707 0.0026840148 0.0049379934 0.00026640252 -0.001880993 0.0062643527 0.010850657 0.0041882023 -0.0016856861 0.004234806 -0.0017447667
in -0.0015777908 0.0042488594 0.0008873765 -0.00021322901 -0.002964647 -0.008209665 0.0063651986 0.012881559 -0.0019639565 -0.00596138 0.0044993525 -0.0022435128 -0.0011220275 0.00085669634 -0.00301298 -0.0020120044 0.00515591 0.004318709 -0.002564734 -0.004647278 -0.004108826 -0.0017463664 0.0015194224 0.004590498 -0.0006605632 -0.0028750543 -0.0044717747 -0.00073169114 9.036229e-05 -0.0062146387 0.0036352244 0.00097298843 0.0018310063 0.0025188106 0.0003140051 0.00053981104 0.005841505 -0.009289366 0.0015213194 0.0022665884 -0.0041225846 -0.0002541344 0.0028444564 -0.0053982637 0.0064548603 0.00164081 0.0039987895 0.0010475051 0.0026425214 0.0024609962 0.0036153134 0.0031986996 -0.0019680953 0.0015816439 0.0012374957 0.0050117625 0.0034426176 0.0030972515 0.0032659052 0.0031989696 0.0018416869 -0.0018968479 -9.683675e-05 0.0015657049 -0.00059499475 0.0025299047 -0.00019691829 -0.0003607522 -0.0040917294 -0.0005785824 0.0005309949 -0.0004988781 0.0055343104 -0.0020437806 0.0023989931 0.004042873 -0.0012432787 0.0025763395 -0.0018749868 0.004171821 0.0005923392 -0.0025633147 -0.002445461 0.010868568 0.0020607526 0.0011847685 -0.0023606392 0.0015887424 0.0058817994 0.0036264253 0.0040890765 -0.0040251096 0.0018425987 0.0010977531 0.0063030533 0.0008548928 0.005213926 -0.0042656846 0.0012751314 0.0008894464 0.0018463385 0.003376033 0.0028924544 0.0010918578 0.0014778797 -0.002763684 -0.0027497767 0.0033407481 -0.0039980668 0.0021969066 -0.0058294334 0.0012670208 -0.000947248 0.0033195862 -0.0017745554 0.0045891204 0.0026716108 0.005354018 0.0035170696 -0.0077920896 -0.0012840999 0.0028612434 0.0011669063 -0.0029642722 -0.0015581616 0.00452336 -0.002130568 -0.004330004 -0.00096827565 0.0065418878 0.0024045357 0.0053091194 -0.002076399 -0.008343094 8.4321946e-05 0.005585853 0.0006167698 -0.004032948 -0.0033651954 -0.008527274 0.001209731 -0.0068848664 -0.0012298144 0.0018584307 -0.0006375967 -0.0074684527 -0.004978502 -0.004590366 0.003435533 -0.0048059556 0.0013646467 -0.007704528 -0.0020185218 -0.0017889201 0.0010911422 0.002619719 -0.00683411 -0.0034505 -0.0037499885 0.0047280346 0.0029217016 -0.0005750471 -0.004580341 0.003592317 0.0014860422 0.002506627 0.0037380191 -0.0017857217 -0.0030592636 0.0054571507 -0.006258788 -0.0024583254 -0.0020732956 0.001263763 0.0019902945 0.0002865325 -0.0027128125 -0.0033630135 0.0031150212 -0.000867962 -0.00084077334 0.005127111 -0.002916248 -0.00038718397 -0.0042246906 -0.0005399126 0.0076345056 0.00841157 0.0014143251 -0.0054115895 -0.00091957464 -0.00071613723 -0.0023653025 7.104444e-05 0.0019650087 -0.006571374 -0.00012059936 -0.00019445606 -0.00096980366 0.00116582 -0.005878626 8.801559e-06 -0.0035797593 0.002279991 0.0022961632 0.000554991 -1.6717806e-05 0.002545511 -0.0037158078 0.0013517947 -0.0017875019 -0.0027996607 0.0022534388 -0.0046671224 0.00025078663 -0.004259816 -0.0017341466 -0.010551285 -0.005384083 -0.0073492858 0.0038679873 -0.00032448844 0.0010529413 -0.005161811 -0.0044881674 -0.0045848815 -0.0011181018 -0.0015649348 -0.002879221 0.0051205773 0.0052711796 -0.0007281438 -0.0015699648 0.0052192286 -0.004193631 0.004984167 -0.003941815 0.00080401194 0.00038201263 -0.0063936873 0.004110333 -0.0013400082 -0.001206813 0.0006282073 0.0015465709 -0.00615077 0.00043861553 -0.0018761563 0.002739829 0.002766896 0.0025984375 0.0015546042 0.00171908 0.0004008224 -0.008087195 -0.001356092 0.006429304 -0.0011965887 -0.010542285 -0.006481099 0.002799922 0.00037484072 0.004030991 -0.009656222 -0.009284727 -0.0010078262 0.005064133 0.003190795 -0.0076057552 0.0029488837 -0.0035183232 -0.0010353266 0.00026331499 -4.597102e-05 0.0009698007 -0.000646313 0.0051570083 0.0028032602 -0.0063469834 0.001579299 0.0013690707 -1.4074087e-06 -0.0021084587 0.0035571214 -2.3724502e-05 -0.0017088719 -0.008660628 0.0062975097 0.0018258522 0.004421179 0.0041110264 0.0047380156 0.0012851834 -0.0019584065 0.0051586875 0.004983856 0.0022157899 -0.0013251461 0.0056462954 -0.0037688513
werden 0.0008280634 0.0068275556 -0.0008297325 0.003162469 0.003077708 -0.0052854754 0.0056697247 0.009551993 0.0017874906 -0.0018638268 0.0060684136 -0.006798347 -0.000871816 0.0013746934 -0.0037055907 -0.0061040097 0.007079974 -0.00074090966 -0.0010144244 -0.00032547076 -0.003569091 0.0010954258 0.0045779967 0.004548088 0.0005550079 -0.0027797942 -0.009595035 0.0019881856 -0.002096244 -0.005012855 0.0029931979 -0.0045404853 -0.0007696044 -0.0010974052 -0.0034265039 -0.00036820574 0.002445759 -0.0034738544 0.001573245 -0.00035193068 -0.0060355184 0.00010489883 -0.003218102 -0.005477789 0.001942097 0.004880117 -0.001254572 0.0016810468 0.0007217501 0.0055762557 0.0010243638 -0.00299427 -0.001251047 -0.0008477289 0.0011108273 0.0031616515 0.0035657801 0.00072468887 0.00039487725 0.0027758176 -0.0034805704 -0.0048025935 0.0015464202 0.00024449767 -0.002016829 0.0018197589 -0.00043410744 0.0031198394 -0.0039287163 -0.004840801 0.0026626256 0.0035254085 0.006328975 -0.0051618163 0.00023582764 0.00010346388 -0.005531497 -0.0004535725 -0.002845308 0.0014240936 -0.0043592094 -0.004434294 0.0011839276 0.009716794 0.0031201295 -0.0024760116 -0.0029880698 0.00012882237 0.0067967894 0.0017342729 0.004537962 -0.000890263 0.0028927703 -0.0021678186 0.0063295607 0.0060947756 0.003843265 -0.0005677692 -0.0033404795 0.0029825517 0.0013778628 0.0008973164 -0.00053377205 0.0040050526 -0.00023050614 -0.0008102352 0.0011814304 -0.00023249151 -0.0042435136 0.0027256072 -0.0047910092 -0.0022587376 0.0018658163 0.0066483333 -0.0017820569 0.0061020325 0.0037198125 0.0022570998 0.006850282 -0.0064393673 0.003448854 0.0031375557 0.0059916605 0.0028659168 0.00045003483 0.0020801292 0.00047655142 -0.002903435 -0.00055036583 0.005560606 0.0049709696 0.007475229 0.0036585075 -0.009430472 -0.0016367655 0.0040210346 -8.144428e-05 -0.0041680047 -0.0062659048 -0.006779587 -0.0010082 -0.0025581731 -0.0020965438 0.00018690457 0.00205857 -0.003216693 -0.006765037 -0.0043092393 0.0045953766 -0.00069828477 -0.0009061616 -0.0070482274 -0.0015827968 -0.0018076234 0.001569688 0.0025485216 -0.0055584284 -0.002252349 -0.0029448438 0.0077239084 0.0025368351 -0.0024383687 -0.006731477 0.0030804276 -0.004147748 -0.0017813244 -0.0021610605 -0.00024834133 0.0025342081 0.010607812 -0.003018195 -0.0025656773 0.0024703331 0.0039042514 0.0016365398 -0.0015521158 -0.00043411084 -0.0053866846 0.00043390543 -0.0018121592 -0.003284333 0.00041349733 -0.005401727 0.00030255454 -0.005460197 -0.0030366867 0.008348583 0.00525399 0.0017293033 -0.0084939515 0.0006204168 0.0017306212 -0.007483378 -0.000118914715 0.0008946669 -0.005306097 0.00060473353 -0.006482132 0.0035527828 0.0022151035 -0.005272295 -0.0022338931 -0.0015464642 -0.0014156086 0.0032482704 -0.00021720606 -0.0050807316 0.0018283946 -0.0038212994 -0.0011373383 -0.0013938445 -0.0066306405 0.0022037746 -0.0020956784 0.004498078 -0.00631017 -0.0018886158 -0.01203967 -0.00850797 -0.00769872 0.00036149062 0.0008740942 -0.0033246786 -0.0028177693 0.001730013 0.00045644966 -0.00019986772 -0.00022962794 -0.0025169419 0.0015761411 0.0024106135 -2.4465585e-06 -0.0058140084 0.002156661 -0.0010372399 0.0017596191 -0.0003638378 -0.0026496223 0.0023190193 -0.0044141095 -0.0012158933 -0.0015242688 0.00222126 0.0016458228 0.0019098779 -0.005132876 -0.00508536 0.0035601787 -0.00044540933 0.0013672545 0.002704925 0.0008533109 -9.188414e-05 0.0016936401 -0.008455987 -0.0051248358 0.009163936 0.002088293 -0.0051629655 -0.002959831 0.0030341963 -0.00017488246 0.0062230746 -0.0055923713 -0.007074741 -0.0020090684 0.002041137 0.0040213885 -0.008011037 0.0039633485 -0.0031467143 0.003958688 -0.0015347467 -0.0014946912 0.0001530418 0.0003163746 0.0037669914 0.003219737 -0.0053488733 0.00029835297 -0.0019042981 -0.0029909515 -0.004226555 0.0021789735 -0.0008840154 0.0032917259 -0.008655963 0.0055723316 0.0031400486 0.0047081956 0.0013379167 0.009930359 0.0028725876 0.003530173 0.008999818 0.010194131 0.0028068684 -0.004848934 0.0020722884 -0.0045171794
sie 0.000105848514 0.0042605097 0.00019447318 0.004005051 -0.0012589339 -0.003771895 0.0049135196 0.009134377 0.0010938753 -0.0010038324 0.002724223 -0.00528257 0.00042673413 -0.002695906 -0.0020792705 -0.005938329 0.0033992901 -0.0015563633 0.0030269306 -0.0037798737 0.0024290523 -0.004277603 0.001718296 0.0028664123 0.00011785784 -0.0002282128 -0.005911901 0.0012089164 -0.0021949755 -0.006142374 0.0023250734 -0.0013294985 0.0030754774 -0.0019941279 0.00034514786 -0.0014320464 0.0045555388 -0.0027662565 -0.0029461274 0.0038040492 -0.004150761 -0.0022219745 0.0004168572 -0.0016224493 0.00019257182 -0.00018840983 0.004004984 0.0014713006 0.00024665406 0.0035420223 5.51513e-05 0.00081206736 -0.0014970669 0.004130429 -0.002303524 0.0024889137 0.0025653713 -0.0020788265 -0.0022426283 0.0033248477 0.0015245638 -0.002766458 0.0021416848 0.0010012568 -0.002101195 0.001292841 0.00038448576 0.004222848 -0.0018819378 -0.0055821612 0.0012447342 0.00048739885 0.005205992 -0.0021271494 0.003932747 0.0028468736 -0.0031110412 0.00326579 -0.0007236807 0.0016687274 -0.0037173082 -0.0036776764 -0.0023456474 0.007730035 -0.0028512012 -0.0017293708 8.754547e-05 0.0003831433 0.0048130066 -0.00029018926 0.0027708441 -4.860956e-05 0.0031763937 0.0012406305 0.0070469715 0.004300407 -0.00087768 -0.0019668613 -0.0032620665 0.0013740861 -0.0018262872 -0.0024841067 0.004955787 0.0023276822 0.0009218313 -0.0039768517 -0.0032763297 -0.0022166886 -0.00073466107 -0.00016840367 -0.0010153768 -0.0027319316 0.0023895572 0.0037875392 0.0013305822 0.0011682431 0.00069680234 0.0013869486 0.00676888 -0.002456763 0.0007137044 0.003409024 0.00421124 -0.0023948108 0.0023372287 0.0037999367 -0.0010860632 0.00057831174 -0.0013661478 0.0060005216 0.00080488634 0.00660251 0.0012125245 -0.006142131 -0.0010022102 0.005379702 -0.0003746744 -0.00473086 -0.0027345393 -0.0047602914 0.0018441888 -0.0066518583 2.106049e-05 0.0024502592 0.003317252 -0.0018190457 -0.004997653 -0.00036792486 0.002820845 -0.0059634764 0.004448128 -0.0017749298 0.0037703651 -0.0023554168 -0.0024172387 0.004629083 -0.005831156 0.0011293673 0.00041515636 0.0056383573 0.0028154624 0.0004856288 -0.004997832 0.0017420853 0.0022285096 -0.0019107613 -6.2984385e-05 0.00036930534 0.0013314009 0.008067851 -0.004237362 0.0014467029 -0.0010956165 0.002784258 0.003920708 0.0022129226 -0.001363809 -0.004843501 0.004751627 0.0012771691 -0.00052128814 0.0008557267 -0.002531488 -0.003340994 -0.0033675334 0.00025983324 0.0024353499 0.0016993907 0.0046485784 -0.0017112975 0.0035000348 0.00052140316 -0.0068973866 -0.0014555699 0.0024091953 -0.0058951923 -8.049502e-05 -0.001657997 -0.0002666365 -0.0034508265 -0.0006247558 -0.0023325335 -0.0031414772 -0.0007377941 0.00071413803 -0.0012511794 -0.0039377706 0.0043372083 0.0025570202 -0.0037376292 0.0032363755 -0.0016499577 -0.0021872448 -0.003966868 0.003578618 -0.00050088065 -0.0041992064 -0.008632422 -0.00283667 -0.0066443295 -0.0012342149 7.156563e-05 0.0003220124 -0.0043628076 0.00061851775 -0.0014403654 0.0010012515 -0.0002626502 -0.0016643234 0.0041505373 0.0031899144 -0.0042842436 0.0010423694 0.00028208864 -0.0009901383 0.00061108044 -0.0030569108 -0.0022779263 0.002066208 -0.0051961904 0.0018502803 -0.0033125419 -0.002009835 -0.0015801642 0.0041171177 -0.0066704433 0.00037191142 -0.00011990307 0.00021613215 0.005037378 8.111312e-05 -0.0019863988 0.0016484208 0.0024456088 -0.002412868 -0.0034441743 0.0057419864 0.0015359038 -0.0076077455 -0.00010750384 -3.8120117e-05 0.002460746 0.0048640002 -0.004772068 -0.0064121485 -0.00014415398 0.0047866255 0.0059245005 -0.0071518444 0.003327849 -0.00094608206 0.00010160059 0.0035412917 -0.0012001765 0.0010196014 -0.000265556 0.0007025063 0.0012774562 -0.005263439 -0.002450072 0.0031079946 -0.0036545715 -0.0032453698 0.0033709863 0.003228221 0.0015550153 -0.005399425 0.0026490218 0.0009432235 0.0053733196 -0.0010696047 0.00535079 0.0028936584 -0.00015437303 0.005923716 0.0072986293 0.003962325 -0.0010024998 0.006037345 -0.005507736
nicht 0.0016513985 0.0028455388 -0.0015778939 0.0021790944 -0.0011436216 -0.0063866363 0.0040241377 0.012589118 -0.0024803642 -0.005896287 0.0025287818 -0.00039816447 -0.0038666972 0.0035056681 -0.001572601 -0.0023919586 0.0035309521 -0.00066946464 0.0016448539 -0.0005220956 -0.0033913318 -0.0018568012 0.004225903 0.0040442906 0.0037117798 -0.0019995524 -0.003024297 -4.5896886e-06 -0.0010786612 -0.0002984099 0.0020987948 -0.0044723377 0.0005148503 -0.0023758288 -0.0015753548 0.00413142 -0.00012324232 -0.0036371937 0.0010090721 -9.433378e-05 -0.0059349854 -0.00010066532 -0.0009864384 -0.0019026856 0.00631478 0.0039042493 0.00037084086 0.002064453 -0.0022647379 0.0026895006 0.000983269 0.003440125 -0.004471215 -0.0014106499 0.00031538057 0.0029703032 -0.0018739305 -0.0018038499 0.00046589551 -0.0006552485 -0.0038512212 -0.0030120779 -0.00073480693 0.003052857 -0.00022344574 0.0026014424 0.0024680262 0.0013902392 -0.0019389936 -0.0030247082 0.0034827462 0.0013904033 0.0005036615 -0.0018085173 0.0048921476 0.00081032806 -0.003872818 -0.0001785741 0.0008365545 0.0032050647 0.0009984197 -0.005875166 0.0022920612 0.004428166 0.0033493743 0.0008909465 -0.00033126996 -0.0015390478 0.006101936 0.0031546736 0.0014716143 -0.0041989004 0.00390987 -0.0010014463 0.0012602657 0.0044384645 8.87077e-05 -0.00419049 0.0026614745 0.0031368611 -0.0017159992 -0.00043481364 0.00065366447 0.00045644422 -0.00044677212 -0.0043296437 -0.0032146827 0.004378415 -0.0021378745 -0.0004119345 -0.0021474836 -0.0039591305 0.001517345 0.0057463306 0.0013365364 0.0006533826 -0.0006189162 0.004203232 0.0040607904 -0.0035013675 0.0035944171 0.0041429894 0.0017965386 0.0016658544 -0.0017407673 0.0015726594 0.003300521 -0.0058224658 -0.0014035056 0.0033320533 -0.0012495362 0.004632987 0.0022145088 -0.0071712187 -0.0020463592 0.0048328997 -0.0022528109 -0.005761762 -0.0031835833 -0.0047398536 0.004030656 -0.0045585753 -0.00015316319 -0.00094376795 0.0021642891 -0.0018073787 -0.00370378 -0.0028789646 0.0038224547 -0.0033546048 -0.00075457577 -0.008145517 0.0009965476 -0.0019337075 0.003604806 0.003197947 -0.0018272114 -0.001325388 0.002039151 0.0013600719 0.0017512626 -0.00017696279 -0.004293133 0.0016329904 -0.003335461 0.0035213507 -0.00044307398 0.0019322434 -0.002523425 0.008076855 -3.6192905e-05 -0.00012454158 0.0026183876 0.0019758465 0.0039654756 0.00438934 9.890402e-06 -0.005052468 -0.0006883666 0.0011352611 -0.0037045393 0.00298516 -0.0028479728 0.0013195806 0.00044612115 -0.00054718624 0.0063977647 0.0066860933 0.0030069703 -0.0034463648 0.00095629244 -0.0007690887 -0.0028342584 0.000122092 0.0012850006 -0.00019684089 -0.0002651873 -0.0038781548 -8.218386e-05 0.0014361127 -0.00054853427 -0.0014730959 0.001185989 -0.0002533305 -0.0028073385 -0.0018061011 -0.0031211856 0.0009909812 -0.00080535264 -0.0032412235 0.0018874658 -0.0016988716 -0.00015875848 -0.0027618925 0.0022870097 -0.0035282604 -0.005818169 -0.0068794717 -0.003861884 -0.0018789154 0.003047689 0.0017431668 -0.00018704236 -0.005294436 -0.0015944008 -0.0034066099 0.0023663186 -0.00014203746 -0.0039636274 0.002228594 0.0055002864 -0.0011681777 -0.0020820033 3.362435e-05 0.0002717389 -0.000172431 -0.0027202533 -0.002054439 -0.0015981394 -0.006880855 -0.0015394591 5.8913996e-05 -0.0015434583 -0.00029598246 0.0035319391 -0.0032123977 -0.0008661351 -0.00019919881 0.0034438358 0.0026189932 0.0031542254 0.0033976615 -0.0015608193 -0.003228524 -0.003043127 -0.0016857401 0.0050317403 0.0014851384 -0.008189362 -0.0049430095 -0.00037285115 0.004498179 0.003063467 -0.00984775 -0.0076414687 0.000875868 0.0019696485 0.0014139115 -0.005163103 0.0011757634 -0.004201639 5.097928e-05 0.0019066122 0.00061907276 0.0006199766 0.0032237347 0.0041067447 -0.0016835125 -0.007386669 0.0013351178 -0.0018843474 -0.0019787715 -0.0043796375 0.0037981304 -0.001398942 -0.0018785644 -0.0067494554 0.0023602694 0.0039453316 0.006650775 0.0009941539 0.006889689 0.0032500227 0.00071392837 0.004647502 0.0068214564 0.0015539662 0.00073945575 0.0021823787 -0.007336012
dies 0.0018400297 0.006856926 -0.0024672695 0.0012764686 -0.0015020681 -0.001716666 0.0057800664 0.008243555 0.0013810742 -0.00023253885 0.0045994115 -0.005161395 0.0005018982 -0.0002485455 -0.0018772011 -0.0009643697 0.0030921032 0.0043719625 0.00031834687 -0.0020962418 -0.00163575 -0.004114959 -0.00014639195 0.0038648802 -0.0010938934 0.00027843556 -0.00375772 -0.0007680268 -0.0013099655 -0.0047660028 -0.0026183277 -0.0014416423 0.0041585076 -0.0017291156 -0.0023251772 0.0046183895 0.0050645084 -0.0013944418 -0.004176805 0.002769902 -0.004536225 0.0030100117 0.0019581702 -0.0037815883 0.0051546153 0.00018251431 0.002450597 0.0024252075 0.001942284 0.004693157 0.00035842764 0.0015090925 -0.0041942154 -0.0013425562 0.0005609869 -0.0014133271 0.00028750277 0.00053991016 0.003314261 -0.0019596852 -0.0015686011 -0.0027669552 -0.0014988845 0.0006308003 0.0011577031 -2.5738125e-05 0.0014759888 0.0050714 -0.0029200364 -0.003958929 0.0038008257 0.0017939053 0.0028627429 0.0014107231 0.0040334174 0.003250662 -0.0006797079 -0.0002936024 0.0010290754 0.0046265917 -0.0036208748 -0.004737095 -0.00083917135 0.003854223 0.0014019619 -0.0029124299 -0.0015375351 0.0014425004 0.0038047465 0.0019448411 -0.00025455578 0.00029003486 0.0031541765 0.001855611 0.006311823 0.003548675 0.0035971322 0.0015102202 -0.0007486374 0.0027992034 -0.00027753273 -0.0017712648 0.0037500118 -1.0872966e-05 0.00021154572 -0.0027727515 0.0023288329 0.0018478875 -0.003975636 -0.00025675824 -0.0032746845 -0.0016784192 -0.0025882176 0.0012526942 0.0010368339 0.004033658 0.0009478229 0.004538349 0.0045224717 -0.004976769 -0.0020912667 0.0042957664 0.0052727642 -0.0021637885 0.0009261841 0.006301533 -0.0013419285 -0.0033225378 -0.0039196503 0.004267696 0.00010910577 0.0049356734 0.0033721721 -0.0074758013 -0.0028518415 0.0028908555 -0.0036300502 -0.0057632374 -0.005948194 -0.004190456 0.0008796562 -0.0037693752 -0.0028687227 0.0050151614 0.0036000144 -0.0053820596 -0.0006262156 -0.0046508126 0.00262724 -0.0017422731 0.0016553815 -0.0062039914 0.0006937424 -0.0006855168 -0.00271787 0.0013479114 -0.0057996977 -0.00051164435 -0.00091860234 0.0012496324 0.0026602508 0.00040716186 -0.0034018576 0.0032900395 -0.0023828333 0.0030870992 -0.0021429379 -5.6355642e-05 -0.002746095 0.0061880522 -0.0052734963 0.0031760677 0.0021587727 -0.0007349742 0.0032652977 0.003204621 -0.0023318776 -0.0022258298 -0.00042173252 0.0012529955 -0.00090646156 0.0019318993 -0.0048891255 -0.0015158784 -0.0020232054 -0.00059499755 0.007502305 0.0029218285 -0.00096305687 -0.0077905077 0.00041288947 0.00047999845 -0.0038268238 0.0004125522 0.004723606 -0.0026371023 0.0045021935 -0.0009964132 -0.0016654361 -0.0010840393 -0.0053201723 -0.0016192878 -0.0017441715 0.0020665308 -0.00014988855 0.0020608532 -0.0029558481 0.00039130164 0.000856624 -0.00052613823 -0.00013671262 -0.0049074627 -0.0016918003 -0.0019227114 -0.00041331004 -0.0058195605 -0.005994688 -0.0034674539 -0.00304756 -0.0011983515 0.0040552528 -0.0019577628 -0.0001930147 -0.0015071423 0.0010861949 -0.0024103369 0.0032375904 -0.0043126806 0.00022661846 0.0038826854 0.0031455734 0.00016531143 0.0002775761 0.00236216 -4.054086e-05 0.0026927895 -0.0011243712 0.002362589 0.0020969517 -0.0059630964 0.0019400863 -0.0003375298 0.0014287372 -0.001266036 -0.00011924197 -0.004027581 -5.998271e-05 -0.0019932878 0.0026667882 0.0011210963 0.0031891458 0.0012681969 0.0036497437 -0.0016048627 -0.0064595942 -0.001153031 0.003847403 0.0019325678 -0.0077826516 -0.0014357375 0.0018537026 0.0014866242 0.0041458644 -0.0068976153 -0.0062269857 -0.0039089397 0.0032167886 0.004717273 -0.0058800005 0.004495877 -0.0012956845 -0.001102266 1.3962181e-05 0.0013797883 -0.0007583839 0.0026884368 0.0038090877 0.0032535808 -0.0022855129 0.0006336623 -7.982508e-05 -0.0038719727 0.0015649309 -0.0015869975 -0.00053031114 -0.0008140771 -0.0031794452 0.0003501854 0.0023649493 0.0037095624 -0.00039040265 0.0023842212 -0.001262102 0.001716684 0.0023782377 0.007883664 -0.00029103254 -0.0047879424 0.0011124284 -0.0009817133
von -0.00049325905 0.005805306 -0.0032530443 -0.0015778778 -0.0015163954 -0.0037081512 0.00026479675 0.0055256723 -0.0033505238 -0.0026064324 0.005680005 -0.0053562666 -0.0023571306 0.00080881984 -0.00018289809 -0.005682693 0.006305642 -0.0016333329 0.0021679045 0.0008646585 0.0010282248 0.0008382251 0.005948872 0.0034254096 -0.0012754296 0.0012800274 -0.007659039 -0.00031910383 0.0016557319 -0.0056138574 -0.0016615074 -0.0026899495 0.0021094757 0.0021987646 -0.00021793434 0.0036766515 0.0011639339 -0.0033530064 -0.003233906 0.0005177225 -0.005108566 0.00071301596 0.0014307183 -0.0011887987 0.0013906562 0.003455772 0.0035522159 -0.000916504 -0.0012716182 0.002596026 -0.00030124013 0.0031404707 0.0004055543 0.004030312 0.0028127395 -0.0010237194 0.00021931964 -0.0023499678 -0.0009022354 -0.0024632 0.00033983495 -0.0014251281 -0.002114982 0.0034808817 -8.610062e-05 0.0018731641 0.0008841201 0.0010591365 -0.0034713058 -0.00027843876 0.0022078778 -0.00024634134 0.004703376 -0.0015285858 0.00048542809 0.0048180344 -0.0032013713 0.0029596463 -0.0031818948 0.0005323051 -0.0034339842 -0.004057443 -0.0008833336 0.0061243866 0.0020010236 0.0019547553 -0.0016277056 0.0015789355 0.0022514914 0.0012620367 0.002552798 -0.0017035493 -0.000108396984 -0.000667748 0.0039898874 0.0036738631 -0.0015579279 0.00047341306 -0.0010210655 0.002172742 -0.0026612116 -0.00062771596 0.00028343304 -0.0015135726 0.0010243703 -0.004844258 -0.0021024363 -0.0013724903 -0.0004368373 0.0002508697 -0.00526645 0.0005780191 -0.0034984557 0.0020718921 0.0019096715 0.00023977675 -0.0025692866 0.00010756063 0.006932321 -0.0010169521 0.0017613863 0.003191142 0.0044147656 -0.0015065371 0.0025196527 0.0055131176 0.0022482276 0.0005597929 -0.003683169 0.0036506797 0.0043310635 0.0040669534 -0.001954565 -0.0055268137 -0.0007192857 0.001593682 -0.0015742618 -0.00039973634 -0.0030606654 -0.0028094093 9.3794326e-05 -0.0014466202 -0.004628264 -0.0011081989 -0.0006699606 -0.005825898 -0.0052813557 -0.0015018249 0.0039548846 -0.0020977838 0.0033808565 -0.0056187874 0.0013024962 -0.0009787794 0.003045543 0.0057891104 -0.0039843284 -0.0013021964 -0.0026323837 0.002341395 -0.0015897356 0.00037698724 -0.006111768 0.00016110213 -0.0004986665 0.0013334275 -0.002612414 0.0017112492 0.001407595 0.007419996 -0.0038719897 0.0033205159 0.0035235665 0.0017357178 0.0015733101 -0.0020980095 -0.0014415795 -0.0039443327 0.0035195404 -0.0018497594 -0.005510413 0.0040193945 -0.0044793305 0.0016603286 -0.00012986691 -0.0031362283 0.005744594 0.0065991683 -3.0582185e-05 -0.0072450414 0.0038359158 0.00066572323 -0.0008195243 -0.0021281596 0.0014217171 -0.0004507129 0.0018941483 -0.0030684392 -0.0015881279 -0.0022522171 -0.0049917214 0.0036277194 -0.001241526 -0.0029366172 0.0028729415 -0.0019005323 -0.0027274273 0.0020056355 0.0005546642 -0.0028123113 -0.00012277998 -0.00517626 0.0033074762 -0.0011391877 0.0025507512 -0.004901775 -0.0019501986 -0.0061044823 -0.0065973154 -0.0056336573 -0.00026913438 0.0012479669 -0.004338623 -0.0042661885 0.0016877679 -0.002525371 0.0028394284 -0.0022430795 -0.0040989877 -3.4442164e-05 0.003261031 -5.1605355e-05 -0.0041102613 0.000103369304 -0.0048811818 0.004186289 -0.0014389342 0.0012121891 -6.7991255e-05 -0.0075909244 0.00093728624 -0.0001466518 0.00089858053 -0.0023888303 -0.0009515241 -0.006088743 -0.0003606678 -0.0009769601 0.0004351175 0.003552282 0.0028375117 0.0011555628 0.000452592 0.0001333152 -0.0072955173 -0.0043953233 0.007895152 -0.0014190145 -0.009112585 -0.0011749766 0.004957867 0.0016388093 0.004201563 -0.0075537143 -0.006469452 -0.0039507425 -0.00022277256 5.7838253e-05 -0.006028854 0.004405613 0.00048596604 2.8169055e-05 0.0004701465 0.0026949043 0.0019663305 0.00035510297 0.0029838975 0.001809879 -0.0055235173 -0.00227251 0.004126838 0.0006537105 -0.0041378336 -0.00094953674 0.0004422727 0.0005244951 -0.0083077215 0.005631144 -0.00045457212 0.0047705844 0.004131403 0.005720325 0.0029129349 -0.00025808238 0.0026036864 0.006445245 0.00040858198 -0.0051004835 0.005311696 -0.0061869896
haben 0.0017937949 0.002477353 -0.0033153675 -0.0013481028 0.0023109613 -0.006023528 0.004596407 0.008835774 0.0028424913 -0.0002714626 0.0067649353 3.4859931e-06 -0.0032445972 -0.0028877766 -0.0032015606 -0.0033584079 0.0056827827 0.0024224496 -4.296843e-05 -0.0007469599 -0.0020529788 -0.0036441376 0.0050684707 -0.0008414996 0.0015752154 -0.002413399 -0.002651059 0.0004333831 0.00059897726 -0.005297957 0.003502995 -0.003448827 0.0022034466 0.0016211426 0.002028451 0.00028010845 0.0007706842 -0.0072665154 0.0010374469 -0.00027921237 -0.0009914112 0.0005049803 0.0023115396 -0.0050286194 0.0032310076 0.0030905649 -0.0018088655 0.0039689434 -0.0007101653 0.005152133 0.0013723132 0.0019246674 -0.0016504104 0.0039317384 -0.003221395 0.0047052586 0.0033182318 0.00048369332 0.0022839962 0.0017087555 0.00050292903 -0.0024909906 0.0012439166 0.0010888274 0.0011088199 0.0047272826 -0.0003911142 0.002477771 -0.005743645 -0.0036532949 -0.0014873267 0.002609843 0.0027669864 -0.0021454564 0.0036155574 -0.0002780345 -0.0016297761 -0.00019850196 -0.0032175432 0.000837854 -0.004701359 -0.00022319276 -0.0031738891 0.008821144 -0.000948766 -0.00020612332 -0.00010191732 -0.0025376647 0.0011982215 -0.0015598707 -2.3840728e-05 -0.0025868732 0.00052439986 0.0009846612 0.0039027578 0.0007304233 0.00041055446 -0.002583275 -0.0026051213 0.0013441727 -0.002040253 -0.0018323943 -0.00069462805 -0.0007249366 0.0025402522 -0.005004837 -0.0017416159 0.003405561 -0.0016046015 -0.0013727087 -0.00058507256 -0.0039157476 -0.0009349985 0.0050740424 0.000101782556 0.005902929 0.0002542956 0.0040931962 0.007106842 -0.0072400104 -0.0015952623 0.00013102879 0.0028810436 -0.0025703097 -0.0007436774 0.0009269105 0.001108859 -0.002763807 0.0011746398 0.00066666893 0.00046108218 0.0067427782 0.0033686168 -0.005803145 0.00055039505 0.0005839451 -0.00077380595 -0.0057506943 -0.005758465 -0.0041459175 0.0014482293 -0.0026329984 -0.0059908987 0.0027517553 0.0012953777 -0.0054646432 -0.0038724584 0.00012628923 0.0011770086 -0.0028558103 0.0032047944 -0.0049902447 0.0015185238 0.0015315486 0.002634559 0.0045317956 -0.000982127 -0.0044326875 0.0019225217 0.0054820273 -0.0010783374 -0.0010179846 -0.0026353083 0.0036217535 -0.0044057877 0.0009993004 0.0003464436 0.0014515041 0.0020229912 0.004160636 3.2510372e-05 -0.002899513 0.0024848743 0.005068485 8.1949605e-05 -0.0020127313 0.0022120993 -0.007165915 -0.00038332632 -0.0023650522 -0.0049441415 0.0051836385 0.00044253896 -0.0010769687 0.0005449694 0.0023421114 0.0069156946 0.0057687177 0.0039859214 -0.00325527 0.0024412102 0.0021892563 -0.00684171 0.0042116703 0.004827208 0.00015423755 -0.00042129352 -0.0038262361 0.00065624 0.0009540719 -0.005772436 0.00079107226 0.0012673537 0.002997061 -0.0007881328 -0.00039778103 -0.00029537294 0.0017670024 0.00020424018 -0.004504247 0.00022053787 -0.0030177182 0.00184745 -0.0069664917 0.0006202912 -0.0021317117 -0.0027816952 -0.008517806 -0.0029689542 -0.0028312628 -0.0017472251 0.0037650953 -0.004305591 -0.0038180493 0.0022048277 -0.0010988275 -0.001689439 -0.0022790222 -0.0037859506 -0.00047345663 0.0010329174 -0.00016615551 -0.0052240333 0.0034282047 -0.0046368735 0.0039380915 -0.0021477519 -0.001901338 0.0026241126 -0.008398226 0.002025987 -0.0011026775 -0.0024886397 -0.001987155 0.0037272742 -0.005674377 8.217562e-05 -0.003000413 0.0007495999 0.0017711967 -0.0005190194 -0.0005844916 -0.0012704899 -0.0012864192 -0.006869936 -0.0032162997 0.0037230595 -0.0031471907 -0.0047152513 -0.0030737054 0.004318552 0.002857397 0.006589189 -0.008092991 -0.00840059 -0.00065670063 -0.00035384568 0.005360678 -0.0015418518 0.0017894855 -0.00044311924 0.0035261947 0.0019359511 0.002013879 0.00473829 0.0026936566 -0.0005349915 -0.0014815285 -0.0052063325 -0.00092043483 0.0039423606 -0.005188578 -0.002127591 0.0039919596 -0.00047647578 -0.002722136 -0.005287892 0.0006987895 -0.00047904276 0.00137928 0.0011496788 0.008145041 0.0029392028 0.00335996 0.0092967935 0.008225385 -0.0012498074 0.00043440153 2.3085093e-05 -0.0055764867
sich 0.002704829 0.00650184 -0.001953674 -0.0009538025 0.0029048976 -0.0055954573 0.0014312242 0.011719688 0.0014568805 -0.001458948 0.003061569 0.00013422487 0.0022381337 0.002645612 0.0017256412 -0.004956771 0.004210542 0.00060494366 0.0027132777 0.00082494965 0.0007259419 1.7258028e-06 0.005589318 0.0044256467 0.0013272744 -0.0036156664 -0.0059597646 0.0048224083 -0.0020690835 -0.0027875719 0.0019451969 -0.0039179293 0.0037974822 0.0010432996 -9.497931e-05 0.0048941094 0.0027095317 -0.0048459554 -0.0041099065 0.0044184704 -0.005876681 0.0035485732 0.0015331996 -0.002987491 0.00048657204 0.0062518246 0.0005040891 0.002837642 -0.0009773128 0.0013788962 0.0014646775 -0.0024457362 -0.00462005 -0.002308369 0.001415197 0.002064086 0.00015765148 0.0017647927 8.8044646e-05 -0.0020147867 8.2548504e-05 -0.0035245095 0.00046120686 0.0039744154 -0.00078119343 0.0039909375 0.0037165117 0.0012393771 -0.004532564 -0.00010934688 0.002122929 0.0013638973 0.0035873435 -0.0036086133 0.002716893 0.0013280357 -0.0006618884 -0.00092771463 -0.0021734042 0.0045431503 -0.004369199 -0.0038034203 -0.003613901 0.0077812783 0.0009758939 0.0010385757 -0.00076392444 0.00031210863 0.0038062136 0.00081451755 0.0051364414 -0.0020146128 -0.00019587597 -0.0009643546 0.00090298406 0.0006361297 0.0023416863 -0.0003062502 -0.0024704938 0.00024408364 -0.003097116 0.0024007778 -0.0009408828 0.0035991282 0.0034773347 -0.00035938236 -0.003047997 0.0020966253 -0.0058323955 0.0037657765 -0.0042640227 -0.0021823747 0.0008032931 0.002591673 0.0027351256 0.0014146413 0.0020278816 -0.0007738774 0.0067231273 -0.004777326 -0.0013847564 0.00254747 0.0028455066 -0.00045521077 -0.0013203545 0.00043211898 -0.0017182573 -0.0048970017 -0.003836449 0.0021211277 0.0044551543 0.0041208407 -0.0022120713 -0.007069049 0.0014549597 0.0017690086 -0.0015536565 -0.0044123945 -0.0010924626 -0.0070910803 -0.0010701584 -0.0019635914 -0.0049386057 0.002933604 0.00090098445 -0.00041028723 -0.0024546694 -0.001096524 0.0042860243 -0.0021160943 0.0025227463 -0.006456807 0.0019855695 0.00081308786 0.0033887187 0.0030266647 -0.0040918454 0.0002347599 -0.003460798 0.0040164627 -0.0013352775 0.0018865305 -0.0077327513 0.0026890275 0.001989366 -0.00021529311 -0.0024946497 -0.001531915 0.0007507602 0.004732316 -0.0009881825 -0.00015803757 0.0030476255 0.0016890897 -0.0007983635 -0.0008097361 0.0004358023 -0.0058868607 0.0045529143 -0.003275331 -0.0045754486 0.002495371 -0.0037931127 -0.0041102692 -0.0038866885 -0.001582999 0.005286426 0.005455534 0.004429799 -0.0030691596 0.0028015857 9.728252e-05 -0.006256024 0.004217771 0.0017683564 -0.0013851987 0.002171942 -0.0006311583 0.0025680186 -0.0028854427 -0.003919724 0.000701699 -4.238851e-05 -0.0032447046 0.0017667621 0.0001242938 -0.00258461 0.001203386 -0.003010929 0.0011268648 -0.0029634908 -0.007027067 0.0018233294 -0.0065145255 0.0012627281 -0.003910344 -0.003900712 -0.0092369355 -0.0034726753 -0.0036587704 0.002078172 0.000106262436 0.00066654437 -0.005851514 0.00091242127 -0.0031808543 0.0006626275 -0.0048778495 -0.0031839062 -0.00037841118 0.0025105537 0.0015735266 -0.0012674789 0.0027136796 -0.004852193 0.0039899037 -0.0034631523 -0.00090062874 -0.0016617646 -0.007580229 0.002204874 -0.0014497127 0.0005148878 0.0018446245 -0.0006161728 -0.0047007115 -0.0023368169 -0.0030314215 -0.0031254631 0.0027768533 0.002853868 0.00048021993 -6.111698e-05 0.0010970584 -0.0054831435 -0.005595792 0.0077199745 0.0025455481 -0.00898651 -0.0028971408 0.0042746537 0.0010150024 0.0035715664 -0.008328916 -0.003387196 0.0012136291 0.003339257 0.001711179 -0.004978863 0.00025233364 -0.0061766948 0.0033024228 0.0002764806 -3.890783e-05 0.0040855817 -0.0008175446 0.0043300274 -0.0012752004 -0.0063655595 0.0009888893 -0.0001370049 -0.0032083043 -0.0034522205 -0.00035544456 -0.0008472159 -0.0010976009 -0.0027584347 0.005720807 0.0012228546 0.0033233159 -0.0008582509 0.00832235 -6.660005e-05 0.0025453474 0.009280931 0.0085193105 0.00052049797 -7.0947695e-05 0.0054792035 -0.005232403
dass 0.00032119727 0.0065275864 0.0017977044 0.0018237021 0.0009960327 -0.006968558 0.000107882806 0.0087950025 -0.0021795833 -0.002826515 0.0025786161 -0.003221637 0.0019138562 0.003605242 0.0010923442 -0.0026288559 0.0035313494 0.002128435 -0.0002598042 -0.0056931986 0.001231852 -0.0043792063 0.0050991955 0.001395172 -0.00044896998 -0.0011578954 -0.008089545 0.004854121 -0.0026289911 -0.0065952092 0.0022400555 -0.00025814743 0.0027299095 0.0013681077 -0.0022964592 0.00068564067 0.0031403524 -0.0030351586 -0.0029830693 0.0004896023 -0.002365191 0.00306625 -0.0022971171 -0.0048504584 0.0026964461 0.003939035 0.0028852317 0.003052645 -0.0028600672 0.0058020186 0.0007210425 -0.0006500413 -0.005543702 -0.00086742 0.0027383245 0.00321681 -0.0021254446 0.0011614095 -0.0014991971 -0.0025151037 0.0002973324 -0.0010613457 0.00065972225 0.0038617188 0.0015237986 0.00047674213 0.0033812143 0.0035315852 -0.002308146 -0.0006887969 -0.00074840593 0.0009702817 0.0041257995 -0.00017849749 0.0015385262 0.0053813765 -0.003793828 -0.0023791383 -0.0045116865 0.0022185151 0.00086573046 -0.0050007133 -0.0024054842 0.010899297 -0.002119987 0.0009542069 0.00064817816 -0.0021483789 0.0034625297 0.0004914433 0.0054145097 -0.0026498872 -0.00047662997 0.0041598603 0.0031805702 0.006377379 -0.0010100056 0.00045298395 -0.0016934036 0.0012859629 -0.0016875938 0.00019175786 0.0016561705 0.0017803049 -0.0005765786 -0.0038755308 -0.0016875487 0.0038571404 -0.002549982 0.0005933082 -0.0048803473 0.00025999654 -0.0039628954 0.0038197823 0.002509248 0.0025232271 -0.0011092349 6.0923965e-05 0.002646296 -0.002523056 0.0017432924 0.0027168854 0.006990467 -0.0029817224 -0.0006636862 0.003768262 -0.0016280463 -0.0059620086 0.0013398974 0.0027986234 -0.0009310288 0.007962028 -0.0017487673 -0.0068034506 0.0008292193 0.0018203048 -0.0038295866 -0.004710051 -0.006553238 -0.0046447646 4.45744e-05 -0.0050460813 -0.0020667096 0.0016333389 0.0038318615 -0.0017035891 -0.0046205935 -0.0022586223 0.0041059293 -0.0009669924 0.0050482913 -0.0068699424 4.248705e-05 -0.0023329372 0.0006947387 0.0015753208 -0.0047304765 -0.0050758626 -0.0005233451 0.005221735 0.0022424685 -0.0005703629 -0.0033909408 -0.0005763371 0.0020282995 0.00065428374 0.0012842614 0.0027908743 -0.00024864773 0.00818078 -0.0029467323 -0.0029827002 -0.0005689291 0.0012440813 -0.0015814673 0.0023715466 0.0017461531 -0.0054865065 0.0051839384 -0.0027059952 -0.003130372 0.004435461 -0.00524836 -0.0038231744 6.8395704e-05 -0.0033011837 0.008591469 0.006572792 -0.0002850345 -0.0031697538 0.0030719647 -0.002176348 -0.0077389437 -0.0015739494 0.0035590357 -0.0012046573 0.0022021038 -0.0025163104 -0.0018894046 -0.0022215063 -0.0017950337 -0.0023169909 -0.003932147 0.0001299952 -0.0026252174 -0.003417133 -0.001226921 0.005388745 -0.0030116895 0.0011934844 0.0029775798 -0.0034973808 -0.0011317136 -0.0008868601 4.857652e-05 -0.0048385886 -0.0030473147 -0.010399522 -0.008800284 -0.0035090302 0.0036918274 -0.0011028058 -0.0033244707 -0.0017967754 -0.0009233165 -0.0044826604 0.0023156465 -0.003947789 -0.0015369696 0.0030695265 0.00699163 0.0010680602 -4.762615e-05 -0.0003296392 -0.0027389473 0.0020532995 -0.0005500797 0.0027640583 0.0021598695 -0.009100174 0.0049824584 -0.00067277683 -0.00022882067 0.002278396 -0.00039488103 -0.004841127 -0.0011647997 0.0026203021 0.0015792081 0.0019897097 -0.0012029088 -0.00084782194 0.0045941602 -0.003284006 -0.0034152046 -0.0027706637 0.005682842 0.003178234 -0.004034356 -0.00019086924 0.0055228337 -0.0012288985 0.006616124 -0.010932601 -0.008690204 -0.004265601 0.0036662526 0.006141127 -0.00701011 0.00091113074 -0.004038717 -0.0007350741 0.00011399556 0.0017768091 0.0031417976 0.0014289115 0.001318001 0.0006652756 -0.006295115 0.0005588284 0.004382735 0.0003486737 -0.003982946 -0.0011084306 -0.003106563 -0.0016730533 -0.0054461225 0.0009877557 0.002147241 0.0068242657 0.0023150651 0.0068465816 0.004763693 0.0028771795 0.006601603 0.005437712 0.000517551 0.0002569154 0.0061136065 -0.0057860157
ihr 0.003374279 0.004119538 0.001515719 -0.00051930937 0.0016318623 -0.003524016 -0.0007229817 0.009623687 -0.0032892816 -0.004478104 0.0039030605 0.0007342648 -0.001272558 0.002584204 0.000552328 -0.0012542184 0.0012300832 0.0027396884 -0.0022476623 -0.00349783 0.0010609636 -0.003873483 0.004984564 0.00088981754 0.0010767868 -0.0030983663 -0.0064718397 0.00034636207 0.0025999865 -0.0009096644 -0.0029892495 -0.003565216 0.002076477 -0.0023736716 0.001391671 0.003801727 -0.0012195162 -0.0014672516 0.001752572 0.00035549465 -0.0016154558 -0.0012497673 0.0019819785 9.734989e-06 0.0039851316 -0.00031687287 0.00255393 -0.00015358177 -0.00075098546 0.0045513166 0.0017527583 0.0017346357 -0.0041456046 0.0025192325 -0.0015165928 0.0015389522 0.0024778673 0.001492357 0.00316108 -0.00092909695 0.00049801695 0.0011130846 -0.0009260177 0.0026549532 -0.0035491157 0.0046098265 0.0031534755 0.003825162 -0.0008644599 -0.0010605375 0.0001805595 -0.0008031261 0.0020309524 -0.0011766431 0.00023790161 -0.0007884917 -0.003785725 0.0033053176 0.0014730257 0.0047742394 -0.0031199364 -0.0023258415 -0.0033629274 0.008361777 0.00040154663 0.002659077 -0.0027104877 -0.000672323 0.0035639363 0.0020281728 0.00049847853 -0.0033050277 0.0019513427 -0.0023371982 0.005415386 0.0046533532 0.00011688926 -0.003287512 -0.0032354046 0.002296547 0.001262346 0.00060580345 -0.00094380655 0.004517006 -0.0016841677 -0.00021416976 0.001720609 0.0013529916 -0.0063131987 0.0026990087 -0.005071209 -0.00281439 0.002377107 -0.0003145158 -0.0016072181 0.0007793925 0.0014710982 0.002704057 0.0022041723 -0.0047653685 0.0032570593 0.0054586157 0.006092952 0.00019262003 0.00075042195 0.0034050753 0.0013220365 -0.0006305051 -0.00018533136 0.0031605794 0.00022790236 0.0017810074 0.0029353572 -0.0063551357 0.0011427749 0.0018682663 -0.0021150052 -0.0042525902 -0.0015866327 -0.0057567456 -0.0012970006 -0.0047242306 -0.0006762221 0.0038592154 0.00013795878 -0.0006876166 -0.005839301 -0.0031673484 0.00024219316 -0.0044684666 0.0040563256 -0.007842685 -0.0024088242 -0.004245865 0.003490778 0.0019842652 -0.002690745 -0.0036325038 -0.0013667907 0.003526973 -0.00015258655 -0.0021375418 -0.0060893204 0.0021941673 -0.0041042715 0.000866701 -0.00024522134 0.0037879772 -0.00038992788 0.0075848782 -0.005022282 -0.0023904147 0.0021760855 0.0019308447 -0.0006485145 3.8316863e-05 0.0031432712 -0.0066496227 0.0007674018 -0.0014558577 -0.0024341175 0.0050549894 -0.0024555423 -0.003490573 -0.004371272 -0.004135723 0.0017435127 0.001608972 -0.00020711517 -0.005063774 0.00054534496 -0.0015962454 -0.0029548716 0.0023048236 0.00473981 -0.0040153456 0.0038830251 0.00021499046 -0.00060269696 -0.002835888 -0.0037110113 -0.0016657824 0.0014985763 0.0029596514 0.0029265108 -0.003632786 -0.0003713958 0.0037301297 0.0015012383 -0.003952933 -1.9083602e-06 -0.006085974 -0.002631739 -0.0022195743 0.005372226 -0.00045413777 -0.00510338 -0.005052783 -0.0054951995 -8.884803e-06 -0.002242105 0.0036382806 -0.0036414748 -0.0046440335 -0.0002994626 -0.0014143806 -0.0026725556 -0.0024006183 -0.0021205693 -0.0006201485 0.0049758037 -0.00031643384 0.0009148599 0.0042034136 -0.0046009934 0.003423554 0.0013394555 0.0018550189 0.0021631347 -0.006265512 0.0027156754 0.00021050732 -0.00026588928 -0.00165507 0.001714808 -0.001757811 -0.004307926 0.0030701025 0.001086914 0.0020129026 6.768489e-05 0.0004983979 0.0033229291 0.0014583467 -0.007077845 0.000523129 0.0043355264 -0.002841425 -0.0024848243 -0.0005073325 0.0031737336 0.0042810626 0.0006648198 -0.0077762827 -0.0052399 -0.0023432218 0.0016869825 0.0025880563 -0.0065021752 0.0019793136 -0.0016428033 0.00028512022 0.0020875433 0.0006668658 0.0034117803 0.0011311136 0.0047705895 0.0005425705 -0.0028778177 -0.0018025924 0.0028678693 -0.0007674086 -0.0009223319 0.003677609 -0.0026348906 0.0034566808 -0.004792211 0.0014259698 -0.00024537047 -0.00012526568 0.00019974426 0.0057804896 0.0035820443 0.003563608 0.0023913847 0.00874891 -0.002342539 -0.0003614164 0.0053450777 -0.00412404
wir -0.0024495558 0.0018869214 7.564148e-05 0.001687709 -0.0029840334 -0.003907478 0.0042348113 0.01241513 0.0011252025 -0.002138859 0.0007624597 -0.0013268564 0.00075606606 -0.0022755105 -0.002335296 -0.0034005505 0.0044753044 0.0011243243 -0.001209041 -0.0029092003 0.0004045483 -0.0018220664 0.0044187945 0.0035196494 0.00010631867 -0.0034414784 -0.0029855147 -0.0013368246 -0.0012149068 -0.004172384 -0.0022367407 -0.0011996452 0.0038148197 6.936078e-05 0.0014805164 0.002581518 0.00065877364 -0.006708454 -0.0013325862 0.0034306853 -0.00068083266 0.002997201 -0.0020978644 -0.0058918674 0.005799656 0.004552309 0.0029521221 0.0013990789 0.0025679274 0.0005398306 0.0048565352 -0.0025267436 -0.0033662496 0.0032154373 -0.0036552416 0.0038023489 -0.0017605077 -0.002018916 0.0016652932 0.0010235301 -0.0019276374 0.0007853791 -0.0020746167 0.001078377 0.00224604 0.002974959 0.00024377515 0.003987572 -0.004907365 -0.003415034 0.00268482 0.0043443963 0.0063164667 -0.003968579 0.00494398 0.00090346637 0.00023135802 -0.0019477939 -0.0048768255 0.0034934015 -0.00512304 -0.0046588485 -0.0010115185 0.008559289 -0.0029602703 -0.001902829 -0.003673663 0.0003030387 0.005410735 0.0011753967 0.0069614947 -0.0024627375 0.004416439 0.002961405 0.0076027666 0.0040795724 0.0018971501 -0.0013372343 -0.0038858734 0.0070370417 -0.0022184171 0.0033247876 0.0030327367 0.0031417771 0.0011962444 -0.006218412 -0.00010082802 0.0022609415 -0.008063493 -0.00035758066 -0.004201434 -0.0031784046 0.00027380188 0.0039922534 0.0026265802 0.0011607496 -0.0015084966 0.004455175 0.007969419 -0.0032512913 0.0021860362 0.00059914583 0.006685071 -0.0024729765 -0.0034436528 0.0070224847 0.00017126594 -0.0061501 -0.0022001918 0.0061709573 0.0009068913 0.007144306 0.00041426852 -0.0046978416 0.00072601956 -8.58648e-05 -0.0025307578 -0.0005618815 -0.00320584 -0.0073237354 0.0039741634 -0.0027970432 -0.0006806899 0.0026591392 -0.0020382088 -0.005385825 -0.0028650712 -0.004447405 0.0071678893 -0.0067175287 -0.0005380226 -0.008288461 0.0026100343 -0.0038636087 0.003364185 0.00061948644 -0.0031301528 -0.001127138 -0.0007367283 0.008118892 0.0027130658 0.00053420884 -0.003948951 0.004068798 -0.00036046124 0.0037901527 0.00013543059 -0.0013644361 -0.0018954113 0.0071164183 -0.006152073 -0.00035138233 0.0031609526 0.0005941793 0.0031938043 0.0028160862 -0.0001254876 -0.004542892 0.0046927724 -0.0045813937 -0.0019107818 0.0055404906 -0.00369855 -0.0041425754 -0.005585357 -0.004138024 0.007343658 0.006760874 0.00482819 -0.0067494535 0.0013233764 0.0010146962 -0.008373122 -0.0017170444 0.003875526 -0.0062472234 0.0019468091 -0.004550949 0.0028643159 -0.0016760132 -0.0001373584 0.0010132988 -0.0025641662 -0.0013648265 0.0006475485 -0.002874334 -0.0003081338 0.0057307757 0.00085904915 -0.00407065 -0.0020801534 -0.005295301 2.7877926e-05 -0.006125407 0.0053725503 -0.0016212598 -0.0052478085 -0.007327844 -0.0041587558 -0.0037861457 0.003783635 0.00011837728 -0.00421395 -0.0035351317 -0.003937401 0.0016016345 -0.0027381035 -0.0035335333 -0.003760096 0.0030980713 0.0058390866 -0.0047002626 -0.004029834 0.0026701053 -0.0019582731 0.004184666 -0.001190284 -0.00039888112 -0.0019851234 -0.0049041016 -0.0007086748 0.0007374721 -0.0015909831 -0.0018712534 0.003975354 -0.00509124 -0.0048001283 -0.0028292723 0.0003726121 -3.4325225e-05 0.0029685881 0.001545823 0.0029605934 -0.0020384511 -0.0043731583 -0.00589128 0.008805071 -0.00030556435 -0.007993433 -0.0018638133 0.001753467 0.00074338773 0.0035179262 -0.010255508 -0.006443652 -0.0031623575 0.0045871995 0.00071283086 -0.006700426 -0.0012559387 -0.0066497964 0.00054569356 -0.002039106 -0.0016723325 0.002909179 0.0022356429 0.0036133043 0.0042564734 -0.008642646 0.0012247621 -0.0015144956 -0.0002616706 0.0010538129 0.0039446694 -0.0026800535 0.0014560709 -0.009627361 0.002595447 -0.00028360443 0.0011242821 0.0029718792 0.008281043 0.0004556723 -0.0019396094 0.008534603 0.006577528 -0.0020836806 -0.003678486 0.003048278 -0.0016626278
er -0.0021722016 0.004796501 0.002023428 -0.0006256822 -0.00048317973 -0.0035019466 0.0027032797 0.0055356924 -0.0010919231 -0.004675339 0.0042612078 -0.0049239746 -0.0032207267 0.0006349544 0.00023154216 -0.0018717326 0.0024847575 0.0014896293 0.0010006317 0.0010261752 -0.0018241521 -0.0032883072 -0.00054955675 0.004169546 0.0014052072 -0.002398986 -0.0010943897 0.0039719134 0.0024771895 -0.0041821534 -0.0015857165 -0.0016345346 -0.0015838998 0.001884768 0.0013218229 -0.0006951402 0.0037783906 -0.0057977685 0.0014282154 -0.00082452357 -0.0008958275 -0.0006718595 0.0010600075 0.00078421476 0.0014699585 0.00017826764 -0.002287223 0.0018218943 0.0014901509 0.0040775994 -0.000565999 -0.0030536528 0.00082432467 -0.0009532313 0.0012391607 0.0038144975 -0.0010662716 0.00062333693 -0.00071273936 -0.001932352 -0.002394553 -0.0010778493 -0.0023200698 -0.00016128604 -0.0011004743 0.0033912854 0.0019059749 0.0034055123 -0.00045262408 -0.0030732292 -0.00091603945 0.004133587 0.0043896423 -0.004255765 0.0026947923 0.004294359 0.0018334038 -0.0023216126 -0.0017667001 0.0023374562 -0.00022313652 -0.0022730883 -0.002072914 0.00665127 0.0024291414 2.6611266e-05 -0.0026977004 -0.0011651616 0.00018642869 0.0021150692 0.0020277537 -0.0013521969 -0.002106218 -2.8218996e-05 0.0047204285 0.0041460753 0.0023876748 -0.0019478698 0.0027100327 0.0023733617 -0.00028815318 0.0026736886 -0.0008715794 0.0033645036 0.004160444 -0.00023400546 0.0007712585 0.0021259286 -0.0031430898 -0.002246943 -0.0012165501 -0.00055811973 -0.0028995199 0.0024130435 0.0024960334 -0.00066938245 0.0009828134 0.0041362457 6.241293e-05 -0.001479409 -0.002648522 -0.0011259499 0.004331454 -0.0026344259 -0.00090055214 -0.0004830668 -0.0020081112 -0.0039095893 -0.00043871548 0.0027717508 -0.001782313 0.00025283505 -0.0008633484 -0.0037397807 -0.0018977103 0.00020215308 0.0006408765 -0.00080000475 0.00030677702 -0.001310811 0.0005374957 -0.001844345 0.0013493436 0.0020350725 0.0010994294 -0.0018799708 -0.0054817796 0.00079337903 0.0037173815 -0.0017738934 0.0042371205 -0.0052789254 0.0014675644 -0.003339911 -0.0027491502 0.0027094844 -0.0006606183 0.00082884 -0.0032639827 0.003970908 0.0013457685 0.0015774881 -0.0031482633 0.0028004302 0.0018104402 -0.0025809193 -0.0029848272 0.0031137771 -0.0005133197 0.0008597834 -0.003346768 0.00059803406 0.0030203806 0.00058293855 0.0004983949 -0.001816615 -0.0024597447 -0.0021627243 0.0013873467 -0.0038101112 -0.0013386521 -0.0016937029 -0.002124267 0.00059462566 -0.00096722506 0.001989033 0.005331297 0.002208022 0.0029704352 -0.001206817 0.003474728 0.0030984902 -0.0010293763 0.002288123 0.0036414736 -0.002300776 -0.00016356305 0.0013856797 0.000955002 -0.0020089117 -0.0021717786 -0.0013660446 0.0025723155 0.0010343877 0.0014956916 0.0015981158 0.0011700722 -0.00014141308 -0.0024408575 -0.0021191388 -0.00129952 -0.005990834 3.0350553e-05 -0.004934547 0.004715742 -0.0030776425 -0.0041139144 -0.0069549177 -0.00413527 -0.0056581018 0.0007505216 0.0021382978 -0.0018978837 0.000957647 -0.0013249216 -0.0032754736 -0.00095683435 -0.0026631828 -0.0038145222 -0.0021088964 0.00086426234 -0.0015796263 0.00037053082 -0.0011722393 -0.0034476453 0.001737334 -0.0009798353 0.0010628903 -0.00023527927 -0.0018509642 0.0035947806 -0.002822607 0.0011097487 0.0022815408 0.00070719235 -0.00029865548 -0.002623761 -0.0014211946 -0.0025641217 0.004678031 -0.0022926487 -0.00090735534 0.0008532205 -0.0016965672 -0.0005178406 -0.0037519166 0.0005169572 0.0030176672 -0.006761728 0.0016250052 8.493645e-05 0.0031735303 0.002122335 -0.0055860165 -0.0057903645 -0.0028505973 0.003906784 0.0041543734 -0.0025736103 0.0031104526 -0.0004563961 0.0017346765 0.0012263103 -0.0031606054 0.0041395803 -0.0013821974 0.00030696095 0.0013066919 -0.0010519868 -0.0035322583 0.0011903945 0.0008900141 -0.0037325232 0.003756319 -0.0016439643 0.0033508518 -0.0058029112 0.0038175788 0.0040529845 -0.0009987518 0.00077166496 0.00085844804 0.003734608 0.0035810594 0.0017952292 0.004222243 -0.00023787863 -0.003809654 0.0022313267 -0.0057070754
( 0.00088990387 0.0007348132 0.0017441913 0.0038972192 -0.0007255391 -0.0049597234 -0.0007689207 0.009605904 0.0006361881 0.00060323335 0.004034933 -0.003281031 0.00064612203 0.0030711342 0.0019565737 -2.633766e-05 0.00047818545 -0.0015628639 0.0028768189 -0.004573714 0.00028360265 0.0015296938 0.0019398582 0.0043064244 -0.001647371 0.0015219991 -0.002581484 0.0025559328 -0.0029977579 0.0003121857 0.0030213823 -0.0017914071 0.0023246454 0.0026162432 -0.0014655404 0.0036926114 0.0005470115 -0.004762707 -0.001223304 -0.00039229993 -0.0024112845 -0.0019046157 0.0011748086 0.000410983 0.004257614 0.004782825 -0.0006496007 0.0025021352 -0.0022127647 0.0008665148 0.004466638 0.0023072304 -0.0036320705 -0.0011866726 0.0020590527 0.0026202162 0.0025717295 -0.002078209 0.0002869365 4.7520163e-05 -0.0007843925 -0.0005793346 -0.002057442 0.0021699998 -0.0013327785 0.004454236 0.0015439526 0.005122114 -0.0026441 -0.0008493867 -0.0013265023 -0.0017289222 0.0026736215 -0.0024491155 0.004630568 0.0035623328 -0.003562538 0.0030068522 -0.0013671423 -0.00035938906 0.00018323146 -0.0031914364 -0.0037177794 0.009163176 0.0026295795 0.0030378557 -0.0007994746 0.0029507845 0.004380688 -0.0014365355 0.005796655 -0.0019984718 -0.0019664192 0.0035712954 0.0017334044 0.005724824 -0.0012114611 0.001727636 -0.0024764577 0.0042987657 0.0022784998 0.002046143 0.001054028 -9.088025e-05 -0.002103993 -0.0007201507 0.0020252462 -0.0005931082 -0.0015002176 0.0029119232 -0.0054446976 -0.00043716654 -0.0030674776 0.00092437456 0.001179445 4.5488254e-05 -0.0010415658 -0.0004584625 0.0017611375 -0.005995774 0.003680536 0.0049732905 0.0027150556 -0.001037619 0.001443099 0.0034207113 -0.0022737875 -0.0045655584 -0.0005240169 0.005742658 0.0023949053 0.00728019 0.0024959105 -0.004237148 0.0031096088 0.005204074 0.0017913152 0.00058114115 -0.0058070174 -0.0026810383 -0.0013835896 -0.006236463 -0.0050639724 0.0029387234 0.0006788006 -0.005197927 -0.0014690863 0.0010816768 0.004210299 0.000111202084 0.00015450767 -0.0069078077 0.001792183 -0.0019659444 -0.0020548387 0.004135732 -0.0041820565 -0.003309839 0.00038173865 0.005843245 0.0028090212 0.00038433436 -0.0011788985 0.0023549702 0.0012689155 0.0001607523 0.0011304088 0.0030606168 -0.0035213502 0.0074603437 -0.0022552107 0.002182895 -0.000178201 0.0007743699 -0.0007453953 -1.283233e-05 -0.0006607902 -0.005295301 0.0023175415 0.000964131 -0.0006513446 -0.00063819485 -0.0043320907 -0.0020852066 -0.0005408775 -0.003942918 0.0064220075 0.0047524273 0.0009006885 -0.0014853921 0.0034689428 0.00026935618 -0.0021144056 -0.002112963 -0.0012087815 -0.0034720122 0.0053234966 -0.001221451 0.002616543 -0.0027038837 -0.0011316424 0.0007745115 -0.0009276527 -0.0012561592 0.0018486213 -0.003911637 -0.00030105468 0.0038963943 -0.001237977 -0.0025691625 -0.0025260772 -0.0059959623 -0.0013888527 -0.0020651761 0.00042631 -0.0029800115 -0.005698814 -0.007062002 -0.004456515 -0.006020603 0.0017779301 0.0036797717 -5.252916e-06 -0.0017427763 -0.0025639578 -0.0015804549 0.00085873326 -0.0015838753 0.00091883994 0.0011652699 0.005387116 0.00050073495 -0.00076870725 0.00423111 -0.004109346 0.0004548163 0.0017781223 0.0026677547 0.0014821066 -0.0060555595 0.0038307575 0.0006725379 -0.0003931483 0.0034497087 0.0026735517 -0.0022512814 -0.0011748718 -0.0027876627 -0.0009220917 0.0028558897 -0.0006438538 0.0026837322 0.0037887774 -0.0030869166 -0.006847636 -0.0041398657 0.0043016365 -0.0006849856 -0.006137386 -0.0029704915 0.0031093545 0.0048241136 0.0015879025 -0.008676982 -0.003327916 -0.003104213 0.004535583 0.0037306123 -0.0063800826 -0.0012455003 -0.0055985 0.0013473684 0.0013863789 0.0009918662 0.0014996881 0.0022402306 0.002873116 0.00058969285 -0.0066220774 -0.00077877275 0.0020498927 -0.0025703905 -0.0017805255 3.950838e-05 0.0024108703 -0.0007649901 -0.0019692192 0.0009100082 -0.0022222074 0.0007574691 -0.0004653002 0.0052746264 0.0030804905 0.0011617409 0.008284028 0.0059554665 0.0024512538 -0.0015657112 0.0020510114 -0.0012645862
mit 0.00067001634 0.004751203 -0.002838907 -0.0021148112 -4.329857e-05 -0.002891526 0.0006092868 0.004630157 -0.0018432963 -0.0040862598 0.004564578 -0.0025189037 -0.0012350923 -0.0004033578 -0.0010889914 -0.004680906 0.0014070653 0.00013745505 0.0031887593 -0.003875846 -0.0021667616 -0.0013196543 0.0028045885 -0.00070720573 -0.0011477213 -0.0030860999 -0.0008843437 -0.0020118437 -0.0012007263 -0.0014639177 0.00061612215 -0.004166164 0.0034941346 -0.0003994474 -0.00034542076 -0.0018037079 -0.0015983656 -0.0014610771 0.0008197883 0.0016082029 0.0006311797 -0.001911857 -0.0004263181 -0.0024620304 0.0011443581 0.0030751151 0.0009825864 -0.0019975037 0.0010202881 0.0036391763 -0.0013485298 0.0011689556 -0.0026804092 0.003380683 0.0011589627 0.0016391672 -0.00012300057 -0.0029601385 0.003271474 -0.00038462688 0.0020275048 0.0004922083 -0.0025959632 0.00025202447 0.0006810898 0.00013246958 0.0044402005 -0.00042530356 -0.0038620506 -0.00029720014 -0.0004599161 -0.0015266145 0.0023562168 0.00080759404 -0.0010814838 -0.00022528616 -0.0034774514 0.0008054695 -0.002542914 0.004532009 -0.00079103606 -0.0009307728 -0.0014843419 0.0062398463 -0.000121861995 -0.0026172644 -0.0030628466 0.00027350758 0.0041350783 0.0015491621 -0.00016381385 -0.0027976052 -0.0025263918 0.0017303041 -0.0010689107 0.0027509336 0.0013730287 -0.0010952362 -0.0036401073 0.0037478618 -0.00064892706 -0.0028330188 -0.0014205934 0.0037935823 0.0013388385 -0.003937173 -0.00056080305 0.0024695306 -0.0051912135 -0.0018907485 -0.0017780914 -0.003995074 -0.00034805175 0.0020859223 0.0034165625 0.001760375 0.00060175883 0.0029330011 0.0010111253 0.00015237063 0.00027616843 0.0010940962 -0.0016130208 8.7743916e-05 0.0018999092 0.0024271181 -0.0022345323 -0.0024331175 -0.0025420422 0.0038739338 -0.0014330276 0.0041962876 -0.0015983973 -0.0049475594 -0.0023936164 0.0025909748 -0.0034777343 -0.003479868 -0.003930561 -0.0037342415 -0.00056723267 -0.0018761138 0.0007334069 0.000768561 -0.0014460825 -0.0013925931 -0.00010546168 -0.0026272878 -6.503963e-05 0.00016633075 0.0030646448 -0.005464262 0.0030957444 -0.003910297 -0.0022653479 -0.0002490198 -0.0012805953 -0.001007753 0.0008822422 0.004450782 0.0020034444 -0.0008847948 -0.0046272012 -0.0018894242 -0.0007328884 0.0034967836 -0.0022970054 0.0018593118 0.0012838496 0.0019863183 -0.003949649 -0.0016960825 -0.0015015049 -0.0013561937 0.0026607257 -0.002038638 -0.00087881886 -0.00079364923 0.0012994428 -0.0036849957 -0.0029564437 0.0022977416 -0.0002812644 -0.0013367854 -0.0013327651 0.00031177833 0.0031219358 0.0013479393 0.0028950134 -0.0053385417 0.0025391048 -0.003325578 -0.002949512 0.0028543281 -0.00015788098 0.0006751522 0.0032474385 -0.003819319 0.00035203548 -0.001723611 -0.004367142 9.7780096e-05 0.0017591206 0.0028299172 -0.0016203717 -0.0014228789 -0.0032711683 0.0015662368 0.0006283321 -0.004029453 0.0007930622 -0.005342155 0.00032983065 -0.0003206823 -0.00050927344 -0.0015468005 -0.0023994206 -0.006479378 -0.0033415663 -0.0005414269 -0.0024588823 -0.0017011708 -0.0010612078 0.0012700042 -7.377747e-05 0.002559393 -0.0024985808 0.0016237942 -0.002768421 -0.0012200116 -0.0006856042 -0.0002443123 -0.0020426933 0.0036450624 -0.0016531462 0.0019056424 0.0016393143 -0.0029316803 -0.00042488784 -0.004397302 -0.0021476282 0.00095053145 0.00067553506 -0.0005851953 0.000113383714 -0.0043906015 -0.0018305471 0.00053219753 0.0026174048 0.003575812 -0.0004698296 0.0013863087 -7.7456454e-05 -0.0016690976 -0.0043442645 -0.0033115682 0.0038938746 -0.0026663232 -0.0058214064 -0.0028845444 0.0036972724 0.0016366498 0.0037492926 -0.00082323875 -0.0048709074 -0.002123029 0.00394043 0.0033804746 -0.00066152395 0.003846725 0.0014464878 -0.0005178589 0.0006088335 0.0019296068 0.003906859 0.004420428 -0.0016388997 -0.0010640335 -0.0006839338 -1.368493e-05 0.00058765523 0.0013973727 0.001486548 -0.0019609155 -0.0008570809 -0.0026785932 -0.0007136817 0.0022491182 -4.0799423e-05 0.002400759 0.0031216538 0.005664972 0.0028897598 0.0013440797 0.0037251462 0.006140122 0.0008369911 -0.00083792076 -0.0015372 -0.001127895
) -0.0027133564 0.006349198 -0.0022031649 0.0011758566 0.0005368679 -0.0051153526 -4.614888e-05 0.011248048 -0.002540932 -0.005778749 0.004937799 -0.0031948406 0.0015764928 -0.0020111392 -0.0011695402 -0.0034977044 0.006133291 -0.0019445075 0.0026278843 -0.0055401023 -0.0035849449 -0.0012134544 0.0028645077 0.0012940655 -0.0004367377 0.00065725105 -0.0086036 0.0021458066 0.0010746359 -0.003421065 0.00015987895 0.00072042213 -0.0020624741 -0.0024567237 0.0003742156 0.0051668524 -0.0002774284 -0.008158664 -0.0011982545 -0.0017349026 -0.0020150838 0.0039298832 -0.0021580274 -0.0054829703 0.006328507 0.0030795808 -0.00014220453 0.0001849909 -0.0029511491 0.0016274494 2.5233063e-05 0.0003032817 -0.0022662648 0.003598559 0.0018629077 0.0015698164 -0.0028888204 0.0010847278 -0.0012726586 0.0034507457 0.0003687161 -0.001976196 0.0024691212 -0.00023294646 -0.0017525315 0.001940678 0.005193393 0.004507036 -0.0024045901 -0.0019895376 0.0006082638 0.0047583724 0.0011107583 -0.003152039 -0.00020832758 0.0054147695 -0.0032263808 -0.00020782315 0.00037834272 0.00026142475 -0.003160106 -0.0022278673 -0.0028338265 0.010653576 0.0007028896 -0.001596412 0.00044848147 0.0030343148 0.0035752202 0.0033232896 0.0010986095 -0.0022559208 0.0049033165 0.0027875567 0.0049123988 0.0024210764 0.0032580835 -0.00089090597 0.0022153151 0.0035889249 0.0016028743 -0.0011469811 -0.00032672944 0.0014706812 0.0023580866 -0.0032577957 0.0014027236 -0.0015763381 -0.0073034605 0.003340166 -0.0008787936 -0.0027640339 -0.002311795 0.0018136606 0.0010730694 0.0059708185 0.0007580508 0.001889443 0.0039858497 -0.005324833 -0.0025716529 0.005043831 0.000494988 -0.0012300174 -0.0031901903 0.006791609 0.0028639243 -0.0029122436 0.0003106771 0.003017315 0.0048607974 0.0037952736 0.0019597297 -0.006710734 0.003462939 0.005923975 0.0009607762 -0.0032459453 -0.003938508 -0.0077063297 0.004649802 -0.0075968406 -0.0050186347 0.004261006 5.0402596e-05 -0.0012212591 -0.0067343176 0.001085994 0.004295672 -0.006013403 0.003298686 -0.0075699803 0.0027429303 0.00096300774 -0.0024857717 0.00575481 -0.0020696474 0.00014687359 -0.0030086301 0.0022475633 -0.0020871924 0.0021483416 -0.0064612897 0.0033726299 0.0003987287 0.0032858304 0.0012489388 0.0009092263 0.000162179 0.007914471 -0.00627659 -0.001776241 0.00011834426 0.0036666356 0.0013460384 -0.0020448074 -9.984132e-05 -0.0020893768 0.004589161 -0.0010038147 -0.0044835345 0.0011079701 -0.003040178 -0.0033949679 -0.0051265256 -0.0011844387 0.006027083 0.0061649936 0.003503994 -0.0028973343 -0.001367457 0.003103164 -0.005683791 0.0015665242 0.00071847014 -0.0045276266 0.0022043146 -0.0053557595 0.0038139243 0.0010327798 -0.0039966996 0.0014185273 0.0018626614 -0.00206234 0.0014880967 -0.0008494127 -0.0015573382 0.0017765485 -0.0037738972 0.00043893082 -0.00051581446 -0.0075952364 0.000621362 -0.0059917 0.005049095 -0.0054224674 -0.00398308 -0.00751038 -0.006683174 -0.00529632 0.0032634484 0.0011008723 -0.0050284825 -0.0030089729 -0.004311343 -0.0025560516 0.0018108911 -0.0015337012 -0.004431795 0.0022961134 0.005736194 -0.004313699 -0.0034314105 0.0013990911 -0.005930273 0.0029518912 0.0015140203 0.0006513464 0.0013545884 -0.0060884366 0.0013377462 -0.0024541556 -0.0005063738 0.0028021252 0.00251997 -0.004263878 0.0011209801 0.0012033713 -0.0023629314 0.0049644113 0.004734106 -0.0026338256 0.004076157 -0.002696148 -0.006443356 -0.0010586475 0.0037549557 -0.0027172875 -0.009271212 -0.006105341 0.00019864879 0.0051660486 0.00494607 -0.010360301 -0.0028647003 0.0012305325 0.0054295426 0.0067195054 -0.007548263 0.0010147772 -0.0024181402 0.0015105158 0.002195564 -0.0023816314 0.0034266878 0.005748503 -0.00064354425 0.003992108 -0.0037992767 -0.0021502757 0.0005200918 -0.0049803997 -0.0038437117 0.002872179 -0.0010753203 0.0036932642 -0.0090104 0.000423415 0.0034332431 0.0063093333 0.002411993 0.008536186 0.0038051668 -0.0012914371 0.009501186 0.0050377855 -0.00015025756 -0.0040229023 0.005378617 -0.0055874437
zu 0.0010824425 0.003092352 -0.00058238074 -0.00039977607 -0.0017039845 -0.005139926 0.0027324697 0.009106128 -0.001418017 -0.0018987621 0.001310649 0.00079432194 -0.00077103707 -0.0020854806 -0.0018367157 -0.00020788757 0.0032492243 -0.000617785 -0.0021529552 -0.004208799 -0.0019254307 0.0012598741 0.0008453256 0.0027682316 0.0011239966 0.0006039876 -0.0074312068 0.004231594 -0.0012199867 -0.0011211484 -0.0029925678 0.00029097765 -0.0018010975 -0.0006009877 -0.0013315191 0.0007009853 0.0017602242 -0.004866212 0.00059005537 0.0003040632 -0.0036993776 -0.0013492423 0.0026855613 -0.0012095894 0.0059712515 0.0046768277 -0.0006227452 0.0036917217 -0.00238031 0.0037877376 7.8489975e-05 0.0003395716 -0.0010409729 -0.000109663415 -0.0018506651 0.0011175133 0.0005430882 0.0022732173 -0.0012185764 0.0019116713 -0.0020343272 -0.0040789223 -0.0016475737 0.0014110502 0.002435911 0.0043931627 0.0051038167 0.0045608976 -0.0036273466 -0.0036006768 0.0043264306 0.0036044717 0.0050241505 0.0005117867 0.0019284977 0.002959866 -0.004563237 0.0030992124 0.0014046538 0.0006567319 -0.001481006 0.00014271859 0.0005842726 0.0089913495 0.0027840938 -0.00040331285 0.0019519735 0.0023184598 0.0022073754 0.0009832857 0.0061022816 0.0009953419 -0.0008297661 -0.00044628265 0.0026308654 0.0041887583 0.0018854099 -0.0043739486 0.00022072787 0.0063889264 -0.00023175738 0.0021911357 0.002534262 0.004428234 0.0042545926 -0.0011434659 -0.0012477172 0.0022627744 -0.006359056 0.0033374545 -0.0039580795 0.0020332339 -0.0040871105 0.0017751607 0.0039835284 0.0012381793 -0.0003329816 0.003966232 0.0074318484 -0.0041520437 -0.0018146783 0.0056242235 -0.00014627255 0.00021221353 0.0011217822 0.0006925964 -0.0010665446 -0.005440328 -0.0009193265 0.0049827094 -0.001416206 0.0033529962 0.003046997 -0.006251183 0.001351981 0.0035854795 -0.0021284104 -0.00450793 -0.00013128626 -0.005019856 0.0043848827 -0.0049113836 -0.0014721114 0.0039541735 0.00088556425 -0.0018717443 -0.005591793 0.0011108642 0.0025503119 -0.0041674715 0.003403787 -0.0017942934 -0.0013180325 -0.00079826365 0.0017927878 0.002176309 -0.0031349685 0.0011456162 0.0020245179 0.0016329165 -0.00028500665 0.0033528965 -0.00450258 -0.0017255095 -0.0012673968 -0.001757471 0.0007559751 0.0013666516 -0.001812629 0.0044865506 2.5848576e-05 0.0017435172 0.0012249817 0.002364286 0.0038794319 -0.00064751547 0.002208704 -0.0042450842 -0.00037932635 -0.0051951157 -0.0031032148 0.004683377 -0.0012256707 -0.004269316 -0.001568788 -0.0020955552 0.0034414749 0.0066643516 0.0039190534 -0.0047976086 0.0015944134 0.0002892615 -0.0073210965 0.0020689399 0.0042248336 -0.001412916 0.0032244357 -0.0035685794 0.0015325649 -0.0029361073 -0.0013425091 0.0014713755 -0.00083652773 -0.00037182576 0.001046469 -0.00014993073 -0.0017122305 0.0051737158 0.00074144057 -0.0008417755 -0.00100089 -0.0062085968 -0.002788506 -0.0044669076 0.0036563065 -0.00044186864 -0.002788135 -0.007966416 -0.0033031355 -0.004930544 0.0004938352 0.0034277467 0.0012141189 -0.0026450774 -0.0030096988 -6.803643e-05 0.0034248508 0.00049009296 -0.0028503553 0.004001975 0.0064798226 -0.0047560153 0.00093128 0.0019245327 -0.0043327357 0.003167964 0.0023880387 -0.002479354 0.0027753355 -0.0072039817 -0.0012040866 0.0014871698 -0.001788402 0.0020827237 0.003803196 -0.0006301702 0.0005984902 -0.00275642 0.0012428323 -0.00078863354 0.0012420429 0.0035407592 -0.00028467883 0.0011983435 -0.0074885944 -0.004875831 0.0075660916 0.0009695109 -0.0034986038 -0.0015149666 0.0025139265 0.0030017635 0.00061148586 -0.0041524568 -0.006466773 0.0005351136 0.00059106573 0.003353268 -0.0026872894 0.0006265839 -0.0052385 -0.0013609352 -0.0028196368 0.0034503539 0.000121625475 0.0017449235 -0.0009985702 -0.0002797502 -0.0059007225 0.00041887007 0.0027947074 -0.00076991634 0.0021041047 0.0014975073 0.0033033136 0.0027860017 -0.0045567486 0.003097323 -0.001276597 0.0023663524 0.0028543822 0.002558445 0.0022483813 -0.0020127082 0.0090248 0.0060641086 0.0009768857 -0.0033072848 0.0049309507 -0.005935087
es -0.002372786 0.0056739305 -0.0013215361 0.0012776619 0.00202356 -0.002291346 0.004620315 0.010720414 0.0016003036 -0.005407383 0.004781916 0.0005661843 -0.0018315461 0.0005718004 -0.00231082 -0.0038727024 0.0064318543 0.0009849594 0.0016660619 -0.0039993944 0.0010240845 -0.0024204955 0.0014754118 0.0029043062 0.0044193245 -0.0027836154 -0.003438399 0.0012571502 -0.002688063 -0.0042342264 -0.0025337734 0.00045694356 3.226984e-05 -0.0012342073 -0.0005164928 0.0034336362 0.005164817 -0.007882027 -0.0009610417 0.0006283669 -0.0032043732 0.00042987432 0.0026758316 -0.0032452554 0.005902616 0.0029729784 0.00050559355 0.003258536 0.0022790362 0.002844837 0.001172893 0.0023103545 -0.0035048614 0.002265988 -0.00047291946 -0.0002807535 0.0025831142 -0.0011868997 0.0014840115 -0.0019479509 0.00011199 0.00048075206 0.0019420148 -0.0019596985 -0.0024420887 0.0040716277 0.003025812 0.0025448045 -0.0045764227 -0.0032628782 -0.001777088 0.0017345193 0.0013859814 -0.001475082 0.0028301715 0.0028552313 -0.0041981176 0.00089029607 -0.0040105255 0.0017143555 -0.0012069724 2.7407497e-05 -0.0028247233 0.00724256 0.0029490762 0.0035267877 0.0010795105 -0.0022046247 0.004056419 0.0038485604 0.004128635 -8.577143e-05 0.00082251104 0.0018457905 0.0050514108 0.0059342976 0.0003025337 -0.0043825293 0.0016572914 0.0010111749 -0.0012337789 0.0011777781 0.0014259159 0.0003117227 0.0014952784 -0.0053882827 -8.235078e-07 -0.00037548394 -0.005595491 0.0019510252 -0.001983016 3.8365106e-05 -0.00050740707 -0.00066887966 0.0042352094 0.0013372594 -0.00037548275 0.0046020932 0.004303279 -0.0028590271 0.0011460355 0.003119253 0.0052192598 0.003030061 -0.00088359124 0.0020571114 0.0023107927 -0.005185971 0.0019634045 0.0039502573 0.003246407 0.00519309 -0.00020551484 -0.0043758056 -0.0014055178 0.005380269 0.00066367857 -0.0015070614 -0.004481858 -0.006962485 0.0038804126 -0.0030065083 -0.0037039276 -0.00083823566 -0.00060569606 -0.0028390654 -0.006567422 -0.00167982 0.00393975 -0.0059267483 0.0016242326 -0.0070358966 -0.0007212848 -0.001618477 -0.0029666568 0.0017308585 -0.0056679286 -0.0042530675 -4.5217264e-05 0.0045176204 0.0038836293 0.0031968628 -0.006431601 -0.0015895129 0.0015784249 0.002264032 0.0027038045 0.00011305906 -0.0020736807 0.004338492 -0.0056200926 0.002175358 -0.0007462298 0.004616061 -0.0008004874 0.0042807274 -0.0014074519 -0.0009595079 0.00027452476 -0.0043660426 0.00013836683 -0.001332115 -0.0048772693 0.000373494 -0.0052467072 0.0009359181 0.005792235 0.0015027012 0.0029122522 -0.004300236 0.0036035136 0.0009169483 -0.0056313407 0.0003207524 0.0041205017 -0.004882284 0.005466195 -0.0033592132 -0.00091239845 -0.0018783391 -0.0017147694 -0.0027076092 0.00050633505 -0.0016328542 0.003308936 -0.0025534392 -0.004858807 0.003197941 0.0025799314 -0.00037961456 -0.0007469925 -0.0028600132 -0.002699324 -0.004663837 0.00061886373 -0.002278255 -0.0050519397 -0.008822763 -0.0066100704 -0.0017246474 0.0017068605 0.0033551475 -0.00077680923 -0.0006793561 0.00047167623 0.00023930319 -0.0015969616 -0.0018781149 -0.0020416502 0.0033731312 0.0010219974 -0.0017297654 -0.0006300463 0.00032103318 -0.0053527686 0.0037565415 -0.0009383269 -1.5327829e-05 -0.0015979533 -0.0020586927 0.0016651907 0.00023922433 -0.00035266037 0.00070501206 0.0032650176 -0.006863755 -0.0004627236 -0.0017070054 0.0032901103 0.003576325 -0.00058493 -7.570523e-05 -0.00037589725 0.0027225106 -0.0024218473 -0.001377253 0.008062465 -0.0016117683 -0.00481104 -0.0040603094 -0.0009301496 0.0004065664 0.0028301962 -0.008157257 -0.0063349935 -0.0007732007 0.0022996422 0.00013738923 -0.0015949005 0.0018907395 -0.005825474 0.00017254977 -0.0020340953 0.0027025952 0.0012268728 0.0045924243 0.0036887254 -0.00024501907 -0.0071751275 -0.0026813087 0.003870348 -0.002380671 -0.0012239892 0.0009344776 -0.0027371563 0.0017538905 -0.0080880225 0.0055034924 -0.0015675239 0.0057006446 0.000263166 0.0043842164 0.0006037966 0.00083978864 0.0064006257 0.0065536033 0.0005158368 0.00085182366 0.000695854 -0.006066581
