91 300
die -0.00013172654 0.00047117396 0.0017357295 0.0029954654 -0.0034123566 -0.0028040835 0.0026796954 0.0040792017 -0.0016729132 -0.0013956411 0.002735358 -0.0005149772 -0.0016606057 0.0024976383 -0.0017599947 -0.00090819324 0.0011781359 0.0005566796 -0.0026193438 -0.0036332724 0.002434828 0.0014520641 0.0023598268 0.0006320407 0.002013823 -0.0012291876 -0.0006148909 0.001814665 -0.0027952422 -0.0016877161 -0.0023637635 -0.0004019241 0.0036044552 -0.0025080629 -0.0006359248 -0.00030800168 0.0031073294 -0.0022186632 -4.469119e-06 -0.0016555665 -0.0036801298 0.0013922426 -0.002711816 -0.0013396989 0.00040853233 0.0002422738 -0.0024247607 0.0034676627 0.0020947587 0.0032521177 -0.0022714871 0.001819229 -0.0015437112 0.00037074173 0.002836304 -0.0010270103 0.0018838246 -0.0020695047 -0.0010497344 0.003167546 -0.00047101566 -7.80324e-06 -0.0015817748 -0.0023634415 -0.0006634452 0.001270042 -0.00036771345 0.0021783889 -0.0014547257 0.0008548802 0.0018077381 0.0029003955 -0.00018809999 -0.0034279958 0.0019993545 0.0004591191 0.0023223592 -4.9226135e-05 -0.0010661925 -0.0025620414 -0.00040688203 0.00085340394 0.0014779005 0.0032140533 -0.0016339762 0.0004159816 0.0020066015 -0.0014943122 -0.0004364329 0.002377143 0.00094586087 -0.000102883845 0.0012769348 0.00014721675 0.0038165622 0.0022980059 -0.0026469894 -0.002590427 9.1026785e-05 0.0022055863 -0.0027708241 0.0013658435 0.0019441405 0.002265752 0.0025380931 -0.0024899172 0.00059201237 0.0022148082 -0.0014967358 -0.00212386 -0.0006130434 -0.0029254255 -0.0019739724 0.002358763 0.0008607098 0.0026874146 0.002520711 0.0026302051 -0.0012270758 -0.0009127791 0.0008822376 -0.0009780842 0.0032265547 -0.0035408365 0.0023437634 0.0014609322 -0.0019039019 0.0010434105 -0.0007963126 0.0027963875 0.0035157995 -0.0011298332 -2.0077865e-05 -0.0026634925 0.0011611967 0.0013953351 0.0021520793 0.0018018684 0.0027133415 0.0025507435 0.0028600178 -0.0030417535 -0.0033066114 0.00010246722 -0.00083349907 0.0022618314 0.0016865135 -0.0008714878 0.0009283792 0.0001983743 0.0025639457 -0.0036802585 2.5584772e-05 0.00093912374 -0.00024279582 0.00287474 0.0023448172 0.0019577467 -0.0006164469 0.003139829 -0.002720405 0.0010161961 -0.0018708198 -0.0015363608 0.0011741082 0.0019304148 0.0027115752 -0.0017258191 0.0022177119 0.0028516431 -0.0017483372 -0.0028716524 0.0021024796 0.00220973 -0.0001348722 -0.0022444965 -0.0026579115 -0.0011091487 0.0018258686 -0.0011215614 -0.003302443 0.0016485618 0.00088233827 -0.0023244594 -9.699022e-05 -0.00083202514 0.0008068271 -0.0028078156 0.0009674061 -0.0020838387 0.0006498301 -0.00059753325 0.0002607582 -0.0027198514 -0.000717482 0.00044471907 0.0017868031 -0.0009465122 -0.0032383967 0.0014565941 -0.00030171053 0.0008636477 -0.0023990436 -0.00039890347 0.0029798301 0.002538997 -0.0011908825 0.0010673655 -0.002826033 0.002029695 -0.0018173697 -0.0014793142 0.0031677217 -7.3181465e-05 0.0026230775 -0.0023946133 0.0012819902 0.0025762296 -0.0033392813 -0.0021456603 -0.0022518174 -0.0014246167 -0.00132725 -0.003351191 0.002435353 -0.001938911 0.002966951 0.0016324841 -0.0023078006 0.0015261878 0.0021240988 -0.0025041755 -0.0023995242 -0.00043810473 -0.003441139 -0.00020258517 -0.00023707857 0.0010596525 0.00069143943 -0.0010235813 -0.0015702426 0.000498889 -0.00021113174 0.0024389792 0.0015318864 0.0011238032 0.00057281274 -0.0012726589 -0.0014496739 -0.00025188547 0.00086113217 -0.0005635861 -0.0021002814 -0.0026777508 -0.0036446468 -0.0020167036 -8.0274884e-05 -0.0014014448 -0.0026916012 -0.0014979928 0.001547555 -0.0009934449 0.0032985385 -0.0003527254 -0.003159265 0.0030203427 0.0029221096 0.0021816113 -0.0030078774 0.0021997574 0.0012140855 0.0015496996 0.0015128892 0.0008660677 -0.0007654013 0.0030268605 0.0037487547 0.0014035911 -0.0016758007 2.107806e-05 0.0004401494 -0.0027007856 -0.0030086895 9.573736e-05 0.00022113655 -0.0017556087 -0.0019623325 -0.0022130336 0.0026614636 5.348654e-06 -0.0013190962 0.0024244806 0.003314348 -0.0011919672 0.003061241 0.002547372 0.002252016 2.4003415e-05 0.0032393234 -0.0027501308
. -0.0027469334 0.0034629784 -2.8166844e-05 -0.00064544595 0.001230426 -0.0017387533 0.0014395043 0.0033825068 0.0020087305 -0.002660697 0.003353666 0.0014773128 0.0011919943 -0.0017753373 0.002645114 -0.0010510985 0.0032001878 -0.0015481004 -0.0025888297 0.001824585 0.00050132076 -0.0010146854 0.003275517 0.0035503544 -0.0033672361 0.0007650368 0.0017582561 0.0011880161 0.0003885145 -0.00021559428 0.00038429833 -0.0013515261 -0.0019468692 -0.0007596056 0.0014372634 0.0032257435 0.0034966113 -0.0022329027 -0.0031885244 0.0032091248 0.0006250466 0.0014834299 0.0022669754 -0.0008444861 0.002851605 0.001267599 0.0010941699 -0.0005411211 -0.00060023303 -0.00062658434 0.0018460546 0.00035182486 -0.0033360706 -0.0031085948 -0.0020217584 0.00041556393 0.0009888861 0.003314506 0.0020002634 -0.0013914956 0.00013402491 0.0015406527 0.0023723159 -0.00019605001 0.0012851044 -0.0015233206 -0.00030381628 0.0030040208 -0.001311023 -0.00314283 0.0019724953 -0.0011416893 -9.145552e-05 0.0029823456 -0.00022359294 -0.0012902055 -0.0019035947 0.0025340249 -0.0020953303 0.0010328626 -0.0018666786 0.0019403028 0.0011835516 0.0016785553 -0.0002404537 -0.001131883 0.002979993 0.0018343066 -0.00012913291 -0.0030507615 -0.0020522939 -0.00052510644 -0.00010907439 -0.00078144995 0.0038341791 0.0004415963 0.0022782236 -0.002692467 -0.000994311 -0.0017660852 -0.0022752131 0.0005692074 -0.0021889675 -0.0004025559 0.0013051223 0.0014966254 0.0005764269 0.00090003945 -0.0019168957 0.002304972 -0.002541379 0.0014400237 -0.0028347902 0.00073043146 -0.0018891083 -0.0011262577 -0.00076488586 0.001994501 0.0019895905 -0.0023198838 0.00037035262 -0.0022965032 0.0029965981 0.0028165386 -0.00084074924 0.00078522513 1.4536921e-05 0.0013866804 -0.0030611246 0.0007424436 0.0024928532 0.0010934656 0.00052180095 -0.003863376 0.0026997325 -0.0016428195 -0.0011764908 0.00093781203 -0.0007194636 -0.000103528226 0.0008616785 -0.002951685 -0.003465904 0.0031906848 0.002232795 -0.0027252806 0.00087662437 -0.00029643282 0.0019613786 -0.002782333 0.0012835858 0.00095586205 0.0034033924 -0.0016827979 -0.00039394264 -0.002366219 -0.003888723 -0.0032063238 -0.00069650443 -0.0016242635 0.0017728955 -0.0021018663 0.00051828474 0.0003873565 -0.0011105096 -0.0001510695 0.0034418523 0.003156447 -0.0017305828 0.0036193132 -0.0024239807 0.002018698 -0.0007380857 0.0011410165 0.0011938435 0.0023327377 -0.0011159988 0.0026981942 0.0026588386 -0.0030965698 -0.0028213551 -0.002163701 0.00025085273 -0.0010952939 -0.0028059527 -0.002850416 0.003591684 0.0011342306 -0.003022325 -0.0021280483 0.001323997 -0.0016195668 0.0012932743 -0.0015194952 0.0010414093 -0.00314395 0.0020480126 0.0014431808 0.00017842761 0.0010028266 -0.0032030712 0.00055556284 -0.0004522033 -0.003097053 -0.002778866 -0.00035351858 0.001506253 0.001450203 -0.0021912372 -0.0023422441 -0.0019142559 -0.0011366548 -0.0023054658 -0.0035266057 -0.000828084 -0.0031330287 -0.0024364744 -0.0025896206 -0.0012776671 -0.0009732346 -0.0028501449 -0.0001230125 0.002633529 0.0020975058 -0.0026292684 -0.0015355932 0.0011803872 -0.0033008675 0.00033928585 0.0023863153 0.0021746904 -0.0029737796 -0.0014595794 -0.0023544487 -0.0004738466 0.0033643886 0.0018929107 0.0016568529 0.0018815444 -0.0017613228 0.0034768058 -0.0025355276 -0.0023358087 -0.00056594616 -4.9969967e-05 -0.0014936244 -0.0001009524 0.0021654933 -0.0002361989 -0.000464046 0.0013360832 -0.0024834285 0.0028549887 0.002732986 -0.0037682536 0.0007652873 0.003857727 -0.0025108918 -0.0028839046 -0.002818312 0.002892544 -1.3887838e-05 0.0035319058 -0.003540928 0.00051039073 0.00079044513 0.00063552224 0.0010987291 -0.0031818203 -0.0028593559 0.00066646986 0.0018372907 0.0027099831 0.0020969862 -2.2441121e-05 0.003017095 -0.0025508062 0.0012994887 -0.0006276908 0.0013003611 0.0024624888 -0.002114113 0.0016090766 -0.0029800797 -0.0004816365 -0.0027362513 -0.0020858282 0.003360539 -0.0007322408 0.00094970124 0.0032390456 0.0034746232 -0.0025163847 -0.000863617 0.003703649 0.002394994 -0.00024211552 -0.0030715454 0.0014773876 -0.0026077623
„ 0.002717252 -0.0011394935 -0.00032479435 0.00035710324 -0.00034482946 4.6106874e-05 0.0025588346 0.0009971949 -0.0010710598 -0.0006335857 0.0022141403 0.00045090102 -0.00034247836 0.0033780208 -0.0018067699 -0.0005797578 0.003308849 0.0024628334 0.0006056047 -0.0033996953 0.00032527937 -0.0010330485 0.0032041098 0.00079025875 0.0003909193 0.00071561284 -0.00086721056 -0.0017952288 -0.00020919781 -0.001007081 0.002349987 0.0029183074 0.00017600963 0.00089453364 -0.001883452 0.0008460182 -0.0019163457 -0.0031301107 -0.0020275838 -0.0030402953 0.0019257298 -0.0021506893 0.0029298428 -0.002307326 0.0015650695 0.0035246692 -0.0024413539 -0.003066099 -0.0010441008 -0.0007353355 0.0002863768 -0.0026132597 -0.003044415 0.0010516285 -0.0027394143 -0.0026071044 -0.00049382786 -0.0026905318 -0.0022439081 -0.0027777182 -5.1792176e-05 -0.0016182384 0.002045348 0.00067995884 -0.0012488404 0.00242315 -0.0020420696 -0.0012589119 -0.0028995671 -0.0013807 -0.0005467482 0.0023256207 -0.0006493209 0.0013438063 0.002803513 -0.0022138958 0.0013694403 0.0022332172 -0.0011590207 0.0025389353 0.0019437317 -0.0022674305 -0.0024977878 0.0015618289 -0.00029386106 -0.002240862 0.0031598755 -0.0015905278 -0.0016182591 6.860758e-05 -0.0004993682 -2.9835655e-05 -0.001023218 -6.138111e-05 0.00034636978 0.00086050655 0.0030321823 -0.002155411 -0.000698585 0.0019175992 0.0028356137 -0.0013330149 0.0031958807 0.0030534596 -0.0014199358 -0.0003116012 0.0016150482 -0.0011192869 -0.0023733452 -0.0022745733 -0.0006640662 -0.00021107662 0.0013921704 -0.00076181797 -0.0002913169 0.0010759655 0.0018470146 8.440892e-05 -0.0020752917 -0.0036887897 0.00012890992 0.0027525292 0.0008702716 -0.0032438054 -0.002598023 0.0026639828 -0.001461721 0.0016910157 -0.0023970385 0.0033596738 -0.001991942 0.0014298614 -0.00023006261 -0.0029632899 -0.0012398318 3.0325791e-05 -0.0019967589 -0.0006482913 -0.0029858826 0.00033342917 0.003309048 -0.0014465724 -0.0005355931 0.0013162277 0.0030541196 -0.002389239 -0.0025455933 -0.001324253 0.0033969388 -0.00012650725 -0.0029372144 -0.0009427193 0.003252868 -0.0027028143 -0.0017391285 0.0031701326 -0.0036197966 0.0011107065 -6.7873865e-05 0.0027055156 0.0029321273 -0.0010003126 -0.001645969 0.0030647055 0.0007022907 0.002248132 -0.003051642 0.0033105228 -0.00070065423 -0.0014240303 0.00047934972 -9.623085e-05 0.0018417359 -0.0007470877 -0.001193095 0.00079967355 0.0024940125 -0.0018739771 0.0009921908 -0.0025376666 -0.002399248 0.00020713099 -0.0036389164 0.00077781605 5.068186e-05 -0.0009321486 0.0024299999 0.0036825445 0.002912749 -0.0011233998 0.00093682244 -0.0013922194 -0.0032065397 0.0019546049 -0.0004705049 -0.0006519654 -0.0006076073 -0.0016652687 0.0012928713 -0.0014360172 -0.003506012 0.0028123634 0.0012249053 0.00308865 0.0025480583 0.0010891948 0.0032888707 -0.001265777 -0.0022793394 0.0013835693 0.0010139432 -0.0021908644 0.0033206576 -0.0014498382 0.0032685574 -4.6301746e-05 -0.0025254774 -0.0012982413 -0.0029393276 -0.0013380477 0.00046170314 0.0032797633 0.0030772558 -0.0026447217 0.0009558766 0.00046154828 -0.0006739758 -0.0031674763 0.00021228092 -0.0024969236 0.0023839974 -0.0019835024 0.0018956389 0.0036027438 -0.00049518916 0.0017782382 -0.00071174605 0.0024310034 0.0014914215 -0.0036231794 -0.00057101884 0.0011553178 6.140384e-05 -0.000244721 -0.000169478 -0.00096030097 0.0003076814 0.0010753267 -0.0014050303 -0.0012341368 0.00037403224 0.00038250053 0.00016420259 -0.0016716707 0.00090597034 -0.00075496803 0.0012337265 0.00024938665 0.0014791598 -0.002510022 -0.0021828923 -0.0012917995 0.0035997496 -0.0013283325 -0.0038516698 -0.00028789195 -0.0011312884 0.0023080842 -0.003885014 0.001219758 -0.0031759136 0.00023214158 0.0020354334 0.0026403705 -0.0023461927 -0.001760773 -0.0017875307 -0.0024776733 -0.0038529967 -0.00069548906 -0.00026129666 -0.002337705 0.0020604266 0.0005513207 0.0017224884 0.0006582665 -0.00010730396 -0.0022029611 -0.00083787023 0.0014415667 -0.0015101468 0.0008382923 0.0011539682 -0.00037603657 0.0036871717 0.0034531183 0.0010858873 0.0021906192 0.0024412214 -0.0022303895
“ -0.0016849932 -0.002044541 -0.0025977313 0.0027462244 -0.0008012285 -0.0024753427 -0.0011496533 0.0022098913 -0.0009486653 -0.001314636 0.0006722225 -0.00093644136 -0.00058055436 0.00048773427 -0.001056281 0.0026980783 0.0014306599 -0.0032003198 0.0021379597 -0.0024674255 0.00025627954 0.0013378862 -0.0016386836 -0.00053719233 0.0026520274 -0.0014718464 -0.002687741 0.0030517764 -0.00085028814 -0.0017585636 0.002922784 0.001383748 0.0016444679 0.0030616797 -0.0027568287 0.0019127282 0.00087645586 0.0012963844 0.000533174 0.0014697213 0.0012559164 0.0019296905 -0.0009655119 -0.0014742733 5.883343e-05 0.0009958261 -0.0010186571 0.002154273 0.0015858684 0.0026818574 0.0010411018 0.0028686156 -0.0005342838 0.0027438295 0.0012573621 -0.0024769313 -0.0011484207 -0.0007198782 0.0017053247 -0.00029432372 -0.0009150227 0.002560736 0.0030105736 -0.00043733174 -0.001781475 -0.0013479922 -0.0016476837 -0.0030560174 0.00021610205 -0.0013720308 0.00085441984 0.0019367439 -0.0012069979 -0.0033417006 0.0007485925 -0.00210846 0.00077736087 -0.0011547761 0.0022739368 0.00037111845 0.0011313816 -0.00094470434 -0.00069671136 0.0029337988 0.0005955706 -0.0020334776 -0.002630201 0.00045102157 0.0024076665 0.0018920731 -0.002818687 0.002798496 0.0014106125 0.002523787 0.0035493185 -0.0021500776 -0.0028610835 0.001828696 0.003035331 0.0011783257 0.0024088814 -0.00044925304 0.0027419839 -0.0030105764 -0.0026329595 -0.0024109504 -0.00124058 0.0017743508 -0.001504351 -0.0028125453 0.0026024294 -0.0013102267 0.0028095315 -0.0016037752 0.0011896573 0.0017718594 0.0009208949 -0.000892762 0.0009888933 -0.003073152 -0.0008816827 -0.0006342231 0.0026184882 -0.0012753312 -0.0021590423 0.0016743613 -0.0002577277 -0.0014040296 0.0022195103 0.0015488389 -0.0012122449 0.00042222 0.0031086933 0.002229363 0.002051826 0.0017453571 0.00069122354 -0.0007428292 -0.0023275414 -0.0003572913 -0.0004159354 -0.0004944549 -0.002203045 0.002580597 -0.002115859 -0.0025945585 -0.0010405465 -0.00067996135 -0.002379273 5.743878e-05 -0.001779069 -0.00066293776 -0.002428052 0.0005617473 0.0011437627 1.0990488e-05 -0.0021183465 -0.00067829044 0.0021974947 0.0014905313 -0.0029104813 -0.0011590282 0.0006169146 0.00076557155 -0.0031616462 0.0015944507 -0.0028363864 -0.0024040546 0.001054628 -0.00086366734 0.0009590341 0.0029807927 -0.0010532755 0.0031158691 0.0006453095 0.0032716151 0.0017696744 -0.003188653 -0.0010592389 0.0021941112 0.0017665472 0.0030993982 0.0019796218 0.0025966822 -0.0034916208 0.0013621543 -0.0013006476 0.0013925048 0.0020433718 0.0012212427 0.0026392357 0.0004813173 -0.0006335446 0.0018863832 -0.0017841477 -0.00017884531 0.003154898 -0.0018785424 0.0012281653 -0.0027274368 0.0030969202 0.0026660617 0.000337439 0.00171525 0.00064516155 -0.0020781436 -0.00046230835 0.0022505692 -0.0015593414 -0.0013529592 0.0015307384 0.0007365675 -0.00055555603 -0.001108873 0.0020432745 -0.002077086 -0.00127953 -0.0024950134 -0.0016408262 -0.003033266 -0.001473433 -0.0027765767 0.0004332639 -0.0030865357 -0.003396534 -0.0028907133 -0.0021823314 0.0021536613 0.0011825113 0.00019934932 -0.0008518063 -0.0024899172 0.00020320868 0.00033653842 -0.0001895813 0.0004505497 0.0002116744 -2.759345e-05 -0.0025691488 -0.002301795 -0.0026548873 -0.00048270833 0.0006511581 0.0025404254 -0.00056874607 -0.0009608231 0.0032097227 -0.0001288285 -0.0008082558 0.0029055588 0.0010702668 -0.0016427977 0.002299907 0.0014803587 -0.0026378941 -0.00012472614 0.0005254663 0.0019217598 -0.000824088 -0.0010465006 0.0006727615 0.00038806332 0.00063666684 -0.0012878076 -0.002350015 0.0023773406 0.0026813168 0.0029141419 -0.0031908306 0.0009901529 -0.0012200043 0.0031459313 0.0009906177 0.0016421804 0.00092331483 0.002301062 -0.0016699459 0.002704563 -0.0011242457 -0.0015131612 -0.00064796297 0.0032842024 -0.0023997847 -0.0006496539 0.0022280735 5.426687e-05 -0.0022815913 -0.0020067962 0.0029275601 0.0021282963 0.0016688997 -0.0008499871 -0.0029847631 0.0013450752 0.002572882 -0.0015410688 -0.0025267552 -0.0010802824 -0.0014126321 -0.0009604796
, -0.00064209505 -0.0014545306 0.0031927568 -0.0031009878 0.0012835971 0.0015066238 -3.599181e-05 0.003864841 0.003294607 -0.0019759082 -0.0018158075 -0.0022852805 -0.0027478987 -0.00077693345 -0.0020165287 -0.0030365407 0.00047275817 0.0012188066 0.0022359395 -0.001259731 -0.0015529376 0.00020384708 0.0002217836 0.0030149776 -3.170571e-05 0.0023372113 -0.0029772508 0.002736263 -0.0008596013 0.0026224507 -0.0023943083 0.00056263345 0.0006729739 -2.6904396e-05 -0.0015956727 -0.0028333752 -0.002102677 -0.0028612323 0.00057351583 0.00011824983 -0.0009928738 0.0021738724 -0.00065519416 -0.00037603386 -0.002607592 -0.0030169392 0.0031019703 -0.0017261261 -0.0017772525 0.0018642658 0.0025767176 -0.0020221125 0.00019770309 -0.0018999913 0.0005599065 -0.0010514369 -0.0008840517 0.0008731275 0.003005251 0.0022327676 -0.0031810473 -0.0019680057 0.0024722032 0.00081686093 -0.0015320488 0.00053504057 0.003145535 -0.00013618816 -0.0035821407 0.0005959054 0.0021003843 0.0022159412 0.0016063116 -0.0021541812 0.0003006314 0.00022625341 0.0014280966 -0.002508571 -0.002842839 0.00036151128 -0.0029509116 0.0018604936 -0.00039046892 0.003964175 -0.0015592116 -0.00032219218 0.002587462 -0.0012904236 -0.0012128508 0.0006293972 0.0012305279 -0.0009904363 0.002247604 -0.0024815882 0.0016170319 0.00063886447 0.0031984085 0.0018111445 0.0021394521 0.002647044 -0.003064472 0.003321873 -0.0024377801 -0.0006067899 -0.0015842995 -0.0020054132 -0.0025327522 -0.002442441 -0.001942782 -0.00049608375 -0.0020622266 0.0019790179 -0.0032700854 -0.0017405045 0.0029509903 0.0025658412 0.0027710241 0.0014956977 0.00019559567 -0.0025435183 0.0020678611 0.0013161529 0.00290162 0.0019153217 0.0026919506 0.0032985217 -0.003479536 -0.002618788 0.00029314577 0.0025817237 0.0025995784 0.002116025 0.002661663 -0.002302499 0.0020989294 -0.0010096042 -0.0031610467 0.0028754529 6.6497385e-05 -0.0013880181 -0.00061272224 -0.0019582042 0.0014201602 0.0016151157 -0.00074249494 -0.0027850065 -0.0014254564 -0.0004096239 0.0023397433 -0.0012902996 -0.0001051802 -0.000100754914 -0.002276905 0.0005284084 -0.00042916843 0.0009908485 0.0010552866 -0.0006032475 -0.0012513148 0.0030153277 0.0018412014 0.0021944179 0.0012480665 0.0030028918 0.0025216835 -0.0002244438 0.0030078164 0.0016431448 0.0015981641 -1.4740421e-05 -0.0011072857 -0.0014438818 -0.002614686 0.0010111418 0.0031007535 0.0030029546 -0.0009086978 0.0018466243 0.0013581247 -0.0013906193 0.0005413791 -0.0015160756 0.0021475537 0.0016922891 0.00064995367 0.0012539974 0.003550582 0.0028239083 -0.00020126392 -0.0027675088 0.0030384548 0.0023597565 0.00022546477 -0.0005107305 -0.0018259439 -0.0018742637 0.002857848 -0.0011632484 -0.0021818967 0.003286844 0.0023040525 0.0029249187 0.00024628182 -0.0027545935 0.0031155983 -0.0011220922 0.0019542486 0.0016203029 0.0031777727 -0.0031342495 0.0028698933 -0.0033731055 -0.0022078508 -0.0033113658 -0.0017803939 0.0021545133 0.0026946 -0.001690745 0.00082912244 -0.0015369006 0.0027310932 0.0020694113 -3.2269232e-05 -0.0015721204 -0.0025865156 0.0013418541 0.0005867573 -0.0009726166 0.0024790005 -0.0011699222 -0.0028423201 -0.0007844465 9.234387e-05 -0.0019116064 -0.0022281492 -0.0025878728 0.0029911557 0.0024693015 4.2352793e-05 0.0019075843 0.0028895177 -0.0003182468 0.0022820614 0.0014171756 0.0018409998 0.0020953002 -0.0014867513 -0.0009970256 0.00026390588 0.0014713368 0.001430916 0.0019319877 0.0017136392 -0.0028865892 -0.0015085721 -0.0024465905 0.003685961 0.0017052491 -0.00035904982 0.0011574294 -0.0024671194 -0.0019232641 0.0014101925 0.0014874229 0.0007054646 0.0019094658 -0.00036577389 -0.00086814334 -0.0005043765 -0.00088876614 -0.0019614953 -0.0027508226 0.0022260195 -0.00022106344 -0.00043613705 -0.0024172787 0.003541295 0.00040995923 2.0448824e-06 0.00084424985 -0.0024364877 0.00064508955 0.0008025403 -0.002693751 0.0014851056 0.00095135375 0.0021796364 0.0019058416 -0.001108092 -0.002414907 0.0025342584 0.0010312422 0.0019061593 0.0022518928 0.0009784489 -0.0014862529 0.00022214424 0.0026273252 -0.001626808 0.0028239535
von -0.0023722237 0.0016736063 0.00073738705 0.0024767492 -0.00182622 -0.0017925319 -0.0016756477 0.0018121926 -0.0015057785 0.002745869 -0.0012570476 -0.0030586317 -0.0016800563 0.0023406274 -0.0022292617 -0.0019649724 -0.0022667397 0.002180577 0.0011929335 0.0006368756 -0.001065451 0.001822409 -0.0019692262 -0.00041545546 -0.0020808582 -0.00038653775 -0.0008769192 0.002760798 -0.00015926958 -0.0031197993 -0.0017037082 -0.0023473592 0.001186568 0.003100501 -0.0018430995 0.0029601846 0.0030999386 -0.002504182 -0.0029957502 0.0031264822 0.0024513747 -0.0017346948 -0.0021101753 0.002676478 0.0015240879 0.0029018123 -0.0024183108 -0.0030094995 0.00081087195 -0.003142822 -0.0013499985 -0.00093295646 0.0031012013 0.0029665774 -0.0009340256 0.0022422743 0.0029842714 -0.0006236339 0.0032642123 0.002399542 0.0007270926 -0.0013551622 -0.0018274875 -0.00087777036 0.0025359197 -0.0017760443 -0.0010096654 0.0032736873 0.0008007104 0.002090773 -0.0026526097 -0.00015080677 0.0020590795 -0.0017938388 0.0028395487 0.0032992833 -0.0002223686 -0.0005398301 -0.00030502956 -0.0017073071 -0.0028783104 -0.0005681769 -0.0010500688 0.001999979 -0.0021252185 0.0016491985 -0.0022570156 -0.0025501754 0.0032070586 0.0030484858 -0.00090297085 0.0010496415 -0.0018334177 -0.0028555912 -0.0014146435 0.0026376536 0.002360115 0.0029989397 0.0022087127 0.0022780779 0.00051589106 -0.0031738959 0.0016598785 5.8778947e-05 0.0021485027 0.00029950088 -0.0009190009 0.0027218293 0.00016753642 -3.874259e-05 -0.0018408109 -0.0029020277 -0.0026495904 0.0029145123 -0.0031428607 0.0032192958 -0.002913225 -2.0882173e-05 -0.00059972674 -0.0034339728 0.0029426888 0.0026141154 0.001285185 0.0014247444 9.190062e-05 0.0034903837 0.0021754208 -0.0035695129 -0.0016003525 -5.93409e-05 0.0011290406 -0.0012148017 0.00057960866 -0.0031323256 0.00083362433 0.0018636995 0.001529833 -0.0012319374 -0.003127232 -0.0034384008 -6.673969e-05 -0.0029113714 -0.0024330877 0.002178296 0.0025065923 0.00045110777 -0.0028173293 -0.002147635 0.0029305252 0.0010268954 -0.0017637999 -0.0027877782 0.00032140105 0.0010170101 0.0007376421 0.0010762961 -0.0023224277 -0.0034259574 -0.0025940223 0.00043140972 0.0016301117 0.0014638104 0.00040085267 0.0018318568 -2.8159357e-05 0.0014855082 -0.0029622326 0.002658949 0.0018799029 0.0021110764 0.0020511982 0.002834007 0.0004296298 -0.0005644298 0.00027291142 -0.003085056 0.002583568 -0.0022901949 0.0028798378 -0.0013593936 8.6386324e-05 -0.0027921244 -0.0036649834 -0.0027261877 -0.0029201412 2.1256956e-05 -0.0018581107 -0.001335167 -0.0016967033 -0.0017815696 0.0025269245 0.0015682841 0.0025843307 0.0023031475 -0.0017727056 0.002112376 -0.003112091 -0.00095712213 -0.0026442471 0.0013742846 0.00038426372 0.0022402415 0.00087849604 -0.0023022667 0.0028360954 -0.0019100124 0.0030292715 0.0011252192 -0.0013758043 -0.0015886779 -0.0016298572 -0.0023049584 0.0031977282 -0.0011138725 0.0026629933 -0.0034614617 0.00042302976 -0.0008796446 0.002189262 -0.0032852672 0.002549151 -0.0016134044 -0.002043791 -0.0022197636 -0.0012780268 -0.0013543273 -0.00096030795 -0.0025770438 0.00013338191 -5.0769675e-05 -0.00037128144 0.0012320686 -0.0025008284 -0.0008316552 0.0013844771 0.0030603947 -0.003330852 0.0023861935 0.0018955524 -0.0017670552 0.0030554968 -0.0031309025 0.0024773057 0.0018884593 0.0005712121 -0.002010642 -0.0013205624 -0.0013352722 0.0005339807 0.00058513624 0.002733714 0.003522191 0.0031221863 -0.0013867844 0.0028203432 -0.00023546071 0.0019800253 0.0008757203 -0.00055573235 0.0010547248 -0.0016846734 -0.0017746694 -0.0021915687 8.391701e-05 0.0016757274 0.00021884048 0.00066904374 0.0012753659 0.0022259646 -0.002379069 0.00068783545 -0.0026224772 0.0012846508 0.0032984451 0.0026788309 0.0022929362 0.003042681 0.0022902207 0.0018136066 0.0029116604 -0.0016138732 0.0031459471 0.0015181615 -0.0005799694 0.002687749 0.0017980055 0.0029517084 0.0011228442 0.0032136992 0.00038829417 0.00317749 0.0015241511 0.002326328 -0.0011069557 0.0025296947 0.0029091786 -0.0005289971 -0.00073628983 0.0015437085 -0.0025937075
in 0.0032687883 -0.0030474935 -0.0021518364 0.0009299957 0.0019881492 -0.0020075045 0.0012111858 0.0036385027 -0.0022681598 -0.0021039485 -0.0015149253 -0.0012371377 0.0005483293 0.0033908386 0.0020469094 -4.2218817e-05 0.0009822136 0.0029493845 0.0030987996 0.0016246418 0.001951584 -0.002685574 -0.0012097209 -0.0016923241 0.0019964725 -0.00079471385 -0.0030857273 0.0024847887 0.0026375474 -0.0013050431 0.0031326134 -0.00028760103 -0.0009786397 -0.00016206942 0.0001459867 -0.0009845943 0.0011759024 0.0017725538 0.002264355 -0.00297602 -0.0010196717 -0.0019545814 0.0026228554 0.0022009795 -0.0012308852 0.0009521618 -0.0019012656 0.00021902708 0.003373826 -0.0007717577 -0.0015080889 -0.0022958878 -0.0010619042 -0.0002265864 0.0011774404 0.0034983286 -0.0009253116 0.00074011734 0.0033060738 0.00053033984 0.00035009015 0.003192595 0.0029897445 0.0026675279 -0.002133166 0.0035664309 0.0019141588 0.0032016044 -0.00094755815 0.001152254 0.002292296 -0.0012198472 0.0023800237 0.00068686577 0.0033869785 -0.0008640613 -0.0010967598 0.0022008382 -0.0031284576 -0.0022315974 -0.0022388343 -0.00030564537 -0.00095083436 0.0027234189 0.0032249452 -0.0004167685 0.00046949554 0.000716535 -0.00035191944 -0.0026254824 0.0027012136 -0.0015136985 0.0016129198 0.003077922 0.0013557626 0.0013651147 0.001558021 -0.0010191621 0.0011686239 0.00013712967 0.0019253178 0.0019130965 0.0007239738 0.0021125164 -0.0029542386 0.0019432049 0.003168949 -0.0012897748 0.00025378045 -0.0017923728 0.000103528255 0.00085481856 0.0026570498 0.00021629714 0.0007168348 0.000604907 0.002944659 -0.0018349716 -0.002056186 -0.001596429 -0.0007341158 0.0019710932 -0.0024873335 -0.0010903149 -0.0026859571 0.0019936524 -0.0009883712 -0.0032665145 0.0012546135 0.0033148362 -0.00090368645 -0.001750733 0.0010919799 -0.0005837072 -0.0034028736 0.0030477094 -0.0025373856 -0.0017793056 -0.0011323638 -0.0021431078 0.00071577047 0.0028566073 0.001404721 0.0028041643 -3.9459457e-05 -7.4389845e-09 -0.0010395793 -0.0031330711 0.001353728 0.00047599117 -0.0031659687 -0.00192519 -0.003196415 -0.0019974336 0.0013892961 0.0029193533 0.0010037855 0.00068870484 0.00250693 -6.888411e-05 -0.00038018334 -0.0029386098 -0.00021015957 -0.00077278615 0.00013114074 0.0025143558 -0.00227161 -0.001242724 -0.002358492 -0.0008388999 -0.0013811314 0.0007223246 0.0012812039 -0.001641107 -0.0014097727 0.00038840363 0.0016489567 0.0016411295 -0.0009178305 -0.0013897658 -0.0019644597 2.7945485e-05 0.00026371726 0.00041265672 0.0021726596 -0.0009875281 0.00041940427 -0.0015812656 -0.00035308942 -0.002844965 -0.00016624661 0.00042016126 -0.0031170014 0.0028745998 -0.002965592 -0.0034525106 -0.0028544217 0.002356838 0.0017702569 0.0030793182 0.0006573529 0.0002036058 -0.00093585113 0.0031340017 0.0011150324 0.0014365428 -0.00036882033 0.00039107422 0.002167211 -0.00025892557 0.00099052 -0.0004165392 0.0018011143 0.001029181 0.0009122042 -0.001968895 -0.0018034133 0.0010411975 -0.002237402 -0.00028207386 -0.00015238846 0.0012404866 -0.00284898 0.0026689528 -0.0006042946 -0.0019610645 0.0014247397 -0.0007194501 -0.0026767603 -0.0013825132 3.4657343e-05 -0.0030049956 0.00021423938 0.0010135667 -0.0013567928 0.0010263312 0.0007721096 0.0033179594 0.00058396335 0.00028725236 0.0010862359 -0.0007397292 -0.002838963 0.0027736626 -0.0005546732 -0.0034552077 -0.0021163477 -0.0014967376 0.0013157901 0.001718869 0.0022536193 -0.002091694 0.00035167308 -0.00096944335 -0.0020687422 0.002311417 0.0016125353 -0.0010143772 -0.0030654643 -0.0018665307 -0.00016245985 0.0027245195 0.0022872104 -0.0032853603 -0.0035964525 0.0023279141 -0.00056577387 -0.0010412836 0.0015233307 -0.0018011876 0.0016467259 -0.0001765028 -0.0022609131 -9.447957e-06 0.0022542886 0.003224468 0.0010225899 0.0017662073 -0.0020500338 -0.00025096093 -0.0017729508 0.00043247695 -0.0007360428 -0.0011011689 -0.002445659 0.0033044622 0.0007777406 -0.00062383205 -0.0014604492 0.0025702 -0.0020512505 0.0013239327 0.00036599 0.0028416973 0.0025084107 -0.0005743887 0.0009968327 -0.0006389123 -0.002868351 -0.0011020355
eine 0.00045023637 0.0022863238 0.003337367 0.0030211378 -0.0027519767 0.002041696 -0.0017371076 3.9414908e-07 0.0001648754 0.0021359178 0.0015696662 0.0015312834 0.0031206408 0.00021204035 -0.0020641517 -0.002204818 0.002224873 -0.0016664556 -0.00092120876 0.0012058137 -0.00077566237 -0.0020940225 -0.0007349171 0.00051757024 0.0006919232 0.0019997403 -0.001828233 0.0009898155 0.0023163366 0.00060400926 0.001849515 -0.0016319749 0.0021768815 -0.0025590204 0.0012103335 -0.0030068753 -0.0007470013 -0.0031116952 -0.0005542376 -0.0017995661 -0.0014621672 0.0003055058 0.0010002186 -0.00048709297 -0.0025900968 -0.0018757874 0.00033112982 -0.0012452065 -0.0030069365 -0.00020392942 0.0023425038 0.0020923058 -0.0033572768 0.001084344 -0.0019946608 -0.0029283082 0.00015560763 -6.779087e-05 -0.0022750637 -0.0020909351 -0.0007788944 0.00234197 -0.0025639066 0.0026315276 -0.00019942834 0.0004981433 0.0031426032 0.0016659882 -0.0013594116 0.0012800307 0.0011791539 0.00215504 0.00012207603 -0.0015685924 0.00060357834 -0.001705664 0.00043400718 0.0017141299 0.0016470071 0.0031623826 -0.002543245 -0.0018403347 0.002061864 0.0006923696 -0.0021333694 0.00023022528 0.00089836953 -0.0008124405 -0.0014673672 0.0017049084 0.0033332014 -0.0025091986 1.4037141e-05 -0.00082196895 -0.0019278815 -0.00028313833 -0.0016462101 0.0029395542 -0.001990911 0.001245358 -4.2269043e-05 0.0014591197 0.0007760124 0.0034341528 0.00022810246 -0.001966406 -0.00034257598 0.000745751 -0.0012874523 -0.0026473666 -0.0020119909 -0.0022816698 0.0020830098 0.0013241327 0.0026701947 0.002261223 -0.001971848 0.00094364275 0.0028402915 0.00032275068 0.0010469476 0.002100413 -0.002813499 0.0029567804 0.0022892675 0.002993712 -0.0028145902 0.0019271605 0.0021502702 -0.00027517293 -0.0020409336 0.0018796682 -0.0022414397 -0.0020078248 0.0011247388 0.0028287615 0.0028351543 -0.0015379488 -0.0032099648 0.003023547 0.0021824178 -0.0015257207 -0.0028958013 -0.0015253326 -0.001278252 -0.0012221009 0.00018503169 -0.00021647903 -0.0009197473 -0.0021312202 0.0031220159 -0.0017320184 -0.0023800915 0.0024818466 0.0008564484 0.002902229 -0.0017055309 -0.0023664953 0.00022782927 -0.00022620505 -0.0030793194 -0.0005539702 0.0009035567 0.002228609 0.0022984177 0.0011213585 -0.0014509686 -0.0005748952 -0.0013955189 0.0021058086 -0.0022825634 0.0007131295 -0.00037921444 -0.0019352922 -0.002359844 0.0019587968 -0.002879316 -0.00030185442 0.0009807528 0.002604565 -0.0024873244 0.0012229314 0.0030436558 -0.0023677812 -0.0013354515 0.0016605931 0.002002591 0.0006970836 0.0026962494 0.000116148105 0.00071342714 -0.0005565259 -0.00287576 0.0010511334 0.0007156096 -0.0030549152 -0.00022820804 -2.406086e-05 -1.9975474e-05 0.002891359 -0.00093429146 -0.002002617 0.0024356525 -0.0024075918 -0.0028646805 -0.0005640747 -0.0027786787 0.00020501032 0.00063902664 -0.00083618774 -0.0022147235 -0.00020873656 -0.00032876045 0.0010602622 0.0027392958 0.0018504612 0.0026827152 -0.0032107292 0.0029960363 -0.00090772484 0.0029289518 0.0008381256 0.001190208 -0.0033402832 -0.0032264488 0.0029006014 -0.0009200959 0.000899625 0.002089669 -3.293805e-05 0.003322505 -0.00036650657 -0.003209023 -0.0022278153 -0.0005022671 -0.0027924702 0.0024373217 0.0012033557 -0.0028614015 0.0026252416 0.003061906 0.0019190536 0.0023310015 -0.003141295 0.00021859385 -0.003200485 -0.0011899146 -1.9387067e-05 -8.842916e-05 0.0005117015 0.0012105444 0.0007941929 0.0018412002 0.0024926285 -0.0021324148 0.002638348 0.0021726813 0.003266268 0.001378148 -0.0011870227 -0.0012117523 -0.00015158612 -0.00039388565 0.0030299218 0.00013550618 0.0012958911 0.001257667 -0.0028576418 0.0020098905 0.0028065837 -0.00060062273 0.0007175579 -0.0021382861 -0.00198797 0.0028124207 -0.0009415939 0.0024015252 0.00056992244 -0.00089457905 0.0010322252 -0.0013210917 -0.00055841054 0.0003990363 0.0016855237 -0.0005427083 0.00026412163 -0.00277287 0.0032509933 -0.0029582565 0.0023595402 0.0013659982 -0.0021778448 -0.0017042295 -0.0025967627 -0.0015695214 0.0025734343 0.003292158 0.00065889314 0.00036941472 0.0030496113
sein -0.0016217638 -0.0001469074 0.0011386022 -0.0021032838 -0.0034934916 -0.0033882475 0.0033956754 0.0025700517 -0.0016248447 -0.0028394216 0.00063352444 0.00091863476 -0.00051051955 0.00065349677 -0.0015597099 0.0013880688 0.00068667857 0.0031321994 -0.0032782895 -0.002095915 -0.0030696832 -0.0003445595 -0.0025442252 0.002000448 -0.0022564046 -0.002073498 0.0015140251 -0.0028194017 0.00028983544 -0.0026736 0.0034254112 0.002810397 0.0008957609 0.0018605208 0.0016646443 -0.001790817 0.003574998 -0.0033911932 0.002708164 0.0008568778 -0.001389216 -0.0014049186 0.0031857272 -0.0017180762 0.0030637737 -0.0017925814 0.0029229326 1.3914361e-05 0.002941738 -0.00092718616 0.0022979337 0.0032027382 0.00071865786 0.0005328636 0.0016685206 0.0030123747 0.003130566 0.0029864272 0.002438838 0.0026929472 0.0028816955 -9.589214e-05 -0.0004954911 0.0006974711 -8.8323766e-05 0.00053565734 -0.00294673 -0.0029339332 -0.0011439616 0.0030320869 -0.0011848448 -0.002217001 0.0018349235 0.0001148692 0.0010267987 0.0013980786 0.0010696615 0.002093614 0.00033079128 0.0005236133 0.0029290577 0.0008266747 -0.0017715628 0.0028040893 0.0019375045 0.0007813723 -0.0010882065 0.0012093427 0.0025862022 0.0024484843 0.00060423545 -0.0030037274 0.00017603947 0.0001654666 0.0017805584 -0.0026950622 0.0034744944 -0.0024987992 0.0017609771 -0.0031008332 0.0033455815 0.002552942 0.00055637694 -0.00085293315 -0.00013704553 -0.00016044178 -0.0019611167 0.0020903684 0.00038112956 0.0011715412 -0.0027871183 0.0027427173 0.00011001066 -4.076263e-05 -0.0032541705 0.0015503739 0.002453509 0.0025225035 -0.002135024 -0.0031249868 -0.0017434222 0.00021441471 -0.0024446198 -0.0029802981 -0.00057391275 0.00077253813 -0.0033588586 -0.0015266545 9.030782e-05 0.002692424 0.0006959745 4.656478e-05 -0.002364795 -0.002822996 -0.0003065853 0.0028085131 0.0017327286 -0.00070388743 2.2239792e-05 -0.003610101 -0.0002782951 -0.0020899202 0.0017753864 -0.00062727317 -0.001450855 -0.003462926 -0.00060897716 -0.0026927264 -0.00027473358 -0.0016715393 -0.00081456255 -0.0014524204 -0.0026646107 -0.0005648679 0.0006252753 -0.0012935831 -0.0030500044 -0.0013271716 -0.0032702303 0.00014906494 0.0020837542 -0.0010649555 0.00085053616 0.0017884327 0.0027804805 0.0019885378 0.003241006 -0.0030823404 -0.002825288 -0.0017877005 -0.0028787316 -0.0026349346 -0.0023459012 -0.00097324245 0.0005840629 -0.0009572078 -0.0031596976 0.0014682547 0.00037008183 0.0016350442 0.0023033465 0.0028679213 -0.0008390854 0.001045996 -0.0021071956 0.00050814025 0.0021052526 0.0036357003 -0.0010048288 0.0005721048 -0.0017313157 -0.0007906336 0.0023356967 -0.0014263751 -0.00025317998 -0.0034398818 -0.0032161018 0.0028655662 -0.0019521372 0.001667814 -0.0025896486 -0.0009884053 -0.002775111 0.0025290935 0.0023152574 0.0018337519 0.002837378 -9.134976e-05 -0.0031563875 0.003027634 -0.0018356083 0.002350029 0.0019239883 -0.0005725062 -0.0024432836 -0.00073416316 0.0017514146 -0.0028353676 0.000118417935 -0.0029610388 0.0030044892 -0.0008220284 0.0031218778 -0.0022933634 -0.0034131336 -0.0031174626 -0.0012795326 0.0015154344 -0.00015529463 0.0032312255 0.0012846517 0.0012416646 0.0010472583 0.00297902 -0.0011377466 0.0026930373 -0.0032693578 0.0009845304 -5.519833e-05 -0.00035474298 0.0024795372 -0.0010009813 -0.00071619323 6.9202484e-05 -3.9159704e-06 -0.0014755696 0.0021407222 -0.0024309314 0.002642099 -7.008491e-06 0.0011791376 0.0013118219 0.00012405877 0.00049481215 -0.0014840966 0.0015636802 0.0004806338 -0.0010667406 -0.0032716615 -0.00350452 0.00018588587 -0.0017516593 -2.9799554e-05 -0.0020488822 -0.0034217942 0.0002453856 0.002264296 -0.0004581532 -0.0029766518 0.0012779116 -0.00019008228 -0.0019936978 -0.00032876153 -6.117344e-05 -0.0008975298 -0.003173381 0.0029451435 0.0013555306 -0.0013687032 0.002461361 0.0001451878 0.0024960586 -0.00069651153 0.0026770015 -0.0001569816 -0.0018911427 -0.0018702508 0.0033950424 0.0001235321 0.00031180627 0.0029804583 -0.0017323724 -0.00039465283 -0.0026046557 -0.0019596813 -0.0022991733 0.0015255134 0.0007798867 0.002266516 0.0005667682
Correctiv 0.0007177256 0.0020746537 -0.0006854392 0.0010546242 0.002678599 -2.4790583e-05 0.0023021686 -0.0018299258 0.0021750769 0.0015011796 0.0017842241 -0.0033275269 -0.00019450848 0.0011976874 -0.0019950534 -0.0023475331 0.0022318892 -0.0021886993 -0.0016906915 0.0025239848 -0.0023394641 0.0027409561 0.00026310558 0.0016256948 -0.0010521696 -0.0018375719 -0.0031213625 -0.00024140881 -0.0017992829 -0.0011872244 0.0027527716 -0.0025844097 -0.0019340435 -0.0017787912 -0.0021561314 -0.0028209158 -0.00020502064 0.0030590328 0.0026689887 -0.0017881609 -0.0029080391 -0.00084777817 -0.0030250323 -0.0016520015 -0.0018151355 0.0011259922 -0.0024596874 0.0005262327 0.00092112174 0.0018372333 -0.00049981667 -0.0031208587 0.0016857692 -0.0019281649 0.0016372636 0.0008174492 0.003081186 0.00060118013 -0.0005506542 0.0021801752 -0.0023345896 -0.0028302295 0.0011878302 -0.00079520664 -0.0014649127 -0.0004714909 -0.003313788 0.0002203087 -0.00054228667 -0.0009501972 0.00083774206 0.0016147494 0.0022290777 -0.002790669 -0.0014688139 -0.002817981 -0.0030594084 -0.0011485058 -0.000476929 -0.0025964014 -0.0018503936 -0.00074334815 0.0020147883 0.0008720072 0.0028763665 -0.0028497607 -0.0015301435 -0.00021045966 0.003185967 0.00040601287 0.0006619517 0.00035810246 0.0010425766 -0.0031191756 0.0013239282 0.0020640385 0.0018852337 0.0013912658 -0.002764972 -0.001309208 0.0028360987 -0.00012408865 -0.003066132 0.0017432594 -0.0019971991 0.002049839 0.0018830082 -0.0015971777 0.00061294844 0.0017859158 -0.0013817344 -0.00054970785 0.0030198328 0.0030178349 -0.003244094 0.0026317313 0.0033995516 -0.0009060719 0.00084932824 -0.0012199424 0.0029475742 0.0001151637 0.002045206 0.0029921117 0.0014044634 -0.0021735146 -0.0007354068 0.00017357084 0.0006065688 0.0011929215 0.0032411022 0.0015918835 0.0033769459 -0.0032055478 -0.0019475851 0.0008352087 0.0011606951 -0.00043434493 -0.0024830925 -0.0012857709 -0.0027678069 0.0028585817 0.0011291134 -0.0025369858 0.0011461292 0.0012414627 -0.0020025799 -0.0021241878 0.00050232373 0.002836832 -0.0032138943 -0.000209839 -0.0022775314 -0.0003829218 0.0010647108 -0.0016366686 -0.0011952126 0.00012610853 -0.002268488 0.0026473075 0.0015030019 -0.0028665857 -0.00084020785 0.0011152817 -0.002790714 -0.0022883916 -0.002773561 -0.0017652111 0.0028574402 0.0026227369 0.0007354292 -0.0028360656 0.002034835 0.0015497581 9.484103e-05 -0.0029456222 -0.0007488878 -3.141524e-05 -0.0025397418 0.0008809168 0.00010161055 -0.0021842604 -0.0030465098 0.0019320087 -0.002986752 -0.0019183909 0.0021816513 4.501595e-05 -0.0010002953 -0.0019385276 -0.00030988446 0.0017332894 -0.0021693741 -0.0017091113 -0.001581193 -0.0017773019 -0.0026418355 -0.0033099672 0.0024968106 0.0026639563 -0.0015471476 -0.0031890338 -0.0006815786 -0.0012359432 0.0031886504 0.0010098057 -0.0019786265 -0.0010220135 -0.0033089586 0.0006400227 -0.0014419365 -0.0010801355 0.0017465518 0.0024123096 0.0015198762 -0.002413312 0.0020651184 -0.0035113217 -0.0025390554 -0.0028357662 -0.0006963944 0.00021912428 -0.0013037589 0.00040452505 0.0029684622 0.0020870767 -0.00028526314 0.002977938 0.00048382545 -0.0005802715 -0.0020631985 0.0021468794 -0.0030003998 -0.00048939046 0.0023434502 -0.0007401141 0.00050590804 -0.0024721297 0.0017492959 0.0021722189 -0.0029702294 -0.0011432109 0.0026653404 0.0010532881 8.633873e-05 -4.7701593e-05 -0.0032607531 0.0031865814 -0.00066404184 -0.001596525 0.0010713694 0.00047146206 -0.0018541685 0.0019029616 -0.001070954 -0.0020727871 0.0026411638 0.0021772215 0.0027313267 0.00028523256 0.00022492648 -0.0025540423 0.0017390747 0.0027921884 -0.0005012493 -0.0006296794 -0.0011112705 -2.7738877e-05 -0.0028382288 0.0020021668 0.0004374152 0.0030105708 -0.0021229407 -0.0016094648 -0.0019827285 -0.002337953 0.0011539025 0.0017001274 0.00016676016 0.0011835437 -0.0031176698 -0.00028602596 -0.0026915832 0.0010672382 -0.0009816079 0.003019581 -0.001311638 0.002373826 0.001335009 0.00044879652 8.1513135e-05 0.0029356757 0.0008953397 0.002808855 0.0012593381 0.0020890697 0.0018167342 -0.0026170192 -0.0017057555 0.00027198295
auf 6.866016e-05 0.0008084018 0.00036540473 0.0025405881 -0.0015547032 1.267208e-05 0.0024593864 0.001015286 0.0014173364 0.0013911661 -0.00035200722 -0.0027827988 0.0009889376 -0.0028724407 -0.0009316255 -0.0032002388 -9.630668e-05 -0.002568346 0.0024998686 -0.001748003 0.0032994857 -0.0030678252 -0.0014231754 0.00075450394 -0.001035024 0.0004601739 -0.0012905021 -0.00032267298 -0.0019763655 -0.003348 0.0021638838 0.00010913511 0.0022639243 -0.00251442 0.0012619962 -0.003233399 0.0026424322 0.0019144381 -0.0020299144 0.0027122395 -0.0019875555 -0.002913102 0.00055229344 0.0010868629 -0.0025940957 -0.002904588 0.0030947602 0.00062105776 0.00038909545 0.0008675556 -0.0010657915 0.0006664435 0.00060519145 0.0032892865 -0.0018572554 0.0008632921 0.002196254 -0.002181598 -0.0029524246 0.0028977408 0.0022834176 -0.0013670793 0.0018641546 0.00030772077 -0.0017137972 -0.00033788462 -0.0016523274 0.0021204683 0.00052716234 -0.0027479143 -4.7543403e-05 -0.00084881246 0.0022653348 -0.00046679788 0.0026933686 0.0007140746 -0.0013127208 0.0027826698 0.00094191544 -0.0012567552 -0.0018939446 -0.0010619545 -0.0017925046 0.0013460751 -0.003016716 -0.0019817138 0.0011081129 8.132374e-05 0.0021528995 -0.0011599251 9.576635e-05 0.0007693723 0.0018551808 0.00055815245 0.0034110344 0.0013858024 -0.0023195061 -0.0005277629 -0.0028268178 -0.0017701958 -0.0006864204 -0.0031918692 0.0031396854 0.000766135 -0.00039025943 -0.0019342883 -0.0027891572 -0.0032518748 0.0028583931 -0.00084982766 0.0014036996 -0.0015323871 0.003301577 0.0012241595 0.00028052588 -0.0012808372 0.0004682275 -0.00085043366 0.002449909 0.0013328148 0.0003582141 0.0013071423 0.0013341972 -0.002331087 0.00299973 0.00069315004 -0.0019963735 0.0027856175 -0.00046549138 0.0028685795 -0.00045286852 0.00241385 0.0009569409 -0.0016390263 -0.0012747619 0.0031848694 0.00051419425 -0.0020581805 1.9147446e-06 -0.0007876194 0.0005868986 -0.0027452568 0.0024114747 0.0004794765 0.0026648308 0.0013944125 -0.0015388685 0.0011621407 -0.000112752656 -0.0033882954 0.002736744 0.003095933 0.0032336265 -0.0013167169 -0.0027981263 0.0016320356 -0.002712254 0.0027945219 0.00082905986 0.0019951398 0.002082076 0.00014741048 -0.0007641878 0.00029982568 0.0032772191 -0.002334945 -0.00049759314 -0.0007457286 0.0015551631 0.0022961271 -0.0015090993 0.0012107994 -0.001418662 0.001090887 0.002765237 0.00121151 -0.0015983157 -0.0010644863 0.002648084 0.0032473372 0.001912624 -0.0010009727 -0.0007888438 -0.0021277384 -0.0015573979 0.0010879732 -0.0019724013 -0.002092493 0.002731588 0.0030663318 0.0027820147 0.0004886777 -0.0030445454 -0.0025658524 0.00055396836 -0.0032935562 -0.0024904653 0.00064850086 -0.0009936461 -0.0030528058 0.002057813 -0.00303789 -0.002469504 -0.00057703484 0.00066434965 -0.00031774255 -0.0017256688 0.0022398634 0.0029144355 -0.0024669645 0.0032055248 0.002373147 -0.0024692505 -0.000700625 0.0014491495 0.0022728518 -0.001333407 -0.0024975003 0.0014565748 -0.0031182119 -0.0019047564 -0.00037226544 0.0018255142 -0.0020238392 0.0015496941 -0.00022330851 0.00091971125 0.0021236988 0.0004489115 0.002622982 -2.3618235e-05 -0.0027543132 0.0030730488 -0.0015384717 0.001449986 -0.0012333461 -0.002475548 -0.0021686563 0.0016071015 -0.0003752152 0.0005490799 -0.0029883338 -0.0016881621 -0.0019658054 0.0028506392 -0.002989017 0.0016994274 -0.00037300383 6.938867e-05 0.0029538602 -0.0011002156 -0.002232593 0.00031782576 0.0025521384 0.0029052997 -0.0012317607 0.0010425223 0.0016610313 -0.0018915086 0.0022166814 -0.0021436415 0.0007575618 0.0016386443 0.001252626 -0.0017349545 0.00085222494 0.0025374526 0.0029512106 -0.0033558751 0.0019240158 0.0016234721 -0.0005733153 0.0030700562 -0.00134634 -0.0005268904 -0.0022335702 -0.0011221739 0.000117157455 -0.0012689198 -0.0017976009 0.0021803689 -0.0017364854 -0.0021732254 0.0026066045 0.003158731 0.0013765577 -8.319518e-05 0.00032196156 -0.00034776577 0.0022852877 -0.0020356486 0.00028518526 0.0014947113 -0.00066213513 0.00039177987 0.0014112251 0.0033170292 0.00069522555 0.0032887987 -0.0020463467
haben 0.0015897473 -0.0010664123 -0.0013875695 0.0004218381 -0.0014918601 -0.0020122447 0.00121623 0.0031412265 -0.0021939825 -0.0030932846 -0.0010365248 0.0024940602 -0.0032753404 0.0033191266 -0.00018362637 0.0006603767 -0.00054081663 -0.0018422036 0.0010616418 0.0019038229 -0.002378699 -0.0004708828 0.0005417313 0.0015686671 0.0023161576 -0.0011809941 0.002312564 -0.001884058 -0.00081242307 0.002902371 0.0018525748 -0.002852231 -0.0004328194 -0.002970902 -0.0004921566 0.0019696958 -0.0023381598 0.0017501832 0.0020282627 -0.001281883 -0.003386356 -0.00093314046 -0.0007872774 0.001292202 0.0031278268 0.00076681754 -0.00065198605 0.001076735 -0.0021318588 -0.00038921376 -0.00033795813 0.0033153787 -0.001991542 -0.002306791 0.00079319155 0.0010333938 -0.0022683265 -0.0018785862 -0.00034827073 -0.0010926658 -0.0029713511 -0.0013904517 -0.0010614018 0.002237536 0.00027684282 0.0006634923 8.167091e-05 -0.0010115007 0.0008537348 0.000281298 0.0020029892 -0.00020824482 -0.0028631622 0.00017026547 0.0034843746 -0.0016360483 -0.0017973855 -0.00075139885 0.002800846 -0.00018167582 0.0030894708 -0.0028197267 0.002910656 -0.0029532623 0.0031644152 0.0005534176 0.00089559844 -0.0019050062 0.003029406 0.0020604157 -0.0016790852 -0.0032462657 0.0023679272 -0.0018211743 -0.0029115297 0.0010710759 -0.0015388045 -0.002519013 0.0031940774 -0.0004977432 -0.00044263236 -0.0012760555 -0.001408685 -0.001419867 -0.0018579789 -0.0019047427 -0.0026111482 0.0032394854 0.0019412935 -0.0012211201 0.0006413309 -0.0025588276 0.0024666095 0.0027691778 0.00018090983 -0.0021877612 -0.0009094778 0.0016126768 -0.00096649624 0.00082381413 0.0031940255 0.0016458655 -0.0015921924 0.0017498832 -0.00094219705 -0.0019512917 0.0022431384 -0.003234893 -0.0004429952 -0.00027663438 -0.0027380812 -0.00025149714 0.0019221191 -0.002025386 -0.0023714087 0.0022342221 -0.0011753655 -0.002670392 -7.042453e-05 -0.0002009976 0.0026014599 -5.073598e-05 0.0025410245 -0.0032066463 0.0013948141 0.0019351325 0.00023240258 -0.0010663961 0.0004817149 -0.000435107 -0.0027125566 -0.002429882 0.0004278139 -0.0007511849 0.0032083737 -0.0002770433 0.0017884341 0.00060053176 0.0025552388 -0.0029236255 0.0008631786 -0.0005010476 0.000625793 -1.1471736e-05 -0.002195684 0.003071925 -0.0009085278 0.0006940076 -0.0022529124 0.0014400504 0.003138471 -0.0003845893 0.002277661 -4.964381e-05 0.0026999027 0.003221828 -0.00025180078 -0.0006223659 -0.0031223951 0.0033407102 -0.0008945293 0.0008535983 -0.000816974 0.002710921 0.0026014438 0.00044225994 0.0012658832 0.0023307244 0.0007823489 0.0019900468 0.00014672431 -0.00078557245 0.0016150237 -0.0011881657 -0.0008365838 0.0027617624 -0.0030708057 -0.0011835593 -0.0009939917 0.0019024075 0.0025536153 -0.0022110078 0.0018984553 -8.876873e-05 -0.0028688645 -0.00079488714 -0.0004993947 -0.0014072128 -0.0002857814 -0.0017530083 0.0018807241 0.0029468853 -0.0005003811 0.0010154109 -0.00020737025 -0.0003579192 -0.0024820191 0.00022362736 0.0011357048 0.0021453437 0.0022631322 0.0012325147 0.0015470217 -0.0026591872 -0.0005595073 -0.002041465 0.002319657 0.0025777868 -0.0014546138 0.00045441565 0.0018114625 0.0005950867 0.00027794405 -0.0021398072 0.0031195527 -0.0023186891 -0.0020336774 -0.0018830033 -0.0020456016 -0.0013904123 -0.003006209 0.0003552232 -0.0012193809 -0.00077048555 0.0019966057 0.0010446522 0.0006266511 -0.00057576626 0.003295911 0.00012719944 0.0018119089 0.0031247651 -0.003141149 -0.0030840812 0.0031175062 0.0009057602 -0.00041636557 0.001605327 -0.001614158 -0.0022242072 -0.0027245218 0.0024681166 -0.0006571865 -0.0027967063 -0.002206526 0.0020162826 -0.00068644894 -0.0019488634 -0.0008021417 -0.00040447176 -0.0011453715 -0.0007837715 0.0013779917 0.00054860493 -0.0010761016 0.00097006344 0.0019395417 -0.0030013148 -0.0027769376 0.0021253757 -0.0029834798 0.00026200086 -0.003084311 0.0028592297 -0.0015093635 -0.002154523 -0.000600224 -0.00027268703 0.002466659 0.0030337546 -9.267407e-06 0.001057794 0.0016651637 8.743077e-05 -0.0017903288 2.7551114e-05 0.0008431579 0.0027083063 -0.0010177181 -0.0034059116
Deportation 0.0018126769 0.0035503618 -0.0023213043 -0.00018473515 -0.0019324984 0.0018590434 0.0036491316 0.0006904569 0.001731567 0.002081126 0.0016773131 -0.0027151154 0.00094661216 -0.00027619707 -0.0008466481 0.0015734882 -0.00023603889 0.0034721773 -0.00014896611 -0.00023914817 -0.00078338844 -0.0030498698 -0.0032152715 0.001971284 -0.0022915544 0.0009114195 0.0007348473 -0.0024537812 -0.0012655711 -0.002207332 -0.0027466302 -5.1635554e-05 0.0035809863 -0.0023053174 -0.0013156773 0.0030065042 0.003441478 0.0030798009 -0.0032957841 0.001637946 -0.0026252845 0.0021209752 0.002183639 -0.0010420891 0.0026030033 -0.0024218063 0.0016331908 0.001743303 0.0023171422 0.0020795143 -0.0005689111 0.0015526584 -0.0021700058 -0.002071409 0.00090613373 -0.0028307573 0.00017505084 0.00051146455 0.0027568894 -0.0022980194 -0.00074824307 -0.0014353995 -0.0018719604 -2.6795122e-05 0.0014166525 -0.0013347118 -0.0006118793 0.0031245316 -0.000830498 -0.0011275582 0.002507933 0.0005293015 0.00010322265 0.0029022305 0.0031055945 0.0013389295 0.0009935093 -0.0005970533 0.0025783693 0.0019614007 -0.0018851252 -0.0021215423 -0.00038484673 -0.0020540033 0.0013311595 -0.0032428466 -0.00053679803 0.0012126266 0.0014825911 0.0011678721 -0.002723676 0.0009890001 0.0019162585 0.0011878621 0.0030745352 0.0009940594 0.0023199553 0.0027353158 -0.00043444586 -0.00022834596 0.0008355671 -0.0023847523 0.0020385094 -0.0014088042 -0.0010384574 -0.00093928946 0.0028841826 0.00090579595 -0.0007244038 -0.001034081 -0.0010664269 -0.00054204115 -0.0017441374 -0.0013258094 -0.00014123552 0.0017359742 0.00078399736 0.0024127106 0.00025909644 -0.0015825959 -0.0023653547 0.0024204142 0.0026278978 -0.0022216325 0.0016083287 0.0035198177 -0.0022918663 -0.0012481528 -0.0031752633 0.0015026303 -0.0009829093 0.00093913364 0.0032475595 -0.0033587446 -0.003222337 0.0009184504 -0.0027797893 -0.003238812 -0.0034738556 -0.00051989185 -0.00015489667 -0.00028552237 -0.00060238445 0.0031182696 0.0030714846 -0.0024468442 0.0027111452 -0.0032925957 -0.00016117489 0.00052569754 -6.196413e-05 -0.0016390026 0.00019785423 0.00020279316 -0.0030780728 -0.0015893476 -0.0030644233 0.0011317413 -0.0005290162 -0.0021066226 0.001986077 4.3424072e-05 0.0006616561 0.001907391 -0.0014191965 0.0027325435 -0.0025228113 -0.0010615126 -0.0026388334 0.0008034614 -0.0028795023 0.0030670853 0.0020813514 -0.002390896 0.0021944854 0.002221849 -0.0026993225 0.0013742591 -0.0024928914 0.0032136166 0.0014796864 0.00023025548 -0.0035501241 -0.00042235942 -0.00048861763 0.00020838146 0.0034909414 -0.00059979246 -0.002820085 -0.003349388 -0.00017500628 0.00041293964 -0.00035772307 -0.000846542 0.0030020215 -0.00031736615 0.0021098515 0.0012053796 -0.0024478536 -0.00071433943 -0.0028466322 -0.0024083375 -0.0011577086 0.002202539 8.221482e-07 0.0030582033 -0.0007614829 -0.0016112251 0.0013041656 0.00073985435 -0.00029564227 -0.0010830497 -0.0019320899 0.0011307232 -0.002454408 -0.0032006535 -0.0033725451 0.0022877909 0.0009728903 0.0020729068 0.0034028478 -0.0022895501 0.0013227416 0.0005530554 0.0018936364 -0.0013802106 0.0032070868 -0.0019968871 0.002252044 0.0024975305 9.241095e-05 0.0016623738 0.0022469652 0.0007759281 0.002091619 0.0010203426 -0.0006140666 0.002423726 0.0017159373 -0.0015433775 0.00072397647 -8.687797e-05 0.0017277667 -0.0016972331 -0.0012371861 -0.0006160822 0.0013541303 -0.00244502 0.0026480297 -0.0009842741 0.0022325371 0.0011990883 0.002452506 -0.0015386579 -0.0014915181 0.0009952076 -0.00050598226 0.0020026255 -0.002395782 0.00067489606 -0.00018356476 -3.9977203e-05 0.0011998288 -0.0013450735 -0.0019884293 -0.0029173945 0.0011194063 0.0020229316 -0.0024829586 0.003276621 0.0012763331 -0.0018864986 -0.00042196672 0.0014620486 -0.0021866804 0.000866978 0.0022474807 0.002198401 0.0012833482 0.0012275188 -0.00092372455 -0.0019511692 0.0025393774 -0.002273152 -0.00070578285 -0.0009709344 0.0018626503 -0.0018967434 0.0010644037 0.0006796547 -0.0012011344 -0.0023967742 -0.002523026 0.0012720429 -0.002901255 0.002453874 -0.00073304505 -0.0031982309 -0.0013240363 0.0022777691
( -0.0005598459 0.002336553 -0.003087045 -0.0030309253 -0.0018816773 0.000104644445 -0.0021108973 -0.0025713015 -0.0029626093 -0.00023463437 0.0026128157 -0.002808715 -0.0018400704 0.0006754776 0.0010046738 -0.002996857 0.0027751557 -0.002596616 0.0016295185 0.00288344 0.0018741806 0.0018860076 0.0028104933 0.0013511175 -0.0024406048 0.0018552624 -0.00292598 -0.001944957 0.001820895 -0.0028360316 -0.0018561684 -0.0012232328 0.0013475856 0.00169628 0.00076899474 0.0018621306 -0.00063420495 0.0013310689 -0.0023926774 -0.00055883935 -0.0028671913 -7.8502235e-05 0.0016947653 0.0016508477 -0.0013372148 0.0007471767 0.0027016152 -0.0017204061 -0.001022448 -9.441067e-05 -0.0013625964 0.0030863937 0.002432399 0.003145506 0.0031337459 -0.0025696787 3.4322627e-05 -0.0024305275 -0.0015208955 -0.0029358948 0.0011791989 -2.7608367e-05 -0.0024040907 0.002759497 0.00024350257 0.00033163629 -0.0012035292 -0.0009410751 -0.0011605665 0.0025730177 0.00081768085 -0.0016587101 0.0017397581 0.00017518993 -0.00062568474 0.0027308771 -0.0013815466 0.002616174 -0.0015103761 -0.002284229 -0.0015767385 -0.0013493944 -0.00039876264 -0.00018012724 0.0018382833 0.0017104233 -0.00059069914 0.0012700971 -0.00036252927 0.00028650442 -0.0002444313 -0.0009151207 -0.0014936399 -0.0013656184 0.00038747877 0.0008673331 -0.0029742166 0.0019025732 -0.00066010497 -0.0009922138 -0.0015410521 -0.0013618798 -0.0014861359 -0.003075701 -0.00022005383 -0.0028321687 -0.0015147278 -0.0023370904 0.0030497548 -0.00051066244 -0.002821957 0.0017936022 -0.0027404136 -0.0006029645 0.000767733 -0.0022011716 -0.00276389 -0.0021544772 0.0025236874 0.0026711682 0.0013605844 0.0010929204 0.0016148573 -0.0015195633 0.003314693 0.0025751058 0.0012527428 0.0027503432 -0.0028861724 0.00060901523 0.0030443715 -0.00013418127 -0.002160867 -0.0011797375 -0.0009980705 -0.00059933384 -0.00071509584 0.0022889385 -0.00033309788 0.0010919895 -0.0011111846 0.00237737 -0.0022840558 -0.00300329 -0.0012901628 -0.0026675456 -0.0017777202 -3.5126985e-05 0.0009756482 0.00034568293 0.0016584948 -0.00072375697 0.00079730863 1.1651957e-05 0.0026608203 0.0027005589 -0.0010246675 0.00031787608 -0.0022005117 -0.0012963136 -0.002236444 -4.73262e-05 -0.0018104544 -0.0012818371 0.00051252084 0.00095503265 -0.0029658964 0.0006492864 0.0015880165 0.001705968 -0.001256895 0.0031758258 0.0033069896 -1.1412609e-05 0.00039091328 -0.003074505 -0.0017760174 -0.00017259487 0.0014137763 8.959637e-05 -0.0030038129 0.0021638412 -0.002841987 0.0027494144 0.0015640937 -0.0023348385 0.0013707319 0.002812889 -0.0019912221 -0.0024501395 0.0032300928 0.000574382 0.002982181 -0.0033423214 -0.00038742155 0.0020530163 -0.0005212157 -0.0006469131 -0.0024157513 -0.0019082954 -0.0023606992 0.0028824222 -0.0006272418 -0.0027331102 0.0028622493 -0.00089719956 -0.00042273226 -0.0001112249 0.00091187045 -0.001592253 -0.00019036417 -0.0011182126 0.0029908011 0.0021113346 0.00041048767 -0.0022055488 0.0007976044 1.08913355e-07 -0.0022981272 -0.0021225738 -0.0009845535 0.00087885687 -0.002739604 -0.001923792 0.0025982512 -0.0014103062 0.0027199055 0.00010851319 -0.0019434188 -0.0015458732 6.835626e-05 0.0015041899 -0.0020005556 -0.0016505956 -0.0025371895 0.0024236622 -0.0008688168 0.0013450867 -0.00043295982 -0.0028393047 -0.0002577516 7.6662196e-05 0.0012487172 -0.0027895216 -0.0021683013 -0.002415529 0.0010654853 -0.0014194113 0.00033455965 0.001425342 0.0017226794 0.00093024794 -0.0008417973 0.00017426968 -0.0021123702 -0.0021376254 0.0031994605 -0.0013337012 -0.0034017526 0.0011173774 0.0028775984 6.3093496e-05 0.0010260358 -0.0016449686 -0.0018122187 -0.0029360715 -0.0024116312 -0.002839476 -0.002370665 0.0029588426 0.003106112 -0.0006476025 3.6977264e-05 0.002712396 0.00056704786 -0.0016007937 0.0011546455 0.00068332575 -0.0016211354 -0.0016224582 0.003234756 0.002599595 -0.0029994335 -0.0017296633 0.00035700627 0.00040492057 -0.0029921252 0.0032535195 -0.0018581781 0.0015353459 0.0031772817 0.0006322958 0.0015079159 -0.0008054155 -0.0030102562 0.00059109705 -0.00022608045 -0.0033991928 0.0026160327 -0.0026947116
) 0.0017414276 -0.0013598398 -0.003051668 -0.0030164293 0.0019740826 -0.0018790776 0.0019146948 -0.00018684953 0.0032189274 0.0023481278 0.0033953036 0.002791339 -0.0026750427 -0.0030807175 -0.001917098 -0.00034966387 0.0017527625 0.0012895116 -0.00065829896 0.0015237981 -0.001135558 -0.0023532258 0.0016130559 -0.0031589638 0.00026246952 -0.0017175983 0.0024416836 -0.0012944541 0.0008585936 -0.0022032873 0.0032557868 -0.0018840493 0.0013225516 0.0010472552 0.003037815 -0.0017543572 -0.001314473 -0.0021376356 0.002074056 -0.0015617756 0.0014429456 -0.00037960213 0.0024990025 -0.0019817231 0.000100819874 6.460377e-05 -0.002794496 0.0030128115 -0.00057484256 0.002203491 0.0001613672 0.0017946475 0.0006785253 0.0029812274 -0.0027799245 0.0029550584 0.0030185417 0.0004141451 0.0015244972 0.0012887855 0.00136459 -0.0010106827 0.0008885917 0.00032024732 0.0015596533 0.0029392983 -0.0026237487 0.00015789804 -0.0030703146 -0.00049789 -0.0030129906 0.0010837099 -0.0004505364 -0.000330132 0.0023162197 -0.002634853 0.00032515544 -0.00071314553 -0.0012932628 -0.0023209972 -0.0026929043 0.002723862 -0.0025694857 0.0018885683 -0.001175632 -0.0004560342 0.0009294195 -0.0028342153 -0.0016877707 -0.0025424834 -0.0030213837 -0.0016546701 -0.0010075952 0.00017495698 -3.7955742e-05 -0.0024313265 -0.0011757431 -0.0010012047 -0.0022030887 -0.0021139744 -0.00082752464 -0.002586749 -0.002693945 -0.0024165746 0.001168115 -0.0026598854 -0.0011657649 0.002279165 0.0023043891 -0.0021655292 0.0021102414 -0.002636875 2.6802729e-05 0.0022002228 -0.0010452891 0.0031583689 -2.912595e-05 0.0015976528 0.0023145734 -0.0030737442 -0.0019800516 -0.002255628 -0.00023841525 -0.0024528236 7.225338e-05 -0.0025276458 8.9634574e-05 -0.00024271166 0.0021053962 -0.0027742614 -0.0009962656 0.002074404 0.0031469723 -0.0008415197 0.00021357505 -0.0018840787 0.00023791603 -0.0028050586 -0.002690125 0.00028567438 4.456249e-05 0.0016275366 -0.003312691 0.00060854276 0.0005950025 -0.0018695093 -6.738379e-05 0.0018893592 -0.002086005 -3.6342302e-05 0.0012979017 0.00039886354 0.00096066575 0.0026529133 0.0022681965 0.0011952771 0.0024564078 -0.0026230954 0.0024087606 0.001476217 -0.0019213288 -0.0014343875 0.0020457515 0.0019752847 -0.0033148746 0.0004674022 -0.00010106303 0.00032743491 0.0022837932 -0.0021774785 0.0030545879 -0.003147793 0.0021885477 0.0031839656 -0.0012302483 -0.003124381 0.0019782914 -0.003092718 -0.0027341184 -0.0002330511 -0.002257015 0.0030582284 0.002378359 0.00020448542 0.0025031294 0.0032322581 0.0019696562 0.0015854475 0.0018052415 0.0019887562 0.0016502489 0.0020991066 -0.0026430066 0.0029006533 0.0028201367 0.0029879278 -0.0030198176 -0.0011875274 -0.00014446932 0.0013758547 -0.0028587533 -1.7377713e-05 0.0019633537 0.0032183276 -0.00082124386 0.000643046 0.0021188161 -0.00061207707 0.0006362691 -0.0031055168 0.0001665311 0.0014149705 0.0015116942 -0.0033334766 -0.0016706771 0.0008848861 0.00037875902 -0.001795187 0.0017668945 0.001046369 -0.0025745824 0.003348309 -0.0025869578 -0.0011889657 0.0031909335 0.00027249736 -0.0018098219 0.00035333124 -0.0013968716 -0.0021842842 -0.002473697 0.0015856075 -0.0029932046 0.0014724839 -0.0020031214 0.0019004275 -0.0014967278 -0.0018603468 0.0021895636 -0.0030994518 0.0005313889 -0.0007289916 -0.0022036787 -0.002508418 0.0023153329 -0.0016108193 0.0015615871 -0.0033227615 0.00066188147 -0.00064107537 -0.0018459245 -0.0008299346 -0.0028038172 -0.0011877659 -0.0010486995 -0.00076605723 -0.0015363434 -0.003061273 0.0016271744 -0.00051741424 0.0020974034 0.0010971485 0.0030004305 -0.0014600183 -0.0032153642 0.0004040606 -0.002885687 0.0021417986 0.0025676663 0.0002673633 0.0025419735 0.0027907982 0.0014180326 0.0018861197 0.0031250103 0.00043860322 -0.0025802832 -0.0027372697 -0.00082070404 -0.00019731406 0.0029405977 -0.0030631996 -0.0009525728 0.0031085245 -0.00054561713 -0.002971701 0.0005525216 -0.0018890497 -0.0018527869 -0.0021166133 0.00010142776 0.0025737179 0.0014617079 0.0027784766 0.0030621414 0.0017467404 -0.0019240822 0.0023186423 -0.0029999423 -0.0017372166
@card@ 0.0027010404 0.0028511544 -0.0017808216 -0.0026689847 0.00251941 -0.0015138026 -0.0010498577 0.0030276172 0.0018036431 0.0011852331 -0.00023895118 0.0028745409 0.0027312434 0.0025058726 0.0029123342 -0.0020978653 0.0004768079 -0.00036994304 0.002172848 0.0029705183 0.0016905351 0.0011891954 0.0022528614 0.002163168 -3.8845534e-05 -0.0028366956 -0.00089702656 0.0029578414 -0.0018670977 0.00012225026 0.0017330133 -0.0023402872 0.002984159 0.00044764485 0.0009001213 0.0029584223 0.00073101633 0.00014103389 -0.0031631736 0.003251358 -0.003570784 0.0026953174 0.0018259407 2.9471701e-05 -0.0023529043 0.003313136 -0.00037602213 0.0019333466 -0.0007564956 -0.0015354089 0.00030936458 -0.0024867926 -0.0023170353 -0.0030722497 0.0017920369 0.0004373263 -7.979192e-05 0.0018050547 -0.0005778216 -0.002456943 0.0009883003 -0.0020476202 3.896003e-05 0.0032948144 -0.0003978248 0.0023093508 0.0014338734 -0.000980268 -0.0020574932 0.0030175715 0.0006934674 -7.505706e-05 0.0004775778 -0.0018342796 0.0015053276 -0.0008824243 0.001338366 -0.0013731463 -0.0003809123 0.0014941235 -0.0024332986 -0.00090247317 -0.0030999416 0.0010220163 0.00083224144 0.00068418664 0.00036401144 6.907826e-05 0.0010552037 -0.00025406404 0.0022311832 -0.0010743289 -0.0016340739 -0.0017084914 -0.0028496885 -0.002365627 0.0009074844 0.0011897427 -0.002048687 -0.0032068612 -0.0019744951 0.0016421118 -0.0028956702 0.001904456 0.0021396205 0.0017916071 -0.0024289738 0.001057295 -0.0021075704 0.0029625585 -0.0016996276 -0.00085746 0.001680387 -0.00025208047 0.0015400207 -0.0012302398 0.001815825 -0.0031944704 0.00204538 -0.000842565 -0.0018261021 0.0002995152 -0.00017471387 -0.00041337652 -0.00054442516 -0.0027900946 -0.002731772 -0.00253201 -0.0029750434 -0.0011849132 0.0031615666 -0.00039826578 -0.00245429 -0.002417076 0.0011185784 -0.0006339557 -0.0006071391 -0.0015712215 0.0016957158 -0.0029383341 -0.0023485122 0.0020768216 -0.0024638392 0.0008450025 0.00023708127 0.0029864816 0.0012476314 0.0004601729 0.0011415724 0.0005308582 0.0006997317 -0.001205464 0.0014212391 0.0019096956 0.0030128055 -0.00021700807 -0.0008125412 0.0020307146 -0.0030505904 0.00010233088 -0.0021284951 0.0015491754 -0.0031614527 0.00118802 0.0030192644 -0.000594682 -0.002864794 -0.0026457957 0.00091881526 -0.001431966 0.0018458558 -0.00039236338 0.0027808452 -0.00015008489 -0.0019952464 -0.0018873241 6.5088396e-05 -0.0017507725 0.0022558821 -0.001147542 -0.0019926655 0.00054523034 -0.0020562795 -0.0028316223 -0.0020323456 -0.00070603145 0.00064498035 0.001505823 0.0023275677 0.0019573784 0.0021167814 8.064232e-05 -0.0022054312 0.0029558195 -0.000106656094 0.0013085862 -0.00050298456 0.0018561502 0.0017149264 -0.0024544601 -0.0011277755 -5.7441088e-05 0.0005768615 -0.0030664543 0.0018346519 0.0012036557 -2.0633737e-05 -0.001057374 -0.0025940684 0.002512138 -0.0030069086 -0.0026670317 0.0015653342 -0.003031782 -0.0010405843 -0.0009157279 -0.00087566697 -0.0027070772 0.0011301595 8.057151e-05 0.0012761474 -0.00036572095 0.0022841264 -0.0034635833 0.0018101379 -0.0018983082 0.00065069937 -0.002379667 -0.0009262025 -0.0020078074 -0.0009352062 0.003233139 0.0009280863 0.0007661311 -0.002348584 0.0020436328 -0.002764609 -0.00076384324 -0.0020292136 -0.002544469 0.00093415286 -0.0011266575 0.00085413654 0.0013999076 -0.001965655 -0.00080990273 -0.0008467803 -0.0034739869 -0.0032779311 0.00041746296 0.0016880437 0.0002405708 -0.001498059 0.0011589208 0.00021470299 -0.003147429 0.0027042273 0.0026139254 -0.0028814794 -0.00041641077 0.0020934604 -0.0007915177 0.00019528776 -0.001927747 0.0015630252 0.0022521755 0.0009057476 -0.0013722855 -0.0010281192 -0.0011894021 -0.0033269087 0.0025073541 -0.00016523463 -8.980642e-05 0.0025229766 -0.0028829433 0.0024263337 -0.002440783 -0.0022158455 0.0016979058 -0.0011246257 -0.0011044814 -0.0022458688 -0.0011623157 -0.000996911 -0.001273002 0.002899356 0.0032974957 -0.00019926025 -0.00011750191 -0.0017712379 0.0029379714 -0.0014959023 0.0020563225 0.0032911077 0.002344102 -0.00014859377 0.0017570572 0.0026138613 -0.0015293736
mit 0.00024300333 0.0023634895 0.0019691347 -6.4890584e-05 0.0006547258 -0.0023753585 -0.0028537747 -0.0010731561 -0.0017988165 9.481303e-05 -0.0011907825 -0.00014807255 0.0024714477 0.003411755 0.0025438133 0.0006200822 -0.000771966 0.00095646334 -0.0008376098 -0.0032366475 0.0022812958 -0.0030303204 0.0013379297 -0.0011330607 -0.0019084979 -0.0003858667 -0.0023643405 0.0028386728 -0.002432999 -0.0031893358 0.0020103848 0.0014513361 0.001788936 0.00077399437 -0.0011731781 -0.0015467927 0.0008044947 0.0026542824 -0.0019280683 -0.0008060374 0.00034803213 0.0021203386 -0.0020159448 -0.0014725402 -0.0006737007 0.0006087369 0.0018672448 0.0019816088 -0.0026759868 0.0025210723 -0.0006188734 -0.0007736483 -0.0030345276 -0.0018544599 0.0031758356 0.0012771912 -0.0024856303 0.0010361578 -0.002265818 -0.0030100702 0.001329319 0.0006266372 0.00032400386 0.0030648212 0.0020024837 -0.0014599175 0.000902448 0.0010152083 0.00051781005 0.002831316 -0.0022898284 -0.00068813446 0.000504775 0.0019602368 5.6436635e-05 0.002800733 -0.0016070835 -0.002886238 -0.0024677934 -0.0012300573 0.0031224885 -0.0017587674 -0.0017756608 0.0031662236 -0.0023537022 0.0005804623 0.0019157104 -0.002482352 0.00020588544 -0.00073970837 0.00206757 -0.0016062611 -0.0021245934 0.0033487652 -0.0012126862 0.0028291189 -0.0026488185 0.0022336699 -0.001229819 -0.0025894162 -0.00033823476 -0.000703375 -0.0005091043 -0.00021049425 -0.0021367895 -0.0014041162 -0.000991892 0.002680045 0.0016976189 -0.0003407593 -0.0018343483 0.0017107731 -0.00300695 0.00057943957 0.001221346 -0.00048589322 -0.0013632566 -0.002686358 -0.0027262513 0.0020077836 0.0012608313 0.00015178582 0.0034514263 -0.0029760632 0.00024370143 0.000116429 -0.0028129101 -0.0032690777 0.0023026657 -0.0009274869 -0.0025301196 0.002832322 -0.0019961824 -0.001450676 0.00053307577 -0.0008719645 -0.0027466314 -0.0014261478 -0.003239269 0.00016718546 -0.0014153444 -0.00036178908 0.00077569607 -0.00068509893 0.0030262677 0.0021406845 -0.00033803863 -0.00039768996 0.00047068743 0.0020241314 0.0029680822 -0.0009080598 -0.0004884115 -0.0010914153 0.00021380116 -0.0021142215 -0.0009833464 -0.0029983444 1.274416e-05 0.00076455675 0.0013257887 -0.0009904635 0.0018075274 -0.0022877548 0.0033094161 0.00026911608 0.000841826 0.001512579 5.990662e-06 0.0011715312 0.00025911804 -0.0031922862 -0.0009122846 -0.00085864693 -0.0030045933 0.0011547806 0.0014343469 -0.00082556397 0.0025458543 -0.0003876874 -0.0002004971 0.002124173 -0.0031717073 -0.0023896554 0.0021937182 -0.0022725535 0.0032629413 0.0020364819 -0.0026387768 0.0025407868 0.002282425 -0.0022572298 -0.003051906 -0.0029675113 0.0013620094 0.0018718541 -0.0007294512 0.0003791961 -0.0028525835 -0.0017076719 0.0014134628 -0.003082537 -0.0031737988 0.00034452108 -0.002655367 -0.0022443973 0.0016141313 0.0027907635 -0.0024777262 0.0026686408 0.0030149282 0.001376531 -0.0014114849 0.003033836 -0.002534936 -0.0014886194 0.00041751054 -0.0029326102 -0.0035514336 0.00074601074 0.002779051 -0.001631757 -0.0014695924 0.0010544832 0.0001257907 -0.0030236598 0.0022664357 -0.0011239192 0.0010965258 0.0011530503 0.0031010853 0.0028827284 0.0024598113 -0.0025775868 0.0001312032 -0.00016001581 0.00025306645 0.0029790478 0.0016996359 -0.0033444737 0.0034596135 -0.0003556286 0.00017468318 0.0017639286 -0.001962342 -0.0003569627 0.00052107085 0.0021839286 0.0014135551 -0.00058160955 -0.0026131696 -0.0011529407 0.0030452767 -0.0032105593 0.0029779288 -6.7468754e-05 -7.801661e-05 0.0032199973 0.002901081 0.0026247571 0.0030753387 -0.003208281 0.0027738262 -0.0035613654 -0.002975231 -0.002983613 0.0009115134 0.0025574795 -0.002464826 -0.0007932668 -0.00084964273 -0.0015832996 -0.0003966537 0.0017181548 0.0013873219 -0.00096037245 -0.00094318204 -0.00069318136 -0.0014536015 0.0013389512 0.0032767365 0.0026793887 -0.0026635292 -0.0020512152 -0.0031566187 -0.0019028864 0.0010100291 -0.0018636715 0.00050158874 0.0029568726 0.0012225009 0.0006705237 0.003088726 0.0022219738 -0.0002402546 -0.001706084 -0.00021675877 0.0023468928 0.002759502 -0.0015612324
an+die 0.0033212197 0.00091803464 0.0017259938 -0.0018846558 0.0013670049 -3.5047935e-05 -0.003041693 0.0020189362 -0.00301633 -0.0022122883 0.0010058837 0.0030716856 -0.0007518733 0.0024274408 0.0016384656 0.001263246 -0.0019841562 0.0017591345 -0.0027271425 -0.0015947795 0.0018150959 -0.002812119 0.0019523147 -0.0010501972 -2.4726252e-05 -0.00245763 -0.0021886947 -0.0011264934 0.0027839895 0.0016624929 -0.0031832526 -0.0022130006 0.0012741413 -0.0028593924 0.0022550977 0.0021511675 -0.0029782746 0.002809703 0.002593056 -0.0006252986 0.0004381987 -0.0019808304 0.0021366412 0.0025925175 0.001481089 -0.0028548003 0.0016924136 -0.00093944767 -0.0006190826 0.0020917568 0.00074638205 0.0016464264 -0.0021440682 0.0017704727 -0.001167884 1.0301535e-05 0.002175466 0.0014140261 0.0025261827 -0.0013069961 0.001188437 0.0024105988 -0.0011495014 0.0019865718 -0.0031902504 0.0030803385 0.0012347656 0.0018892168 0.0014079644 0.0015553297 -0.0011052482 -0.0020381059 -0.0006724403 0.00035749582 -0.00081846776 -0.0027355005 -0.0021534117 0.0028568697 0.003060623 0.0020954867 -0.00140793 0.00019498056 -0.0029522548 0.0024872345 0.00024120876 0.0024009394 -0.0017741445 -0.0009198875 0.0011409444 0.0011711855 -0.0020590164 -0.0025133262 0.0007244756 -0.0029804336 0.0021150326 0.0020171166 -0.0011725951 -0.001951399 -0.0028283212 -0.00060177536 0.0023661063 -2.9534282e-05 -0.0025908893 0.0030781145 -0.0028454156 0.0017140781 0.0022191163 0.00037595112 -0.003067411 0.0020394681 -0.0027565947 -0.001705287 0.0031750754 -0.002757757 -0.0026132828 -0.0015516139 0.0012319373 0.00066544 -0.0018417664 -0.0013078921 0.0029028866 0.0034223895 0.0034296815 0.00027645845 0.0013727961 0.0006093355 0.00048395584 0.0014838737 0.00068091135 0.00026697546 -0.0009928184 -0.0020744982 0.002718158 -0.0022385006 0.00088912237 -0.00017039476 -0.001267386 -0.0017245174 0.000926073 -0.002119448 -0.0024277454 -0.001108965 0.0014798325 0.0020844196 -0.00041331805 0.0023148633 -0.0026258272 -0.0016958695 -0.0024946479 -0.0021269734 0.00242613 -0.0032497165 -0.002851447 -0.0033510393 0.0030843136 -0.00085439056 0.000120714016 -0.0021137653 -0.0009538767 0.00019138887 -0.0007807301 -0.0024706828 -0.0021586318 0.00089284667 -0.0031668604 0.00043258775 -0.0006386328 0.0028122168 -0.00021872764 0.0022708618 -0.0025360296 -0.002515452 0.0019334161 0.00031088595 -0.0016493856 -0.00087098574 0.0028281962 -0.0031299903 -0.0011854473 0.0003728041 -0.00012213142 0.0032866222 -0.00087679346 -0.0024174887 -0.0027056367 -0.0033438515 -0.0023390679 -0.0018513202 -0.0019626648 -0.00061851996 -0.00010228389 -0.0015871627 0.0005737089 0.0012557133 0.0030542323 -0.0016944568 0.0017167443 0.0023724397 -0.0012817566 -0.0024960008 -0.0012088028 -0.002359292 0.0021155416 0.0031365245 0.0028572779 -0.0028222466 0.0016964019 0.0017682267 0.0018668242 -0.0027919183 -5.8359827e-05 -0.0023954727 -0.002955746 0.000737143 0.003339343 0.0020514957 -0.0024936034 0.00054436264 -0.0014754308 0.0031738095 -0.0028943415 0.0032847356 -0.0021985595 -0.0024859938 0.00046709605 -0.00032372767 -0.0027823825 -0.00024163812 -0.00016021974 -0.0020174175 0.002011952 0.001048971 0.0028269582 0.0025822052 -0.0023867227 0.0016698523 0.0018761411 0.0019173534 0.0018072918 -0.0018121972 0.0015405859 0.00040786085 5.0224375e-05 -0.0020917566 0.0005740445 0.001628594 -0.0030385018 0.0027708267 0.0009990591 1.6027487e-05 -0.0010057237 0.0002056302 0.0021086421 0.0015576594 -0.0021583433 0.0026177668 -4.4050437e-05 -0.0026987635 0.002789278 0.001613822 0.0012399664 0.002709884 -0.0023523038 -0.0022098203 -0.000895263 -0.0014026251 -0.00041240855 -8.387347e-05 -0.0030263155 0.00070562714 0.0008026179 -0.00034418577 0.0016481077 0.000545305 0.002074382 -0.0006700937 0.0030052087 -0.0004800732 0.00079749065 -0.0012657479 0.002064991 0.0010718644 9.961042e-05 0.0029845557 -0.0026736981 0.003286398 0.00012934546 -0.0007140255 -0.0014105327 -0.0030348513 -0.00067453226 0.0010611798 0.0022839052 0.003078124 -0.0027870813 0.0032392433 -0.002848329 0.0011838145 0.002850711 -0.0009537278
: -0.0026184474 -0.0025871769 0.00041034317 -0.00024173147 -0.0033121372 0.000836127 0.0010346299 0.0020494738 0.0014885624 0.000999847 -0.0031501881 0.001878655 0.0013541612 -0.0024263766 -0.00079944823 -6.457867e-05 -7.445134e-05 -0.00019784748 -0.0017743844 -0.00023833351 0.0014607846 -0.00037458353 0.00031009392 0.0009130631 -0.0013749304 -0.0026711351 0.0028936025 -0.0033003108 -0.0009815248 -0.00061250967 -0.0024819064 0.0005586775 0.002867465 -0.000543675 0.0027738737 0.00024336901 -0.0016934556 -0.000795196 -0.00027487832 0.002059294 0.0020958222 0.0019441987 -0.0018957439 -0.0022732243 0.0022423516 0.0009883548 0.0018623499 0.0002915321 0.002854482 -0.0028677536 0.0035001745 -0.0025844448 -0.00065446604 0.0021533722 -0.0030692357 0.0016623536 -0.0021532145 -0.0021828492 0.0008431824 0.00059888634 -0.00090727094 0.0025685153 -0.002424393 0.00024142397 0.0028184026 0.00090244727 -0.0022927397 0.0013380303 -0.0019566 0.00023624927 0.00096935424 0.00261596 0.0026281609 -0.0018059189 0.0034543066 -0.0016672714 0.0024594364 -0.002551511 -0.0027212927 -0.0001944069 -0.0027784328 -0.0012095782 -0.00031543823 0.0004194057 -0.003184835 -0.002278144 -0.0024863768 -8.055364e-05 0.0020504915 3.1302854e-05 0.0035422556 -0.0013839403 0.0027701433 0.00206362 0.0030810141 0.0003598845 2.3698183e-05 0.00050228764 -0.0033853496 0.0030495517 -0.00074171106 0.0026017893 0.00079378753 0.0011432209 -0.0003730331 -0.003533623 0.0005606313 0.0010664259 -0.0035633985 -0.0013623422 -0.0010261985 -0.0017350307 0.0012661484 0.00072644197 0.0013282431 -0.0020136493 -0.0018737913 0.0016321079 0.0022864207 0.0014981817 0.0016540256 -0.0021193295 0.0029369344 -0.0024560003 -0.0025138077 0.0030950906 -0.0009506081 -0.0033559932 -0.0011276681 0.0022914705 -0.0008678978 0.0018243757 0.000120683304 0.00094978686 0.00032017654 -0.0028723904 -0.0013194707 0.0028125092 0.0002719823 -0.0022748758 0.0024850597 0.0021255245 0.0022969076 8.9892426e-05 -0.002943354 -0.0013879277 0.0015617121 -0.0023526894 0.0034548284 -0.003481181 -0.0027363764 -0.0020183802 0.0020493905 -0.0026524947 0.002906815 -0.0032463637 0.0008069001 0.0010014486 -0.00014839375 0.0034714222 0.0017950931 8.7697204e-05 0.0014346464 0.0021961608 0.0010144075 0.003213168 -0.00038804114 -0.0027300352 -0.0016155851 -0.00017713038 -0.0027125806 -0.0004877498 0.0027988104 -0.0016744272 0.0018056998 0.0014684683 -0.0003910335 0.00023950938 0.0019728243 -0.0021594479 0.0012277319 0.0031668083 -0.0015621476 -0.0026156749 -0.0033334116 -0.0030692203 0.0017107846 0.0019522365 0.0023998532 -0.00076793274 0.00047464253 0.0009925747 -0.0035518953 -0.003196081 0.0016335857 -0.0030409356 -0.001069203 -0.0015202886 0.0019302154 -0.0011625206 0.0031640548 9.530628e-05 -0.001803004 -0.0012026473 0.00062193087 -0.0017258152 0.0024725774 0.0031252957 0.0014284655 -0.0024648828 -0.0021057527 -0.00017742644 -0.0002972665 -0.00200854 0.0026943653 0.001899874 -0.0016272374 0.00041620614 0.0014488949 0.00059664133 0.0029283597 -0.0003438455 -0.0022099034 -0.00053191726 -0.0028820497 0.0031084656 -0.0027876697 -0.0005633173 -0.0010201214 0.0011645245 0.0017961529 -0.0027798717 -0.0014380796 0.00034475198 0.0010656357 0.001851165 -0.0005169088 -0.00021984697 -0.0025093837 0.0011608952 -0.002414915 0.001051075 -0.0010787979 -0.0024962095 0.002395096 -0.00037532652 -0.0031196817 -0.0032970556 0.00020214685 -0.002693053 0.0014602314 0.0013138152 0.0012388269 -0.0019157269 0.0023703084 -0.0030255772 0.0027914774 -0.00018582221 -0.0007798867 0.0012000356 -0.0007940994 -0.0013528358 -0.00054877356 -0.0024923633 -0.0005045931 -0.0018454752 0.0017434654 -0.0030030543 -0.0018189629 -0.0029132587 -0.0032663716 -0.0003638085 -0.0026782097 -0.0017931946 0.0010496222 -0.00035423547 0.0013139119 0.00284209 -0.003587669 0.0020279672 -0.0026433296 0.002236706 0.002360921 0.002956448 -0.0027608736 0.0012099174 -0.0028106342 -0.00027320415 -0.001799709 -0.0028429907 0.0017516967 0.0017379768 -0.001241483 -0.0025036775 0.0014017838 -0.0009409985 -0.002792951 -0.0015626358 -0.0004544704 0.0027044348
und -0.0021469907 0.002583516 0.002053282 -0.0016252155 -0.0007041638 -0.0009924563 0.0012661006 0.00028906245 -0.0009084027 -0.0030711205 0.0022666315 -0.003213596 -0.0029347274 0.0005776255 0.00091757305 -0.00012968082 0.00023403278 0.00095297553 0.0006560583 0.002325564 -0.001162379 -0.0025151996 -0.0025828637 0.0027999505 0.0006075871 -0.001985926 0.0020128544 0.0027671063 0.0025225861 -0.002430769 -0.0016486994 -0.00070047943 -0.0020294422 0.0015415445 0.0019502111 -0.0018645006 0.0025684605 -0.002664738 0.00203608 -0.0015778301 0.00044682645 -0.0011910617 0.0012087208 0.002608661 -0.0002862868 -0.0015183386 -0.0027882135 0.0013221357 0.0015892907 0.0023125517 -0.0012470018 -0.003109315 0.0022038966 -0.0014660436 0.0014705952 0.0028633983 -0.0011653338 0.0006177251 -0.0011414511 -0.002193727 -0.0018796542 -8.285853e-05 -0.0025775456 -0.00058392895 -0.00087732926 0.0024142154 0.00042796606 0.0020896508 0.0010455077 -0.0011283725 -0.0016893109 0.0032874367 0.0024808086 -0.003155287 0.0019894056 0.0028458117 0.003009668 -0.0026046755 -0.0007602362 0.00049886137 0.00091454946 -0.0005966237 -0.0016946002 0.002489569 0.0024064744 -0.00022005847 -0.0019465659 -0.00142633 -0.0014755725 0.0014699082 0.00034918688 -0.00086709036 -0.0029628421 -0.00045619265 0.0024039638 0.0023660278 0.0015418602 -0.0010619276 0.0029323103 0.00022373509 0.00041767984 0.002125636 -0.0021173072 0.0023127801 0.00328768 0.0010321537 0.0012276667 0.0014796348 -0.0008673206 -0.0027365538 0.00028768243 0.00024268543 -0.0023133277 0.0006704994 0.0017164772 -0.0022693696 0.00093677326 0.0026282577 -0.0028604516 0.0008920792 -0.0028161067 -0.0024221106 0.0025522483 -0.0026351968 -0.00042428818 -0.002434902 -0.0027262245 -0.0025407488 6.111786e-05 0.00083363696 -0.0025536565 -0.0025362752 -0.0009907187 -0.00092346914 -0.0021212131 -0.0012234437 0.0011281986 0.0009312739 0.0019884757 0.0011880053 -0.00018160224 0.0006240699 0.0029029264 0.0007024069 0.00067661074 0.00020013162 -0.0032081269 0.0016327869 0.0018537464 -0.00015662225 0.0030423747 -0.0021130366 0.001128953 -0.0026968953 -0.0029572216 0.0007016973 0.0013075758 0.001938105 -0.0030292992 0.0016853358 0.0008609994 0.0013634072 -0.00036614123 0.0019068413 0.0024255698 -0.0027178375 -0.003271538 0.0024026367 -0.0004274552 -0.0028613925 -0.001583227 0.00042145618 0.0029256782 -0.00055594946 -0.00027757118 -0.0024402025 -0.0026691614 0.00038018817 -0.000114634764 -0.0025193335 0.00021290856 -0.002840968 -0.0011371052 0.0013380245 0.00017296082 0.0025403774 0.0025297273 -0.00019253693 0.0016878343 0.0018299234 0.0030317362 0.0029987257 0.0014378643 0.0014870357 0.0024702344 -0.00070997945 -0.0018873302 0.0028842986 0.00037168883 -0.0016929366 -0.0004349615 -0.0018111407 0.0029740746 0.0011457857 0.0015871637 0.0022180676 0.002737427 -0.0015045509 -0.002131594 -0.0012560891 -0.0013406491 -0.003281414 -0.00015968047 -0.0028374481 0.0032917117 -0.0012876918 -0.002276552 -0.0029945709 -0.0013989382 -0.0033475359 0.00031376758 0.001883479 -0.0009883068 0.002357617 -0.00070084614 -0.002539583 -0.00097450777 -0.0010981438 -0.0024290844 -0.0031265027 -0.001232788 -0.00054547784 0.0016751261 -0.0023867064 -0.0018712345 0.00057403115 -0.0006168208 0.0011738363 -0.00055225 0.0011633426 0.0027659503 -0.0026564798 0.001306365 0.0020630541 -0.000107913875 0.0020822708 -0.0017655866 -0.0016747164 -0.0026214798 0.0031862748 -0.0029724292 -0.00095921784 -5.8275207e-05 -0.0016570276 0.0029107942 -0.0022992995 -0.0024454198 0.0030959868 -0.0029809463 0.0031205958 -0.0013253614 0.0019868538 7.034909e-05 -0.0016905316 -0.0028165064 -0.0021485202 0.002436627 0.0022454597 -0.00024388771 0.0022349078 0.001230953 0.0012117915 0.0009199972 -0.0031692935 0.0031942583 -0.0026213704 -0.00078346324 0.00054302457 0.0014386072 -0.0030515126 0.0005817503 0.0021466296 -0.0030082671 0.0032539265 -0.0018321517 0.0032575284 -0.0023397475 0.0023094695 0.0030705244 -0.0030717037 0.00016097796 -0.0023651936 0.0027893293 0.0032662065 -0.001846327 0.0005931757 -0.00062685035 -0.0026609248 0.0004785772 -0.003466865
zu 0.0008891766 -0.0024601368 0.0019197199 0.0025305916 -0.00093685364 -0.0014605642 -0.0030721962 0.0019336811 0.0009769426 0.0028876415 0.0011746908 -0.0009810827 0.0011475001 0.0029484865 0.003027315 0.002465791 -0.0027854878 -0.0024591314 0.0024669499 -0.0026213317 0.0010651672 0.0026036685 -0.0010466409 0.0023543423 -0.0027568208 0.0021485703 0.0017816084 0.0010858414 -0.002797197 0.0029490874 0.0028017387 -0.0005333083 0.0014872116 0.0021069723 -0.00054644665 0.001931184 -0.0012284135 -0.00050139066 -0.0004215243 -0.0014020624 -0.00037095236 -0.00264013 0.0012776635 0.003040517 0.001721356 0.0022219347 -0.0015365138 0.0016808187 -0.0021274772 -0.0016149321 0.0034188256 0.0022185785 -0.0017163948 -0.0020018457 0.0024105585 0.0010396274 0.0022996136 -0.002202947 -0.0002971316 -0.00032040614 -7.544075e-05 0.00069333473 -0.0023146458 0.00153133 -0.0009455166 0.0028959236 -0.00037069942 0.003162827 -0.00042246125 0.001761896 -0.0025383905 -0.003008822 -3.4334458e-05 -0.0008459193 0.0034684278 0.001591826 -0.0018960609 0.0025216504 0.00015199641 -0.0030844728 0.001879398 -0.00070650055 -0.0032330963 0.0031445248 0.002492766 0.0027922322 0.00012494416 0.002601011 0.0018880587 -0.0022832889 0.0032084468 -0.0012281894 -0.003231179 0.0028785388 -0.0016008362 0.0029664256 -0.002518511 0.0030501324 -0.0020338546 0.0013459281 0.0032933904 0.0014287715 -0.00065087754 -0.0015591669 -0.0032298046 0.0012894109 0.0025391176 -0.0015367727 0.0018357694 0.0022667598 -0.003133963 0.00065939495 -0.002328984 -0.0014410011 0.00021640357 -0.0022547955 -0.0013209787 -0.0024761397 -0.002337505 -0.0025191852 0.0033136536 0.002923301 5.362335e-05 -0.00095010124 0.0021132424 0.0005937316 -0.003065159 -0.0024744729 0.00028295282 0.0027945815 0.0011095263 0.0033852828 0.002232281 -0.0001208042 0.0028517786 0.0031277926 0.002653309 0.003067235 -0.0032723376 0.001024263 -0.0025413563 -0.0025959676 -0.0028807046 0.0011308066 6.726103e-05 -0.0022293313 0.0017741186 0.0025330163 0.001549615 0.0025047816 -0.0014475434 -0.0022732823 0.0013629951 -0.0010348174 -0.0023889744 0.0012450134 -0.0013092867 -0.001786417 0.0007659751 0.002436082 0.0021812099 2.7328808e-05 0.0028106715 0.0010368949 0.0021933862 -0.00027047287 0.0007301355 0.0021053974 -0.003347286 0.0021245573 0.00029571954 0.0020351617 -0.00041573952 -0.00089334784 -0.0018201079 -0.0009469235 -0.00094211794 -0.0017890058 0.0003584806 0.0026956752 0.0016574534 -0.002463601 -0.002684468 -0.0010190638 0.0011662215 -0.0031526815 0.0022850903 0.0011872437 -0.00092751806 0.0029402634 0.0027712972 0.00022971243 0.0014856787 -0.0031243374 -0.002878231 -0.0010891869 0.003094119 0.0010386193 0.0018522716 -0.002271669 0.0013070919 8.777076e-05 -0.00035128606 -0.0010736132 0.0017501519 -0.0029964102 0.0017185514 0.0019303531 -0.0008562221 -0.0014189286 -0.0025289822 -0.0022250516 -0.0016768886 0.0009598483 -0.0015739737 -0.000517282 -0.0030943402 -0.0013841728 -0.00040008075 -0.0027779099 0.0011171517 0.0032903433 0.0014637581 0.0004899564 -0.0016982654 -0.00045977253 0.00078965747 0.0005426686 0.0029051043 -0.00023543119 0.002424742 0.0019274271 0.0010332422 0.002552896 -0.0018011489 -0.001239507 0.0023084148 0.0028663813 0.001118687 -0.0015702227 0.0026279364 0.00088181644 -5.2300453e-05 0.003004207 0.0014933039 0.0012189865 3.443544e-05 -0.0030797638 -0.0010539338 0.00083385577 -0.0017558227 0.0024538706 0.002550426 -0.0030119745 -0.0019582203 -0.0019969214 -7.16305e-05 -0.00057993934 -0.00082658976 -0.00081532955 0.0012196968 0.0032826264 -0.0013972427 -0.0030153713 0.001043363 -0.0021966235 0.0023323281 0.00098303 -0.0028290928 -0.002524147 -0.0031248543 0.00074037566 0.00094071677 0.0009240153 0.00013389112 0.00040583222 0.0011519216 -0.00048226217 -0.0028771376 -0.00020411721 0.0012545804 -0.00084224 -0.000783106 -0.0006993279 0.0023961898 -0.000967526 0.003030712 -0.0012248371 -0.0033484506 -0.002193007 -0.0014035433 0.0005584752 0.0017848463 0.000747755 0.0031370698 0.00050501234 0.0019599404 5.715975e-06 -0.00056191476 0.0019675414
zu+die 0.0006714665 0.0029401553 -0.002753824 -0.002918354 -0.00033490092 -0.00083979714 -0.0004926698 0.00035220213 -0.0016857218 -0.0027352332 0.0028879524 -0.001133695 -0.0010142532 -0.0004007846 -0.0004898985 -0.0032322772 -0.00046656004 -0.00031889466 0.0029504017 -0.0028768687 -0.0015911373 -0.00077416695 0.0010196987 -0.001813291 -0.0018983063 -0.0027056194 0.0017013088 -0.0029681907 -0.0012482838 -0.00010166337 0.00055492047 -0.0033567303 0.0031241875 -0.00071459403 0.00018769156 -0.0027653498 -0.0025067676 0.0011298 0.001303984 0.00097347714 0.0016760718 -0.0024352465 -0.00031947528 -0.0008558707 -0.0002502278 0.0016554252 0.0005325556 -0.002348208 0.0013148099 0.0021776562 -0.0018211445 0.0012416041 -0.0015253337 0.0030098388 0.0013796693 0.0009117385 -0.00016561775 -0.002937825 0.0029494392 -0.0005909397 0.0024799397 0.0012073669 -0.0028653785 -0.000113683476 0.00084371725 -0.00062669144 0.0032060768 -0.0014922422 -0.0026699763 0.0013100326 -0.0011702968 -0.0022116357 0.00083895447 0.001576831 -0.0015511577 -0.0013082789 -0.0024594283 0.00062590773 -0.0016836994 0.002989582 0.00018496597 0.00056941743 -0.0012528345 0.0028771348 -8.718937e-05 -0.0028682381 -0.0024578664 0.0001219746 0.002878695 0.0010768762 -0.0015615331 -0.0023326108 -0.003219439 0.0013584177 -0.0028450568 0.0013704334 0.00071715616 -0.00039449052 -0.0034118337 0.0020008837 1.2806792e-05 -0.003244004 -0.0023931446 0.00302948 0.0006831106 -0.0029715083 -0.00017494475 0.0019212941 -0.0033898174 -0.0023511625 -0.0005720025 -0.0033134192 0.000102925114 0.00067998416 0.0027222524 0.00048090983 0.00055893254 0.0016877342 -0.0014003622 0.0020590995 9.935846e-05 3.559297e-05 -0.0030187247 1.3414526e-05 0.0022975446 0.0008456245 -0.002816835 -0.0013413138 -0.0021178583 0.0023021135 -0.0020622045 0.0019253723 -0.0016846292 -0.0026737857 -0.0025969367 0.0014902644 -0.0030337723 -0.0020406512 -0.002608733 -0.001727097 -0.0011976277 0.00012960294 0.0020292117 -0.00030200314 -0.001733996 0.00030528047 0.00174839 -0.0019434582 -0.0015781062 0.0015138625 0.0020662986 -0.0028489388 0.0027872075 -0.0033729195 -0.0024466831 -0.0019320905 0.00025700158 -7.199349e-05 0.0009813221 0.0026149356 0.001662322 -0.0010914274 -0.002319298 -0.0026772262 -0.00015958985 0.0033295094 -0.002491909 0.0012804732 0.0013296623 -0.0011268317 -0.0025959923 -0.0017799189 -0.0015252931 -0.0023266736 0.0020689452 -0.0025780015 -0.0011489183 0.0013380582 0.00010898028 -0.0025161395 -0.001651735 0.0014009486 0.0004657958 -0.00073676463 -0.00049261545 0.0007802958 0.0009089004 -0.00063285435 0.0018274504 -0.0028426384 0.002262429 -0.0033482225 -0.0010024311 0.0021718312 -0.0010869935 0.0019531983 0.0018018968 -0.002554707 -0.00011956672 -0.0015200021 -0.0028651718 -0.00037955586 0.0020415382 0.0029255324 -0.001491722 -0.0008185746 -0.0019916713 0.0004874562 0.00087174145 -0.0032935895 0.0006706416 -0.0031354402 0.00019241394 0.0014051873 -0.0017035673 -9.7650205e-05 -0.00094178715 -0.0032506422 -0.0010577196 0.0012823599 -0.00280199 -0.001915194 -0.0002255226 0.0024289652 0.000347141 0.003077167 -0.0024690237 0.0029375176 -0.0016640417 -0.0019999524 -0.0024714782 0.00059408403 -0.0008949009 0.002697003 -0.000437969 0.0009992111 0.0019337607 -0.0029009169 -0.0005840986 -0.0019665512 -0.0027628979 0.0010956671 0.00086010114 -0.00072075217 -0.0005225459 -0.0024578637 -0.0010200688 0.00024950286 0.002580402 0.0023935845 -0.0009844545 0.0013625709 -0.00074466167 -0.0016174439 -0.0015135055 -0.0020748444 0.0014509327 -0.0025765765 -0.002794287 -0.0016334405 0.0025272164 0.00072727585 0.0020889405 0.002309197 -0.0024699348 -0.0016008029 0.0027679922 0.0018179114 0.0011964308 0.0031427478 0.0028843228 -0.0009932828 0.0003816459 0.001934178 0.0030895853 0.0034225078 -0.0024739017 -0.0016249694 0.0012900628 0.00031362651 7.9440724e-05 0.0025525028 0.0020083636 -0.0023123953 -0.00097013416 -0.002758802 0.002136188 0.0010611536 -0.00079788454 0.0006258196 0.0026565308 0.0029719234 0.0021635406 0.0011302173 0.00072696817 0.003093883 0.00058602844 4.708006e-05 -0.0029288016 0.0006433658
Treffen -0.0028167882 0.0022835934 -0.0019255892 -0.00059569883 0.00024778562 -0.0007324171 -0.0028667906 0.0016587113 -0.00217664 -0.0029879028 0.0013889838 -0.0002764492 0.0021406687 -0.0022675854 0.00020024153 -0.0003398625 0.0020135774 -0.0031537127 0.0020145008 -0.0031303398 -0.0026276205 0.0001455932 -0.00085287844 -0.0011788583 -0.0018023913 0.0013404901 -0.0031983706 0.00036009945 0.0013123667 -0.00021224043 -0.00011425803 0.0023733054 -0.003070629 -0.00303579 0.001519233 0.003000644 -0.0024767283 -0.0028517344 -0.00025140692 -0.0030210698 0.00055811025 0.0030115999 -0.001983048 -0.0022388187 0.0031080034 -0.00014974443 -0.0011903926 -0.0008416228 -0.0027853695 -0.0014854404 -0.0012558874 0.0001718699 0.00016975272 0.0025885846 0.0022727735 -0.00036151998 -0.003231773 0.0009184419 -0.0019896913 0.0030329924 0.0012860677 -0.00037231282 0.0021478303 -0.0011015035 -0.0012724705 1.8327099e-05 0.002793866 0.002065731 0.00035061338 0.0012677987 -0.0009744972 0.0031466722 -0.002277339 -0.0011734708 -0.0016114156 0.002994216 -0.0010789199 -0.0007377033 0.0023117876 -0.003116901 -0.0010021721 0.0009188351 -0.0021729728 0.003155817 0.0004671332 -0.0018149031 0.0016411534 0.0026888002 0.00047942853 0.0023060422 -0.0021449258 -0.0012587386 0.0033625707 0.0019224733 0.0007298226 -0.0009819728 0.0015904601 0.00078316155 0.0027369943 1.03086295e-05 0.002898774 -0.0019129333 -0.0024698542 -0.00036740387 0.0010199038 -0.00080606865 0.0020190831 -0.0027473238 -0.0031630755 0.0024867223 0.0019801825 -0.0014023089 -0.0013800042 -0.0011498696 -9.046867e-05 0.0031196391 0.0003898561 -0.000647042 -0.0011165974 -0.0008998132 -0.003039465 0.0024372423 -0.0028808988 -0.0011068397 -0.002360063 0.0031904054 0.0018694523 -0.00029333204 0.0012489037 -0.0006388227 0.0033140043 -0.0010928396 0.0016573269 -0.0015056762 0.003136303 0.0033015467 0.0020088365 -0.00016050281 -0.00071823184 -0.003073704 0.0032010719 -0.003015459 -0.0022489845 0.001912599 -0.00069393293 0.0025233896 -0.002711892 0.0029436927 0.00087201747 -0.0029912374 0.0012877554 -0.0018002873 0.0021688316 0.0021347108 -0.0029071744 0.0021667974 0.0015336077 0.002104756 -0.00246499 -0.0020209607 -0.002891649 0.0017322861 -0.0014408302 0.0016435509 0.001611491 0.0027521688 0.0007802306 -0.00032515294 0.00040813783 0.001180652 -0.0030972129 -0.0019805476 -0.00023037814 0.0016256833 1.25597035e-05 -0.0032046866 -0.0003112723 0.002309821 0.0021490105 0.0011665857 -0.0015940014 -0.0011288889 -0.0009138564 -0.0020391266 -0.0030233085 -0.00023724836 0.0008661983 0.0017652523 0.0012262478 0.0026874617 -0.0021575498 0.003086338 -0.0012578461 0.0002484447 -0.0013573597 -0.0014920833 -0.00051293016 -0.0025551151 0.002970395 0.0015316288 -0.0008590268 0.000599314 0.0025423937 -0.0018636929 0.0013754981 0.00028158972 0.0009755236 -0.0006538481 -0.0033081935 0.0019352045 -0.0005358566 -0.00287031 0.00028135287 -0.0021547817 0.002588005 -0.0022584088 -0.00068860134 -0.00036074384 -0.0015875907 -0.0012577847 0.0024833344 0.0006465213 -0.0031441955 -0.00022514065 -0.003244698 -0.0011488226 0.001693701 0.0011888556 -0.0019661982 0.0005532159 0.002018944 -0.0025194434 -0.0011142056 -0.0007130003 -0.0031095068 0.0007923862 0.0021449202 0.00081006106 0.0008515019 -0.00048305333 -0.00018612006 -0.0021105453 -0.00012946247 0.0022477272 0.0010446642 4.448318e-05 0.002645264 0.00084267324 -0.0024826338 0.0024618946 0.0033163936 -0.002952108 0.002478656 -0.0025539487 -0.00028663885 0.0015372704 -0.0017369713 -0.0026349116 -0.0025961392 -0.0033821475 -0.0021844327 0.0032557203 0.001135741 -0.003284399 0.00259119 0.0023621528 0.0027269372 0.0032944956 -0.003116583 -0.0006553835 0.0006665954 0.00075762294 0.0016259775 -0.002533178 0.0016770823 0.0033838057 -0.0028349883 0.0026907737 0.0008518716 -0.0013774681 -0.00050566613 -0.0028176138 -0.002561877 0.0018933004 -0.0011130676 0.0033840395 -0.0028110212 -0.0022577916 0.0020158049 0.0026210342 0.0012964117 0.0025695297 0.002217387 -0.0018839722 0.0030371933 -0.0018991898 -0.0008763955 -0.0020530298 0.002175241 -0.0015846608
Remigration 0.0010517774 -0.00038147296 -0.00039270363 -0.0019492371 -0.0020386188 -0.0013468011 0.00030527773 0.0008882086 -0.0010934444 0.000596242 -0.0017738268 0.003314629 -0.00030908844 -0.0022221275 -0.0006834933 0.0025482338 -0.00026846744 -0.0016306973 -0.0026537173 -0.002136057 -0.0010712903 0.0024604832 -0.0023620746 0.0006247438 -7.924057e-05 0.0012744081 -0.0027487124 0.0026069854 -0.0010413599 0.0016320662 -0.0031135327 0.001664195 -0.002586866 -0.0011207438 -0.00034272182 -0.0010880501 -9.078105e-05 -8.6124914e-05 0.0014974498 -0.0007646908 -0.0015321393 -0.0021514406 0.0028567337 0.0015670497 0.0032014444 0.0019362944 -0.0014801746 0.0028630637 -0.002169111 0.0010965235 -0.00096873223 0.00021901028 0.0011882333 -0.0008976822 -0.0014651375 -0.0004875986 0.0003150249 0.0022265438 -0.0019026443 0.0015694178 -0.0012244985 -0.0026834663 -0.0019408729 0.0006875002 0.002872478 0.0027975535 0.0030193492 0.0024338174 -0.0011677843 -0.0007639419 0.0029442748 0.0022060168 0.0021130494 0.0021772163 0.000735369 0.0008909159 -0.0027928809 0.0026039702 0.003100995 -0.0022317402 0.00034858377 0.0028717094 0.0011115128 0.0026266475 0.0026377446 -0.00071391964 0.0029395984 0.0020416717 -0.00040891528 5.2923475e-05 0.0033767002 0.0018752033 -0.0021727274 -0.0011283619 -0.00092383305 0.0012595541 0.000493246 -0.0029629401 0.0006399157 0.003214979 0.0008335437 0.0014754242 0.000730295 0.0028430216 0.0029808194 0.000890915 -0.0007353853 0.0012806765 -0.0027631551 0.0026437817 -0.00151244 0.0032481921 -0.0032315846 -0.0008248732 0.0028525835 -0.0012498186 -0.0005501582 0.0017249932 0.0031266455 -0.00038428468 -0.0022346224 0.0035207772 -0.0030185564 0.00031184667 0.0018967025 -0.0024366283 -0.0019731582 -0.0031858312 -7.666575e-05 0.0018756649 -0.002671666 -0.0008982526 0.0028559144 -0.0017817653 0.0010136754 0.0013410094 -0.0012489023 -0.0018354616 0.0026078764 -0.0010471884 0.0030714385 -0.0010793833 0.000925982 0.0019417419 0.00026120862 0.0013160583 -0.0020811616 0.002666173 -0.00041769884 -0.0016138377 0.0016968282 0.0031198855 -0.0018584781 0.00020941642 0.001472573 -0.0008984868 -3.0026787e-05 0.002858431 0.002451777 -0.001954098 -0.0010240595 0.003050637 -0.00022214565 -0.00313737 -0.00024988575 -0.002215319 0.0003631914 0.00032038373 -0.001560128 -0.0012811264 0.0027365228 0.001526282 0.0009620576 0.0006273497 0.0028008963 -0.0016713997 0.0019186314 -0.00043573877 -0.0025173414 -0.003189825 -0.00062100013 0.00286236 0.00046253728 -0.003059508 0.00022757631 -0.001263467 -0.0010523418 0.0028780194 0.001965392 -6.546951e-05 0.00091081834 0.00028178818 -0.003486073 0.0009540547 0.0024662847 0.0011639661 0.00081796024 -0.0012298573 0.00075484405 -0.0025656037 0.0012660068 0.0007308422 -0.00020356606 -0.00017824325 0.0010068158 0.0007875191 0.00050936616 0.0031117506 0.0011577137 0.0004526248 -0.0010692825 -0.002146973 -0.0030680161 -0.0011988004 0.0014853679 0.0023980213 6.186422e-05 -0.0018540149 0.0010148238 -0.0014445774 -0.00023142145 0.0030052562 0.0026973677 -0.00032024694 -0.0020529146 0.0011154911 0.003326932 0.002856684 -0.00069344236 0.002470484 0.003215449 -0.0031933428 0.0029848309 0.0001580492 -0.0019323446 0.001339486 0.0029446704 -0.0024306981 0.0023734225 -0.0024052737 -0.002497071 0.0018006609 -0.0014934728 0.0016379147 0.0025335622 0.003079171 0.0019487203 -0.0030824633 0.0010842371 -0.0029680852 2.4048115e-05 0.0033663795 -0.0016217767 0.0013437519 -0.0021431514 -0.0026950021 0.0028579403 0.0010878311 0.0022542514 0.0008859311 0.00043548495 0.0013319976 -0.0026279252 0.0018786342 -0.0017794375 0.0014858944 -0.001670483 0.00047643765 0.001070609 -0.0007260859 -0.0025427998 -0.0020673426 -0.003284866 0.0032927168 -0.001380869 -0.0002642312 -0.0028185926 -0.0014664555 -0.0018824008 0.0010061888 0.0019046564 0.0011849011 0.0031954264 0.0007172944 0.0032225798 0.0025784187 0.00076545915 0.00080003863 -0.00254986 -0.0007978063 0.0019446546 -0.002522477 0.00083769014 -0.0024716079 0.0033617676 0.00022987045 0.00040126336 -0.0016605068 0.0022342221 -0.0025169025
