309 300
, 0.0049757925 0.037511583 0.0018532411 0.022880679 -0.0036036647 -0.022570912 0.021074975 0.077738434 -0.0031294397 -0.018562306 0.018660117 -0.027089203 -0.006923425 0.013441776 -0.019389626 -0.023711158 0.033840872 0.005799509 0.008097244 -0.016843012 -0.012051876 -0.0014903881 0.028148599 0.0130740935 0.011281234 -0.0020842322 -0.040810287 0.0022999027 -0.020163013 -0.03498987 0.008435134 -0.014699739 0.021737743 0.0019390001 -0.013357627 0.024364376 0.014289352 -0.029100575 -0.0137782805 -0.0025524795 -0.013904923 0.008042929 -0.0072543067 -0.026209412 0.026659641 0.03846574 -3.213548e-05 0.008528338 0.008311884 0.01976118 -0.00029927806 0.003449789 -0.015106423 0.01953198 -0.0049458756 0.013061455 0.005495584 -0.0071076155 0.00045802508 -0.0069475854 -0.00047789677 -0.01304826 0.0012476112 0.0034236563 -0.01091062 0.016468942 0.005830655 0.0060640224 -0.026751988 -0.009190515 0.0072960155 0.022413421 0.026005963 -0.027233314 0.008671862 0.013720171 -0.018546531 0.00531632 -0.01645442 0.026721887 -0.010496439 -0.026667118 0.0025518872 0.058395375 9.534017e-05 -0.00981771 -0.008207982 0.0034440788 0.029402735 0.016081747 0.025700983 -0.018274624 0.0122790495 0.007405704 0.030855829 0.037426416 0.022538347 -0.014938792 0.003932165 0.021031247 -0.013183409 0.0035768927 0.029139794 0.020346805 0.0021582164 -0.027749036 -0.0057597915 0.0039285393 -0.03657338 0.0009745485 -0.035881747 -0.014846921 -0.0067777894 0.03066975 0.0078781415 0.026379507 0.010840624 0.012728457 0.034450665 -0.044483494 0.00887825 0.02901418 0.03748031 0.003785102 -0.01888689 0.035756685 -0.0014322676 -0.020320164 -0.005581566 0.03346033 0.028535191 0.03220868 0.00910443 -0.04278226 -0.0017472269 0.014171493 -0.019735998 -0.020657148 -0.027158545 -0.031868115 0.01582995 -0.0413395 -0.008579255 0.020571655 0.0019410352 -0.02738439 -0.03536703 -0.026005913 0.028603956 -0.016817754 -0.004512162 -0.057140473 0.003497666 -0.011740438 0.007794659 0.0320217 -0.027821315 -0.008211497 -0.006896253 0.03887621 0.0031330972 0.012747685 -0.03918107 0.010070529 -0.016667768 0.009510902 -0.0064408253 0.010754431 0.0019496212 0.05219255 -0.025489034 -0.0010479172 0.017715173 0.025431072 0.002795381 0.0046856417 -0.0037255592 -0.032369096 0.0148910815 -0.015577689 -0.023069227 0.016499558 -0.02492327 -0.005981239 -0.014153812 -0.001677768 0.044926804 0.036801714 0.0101451725 -0.03884492 0.01121872 -0.012184209 -0.027094858 0.00011064793 0.004718384 -0.015700115 0.010616817 -0.03535165 -0.0010405586 -0.001756818 -0.03008673 0.014007621 -0.009784976 -0.008129454 0.005737532 -0.0025477135 -0.017948505 0.02224483 -0.008633132 -0.006022488 -0.008579496 -0.03375081 0.008552132 -0.011102455 0.023702946 -0.040135212 -0.019270778 -0.045120772 -0.050551664 -0.034446634 0.0078041204 -0.0029833664 -0.020759085 -0.0155668 -0.0016162453 -0.018657587 0.011118771 -0.017204588 -0.01058091 0.014181416 0.017969713 -0.01904608 -0.017788315 0.019581098 -0.022026673 0.011874074 -0.00401888 0.0013583549 -0.0015072917 -0.04612047 0.0062365155 -0.003390856 -0.0006818574 0.011499263 -0.006169801 -0.029918246 -0.0013483735 0.0060095172 -0.0018173337 0.026767265 0.018104373 0.014576074 0.013007324 -0.011181068 -0.037108406 -0.031431265 0.043396447 0.0062541394 -0.05670187 -0.030554807 0.015486833 0.01225336 0.026599195 -0.05878776 -0.042124107 0.0015024847 0.020807521 0.028999781 -0.03247 0.008812756 -0.011687467 -0.0061573787 0.0049159355 -0.0012681871 0.016390026 0.027338648 0.03180613 0.012831989 -0.036791194 -0.004107586 0.0025536641 -0.018202027 -0.0060150316 0.010176064 -0.0024969073 -0.0043387027 -0.04395422 0.011768537 0.012779805 0.039033193 0.0073256823 0.04134317 0.022510385 0.003008951 0.045575917 0.05065726 0.012190446 -0.026648378 0.020903515 -0.023492076
die 0.00065764325 0.028602216 3.3015564e-05 0.012967197 0.0011878269 -0.015190976 0.013825721 0.05312369 0.001075181 -0.014258912 0.014142361 -0.016587699 -0.002427544 0.005511217 -0.009274963 -0.01646712 0.025464484 0.002006604 0.004636888 -0.006987214 -0.009354929 -0.0027855656 0.02083744 0.011912047 0.0030043344 0.00012607111 -0.025426324 0.0016256091 -0.011210571 -0.022904415 0.00764036 -0.011154914 0.010318399 0.0022218504 -0.007185609 0.019873146 0.0109798955 -0.020622788 -0.01258846 0.002681074 -0.0061141746 0.005939721 -0.0010057457 -0.017915992 0.020521378 0.027211651 0.0026824886 0.0028194853 0.0033021928 0.010508294 0.0029920405 0.0012076757 -0.01253439 0.009970298 -0.007411148 0.009814064 0.003424969 -0.00017294036 0.0029298703 -0.008204319 0.00010785724 -0.007407406 0.0043667676 0.003616608 -0.0055415193 0.008645429 0.0039345613 0.0054865587 -0.0182328 -0.010042399 0.0055135386 0.012123657 0.017726706 -0.013163126 0.004004463 0.0077358237 -0.016157404 0.005968321 -0.012312828 0.020988915 -0.008790302 -0.01686138 0.002022416 0.0390381 0.0009383572 -0.007938259 -0.004181176 0.005227909 0.020159222 0.006352635 0.014619022 -0.012854779 0.007246947 0.0041003763 0.022017691 0.02418027 0.019272814 -0.010890614 0.0017576147 0.011045523 -0.009391098 0.0020609607 0.016244004 0.011727655 0.0011005613 -0.015620841 -0.0037896624 0.0020325293 -0.025610493 0.004581622 -0.026387054 -0.0067176395 -0.006049448 0.020068206 0.002880083 0.014819963 0.0047985404 0.008876821 0.026214542 -0.031854827 0.0059352196 0.01796641 0.02631448 0.007994086 -0.015249574 0.024000626 0.00034542754 -0.012990864 -0.0062804674 0.021491973 0.019431006 0.023606738 0.006741058 -0.030986615 0.00073184015 0.0069542537 -0.01587779 -0.014371718 -0.020875007 -0.023490366 0.009607944 -0.028739648 -0.0070639714 0.017037848 0.004143978 -0.022771876 -0.024342068 -0.017371923 0.020858424 -0.014217179 -0.0034167708 -0.035347678 0.0057441117 -0.010290098 0.0051303846 0.017471265 -0.024225194 -0.010242676 -0.0049222675 0.022669807 0.00568354 0.0059826835 -0.024773879 0.008377275 -0.013293918 0.0049926336 -0.0028865787 0.011648041 -0.0017507921 0.03700881 -0.018270582 0.0032436282 0.009903871 0.017008033 0.003100576 0.0069373664 -0.0017787203 -0.018686086 0.01153959 -0.013032715 -0.016178224 0.0078065684 -0.017124569 -0.0034947423 -0.012248855 -0.0033448508 0.033256434 0.027940823 0.003244316 -0.026923826 0.008360234 -0.00957226 -0.017145006 0.0004415771 0.004688103 -0.013946662 0.008046742 -0.021885823 0.0017341818 -0.0011182302 -0.023431959 0.009618612 -0.005478775 -0.008449412 -0.0009619801 -0.0039503546 -0.009933459 0.01579614 -0.006254799 -0.007903546 -0.0064968397 -0.022964478 0.0013157364 -0.011015774 0.013640029 -0.02877908 -0.016318828 -0.035002194 -0.033237074 -0.022865413 0.0040346743 -0.0012287257 -0.010645326 -0.00626273 -0.0052968096 -0.012853792 0.006439539 -0.016135478 -0.0051891417 0.010745146 0.012911629 -0.014057188 -0.012049629 0.01131432 -0.012925115 0.011602262 -0.00075387716 0.001826669 0.00024175695 -0.032214016 0.008685841 -0.0052623907 -0.0026656273 0.005454487 -0.005264409 -0.022522883 -0.001583365 0.0071601723 -0.00044159588 0.017803736 0.013032227 0.007839966 0.013053719 -0.0029915897 -0.026401117 -0.01931666 0.03339469 0.0027616248 -0.0394287 -0.022555599 0.0124104945 0.008973993 0.019122357 -0.043022294 -0.025712857 -0.00022709732 0.012711552 0.01928939 -0.023191418 0.0016675792 -0.00824541 -0.0033721544 0.004923356 0.00050172606 0.01164138 0.019389316 0.016531443 0.008975448 -0.024217285 -0.0013550258 0.0038213579 -0.012854602 -0.0004632707 0.003837371 -0.0021730957 -0.0045306548 -0.030561227 0.012727031 0.006381303 0.027465783 0.00903178 0.029984884 0.010461501 0.001921634 0.03269648 0.03500177 0.0064324164 -0.021191422 0.013452197 -0.016594257
. 0.007008502 0.031935524 -0.00018234701 0.01820306 -0.00049423357 -0.01771181 0.018946882 0.06685515 -0.0022542225 -0.015913842 0.016445076 -0.023276608 -0.00513469 0.013014074 -0.017392972 -0.021041013 0.032566212 0.0071952334 0.01024397 -0.015143154 -0.012501686 -0.0034476812 0.026263325 0.011986132 0.00862462 -0.00010435672 -0.036660258 -0.0011749957 -0.0155418 -0.030843366 0.011900583 -0.009900079 0.01627955 0.004917188 -0.013132085 0.022743551 0.007901168 -0.027379246 -0.014371095 -0.0036392196 -0.007009568 0.003664458 -0.0014516833 -0.02475217 0.024849655 0.037577827 -0.0002284786 0.0013160491 0.004555624 0.013963634 0.0020579232 -0.0015578057 -0.015168371 0.018156406 -0.009735247 0.009941521 0.0027454924 -0.007305814 -0.0009293427 -0.011676804 -3.8364877e-05 -0.01353533 0.0046007815 0.0057703676 -0.010334612 0.015927587 0.0034329938 0.0022024983 -0.02531865 -0.010495312 0.0041993093 0.019686056 0.022784183 -0.020128476 0.008621259 0.009651544 -0.01721961 0.006832259 -0.014807831 0.028875746 -0.0072449604 -0.026902327 -0.0018182753 0.050894678 0.0013151236 -0.011302893 -0.0060342425 0.002810575 0.025086006 0.012365688 0.021497177 -0.016369894 0.008769621 0.0063098515 0.024400447 0.032184348 0.02541913 -0.012995121 0.0027345766 0.018728904 -0.0064482507 0.00064205757 0.027415603 0.019222543 -0.0016863603 -0.022949837 -0.004245759 0.00042895103 -0.033584144 0.0006021013 -0.0321378 -0.010767544 -0.0028779323 0.02457338 0.005740306 0.022237236 0.009207317 0.009121704 0.029749762 -0.042436525 0.0073988265 0.029273009 0.031612836 0.003233634 -0.021460311 0.033394005 -0.0013670095 -0.017132374 -0.0067395535 0.03071121 0.020385943 0.031141918 0.007865622 -0.038838435 -0.0036561815 0.011217036 -0.021310128 -0.020609457 -0.02958322 -0.030439364 0.014762837 -0.03551745 -0.0054288553 0.019657755 0.0056532696 -0.028656803 -0.035615705 -0.023771679 0.028441546 -0.0152701745 -0.009125744 -0.048500806 0.006534859 -0.014099323 0.0055225734 0.029095363 -0.030601371 -0.008118556 -0.005759327 0.034801755 0.0081706 0.0095086675 -0.034838844 0.013661997 -0.015092938 0.00916726 -0.0112628415 0.014550556 -0.0008677095 0.042627215 -0.020718215 0.0015404798 0.015961854 0.020067276 0.0015400132 0.006741767 0.0014785125 -0.029905176 0.012745649 -0.015598519 -0.020132987 0.013332422 -0.026589233 -0.0024315724 -0.012376599 -0.0016535361 0.04179914 0.039093785 0.0112617295 -0.033889916 0.010406924 -0.011741061 -0.027454186 0.0045982213 0.004368224 -0.014997991 0.0072330185 -0.03211974 0.0033413947 -0.0042288117 -0.030144606 0.014658224 -0.0054921834 -0.003670121 0.0049909083 -0.0035364013 -0.011610115 0.017542768 -0.0075330655 -0.0059449417 -0.0050120954 -0.031020021 0.008134087 -0.011477119 0.022140253 -0.033798672 -0.020853722 -0.043968182 -0.044917114 -0.030204441 0.0094035175 0.0019872745 -0.014326882 -0.013803762 -0.0026147012 -0.014558014 0.006216985 -0.020141419 -0.0071313665 0.008666215 0.016644914 -0.016519105 -0.01197874 0.021557424 -0.017159978 0.012835588 -0.0043327776 0.0026542926 -0.0005064608 -0.043896694 0.006510256 -0.0025057376 -0.00026273268 0.00792741 -0.006913171 -0.028582541 -0.0016157437 0.0075911125 -0.0018343275 0.022836704 0.015782734 0.013879655 0.013567795 -0.009236338 -0.028966205 -0.027093556 0.04018919 0.007201827 -0.046651993 -0.028464276 0.010282399 0.0106270155 0.024247518 -0.053277194 -0.038526285 -0.0016314257 0.0146730915 0.026300618 -0.030412031 0.0071107233 -0.0149573805 -0.0065751323 0.0051736454 0.00082078174 0.013040219 0.01980201 0.023544025 0.007598793 -0.034928422 -0.004134593 0.0015851693 -0.01630389 -0.0007692409 0.009606974 -0.0005662709 -0.0017409342 -0.037589416 0.010242173 0.00825563 0.03612524 0.0062282495 0.0358518 0.018241653 0.0034497366 0.041888285 0.046475857 0.009922131 -0.021540169 0.01827822 -0.020680023
eine 0.00075144426 0.016287914 -0.0024483893 0.012634831 -0.00083275116 -0.012291122 0.008015604 0.038628247 -0.0016585481 -0.009832402 0.0085367225 -0.014168774 -0.0031668493 0.005880983 -0.009755906 -0.008617009 0.01759915 -0.0005181845 0.00749707 -0.0089715 -0.0068794363 1.19076e-05 0.011138256 0.005671339 0.0071621975 -0.0018720968 -0.022589099 0.0033563508 -0.009344016 -0.018308548 0.008199075 -0.005721644 0.010640351 0.005235339 -0.008966312 0.0139911845 0.0064733583 -0.012101491 -0.006354729 0.0010068676 -0.003736123 0.005175335 -0.0033585122 -0.013858602 0.013062753 0.01985862 0.00031585505 0.0045679417 0.0047120107 0.010783641 0.0020207327 0.0035652886 -0.007381505 0.012288342 -0.002644312 0.00454973 0.0006263206 -0.0031989468 0.002488024 -0.0052555357 -0.0009285129 -0.0039017831 0.0044378317 0.0023802642 -0.0067571197 0.006162919 0.0013806677 -0.0011816174 -0.012266715 -0.006397547 0.0034933658 0.011596695 0.01182055 -0.015219034 0.004011424 0.004506864 -0.009605187 0.0013832102 -0.0053384155 0.015004586 -0.0040024035 -0.01460267 -0.0002174131 0.030253777 0.0014663199 -0.0071233115 -0.007834997 0.0029658235 0.017248461 0.008728417 0.009481304 -0.0062164348 0.006804526 0.006112094 0.016993122 0.01526111 0.009673472 -0.0042105084 0.0049144607 0.010579198 -0.0027084474 0.0006846355 0.016157586 0.0059580216 -0.0028387073 -0.014938828 -0.0043084663 0.0025651266 -0.018879171 -0.0012526183 -0.014841549 -0.007170509 0.00040769426 0.012381263 0.004572517 0.013562147 0.004951885 0.004091095 0.01850296 -0.024644755 0.0031729876 0.014129957 0.019658422 0.0023046527 -0.012740403 0.018851832 -7.658729e-05 -0.0120066535 -0.00019961104 0.016788477 0.011113947 0.016919928 0.007569823 -0.017587356 0.00066525367 0.008140699 -0.010043975 -0.011897626 -0.01719659 -0.017512333 0.0059867217 -0.019443724 -0.004835862 0.0126845315 -0.00067663786 -0.017300116 -0.019445045 -0.0131380465 0.011416505 -0.008426979 -0.0052904757 -0.027112573 -0.00063368405 -0.0058187796 0.0051049846 0.01439571 -0.017181441 -0.005710419 -0.0009147387 0.019271271 0.00015113284 0.004597443 -0.01775596 0.006565674 -0.012025321 0.005438107 -0.0073388945 0.0038137096 0.00089347124 0.023583854 -0.010934269 0.0038842969 0.0067441473 0.014627268 0.002124521 0.006703812 0.0012556998 -0.018685296 0.005441347 -0.0050057177 -0.007967097 0.010373161 -0.010800336 0.0008547558 -0.010501353 0.00095268624 0.02046985 0.020934837 0.0065760408 -0.017005967 0.007869342 -0.0052742586 -0.014158788 0.003221826 0.00089927815 -0.00829459 0.007430463 -0.018850666 0.0023829774 -0.00417551 -0.011654888 0.009084451 -0.0034321866 -0.0020221113 0.001990722 -0.0047032055 -0.008831264 0.012654359 -0.0043992633 -0.0053853747 -0.0017582115 -0.015188334 0.0019418016 -0.0066076545 0.012516003 -0.020879202 -0.011548353 -0.026215514 -0.025033502 -0.018930236 0.003575082 -0.0035038635 -0.009168917 -0.009100641 -0.0055277687 -0.011173734 0.0016709162 -0.007159895 -0.0029062147 0.0064457334 0.007015918 -0.010619462 -0.00748135 0.010304492 -0.009419584 0.0064715575 -0.0017125945 0.0001779071 -0.0036484846 -0.024601024 0.00115651 -0.002508815 0.00037380419 0.0070563667 -0.0044008126 -0.01637971 0.002191185 0.003527423 -0.00085877173 0.016235314 0.009626398 0.0058146287 0.009803322 -0.0028043592 -0.019236568 -0.014558707 0.022127897 0.0056630936 -0.027505862 -0.015513662 0.0075813527 0.0069884467 0.012148868 -0.030141233 -0.021647489 0.0016462432 0.011552103 0.016259043 -0.017923644 0.0043098303 -0.007626861 -0.0007037461 0.0027057466 0.000602089 0.009440168 0.014346497 0.012344244 0.008410262 -0.018464135 -0.0033959905 0.00037990123 -0.004364243 -0.0038955635 0.0042443504 0.000869061 -0.0012689254 -0.0231107 0.004891538 0.007989826 0.021405479 0.005948807 0.018525783 0.0064621363 0.0034156537 0.023702655 0.022246664 0.0023780232 -0.014302333 0.0073572733 -0.011157841
und 0.0021692878 0.019056441 0.0030955041 0.008023585 0.0012816075 -0.009602141 0.010049848 0.044720747 0.002528539 -0.011441633 0.006974769 -0.017045887 -0.005649565 0.005148259 -0.011762298 -0.015650213 0.01853 0.004034776 0.008269327 -0.008499577 -0.009529776 -0.0012902917 0.014529998 0.009858432 0.0051813973 0.0018525049 -0.025301987 0.0030329432 -0.010392267 -0.015832867 0.003556737 -0.007498276 0.010683361 0.0022960561 -0.008566435 0.010802587 0.004009424 -0.01776375 -0.0069851903 -0.00029124043 -0.0066287215 0.005858541 -0.0033683137 -0.014300681 0.011823276 0.018124854 0.0045147357 0.0010603614 0.0016507935 0.011012272 0.003599153 -0.0012872457 -0.007334629 0.0087267915 -0.003739514 0.0067190886 0.0011074855 -0.0020615777 0.0038365847 -0.0032341739 -0.003237655 -0.00910444 0.0041285227 0.004027862 -0.007144229 0.00890889 0.0066444925 0.0020567626 -0.017414536 -0.0050953105 0.0051085665 0.012960627 0.016175115 -0.015409625 0.0038521735 0.0075319735 -0.010248517 0.00031388743 -0.011296211 0.016639788 -0.008609745 -0.013458712 0.00012915877 0.034544505 -0.00056688214 -0.0060304543 -0.003221286 0.001495931 0.015361839 0.008190879 0.014915159 -0.011153041 0.008417582 0.0016169808 0.016531345 0.02008275 0.017136611 -0.00502862 0.0042885575 0.013115713 -0.008882744 0.0045286547 0.012698681 0.009368035 -0.001748301 -0.016048351 -0.00612239 -0.0014976051 -0.021263901 0.0012694909 -0.021575633 -0.0046711713 -0.0058649853 0.014053948 0.0067902682 0.015670534 0.007402331 0.007130011 0.019999504 -0.026616925 0.0064790705 0.017802255 0.021887561 0.006047502 -0.009053221 0.022247214 -0.003211948 -0.0143586425 -0.0023870843 0.019610764 0.016414799 0.020464517 0.00773217 -0.024490725 0.0004739668 0.0059625604 -0.01510521 -0.009658566 -0.016533213 -0.02051085 0.006444298 -0.023142926 -0.0015751759 0.013043082 0.0008062576 -0.01915262 -0.02191556 -0.01436484 0.017745947 -0.0106674405 -0.0039020295 -0.029688451 -0.0003996178 -0.006542034 0.0041167834 0.017063212 -0.015485971 -0.006346811 -0.0045529716 0.0228657 0.004913154 0.00877466 -0.0194115 0.009506869 -0.007439978 0.0039655142 -0.0021477703 0.008607259 0.0015176885 0.027423285 -0.014207885 -0.0004954701 0.0060735065 0.013917944 0.0046943724 0.0067505 -0.0014806354 -0.01552647 0.008598781 -0.009504618 -0.010388936 0.006629218 -0.012091591 -0.00030797799 -0.0069493474 0.0007056379 0.027951311 0.024777269 0.0048533445 -0.023118766 0.0087784855 -0.004040551 -0.014919957 0.0010862068 0.0010420785 -0.010655705 0.007817339 -0.020269386 -0.00084040756 0.0015225008 -0.0142012825 0.010354945 -0.0038276606 -0.0070777126 0.0045452495 -0.00398088 -0.007429561 0.013332679 -7.789134e-05 -0.0076254965 -0.0008423202 -0.02128674 0.000742699 -0.009439271 0.009901133 -0.018826028 -0.008608474 -0.028137697 -0.02528918 -0.019414444 0.008313185 0.0011176871 -0.010961507 -0.008456884 -0.0047915583 -0.00795808 0.004921096 -0.011404607 -0.0020546347 0.005736977 0.0059564137 -0.009819203 -0.00853229 0.009268685 -0.012581977 0.0040934766 0.0008524727 0.0025135733 -0.0012354425 -0.023125682 0.0071031037 -0.0024425534 0.002047583 0.0063549466 -0.002458174 -0.015041118 -0.0026767072 0.0030939924 6.372444e-05 0.016429499 0.011017523 0.010286305 0.010078906 -0.007526274 -0.020110851 -0.018860947 0.027717663 0.005987678 -0.030338205 -0.015023879 0.005276431 0.0054569608 0.01423393 -0.030862723 -0.02084976 0.001037016 0.009498067 0.014080507 -0.016898364 0.0027813497 -0.009132177 -0.006965697 0.004120872 -0.0014866228 0.009061682 0.011128892 0.019114904 0.0067783683 -0.019323483 -0.0014545408 -0.0012563 -0.008040564 -0.00091966096 0.0028327466 3.7396316e-05 -0.00047186142 -0.02109694 0.009533037 0.00454568 0.019241255 0.0073136925 0.022680227 0.012480686 0.0045609525 0.024564084 0.025195075 0.005694065 -0.012221322 0.008073132 -0.008628957
sein -0.00025592244 0.017339544 0.000784248 0.011078643 -0.0018031878 -0.01014454 0.0060247136 0.03302144 -0.0020314734 -0.0045185 0.005432739 -0.01440789 -0.00398206 0.006900978 -0.0096947355 -0.011624788 0.011629685 0.004414665 0.005774734 -0.0048487186 -0.007286578 0.00079497724 0.0090387175 0.0047821174 0.0019275629 -0.00078824884 -0.01788305 0.0030695691 -0.007377958 -0.017150892 0.0028349299 -0.008469282 0.0087869195 0.0050692176 -0.0072709806 0.013396324 0.007707709 -0.014112633 -0.008839261 0.0027893868 -0.0016989504 0.001090741 -0.004127976 -0.007968128 0.012643965 0.01916789 -0.0015216317 -0.0009871047 0.003429258 0.0037487198 -0.0005128948 -0.0004521309 -0.0026034648 0.011142487 -0.004199138 0.008191365 0.004498228 -0.002931004 0.0038403547 -0.0019004474 0.00074524316 -0.006955371 -0.00047795018 0.001479124 -0.0018156271 0.004615975 0.001601309 0.0047913766 -0.009812399 -0.0022592081 -0.00044569516 0.008137111 0.013236738 -0.0118738245 0.005553229 0.008917181 -0.009166348 0.0015357286 -0.0067964606 0.010730508 -0.007135953 -0.012211212 -0.00061402476 0.025432058 -0.0013841643 -0.0026056438 -0.0066636587 -0.0004824154 0.015795575 0.008989575 0.009545103 -0.0067320038 0.0027643673 0.00011192231 0.009910786 0.017479004 0.013045512 -0.0021818934 0.003950276 0.010373063 -0.0038607926 -0.0022329143 0.013257492 0.0076502534 0.002003235 -0.010340706 -0.0037965344 0.0033665535 -0.014669421 0.0013505843 -0.016838294 -0.007896545 -0.0046313675 0.015001782 -0.0002590219 0.013294166 0.0005464522 0.004341839 0.014641208 -0.021847906 0.0064826794 0.015286813 0.015859138 0.0046439236 -0.009014303 0.017983813 0.0024523681 -0.012570897 -0.0036978212 0.012911014 0.011810214 0.012816716 0.0044140154 -0.020064173 -0.00040980577 0.0072178678 -0.007694427 -0.010825414 -0.015771661 -0.018129155 0.005298997 -0.019081714 -0.004655082 0.010865132 0.0036383509 -0.012128778 -0.018618667 -0.012791285 0.014736003 -0.0061542518 -0.004765684 -0.025508258 0.0017184215 -0.004391698 0.004216713 0.0134468535 -0.01503378 -0.0078741545 -0.005211406 0.015632981 0.0041645486 0.0065088742 -0.01549117 0.006820627 -0.007535667 0.004646299 -0.0069015645 0.008016003 0.0018870828 0.023006806 -0.007923902 0.003594826 0.0071043195 0.0094097415 0.0015280171 -0.00032686463 0.0020829453 -0.015638128 0.008422018 -0.0076754736 -0.008309234 0.00332294 -0.014647055 -0.0041645356 -0.008810854 -0.00032432593 0.016747864 0.015414207 0.00214657 -0.017298928 0.0068632527 -0.0033907893 -0.008901746 0.0036218432 0.0005234105 -0.004642502 0.0006188465 -0.015594558 -0.001575258 9.971512e-06 -0.012199971 0.007937845 -0.0022506337 -0.005636413 0.0039568306 -0.0042097513 -0.0040924964 0.010166853 -0.0039066593 -0.00509747 -0.004507826 -0.01609356 0.0054863985 -0.0058289454 0.011624323 -0.019484561 -0.008207309 -0.02114866 -0.017734658 -0.01693565 0.006892244 -0.0022939572 -0.010311324 -0.007466613 -0.0029467 -0.008415281 0.0022211233 -0.010616567 -0.0033790688 0.005227852 0.0063493624 -0.0057060677 -0.00918908 0.0077580214 -0.0063907984 0.008247964 -0.0051128753 0.0024807788 0.00091318344 -0.020685114 0.006270757 -0.0047681876 0.0023716302 0.005685554 -0.0027586636 -0.015100507 -0.0023322583 0.0018311513 0.00031721886 0.012128411 0.010114292 0.009948008 0.009536219 -0.0049201194 -0.011179449 -0.012877531 0.020435784 0.004177877 -0.023445534 -0.011311229 0.0041643176 0.003782491 0.007507382 -0.024626495 -0.014821823 -0.0003756218 0.008225671 0.012707326 -0.0101737045 0.0003989989 -0.00490465 -0.005930333 0.0027306026 0.0023963451 0.009901393 0.01258606 0.014980125 0.0070641437 -0.012893189 0.0012343402 -0.00080864114 -0.0035434703 0.00023852591 0.0036885599 0.0016757029 0.00069698895 -0.014804186 0.0069920607 0.007581137 0.016996088 0.006791878 0.018109744 0.010441052 0.0007332451 0.020749943 0.023213966 0.003610168 -0.012001003 0.00901247 -0.01138856
es 0.0056335684 0.014240262 -0.0019433299 0.010370009 0.0019575458 -0.011147734 0.009840804 0.03825335 -0.0029437386 -0.01019345 0.006036024 -0.013787931 -0.0019030907 0.008568333 -0.00615529 -0.01081349 0.016257506 0.0054308656 0.008201643 -0.0045386697 -0.0048583453 -0.003979114 0.010913989 0.0041265883 0.006319356 -0.0011696013 -0.02195633 0.0027263695 -0.005476148 -0.017001165 0.008069696 -0.007094712 0.0076460345 0.0019859422 -0.0057762004 0.0104637295 0.0062988917 -0.011023692 -0.0043096184 -0.0034290664 -0.0057008294 0.0010786151 0.00035648764 -0.009606396 0.011017201 0.018906575 -0.0008922186 0.0023986532 0.0063994033 0.0067913444 -0.00057976984 -0.0015360916 -0.0075419815 0.008853861 -0.002462975 0.010152356 0.00072676875 -0.0016949583 0.00407095 -0.0042942967 0.0003820097 -0.0030247762 0.0043332186 0.0053318357 -0.006923791 0.010750338 0.004832848 0.004863036 -0.0128301205 -0.0035490177 0.004800892 0.008057288 0.014677357 -0.010432722 0.0064991047 0.005304591 -0.010813761 0.004748338 -0.010410204 0.011600869 -0.0068770223 -0.013285768 -0.0004166039 0.028642531 0.0039386842 -0.005094853 -0.004430691 0.0029586274 0.013653035 0.003930188 0.014296846 -0.00999288 0.006700669 0.0062896856 0.013908825 0.01789089 0.013381762 -0.0066991705 0.0030218991 0.009138425 -0.00293911 0.002804221 0.0135796275 0.010613014 -0.0032424086 -0.009870674 0.00013262984 -0.00054254767 -0.01631888 -0.0003559407 -0.016600592 -0.0046750316 0.00048209983 0.013509404 0.0039691054 0.011886638 0.006763883 0.0029545347 0.014757513 -0.022000771 0.003124999 0.015980635 0.013598714 0.00244426 -0.012749054 0.018226063 -0.0008722568 -0.013256939 -0.0010304449 0.017764704 0.010746638 0.013938137 0.0053867255 -0.019321052 -0.004728042 0.009063889 -0.012792376 -0.012405488 -0.015158388 -0.018446703 0.006709069 -0.015081263 -0.0009780125 0.012461875 0.0011562192 -0.013956651 -0.018527532 -0.014937892 0.014363427 -0.007559499 -0.006522219 -0.0270638 -0.0015256363 -0.007977358 0.0051780185 0.016631888 -0.013270208 -0.0041673533 -0.0003846793 0.01679297 0.002510694 0.0025267096 -0.017692663 0.0046908613 -0.0082008615 0.0060893623 -0.00669958 0.0046301764 -0.002517808 0.022392508 -0.0126124695 0.001717214 0.008699851 0.009254472 -0.00011638515 0.0036400824 0.0012342772 -0.013122828 0.005144247 -0.008242488 -0.011317651 0.006848776 -0.011775085 -0.0012357899 -0.004481935 -0.0013108606 0.021157613 0.016939651 0.0040122285 -0.020146433 0.00481547 -0.0050306334 -0.01590303 0.0042866073 -0.00036853817 -0.011112189 0.0011686238 -0.013746553 0.002771219 0.0016128442 -0.013204428 0.0063550905 -0.0045344634 -0.00032209948 0.002397298 -0.0010210184 -0.008286121 0.010385841 -0.00047079474 -0.0040371744 -0.002152457 -0.01566186 0.004244308 -0.0041059675 0.010804941 -0.019646592 -0.011419254 -0.021355253 -0.024326125 -0.015413138 0.004624361 0.00054260297 -0.01196314 -0.0029661423 -0.0024687054 -0.009784248 0.0051446087 -0.009567692 -0.0066406643 0.0044676806 0.0074914 -0.010761119 -0.0071289395 0.010493441 -0.010016582 0.006694412 -0.0010501118 0.003570857 -0.00040140003 -0.020802239 0.004792231 -0.0026926745 -0.0029896202 0.006973351 -0.0041922787 -0.018039264 -0.0031088074 0.0020495164 0.0012780526 0.014529137 0.010332903 0.0051045353 0.0075258934 -0.0050169304 -0.017682869 -0.0113298325 0.021953905 0.0025843873 -0.02842485 -0.015472034 0.00630951 0.009006587 0.013122446 -0.03055699 -0.021876307 0.0016017257 0.007781278 0.0114620365 -0.012177465 0.0011881345 -0.0044322205 -0.0039375923 -0.0006559615 -0.0009270438 0.010218306 0.014668105 0.014351048 0.0071636373 -0.018429162 -0.001976676 -0.0008661529 -0.006808789 -0.0021311895 0.003635196 -0.0037158492 0.0020108675 -0.01892739 0.0060269674 0.0032935068 0.020823501 0.0021322963 0.019646289 0.009279194 0.004857024 0.022526786 0.0219998 0.0056283427 -0.013168035 0.005300982 -0.010845964
auch 0.0026105444 0.018496057 0.003429027 0.011760317 -0.002863583 -0.0066773053 0.0063535254 0.032403406 -0.00049810327 -0.0053718477 0.008586371 -0.010148658 0.00070207386 0.0050645825 -0.0097293705 -0.012178036 0.016640631 0.0006491666 0.003743899 -0.0047305445 -0.007012883 -0.0033189505 0.010572762 0.006045251 0.0047641946 0.0016031953 -0.019390529 0.0012100437 -0.005255056 -0.014088512 0.006524468 -0.007916146 0.010214601 -0.0006006237 -0.0043483586 0.0077219703 0.004206946 -0.015015619 -0.006671892 -0.0021685627 -0.005930082 0.0030482458 -0.0011074403 -0.0114728 0.008868927 0.014799329 0.0014125269 0.00102325 -0.00023077994 0.0070082163 0.0032664076 0.002789043 -0.0093658855 0.0095306495 -0.005455313 0.0033483368 0.0018644495 -0.0022807473 -0.0015861326 -0.00640859 -0.00078450923 -0.0034951826 -0.0013790197 0.0051457398 -0.0046136724 0.0072517022 0.0058680405 0.003354894 -0.012480215 -0.0031766566 0.0034981328 0.01068004 0.011670442 -0.012082045 0.003519342 0.004087011 -0.00868866 0.0040535936 -0.0050811223 0.016178614 -0.0069400463 -0.013929079 0.0024087017 0.025034284 -0.0012954107 -0.004257516 -0.0036778953 0.0013133985 0.011770302 0.0077427034 0.01425143 -0.010455429 0.0047735143 0.002319288 0.009971823 0.015177714 0.009400743 -0.0025151274 -0.00031951215 0.009572989 -0.004568291 0.0024072747 0.012733214 0.011415441 0.00012989197 -0.01311181 -0.0031300604 0.0015095422 -0.016835464 -0.0012957737 -0.017547002 -0.00749599 2.299113e-05 0.013729492 0.0056375447 0.012740287 0.001733395 0.005363238 0.018460363 -0.018879581 0.004638802 0.015229867 0.01235555 0.005997862 -0.0069725676 0.018190108 -0.002739518 -0.0074339113 1.4005224e-05 0.013267624 0.008924693 0.016528524 0.001870219 -0.019657105 -2.5667923e-05 0.008501493 -0.0066632023 -0.0114513105 -0.016336724 -0.012202099 0.007854497 -0.018372983 -0.0052073095 0.0074910834 5.6513345e-06 -0.014271339 -0.016164511 -0.011275234 0.011348453 -0.0096140085 0.000100041805 -0.025183843 -0.0008535838 -0.0031749248 0.0043949094 0.0155945225 -0.015038944 -0.0068358537 -0.0025159053 0.015661217 -0.00044341217 0.0045638275 -0.015343994 0.007355396 -0.0055216732 0.0045376234 -0.0054765395 0.0049078967 -0.0015138895 0.023767253 -0.012809382 0.0015734511 0.0066698077 0.008275262 -0.0011349602 0.0049626436 -0.003336611 -0.014173114 0.006732973 -0.0037711689 -0.011118221 0.0077920747 -0.008193989 -0.0040314733 -0.007536034 0.0013467778 0.021377923 0.018095152 0.0068192347 -0.015982557 0.0053580664 -0.005656407 -0.014941133 0.0023490256 0.0031550317 -0.010261409 0.003603892 -0.015130587 0.00093928457 0.0014662901 -0.014005354 0.0036844632 -0.0009206753 -0.005684993 -0.001678229 -0.0028052824 -0.010120264 0.009545666 -0.001920266 -0.0044113975 -0.0051721777 -0.014332096 0.0019066883 -0.0038677745 0.011927601 -0.014700629 -0.0064482554 -0.02423736 -0.01767323 -0.015105369 0.0073461835 0.00024209984 -0.0073333574 -0.008797526 -0.0050102696 -0.004476441 0.0024634723 -0.007364584 -0.0015918103 0.0055199456 0.010343815 -0.0075647375 -0.010016723 0.0066206045 -0.008691456 0.0025847375 0.0007446481 0.0013276847 -0.0037848393 -0.017261237 0.006490878 0.00019243393 0.0021176126 0.0008671965 -0.0030269425 -0.016862582 -0.0020354514 0.003199242 -0.00013641795 0.01230014 0.008783228 0.0074615027 0.008487177 -0.001260008 -0.016908322 -0.010256444 0.021312391 0.006650318 -0.022327606 -0.014013895 0.00500847 0.005803209 0.0097257225 -0.022567166 -0.017063104 0.00069286796 0.009084535 0.009061613 -0.011042279 0.005744708 -0.006323072 -0.0027118505 -0.0005859338 -0.0028778918 0.0103734 0.009775716 0.014867018 0.005582431 -0.016299874 -0.00071748695 -0.0003762587 -0.0073943418 -0.0010528603 0.006161983 -0.0016456326 -0.00092595385 -0.02117617 0.009376005 0.001487852 0.01941606 0.0052400646 0.015043107 0.006627088 -0.0007886911 0.017222328 0.023736713 0.007661566 -0.011012263 0.008252395 -0.0060675684
in -8.289563e-05 0.011067309 0.0011694881 0.00402227 -0.0033323988 -0.009360229 0.0089225825 0.024962774 -0.0020143432 -0.008110307 0.005376262 -0.007317928 -0.0020791667 0.003823177 -0.0069141397 -0.00564289 0.010612023 0.004763821 0.00010909486 -0.005922108 -0.007504433 -0.0010953984 0.005405236 0.0055334526 0.0006302519 -0.0022242018 -0.010881082 -0.0026339884 -0.0048600053 -0.012858281 0.0067077638 -0.0015661055 0.0063738497 0.00318553 -0.0022467426 0.0056244703 0.0067449193 -0.011700922 -0.0015601271 0.0006986752 -0.0042718686 0.0006218845 0.0016462249 -0.009481964 0.010921987 0.009919565 0.0036080931 0.0014278061 0.0047886157 0.004008805 0.0027851171 0.0034227455 -0.003371238 0.0064708632 -0.00072242954 0.0072975033 0.004105321 0.0012740955 0.0028715918 -0.00044943602 0.0028710314 -0.004032165 0.0004803842 0.0024219356 -0.003183232 0.005093482 -0.0010401075 -0.0019103314 -0.008766412 -0.00010571377 0.0004259979 0.003679151 0.009816094 -0.0071399095 0.002846243 0.0054854495 -0.0053563975 0.0035859998 -0.004466476 0.009556911 -0.00021286392 -0.0076260027 -0.0013664564 0.01960645 0.0024172005 -0.002208095 -0.0042546415 0.0027260666 0.011529178 0.006751685 0.008135673 -0.008582601 0.0034949838 0.002320329 0.009767203 0.0079443585 0.011107105 -0.0061231707 0.0030276184 0.0027609323 2.9227158e-05 0.0031447436 0.008982147 0.0045593926 -0.0002744912 -0.00784412 -0.0040195156 0.0024393569 -0.010207335 0.002212828 -0.013559873 -0.00081407244 -0.0012456828 0.008592017 -0.00093164237 0.008821858 0.004881911 0.0056220237 0.008904333 -0.016279142 0.0007625725 0.009240903 0.007871512 -0.0005392389 -0.007221504 0.011195688 -0.0031570033 -0.007943967 -0.0014706833 0.011972651 0.008410293 0.01017501 0.0003050739 -0.014808848 -0.0011687521 0.0066089365 -0.0048908866 -0.00755777 -0.009104289 -0.01412949 0.0035717287 -0.013575968 0.00021645968 0.0055613616 -0.0006530622 -0.012399375 -0.011923679 -0.010339316 0.008208435 -0.0066973497 -0.0029731398 -0.017809024 -0.0016681497 -0.004467576 0.0030414313 0.0076629645 -0.012127705 -0.004560239 -0.0050482233 0.01099125 0.0039056381 0.002610016 -0.010638329 0.0053471196 -0.0026143726 0.0042503146 0.00037684385 0.0007130177 -0.002819797 0.013242679 -0.010089004 -0.0020407417 0.002398619 0.0062066442 0.0013882358 0.0011300453 -0.0034449676 -0.008035256 0.0043240404 -0.0029302535 -0.0038138672 0.007166515 -0.008582796 9.343617e-05 -0.0060735913 0.00037902058 0.015461324 0.015676709 0.0017288683 -0.010658861 0.0014248611 -0.004353661 -0.005911692 -0.0004628584 0.0013404236 -0.0082046855 -0.00052086846 -0.0076960977 -0.0011452986 0.0007408983 -0.011592879 0.0031826843 -0.0050872653 4.9930313e-05 0.003067987 0.00014064604 -0.0023947204 0.0063254344 -0.0048652785 0.00053260115 -0.0037775435 -0.0075046555 0.0035389878 -0.0038683175 0.003981917 -0.012234407 -0.004345091 -0.01737097 -0.01428562 -0.012788786 0.006101881 -0.0013879528 -0.002948819 -0.0058704447 -0.004520006 -0.008102614 0.0011047468 -0.0042785336 -0.0027510002 0.006981396 0.0060009784 -0.0037130257 -0.0038362897 0.009215303 -0.0067454795 0.006380156 -0.004470605 0.0010725735 -0.0008188272 -0.013945595 0.004786204 -0.0022278812 -0.0009242296 0.0027451902 -0.0024756913 -0.01089372 0.001333373 -6.361977e-05 0.0025824644 0.0084362235 0.0063689263 0.005894442 0.0046568476 -0.0020501162 -0.011553825 -0.0074632047 0.013725354 0.0012852736 -0.019861633 -0.012379448 0.0044235205 0.0022282386 0.0069882516 -0.019722208 -0.015229629 -0.00021851742 0.007612359 0.007664306 -0.011748461 0.0031539528 -0.0042712903 -0.0044027558 0.0006577652 -0.0007966449 0.0043025077 0.0042700237 0.011535868 0.0047920127 -0.011882629 0.0013441158 0.0008095042 -0.0023382509 -0.0015194358 0.0056705805 -0.00094929815 -0.0027145916 -0.014689159 0.0076219803 0.0032832664 0.012311118 0.0055506257 0.010183326 0.0054351697 -0.0012968254 0.011125358 0.012191174 0.004485186 -0.0073663127 0.0074369167 -0.0056243814
dies 0.0027265244 0.016771937 -0.00057586073 0.008924592 0.0026578782 -0.007982294 0.009608853 0.027219163 0.0015851753 -0.005233828 0.008071896 -0.01378827 -0.0023297037 0.005571647 -0.008946109 -0.011365958 0.015069474 -0.00010753979 0.0025064726 -0.0027175937 -0.008115766 0.0016223448 0.010520428 0.0066035464 0.002565608 -0.002272662 -0.018930143 3.2156953e-05 -0.008664793 -0.014368127 0.007059228 -0.008356968 0.005343533 -5.6642468e-05 -0.0070477575 0.006875143 0.004160646 -0.007564517 -0.0027720598 -0.002176385 -0.0069574704 0.001636928 -0.0048470153 -0.011572587 0.008464917 0.016292011 -0.0015245179 0.0024216936 0.0033319204 0.008275648 0.00031086756 -0.002563301 -0.003676684 0.0056344504 -0.0014424827 0.006450782 0.0044959406 -0.0013942294 2.1961556e-05 -0.0018418493 -0.0022923485 -0.008056292 0.0023221332 0.0014928024 -0.0053983987 0.0055664517 -0.00078063115 0.0017210627 -0.01056929 -0.004948532 0.002919708 0.009316237 0.0127163995 -0.012165492 0.0011380225 0.0025293187 -0.011284234 0.00084041606 -0.006512686 0.0090276925 -0.005843279 -0.011711526 0.002363826 0.022651087 0.0035995606 -0.006866248 -0.0056939577 0.001783618 0.015044718 0.0058766026 0.010488393 -0.0068097985 0.005358842 -0.00028505613 0.011952587 0.015964793 0.011801933 -0.0034215108 -0.0013045905 0.006150771 -0.0013099434 0.0007410935 0.007668899 0.008864439 -0.0021811875 -0.007980199 -0.0006322332 -0.0008617841 -0.013076829 0.003125646 -0.01531857 -0.0053015132 0.0011672458 0.014189374 -0.00049534166 0.01194946 0.0066158427 0.0030627837 0.014880853 -0.018530928 0.0061749336 0.011992689 0.015570307 0.005859582 -0.0068784812 0.011423502 -0.0006592631 -0.008328438 -0.0012809968 0.013315136 0.013119449 0.014739492 0.006976134 -0.018914025 -0.00320135 0.0058842893 -0.0073415353 -0.009399405 -0.01427243 -0.014966805 0.0022858218 -0.012200549 -0.001003598 0.005504794 0.002266997 -0.0104853865 -0.016685 -0.012065254 0.011480904 -0.0038806926 -0.005993978 -0.021242779 -0.0009849751 -0.005403632 0.00427853 0.009880702 -0.013085695 -0.003971901 -0.0047479477 0.016805768 0.0038936944 0.0018243007 -0.015564651 0.0056657894 -0.009807964 0.0005948518 -0.006361516 0.0031994402 0.0027880806 0.022154966 -0.00855043 -0.0020930532 0.008230301 0.010754259 0.0012035038 -0.00029980845 -0.0012443106 -0.01250282 0.0026288813 -0.0049681393 -0.0076885857 0.0035691392 -0.013336813 0.0005630619 -0.008522456 -0.0022937816 0.019607974 0.015672358 0.0026466718 -0.01648732 0.0038797862 -0.0028433912 -0.012923893 -0.0005838659 0.0005505268 -0.008104219 0.00084487 -0.016864305 0.0034627968 0.001336431 -0.013234592 0.0020005545 -0.0036681711 -0.004212646 0.004280077 -0.0010586524 -0.008668759 0.0073705255 -0.0056705256 -0.0026211394 -0.0041733487 -0.013823812 0.003837073 -0.0020246801 0.009857244 -0.01736904 -0.00609872 -0.022409188 -0.021118183 -0.015493138 0.0032349771 -0.000262422 -0.008964412 -0.0044931155 0.001333589 -0.004474221 0.0028663515 -0.004493717 -0.002808844 0.0043459334 0.0041654226 -0.0042337864 -0.009069026 0.007617206 -0.0050682523 0.0041215904 -0.0010402222 -0.0022963719 0.0008146718 -0.015584617 7.853951e-05 -0.0027913933 0.0025192813 0.004543247 -0.0029302037 -0.012247037 -0.0040162965 0.0059695 -0.0007812201 0.009048977 0.007909239 0.006489674 0.00414881 -0.0014295697 -0.014288886 -0.013674803 0.019773887 0.0051913755 -0.018553589 -0.011196841 0.005728761 0.0027602885 0.01090237 -0.020304844 -0.015892966 -0.0013020742 0.005887624 0.0105562685 -0.014497349 0.0047464524 -0.0047580637 -7.379205e-05 -0.00080247514 -0.0024217293 0.004808724 0.0072045494 0.012222416 0.0061894213 -0.013687363 -0.00029264874 -0.0023060825 -0.006518355 -0.0039920434 0.0050249635 -0.002014719 0.0020296418 -0.017870815 0.007847148 0.005296256 0.015770618 0.003439902 0.01833284 0.008439398 0.004545608 0.018203605 0.021135215 0.0056855227 -0.013141288 0.0051999055 -0.007936532
ich 0.0023022657 0.01744599 0.000488363 0.011494726 -0.0016689537 -0.009034453 0.0108501 0.034333613 0.00069460575 -0.006279954 0.006843495 -0.014723136 -0.0015489277 0.0020770116 -0.008837659 -0.013537038 0.014691155 -0.00016941162 0.0072574103 -0.007748598 -0.003113268 -0.0043759933 0.010367761 0.0065280125 0.0031218322 2.767786e-06 -0.019400034 1.1383375e-05 -0.009847865 -0.018462097 0.0070042447 -0.00641082 0.010521002 -0.0005069302 -0.0043723118 0.007819672 0.007770682 -0.010350142 -0.008254433 0.002284045 -0.0066198837 -3.6755184e-05 -0.0015084798 -0.010201065 0.009244692 0.014145432 0.0042594494 0.0029062016 0.003202542 0.008307016 -8.885166e-05 0.0013457885 -0.0055684242 0.01192586 -0.00540023 0.007262611 0.003899035 -0.0044605667 -0.002219715 -0.0015435825 0.0022370864 -0.0072996076 0.003113815 0.0029079744 -0.0062829186 0.0066225114 0.0011268014 0.0040030857 -0.010928468 -0.0072902925 0.00235208 0.00798811 0.014130541 -0.011314339 0.0058437325 0.00664863 -0.01078331 0.0052356445 -0.006042407 0.012088966 -0.0065012523 -0.013463436 -0.0014334009 0.026325297 -0.0022319083 -0.0066130944 -0.0034795224 0.0022619052 0.015710045 0.004999612 0.011269329 -0.0074468954 0.006765467 0.0037717647 0.015758062 0.017339196 0.009005133 -0.006183554 -0.0012008774 0.006780041 -0.0053685857 -0.0022274624 0.015288772 0.008976294 -0.00044539038 -0.013462596 -0.0056513688 -0.0024176305 -0.013061083 0.00055395626 -0.014444798 -0.006868304 0.0011303135 0.013897527 0.0033020568 0.009404492 0.004332925 0.0036451416 0.018463219 -0.018392362 0.004037005 0.014773163 0.0168956 0.0007722753 -0.0064900196 0.01627157 -0.0019346076 -0.0068476987 -0.002646524 0.016765462 0.01081302 0.017460441 0.0051458133 -0.01987889 -0.0025542793 0.008984869 -0.009319848 -0.012234996 -0.01353364 -0.01634987 0.006493602 -0.020120505 -8.602186e-05 0.009712301 0.0040931837 -0.011995757 -0.018285668 -0.010224231 0.012462731 -0.0111014685 -0.00037240837 -0.020948289 0.004881739 -0.007077943 0.00080553367 0.014800684 -0.016384136 -0.0017868825 -0.0019468415 0.018318692 0.004783581 0.0054739844 -0.017494237 0.0056015947 -0.0046842946 0.0011345778 -0.004580548 0.0049376707 0.0015477785 0.02458195 -0.012269227 0.0020537395 0.0056820256 0.011593436 0.0041315686 0.0043223286 -0.0021181877 -0.01520591 0.008548858 -0.003251577 -0.0069175046 0.0057698144 -0.012553772 -0.0038582187 -0.008005506 0.0006707677 0.017992089 0.015729116 0.006970746 -0.013534118 0.0076511404 -0.004763376 -0.015447075 -0.0013040268 0.0030595402 -0.010645083 0.0015039076 -0.0147996945 -6.750524e-05 -0.0045141303 -0.011439365 0.0027962856 -0.005860728 -0.003922065 0.00196283 -0.0026718176 -0.009245491 0.0118616065 0.00030889493 -0.006234975 0.00017297454 -0.012183484 -7.443539e-05 -0.00580226 0.010977649 -0.014790738 -0.010684934 -0.024138661 -0.01981696 -0.017673897 0.0025640682 -0.0009777284 -0.006890903 -0.0076122847 -0.00039087527 -0.0077918503 0.0045460365 -0.0063466225 -0.0032933853 0.008298597 0.007210355 -0.010154435 -0.0038420446 0.0075086434 -0.0070565823 0.0043513244 -0.004214283 -0.002090246 0.0007017206 -0.020789232 0.004016495 -0.0047815046 -0.0019428877 0.0021345809 -0.00040727702 -0.01699322 0.00090972945 0.0027868643 -7.596316e-05 0.015090132 0.0066787773 0.0045555 0.0070761 -0.0013149495 -0.012293089 -0.014479046 0.020762712 0.0051308298 -0.02609787 -0.010926283 0.004135217 0.006796432 0.012162259 -0.024988987 -0.01941343 0.0002340173 0.010627555 0.015122261 -0.016859798 0.0049494524 -0.004275712 -0.0040582647 0.0046669617 -0.002186265 0.007187556 0.00872271 0.0116924085 0.0052173366 -0.017192667 -0.0036486983 0.0032595505 -0.008725008 -0.0036139118 0.007183335 0.0019842794 0.00016300283 -0.019044666 0.006654789 0.004141408 0.019845346 0.0018924371 0.01799278 0.010135959 0.0012414887 0.019728491 0.023246387 0.007909494 -0.011291749 0.011422995 -0.011451593
werden 0.0034748511 0.012526121 -0.0013648028 0.0075981845 -0.0015039449 -0.009287076 0.007884213 0.029993637 -0.0026898507 -0.0092981085 0.0047507994 -0.0071861967 -0.0052176574 0.0072745304 -0.0066382117 -0.0076203975 0.011381804 8.1077305e-05 0.005045261 -0.0029250502 -0.007740827 -0.0014413911 0.010050333 0.006198572 0.0056129876 -0.0015267131 -0.012286425 -0.0016234833 -0.0071368916 -0.009250391 0.005739608 -0.008187427 0.006189578 -0.001368317 -0.0051356484 0.010971156 0.0017670507 -0.008120533 -0.002997169 -0.0016171712 -0.0071303337 0.00152247 -0.0024577016 -0.0077656745 0.012688591 0.01471156 0.0002839605 0.0028595 2.1941802e-05 0.00566137 0.00040836394 0.003934228 -0.006903923 0.0046463795 -0.0019997822 0.006210588 -0.00089876336 -0.0037163338 0.00013029219 -0.0047924565 -0.0030002268 -0.0063353973 -3.7240345e-05 0.0043645366 -0.003398095 0.0062157693 0.0023680825 0.0003212567 -0.008349176 -0.0034005092 0.003947431 0.0069316626 0.006753001 -0.008438138 0.0058271876 0.0033065781 -0.009460477 0.0011097763 -0.0026746725 0.01055186 -0.0006039314 -0.012873253 0.0032874832 0.017082898 0.0038662835 -0.0031010567 -0.0028842045 -6.259406e-05 0.014013664 0.007121522 0.00731053 -0.00987103 0.006286442 0.00079360884 0.0069034696 0.013831805 0.007599497 -0.006971203 0.0046422645 0.0062722014 -0.00424786 -0.00047782264 0.008398603 0.005090699 -0.0019178825 -0.011123361 -0.004935353 0.0038505276 -0.010690026 -6.167156e-06 -0.012196597 -0.006960712 0.000671369 0.013164925 0.0026738837 0.006413648 0.0020206983 0.0052783703 0.011969068 -0.015072907 0.006246327 0.012610787 0.011056932 0.0044273967 -0.008643098 0.010541254 0.002442404 -0.011050277 -0.0022318314 0.010860997 0.0064816033 0.011917697 0.0052981116 -0.016610578 -0.0034520568 0.006843299 -0.009108787 -0.010949609 -0.010975356 -0.012855093 0.0072543975 -0.014005952 0.0006166922 0.004210167 0.0023755163 -0.008860904 -0.01328682 -0.010145854 0.010680292 -0.0066498592 -0.0052906796 -0.021873262 0.0017778546 -0.0053613703 0.006174317 0.010259031 -0.009180362 -0.003120623 0.00024345455 0.010167394 0.0030835809 0.0038421508 -0.012940033 0.004215579 -0.008685697 0.005837954 -0.004198621 0.0053241313 -0.002323376 0.019453194 -0.0054159416 0.0002546587 0.007991849 0.008464267 0.0038151175 0.005680209 -0.0006664413 -0.01215584 0.001689639 -0.001976968 -0.008042229 0.0061945776 -0.010264921 0.0014226225 -0.0025177014 0.00015599372 0.017312136 0.016769042 0.004085385 -0.011308545 0.0039663203 -0.0050273994 -0.008325383 -0.00010458191 0.0011063429 -0.0030720432 0.00017046992 -0.013725791 -0.00020285252 0.0007806053 -0.00822693 0.0026146558 -0.00086113217 -0.0029119041 -0.001864098 -0.002672219 -0.0066109053 0.0063738264 -0.002357128 -0.0048170597 -0.0005503783 -0.008845681 0.0013624092 -0.003045022 0.00747316 -0.014181753 -0.010068387 -0.01723076 -0.015934678 -0.00952057 0.0058698533 0.00075835234 -0.005473801 -0.007147394 -0.0020231667 -0.008073292 0.0052147866 -0.0042931205 -0.004447082 0.0049604364 0.007608549 -0.00534543 -0.005281621 0.0051999167 -0.0036397239 0.0021366186 -0.0034317484 -0.001824805 -0.002848554 -0.017754093 -0.000160795 -0.0011188014 -0.0014079845 0.0025369728 -0.00080811087 -0.010279437 -0.00011982776 0.0019821888 0.0031331305 0.009910434 0.008194857 0.008696006 0.0023306618 -0.0061898534 -0.00912006 -0.009846102 0.01549133 0.004375457 -0.02123243 -0.01291229 0.0024151886 0.0073260716 0.0077479063 -0.024091598 -0.01639185 0.0014799472 0.0056775208 0.0078321565 -0.011556945 0.0020904632 -0.005868665 -0.0035326756 0.0026162507 -0.0001968202 0.0052242987 0.009736395 0.012202723 0.0010637671 -0.015530948 0.000730011 -0.002195694 -0.0055124327 -0.004228644 0.0063864077 -0.0024434007 -0.0031475804 -0.015790338 0.0048153205 0.006235422 0.017172424 0.003179359 0.015283397 0.008651746 0.0016091684 0.013869091 0.017645493 0.0043751146 -0.006984294 0.005413543 -0.010956116
haben 0.0034031477 0.014845195 -0.0023825394 0.006032057 -0.0018645026 -0.0041604703 0.009032644 0.022977686 0.0012716057 -0.003097592 0.0064781127 -0.010917017 -0.0006943926 0.002942498 -0.0062192 -0.005394606 0.009812635 0.0049226093 0.0031358127 -0.0041477904 -0.005221705 -0.0037440527 0.004834072 0.0057396768 0.000575132 0.0007246907 -0.0115967905 -0.0021371143 -0.0065353485 -0.012464285 0.0004101938 -0.0045093 0.009139231 -0.00090572966 -0.005310363 0.0105562415 0.006769039 -0.0051673288 -0.007594085 0.0014366918 -0.005557363 0.004214748 0.00069331494 -0.008945026 0.010541966 0.009308716 0.0022355139 0.0031880387 0.004012196 0.006981527 -0.00014020785 0.0018895022 -0.0063800425 0.0038882873 -0.0014557238 0.0013191474 0.0012183887 -0.0011823686 0.0031615922 -0.0054533286 -0.0007831569 -0.0054754936 -0.00091682875 0.0017026933 -0.0016434594 0.0032302148 0.001336268 0.004125236 -0.0084071215 -0.0042830408 0.0041137733 0.0065376502 0.008174962 -0.004324958 0.004942908 0.005330322 -0.00546779 0.00094426586 -0.0019993477 0.010834517 -0.005019157 -0.010599094 0.00010114536 0.01471208 0.0017532598 -0.0063014184 -0.0037900973 0.0027347598 0.010519006 0.005385275 0.0047684717 -0.0045218957 0.0052062534 0.0033530393 0.011147984 0.0116185555 0.0099587105 -0.00094778964 0.00080959644 0.0056027723 -0.0024142107 -0.0018572857 0.010342979 0.0039801137 -0.0011612192 -0.008709661 0.0007715803 0.0013102826 -0.011332287 4.6725898e-05 -0.011742904 -0.004229011 -0.0031662188 0.007406661 0.0021374095 0.008903452 0.0032253356 0.005499553 0.011331484 -0.014826302 0.00020580603 0.011412849 0.013117061 0.00021026746 -0.0049748146 0.013929992 -0.002110849 -0.0077130212 -0.004631805 0.010785238 0.006705927 0.011102322 0.0061291475 -0.0155386375 -0.0040673288 0.00473018 -0.009406321 -0.010166044 -0.012481107 -0.010946545 0.0036319229 -0.0117855575 -0.0022188094 0.009427885 0.003953574 -0.011508301 -0.0086246515 -0.010905908 0.008292743 -0.004559486 -0.0022531955 -0.017921183 0.0013242513 -0.0036539226 -0.00061779405 0.007440487 -0.012192503 -0.0019950017 -0.0023012627 0.008825061 0.0037539322 0.00377131 -0.010702502 0.00543073 -0.006966713 0.0049964846 -0.0054752408 0.0027558405 -0.0025642305 0.015881725 -0.010015991 0.0036630547 0.006901883 0.004872121 0.0029749328 0.00432422 -0.0028982977 -0.008308495 0.0015378667 -0.0013587478 -0.004543636 0.0045971824 -0.011226508 -0.0014232276 -0.004690157 3.8771428e-05 0.01679393 0.011487272 -9.551807e-05 -0.014492649 0.002964442 -0.0031334918 -0.008536945 9.597706e-05 0.0045955684 -0.0050858785 0.0048452574 -0.00938908 -0.0018027314 -0.0017066542 -0.011896963 0.0017251177 -0.003428799 -0.00018831686 0.0007089207 0.0013740099 -0.0060328105 0.004872012 -0.0004922587 -0.0018796931 -0.0022443128 -0.0109597845 -0.00034339883 -0.002253823 0.0040646405 -0.014801182 -0.009568823 -0.012325237 -0.013361281 -0.0077555566 0.006449401 -0.002769749 -0.0046660136 -0.002990065 0.0007127546 -0.006396946 0.005617053 -0.00772922 -0.00029875035 0.0062694354 0.004879781 -0.0034683128 -0.0025613883 0.006905002 -0.0034920264 0.0046929223 -0.0017598158 0.0024747492 0.0009885445 -0.015216129 0.002933189 -0.0013413636 0.0015264708 0.00096039666 -0.003618789 -0.010131104 0.0006814312 -7.000073e-05 0.00259494 0.0073634265 0.0073789763 0.0057842284 0.007068788 -0.004141966 -0.01153981 -0.008125272 0.012712963 0.0043255147 -0.018860618 -0.008323419 0.0041269963 0.0040024887 0.008151309 -0.019045787 -0.013639023 -0.0032859393 0.0065144473 0.010161206 -0.011338445 0.0052447487 -0.0027395838 -0.004168857 0.00064914936 0.0007760333 0.0029503556 0.008274764 0.010763703 0.005658604 -0.009253033 -2.6844798e-05 -0.00024996256 -0.0068389927 0.0015895206 0.00071064744 -0.0013493446 -0.0019258964 -0.010943584 0.0022736406 0.004266765 0.012729747 0.0014393291 0.00951384 0.0033028992 0.0024829467 0.010244057 0.017017132 0.0022791238 -0.011446812 0.0039494475 -0.003983163
zu 0.0019338852 0.020380229 -0.0029436625 0.00663142 -0.0019208837 -0.00969459 0.0068747373 0.03316651 -0.0036627813 -0.008529125 0.01023327 -0.015699958 -0.0044938703 0.005953161 -0.007538561 -0.014049507 0.018566215 -2.8596947e-05 0.0069374247 -0.0034710108 -0.0051355427 0.0006078514 0.015397394 0.0074253925 0.0020847819 0.0014034581 -0.022457458 -0.0016196239 -0.0065166824 -0.019097943 0.0033555336 -0.008226346 0.010079046 0.003846491 -0.0053627947 0.013790975 0.004796613 -0.011756293 -0.009014686 -0.0010188746 -0.0077884146 0.0031319514 -0.00058655546 -0.010432732 0.011428884 0.019357767 0.003835876 0.00067392853 0.001856249 0.007821056 -0.00037497352 0.0036832069 -0.004210419 0.01236055 -0.0006695099 0.004323457 0.0017319111 -0.0049122344 -0.00078571046 -0.007905098 0.0010467476 -0.0064483513 -0.0009887324 0.005608713 -0.004630618 0.007647827 0.0017773315 0.00091407285 -0.013473969 -0.0023547446 0.0034177566 0.007806851 0.0145581635 -0.011507695 0.002566654 0.009205695 -0.01162707 0.0050580623 -0.009031138 0.011989651 -0.00649854 -0.014756721 0.000106546824 0.02667159 0.0027289102 -0.003173282 -0.005671804 0.003777305 0.0142120905 0.0069540436 0.0117850965 -0.009702605 0.0037110609 0.0020127008 0.013396309 0.017919201 0.009207778 -0.0039433646 0.0012561537 0.008096152 -0.0065949503 -0.00032752389 0.011692962 0.005609964 -0.00031321344 -0.015121231 -0.0045894426 -0.0014677063 -0.013812111 0.0010924279 -0.02000937 -0.003946406 -0.004948334 0.013046802 0.0041257315 0.009224389 0.0011864661 0.0027545083 0.019851515 -0.018515583 0.005394337 0.015535274 0.018276922 0.0020738568 -0.00703124 0.019190807 0.0014049461 -0.0076594413 -0.0053290003 0.0154423285 0.015326495 0.016039595 0.0022251285 -0.020604914 -0.0024445276 0.005584044 -0.011204531 -0.008694673 -0.014938596 -0.01562871 0.0050509465 -0.016226422 -0.0049616797 0.0068680667 0.0002144813 -0.017048517 -0.019810222 -0.012236225 0.014560685 -0.007851464 -0.001773871 -0.026670342 0.0024573158 -0.0060988287 0.0066138483 0.016843913 -0.015661154 -0.004794176 -0.005321438 0.016048092 0.0006174326 0.005768634 -0.01986411 0.0044356193 -0.008190797 0.0045611863 -0.0074045546 0.0067858817 0.0015326609 0.025728563 -0.012674731 0.0040787524 0.010813351 0.011384054 0.0017541451 0.00022813995 -0.0023356827 -0.015419699 0.0078049013 -0.0070005595 -0.012616079 0.009188389 -0.015513807 0.0010125925 -0.005135582 -0.0027383983 0.022862079 0.022116259 0.002389118 -0.020284355 0.0082964795 -0.005073999 -0.010239932 -0.0019421179 0.0021492438 -0.0056646294 0.0037574894 -0.017367976 -0.0011925162 -0.0033917397 -0.016785037 0.009299898 -0.0042440495 -0.006574032 0.004164936 -0.0034946348 -0.008529949 0.010134362 -0.0020139364 -0.0055851997 -0.0035856147 -0.016912436 0.005539883 -0.0032553242 0.010655286 -0.020683367 -0.009134346 -0.023260117 -0.025089756 -0.017818421 0.0039556543 0.00016909828 -0.012216804 -0.008006194 0.0005978288 -0.009467657 0.0065687397 -0.009130545 -0.0058976803 0.00449884 0.0077301743 -0.0063634696 -0.009500848 0.00818192 -0.011633439 0.008345038 -0.002816168 0.0014044133 -0.0015112073 -0.024730243 0.0035577493 -0.001857397 0.0009860287 0.001590423 -0.0058410414 -0.017470201 2.7670987e-05 0.0020161546 0.00015495381 0.014583928 0.010185067 0.008270982 0.006534493 -0.0039286898 -0.01837476 -0.016457113 0.024375698 0.0024596427 -0.029658481 -0.013113737 0.009638575 0.0064482135 0.012304574 -0.030056011 -0.02070701 -0.0037497263 0.006192433 0.01019742 -0.016718471 0.0061660185 -0.0032664 -0.004370786 0.0017662966 0.0017204501 0.008966838 0.010177391 0.014815464 0.006123515 -0.018641626 -0.0034848507 0.00425747 -0.004908336 -0.004537258 0.003039799 -0.00081051735 -0.0009574824 -0.023319935 0.0099487 0.0031278073 0.020446442 0.007421024 0.019637698 0.010900495 0.0013318709 0.017733673 0.02385094 0.004630068 -0.0162552 0.011167489 -0.012739414
man 0.0035011533 0.0119293695 -0.0030333884 0.004126006 0.0019176995 -0.00902779 0.008575995 0.026383601 0.00272269 -0.003888248 0.009074303 -0.0067825075 -0.0045847734 0.0007084224 -0.008239617 -0.008522197 0.013586324 0.0032237675 0.0031872361 -0.0032235559 -0.0062814937 -0.00330658 0.010900716 0.0013212167 0.003600766 -0.0020442978 -0.012077765 -0.000978765 -0.0053620078 -0.014242978 0.0071773534 -0.007038006 0.007822448 0.002633847 -0.0015121873 0.0070465123 0.0027273798 -0.011958565 -0.0029073642 -0.0017946896 -0.0021515607 0.0019368142 0.0008234019 -0.010953239 0.009467317 0.013779889 -0.0019007104 0.004856196 0.0016250799 0.0081489505 0.00095835625 0.0022635318 -0.004238687 0.00995143 -0.0056585474 0.008176539 0.004309449 -0.0013483892 0.0020539626 -0.0023433934 0.0013103428 -0.005723827 0.0019333616 0.0023913032 -0.0020601014 0.008497637 -0.00032464293 0.001535549 -0.012131226 -0.004161922 -0.0010932033 0.008133471 0.009076892 -0.008988004 0.004605456 0.0021333774 -0.0072511034 0.0010878595 -0.006817747 0.008302512 -0.0064163003 -0.007239882 -0.0022212407 0.021736419 -0.00043007982 -0.004149691 -0.0027976672 -0.0010965839 0.009113909 0.0023970553 0.0059675365 -0.008197858 0.00289843 0.0028040681 0.009714996 0.010226807 0.007874878 -0.0054339995 -0.0008072741 0.0046910685 -0.0045364914 -0.0017726247 0.007126013 0.0041122315 0.0011548356 -0.011866414 -0.0034416884 0.0028888602 -0.0102852555 -0.0010012521 -0.010647947 -0.006865293 -0.0017005772 0.012490125 0.0014502996 0.011701715 0.0029595473 0.005199256 0.01515603 -0.01884849 0.0009553193 0.008492908 0.012187616 0.00017256479 -0.007563349 0.009851625 0.00023683894 -0.007928709 0.00042162027 0.008265986 0.00796572 0.01406045 0.0064371475 -0.015267248 -0.0007591123 0.0027339594 -0.0075780526 -0.010887312 -0.013453393 -0.01217694 0.004683474 -0.012135602 -0.005226359 0.007968715 0.0016427813 -0.012525957 -0.013471721 -0.007089659 0.008022191 -0.006174587 -0.0011962162 -0.01880675 0.0021896986 -0.0019805576 0.005223353 0.011666889 -0.008485578 -0.006308336 0.0001309298 0.014426575 0.00027219922 0.0027627456 -0.011360536 0.006188023 -0.009708908 0.0031968553 -0.0033742164 0.004880825 0.002231772 0.015569274 -0.0054868944 -0.0024560355 0.007877903 0.011555823 -0.00015779845 -0.00068444625 0.001600838 -0.014417292 0.0019307636 -0.0054717357 -0.009335717 0.008418872 -0.0068317116 -0.0010685961 -0.0025209975 0.0029524213 0.017848637 0.015784422 0.0051922533 -0.011224532 0.0055054063 -0.0020188156 -0.012466212 0.0040513347 0.004736058 -0.0028982803 7.0440445e-05 -0.013595154 0.0006994273 0.00032990696 -0.0135229435 0.004698783 -0.00071137794 0.00038521737 0.00012994137 -0.001284723 -0.0039254487 0.007057517 -0.0014598041 -0.006059131 -0.0022355237 -0.010214349 0.0033716552 -0.00742555 0.0059035523 -0.012695292 -0.0070267646 -0.019101713 -0.015173032 -0.01059902 0.0010125964 0.0027834296 -0.009574562 -0.0055840276 0.0016907178 -0.0057845335 0.00095703756 -0.006390801 -0.0044297404 0.0022703493 0.0032298807 -0.0042954027 -0.008562329 0.008777 -0.008700437 0.0062895184 -0.002870028 -0.0018059213 0.0013664829 -0.019394388 0.0033137063 -0.0021191472 -0.0023752532 0.0008309942 -0.00038249785 -0.01278751 0.000793215 -0.00073321763 0.0005293362 0.009077634 0.0043284777 0.004581832 0.0026214975 -0.004210346 -0.013197725 -0.011321502 0.014271151 -0.00023888292 -0.017795956 -0.011047015 0.007115791 0.005931361 0.011368123 -0.022463983 -0.017283533 -0.00012751088 0.0035392093 0.01177864 -0.008100682 0.0026614962 -0.0022051514 5.0693594e-05 0.0026469885 0.0010989443 0.009361971 0.009251974 0.0075444095 0.0013418271 -0.013416744 -0.0016908573 0.0037362128 -0.008594088 -0.0020613351 0.006710019 -0.0015155277 -0.0039468645 -0.014553 0.0031342988 0.001774417 0.011856617 0.0032769784 0.016734177 0.008286999 0.004322 0.018509407 0.019070597 0.0016608688 -0.0073040854 0.003383617 -0.009257015
nicht 0.004769474 0.018536547 -0.0018061516 0.0058016377 0.0025370384 -0.010079102 0.006786395 0.034228805 0.0012212928 -0.0060488973 0.0063627865 -0.008421877 0.00048661017 0.007005294 -0.004543775 -0.011721496 0.014210131 0.0017985678 0.0067950482 -0.0025843454 -0.004487627 7.856649e-05 0.013243358 0.0073466203 0.003916889 -0.0031992716 -0.018011712 0.003244342 -0.009088714 -0.013977791 0.0063380464 -0.0085631665 0.010495621 0.002285125 -0.004464803 0.013315474 0.0053495485 -0.011294933 -0.008954142 0.0029128457 -0.007800756 0.0054124612 -0.00018984648 -0.010507015 0.008763009 0.019559186 0.0006578543 0.0040191584 0.0018012801 0.005430905 0.0011249142 -0.0019611986 -0.007990969 0.005092827 -0.0014854269 0.0063997875 0.0013897044 -0.0004216988 -1.7475338e-06 -0.006747601 0.0008784506 -0.0075941915 0.0013285043 0.0057444945 -0.0047059217 0.00865677 0.0040823817 0.000561198 -0.012694588 -0.0012983684 0.0029374447 0.008132018 0.011606245 -0.011873087 0.004178935 0.0046862722 -0.0076852324 0.00076959527 -0.0068276003 0.013922984 -0.0067926766 -0.012630661 -0.0025859352 0.02442379 0.0017164276 -0.003591394 -0.0040918174 0.0021964856 0.013770778 0.0056817634 0.012636668 -0.008783778 0.0030098916 0.0012863001 0.008500082 0.012473823 0.011472693 -0.004018419 -0.00033459792 0.0047445605 -0.0063848714 0.002528389 0.0086165555 0.0093821855 0.0020454703 -0.008921997 -0.005216399 0.0017845357 -0.016759146 0.0044443556 -0.016662616 -0.0058037885 -0.0002243834 0.011708203 0.0044979365 0.0087370435 0.005256829 0.0010659411 0.017177287 -0.019237136 0.0017558226 0.012928773 0.014354095 0.0027277023 -0.009558496 0.011649723 -0.002560644 -0.011505754 -0.005074124 0.011795493 0.01378361 0.013606365 0.001446789 -0.019234698 -0.00011104646 0.00473342 -0.00970509 -0.011140999 -0.011002257 -0.017525023 0.0029646656 -0.014040813 -0.004725367 0.009454462 0.0014309607 -0.00943568 -0.014398285 -0.010146695 0.01294749 -0.0066100406 -0.0022490025 -0.02378331 0.0028751243 -0.0034826281 0.006438309 0.012064747 -0.013568736 -0.0024185737 -0.0056289323 0.01529172 0.00034893595 0.0065871133 -0.019011848 0.006153995 -0.004466963 0.0025743395 -0.006695499 0.002686754 0.0009398782 0.019487143 -0.008054432 0.00039903802 0.009363105 0.009728468 -0.00078431267 0.00086189515 -0.0005045013 -0.015047617 0.00774919 -0.0073641725 -0.010381353 0.00670768 -0.013039876 -0.004349746 -0.007805576 -0.0010078547 0.019270467 0.018305061 0.0061723543 -0.013590137 0.0065051415 -0.0048085446 -0.013721754 0.004170445 0.0021497505 -0.0053732614 0.003268065 -0.012683925 0.0027375345 -0.0037962778 -0.013605725 0.0055945995 -0.0025746885 -0.0064896583 0.002963703 -0.0010978358 -0.0071766977 0.007898623 -0.0050292187 -0.00093946577 -0.005875473 -0.016373955 0.003758518 -0.0077109626 0.007813783 -0.016962644 -0.009519298 -0.023032052 -0.018814703 -0.013561871 0.0054964065 -0.0010311181 -0.0059738047 -0.008787718 0.00011784752 -0.008963154 0.0039245742 -0.010341438 -0.004444009 0.003222448 0.005698841 -0.003617334 -0.005602852 0.0094716335 -0.010211414 0.007181674 -0.004446924 -0.0007135591 -0.0029858379 -0.02157077 0.0041865157 -0.0027566163 0.00068055635 0.0051728026 -0.0052253073 -0.013880263 -0.0017760267 -0.00040140896 -0.003503852 0.011847766 0.00901011 0.006665715 0.0048965616 -0.0023650937 -0.013948809 -0.015688151 0.021227235 0.005871524 -0.025835967 -0.012791067 0.007969585 0.0047697187 0.00996709 -0.026645958 -0.0148449745 0.0015288445 0.008399382 0.009963289 -0.013578903 0.0015727077 -0.008949909 -0.0007139244 0.0013155664 -0.0010005637 0.0098789325 0.0072691697 0.014287935 0.002290618 -0.016998261 9.685541e-05 -0.00021373777 -0.0076719066 -0.0036427784 0.0030970862 -0.0020433534 -0.002402365 -0.014874626 0.009105004 0.0041371714 0.016366988 0.0019061399 0.019487035 0.006678111 0.0039575463 0.021406053 0.02267832 0.004047354 -0.009613985 0.010005607 -0.0103402035
ja 0.0021257184 0.015838318 0.0020240918 0.007159366 0.0006318796 -0.009536975 0.0038013337 0.025609704 -0.0022811515 -0.006109328 0.004560721 -0.009861879 0.0006884795 0.0073762974 -0.0038281153 -0.0075615686 0.011077141 0.0029020002 0.003057435 -0.007978756 -0.0030137834 -0.0040502083 0.010744247 0.0034261306 0.0013784495 -0.0007783056 -0.016842673 0.0030276875 -0.008700928 -0.015332051 0.0058575296 -0.0038094635 0.008445927 0.0022919169 -0.0057698963 0.007451626 0.0048467848 -0.0071783606 -0.0069965543 -0.001071353 -0.0033121835 0.0045706783 -0.0037701444 -0.010630171 0.008854482 0.014433007 0.0028029976 0.0036843156 -0.0005126751 0.008421266 3.530637e-05 -0.00022208742 -0.007948559 0.0050992398 0.00035923373 0.0063626207 -0.0012744132 -0.0008637123 -0.0017584829 -0.0067031067 0.0014246112 -0.0041895485 0.0013175531 0.0051106857 -0.0016734325 0.004055113 0.0031600758 0.002319565 -0.0085902 -0.00083477545 -0.00037885626 0.006430773 0.010005813 -0.0066703046 0.0023775767 0.0076958486 -0.009179141 -0.0009853912 -0.007995412 0.009514125 -0.0004908128 -0.011830532 -0.0013146079 0.02312216 -0.0017899657 -0.003073232 -0.0019140628 -0.00058565196 0.011202185 0.0043856576 0.010988073 -0.008263289 0.0018235367 0.0060164365 0.008453059 0.015538403 0.0064492375 -0.0021165821 0.0001680604 0.0042234305 -0.0041270675 7.3593415e-05 0.009423207 0.006400187 -0.00235702 -0.010506172 -0.003278311 0.0032725313 -0.011029612 0.0008735666 -0.014659363 -0.002697587 -0.004723101 0.010870935 0.0037396979 0.008077342 0.0015982947 0.0010142137 0.010238586 -0.013694409 0.0043048654 0.011038156 0.01594875 -0.0001959604 -0.007513651 0.012701226 -0.0025880942 -0.010938212 0.00048960565 0.010170122 0.006579268 0.014943268 0.0013067003 -0.015813656 -0.00055665936 0.0036952235 -0.01062461 -0.0096929 -0.014053436 -0.012406896 0.0031855248 -0.01419886 -0.0010294139 0.006755013 0.0039526485 -0.00860096 -0.013800937 -0.009580251 0.010555637 -0.0041936035 0.0003718027 -0.020402953 0.00081743195 -0.005813139 0.003125575 0.008426916 -0.011890631 -0.0066870037 -0.0022152325 0.0136706475 0.0034866668 0.0032924085 -0.011642122 0.0019726502 -0.0031474053 0.003053171 -0.0026738313 0.0061529996 -0.00012477112 0.019097809 -0.008339565 -0.0025691444 0.004733173 0.00754532 -0.0019644923 0.0037547227 0.0010805511 -0.0122036645 0.0073442087 -0.0055920347 -0.0072607757 0.0073734852 -0.012536765 -0.003662125 -0.0028853144 -0.0025766587 0.019191358 0.016320065 0.0006688324 -0.010768208 0.006017023 -0.0065197125 -0.012943937 -0.0019278869 0.0033412385 -0.0039960863 0.0025564362 -0.0121041145 -0.0020572054 -0.0028029894 -0.009395296 0.0015768463 -0.0059008864 -0.0024225013 -0.0017723322 -0.004112411 -0.0045893006 0.010485614 -0.0044918954 -0.0002366493 0.000559374 -0.010282656 0.00043398014 -0.0008691509 0.005134864 -0.015096664 -0.0071082846 -0.020179292 -0.02059396 -0.010843216 0.006416521 -0.002234019 -0.008437839 -0.0032781786 -0.0012946748 -0.00902325 0.005103391 -0.007994188 -0.0018769782 0.005680094 0.009004583 -0.0030821366 -0.0030885902 0.004763792 -0.0064857528 0.0042363256 -0.0010855113 0.003112586 0.0008332716 -0.019506311 0.0062427926 -0.0018037373 -0.00011569252 0.0049631777 -0.0048893457 -0.011673381 -0.00026240927 0.00489755 0.0013668037 0.00921943 0.0036868865 0.0044083972 0.008608406 -0.0062543345 -0.00915774 -0.010719584 0.015610118 0.005982732 -0.016720805 -0.008018255 0.008147796 0.00161004 0.011039145 -0.024767226 -0.017010007 -0.0036288104 0.0073819556 0.0121909 -0.013120769 0.0015431985 -0.0054926826 -0.004426535 0.00085635396 0.0008657788 0.0075653316 0.007867472 0.009284238 0.003446116 -0.014050598 -4.9912604e-05 0.003997304 -0.003057107 -0.0036492364 0.0014685334 -0.0042093997 -0.0029198292 -0.014195679 0.0031472833 0.004248601 0.01713817 0.004424788 0.014801647 0.009999351 0.0036662028 0.015232379 0.015754951 0.0032598942 -0.0073441383 0.009135391 -0.008996485
knnen 0.0046763793 0.010920565 0.0016954467 0.0035253658 0.0013630049 -0.005401731 0.002003888 0.022072574 -0.0033782588 -0.006883465 0.0053904676 -0.004190763 -0.0021324654 0.0052997805 -0.0031036434 -0.0049274997 0.0068970206 0.0032139039 0.00015189422 -0.0051629324 -0.0021205447 -0.0035398707 0.008997226 0.0023443769 0.00245254 -0.002682658 -0.013066869 -0.0010315642 -0.0019007422 -0.0073783267 -0.00024619096 -0.006057525 0.006179225 -0.0016992402 -0.0011319537 0.0088483 -1.7333627e-05 -0.0045407694 -0.0011498134 -0.0008249039 -0.002187989 -0.00022804727 0.00084416906 -0.0042104525 0.008610834 0.0075627756 0.0023829495 0.00044910994 0.0011198214 0.006506594 0.0013052128 0.0019974092 -0.0058504962 0.0071291584 -0.0033044403 0.0039021834 0.0031679352 1.3540203e-05 0.0029452054 -0.0040409993 0.0011679516 -0.0011259089 -0.00036421063 0.0035530569 -0.0059842523 0.007285858 0.0028958316 0.0029021404 -0.005433943 -0.0012165573 0.00038086894 0.0032756333 0.006435857 -0.0061260737 0.00096726476 0.0008398468 -0.007896895 0.004278887 -0.0010999345 0.010152018 -0.0041986764 -0.007297197 -0.0026031933 0.017486233 0.00082329 -0.00034989568 -0.004652778 0.00041633143 0.009266372 0.0050395955 0.0045973826 -0.0074527496 0.0037699817 -0.001013503 0.009411442 0.011568405 0.0056780735 -0.005268761 -0.0017680598 0.0045219935 -0.00035478928 0.0004946272 0.0048966417 0.007956316 -0.0029795035 -0.0052354946 0.0005269871 0.000800102 -0.012607083 0.002903652 -0.0123495 -0.0049854573 0.0019890594 0.004944693 -0.00075789855 0.0048822192 0.0034674378 0.0034056467 0.007856179 -0.013169848 0.005174133 0.011535734 0.012752626 0.002340019 -0.004416535 0.0099307485 0.00063806435 -0.004256546 -0.0006617829 0.008671382 0.0058156494 0.0069243414 0.0052725184 -0.013037756 0.00013012922 0.003272692 -0.0071476093 -0.007872668 -0.0072276723 -0.011522099 0.0010491686 -0.011438869 1.8453466e-05 0.0076268394 0.00032748515 -0.005744912 -0.012674248 -0.008514982 0.005083082 -0.0067568133 0.000430461 -0.017760003 -0.0019258698 -0.0067390683 0.005279375 0.007047947 -0.008104604 -0.004953278 -0.0026013232 0.010022436 0.00085152336 0.00071019534 -0.012328611 0.0041114567 -0.007976317 0.002537982 -0.0031572212 0.0062266323 -0.0002876324 0.015708284 -0.009031847 -0.0019894042 0.006281682 0.0066365954 -0.00087997067 0.00092705863 0.0025448357 -0.011670697 0.0023430025 -0.0035914213 -0.0054354323 0.007277289 -0.007934823 -0.0033371702 -0.00649734 -0.0035271805 0.009679377 0.008897175 0.00047567932 -0.010612605 0.0027656825 -0.004753322 -0.006814438 0.0020342479 0.0045357975 -0.006031119 0.0040375316 -0.00702604 -0.0005953014 -0.0033102871 -0.00928356 0.0012836867 0.000106513915 0.0009973565 0.0036879417 -0.00423843 -0.0028908502 0.0075321486 0.00037041696 -0.004931238 -0.0018609912 -0.011207422 -0.001498947 -0.002286407 0.0090999035 -0.008222821 -0.008086863 -0.012397224 -0.014315738 -0.0055720066 -0.000112601374 0.0028602695 -0.0074844686 -0.0058041043 -0.0005358458 -0.004867606 -0.00069270865 -0.005290533 -0.002472825 0.0013448859 0.0063996483 -0.00335925 -0.0014371611 0.0081264535 -0.007364565 0.0050118496 0.00075019733 0.001996678 0.0012229742 -0.014024673 0.0036271391 -0.00063675054 -6.517174e-05 0.00033310184 -0.0015093873 -0.0067970627 -0.0036308328 0.0047742585 0.0009970915 0.0074028075 0.003700141 0.004308323 0.006212427 -0.0007319597 -0.01122121 -0.005388872 0.011792678 -0.0006376478 -0.01188791 -0.006359243 0.0050353887 0.006350956 0.0039714775 -0.018076219 -0.011537669 -0.0018846306 0.004415512 0.0071304077 -0.011109536 0.0024497148 -0.0027582783 -0.0025138846 0.0025096997 -3.5718822e-05 0.006609055 0.0059374305 0.010714727 0.0025949567 -0.008683678 -0.0022912521 0.002551419 -0.0032112224 -0.00068135967 0.005803241 -0.003427077 0.0025969353 -0.011284044 0.003037002 0.0013344436 0.007511032 0.0016968177 0.0117304195 0.0074477475 0.0042542326 0.00886537 0.016289873 -0.00020721297 -0.006052765 0.0075609847 -0.00656812
von -0.0010745489 0.00833966 0.00038462185 0.0057239523 -0.0033061001 -0.005026053 0.006417866 0.02374591 0.0010365992 -0.0041609453 0.0014686508 -0.0059543694 -0.00014243834 0.0007479837 -0.0059854793 -0.0067669805 0.009544214 0.0013757658 0.0014429921 -0.004036548 -0.0028322684 -0.0011122932 0.0080658225 0.0045313933 0.0012691616 -0.0029081996 -0.00900863 -0.003079035 -0.00598021 -0.010412739 0.0006709804 -0.003696375 0.008255938 0.0007171816 -0.00097177114 0.0075352155 0.0014739592 -0.008801415 -0.0043055257 0.0018401423 -0.00076010945 0.0038576587 -0.0032688112 -0.009795273 0.00996753 0.012294521 0.002511262 0.0016519642 0.004646455 0.0018538923 0.004061112 -0.002207672 -0.0046625533 0.007885939 -0.0052969977 0.0058385017 -0.0011661107 -0.0037591357 0.0012144508 -0.002453227 -0.00088973384 -0.0012769038 -0.0015450413 0.001990011 -0.0002037794 0.005377301 -0.0005429034 0.0023750176 -0.009306896 -0.0028087413 0.002560906 0.008300348 0.010321311 -0.008764788 0.00533987 0.0022164173 -0.0037694613 -0.0009814814 -0.0072468184 0.008521158 -0.005736923 -0.00941235 3.276688e-05 0.016621677 -0.0026411447 -0.00523814 -0.0055725863 0.0014135096 0.010780849 0.0041120676 0.010773654 -0.0067756157 0.0059732776 0.00417804 0.010952316 0.010689569 0.0074443263 -0.003143103 -0.0022097484 0.008629622 -0.0038345275 0.003129141 0.008863979 0.006427074 -0.0005896383 -0.011040216 -0.0014105606 0.0014617672 -0.0137804 -0.00035545233 -0.011431522 -0.005220434 -5.094459e-05 0.009025505 0.0034141531 0.004929116 0.00050670805 0.004582873 0.012880959 -0.0112898545 0.00410806 0.006640135 0.013029809 -0.00015892638 -0.008918609 0.013184512 -0.00072982744 -0.009565229 -0.0026407545 0.011329878 0.0065668393 0.011624257 0.0027415412 -0.010747791 -0.0005272246 0.00078843784 -0.0077173784 -0.0038747794 -0.008568408 -0.0124159865 0.006193142 -0.009076099 0.0007801286 0.006138808 -0.0021290267 -0.010041967 -0.009407799 -0.009772405 0.011629135 -0.008400499 -0.004847972 -0.017797997 0.0031333894 -0.0064522736 0.005287904 0.0053921295 -0.00809626 -0.0020866147 -0.0019170205 0.0139550865 0.0035685168 0.003579667 -0.0095902905 0.0056401547 -0.004221786 0.005389296 -0.0031450319 0.0010600581 -0.0016622711 0.014453809 -0.009686193 5.59629e-05 0.007412771 0.00529357 0.0026021106 0.0035528368 -0.0007195714 -0.008982582 0.0057846964 -0.0065274015 -0.0046377373 0.007397715 -0.009160001 -0.0035577822 -0.007384593 -0.00327213 0.014643626 0.013604786 0.00496599 -0.011585829 0.0034678755 -0.0024389504 -0.011495141 -0.0023536622 0.003139882 -0.007720795 0.0014891904 -0.011676278 0.0026213103 -0.0021021604 -0.0055384883 0.0039674584 -0.004022549 -0.0035101287 0.0013766232 -0.0033236395 -0.002582529 0.009337778 -0.00022268023 -0.0048794355 -0.00401409 -0.009698374 0.0012416766 -0.0051962296 0.008932864 -0.009246903 -0.007733198 -0.013616803 -0.0124449525 -0.008840645 0.0059097246 -0.0008573737 -0.00792982 -0.0040146364 -0.004018179 -0.0017659174 -0.000477668 -0.006112492 -0.0034645363 0.0048070992 0.006568823 -0.0075705205 -0.0060184174 0.006394889 -0.004364401 0.0054914504 -0.0016871119 -0.00013556879 -0.0032589922 -0.012062375 -0.00017864161 -0.00021569405 -0.001320355 6.3061e-05 -4.901817e-05 -0.009496379 -0.003821007 -0.0010456692 0.00015576066 0.005401311 0.0064597405 0.0057610758 0.0056782444 -0.004409381 -0.0074166455 -0.011694164 0.0155870905 0.002069307 -0.016710635 -0.0073997267 0.0033422308 0.0025491253 0.0062579154 -0.019687714 -0.011986211 -0.0022809496 0.006948114 0.004859222 -0.010454253 -0.0010075248 -0.007139556 -0.002716049 -0.0016939313 -0.002370465 0.005934256 0.006781446 0.009693805 0.00607944 -0.01380566 0.00094034744 -0.0019445287 -0.002466876 0.0014954446 0.0058823857 -0.0035827158 0.0003564902 -0.015194469 0.0038175865 0.0012000069 0.0087026935 0.0043338058 0.013260236 0.0044032303 -0.00126569 0.01401584 0.01322049 5.861472e-05 -0.0094204545 0.0046501406 -0.0033152916
geben -0.0002576841 0.016452415 0.0021862527 0.005793433 -0.0007891689 -0.008448467 0.008222724 0.027929379 -0.0014768915 -0.009510059 0.008218862 -0.013171687 -0.00489095 0.0047005625 -0.005655686 -0.008610052 0.012436894 0.0029327187 0.0046262173 -0.0027098581 -0.0064363754 -0.0035838035 0.0071430635 0.0074622375 0.004054671 -0.0023300261 -0.013086504 0.0030816693 -0.0039680954 -0.014962373 0.0024085997 -0.006111489 0.0047545065 0.003252423 -0.0027973934 0.0073520336 0.006818748 -0.01282705 -0.00315151 -0.0019163176 -0.0033160353 0.0013408036 -0.0005454571 -0.0067435717 0.009506883 0.012808364 -0.0018178333 0.0032106554 0.0038690397 0.00853332 -0.00052470795 -0.0025891264 -0.0028900614 0.005700503 -0.0014792886 0.008188093 0.00010281021 -0.001200345 -0.0005873169 -0.005945547 -0.0018777621 -0.0050141118 -0.001542171 0.0015645449 -0.0047582923 0.008160467 0.0027388702 0.0035521172 -0.008389954 -0.004979068 0.00033415778 0.01062324 0.012329528 -0.012152819 0.004421885 0.007828515 -0.0048438427 -0.0006174065 -0.0065347394 0.0115410155 -0.002883133 -0.010938894 -0.0012616852 0.023203826 0.0030795212 -0.004039079 -0.0057934686 0.00040386617 0.009749634 0.0066198795 0.009685331 -0.0076955613 0.0011260717 0.0021902386 0.012601385 0.015563654 0.010985438 -0.005688564 0.0043671997 0.0073335343 -0.0035054688 0.002936278 0.008089333 0.009143259 0.003120445 -0.008444023 -0.0011206985 0.0021951194 -0.014017641 -0.0014698943 -0.012969027 -0.004227857 -0.0041336715 0.011360357 0.0042689466 0.0066290232 0.0040011075 0.006429516 0.010521744 -0.01542877 0.0002048067 0.00873842 0.015451319 0.00010834881 -0.008341269 0.010452193 -0.0025835293 -0.0105291 -0.0017151895 0.01237612 0.006867405 0.009933012 0.0023996443 -0.015940357 -0.0031375526 0.0035650758 -0.007009338 -0.007477716 -0.009116004 -0.011702647 0.0046433564 -0.0137097705 0.0009014409 0.00840516 0.0017355127 -0.0108573325 -0.017107153 -0.007747917 0.012304395 -0.006538243 0.00042358608 -0.022191273 0.002399336 -0.0074448525 0.00015684194 0.011620629 -0.009958878 -0.0018619704 -0.005355297 0.015102504 0.003072114 0.005765172 -0.014286495 0.00627045 -0.0042511513 8.381026e-05 -0.0067392075 0.007097994 -0.00041565238 0.015724018 -0.0104167685 0.0010962416 0.0087801805 0.008129287 0.0007216428 0.00012708535 -0.0030001292 -0.011448758 0.0048201336 -0.007941764 -0.007211002 0.0027634143 -0.010779331 -9.124468e-05 -0.00509842 0.00224121 0.01902778 0.014651777 0.0052122185 -0.011943279 0.00699187 -0.0013080867 -0.008842101 0.002592028 0.0045140423 -0.006805963 0.0014696978 -0.009974942 0.0011935659 -0.002888938 -0.011569266 0.0030771461 0.00020713179 -0.0016991297 0.0026277127 0.00023753685 -0.0035208475 0.006481891 -0.0042757383 -0.0042996155 -0.0038876988 -0.015362766 0.0017921743 -0.007024316 0.011236856 -0.015382142 -0.00995369 -0.020877263 -0.01905522 -0.0154602295 0.004016796 0.0013525325 -0.008236442 -0.0022658138 -0.0023087393 -0.008891801 0.002056033 -0.008188824 -0.005544825 0.0016009492 0.0047908076 -0.006704755 -0.0041097156 0.0051110485 -0.008885536 0.0051668854 -0.002007435 0.0013079807 -0.0013828675 -0.015771708 0.0057206107 -0.0041850763 0.0011142441 0.0054721264 -0.0029593597 -0.009465568 -0.0025656743 0.0010778878 -0.002751298 0.013245734 0.0033918014 0.0047372053 0.005557046 -0.0048100697 -0.0097571425 -0.013286848 0.013909556 0.0059891907 -0.023201158 -0.00779354 0.0038950052 0.0070070093 0.008781447 -0.023581278 -0.017436896 -0.0027410067 0.009104306 0.012283757 -0.011368922 0.0046545193 -0.0036701844 -0.0015887971 0.0022375397 -0.003940659 0.009665172 0.006418806 0.009733737 0.0048551536 -0.011728571 -0.0045918105 0.0013765943 -0.0036838618 -0.0041297534 0.0070421495 -0.0028429825 0.002288835 -0.0181493 0.0075556063 0.00684901 0.011526155 0.0034092807 0.012344673 0.0100162625 0.0048501254 0.014119113 0.018692346 0.003040946 -0.012596971 0.007151526 -0.011257541
wollen 0.0025446692 0.009371774 0.002047387 0.008909059 -0.0010228776 -0.007842526 0.0027959568 0.025510632 0.0004970293 -0.002490152 0.0062896307 -0.009410982 -0.0005527608 0.0064932373 -0.0025821605 -0.0048870314 0.0076882783 -0.0007606904 0.0058069383 -0.0068717333 -0.0034662262 0.0015641485 0.0072628367 0.006330307 0.00019421619 0.0018065192 -0.011093903 0.0012474797 -0.00840986 -0.0077340077 0.0062927394 -0.0051622195 0.0073141064 0.0034872848 -0.004556 0.009780878 0.0023525544 -0.009133005 -0.004746793 -0.0017507427 -0.0036405202 -0.00057036715 -0.00019320851 -0.004895337 0.0100827 0.014388446 -0.00077014515 0.003344661 -8.3253275e-05 0.0036115341 0.004145622 0.0027555802 -0.006100736 0.004161238 -0.00012225205 0.005604745 0.0034591982 -0.0037867909 0.00023828408 -0.0035665438 -0.00015313683 -0.0034610645 -0.001382767 0.0033667414 -0.0041723116 0.007837339 0.0016221385 0.004397354 -0.0085732695 -0.0015250684 -0.00083582615 0.0032644132 0.008350692 -0.008550432 0.0055869846 0.005786938 -0.008596916 0.0042053694 -0.0047821105 0.006312017 -0.0014383001 -0.00949311 -0.002935418 0.020940881 0.0030975186 -0.00048762726 -0.0032195507 0.004192583 0.011488498 0.0021783893 0.011128743 -0.0070570405 0.00033063165 0.005152169 0.0070311558 0.014278081 0.005538583 -0.0008769843 -0.0007724209 0.007361262 3.9899765e-05 0.0021487633 0.00805645 0.004270445 -0.0033840477 -0.0069005177 0.00054775446 -0.00092603633 -0.009366648 0.0032966197 -0.014400441 -0.003155967 -0.0038040457 0.007578828 0.0024645624 0.0053260326 0.0013648801 0.00075628975 0.009005018 -0.016582767 0.0059900074 0.012508084 0.011058885 0.001365314 -0.004625812 0.011621523 -0.0029473954 -0.009381315 -0.0011781566 0.012673346 0.009089768 0.014095666 0.0051826704 -0.012921689 0.0019158464 0.0072494703 -0.004265141 -0.0041311597 -0.01281683 -0.009993878 0.0015698059 -0.0148025565 -0.0046122614 0.007690589 0.000989103 -0.0116970865 -0.01014015 -0.005535977 0.010449125 -0.0029301848 -0.0036853107 -0.01936604 0.0023567406 -0.0050241384 0.00020358419 0.010561919 -0.01099996 -0.0051665977 -0.0012557135 0.014063025 0.0040617967 0.0037805971 -0.009115285 0.004771927 -0.003507347 0.002158374 -0.002171943 0.006125554 -0.0033929355 0.017914109 -0.0073104273 0.0026092024 0.0045937863 0.0066036736 -0.0008820246 0.0011635034 -0.0012714344 -0.011853152 0.004522662 -0.0018844291 -0.004574422 0.0023381663 -0.010974328 -0.0022343765 -0.0033902796 -0.0034279928 0.016427424 0.013839508 0.0020153474 -0.008787096 0.00618894 -0.0034636992 -0.007294109 -0.0022149063 -0.0011691739 -0.006276975 0.0059513063 -0.009944897 0.0026506467 -0.0032479235 -0.008192052 0.0042990115 -0.0026730846 -0.003474561 0.0027183841 -0.0046779704 -0.0036507405 0.008794976 -0.002715003 -0.003993237 -0.0046959836 -0.012678739 -7.2561393e-06 -0.0026242263 0.0051916973 -0.012598722 -0.009758315 -0.01669767 -0.015502184 -0.013046346 0.0043684673 0.0029147908 -0.004794304 -0.0034914957 -0.003059224 -0.0058103157 0.0033105316 -0.005517239 0.0002728072 0.0037244745 0.0074624266 -0.003327048 -0.0038681563 0.008991476 -0.007757211 0.0026937015 0.0010415443 0.0029760196 0.0005362034 -0.015947253 0.005153256 -0.00038118727 -0.00016940247 0.0059092776 -0.0008398731 -0.008741585 -0.00058559194 -0.0007164554 -0.0011104763 0.009527808 0.0037302112 0.0073201484 0.007468893 -0.0057522985 -0.012698189 -0.011340279 0.0138684 0.0018914867 -0.01803297 -0.010113766 0.0056808298 0.0075443606 0.006126218 -0.021774247 -0.011434482 -0.0027693952 0.008016348 0.009562554 -0.01228933 -0.00036283018 -0.007316424 -0.0017530612 0.0019633714 0.00024313712 0.005678952 0.008201285 0.010207511 0.0031830212 -0.014133828 -0.0014659918 0.0019125863 -0.005737802 -0.001838863 0.0025677097 0.0015220856 -0.0018118378 -0.010360252 0.0032191905 -9.19516e-05 0.010234874 0.0013659479 0.013068628 0.007912764 0.0021337124 0.016823888 0.015891187 0.0051622423 -0.008467919 0.005110741 -0.0047091143
dass 0.0023164644 0.014139716 -0.0028060125 0.0032340852 -0.00036726616 -0.0067601884 0.004948811 0.022609927 -0.002156206 -0.007928081 0.007702263 -0.009290937 -0.002698132 0.0028375795 -0.005824439 -0.010147518 0.009495891 0.0012686654 0.00622436 -0.006769707 -0.0060906117 -0.001520617 0.008917071 0.0020395988 0.0008652827 -0.002920128 -0.010476046 -0.0028250942 -0.006509629 -0.010199237 0.003793435 -0.0077815787 0.008608927 0.0005495315 -0.003687049 0.004731119 0.0008076709 -0.0070269653 -0.0029128536 0.0008072028 -0.0012669185 -0.00040640915 -0.0017714021 -0.008585316 0.0076688533 0.0133128865 0.0011509821 -0.0008839756 0.0031433387 0.007086899 -0.0012880957 0.0016151386 -0.005674938 0.008877913 -0.0010365151 0.00510697 0.0008749041 -0.0045173545 0.0033524584 -0.0037136874 0.0025055588 -0.002792186 -0.0019981824 0.0016672548 -0.0022659209 0.003905778 0.005079339 -0.00039926582 -0.010222323 -0.0017488096 0.00041551376 0.003650552 0.008806545 -0.00562654 0.0003321354 0.00275448 -0.008884227 0.0022425365 -0.0062919552 0.0118971085 -0.0028499626 -0.007898758 -0.00087989366 0.019566802 0.00045304088 -0.0059672985 -0.005581202 0.0016552147 0.012018962 0.005248226 0.005959534 -0.007845021 0.000101608864 0.0035230003 0.005270356 0.012023559 0.008354167 -0.004116516 -0.0022345765 0.0077369534 -0.0031127315 -0.0026474146 0.0059406543 0.008512403 0.00049792096 -0.010643888 -0.0021409085 0.00230431 -0.013994829 -0.001379034 -0.01127609 -0.006984591 -0.0013554759 0.009403267 0.00480792 0.0076182964 0.0030287507 0.0047397935 0.009521716 -0.011154484 0.0026308214 0.009169832 0.0074208505 0.0024046595 -0.004163532 0.01121259 -0.0026692662 -0.007705924 -0.0036447535 0.011615876 0.0055434084 0.012036361 0.001185769 -0.014810522 -0.0035330525 0.005283114 -0.009591152 -0.008929362 -0.011653777 -0.012215504 0.0026120138 -0.011386577 0.0005050105 0.0059939562 -0.00090471405 -0.008710151 -0.009513236 -0.009587418 0.0069056638 -0.0036458569 -9.2594244e-05 -0.019120488 0.0039462787 -0.007292065 6.127192e-05 0.006916599 -0.008867404 -0.0032162848 -0.000855433 0.01345869 0.0034904035 0.0024773427 -0.013607196 0.00082680566 -0.005628285 0.005604105 -0.005390211 0.0051793437 0.0012416989 0.01391432 -0.009816943 -0.0012232469 0.0033434036 0.004808042 0.002880148 -0.0004632241 -0.0014244475 -0.008213314 0.0040162858 -0.0069546495 -0.007614646 0.005810983 -0.007301267 -0.0017335342 -0.0046722377 0.00057911384 0.014239657 0.011372904 0.004573716 -0.013990319 0.0053905197 -0.006904684 -0.009215164 0.0030149487 0.00049872935 -0.0028667382 0.0044540935 -0.013057937 0.00051706994 -0.002471719 -0.011928394 0.0035982688 -0.00016751699 0.000589298 -0.0007752619 -0.0024439336 -0.0072506377 0.006929034 -0.00080620253 -0.0058023147 -0.0012888637 -0.012887958 0.0018223298 -0.0018915121 0.004713235 -0.011557173 -0.007192177 -0.017719163 -0.015295837 -0.008530273 0.00024182907 -0.002404663 -0.0060904077 -0.0011180526 -0.0007831265 -0.0019560652 -2.9077917e-05 -0.0027123836 -0.004111024 0.0017629251 0.0023476628 -0.0043830457 -0.0056213913 0.008873508 -0.0059209284 0.004682039 0.0007273551 -0.0028557428 -0.0013242917 -0.015587574 -0.0005083903 -0.0001272622 0.0006476036 0.001976523 -0.0029954654 -0.011819435 -0.001712303 0.0025901934 0.0025370147 0.010601624 0.0042622387 0.006003969 0.003886004 -0.0041727964 -0.011568615 -0.011057037 0.014651554 -0.00023987734 -0.019128943 -0.010523344 0.00678141 0.0047849333 0.00899717 -0.01532406 -0.014224293 -0.0020558995 0.008136247 0.009915802 -0.007702411 0.0051319166 -0.0011010262 -0.003345877 0.00135276 0.0012712644 0.008174116 0.010876719 0.006033226 0.0018493637 -0.009234388 -0.00092525093 0.000646911 -0.0022424376 0.0011617972 0.00074696745 -0.0017967065 -0.0036501645 -0.01058579 0.0052338196 0.0023457068 0.012588336 0.005365472 0.014812414 0.007933219 0.0024244164 0.01365077 0.01766197 0.003648007 -0.0081133805 0.0023214945 -0.0056918715
wir -0.0013231735 0.013087549 -0.002006567 0.0052383696 0.00023278013 -0.006589391 0.0025540835 0.023134084 -0.0026017106 -0.007971546 0.0059897183 -0.008006365 0.0005626795 0.00080422463 -0.00492231 -0.006966743 0.0114802355 -0.0016429807 0.005208624 -0.006971126 -0.0068709324 -0.0005875294 0.0066518183 0.0024232764 0.0008895724 0.0011553981 -0.014893481 0.0005453424 -0.0036512197 -0.009949461 0.003013537 -0.0018202036 0.0021770357 -0.0017911702 -0.0021025192 0.010135194 0.0006892272 -0.010689593 -0.00422117 -0.003243727 -0.0023651717 0.004856304 -0.0033707933 -0.009448231 0.010745127 0.0110249445 -0.0004559171 0.0006162711 -0.00092238863 0.003240875 -0.000651447 0.00054718525 -0.0038246242 0.008283009 -1.96826e-05 0.0037386247 -0.0022021164 -0.0005979185 -0.0015063937 9.403123e-05 0.0012666477 -0.004141496 0.0030507257 0.0006422589 -0.004221214 0.0044034934 0.0046070544 0.0031120174 -0.0069843875 -0.0016422565 0.0005681336 0.008812429 0.005391698 -0.008122305 0.00032360753 0.006837393 -0.0072511504 0.0007743315 -0.0020772265 0.0054219193 -0.004065795 -0.0070792013 -0.0018735529 0.019270457 0.0010748015 -0.004831202 -0.0014326519 0.004177005 0.009186251 0.006331098 0.0050176596 -0.0065423585 0.0065803365 0.0040398445 0.008602841 0.009229165 0.008963833 -0.0028109637 0.0038649149 0.0054725227 -7.4803655e-05 -0.0012855487 0.0055103297 0.004798177 0.00094321725 -0.00820965 0.00018060175 -0.0022998324 -0.013328519 0.0033968983 -0.00828034 -0.0048684855 -0.0026647204 0.00704352 0.0018911569 0.01004582 0.0028269326 0.0022927383 0.009316286 -0.013609295 -0.00061713817 0.011158087 0.0070621083 0.0010041884 -0.008604091 0.013166064 0.002013674 -0.0065004975 -0.0002398849 0.008357235 0.010567342 0.00857613 0.004363451 -0.0131622385 0.0023267511 0.007034306 -0.0042951107 -0.006766108 -0.009503468 -0.013157557 0.006887948 -0.014184701 -0.0038921037 0.007922796 0.00013543593 -0.0060717766 -0.013497863 -0.0043538273 0.008985869 -0.00793243 -0.00075001427 -0.017250868 0.00325218 -0.0015318554 -0.0005482171 0.010671586 -0.007248099 -0.0009503063 -0.004279979 0.008478152 -0.0012338938 0.0051677176 -0.0123826945 0.005156617 -0.0035757024 0.004955754 -0.0018745866 0.00334866 0.00037019016 0.015554268 -0.009964099 -0.0014200171 0.00433973 0.008390361 0.00086993957 -0.0012540561 -0.00071850704 -0.006799209 0.0059250756 -0.0030815 -0.0073640286 0.003145813 -0.008480492 -0.0030615805 -0.007103124 -0.0004634942 0.013697381 0.013260544 0.0038458828 -0.008059727 0.00084922556 -0.00026467757 -0.009149734 0.0010946927 0.000196336 -0.0061695557 0.0020321128 -0.012565524 0.003674674 0.0006292875 -0.009521927 0.0045146006 0.00038508716 -0.004199961 0.002188205 -0.0012645205 -0.0039443364 0.005547624 -0.005007694 -0.00042996503 -0.0024282017 -0.012359705 0.0018684209 -0.0054087234 0.008742721 -0.013317015 -0.0066294977 -0.014299598 -0.015339555 -0.0106865065 0.005442861 0.0002026116 -0.008860775 -0.0039098356 -0.0044064145 -0.00599743 0.0039109075 -0.004265592 -0.004373679 0.0041436446 0.0066224895 -0.007304752 -0.005664553 0.0052358997 -0.008504249 0.004363522 0.0009785086 0.00092415675 0.00022521387 -0.0136782415 0.0020825926 -0.0032208383 -0.00023265036 0.004859933 -0.0011935023 -0.009044034 0.0019885714 0.0028757586 -0.0025560881 0.010394828 0.008381574 0.0014195318 0.006929983 -0.0049868277 -0.01001119 -0.007035485 0.010969306 -0.000423439 -0.018409342 -0.011913903 0.0019119557 0.0071003092 0.0079428395 -0.020240132 -0.00871568 0.0019344543 0.007974362 0.011108996 -0.0117317 0.0013029202 -0.003176153 -0.0015299204 0.0026685593 -0.0031658702 0.006696288 0.0104462 0.005443387 0.0059960335 -0.009273804 -0.0024735683 8.427926e-05 -0.007380605 -0.0034723443 0.0048702094 -0.0018335573 0.0026505752 -0.0150451325 0.0017078341 0.0049746623 0.013946956 0.0038099946 0.013948561 0.007796721 -0.00062133645 0.015529678 0.012066095 0.002013285 -0.009869693 0.0072833505 -0.0075924187
jetzt 0.0026390436 0.01172027 -0.00032046932 0.0046098903 -0.0020678935 -0.007846018 0.0063248356 0.025003023 -0.0015913052 -0.005044253 0.003378955 -0.005441622 -0.002138296 0.001302724 -0.0064470763 -0.0049376283 0.010391528 0.0001418109 0.0009072862 -0.006441 -0.005775027 0.0016280176 0.0060950858 0.004715712 0.0029848365 0.0009889659 -0.015926994 0.0028300462 -0.0066350014 -0.009303611 0.00038720723 -0.0030728623 0.0033231108 0.00038937805 -0.004509821 0.0069049257 0.0036084868 -0.008979176 -0.003055928 -0.001046283 -0.00482077 -5.6183162e-05 0.0013644048 -0.0065886555 0.011718357 0.014415448 -0.00065912114 0.0044282195 -0.00019727292 0.0065136366 -0.00034359714 0.0006236115 -0.0032232362 0.0053044055 -0.0039418098 0.0041798637 0.0015174324 0.00052105 -0.0014495089 -0.0016817967 -0.0012077392 -0.0070004486 -0.0010489696 0.0025265825 -0.00045425427 0.0077446485 0.0050662993 0.003687553 -0.009388067 -0.004131997 0.0047188476 0.0085744215 0.010773184 -0.0056603793 0.0029568223 0.005221684 -0.009646038 0.0042545926 -0.0019519223 0.0074337753 -0.0030287842 -0.006181713 0.0013464557 0.0206704 0.0032187924 -0.004050749 -0.00044353906 0.0035991538 0.009374318 0.0045925216 0.011468648 -0.004059925 0.001392536 0.0012004676 0.007998804 0.012757948 0.008673313 -0.006969629 0.0019081357 0.009401228 -0.0026072871 0.0022149223 0.009577473 0.008728593 0.0028909282 -0.0073305154 -0.002850331 0.0018158079 -0.014218892 0.003669339 -0.013032202 -0.0006252065 -0.0047557093 0.0084201265 0.0051686694 0.0064908783 0.0021584278 0.005003006 0.014720472 -0.014590122 0.00043329812 0.013312734 0.008251303 0.0026257243 -0.005026663 0.008797855 -0.0018734664 -0.010123649 -0.0017167168 0.011899925 0.005498036 0.0099076 0.005881918 -0.014881872 5.8650516e-05 0.005502232 -0.00835583 -0.009180135 -0.0071440074 -0.012308285 0.007317065 -0.013587501 -0.0007448572 0.008628424 0.0012062556 -0.008320337 -0.014193308 -0.005546992 0.008726525 -0.0071677538 -0.00054411805 -0.014384221 -0.0007130599 -0.004033005 0.004061047 0.0086443545 -0.009923011 -0.00040722 0.00038481623 0.009753283 0.0009139916 0.0069087525 -0.012420246 0.000666103 -0.0060586166 0.0002715454 -0.0026516768 0.0044188946 -0.0015768193 0.014834556 -0.0049928147 0.0021428918 0.0061350986 0.008224519 0.0037632266 0.0005244176 0.0015658822 -0.010736505 0.0017767138 -0.007952504 -0.007114236 0.0076440317 -0.007987322 -0.0042569577 -0.0043805814 -0.001519683 0.01322894 0.015848681 0.0050448705 -0.012042434 0.004345286 -0.0035746815 -0.012448028 0.0019142686 0.004256768 -0.004166865 0.003741009 -0.012410281 0.0015124988 -0.0035820636 -0.00851 0.005051691 -0.0027037512 -0.00264583 0.0019003123 -0.0009143482 -0.0049835653 0.010058607 -0.00077255024 -0.0022658587 -0.0032760396 -0.01263365 -0.0013614541 -0.0048776506 0.008434809 -0.010010919 -0.0067178733 -0.017506972 -0.01437712 -0.012072445 0.0030323493 0.0024801856 -0.003630584 -0.004389113 -0.0033771333 -0.0043995446 0.0059217857 -0.003346852 -0.003397125 0.0065539535 0.008455374 -0.0085453605 -0.0020607787 0.006713155 -0.008034841 0.005343313 0.0016640697 -0.002363581 0.0015681616 -0.017116413 3.581217e-05 0.00045919532 -0.0016933819 0.0046147956 7.850935e-06 -0.0070425393 0.0012236197 -0.0006929451 0.00090756855 0.005796338 0.005692305 0.008304661 0.0032268635 -0.0014710493 -0.013113028 -0.012402632 0.01713101 0.0036402852 -0.015369063 -0.008556979 0.0049775103 0.0056941747 0.0049298797 -0.017142532 -0.014590007 0.0010975611 0.0041201813 0.00940023 -0.008668804 0.0014931929 -0.006820731 -0.0045579295 -0.0021819957 0.0026394697 0.0043309 0.0076621966 0.0063829394 0.00223842 -0.013335992 -0.00025260818 0.0026306044 -0.003930077 0.0021397297 0.0040308847 0.0023875784 0.0016482616 -0.012950379 0.005370822 0.00079092314 0.011964071 0.004743458 0.010323897 0.0071202014 -0.0010870815 0.017368207 0.016086074 0.003660368 -0.010397983 0.008073793 -0.009343469
sich -0.00096948846 0.0130584035 -0.0010485331 0.0054175267 0.00166966 -0.0042902837 0.0075014937 0.023926746 0.0015076934 -0.007952582 0.00642577 -0.00463743 -0.0028631613 0.0036440073 -0.006165457 -0.007849329 0.012464045 0.0015407038 0.0042428505 -0.005796422 -0.0022812677 -0.0020234557 0.005891229 0.004504039 0.0058411662 -0.0023628895 -0.010454242 -0.00015440148 -0.007538671 -0.011231705 0.0003098152 -0.002349626 0.004460244 -0.0004336064 -0.003311576 0.00872373 0.0065103415 -0.011166972 -0.0041611264 -0.00065112347 -0.0040205284 0.0016345521 0.0013860659 -0.007845899 0.010768969 0.01116752 0.00039939227 0.0037846756 0.0041726744 0.004897221 0.0005980555 0.0026251576 -0.0053432514 0.007068749 -0.002267223 0.0021526637 0.0033146846 -0.0027789278 0.001223169 -0.0052010864 0.000899314 -0.0020374758 0.0024721925 -0.0010204 -0.0049019735 0.006960351 0.0028709187 0.0015411319 -0.009512179 -0.0033841834 -0.0015107752 0.0062125283 0.006205231 -0.0067123766 0.0034974932 0.004724217 -0.008381317 0.0018756124 -0.0067256517 0.0072938143 -0.0023259926 -0.0053783534 -0.0018948044 0.016920924 0.0032794366 0.00039401004 -0.00096482615 -0.0010108462 0.010169559 0.0069805966 0.008618385 -0.0044739298 0.0026655104 0.0033199482 0.0092756525 0.013266519 0.0060792286 -0.00649846 0.0032662847 0.0033792793 -0.003138436 0.0011359754 0.0074630296 0.0039898776 0.00020231346 -0.010625162 -0.0013029721 -0.0008208686 -0.012223075 0.00218011 -0.009852358 -0.0022874249 -0.0011482139 0.00507217 0.005243019 0.005772893 0.0017698228 0.0053199134 0.010286974 -0.011754879 0.0032340956 0.009619762 0.012339502 0.0052115424 -0.006268866 0.009019904 0.0015105193 -0.009061465 0.0013915027 0.009845585 0.009330479 0.010724597 0.0022745545 -0.011488172 -0.0024681936 0.0068267947 -0.0046656807 -0.0053792913 -0.010373954 -0.0130512165 0.006441543 -0.010288362 -0.0029975136 0.0030538882 -0.00044870598 -0.0082248915 -0.013862757 -0.0073556826 0.009136447 -0.008343877 -0.0021326202 -0.017596608 -0.00012744579 -0.0043118196 -0.0009202603 0.007199882 -0.0112901125 -0.0054652607 -0.0014033344 0.011382283 0.0048939884 0.00632602 -0.01294515 0.00032029633 -0.0024536059 0.0040677525 -0.00035109496 0.0026675542 -0.0018671257 0.012900413 -0.009786746 0.0024989834 0.0034549187 0.009592431 -0.0009971015 0.0051520565 -0.0018287668 -0.006284883 0.0020710288 -0.0066912714 -0.0031516673 0.0010970886 -0.01054845 0.0005695192 -0.0075138295 0.001460613 0.014150686 0.009177227 0.003780983 -0.010234715 0.006048529 -0.0024278094 -0.009705704 8.84874e-05 0.0038846761 -0.00706604 0.005638148 -0.011032985 -0.0009149003 -0.0022807703 -0.007639743 0.0005173837 -0.0011674115 -0.0036434769 0.004133063 -0.003058225 -0.007554401 0.0074436814 0.0012705313 -0.0014759615 -0.0027587188 -0.008247095 -0.0014224512 -0.0046876166 0.0046736654 -0.010388806 -0.008227334 -0.016524103 -0.01591906 -0.0076283724 0.0038611738 0.0026139852 -0.004811495 -0.0018971753 0.0002646611 -0.0033517608 0.00059514167 -0.0050557614 -0.0023354073 0.005371284 0.00247812 -0.005090178 -0.0031264776 0.0042641796 -0.0083126305 0.005451446 -0.0013726677 0.00023820363 -0.0025675825 -0.01031472 0.0027063026 -0.00059479225 -0.00020825001 0.0029623664 -0.00021292565 -0.012219211 0.00023783905 0.00012667484 0.0030738448 0.009251018 0.0032813014 0.0041144895 0.0025572232 0.0003358522 -0.0068252394 -0.00771856 0.015984781 0.00064187223 -0.014778359 -0.010230896 0.0011472042 0.0025373169 0.0063382452 -0.018965306 -0.012899862 -0.00025205634 0.0051535475 0.005026727 -0.0063845203 0.0024368821 -0.006975502 -0.002692485 -0.0015486114 0.0019456953 0.0047308076 0.009714347 0.010028915 0.0020123944 -0.01329521 -0.0031132663 0.0035549912 -0.005055052 -0.0010381402 0.002970651 -0.0035204617 0.0006661552 -0.014942554 0.007231159 0.000228057 0.013854047 0.0018790262 0.010730633 0.0047764764 0.001484707 0.013410425 0.014690984 0.0027545989 -0.005231839 0.003156594 -0.008766311
