133 300
. -0.00020659754 0.0017245917 0.0013393234 0.0031483492 -0.0033331553 -0.0035055883 0.0035807486 0.0058777155 -0.0020482524 -0.0024030327 0.0030741587 -0.0008554069 -0.002154794 0.0017626781 -0.0024062528 -0.0018395277 0.0018173972 0.00046350004 -0.002928086 -0.00409029 0.0022236176 0.0014223293 0.0033812039 0.00078077154 0.0025038684 -0.0017275208 -0.0017870336 0.0018117849 -0.0031918304 -0.003141195 -0.0016590193 -0.0009609351 0.0036489505 -0.0027661645 -0.0014147344 -0.00035215492 0.0029206444 -0.0026754504 -7.4191885e-05 -0.001405775 -0.003087592 0.0015468202 -0.0029963704 -0.0022540118 0.0012036358 0.0011124462 -0.0020845619 0.003737107 0.002453233 0.0036959762 -0.002273247 0.0013048765 -0.0018752246 0.0015005247 0.0022171806 -0.0005471318 0.0016653505 -0.0024986486 -0.00087441073 0.0034758602 -0.0011824416 -0.00032031894 -0.0014955356 -0.002355885 -0.00101308 0.0014941979 -0.000669282 0.0019636732 -0.0018091687 0.00019464777 0.0019803466 0.0029591282 0.0005607697 -0.004203554 0.0020495066 0.0012766568 0.0013331012 -0.000258422 -0.0015250709 -0.0015647379 -0.0011092932 0.00016699842 0.001356669 0.0051812194 -0.0021163304 0.000549702 0.0012454645 -0.0009467628 0.00031996233 0.002775301 0.001240026 -0.0002850576 0.0015367528 2.4814858e-06 0.004096418 0.0036090738 -0.0020267884 -0.0029228523 0.00028384913 0.002917583 -0.0031537216 0.00061631954 0.0022118622 0.0023431482 0.002421623 -0.0033652352 0.0006045741 0.002008094 -0.0020624145 -0.0017213328 -0.0009901219 -0.0027234454 -0.0015563451 0.0031383366 0.00016484821 0.0037123743 0.0021774124 0.0031147506 -0.00042764388 -0.0019106888 0.0006528639 -0.00028072193 0.0044239666 -0.0038121906 0.0017468447 0.0024138226 -0.0019193373 0.00035118978 -0.0011552832 0.0033879087 0.0037715633 -0.00059043075 0.0010573837 -0.004001498 0.0009018331 0.0016462523 0.0011714672 0.0013659063 0.0017602827 0.0018943774 0.0033642207 -0.0037769375 -0.0036012097 0.0005997453 5.604407e-05 0.001818543 0.0006292051 -0.0019281933 0.0014102792 -0.00013230163 0.0026373528 -0.0056153894 3.1661784e-05 0.00017066223 -1.2947232e-06 0.004187797 0.0014308654 0.0018424854 -0.0009927027 0.0045674727 -0.0026226214 0.0011186673 -0.0029636575 -0.00091978395 -4.6386343e-05 0.0023090197 0.0018504092 -0.0011256329 0.0016341147 0.004232317 -0.0025157481 -0.0032184513 0.0024689252 0.0030367523 -0.0001535016 -0.0026370566 -0.0023224456 -0.0021859917 0.0017971904 -0.0016273509 -0.003553284 0.0018082712 0.00043855875 -0.0020779541 -0.0004531044 -0.0003687867 0.002351286 -0.0015460759 0.0012319583 -0.003337789 0.0009393854 -0.0008792623 -0.00078662456 -0.0027044797 -0.00087413366 0.00018588104 0.0019771983 -0.001990562 -0.0038110376 0.0013672807 -0.001138797 0.0011914005 -0.00231348 -6.934245e-05 0.0026604603 0.0021626945 -0.0010622422 0.0013753667 -0.0027577945 0.0016857664 -0.0018730516 -0.0027461376 0.002945171 -0.00064299564 0.0038604108 -0.003482543 0.0008506324 0.0011962804 -0.004791808 -0.002511341 -0.0019938643 -0.001862374 -0.0029730261 -0.0044233333 0.0020075005 -0.0020992095 0.0030783652 0.0010768127 -0.0036781477 0.002058735 0.0020788114 -0.0036850153 -0.0025609066 -0.00010214141 -0.0033255187 0.00016019374 -0.00096627424 0.0004667666 0.00031951797 -0.0030126635 -0.0010463267 -0.0005792402 -0.00040306864 0.0026191631 0.0021466194 -0.0004606339 0.0005302854 -0.0011285283 -0.0011569392 0.00047261023 0.0014621874 -0.00059673376 -0.0011293892 -0.0023594259 -0.004356893 -0.0029642407 0.0010194764 -0.0013555647 -0.0040459344 -0.002270363 0.0015239178 -0.0008155377 0.0042253407 -0.0018788617 -0.0048378916 0.0034150262 0.003408007 0.0030229462 -0.003994548 0.0026510055 0.0009907131 0.0016587428 0.0023765764 0.001377119 0.00013355596 0.004138356 0.004353654 0.0017554634 -0.0030467296 -0.00017270431 0.0006613055 -0.0028139113 -0.0032638628 0.00023173446 -7.538125e-06 -0.0012435938 -0.003070048 -0.0017546412 0.0033039288 0.0010184518 -0.0009486501 0.003969865 0.0036593385 -0.0006151012 0.0040748115 0.003718833 0.0020748305 -0.00030220614 0.0037093377 -0.0034187618
die -0.002831042 0.005013257 -0.0004904748 -0.00048213714 0.0012475436 -0.002686834 0.0025929506 0.0055910167 0.0016373259 -0.0038147995 0.003861811 0.0011461995 0.0006398665 -0.002587631 0.0018804963 -0.0020416118 0.00392498 -0.0015087116 -0.0028386626 0.0011309247 0.00025390115 -0.0010164094 0.0045120316 0.0037586358 -0.0029314102 0.00019635978 0.0003646513 0.0011478751 -0.00012778207 -0.0018681216 0.0012269529 -0.0020032693 -0.0018456365 -0.0010131332 0.00065065315 0.0033588125 0.0033523163 -0.0028995043 -0.0033200707 0.0034666914 0.0012847753 0.0015837257 0.001980078 -0.0017859095 0.003841059 0.0023267919 0.0013875564 -0.00021645786 -0.00016352089 -0.00014588702 0.0019199331 -0.0001733028 -0.0037711342 -0.0017986577 -0.0027002422 0.0011409956 0.0009089762 0.0029347448 0.0022331418 -0.0010045718 -0.0006166307 0.0011790926 0.0024415066 -0.00010664068 0.0009179918 -0.0011452372 -0.0006693287 0.0027759688 -0.0018916032 -0.0038534869 0.0020363936 -0.0010099411 0.0008377148 0.002102765 -3.604442e-05 -0.00040219343 -0.0031302085 0.0023118989 -0.0025897212 0.0022264984 -0.0026965872 0.001178204 0.0009390223 0.0040823095 -0.00069247716 -0.0010123306 0.0021388186 0.0025003108 0.00088987016 -0.0025574688 -0.0016819342 -0.0007020119 0.00017580585 -0.0010044328 0.0043340395 0.0020405746 0.0030336727 -0.003219148 -0.0008292222 -0.0009323238 -0.0027043398 -0.00028316886 -0.0018665573 -0.00030361503 0.0011838429 0.0005317894 0.0006101323 0.00073796674 -0.0026407721 0.0028706258 -0.0030878463 0.0015507151 -0.002409607 0.0016707586 -0.0027657787 3.792217e-05 -0.0011229261 0.002612978 0.0029014284 -0.0036391302 8.454778e-05 -0.0015141071 0.0044134376 0.002539046 -0.0015813839 0.0018687935 -8.84358e-05 0.00049839803 -0.003588841 0.0014357087 0.0028365124 0.0017555434 0.001790762 -0.0054288814 0.0024560778 -0.001340985 -0.0021407467 0.0004666295 -0.0018983873 -0.00089242577 0.0014696919 -0.003945731 -0.0038758442 0.0038103734 0.003298384 -0.003233452 -0.0003995949 -0.0014903346 0.00255836 -0.0031807635 0.00141803 -0.0012287784 0.003407698 -0.00269383 -0.00016641575 -0.0009437856 -0.004986899 -0.003449525 -0.0012607541 6.3619795e-05 0.0018656194 -0.0020322336 -0.0007247859 0.0011074011 -0.002487986 0.00028413933 0.002452781 0.00392044 -0.0024474678 0.005344261 -0.0033252498 0.0016924638 -0.00030993082 0.0021788971 0.0011737772 0.0018002604 -0.0007510419 0.0013674021 0.0026025507 -0.003647461 -0.0032353322 -0.002071427 -0.00040072243 -0.0008308901 -0.0033710273 -0.0024029824 0.0054506585 0.0026927607 -0.002789342 -0.0035566553 0.0017608504 -0.0019599334 0.00011617694 -0.0014897978 0.0009020883 -0.0035702721 0.0022648275 0.00032420873 -0.0003643417 0.000928563 -0.0042819777 0.00095900067 -0.000442699 -0.0026964713 -0.002983524 -0.0007687147 0.0016485731 0.0018597664 -0.0021737902 -0.0027495825 -0.0020642967 -0.0026135775 -0.0025642242 -0.0042518363 0.000594711 -0.0044550467 -0.0029265035 -0.0043958207 -0.0030208246 -0.0015469274 -0.0026481287 -0.00048513594 0.0008524206 0.00083110953 -0.0031261328 -0.0018109436 0.0012850082 -0.004047431 -0.001272595 0.0030629067 0.0022283273 -0.0042807176 -0.0016787081 -0.0019135072 -0.0005850892 0.003920131 0.0010984283 0.00094433466 0.0015681053 -0.0041583413 0.004120342 -0.0037883807 -0.0024703252 -0.00037280913 0.00067651406 -0.0033361895 -0.00015372218 0.0022324603 0.000114471666 0.00039348722 0.0020161364 -0.002510774 0.00398827 0.0031410689 -0.004678445 -0.00025217107 0.0050881235 -0.002494626 -0.0044994354 -0.0038345496 0.0029527468 0.00031794966 0.0046048183 -0.005400376 -0.001471399 0.0012217691 0.001251616 0.002061545 -0.004407432 -0.0023033982 0.00035073332 0.0020718062 0.003720564 0.0026667686 0.0010388327 0.004288712 -0.001783942 0.001760313 -0.0021736089 0.00117961 0.0028533319 -0.0022544737 0.001270115 -0.002776444 -0.00068809954 -0.002152466 -0.0034679037 0.0039064116 -8.104259e-05 0.0020604406 0.003693838 0.0053710076 -0.002063021 -0.00015591999 0.0050634574 0.003915086 -0.0004136209 -0.003497416 0.0020572853 -0.003400646
, 0.0025814862 0.0005194323 -0.0007849728 0.00050722354 -0.00031419852 -0.000993565 0.0038348176 0.0035126035 -0.001372197 -0.0018763838 0.002772517 8.04564e-05 -0.0009530365 0.0025343178 -0.002613395 -0.0017866497 0.0041631376 0.0024607063 0.00033285868 -0.0041171047 8.035488e-05 -0.0011148145 0.004589192 0.0010873256 0.0008472802 0.00013244488 -0.0024105187 -0.0018279627 -0.0007838497 -0.002742374 0.0032606656 0.0022044198 0.00034383207 0.00060819625 -0.0026945677 0.0009977435 -0.0020121785 -0.0039007615 -0.002153372 -0.002748492 0.0025046745 -0.002108424 0.0027071384 -0.0033950715 0.0025767633 0.004702627 -0.0020883789 -0.0027344 -0.00055374845 -0.00024318256 0.00044466954 -0.0031676968 -0.0035123164 0.0023752654 -0.0035167108 -0.0017873525 -0.0005123946 -0.0031021433 -0.0020284925 -0.0023744549 -0.00086515147 -0.0020225004 0.0021630877 0.0007666703 -0.0016509158 0.002942615 -0.0024401594 -0.0014236085 -0.003571046 -0.002184004 -0.0004699304 0.0025076594 0.00038539994 0.00032998828 0.0030278252 -0.0012180816 9.4391005e-05 0.0020594476 -0.0017254124 0.0038568173 0.0010414647 -0.0030693384 -0.0027905188 0.0042640064 -0.0008220464 -0.002149376 0.002255061 -0.00089931826 -0.0005155596 0.00047948078 2.3361523e-05 -0.0002562664 -0.0007099691 -0.00028039268 0.0009561202 0.0025701479 0.003911626 -0.0026782749 -0.00057414686 0.002819971 0.002368501 -0.0022255864 0.0035843241 0.003305506 -0.001496852 -0.0014448123 0.0016911145 -0.0012989639 -0.0032095294 -0.0016994141 -0.0012760288 -5.147651e-05 0.0018501101 0.00018135138 -0.0012163527 0.0023730234 0.0015309347 0.0007242339 -0.0010371595 -0.0052092234 -0.00014356703 0.0036696624 0.0024037263 -0.0035664856 -0.0033061379 0.0038590971 -0.0015975378 0.0007581749 -0.002978287 0.004223079 -0.001632837 0.002167292 0.0010622569 -0.0047559645 -0.0014676531 0.00042251917 -0.0030627535 -0.0011925064 -0.004236403 -0.0006390067 0.0039667385 -0.0026459163 -0.0010466654 0.0020585172 0.0042339712 -0.002949238 -0.0039159297 -0.0026252368 0.0040923962 -0.00067465374 -0.0028317687 -0.003298488 0.0033908447 -0.0037429733 -0.0014596623 0.004721726 -0.0049518975 0.0007770416 -0.0007398049 0.0045922636 0.0030640657 -0.00095740525 -0.002998624 0.0038937056 -0.0007410336 0.002606467 -0.003998977 0.0041731684 -0.0014517342 0.00045853006 -0.00059215224 -0.00049287884 0.0023816915 0.0002936772 -0.0012077453 0.0002830894 0.0028404524 -0.0032734992 0.0009972565 -0.0031646672 -0.0028538161 0.00035963737 -0.0043860436 0.0010199206 -0.0006182903 -0.00048109487 0.00455503 0.0054142177 0.0032150173 -0.0027072325 0.0013922192 -0.001747329 -0.004538788 0.0020106405 -0.0006210818 -0.0011815763 -0.0004044897 -0.0029009683 0.0007675783 -0.0015594815 -0.0046654595 0.003173508 0.0012426829 0.0034740937 0.0023155948 0.0006966078 0.0034201047 -0.00084641343 -0.0022552249 0.0009358669 0.0007970235 -0.0038556424 0.003025909 -0.002359107 0.004781854 -0.0014892229 -0.0031279342 -0.0033215084 -0.0048507033 -0.0020458256 0.0007085995 0.0029144203 0.0011644212 -0.0040494567 0.00039153625 0.00018630571 -0.00052168174 -0.0039512264 -0.0014920828 -0.0018038074 0.0024493525 -0.003403138 0.0016632973 0.0042160996 -0.0007073329 0.002349005 -0.0015633209 0.0016359912 0.0011781153 -0.006271465 0.00014469477 -0.00021161528 -0.00012327006 -3.9231578e-05 0.0006446006 -0.002974361 0.00028009477 0.0011465956 -0.0010791603 -0.0002816169 0.0011633545 0.00035167576 0.0013428486 -0.0012823362 -0.00021492875 -0.0018373292 0.0026338398 0.00025070168 -0.00026689854 -0.0035869507 -0.0020948455 -0.0008846722 0.0048837597 -0.003370068 -0.0059736595 0.00018403481 -0.00042194081 0.0034215595 -0.005251056 0.0017966421 -0.0035306346 0.00042147134 0.0031182496 0.00325204 -0.0011590885 -0.00037679504 -0.0009396234 -0.002015595 -0.00561734 -0.0008959522 0.00013093532 -0.0025076002 0.0016256913 0.0007554968 0.0015236697 0.0012903741 -0.0016346492 -0.0015922182 -0.00019065494 0.0025515337 -0.0010050038 0.0029336356 0.0016429168 0.00032429013 0.005174216 0.00512023 0.0009982171 0.0016905236 0.003191411 -0.0031104013
sein -0.0017092845 -0.0011066901 -0.0028132626 0.0028460142 -0.0008405675 -0.0030196493 -0.00041542656 0.0035757427 -0.0012125582 -0.0020076192 0.00094939244 -0.0011634328 -0.00097319356 3.4962177e-05 -0.0014991225 0.0020884864 0.0018731342 -0.003166335 0.0020063662 -0.0028929606 6.7687884e-05 0.0012869239 -0.00093518593 -0.00035777153 0.002926009 -0.0018034372 -0.0034779105 0.0029594747 -0.0011720473 -0.0027949547 0.003433083 0.0009905727 0.0017989823 0.00287827 -0.0031993643 0.0019674546 0.0008059167 0.0009587529 0.00048719934 0.0016304413 0.0016144185 0.0019431126 -0.0011084123 -0.00201546 0.00063872844 0.0015842429 -0.00079224363 0.002334351 0.0019286732 0.0029774285 0.0011633511 0.0025814436 -0.000793841 0.0035435387 0.0008164379 -0.0020143343 -0.0011834713 -0.0010019233 0.0018843692 -7.757017e-05 -0.0013586675 0.0023990744 0.00300477 -0.00036176815 -0.0020461003 -0.0011236268 -0.0018394582 -0.0031222503 -0.00017260594 -0.0017598149 0.0008868499 0.002028683 -0.0006138041 -0.003915236 0.00091223646 -0.0015377098 7.437763e-05 -0.0012763886 0.0019622268 0.0011619485 0.0006135802 -0.0014094933 -0.00085866946 0.0044065127 0.00037710575 -0.002053939 -0.0031626823 0.00088096736 0.0031018907 0.0022173957 -0.0025656738 0.0026707142 0.0015796009 0.002461108 0.003873252 -0.0011758739 -0.0023808263 0.001526807 0.0030769985 0.0017247561 0.0022024498 -0.0009228611 0.0029554372 -0.0028643927 -0.0027009966 -0.0030834437 -0.0011508 0.0016848875 -0.002038649 -0.0025275727 0.0022762862 -0.0012664219 0.0030967756 -0.0011453256 0.000707431 0.002474429 0.0007821454 -0.00053307257 0.001500032 -0.0039044735 -0.0010377602 -0.00011443007 0.0034960483 -0.0014554147 -0.0024964167 0.0023973908 -0.00036378825 -0.001956726 0.0018632276 0.0020242017 -0.0010511336 0.00082447653 0.0038890485 0.0012605553 0.0018964607 0.0019926294 9.3965195e-05 -0.0010568195 -0.0030748553 -0.00089012197 -8.2954866e-05 -0.0011383189 -0.0024017585 0.0029618419 -0.0015109379 -0.003009731 -0.0018244607 -0.0014055282 -0.001963095 -0.00027354807 -0.0017142222 -0.0020036707 -0.002397025 -1.5177887e-05 0.0013271144 0.0008519021 -0.0028643752 -0.0007780115 0.0018443975 0.0026036769 -0.0027921568 -0.0011356473 -0.00013287016 0.0012272251 -0.003949878 0.001898847 -0.0033969325 -0.0019138858 0.00057224 0.00015366789 0.0003147936 0.0027881386 -0.0007759171 0.0036788422 0.0006374094 0.003024503 0.0019244581 -0.0039585643 -0.001072843 0.0019084017 0.0015746057 0.003242708 0.0015734371 0.0027661028 -0.0038767806 0.0016683827 -0.00011231654 0.0023588396 0.0022279152 0.00032606916 0.002936971 0.00025577808 -0.0014153412 0.0019181122 -0.0018448766 -0.00052286056 0.003309534 -0.0026276025 0.0009129646 -0.002808465 0.0024940548 0.0028317817 0.00037013972 0.0019863043 0.0005618945 -0.002323496 -0.00043341907 0.0024782668 -0.0014916069 -0.0016241291 0.0014021868 -0.00021580065 -0.00078070816 -0.0016220463 0.0029118282 -0.0028538017 -0.0016357303 -0.0036136701 -0.0026899287 -0.0033957376 -0.0013093165 -0.0029509966 -0.00065367384 -0.0038780263 -0.003741064 -0.0030541697 -0.0021333767 0.0017761822 0.00024275105 0.0005935918 -0.0007971196 -0.0032859102 0.00011162637 0.0006638585 -0.00027676963 0.00075908547 -0.00026432335 -0.00048040453 -0.0027668427 -0.0037278582 -0.0022320012 -0.0012153541 0.00054872804 0.0026620096 -0.00013148646 -0.002073225 0.003189401 -0.00013724618 -0.00056784647 0.0034410658 0.0015421506 -0.0015959606 0.0030225974 0.0016949775 -0.0032314495 -0.0007349913 0.0013309339 0.0019668257 -0.0018209155 -0.0015619089 0.0006455411 0.00061812624 0.001317242 -0.0024080966 -0.0036087285 0.0026366636 0.0031162826 0.0034639493 -0.0039862636 0.001328898 -0.0014336471 0.0032087867 0.0015999747 0.001992612 0.0015839891 0.0030722877 -0.0011545253 0.0029680887 -0.0021481896 -0.0016269202 -0.0005037255 0.0032671688 -0.0026302869 -0.000472944 0.0020542785 0.00042351423 -0.0030978394 -0.0016868694 0.0032767125 0.0028045597 0.0019385697 0.00026944114 -0.002740406 0.0017290899 0.0033038699 -0.0006022347 -0.002601435 -0.0013321451 -0.0009917808 -0.0014693734
ich -0.0007094355 -0.00059471565 0.002922571 -0.0029946254 0.0013203092 0.0010036314 0.0005998012 0.0050686253 0.003091235 -0.0027097843 -0.0015342257 -0.0025073236 -0.0030476095 -0.0012794173 -0.0024819437 -0.003651793 0.00092385255 0.0011189823 0.0020454058 -0.0015637012 -0.0016725628 0.00021327061 0.0009555129 0.0030833539 0.00029265817 0.0020417918 -0.0038193294 0.0027085477 -0.0011112036 0.0017126914 -0.0019732139 0.00013030697 0.00068156514 -0.00020499181 -0.002130545 -0.0028247503 -0.0022700788 -0.0032254662 0.00051275874 0.00022403865 -0.0005881804 0.0022865075 -0.0008601489 -0.0010202703 -0.002111431 -0.0024612835 0.0032399872 -0.0015904023 -0.001566493 0.0021220879 0.0025487728 -0.0024115222 -4.2788317e-05 -0.001138867 0.0001116406 -0.00072033453 -0.0009871611 0.0005637585 0.0030557613 0.0024887333 -0.003727184 -0.002174367 0.002585646 0.00081569946 -0.0017502281 0.0007256295 0.0029113693 -0.00025912232 -0.003825889 0.00011863317 0.0021668489 0.002260896 0.0020988167 -0.0026511475 0.00031251568 0.00070757116 0.0006635267 -0.0026354266 -0.0031047727 0.001046471 -0.0034510063 0.0013945979 -0.00048810532 0.0053342604 -0.0019354529 -0.0002584284 0.002090363 -0.00092007726 -0.0007240203 0.0008806815 0.0013904006 -0.0010735434 0.0024187367 -0.00264946 0.0018569167 0.0015181502 0.003644279 0.0015242709 0.002327046 0.0032008868 -0.0033815813 0.0027477455 -0.002256172 -0.00052305154 -0.0016880744 -0.0025284316 -0.002512593 -0.0026357714 -0.002318938 -0.00015963189 -0.0023621258 0.0020689708 -0.0029816506 -0.0012113184 0.0024410922 0.0032642689 0.0025118007 0.0018746334 0.00075994973 -0.003257127 0.0019085745 0.0017564852 0.0037172735 0.0017552207 0.0022422385 0.0039059073 -0.0035146445 -0.0030378094 -2.2699638e-05 0.0029701048 0.0027687352 0.0024190191 0.0034006527 -0.003207151 0.0019268028 -0.000840903 -0.0038099082 0.0025889864 -0.0005312539 -0.0018095472 -0.0002404269 -0.0025232274 0.0012442925 0.0019921402 -8.7928645e-05 -0.0030250733 -0.0022013383 -0.0011078777 0.0026699996 -0.0014952583 -3.3806817e-05 -0.0013876269 -0.0022643146 -6.006358e-05 -0.00029725538 0.0019046773 0.0004812573 -0.00071293395 -0.0014974272 0.003986101 0.0018660787 0.0022349798 0.00053951336 0.0034216335 0.0016447558 4.1626463e-06 0.0024195148 0.0020812224 0.0011954412 0.0009960613 -0.0016295398 -0.001680336 -0.002330956 0.0016286122 0.0030597767 0.0026891963 -0.00064667827 0.0010901858 0.0013250861 -0.001752624 0.0003321651 -0.0014980226 0.0018675189 0.0018720825 0.0004008936 0.0015568784 0.0045635006 0.0036472816 -5.958599e-05 -0.003613799 0.0032250725 0.0021539277 -0.00045505288 -0.00047721213 -0.001966888 -0.0021359453 0.0029801119 -0.0018795963 -0.0025090603 0.0032065979 0.0017046952 0.0031676427 0.00033715597 -0.0024923072 0.0029138061 -0.0013847965 0.0020150759 0.001808915 0.003224428 -0.0033576868 0.0027949712 -0.0042994223 -0.0024436128 -0.0037213815 -0.000871955 0.001372874 0.002471173 -0.0026074175 -0.00017139387 -0.0018330701 0.0028475483 0.0018284628 -0.0011723782 -0.0022878684 -0.002866987 0.0012370042 0.0006639947 -0.0013879404 0.001514571 -0.00082623266 -0.0028412584 -0.0016323243 -2.3177183e-05 -0.0016434969 -0.0022136883 -0.002353412 0.0025328603 0.002002108 -0.00016473045 0.0005124383 0.003216497 -0.0010637253 0.0021657045 0.0014826824 0.0022852758 0.0010328157 -0.0015424658 -0.00090251013 0.00047865088 0.0020211218 0.0018375211 0.0018700252 0.0023583178 -0.00268203 -0.0020574443 -0.0030691943 0.004394731 0.0016958971 -0.0012990929 0.00060756336 -0.0025366354 -0.0017478627 0.0020268539 0.00049891876 -0.00043502654 0.00224294 -4.6814846e-05 -0.00027804432 -0.0011522548 -0.00054928486 -0.0021005138 -0.0026427617 0.0028320344 0.00011541795 0.00016643954 -0.0016042567 0.003919302 0.00065607537 -0.0008849942 0.000699947 -0.0022431444 0.0005154351 0.000573659 -0.002619094 0.0014372477 0.0013249484 0.0013987558 0.0021501735 -0.00067120686 -0.0016976177 0.002774659 0.0021041713 0.002130397 0.0026147468 0.0017114511 -0.00065147376 0.00012907406 0.0023877912 -0.0012930405 0.002344108
und -0.0024661468 0.002799122 0.00042707086 0.0025781153 -0.0018441327 -0.00250044 -0.0007848324 0.0034895241 -0.0018081508 0.0018295773 -0.0009156834 -0.0033690042 -0.002164202 0.0017524173 -0.0028094812 -0.0028053336 -0.0016888011 0.0021540516 0.0010405447 0.0001521952 -0.0012668944 0.0017945134 -0.0010834725 -0.00019870588 -0.0016691287 -0.00084505195 -0.0019268563 0.0027332522 -0.0005972491 -0.0044333595 -0.0010846383 -0.0028464028 0.0013260508 0.0029270516 -0.0024511246 0.0030310177 0.003017334 -0.0029683346 -0.003113729 0.0032905205 0.0029041362 -0.0016598171 -0.002330217 0.0019879586 0.0022709176 0.003718518 -0.002159155 -0.0027596692 0.0012198088 -0.002764606 -0.0012300131 -0.0013314413 0.0028145483 0.003898105 -0.0014499173 0.0028010604 0.0029032312 -0.0009458479 0.0034503147 0.0026781252 0.00012794988 -0.0015970741 -0.0017600278 -0.00084749114 0.0022218707 -0.0014935591 -0.001309892 0.0031612145 0.0003642397 0.0015545697 -0.0025779533 -8.344027e-05 0.0027548026 -0.0025022202 0.0030321474 0.0040008877 -0.0011522551 -0.0007472872 -0.000764887 -0.00076541567 -0.0035104954 -0.0011248472 -0.00122182 0.0038613433 -0.0024412938 0.0017052181 -0.00289123 -0.0020518838 0.004029247 0.0034269115 -0.000581248 0.000915287 -0.0016205377 -0.003011377 -0.001038461 0.0039019024 0.0029940244 0.0026471103 0.0023337342 0.0029855205 0.00017056565 -0.0037726765 0.0019011057 0.00017138486 0.002022589 -0.00048272932 -0.0008461597 0.0025903105 -0.00041726805 0.00031531844 -0.0022470073 -0.0027676374 -0.0023454695 0.0035545859 -0.0038066227 0.0040938137 -0.0031491932 0.00041001206 7.391259e-05 -0.0044649015 0.0027906965 0.0032338 0.0024268432 0.0011656354 -0.00040686724 0.004391194 0.0020760389 -0.0042708647 -0.0019987484 0.0005297863 0.0014006706 -0.0007216965 0.0014963198 -0.0043837265 0.0006203713 0.0021123376 0.0006795477 -0.0015859033 -0.0039965864 -0.004075955 0.00036272666 -0.0037012144 -0.0027025857 0.0026348196 0.0033162867 -2.2972468e-05 -0.0037904917 -0.003070018 0.003455909 0.0007144066 -0.001725324 -0.0044841967 0.00030975873 0.00027236424 0.00093893067 0.0021632886 -0.0032378458 -0.003574904 -0.003006057 0.0018388008 0.0017879665 0.0015294624 -0.00053743535 0.0023583795 -0.0010723779 0.001794698 -0.003675535 0.0032330176 0.0013672867 0.003424674 0.0012935473 0.0025861487 0.00080531626 0.00016275668 0.0002666538 -0.0034479054 0.0028057927 -0.0032560576 0.0028444298 -0.0017714566 -0.00012615614 -0.0026532244 -0.0042232904 -0.0025245345 -0.0033387053 0.00036240893 -0.00040458463 -0.00012984943 -0.0015280693 -0.0029325555 0.0028527915 0.0013194177 0.0016420624 0.002314686 -0.001878853 0.0017319509 -0.0028937294 -0.0018954414 -0.0031181937 0.0013099809 -0.00041602046 0.0024720524 0.00087573193 -0.0019753373 0.0026764115 -0.002275193 0.0031124314 0.0014480504 -0.0013158784 -0.0018969356 -0.0017692549 -0.0034940937 0.002991166 -0.001683138 0.003719909 -0.004508158 5.5374735e-06 -0.002247574 0.000842456 -0.003744819 0.00279558 -0.0019044814 -0.0034460477 -0.0031560955 -0.001706383 -0.0015722554 -0.0008605103 -0.0030970017 -0.00106783 0.0004489932 -0.00037021236 0.00025704454 -0.00261585 -0.00047609746 0.001310308 0.003458876 -0.0039816564 0.0018519877 0.0016458518 -0.0035952823 0.003546476 -0.0040996354 0.0023863916 0.0020726777 0.0011324747 -0.0033916358 -0.0013809258 -0.0013494334 0.0008089388 0.0012495386 0.003306694 0.0035731096 0.003991808 -0.0011435222 0.0021032922 -0.0010560554 0.0030344052 0.00092408474 -0.0018040747 0.000358269 -0.0017031974 -0.0015652218 -0.0013329575 -0.0013653924 0.00011623222 0.00056513376 0.0011457261 0.0020443706 0.0012818142 -0.0019633255 0.00041629391 -0.0025551335 0.0020505548 0.0037545545 0.0034926254 0.0033031628 0.0036561547 0.0026291355 0.00054282276 0.0027385168 -0.0014098714 0.0031267148 0.001236245 -0.00042735643 0.002512045 0.0022690399 0.00192445 0.0015551458 0.003737173 0.0012347022 0.0035329442 0.002965359 0.002695673 -0.00054245244 0.0034602091 0.0040510516 -0.0006301302 -0.0010495579 0.0020385399 -0.0032511838
dies 0.0032346782 -0.0022805827 -0.0024016518 0.0010168896 0.0019748497 -0.0024590103 0.0017557454 0.004694217 -0.0024926525 -0.0027199807 -0.0012955399 -0.0014103346 0.00024611197 0.0029496856 0.0016793676 -0.00056128134 0.0013290356 0.0028969138 0.0029457968 0.0013552591 0.0018474134 -0.00270694 -0.00064659584 -0.0015584029 0.0022641418 -0.0011229912 -0.003774272 0.0024384235 0.0023987228 -0.0022074746 0.0035383033 -0.0006524117 -0.00094022724 -0.00033741564 -0.00027098553 -0.00095267093 0.001098077 0.001524214 0.0021990952 -0.002842366 -0.00064062804 -0.0018891082 0.002455594 0.001720958 -0.00071830605 0.0014670353 -0.0016836709 0.000360086 0.003629528 -0.0005478373 -0.0014474186 -0.0025815542 -0.0012531476 0.0004234956 0.00078944175 0.003801105 -0.0010317225 0.0004976069 0.0034758833 0.0007207706 -2.2868431e-05 0.0030750358 0.0030402162 0.0027074697 -0.0023384527 0.0036806073 0.0017348698 0.00307698 -0.0012066957 0.00078979175 0.0023588256 -0.0012011657 0.0028388156 0.00021123361 0.0034790088 -0.0004076113 -0.0017359398 0.002068998 -0.0033960443 -0.001615422 -0.002683984 -0.0006809414 -0.0010278991 0.0038964574 0.002986369 -0.0004028014 -1.5286229e-05 0.0010843767 0.00017375183 -0.0023751266 0.002843507 -0.0016370863 0.0017795207 0.002994619 0.0015807613 0.002163022 0.001908195 -0.0012568855 0.0012720806 0.0005872557 0.0017297822 0.0014817286 0.0008846496 0.0021647417 -0.003020566 0.0014298387 0.0032426482 -0.0013687309 -0.00014724581 -0.0015072409 -0.00014925614 0.00094653654 0.0029258288 0.0006595906 0.00026156407 0.0011595971 0.0027798559 -0.0015014609 -0.001550098 -0.0022171752 -0.0008381284 0.002382122 -0.0017449531 -0.0012174164 -0.003029121 0.0025887254 -0.0009907268 -0.0036725507 0.00097632874 0.0036593766 -0.0007572179 -0.001462804 0.0017553038 -0.0013878191 -0.003531004 0.0032320693 -0.0031024767 -0.0020541195 -0.0017161778 -0.0025313492 0.0009931072 0.0023874068 0.0012250426 0.0031068344 0.0004906827 -0.00032367246 -0.0016586381 -0.003770277 0.0016685148 0.00024403898 -0.003128692 -0.0030806544 -0.0032351427 -0.0025077742 0.0015640538 0.0036303254 0.0004105114 0.00059112674 0.002255614 0.0008036651 -0.0002981917 -0.0029160255 -0.00086262624 -0.00038046646 -0.0005939496 0.002739392 -0.0028041154 -0.00084755913 -0.0026998261 7.695841e-06 -0.0018854993 0.00057488977 0.001461248 -0.0011428121 -0.001407676 0.00014388887 0.0018223259 0.0010287284 -0.0009394091 -0.0016549741 -0.002124342 0.00013793613 -5.317523e-05 0.0005447958 0.0019282302 -0.00071868027 0.0013439838 -0.0007851899 -0.00022352957 -0.0035972858 1.2338514e-05 0.00021741018 -0.0037524696 0.002884538 -0.0030300578 -0.0036925946 -0.0027224617 0.001719526 0.0014821332 0.0030217906 0.0001638992 0.0003607205 -0.0008876621 0.0033570153 0.00097123545 0.0011997003 -0.00032762784 0.00063830573 0.0022569818 -0.0004958994 0.0009154481 -0.0012201936 0.0016365458 0.00065377686 0.0016483157 -0.002650283 -0.0020927927 0.00014751432 -0.0030835986 -0.00052385905 4.66532e-05 0.0010300728 -0.003815514 0.0020154503 -0.00089687126 -0.002088996 0.0015053537 -0.001070177 -0.0034664182 -0.0010377849 6.234582e-05 -0.0037219822 0.00010541688 0.0012216275 -0.0013257175 0.0012919346 0.00032922946 0.002959052 0.0004091041 -0.00088513334 0.0013998632 -0.0013789064 -0.0029526902 0.0028563095 -0.00019234355 -0.004370745 -0.0021762613 -0.0014391524 0.0015442105 0.0021645154 0.0026295313 -0.002086322 0.00097219716 -0.0007414368 -0.002487866 0.0017460726 0.002305421 -0.00097541104 -0.0038736302 -0.002304318 -0.00017614759 0.0028757316 0.0028612874 -0.004216009 -0.004598639 0.0025237238 -0.00026912245 -0.0005568969 0.0009224276 -0.0015615604 0.0014958214 -0.00012792385 -0.0017339293 0.00030392726 0.0028278332 0.0038709026 0.0014106964 0.0019971884 -0.0028621103 -0.00035215466 -0.0016679395 0.0004245679 -0.0008624965 -0.0010137991 -0.0026008605 0.0035959824 9.623026e-05 -0.0003444335 -0.0010861482 0.003159564 -0.0018368895 0.002255165 0.0006014581 0.003241247 0.0030912792 0.00015942549 0.00087841915 -0.00089624536 -0.002581689 -0.0015013984
eine 0.00040207602 0.0029905206 0.00314157 0.0030943628 -0.002817795 0.0016004596 -0.0011847031 0.0011054942 1.381537e-05 0.00165001 0.0017913615 0.0013779751 0.002886457 -9.5042284e-05 -0.0024309813 -0.0026780074 0.002584373 -0.0016612471 -0.0010365894 0.0008301883 -0.0008533195 -0.00212913 -0.00019630374 0.00066215085 0.00085877435 0.001788726 -0.002445509 0.0009470185 0.002061 -0.00011473827 0.0021850786 -0.0019294705 0.0022828307 -0.002697966 0.00087843416 -0.0029678973 -0.0007480229 -0.00343996 -0.00060626917 -0.0017043309 -0.0013220247 0.00031290934 0.00090262183 -0.00093462016 -0.0021192618 -0.0013946088 0.0004703233 -0.0010467604 -0.0027673193 1.7307846e-05 0.002418698 0.0019000361 -0.0035568627 0.0016574326 -0.0022934477 -0.002568146 0.00014944133 -0.00023884348 -0.0021999103 -0.0019037423 -0.0011375216 0.0021604684 -0.0025706461 0.0026858102 -0.00039675253 0.0007167632 0.0029726282 0.0016330075 -0.0016471496 0.0009766158 0.00123764 0.002239207 0.0005476962 -0.0020052583 0.00073167554 -0.0012893007 -0.00010479866 0.001687068 0.0014378293 0.0037080548 -0.0028811186 -0.002194353 0.0019296041 0.001832624 -0.002290507 0.00023989321 0.00052223774 -0.0005025711 -0.00097146403 0.0019104234 0.003568528 -0.002595959 0.00015814151 -0.00089209457 -0.0016404056 0.00046331948 -0.0012907615 0.0026735251 -0.0019026696 0.0016241758 -0.00023061421 0.0010954132 0.0009392826 0.0035497854 0.00020168869 -0.002459257 -0.00030825453 0.0006726582 -0.0017013678 -0.0024009708 -0.0023116262 -0.0022356256 0.0022679095 0.0016967717 0.0023113561 0.0027944986 -0.002084111 0.0012357734 0.003253523 -0.00033489414 0.00097088283 0.0025359008 -0.0022068056 0.0027953999 0.002019674 0.0034917614 -0.002890653 0.0015168863 0.0018847468 9.047994e-05 -0.0018823972 0.0022086545 -0.0016805193 -0.0027681526 0.0009935546 0.0030691272 0.0023814766 -0.0018020174 -0.0037292119 0.0025820795 0.0025051879 -0.0020592848 -0.003079934 -0.0012307689 -0.00078181206 -0.0014812738 -0.0003736636 -0.00077250483 -0.00062465377 -0.0023864168 0.0031668441 -0.0027047964 -0.0023520316 0.002090013 0.00095839053 0.0035138135 -0.0022631215 -0.002484655 -5.1931907e-05 0.0005748327 -0.0030372539 -0.00049648754 0.00033067932 0.0025708699 0.0017385569 0.001336188 -0.0018315009 -0.00026363885 -0.0017706098 0.0029082615 -0.0027601477 0.0005582674 -0.00014279291 -0.0015118875 -0.0023356322 0.001758259 -0.0027956003 -0.00087995455 0.0009971509 0.00236457 -0.00265377 0.0013317575 0.0027014057 -0.0022743584 -0.0016252208 0.0018440433 0.0029036442 0.0014218685 0.0028154706 -0.0005494713 0.00094148313 -0.000716363 -0.0034596457 0.0010553573 0.00068234414 -0.0033014107 -0.00013449634 -0.00055573037 -0.0002516326 0.002825686 -0.0013905205 -0.0018545918 0.0024338928 -0.0022368487 -0.0029232467 -0.00069971563 -0.0027251795 0.00041518296 0.0006758302 -0.0009999644 -0.002331255 -0.0009083414 -0.00046905305 0.0006827342 0.0033804185 0.0012527837 0.002406354 -0.004047106 0.0022188409 -0.0011960807 0.0030315137 0.00068386283 0.00040095835 -0.0039644972 -0.0034779392 0.0027922017 -0.0008376351 0.00063347106 0.0013972804 0.0002880703 0.0034078932 -0.0009484365 -0.0032914912 -0.0019918808 -0.00060530397 -0.0025614875 0.0021058805 0.00086657197 -0.0029631 0.0015299554 0.0033359523 0.0014150932 0.0022529222 -0.0030355102 0.00056511257 -0.0040573925 -0.0011838 -3.1801927e-05 2.731996e-05 0.0008777549 0.0016001218 0.00081651326 0.002328239 0.0026325495 -0.0026229806 0.0021704186 0.0027789508 0.0032777507 0.00061665504 -0.001659381 -0.001228177 2.3762248e-05 7.663496e-05 0.0021803316 -0.00079603767 0.0014758616 0.0015838494 -0.0023911595 0.001394109 0.003087473 -0.0007644677 0.00075419684 -0.0017537591 -0.0017461336 0.0032741728 -0.0003335449 0.0027987985 0.00078919024 -0.0016596738 0.00094378093 -0.001180985 -0.0006285272 0.00020877918 0.0017913241 -0.0006185365 0.0005529676 -0.0033925008 0.0035054442 -0.002728586 0.0028023317 0.0015692792 -0.0013300801 -0.0015228236 -0.0023600543 -0.0009485127 0.0033006228 0.003315455 0.0004319102 0.00071566657 0.0026466602
hier -0.0017189004 0.00063656375 0.0008691144 -0.0020351664 -0.003387715 -0.0038262622 0.0039404407 0.0036344929 -0.0017921233 -0.0034883828 0.00083464495 0.00072215725 -0.00081454846 0.00012460542 -0.0019497835 0.000836418 0.0010475988 0.0030947921 -0.00340786 -0.0024083103 -0.0031884818 -0.00026273695 -0.001890695 0.001992194 -0.0019113491 -0.0023055514 0.0006930249 -0.002808212 1.1188191e-05 -0.0035460743 0.0038546643 0.00249418 0.00092155946 0.0017294537 0.0011365308 -0.0017431262 0.0034101154 -0.0036993527 0.002579676 0.0010260862 -0.00097034645 -0.0012588833 0.0029626898 -0.0023327062 0.0035130815 -0.0012173743 0.0030642066 0.0001473992 0.00312917 -0.0006889027 0.0022902694 0.0028284183 0.00048336558 0.0012545036 0.0013038582 0.003306909 0.002990364 0.0027191695 0.002526181 0.0029079183 0.0024502124 -0.0002788537 -0.0004266057 0.0007269036 -0.00033360138 0.0006674659 -0.003112424 -0.0031267751 -0.0013778101 0.0026149221 -0.0011297901 -0.0021627604 0.0023253444 -0.00035944162 0.0010179419 0.0018590265 0.00043113178 0.0019021148 2.0409534e-05 0.0011575964 0.0024631056 0.0004114474 -0.0018696721 0.0040168054 0.0016465319 0.0008938193 -0.0015729112 0.0015589639 0.0030726804 0.0027202675 0.00081765215 -0.0030296454 0.00034703105 3.974494e-05 0.0019446732 -0.0019102674 0.003867383 -0.002704312 0.0019082777 -0.0026060527 0.0030429887 0.0020127057 0.00075534545 -0.0008756731 -0.00020720629 -0.0006619559 -0.00197366 0.0018966852 4.7471025e-05 0.0015209003 -0.0030146663 0.00285164 0.00038623178 0.0004838568 -0.003639886 0.002175115 0.0022121214 0.0028623885 -0.0015671975 -0.0037560023 -0.001944608 0.00059438165 -0.0017783846 -0.0030962776 -0.0009905867 0.0012916178 -0.0033875166 -0.0019831008 -0.00020386797 0.0030380287 0.00087975845 0.00035900844 -0.0016761811 -0.0035617694 -0.0004483248 0.0029291296 0.0011493608 -0.0008785323 -0.00054396235 -0.003992202 3.8619153e-05 -0.002495492 0.0015514483 -0.00031927286 -0.0008826956 -0.0036941438 -0.0012535371 -0.0033087276 6.313676e-06 -0.0017996853 -0.00081816316 -0.0025878092 -0.0026819166 -0.0010594385 0.0007492397 -0.00047220397 -0.0035971566 -0.0014377007 -0.0035715306 0.0010156386 0.0020860992 -0.0009885762 0.00017135016 0.0021613613 0.0020215604 0.0021975946 0.0026356173 -0.002752824 -0.0031977715 -0.0009048969 -0.0033045334 -0.0028301096 -0.002164129 -0.00042903668 0.0005659943 -0.001263414 -0.002883669 0.0007654512 0.00034624597 0.0012773001 0.0021090095 0.0028633995 -0.0010577383 0.0012644489 -0.0023313442 0.0007801326 0.0030526551 0.0044764085 -0.0008864415 -0.00017046576 -0.0015351344 -0.0009712235 0.0017589943 -0.0013465619 -0.00040427275 -0.0036131786 -0.003040037 0.002218006 -0.0022692513 0.0016144062 -0.0031179353 -0.00066336873 -0.0027746744 0.0027401252 0.0021244595 0.0015778573 0.0028548802 0.000113583126 -0.0030796435 0.0027894108 -0.0019203543 0.0015430951 0.0017620295 -0.00094824197 -0.0017161092 -0.0014478762 0.0015785386 -0.0037285557 -0.0007900383 -0.003218984 0.0031262266 -0.0011024394 0.0020673522 -0.0028903172 -0.0036177107 -0.0031981575 -0.0011964414 0.0011128467 -0.0010600812 0.0036012107 0.0012185416 0.00048365945 0.00090904767 0.0032058144 -0.0011386024 0.0029272365 -0.003680826 0.0005929486 -0.0002647341 -0.0016547695 0.0027776882 -0.0016721217 -0.0008138106 0.00016163729 0.00034851622 -0.0024478934 0.0021225647 -0.0023440274 0.0028244026 0.00046558262 0.0015446323 0.0012388566 0.00066908635 0.0007572297 -0.001955314 0.0010165711 0.0011087869 -0.0010461006 -0.0041367994 -0.0040431153 0.00018153964 -0.0016263465 0.00051232084 -0.0029247554 -0.004416917 0.0005441366 0.002563151 1.12305e-05 -0.00353146 0.0015375285 -0.00037122422 -0.001855042 0.00020571082 0.0002195484 -0.0003253751 -0.0024222708 0.0032798043 0.0016105042 -0.0021590334 0.0023576205 0.00032520777 0.0023964285 -0.00083845755 0.0027048106 -0.0002443432 -0.00158189 -0.0025565638 0.0036530008 0.00048667248 0.0009655984 0.0031900667 -0.00074765517 -0.00022532923 -0.002288894 -0.0012783479 -0.0016049639 0.0014201168 0.0005854774 0.0024830862 0.00019156313
nicht 0.0005722936 0.0031768638 -0.0009701736 0.0011991211 0.0026566612 -0.0007815404 0.0032360698 4.753883e-05 0.0019606065 0.0006769087 0.0022069176 -0.0035913405 -0.0006188516 0.00072085275 -0.00258624 -0.0031923563 0.0028718226 -0.0021662638 -0.0018407436 0.0019819746 -0.0025104468 0.0026801266 0.0011441082 0.0018948839 -0.00074890896 -0.0022394464 -0.0042313524 -0.00023905042 -0.0022410385 -0.0023904918 0.0033639793 -0.0030574813 -0.0017696064 -0.0019891032 -0.002669917 -0.0026773035 -0.00016797081 0.0025227526 0.002501897 -0.0016081127 -0.0026842873 -0.0008000359 -0.0031506994 -0.0023227222 -0.0010703452 0.0019735699 -0.0022399842 0.0008120868 0.0013351439 0.0022025006 -0.00034549524 -0.003417271 0.0013550627 -0.0010398097 0.0011641898 0.0014356633 0.0031139422 0.0004033295 -0.00038977008 0.0024813672 -0.0028759395 -0.0031686893 0.0012530453 -0.0006958176 -0.0017548553 -9.354475e-05 -0.003568779 0.00019161234 -0.0011308783 -0.0014789714 0.000981898 0.001784777 0.0029369264 -0.0035384423 -0.0011900895 -0.0021381702 -0.0039006548 -0.0012694926 -0.000927898 -0.0017295437 -0.0024786768 -0.0013055382 0.0017678188 0.002748064 0.002631997 -0.002865547 -0.0020961813 0.00022188004 0.004018353 0.0007413476 0.0011016359 0.00019582322 0.0013297386 -0.0032859605 0.0018843134 0.003288174 0.0025272763 0.0009954358 -0.0026616596 -0.00069560524 0.0025309266 -0.00068209326 -0.0027797464 0.0019153244 -0.0020186298 0.0012611351 0.0019416511 -0.0016900349 -2.4851142e-05 0.002161792 -0.0019136888 -0.00047194408 0.0032683613 0.0037008005 -0.0038843036 0.0035565589 0.003258163 -0.00048274136 0.0015335194 -0.002352587 0.0027824654 0.0008467942 0.0031488107 0.0026809094 0.0009206227 -0.001290075 -0.0008658877 -0.0005602989 0.000175109 0.001900261 0.0035944327 0.0021263463 0.0042667068 -0.0045333677 -0.0021428396 0.0012136117 0.00040880777 -0.00079921645 -0.0033913385 -0.0020607114 -0.0022307213 0.001987648 0.0007527078 -0.002053196 0.0019371123 0.00076888484 -0.0029456858 -0.003027474 0.0010551143 0.002414599 -0.0032411069 -0.0018396884 -0.0022259841 -0.0010847211 0.0012839499 -0.00060161675 -0.0021728848 -8.254085e-05 -0.0028119653 0.003959424 0.0016425679 -0.0028398272 -0.0017942344 0.0016647704 -0.0037130374 -0.0020013317 -0.0033871895 -0.0012667439 0.0023551094 0.0039932393 -6.231732e-05 -0.0030565814 0.0024789711 0.0022604596 0.00015875867 -0.003301171 -0.0005817743 -0.0010037401 -0.0024811765 0.0004930347 -0.00023763084 -0.0020071075 -0.0036763162 0.0020511085 -0.0035552976 -0.0016885286 0.0036785747 0.0012457534 -0.0008009665 -0.0030941803 8.545991e-05 0.0015374292 -0.0031097475 -0.0016841778 -0.001677802 -0.0022252551 -0.0025436017 -0.0041694534 0.0020916916 0.0026429158 -0.002346654 -0.0029553927 -0.0007348739 -0.0010379367 0.0031520384 0.0007707959 -0.0018682304 -0.0006833006 -0.0033069376 0.0003592625 -0.001653445 -0.00221158 0.0016218608 0.001773992 0.0025166904 -0.0034876943 0.0016252942 -0.0049042488 -0.0038481369 -0.0034001155 -0.00046753182 5.2805844e-06 -0.002554028 -0.0006033981 0.0025867391 0.0018012477 -0.00012935656 0.0024739928 -0.00069131283 -5.2369687e-05 -0.0019861776 0.001219615 -0.0031756323 -7.519403e-05 0.0021390626 -0.00031210392 -0.00010527982 -0.0029389916 0.0015886818 0.00029094302 -0.0025014477 -0.0020396903 0.0026164826 0.0012573695 0.0006640977 -0.0014111586 -0.0032367727 0.0031437126 -0.00048470488 -0.0009847507 0.0017072918 0.000524066 -0.001095721 0.0021306705 -0.001957951 -0.0028040444 0.0037441677 0.002197435 0.0014392236 -0.000484785 0.00026824544 -0.0022577296 0.0026757773 0.0012741253 -0.002042181 -0.00028991097 -0.00059617194 0.00075580715 -0.0038891467 0.0024247626 0.00021075981 0.0031302853 -0.0013959308 -0.0011985456 -0.0011702379 -0.0013732343 0.0018186519 0.0020813465 -0.0011613352 0.0010621403 -0.002937367 -0.00041589575 -0.003003569 0.0012178493 -0.001139325 0.0034872266 -0.0023697298 0.0028473944 0.0017732378 0.0011911155 0.00044453584 0.004393554 0.0012482682 0.0033508132 0.0023298 0.0032993236 0.0018256685 -0.0029723616 -0.0011470802 -0.00043818788
in 2.6560663e-06 0.0014537758 0.00021088957 0.002589793 -0.0015565956 -0.00039817693 0.002995257 0.002067641 0.0012979548 0.00092025346 -0.0001370872 -0.0029133 0.0007540036 -0.003142921 -0.001255789 -0.0036865892 0.00024183457 -0.0025507035 0.0023937356 -0.0020702102 0.0032422799 -0.0031263826 -0.0009206771 0.00087781175 -0.00083872385 0.00020030943 -0.0018579467 -0.00033378878 -0.0022046876 -0.004049062 0.0024429986 -0.00015818977 0.0023877043 -0.002613233 0.0009784624 -0.0032055317 0.002663692 0.0016155713 -0.002111757 0.0028358777 -0.0018484556 -0.002913914 0.00049913436 0.000694751 -0.0021603832 -0.0024637901 0.003279354 0.0007801735 0.00063277 0.0010793818 -0.0010062563 0.0005198207 0.0004174099 0.0038345025 -0.0021410508 0.0011809135 0.0022011832 -0.0023193746 -0.0028371138 0.0030587036 0.0020030292 -0.0015060366 0.0018907973 0.00031672473 -0.0018698893 -0.0001271897 -0.001775544 0.0021198732 0.00023409563 -0.0030263346 3.7557835e-05 -0.0007749929 0.0026733153 -0.000882549 0.0028026735 0.0011304053 -0.0017731917 0.0027211045 0.0006980933 -0.0007349827 -0.0022406376 -0.0013625899 -0.0018976514 0.0023789115 -0.0031954816 -0.0019611027 0.00076108996 0.00033562936 0.0025969206 -0.0010086821 0.000329397 0.0006560416 0.0019888538 0.00052328117 0.003717943 0.0020470677 -0.0019844568 -0.0007546761 -0.0027701207 -0.0014291048 -0.0008677257 -0.0034757734 0.0033127067 0.0008857773 -0.00037628462 -0.0024109723 -0.0027633605 -0.0032801016 0.0024743606 -0.0006709819 0.001146448 -0.0014908811 0.0034401314 0.0015467182 -5.757306e-05 -0.00080201414 0.0003676921 -0.0006224821 0.0028016695 0.0007402007 0.00027751995 0.0016837068 0.0019276293 -0.0024754296 0.002750193 0.0011737628 -0.0020593586 0.002390228 -0.0006999498 0.0032637632 -0.00032367615 0.002684344 0.0014096721 -0.0023474947 -0.001388596 0.0034076958 5.7511712e-05 -0.0023278098 -0.00046494303 -0.0012231367 0.0008760335 -0.003250138 0.0022104399 0.00075706246 0.0030929656 0.0011304995 -0.0020592154 0.00065484026 0.00016352169 -0.0036644882 0.0027765224 0.0021679627 0.0033071192 -0.0016681858 -0.0026553313 0.0022097966 -0.003241776 0.0026718574 0.00058432424 0.0027343743 0.0021571706 0.00019491231 -0.0013115003 0.00054856675 0.0027710064 -0.002171534 -0.0007830481 -0.00048190998 0.001248158 0.003030868 -0.001958354 0.0010788384 -0.0011938971 0.0014763471 0.0027869206 0.0010496257 -0.0015273324 -0.0015767033 0.0026788337 0.0030019786 0.0017463713 -0.0008576994 -0.0011072631 -0.0020781327 -0.0018408075 0.0012612621 -0.001153782 -0.0014709751 0.00285735 0.0023972178 0.0029940417 0.00034506104 -0.0035680549 -0.0025342174 0.00054917415 -0.0035174466 -0.0024091383 0.00017229163 -0.0012228733 -0.0031231479 0.0016611093 -0.0029179116 -0.0025137248 -0.0004320958 0.0006038643 -0.00043923417 -0.0016612273 0.0024321368 0.0029470588 -0.0026335015 0.0031113615 0.0017312425 -0.0026065442 -0.0010691932 0.0020172258 0.001686798 -0.0016047304 -0.003272043 0.0007232802 -0.0033612372 -0.0018086799 -0.000553846 0.0010955645 -0.0025956656 0.0013060487 -0.00035714885 0.0010275206 0.0018582644 -0.00018671871 0.0029074652 4.5551347e-05 -0.0032967676 0.0029960447 -0.001295387 0.0013471667 -0.0010119205 -0.0027978446 -0.00247333 0.0014762414 -0.0014113456 0.0008213275 -0.003484879 -0.0017622521 -0.0018651721 0.0031586837 -0.0037733924 0.0017307962 -0.00040818687 0.00018302535 0.003298082 -0.00075541943 -0.002207903 0.0007222311 0.0026927758 0.0024259025 -0.0016549565 0.0016592742 0.0016523044 -0.0026205317 0.0018061094 -0.0020770542 0.00089988054 0.0021437097 0.0004624109 -0.0026192947 0.0010230949 0.0028360176 0.0033832707 -0.0039217253 0.002148513 0.0014953965 -0.00054445484 0.00345907 -0.0010905034 -5.4732656e-05 -0.0016626668 -0.00075803255 0.00032257003 -0.0020032153 -0.0018803932 0.0023473802 -0.0017976967 -0.0023582282 0.0026826924 0.003084108 0.0016435151 -0.0006813324 0.0005772459 -0.0001054318 0.0026962399 -0.0018544712 0.0010842849 0.0016504632 -0.0004236752 0.0009654402 0.0020615878 0.0033179722 0.00047686454 0.0036316274 -0.002422703
? 0.0015595304 -0.00017159875 -0.0016551302 0.00045169255 -0.0015454912 -0.0025998792 0.001960553 0.0045425063 -0.0023992143 -0.0037666908 -0.0007377313 0.0022989872 -0.0036294207 0.0029040386 -0.0006339206 1.7680495e-05 -0.00010569743 -0.0018323025 0.0009996195 0.0014713621 -0.0024966795 -0.00052394863 0.001131015 0.0017535276 0.0026243362 -0.0015565366 0.0015699489 -0.0019874687 -0.0011825953 0.0018706246 0.0022758415 -0.0032695744 -0.00023720037 -0.0031509162 -0.0009078331 0.002020617 -0.0023390853 0.001414712 0.0019680567 -0.00111832 -0.003163848 -0.000914874 -0.00092673645 0.0007957484 0.0037556386 0.0013609738 -0.00039101718 0.0013056276 -0.0017425639 -3.997945e-05 -0.00023168675 0.0031158507 -0.0022085593 -0.0015644203 0.00043028602 0.001464719 -0.0022600954 -0.0021416466 -0.00016675386 -0.0008222876 -0.003342175 -0.001548255 -0.001053557 0.0022801445 3.5675773e-06 0.000909319 -0.00015252721 -0.0010698236 0.00046763234 -7.304738e-05 0.0020526343 -0.0001614575 -0.0022939343 -0.0003888579 0.0036776746 -0.0010738657 -0.002489738 -0.000859686 0.0024984756 0.0005675064 0.002620531 -0.003222017 0.0027539954 -0.0015040406 0.0029908987 0.00053659506 0.00032787406 -0.0015098108 0.0037385072 0.0023466444 -0.0014341881 -0.0033697777 0.0025560446 -0.001872344 -0.0025355194 0.002017776 -0.0010697956 -0.0028239025 0.0032617555 -6.357644e-05 -0.0006452321 -0.0016882627 -0.0011820196 -0.0013124101 -0.0018567309 -0.0025684081 -0.002554395 0.003198912 0.0014203062 -0.0009792205 0.00032187614 -0.0025544025 0.002697099 0.0032302574 -0.0002991323 -0.0015363252 -0.0010144472 0.0019928247 -0.00046992456 5.2724627e-06 0.0030835278 0.0021769337 -0.00078408926 0.0015333596 -0.0012383506 -0.0012557952 0.0021237251 -0.0037977542 -0.0007480572 0.00029398574 -0.0025800772 0.00013151078 0.0026368361 -0.0030649297 -0.0025768564 0.0025527424 -0.0018352598 -0.0030644247 -0.00073811074 -0.000787504 0.0029549166 -0.00071956706 0.002336476 -0.0028633713 0.0019737042 0.0015144092 -0.00046368368 -0.0017841476 0.00089276576 -0.0007552214 -0.0026630037 -0.003745884 0.00044775478 -0.0012599666 0.0033913522 0.00046924062 0.0010570522 0.0004929557 0.002251277 -0.0018315271 0.0009646823 -0.00040719236 -0.0001320248 0.00037736644 -0.0029424278 0.0033800458 -0.0013857073 0.0010470682 -0.0026827957 0.002455157 0.0024947838 -0.0005739563 0.002552145 0.0004548349 0.00277316 0.0029623911 -0.00017877133 -0.0013678528 -0.0031112852 0.0030542554 -0.0010582617 0.0010659331 -0.0012738884 0.002834419 0.002240381 0.0007484751 0.0023910566 0.0032430454 0.0010096597 0.0010849837 0.00041917336 -0.000990058 0.0008428776 -0.0011543757 -0.0008517725 0.0024335994 -0.0029187154 -0.0018999445 -0.0013455428 0.0018016255 0.0019679572 -0.0020509982 0.0018624037 0.00018260702 -0.0029250837 -0.0009860874 -0.00046125348 -0.0011555525 -0.00020103717 -0.0020064714 0.0017602505 0.0020250385 -0.00065808266 0.0005559569 0.0005680284 -0.0011466224 -0.0028775146 -0.0008676196 0.00013456166 0.0018061073 0.002416485 0.0009845999 0.0005183664 -0.003475739 -0.00091492827 -0.0022430911 0.0024357731 0.0022416404 -0.0023291067 0.0008562059 0.0018766635 -0.00015926144 0.00021149908 -0.0018135398 0.0029915355 -0.0020081606 -0.0025262628 -0.0023229069 -0.0022030121 -0.0027999997 -0.002657636 -0.0003108155 -0.0013138447 -0.00062258204 0.0024067324 -1.7219629e-05 0.0006578084 -0.0006704108 0.0035262022 0.000600649 0.0023207641 0.00319992 -0.0025567387 -0.0028708081 0.0025233815 0.0002674061 0.00038916705 0.0016334887 -0.0026448083 -0.0027526533 -0.0027011398 0.0026426208 1.4857258e-05 -0.0039033704 -0.003492861 0.0022608484 -0.00026511587 -0.001361134 -0.0015971037 -6.29109e-05 -0.001328411 -0.000757714 0.0019237678 0.0008960943 -0.00040069217 0.0017135345 0.002437853 -0.0027238734 -0.0037763547 0.001979333 -0.0028489942 0.00021738987 -0.0033424152 0.003027374 -0.001649701 -0.0017713456 -0.0013703705 7.9338846e-05 0.0028582832 0.0036368712 0.0002376095 0.00214483 0.0019028785 0.0004663475 -0.001081297 0.0009667117 0.00080579816 0.0024177353 -0.00060160866 -0.0039769686
was 0.0017709724 0.003965489 -0.002466695 -0.00014224944 -0.0017791656 0.0016614195 0.0038334902 0.0010873545 0.0015503857 0.0016988127 0.0017345694 -0.0028060905 0.0007843041 -0.0007022221 -0.0010369725 0.0012808468 -8.775821e-05 0.003383815 -0.00029280368 -0.00031847807 -0.0008337941 -0.0029443833 -0.0028439676 0.0018691523 -0.002053506 0.00071843877 0.00035586124 -0.0024224438 -0.0013491109 -0.0027021964 -0.0025103183 -0.00024714757 0.003508283 -0.0023897623 -0.001700197 0.0028629445 0.0032316109 0.003008027 -0.0033364047 0.0017605498 -0.0021761341 0.0022130413 0.002030781 -0.0014471331 0.0028227041 -0.0021356235 0.0017316357 0.0017496658 0.0023327474 0.00223002 -0.0007213228 0.001249918 -0.0022709707 -0.0016211158 0.00065256853 -0.002757328 -1.23739865e-05 0.0002729864 0.002810446 -0.0021750785 -0.0010261785 -0.0015134197 -0.0018003314 -8.844763e-05 0.0013166013 -0.0013936186 -0.0007001091 0.00294729 -0.00082873774 -0.0014135882 0.0025272956 0.0004455676 0.0003058186 0.0026992508 0.002962847 0.0015615755 0.00063419103 -0.00075423415 0.002425911 0.0022604032 -0.002164336 -0.002361932 -0.00039244266 -0.0014629163 0.0010368013 -0.0030960136 -0.0008779141 0.0014020869 0.0016148398 0.0012878197 -0.0027340723 0.0009833451 0.0019293728 0.0011450767 0.0029736473 0.0013495509 0.0024633359 0.0026932645 -0.0003433021 5.3492266e-05 0.00062859326 -0.0027615188 0.002072787 -0.0015007365 -0.0011041551 -0.0011444257 0.0028550262 0.00075503276 -0.0007788063 -0.0007936051 -0.0010854768 -0.0004325013 -0.0015533065 -0.0010751389 -0.0003042189 0.0020172398 0.0005413904 0.002558939 0.0005164114 -0.0017789985 -0.0025031145 0.0025054407 0.0029659127 -0.0022253732 0.0013709528 0.0037527122 -0.0022952792 -0.0014138737 -0.0032898795 0.0015942142 -0.0009990592 0.001050974 0.0036681409 -0.0036600889 -0.0032503093 0.00091046165 -0.0031416742 -0.0033111016 -0.003709758 -0.0006032761 -6.360593e-05 -0.00034678247 -0.0006570925 0.0032955965 0.0033824362 -0.0024455362 0.0023671126 -0.0035963908 -8.249119e-05 0.0005185198 -2.1899168e-05 -0.0022855485 0.0001996345 -8.083815e-05 -0.0030384536 -0.0010693395 -0.0032592316 0.001125244 -0.0006178932 -0.0016343491 0.0020224028 0.00010567347 0.00033333508 0.0020970483 -0.0019007616 0.0028530904 -0.002900693 -0.0008528305 -0.0028282148 0.0011651962 -0.0030411368 0.00288932 0.002105313 -0.0020614015 0.0021267345 0.002023219 -0.002466804 0.0010192716 -0.0025157358 0.0029601322 0.0014246615 0.00014277919 -0.003459298 -0.00029962978 -0.00045965583 0.00042493193 0.0038414483 -0.00023632773 -0.0027457853 -0.003680913 -9.038776e-05 0.00028969476 -0.0005923845 -0.0007938969 0.0029006472 -0.0002784953 0.0022262556 0.00085244916 -0.0026785398 -0.00077776 -0.0030894435 -0.002209978 -0.0011123081 0.0023741892 -0.0002266272 0.0028323056 -0.0007297468 -0.001577456 0.0013410257 0.00059014105 -0.0002538296 -0.0015004249 -0.0020930576 0.0009784459 -0.0019759482 -0.003589131 -0.0034271746 0.0018996069 0.0005087612 0.0020712726 0.0034555234 -0.0025208953 0.00068012 0.0003131635 0.0017817438 -0.0013274171 0.0032129842 -0.0021809146 0.0017347904 0.002647796 3.8896013e-07 0.0011825141 0.002200315 0.0008304901 0.0022563182 0.001084338 -0.0008611071 0.002205363 0.0015217342 -0.0021967883 0.00086944696 -0.0005057423 0.0016012277 -0.001671822 -0.0010612368 -0.0011327786 0.0013048731 -0.002312649 0.00277593 -0.00069912506 0.0023126963 0.001058866 0.0027649982 -0.0013788316 -0.0015958523 0.0006151018 -0.00023013793 0.0020021233 -0.0027831963 0.00043180565 -0.00019843293 -4.369396e-05 0.0014309172 -0.0017112886 -0.002434265 -0.0027480393 0.0012183808 0.0022417041 -0.0026918128 0.0033377528 0.0011992849 -0.0017552291 -4.0848277e-05 0.0016049887 -0.0018411927 0.0012526929 0.002315491 0.0023072101 0.0009377867 0.0011453722 -0.00081995485 -0.0020354153 0.0025130685 -0.0023007158 -0.00071857736 -0.00084793824 0.001552897 -0.0017821713 0.0013475199 0.0010737093 -0.0011305859 -0.0019082623 -0.0024238927 0.0014469962 -0.0026308885 0.0026888906 -0.000899233 -0.0032502953 -0.0013261345 0.002112603
wir -0.00060317846 0.0031169492 -0.0033054105 -0.0029556747 -0.0018880776 -0.0003619642 -0.0015539861 -0.0015182568 -0.0031676935 -0.0008134001 0.0028376288 -0.0029883021 -0.0021274008 0.0002430814 0.0006412619 -0.0035085585 0.0030919644 -0.0026403377 0.0014779635 0.0025851494 0.0017282809 0.0019467794 0.0033908978 0.0014585513 -0.0022142534 0.0015546789 -0.0036394862 -0.0019773045 0.0015292089 -0.003697746 -0.0014647433 -0.0015582846 0.0014354349 0.0015571218 0.00033053695 0.0018737096 -0.00073532574 0.0010485785 -0.0024443688 -0.0004484328 -0.0024750936 -3.5968992e-06 0.0014825095 0.0011345161 -0.0008112104 0.0012950707 0.0028512017 -0.001542816 -0.0008014767 0.0001402266 -0.0013237066 0.0027697836 0.0022116313 0.0037537245 0.0027938401 -0.0022580004 -7.468818e-05 -0.002642923 -0.0013885701 -0.002707785 0.0007533261 -0.00018521558 -0.0023807725 0.002807625 4.8357328e-05 0.00046885796 -0.0014154571 -0.0010558233 -0.0014272153 0.0022187522 0.00087890105 -0.001603978 0.002193306 -0.00029344927 -0.0005093426 0.0031532915 -0.001986894 0.002458696 -0.0017582331 -0.0017013693 -0.0020113105 -0.0017489402 -0.00048466364 0.001030496 0.0015703656 0.0017448844 -0.0010297265 0.0016343863 0.00013734099 0.00054942066 -5.059701e-05 -0.0010074517 -0.0013404775 -0.0014788769 0.00058273826 0.0016933674 -0.0025938274 0.001667241 -0.00058678875 -0.00049454067 -0.0017728696 -0.0018037254 -0.001359208 -0.0030351712 -0.00030451646 -0.003314531 -0.0014686077 -0.0024485728 0.0026448024 -0.00022366451 -0.003100482 0.0018788348 -0.0025153346 -0.0001755847 0.00035379882 -0.0016086462 -0.0029519915 -0.0018516477 0.0029711642 0.0019955803 0.001250386 0.0014686534 0.00233103 -0.0016574212 0.0029340438 0.0031400758 0.0011450385 0.0023139864 -0.0031559975 0.00095543015 0.0032409823 0.00021712604 -0.001489858 -0.0019613688 -0.0011094736 -0.000463451 -0.0012823356 0.0020549812 -0.00092115084 0.0007356221 -0.00082820136 0.0019029937 -0.0024788978 -0.002675186 -0.0007549847 -0.0029334174 -0.0023743813 -0.0006448832 0.0012945819 0.00019128855 0.0016788726 -0.001842802 0.00080900657 -0.00047513712 0.002793392 0.003457737 -0.001572472 0.00023007212 -0.002453665 -0.00043477787 -0.0021972093 3.7707289e-06 -0.0024406132 -0.00088532094 -0.00021161226 0.0011801178 -0.0035035065 0.0010316907 0.0012376317 0.0025658873 -0.0017255504 0.0030129564 0.003533569 0.0005069216 0.00036571632 -0.0033202767 -0.0015794762 -0.0007918802 0.0013794613 -0.00017091718 -0.0031761294 0.0022097828 -0.00315221 0.0029028363 0.0013179688 -0.002101016 0.0023107324 0.0036237873 -0.001895953 -0.0031883244 0.0034331472 0.0003800286 0.0023713221 -0.0033622722 -0.00047955904 0.0018340979 -0.0003668205 -0.0012563996 -0.0027286275 -0.0019360526 -0.0028755078 0.0030670406 -0.0006223535 -0.0025351597 0.0027367491 -0.0011627377 -0.0003649538 7.756845e-05 0.00094949553 -0.0017908154 -0.00031284007 -0.0019072392 0.0028262315 0.0017665384 0.0011459903 -0.0028801735 0.0005932369 -0.0008767695 -0.0031591551 -0.0023977298 -0.0008356753 0.0006526048 -0.0036837875 -0.0025310537 0.0023273902 -0.001522373 0.0028069033 -0.00023629378 -0.0027378115 -0.0011807121 0.00010175207 0.0008400158 -0.0021038125 -0.0014645186 -0.0025476592 0.0026882312 -0.001278766 0.0009751625 -0.00061756506 -0.0040365267 2.6572357e-05 -0.00059014943 0.001162305 -0.0026754786 -0.0018345123 -0.0033212705 0.0009921213 -0.0013943797 0.0005330151 0.0018352815 0.0020635626 0.0009406797 -0.00024507704 0.0003460402 -0.0025612465 -0.0026924657 0.0038442463 -0.0013139403 -0.0041846316 0.00064087275 0.002876929 0.00016671943 0.0015367841 -0.002535044 -0.0027488945 -0.0027001598 -0.0020981508 -0.0023281793 -0.0029954193 0.0032310153 0.0029263815 -0.0005711087 0.00055855577 0.0030189138 0.0010798244 -0.0009309954 0.0015537698 0.0009379304 -0.002399413 -0.0016832174 0.003373565 0.0025451416 -0.0031176778 -0.0016459983 0.0002333302 0.0006807079 -0.0036209458 0.003522166 -0.0015177066 0.0021025334 0.0033878344 0.0015843677 0.0017513372 -0.0004608017 -0.002399591 0.0013291583 -0.00028498576 -0.0036470792 0.002878546 -0.00307597
mit 0.0016789819 -0.0005940043 -0.0032718754 -0.002972608 0.001960787 -0.0023453762 0.0025008603 0.0009347265 0.0030488088 0.0018177254 0.0036105851 0.0025721649 -0.0029108361 -0.0034325651 -0.0022663411 -0.0008929174 0.0021007017 0.0013310771 -0.000713684 0.0012127131 -0.0012408858 -0.0024371746 0.0021303021 -0.003018532 0.0004920653 -0.0019854414 0.0017734237 -0.0013116967 0.000591787 -0.0030913833 0.0036187721 -0.0022083286 0.0014513511 0.0009297023 0.00266043 -0.0017374967 -0.0013578077 -0.0024459343 0.0020085024 -0.001410768 0.0016944443 -0.00036025018 0.0023407966 -0.0023853697 0.0005618037 0.0005891682 -0.0026266153 0.0031683098 -0.0002543959 0.002433083 0.00022681153 0.0015403511 0.0005183185 0.00362548 -0.0030996604 0.0033179016 0.0029772664 0.00024377964 0.0016524114 0.0015043986 0.0010549877 -0.0011752822 0.0008856354 0.00037124526 0.0013541747 0.0031276639 -0.0027492428 0.0001055945 -0.003371515 -0.0007979478 -0.0029621532 0.0011625063 5.772721e-05 -0.0008238436 0.0024581791 -0.002133282 -0.00021774054 -0.00082378736 -0.0015583741 -0.0017380174 -0.0031175842 0.0023922536 -0.0027033233 0.0030621733 -0.0013836493 -0.00047083778 0.00052196765 -0.0024904436 -0.0011800308 -0.0023283751 -0.002778825 -0.0017671983 -0.000856533 0.0001121944 0.00023352075 -0.001637702 -0.00079927186 -0.0012296401 -0.0021263147 -0.0016855056 -0.0010167884 -0.0029530616 -0.0025317627 -0.0022954193 0.0011899846 -0.0031916539 -0.0011044162 0.002200846 0.0018604838 -0.0019546123 0.0018574538 -0.0025639955 0.00019528964 0.0026372385 -0.0014406662 0.0037219487 -0.00014269416 0.0018659643 0.0027407038 -0.0037064927 -0.0020819139 -0.0018634478 0.00043217643 -0.0026219743 -0.00024631928 -0.0019263716 1.3639665e-05 -0.00071996404 0.0018623995 -0.002369946 -0.0008151332 0.0023848787 0.00371028 -0.0016505372 7.8595054e-05 -0.0016817765 -0.00027683878 -0.003051819 -0.0032670985 -0.00014480898 0.00034240863 0.0011475193 -0.0035138219 0.00093970844 0.0010757691 -0.0021698056 -0.0006621877 0.0013071981 -0.0017274278 -0.0002696337 0.0013706203 -0.00066260126 0.0009957076 0.0021895343 0.0023688118 0.0018735077 0.0018922726 -0.0026841403 0.0021110135 0.0023376246 -0.0018882382 -0.001369684 0.0014006621 0.0023182998 -0.003908811 0.0007055452 -0.00054493384 0.00066360715 0.0019303666 -0.0013762049 0.0025321136 -0.0032774846 0.0024085797 0.0036413886 -0.0012207207 -0.0033518008 0.002075681 -0.0036787859 -0.0027279274 -0.00047363515 -0.0024387229 0.0031476037 0.0020205944 0.00030476708 0.0022097726 0.0034579777 0.0029144385 0.0023509108 0.0019678855 0.0012314711 0.0018778478 0.00196432 -0.003267359 0.002902753 0.0027556426 0.0027413191 -0.0029069087 -0.0017333649 -0.0004243062 0.001326724 -0.0033052757 0.00014741973 0.0019760346 0.0034046199 -0.00086990115 0.00046615515 0.0021828685 -0.00039746598 0.00071530795 -0.0033206455 5.9195638e-05 0.00063745334 0.0014058925 -0.0037376126 -0.0009851443 0.00023915226 8.941739e-05 -0.0026715358 0.0009278285 0.00072452205 -0.0024345317 0.0031468056 -0.003497695 -0.0018032067 0.0029041946 0.00010434841 -0.001713899 1.7688302e-05 -0.0021418056 -0.001886304 -0.0024949564 0.00095562363 -0.0030783336 0.001697902 -0.0020949652 0.0021802876 -0.0018726254 -0.0022079055 0.0020273665 -0.004273349 0.0008816214 -0.0013634443 -0.0022802276 -0.002369543 0.0027058404 -0.0025394661 0.0015594097 -0.0033563273 0.0008096204 -0.00019852127 -0.0014930461 -0.00079752307 -0.0022478253 -0.0010232702 -0.001468788 -0.0012798382 -0.00087247347 -0.0030459466 0.00078871916 -0.0009572468 0.002139091 0.0012672397 0.0035629896 -0.00236319 -0.0041713347 0.0006199706 -0.0025403781 0.0025986135 0.0019822612 0.0005688292 0.0024042553 0.0028216569 0.0018970893 0.002178621 0.0036749765 0.0010716604 -0.002122658 -0.0024871035 -0.0016204081 -0.00030102127 0.003094615 -0.0030847052 -0.0011477304 0.0032046856 -0.0006828144 -0.0026707097 -9.391489e-05 -0.0015709294 -0.0015337631 -0.001618994 0.0003147203 0.0034833576 0.001690598 0.0031319023 0.003688274 0.0024678865 -0.0019543462 0.0020966942 -0.0026861383 -0.0021149782
werden 0.0026043546 0.0033261569 -0.0019461905 -0.0025878698 0.0026099177 -0.0017798145 -0.0007253786 0.0036937613 0.0016857978 0.000771137 -0.00012218517 0.0027478633 0.002538329 0.002161939 0.0026756148 -0.00244979 0.00076202623 -0.00046682192 0.002028969 0.0028019152 0.0016536196 0.0012617818 0.0027336325 0.0022116753 0.00014348347 -0.003014274 -0.0014027236 0.0030385475 -0.001999494 -0.00040235414 0.0019969682 -0.0025883522 0.0029007085 0.00037597684 0.00056676945 0.002933436 0.0006009007 -0.000111716356 -0.0032251186 0.003364973 -0.0032664745 0.00279998 0.0016788468 -0.0003796716 -0.002109211 0.0036609976 -0.00028247648 0.0019723838 -0.0007032083 -0.0014070184 0.00024036695 -0.0027675696 -0.002448977 -0.002644491 0.0015241819 0.00055402645 -0.00021747332 0.0016203228 -0.0005455563 -0.002323644 0.0006527009 -0.0021971741 0.00018008171 0.0032322607 -0.00050569547 0.0024000383 0.0013471071 -0.0010922706 -0.0021798569 0.0026929164 0.0007982119 -2.5952719e-05 0.00076504267 -0.0021313392 0.0014597464 -0.0005822395 0.00091123086 -0.0015188494 -0.0005764428 0.0018712737 -0.0027435496 -0.0011744277 -0.0031076758 0.0017526406 0.0006032776 0.0007902838 7.288401e-05 0.00027046347 0.0013026203 -8.584336e-05 0.0023227076 -0.0011203887 -0.0015249474 -0.001844396 -0.0027826328 -0.0018798511 0.0011462931 0.0010355569 -0.0018995532 -0.0028504576 -0.0021821922 0.0012912683 -0.0027978315 0.0018925028 0.0020721867 0.0014868716 -0.0024667808 0.0009146622 -0.0022988555 0.003192328 -0.0018629256 -0.0007572192 0.0018399184 0.00010044574 0.0012915137 -0.00082568347 0.0016324709 -0.0029889902 0.0024198645 -0.0012073409 -0.0019373889 0.0005266855 0.00029105443 -0.0004636711 -0.00083319173 -0.0024774626 -0.0027085927 -0.002774407 -0.0031637356 -0.000994645 0.0033043986 -0.0002448356 -0.0020261735 -0.0028785802 0.0010788022 -0.00060388056 -0.00097358774 -0.0016591399 0.0014066693 -0.0031591367 -0.0021673476 0.0018326044 -0.002601492 0.0010563184 0.0006120859 0.0028910441 0.0008020113 7.105086e-05 0.0013162892 0.00044529894 0.0007215369 -0.001933967 0.001434655 0.0015975587 0.0031230203 0.00036932607 -0.001097823 0.0019752064 -0.0031814484 0.00064400665 -0.002122498 0.0016320572 -0.003585623 0.0014183036 0.002515888 -0.00050868606 -0.0032424133 -0.002370681 0.00074285886 -0.0008664958 0.0016227489 -0.0005026977 0.0029155633 0.00023989766 -0.0020262485 -0.0020826138 0.00029260135 -0.002173257 0.002251864 -0.0013917428 -0.002096921 0.00051127304 -0.0021530872 -0.002729989 -0.0021710652 -0.00054139755 0.0011725415 0.0019909018 0.002417038 0.0014660786 0.0022235487 -2.714532e-05 -0.0025690184 0.002999225 -0.00022075484 0.001244611 -0.0003851257 0.0014423666 0.0015181244 -0.002459788 -0.0014390235 0.00014182927 0.0006173493 -0.002993711 0.0016686149 0.0010092907 2.9120207e-05 -0.0009079228 -0.0025688254 0.002389485 -0.003015912 -0.0031885596 0.0014264709 -0.0032577151 -0.0004919415 -0.0013446053 -0.00097190915 -0.0031953936 0.00057124475 -5.1204963e-05 0.0013731781 -0.0005085824 0.0016320582 -0.003851692 0.0016834333 -0.0019220582 0.00070083665 -0.002631514 -0.0014916126 -0.0018134766 -0.0009746428 0.0027115787 0.0008005911 0.0008551354 -0.0022887613 0.0021837382 -0.0030640152 -0.0010143026 -0.0022174981 -0.0033202956 0.0011024182 -0.0015819978 0.00079446903 0.0014398969 -0.0017326114 -0.0014114254 -0.000893284 -0.0033733356 -0.0031634986 0.0007085294 0.0019168614 0.00017952033 -0.0011146911 0.0013179404 -7.848036e-05 -0.0035729397 0.0031261195 0.0026120166 -0.0034293586 -0.0007434738 0.0020748435 -0.00073256536 0.0005293158 -0.0024492987 0.0009932211 0.0024816352 0.0010751561 -0.0010443393 -0.0013578488 -0.0010536737 -0.0034375358 0.0025904705 0.00020543876 8.828954e-05 0.0028301463 -0.0024043098 0.0026323968 -0.0022988045 -0.0026950378 0.0016287208 -0.001037617 -0.0012206389 -0.0023241292 -0.0011837997 -0.0010089857 -0.0010730595 0.0024594623 0.0034546915 7.75631e-05 0.0003077201 -0.0016107507 0.0035745527 -0.0013836346 0.0022678864 0.0037558954 0.0027680167 -0.00023535821 0.0016138527 0.0027687286 -0.0017725178
Land 0.00019886172 0.0028884318 0.0017717415 -1.7318735e-05 0.0006919516 -0.0026674168 -0.0024926234 -0.00040263284 -0.0019464571 -0.0003263277 -0.0010510575 -0.00028211914 0.002274387 0.0030484842 0.002258728 0.00029395678 -0.00052659976 0.0008707994 -0.0009601472 -0.0033818772 0.0021746247 -0.0030164695 0.0017532697 -0.0010841932 -0.0017010628 -0.0006311602 -0.0028163572 0.0027984804 -0.0025892674 -0.003762397 0.0022902393 0.0011847399 0.0018059483 0.0006661647 -0.0014918149 -0.0015649446 0.0006928222 0.0024826315 -0.0019509139 -0.00070596277 0.0006489085 0.0022089765 -0.0021539333 -0.001850177 -0.00033968638 0.0009709927 0.0019922596 0.0020640204 -0.0025637564 0.0026790139 -0.00064439804 -0.0010210526 -0.0031588858 -0.0014082165 0.0028967857 0.0014653923 -0.0026120918 0.0008332418 -0.0021966929 -0.002856622 0.0010049639 0.00051595236 0.00037651937 0.0030537713 0.0018899736 -0.0013953615 0.00076087186 0.00088044384 0.0003863112 0.0025349045 -0.0022402909 -0.000681211 0.0007961651 0.0016644791 5.8058125e-05 0.003096373 -0.002071741 -0.0030373987 -0.0026263571 -0.0007870561 0.0028316607 -0.0020261325 -0.0018029036 0.0039442196 -0.0025632256 0.0006082771 0.0015480635 -0.002217893 0.0005316012 -0.0005708195 0.0021585724 -0.0016656378 -0.0020463006 0.003253522 -0.0011262194 0.0033629735 -0.0023960834 0.0020824957 -0.0011351929 -0.002248907 -0.0005254527 -0.0010493702 -0.00044141253 -0.00020912538 -0.00219397 -0.001738053 -0.000972161 0.0025964584 0.0014733549 -0.00012653855 -0.0019817315 0.0017714157 -0.002801359 0.0009061 0.00093325024 -0.000112365036 -0.0015242243 -0.002470307 -0.0023926026 0.0016338632 0.0011497244 0.0003903412 0.00393747 -0.0030520044 -2.5356936e-05 0.00045671713 -0.002806462 -0.0035448286 0.002125223 -0.0007238891 -0.0024478303 0.0030193652 -0.0015509917 -0.0019480508 0.00042383056 -0.00080420694 -0.0031513944 -0.0016235291 -0.0036271773 -8.16798e-05 -0.0012188026 -0.0006365072 0.0006983133 -0.00048522878 0.003397296 0.0019516505 -0.0007563071 -0.00082164636 0.0006557612 0.0019203601 0.0030076567 -0.0017038079 -0.00048738212 -0.0014454222 0.0003137842 -0.0015986831 -0.001289187 -0.0030245348 -0.000119101605 0.0013398593 0.001357322 -0.00094758 0.0013614323 -0.0020382479 0.0027321395 0.00040516342 0.00043108437 0.0017794239 -0.00022093912 0.0017319768 -2.8795786e-05 -0.0033350617 -0.00076558575 -0.0005028148 -0.0030066418 0.0009845562 0.0016090572 -0.0012746946 0.0025042351 -0.0005923317 -0.00027760328 0.0021523281 -0.003353334 -0.0022841368 0.0020527297 -0.0020661072 0.0038344788 0.002549212 -0.0025465772 0.0020392956 0.0023641516 -0.0023774644 -0.0034814572 -0.0029486679 0.0012911878 0.0017675225 -0.0006284329 -6.1893246e-05 -0.0030476646 -0.0017590016 0.001051939 -0.0029711083 -0.0031338485 0.0005018866 -0.0028330795 -0.0024337915 0.0016457653 0.0028895868 -0.002427392 0.0025152375 0.0029710678 0.0008399678 -0.0015575117 0.0028220653 -0.0020012571 -0.001946468 0.00027289172 -0.0034978753 -0.004133102 0.0006288419 0.0029004524 -0.00181369 -0.0021759209 0.00062421506 -8.365755e-05 -0.0030680469 0.0022883709 -0.0013459887 0.0005195593 0.001376329 0.0030931097 0.0023927952 0.002384372 -0.0024424342 0.00019504306 -2.749262e-05 -8.273878e-05 0.0026755035 0.0015278399 -0.004142443 0.0036023722 -0.0008072084 9.9939796e-05 0.0017728375 -0.001731165 -0.0009810765 0.00047429476 0.0022456753 0.0015898277 -0.0002977063 -0.00238776 -0.0011712433 0.0034451168 -0.0030541345 0.002716757 -0.00049593113 0.00032892972 0.0032223002 0.0023464994 0.0023310967 0.0030345486 -0.0031227134 0.0031101159 -0.0041648927 -0.0036304519 -0.0028216324 0.0010874917 0.0029114939 -0.0028353573 -0.00060358655 -0.00092786975 -0.0014965098 -2.237596e-05 0.0018964878 0.0017628041 -0.0005124119 -0.0007515526 -0.000549101 -0.0019635712 0.001229928 0.0033476697 0.00261198 -0.0027484267 -0.0020134612 -0.003229776 -0.0016944481 0.0005585044 -0.0016921146 0.0007851124 0.0033831794 0.0013609561 0.0013133803 0.0032423048 0.0024933561 0.00014463163 -0.0012361835 -0.00032461877 0.002182423 0.0029122941 -0.0018100175
fr 0.0032800906 0.0013791453 0.0016109919 -0.0018330715 0.0013525854 -0.00028402018 -0.0026934561 0.0026497445 -0.0031207365 -0.0025457677 0.0011576861 0.002992965 -0.0008935631 0.0021438047 0.001435558 0.00091801275 -0.0017313503 0.0017701479 -0.002808725 -0.0017894738 0.0017665583 -0.0028188631 0.0022954084 -0.0010005451 0.000107989974 -0.002644717 -0.002551676 -0.0011601159 0.0026407535 0.0012240823 -0.0029314002 -0.00238456 0.0013077344 -0.002963332 0.002050022 0.0021604253 -0.0030120264 0.0026250556 0.0025448112 -0.00055431324 0.0006295499 -0.0019809084 0.0020851882 0.0023033726 0.0017745191 -0.0025747584 0.001789683 -0.000854353 -0.00048193 0.0022147482 0.0007487194 0.0015054672 -0.00229343 0.0022048675 -0.0013825042 0.00024579393 0.002148675 0.0013045268 0.0025645297 -0.001183489 0.0010011259 0.002326099 -0.0011400634 0.001993965 -0.003312995 0.0032153828 0.0011340734 0.001830285 0.0012169206 0.001312661 -0.0010772999 -0.001993582 -0.00042019368 0.000118581615 -0.00076828606 -0.0025221382 -0.00247824 0.0028022418 0.0029282882 0.0024245882 -0.0016808828 -2.4090124e-05 -0.0030462448 0.0031971438 9.603439e-05 0.0024303335 -0.0020660101 -0.0007200009 0.0014447604 0.0013083738 -0.0019473584 -0.0025919434 0.0008000411 -0.0030367612 0.0022683432 0.002506063 -0.00092767016 -0.0020958816 -0.0027948478 -0.00037126112 0.002249768 -0.00029042622 -0.0024899286 0.0031513344 -0.00285514 0.0014337305 0.0022472157 0.00033928905 -0.0032936002 0.002225359 -0.0029362007 -0.0017127019 0.0033320352 -0.0025071003 -0.00287581 -0.0012447843 0.0011231061 0.00084614265 -0.0015997604 -0.0016558084 0.0028022544 0.0036503312 0.003832977 0.0002073662 0.0011866457 0.0009219403 0.00041029285 0.0012656812 0.00051999587 0.00049105624 -0.00093016255 -0.0018691028 0.0030731712 -0.0026919001 0.00083991885 -7.576285e-05 -0.0015426339 -0.0018616578 0.0006091936 -0.0023727468 -0.0022315904 -0.0013944831 0.0013693206 0.0022554433 -0.00013720733 0.002186054 -0.0030156432 -0.0020272757 -0.0023200626 -0.0022869804 0.002463163 -0.0038823478 -0.0028372707 -0.003653071 0.0031339633 -0.00044451575 -0.0002162085 -0.0021704044 -0.0011349234 0.00070141465 -0.0007137256 -0.0024786785 -0.0025129998 0.0010795031 -0.0035463294 0.0005712675 -0.00091028056 0.0030285874 -0.0004353776 0.0027708746 -0.0028419066 -0.002613388 0.0020791348 0.0005988317 -0.0016399937 -0.0010571709 0.0029299704 -0.0034799045 -0.0011995443 0.00020177747 -0.00022711675 0.003306876 -0.0010134855 -0.0023768684 -0.002894494 -0.0031911223 -0.0018211193 -0.0014505491 -0.00188861 -0.0010370442 5.6834408e-05 -0.0016641855 0.000241163 0.0012696089 0.0030463596 -0.0018865421 0.0017276761 0.0020680102 -0.0014291728 -0.0025330198 -0.0015490953 -0.0022663951 0.0021164129 0.003257488 0.0027912264 -0.0029347073 0.0017149089 0.0018547862 0.0018825973 -0.0028879633 -0.00015203255 -0.0028171572 -0.003062375 0.0004989978 0.0037589285 0.0016832342 -0.0026375118 2.116813e-05 -0.0019546836 0.0030551353 -0.0028531975 0.003195845 -0.002705853 -0.0028107958 0.00035854065 -0.00039355195 -0.0027951153 -0.00044345792 -0.00065835204 -0.0018313034 0.0020482216 0.0006531313 0.0027749715 0.0027033947 -0.0023998679 0.0018311385 0.0016344277 0.0016979297 0.0017444459 -0.0025065297 0.0017361633 5.454964e-05 2.1247946e-05 -0.0020553798 0.0008164147 0.001077985 -0.003080916 0.0028194627 0.0010831443 0.0002846891 -0.00079748477 0.00018149287 0.002427593 0.001705875 -0.0024355785 0.0023421135 0.0003175976 -0.0027129506 0.0022977316 0.0013102862 0.0012347623 0.0027978464 -0.0020573498 -0.0027259653 -0.0014683475 -0.0012950525 -0.00020446572 0.00018509247 -0.0033870535 0.0008475045 0.00073354656 -0.0002716713 0.0019329529 0.00068751554 0.002377423 -0.0002603326 0.00320469 -0.0003281974 0.00035679055 -0.0012899681 0.0021547251 0.0009964246 5.143116e-06 0.0030623444 -0.0027458083 0.0034818803 -0.0002559477 -0.0005221495 -0.0012636252 -0.0027085787 -0.00057346805 0.0016071458 0.0023900867 0.003247102 -0.0024370227 0.003694651 -0.002908912 0.0010673701 0.0030022517 -0.001218326
man -0.0026289737 -0.0023326455 0.0002984963 -0.00022570185 -0.0032449665 0.00073718437 0.0011496934 0.0022546228 0.0013698329 0.00075115135 -0.0031023626 0.001835285 0.001263313 -0.0027046746 -0.00091421057 -0.00023559073 1.5744481e-05 -0.0002942027 -0.0018995682 -0.00023126691 0.0014259028 -0.00032157562 0.0005675312 0.00083860185 -0.0012247859 -0.002815777 0.0026785838 -0.0033038454 -0.0010151824 -0.000920116 -0.0023503157 0.00039856226 0.0028029669 -0.0006078935 0.0025462455 0.00015113762 -0.0018582683 -0.00083482574 -0.00027816283 0.0021294716 0.0023858198 0.0020415827 -0.002004433 -0.0025339492 0.0023697447 0.0011489185 0.0019079503 0.0002983513 0.0028243836 -0.002789379 0.003374607 -0.0027873951 -0.0007074887 0.002413658 -0.0032459274 0.0016742954 -0.0022801803 -0.002347671 0.00086573727 0.00067683525 -0.001105169 0.002540462 -0.00235535 0.00019026388 0.00278318 0.000832661 -0.0023858992 0.0012063414 -0.0019319417 3.2097076e-05 0.0010060656 0.002577869 0.0027283384 -0.0019073732 0.0033391109 -0.001554537 0.0022357646 -0.002653512 -0.0027856342 -2.533489e-05 -0.002910706 -0.0013484412 -0.00025884827 0.00073819136 -0.003406912 -0.002208358 -0.0026743442 5.4562963e-05 0.0020843225 9.167537e-05 0.0034955991 -0.0013960579 0.0027750551 0.0020150202 0.003001185 0.0005419108 8.678506e-05 0.00047511913 -0.0033171007 0.0032301282 -0.00088973274 0.0023566172 0.0007839903 0.0010817447 -0.00041729235 -0.0036410696 0.00052721414 0.0009840488 -0.0035801078 -0.001208275 -0.0009918081 -0.0016767229 0.0013975428 0.0009054089 0.0012073143 -0.0018283024 -0.002006735 0.0017255874 0.0024542613 0.0013958622 0.0015974769 -0.002106687 0.0031350793 -0.0024592357 -0.0026959353 0.0032288758 -0.0009079735 -0.003423207 -0.0011872856 0.0023045419 -0.00085216464 0.0018761723 0.0003452445 0.00076576846 0.00028840898 -0.0028892325 -0.0015405697 0.0027413724 0.00013042532 -0.002287311 0.0025439754 0.0020851456 0.0022836812 0.00017128399 -0.0027530228 -0.0013950398 0.0013831304 -0.0025273883 0.003483903 -0.0034882023 -0.0026830183 -0.0024364535 0.0020613023 -0.0028198753 0.0029500057 -0.0029228989 0.00074335607 0.0010113178 -0.00015889776 0.0037248954 0.0017816715 0.00010859158 0.0012322641 0.0023315304 0.0006943741 0.0032772168 -0.00061929086 -0.0026016922 -0.0016968114 2.060732e-05 -0.0027912671 -0.00060744875 0.0028248157 -0.0014473388 0.0017435368 0.0013665736 -0.00026076863 3.8836526e-05 0.0019428768 -0.0023320895 0.0011778236 0.0031319242 -0.0014823981 -0.002544127 -0.003280757 -0.0029249375 0.0019010383 0.0021535377 0.002458235 -0.0009677301 0.0004828074 0.000913028 -0.0037135303 -0.0031682772 0.0015473804 -0.0029971986 -0.0009964128 -0.0017539209 0.0018048992 -0.0011895584 0.0030251201 0.00020254574 -0.0017350765 -0.0011050144 0.00043047802 -0.0018679715 0.0025029501 0.0031384001 0.001441245 -0.0025493407 -0.0020720104 -0.00043594238 -0.00039672942 -0.0020699052 0.0030163329 0.0016736024 -0.0016476312 0.00022700957 0.0011877044 0.00063139945 0.0029761482 -0.00051291246 -0.0026151421 -0.0007038973 -0.0029727053 0.003143087 -0.0027787487 -0.00066122186 -0.0013387172 0.0012496813 0.0017473144 -0.0030921653 -0.0014896729 0.00035207203 0.0012214356 0.0018729593 -0.0006698584 -0.0003855273 -0.0026555231 0.0008004988 -0.0023571386 0.00077791204 -0.0011871657 -0.002521725 0.0025110901 -0.0006864157 -0.0031719687 -0.0031821725 0.00028590875 -0.002516314 0.0014998277 0.0012361384 0.0014316842 -0.0018241076 0.0023168765 -0.00326375 0.0029460147 -0.00021309062 -0.0010012889 0.0010668846 -0.0008013592 -0.001343126 -0.00040692676 -0.0026959344 -0.00074539584 -0.0017128004 0.0017672004 -0.0028514985 -0.0019110854 -0.0028673448 -0.0032919794 -0.00026196035 -0.0024190939 -0.0017146568 0.0012694239 -0.00012543009 0.0013401447 0.002891192 -0.0037752287 0.001973232 -0.0025889762 0.0021579578 0.002353974 0.0029297888 -0.0027724116 0.0012598014 -0.0030180477 -0.00022967588 -0.0015935901 -0.0025919334 0.0017777111 0.0020418358 -0.0011638995 -0.0023936606 0.0015634054 -0.0008126132 -0.0029097425 -0.0016035596 -0.00045549055 0.0026226249
Wahrheit -0.0022055868 0.0032689187 0.0018606461 -0.0015767645 -0.0007002537 -0.0014089758 0.0018156766 0.0012940776 -0.0010662946 -0.0036194548 0.0024576902 -0.003360299 -0.0031635454 0.0002149563 0.00057550165 -0.0006093115 0.0005766075 0.00093229016 0.00052155135 0.0020542427 -0.0012655694 -0.0025420382 -0.002035475 0.0028888239 0.00079762476 -0.0022115945 0.0013780248 0.0027593318 0.0022951902 -0.0031545428 -0.0012909587 -0.0010171612 -0.0019876366 0.0014155878 0.0016390102 -0.001825302 0.0025287613 -0.00295781 0.0019512031 -0.0014593799 0.00065359956 -0.0011392082 0.00109421 0.0021530357 0.00015415224 -0.0010847925 -0.0026280058 0.0014443449 0.0017730662 0.002512744 -0.0012025748 -0.0033317322 0.0020219448 -0.0009088773 0.001159719 0.003203366 -0.0012021856 0.00044356368 -0.0010519729 -0.0020035822 -0.0022156432 -0.00024931686 -0.0025178494 -0.00056593213 -0.0010541481 0.002605956 0.00025096783 0.002009076 0.0007847515 -0.0014633617 -0.0016265814 0.0033449214 0.0029029346 -0.0035585333 0.0020578518 0.0032198173 0.0024674614 -0.0026904268 -0.00097374915 0.0010294631 0.0005358175 -0.0009376369 -0.0018028446 0.0035554203 0.0022381283 -0.000216118 -0.0023220365 -0.0011417964 -0.0009803941 0.0016516921 0.0005208314 -0.00093270664 -0.0028158482 -0.0005715845 0.0026664361 0.0030421545 0.0019248846 -0.0012837081 0.0030279546 0.0006023015 0.00022852859 0.0017511009 -0.001966952 0.002413617 0.0032327706 0.00060719263 0.0012493335 0.0013822743 -0.0012220021 -0.0024641443 3.013583e-05 0.00030107534 -0.0020983517 0.0010597575 0.0013171603 -0.0017539631 0.0008190807 0.0029047385 -0.0024164512 0.00028667317 -0.0029256428 -0.0020300334 0.0031542364 -0.002779078 -0.0007489346 -0.0019357846 -0.00277501 -0.0029260397 -0.00020372904 0.001177159 -0.0023989393 -0.0022742762 -0.00045974634 -0.0016688992 -0.0022183303 -0.0010540506 0.0006507048 0.00068818947 0.0015093235 0.0007628983 9.992048e-05 0.00013253174 0.0027541274 0.00097203505 0.0011673011 -5.057739e-05 -0.0037920494 0.0010888879 0.0021332602 -0.00039748035 0.0030475785 -0.003061964 0.0011473242 -0.0031119224 -0.0028230275 0.0013302368 0.0007521734 0.0018319899 -0.0033103281 0.002438543 0.0009500741 0.0013884548 -0.00090896763 0.00223393 0.0018430953 -0.002571044 -0.0036658135 0.0026898647 -0.0007175395 -0.0020978067 -0.0020403808 0.0002574441 0.003166181 -0.00014635472 -0.000258754 -0.0026436914 -0.0025725218 -0.00015827475 -9.292135e-05 -0.0028025 6.9954636e-05 -0.002751179 -0.0014270372 0.0014338684 -0.00011249172 0.002739891 0.0033951956 0.00050471263 0.0018130401 0.0011697549 0.0032057287 0.0028541565 0.00089619745 0.0015414867 0.002398998 -0.000988093 -0.0018172257 0.0023702353 0.0001435806 -0.0017285427 -0.0008694315 -0.0016720602 0.0029669313 0.0013064952 0.0014868223 0.0020516866 0.0027997512 -0.0013183784 -0.0021182753 -0.0014386021 -0.0014321416 -0.004000087 -0.000312296 -0.0031960586 0.0039118584 -0.001903019 -0.0025085872 -0.0038116255 -0.0021557827 -0.0036036326 0.0004475742 0.0016831715 -0.0017720342 0.0017670078 -0.00096083345 -0.002698924 -0.0009002829 -0.0013924832 -0.0031490705 -0.0028284946 -0.0011805464 -0.0011404323 0.0015866145 -0.0021537554 -0.0018949506 0.00079404545 -0.000932841 0.00084475847 -0.0006692099 8.445249e-05 0.0030582962 -0.003208702 0.001225019 0.002149589 0.00021035083 0.001290964 -0.0017824592 -0.0016545723 -0.0024587684 0.0035705713 -0.0025934502 -0.0009691539 0.00042570234 -0.0014658867 0.0024468594 -0.0027574266 -0.0018341008 0.0031058444 -0.0037436965 0.002681398 -0.0013275731 0.0021154827 0.00058362674 -0.0025167605 -0.0037086422 -0.0019471636 0.00272897 0.0026960126 -0.0008548882 0.002466771 0.0010994674 0.0012489342 0.0013535565 -0.0029212413 0.0036744562 -0.002069199 -0.00045071018 0.0007519446 0.0007098127 -0.0031386751 0.0006976274 0.0020889451 -0.0032069234 0.0033828437 -0.0019101041 0.0035394833 -0.002970628 0.0025490317 0.0033487522 -0.0025959795 0.00039634708 -0.0015061455 0.0029750674 0.0035382458 -0.0012417531 0.0012601032 -0.00067591615 -0.0029007038 0.0007903941 -0.0038586962
wer 0.00084726507 -0.0021080978 0.0017987395 0.002560155 -0.00093032554 -0.0016375618 -0.00282015 0.00241172 0.0008469583 0.0026251124 0.001248583 -0.0010647463 0.0009977019 0.002732222 0.0028916975 0.002214609 -0.002625731 -0.0024646728 0.002396617 -0.0027285204 0.0010196482 0.0025905706 -0.0007959772 0.0023945163 -0.0026059044 0.0019709878 0.0014509242 0.0010756936 -0.0029079455 0.002519768 0.0029818693 -0.00067913823 0.0015164033 0.0020411354 -0.00075493683 0.0019067485 -0.0012661607 -0.000578451 -0.00043171836 -0.0013011495 -0.00018558059 -0.0025979937 0.0011949306 0.0028313189 0.0019316019 0.002466811 -0.0014570393 0.0017959498 -0.0020033638 -0.0015013112 0.0033843217 0.0020814938 -0.0018002399 -0.0016697673 0.002219195 0.0011752372 0.0022437072 -0.0023010904 -0.00020549532 -0.00021272193 -0.00022203258 0.0006443937 -0.0023081247 0.0015270079 -0.0010594609 0.0029454762 -0.00045113303 0.0030767291 -0.0005302746 0.0015725704 -0.0025047779 -0.0029645646 0.00019066286 -0.0010624424 0.0034960248 0.0017969807 -0.002159109 0.0024339613 2.444573e-05 -0.00282416 0.0016666141 -0.0008870865 -0.0032455684 0.003685691 0.0023576932 0.002808832 -0.00011639391 0.0027757746 0.0021271864 -0.0022055346 0.0032761076 -0.001272318 -0.0031401531 0.0028481034 -0.0015288157 0.003332473 -0.0023825401 0.0029364093 -0.001995294 0.0015593463 0.0031756125 0.0012156784 -0.00057452195 -0.0015658707 -0.0032367345 0.0010446346 0.0025486883 -0.0015205715 0.0016503364 0.0023882098 -0.0032169265 0.0007119153 -0.0021774366 -0.0012195209 2.9016206e-05 -0.0020013375 -0.0013994073 -0.0023448444 -0.0021078635 -0.0027671836 0.0032714296 0.0030852412 0.00038776445 -0.0010193511 0.0019494632 0.00083829433 -0.0031138125 -0.00267462 0.00019327863 0.002968593 0.0011832721 0.0035303643 0.002549869 -0.00048280793 0.0027877034 0.003184128 0.0023708595 0.0029508357 -0.0035322143 0.0008405016 -0.0023951188 -0.0027501537 -0.002970386 0.0012614288 0.00030315845 -0.0023524454 0.0014861637 0.0022758245 0.0016861671 0.0024020388 -0.0014087488 -0.0027917551 0.0013346822 -0.0012324385 -0.0022947371 0.0015929233 -0.0015461226 -0.0018224488 0.0006750498 0.002850324 0.0022114818 4.724816e-05 0.0025060026 0.0011930505 0.0018565225 -0.00014135538 0.00047983014 0.002267758 -0.0035007696 0.002477486 6.603214e-05 0.0019604033 -0.0002850951 -0.0006614715 -0.0018176594 -0.0010806883 -0.00082765624 -0.0020898832 0.00033825464 0.0025670894 0.0016059168 -0.0023864692 -0.002786678 -0.0009483444 0.0010709619 -0.0030026597 0.0026712632 0.0015291367 -0.0008380031 0.002595032 0.0028580888 0.00015670387 0.0011983439 -0.003122678 -0.0028967515 -0.0011674177 0.003132345 0.0007438162 0.0016894789 -0.0022947274 0.0010993135 0.00016519877 -0.00033260268 -0.0009582909 0.0016762019 -0.003107216 0.0017285842 0.002032223 -0.0007846946 -0.0015246704 -0.0025666913 -0.0025806238 -0.0017519738 0.0007887416 -0.0012477306 -0.0008015891 -0.0032123763 -0.0017766452 -0.00079916976 -0.0028572946 0.0011921694 0.0031781895 0.00097096956 0.00019182729 -0.0017991491 -0.0005374527 0.0007998592 0.00039219885 0.0025365981 -8.584227e-05 0.0023954085 0.001582235 0.0009858933 0.0026156483 -0.0017604304 -0.0011214308 0.0020974807 0.0027045067 0.0010308331 -0.0021346912 0.002774626 0.00055909064 -9.0319285e-05 0.0030700427 0.0016655276 0.00074811914 1.3494751e-05 -0.0030418201 -0.0009379338 0.0010233124 -0.0016255263 0.0024480808 0.0028183819 -0.0029043397 -0.002123306 -0.0022538379 0.00022695413 -0.0005683987 -0.0012056773 -0.0010055278 0.0012359355 0.003347007 -0.0011379423 -0.0034179033 0.00060122367 -0.0020701902 0.0024586387 0.001203522 -0.0030848267 -0.0023963568 -0.0031686588 0.000784333 0.0011650963 0.0010702 0.00042187393 0.0007119027 0.0013292626 -0.00037866292 -0.00324275 -0.00023783286 0.0012847848 -0.0008588079 -0.0008361055 -0.00064478355 0.0022977954 -0.0008518273 0.0027454563 -0.0010841399 -0.0031939228 -0.0019118959 -0.0013183135 0.000992739 0.0018783873 0.00093324075 0.0033856966 0.0008096108 0.0018956248 -8.744582e-05 -0.0004554898 0.0017980667
dahinter 0.00062261254 0.0033441952 -0.0028937343 -0.002904693 -0.00027438553 -0.0010396161 -0.00024776155 0.0008230487 -0.0018320706 -0.0031154687 0.0029718846 -0.0012320599 -0.0011793199 -0.0007407228 -0.0006814316 -0.0035379175 -0.00029727488 -0.00039101264 0.002860673 -0.002977395 -0.0016671969 -0.00073744653 0.0013190462 -0.0018225268 -0.001701154 -0.0028924874 0.0013661742 -0.0029757917 -0.0013289449 -0.00056455954 0.0007508893 -0.003566627 0.00305606 -0.0008065302 -7.2660994e-05 -0.0028454964 -0.0026071165 0.0010129549 0.0012704576 0.0010580295 0.0019783727 -0.002368147 -0.00043083788 -0.0011551441 -1.5258922e-05 0.0018917948 0.00065073377 -0.0022945416 0.0013513598 0.0023076145 -0.0019073391 0.0010488208 -0.0016012097 0.0033882365 0.0011540882 0.001058345 -0.00027702368 -0.003110575 0.0030057768 -0.0004610172 0.0022575655 0.0011436909 -0.0027834468 -0.00015930693 0.0007306431 -0.0006269421 0.003107407 -0.0016095409 -0.0027128546 0.0010428143 -0.001158169 -0.002229434 0.0010694001 0.0013788682 -0.0016168335 -0.0010957071 -0.0028204883 0.0005175743 -0.0017725762 0.0033049611 -5.6474342e-05 0.00035476848 -0.0012465273 0.0034793722 -0.00026944897 -0.00278235 -0.0027624082 0.0003280968 0.0031149113 0.0011846088 -0.0015473355 -0.0023546775 -0.003156704 0.0012841609 -0.0028355273 0.0017407853 0.00090431725 -0.0004967785 -0.0033078424 0.0022278666 -0.00011407367 -0.0035106614 -0.0023449264 0.0029948032 0.0006560295 -0.0031650742 -0.00019431127 0.001840568 -0.00350711 -0.0021573636 -0.00062182103 -0.0032760547 0.00028492865 0.00090552936 0.0025144874 0.00072055776 0.00040845101 0.0018380103 -0.0011596376 0.0018152151 3.8896986e-05 0.00018848265 -0.0026904591 7.5666744e-06 0.0020871118 0.0010711302 -0.0028230622 -0.0015131905 -0.0022127493 0.0024472561 -0.0020303475 0.0020466275 -0.0013356903 -0.0030262796 -0.0026726585 0.0015447587 -0.0033427856 -0.0021675525 -0.0028286092 -0.0018987166 -0.0010806137 -3.923084e-05 0.0019995228 -0.00016455103 -0.0014489945 0.00021800137 0.0013852236 -0.002220745 -0.0014566558 0.0014359553 0.0021110608 -0.0034312564 0.0027799055 -0.0036154028 -0.0023766349 -0.0014996427 4.103466e-05 -0.00010938184 0.00091276434 0.0030620901 0.0017247292 -0.0010494855 -0.0026490104 -0.002499938 -0.00057974405 0.0034353377 -0.002799459 0.0014503042 0.0011631325 -0.0007483566 -0.0028154363 -0.0019113594 -0.0014564714 -0.0020587468 0.002054835 -0.0027314522 -0.0010178761 0.0009950212 0.00010322531 -0.0027106865 -0.0016826412 0.0013774089 0.00043737574 -0.0006490041 -0.0005576292 0.00096905144 0.0012884863 -0.00027213688 0.0019287163 -0.0031564124 0.0023512917 -0.00344058 -0.001268324 0.002215004 -0.0011899514 0.0018693699 0.0018627528 -0.00289199 -0.0002823877 -0.0015458721 -0.0030747312 -0.00024776428 0.0020948097 0.0030459315 -0.0016381531 -0.0009677504 -0.001965159 0.00059244444 0.0009109565 -0.0034424406 0.0006768659 -0.0035510566 5.3736592e-05 0.0012466902 -0.0012876973 -0.0004509401 -0.0010543028 -0.003689152 -0.0014699599 0.0012037386 -0.0027455823 -0.0020935256 -0.00077156123 0.0021269075 0.0001998148 0.003061509 -0.0024673217 0.0027733562 -0.002097496 -0.001863792 -0.0025166168 0.00018843308 -0.000923294 0.0027624806 -0.00032538568 0.001065752 0.0017103238 -0.0031269968 -0.0007187311 -0.002535994 -0.0026008761 0.0007277766 0.00076782214 -0.0006766343 -0.0003460155 -0.0029575294 -0.0010719643 0.0003184354 0.0026990501 0.0026533161 -0.00084342115 0.0012898282 -0.00047996803 -0.0014680381 -0.0016628845 -0.0023888492 0.0017574605 -0.0025693178 -0.0032104189 -0.0018693474 0.0024940728 0.0007572094 0.0023099994 0.0019218927 -0.0029356373 -0.0014492036 0.0028816422 0.002045 0.0009199143 0.0032409243 0.0028025582 -0.00091355236 0.0006566468 0.0020440707 0.0034111785 0.0037508723 -0.0023871306 -0.0015077422 0.0009434191 0.00024355135 0.00014632582 0.0025184955 0.0019260469 -0.0022727314 -0.0009898999 -0.0025581503 0.0018047511 0.0012012918 -0.00053902616 0.00096496724 0.0027360008 0.0034319267 0.0022495065 0.0012906519 0.0010089889 0.0034031277 0.000473108 -6.668676e-05 -0.0028508513 0.00043515782
haben -0.002903747 0.0029758045 -0.0021086677 -0.00051377603 0.00020927654 -0.0012252984 -0.0022971344 0.0027543532 -0.0023256165 -0.0035032118 0.0016090401 -0.0004499397 0.0018590442 -0.0025778397 -0.0001566929 -0.00085033744 0.0023815406 -0.0031617011 0.0018975254 -0.0034766027 -0.0027375135 0.00010410385 -0.00032307903 -0.0010071318 -0.0016173112 0.0011232387 -0.0038430544 0.00035227012 0.0010211156 -0.00097167405 0.00024356999 0.0020425615 -0.0029709043 -0.0031489804 0.0011758085 0.0030913712 -0.0024577368 -0.0031930385 -0.00030695656 -0.002938975 0.00072744087 0.0030069605 -0.002095779 -0.0026521033 0.0035815896 0.0003478308 -0.0010345477 -0.0006515186 -0.0025522567 -0.0012517164 -0.0011627937 9.533605e-06 9.992065e-06 0.003134931 0.001995437 1.789399e-05 -0.0032154613 0.00076485734 -0.0019225363 0.0032368891 0.00095644454 -0.00056848064 0.0021780974 -0.001078124 -0.0014541188 0.00023865869 0.0026036494 0.002052624 5.652549e-05 0.0009911706 -0.0009259065 0.0031918685 -0.0018357212 -0.0016154565 -0.0014581673 0.003446859 -0.0016616132 -0.000799836 0.0020856517 -0.0025684836 -0.0013839095 0.0006001366 -0.0023172314 0.004351229 0.00028804914 -0.0017964608 0.0012719634 0.00300201 0.0010198965 0.0025115206 -0.0019054096 -0.0013490126 0.0034921486 0.0018029471 0.0010193554 -0.00019591356 0.00201711 0.00054462586 0.0028008085 0.00038746206 0.002702829 -0.0022638731 -0.00230828 -0.00025150375 0.0009820069 -0.0012908031 0.0020608513 -0.0028231698 -0.0035657238 0.0027281062 0.0016527777 -0.001360606 -0.0012270164 -0.00076792785 -0.00048661215 0.0036556078 0.0002767342 -0.000361263 -0.00067518454 -0.001578826 -0.0031175516 0.0028736072 -0.0022011772 -0.0012601494 -0.0026256484 0.0037096862 0.0018022719 -0.0007199311 0.0010077759 -0.00025204883 0.0034985482 -0.00079288305 0.00219634 -0.0023221788 0.0030369638 0.0035038865 0.0015601496 -0.0003834403 -0.0012402652 -0.0035130128 0.003490774 -0.0035793507 -0.002482922 0.0022139282 -0.00021373942 0.0022556426 -0.0033154758 0.0023899958 0.0012041996 -0.0032155751 0.0013189096 -0.0028121143 0.0021867678 0.0017037631 -0.0028191865 0.002820185 0.00095177296 0.0019701347 -0.002757714 -0.0011728135 -0.0028317114 0.0017645485 -0.0020363627 0.0019733652 0.0010128432 0.002908002 0.00039466436 2.8573832e-05 9.1841976e-05 0.0020331212 -0.0035685436 -0.0021568013 4.8030586e-07 0.002041532 1.464808e-05 -0.0034544382 -0.00022963212 0.001720048 0.002164365 0.00091117347 -0.0017461586 -0.0010499463 -0.0013309803 -0.0020016753 -0.003344925 -6.5519846e-05 0.0017885292 0.002508066 0.0013452583 0.0019733037 -0.0019684061 0.002935731 -0.0018291745 0.00021397606 -0.0014122665 -0.0017464099 -0.00039792035 -0.0030985607 0.0027004099 0.001484397 -0.0013680034 0.0007436349 0.0025317108 -0.001725501 0.0013406193 8.690812e-05 0.0010309084 -0.00042460323 -0.0033116944 0.0017749282 -0.0006659001 -0.0036218092 0.00018406678 -0.0025305548 0.0032016956 -0.002887181 -0.0009279681 -0.0012070322 -0.0024082898 -0.001600122 0.0026132711 0.0004826176 -0.0039452254 -0.0008591525 -0.0035130975 -0.0012897791 0.001786616 0.00087664166 -0.0026556225 0.0008822396 0.0020589645 -0.003075177 -0.0012003575 -0.00044491008 -0.003221036 0.0010643594 0.001781088 0.0004908723 0.0007612396 -0.0016021056 0.000121144396 -0.002672118 -0.00018217006 0.002353068 0.0013904666 -0.00078771135 0.0026276505 0.00078636635 -0.0023415168 0.0028251754 0.003711173 -0.0029107847 0.0029877995 -0.0023855143 -0.00078279275 0.0010337213 -0.0011263681 -0.0026359768 -0.0033975523 -0.0038085585 -0.0021722596 0.0033784357 0.0016656047 -0.0041945186 0.0016601307 0.0025553596 0.003068671 0.0038114171 -0.003770266 -0.00036285547 0.0005297169 0.0007330582 0.0020589866 -0.0022622647 0.0021447965 0.003987176 -0.0024358726 0.0029060738 5.956708e-05 -0.0014691789 -0.00036225843 -0.0028509567 -0.0027886177 0.001973337 -0.0012115255 0.0036790166 -0.003445829 -0.0019635756 0.0022992524 0.0030950084 0.0015440753 0.0034640885 0.0024520815 -0.0015869966 0.003679428 -0.0011428024 -0.0008663293 -0.0022691037 0.0025363625 -0.0019904259
ganz 0.00096404715 0.0003458039 -0.00057646417 -0.0018708138 -0.0020393685 -0.0018298996 0.00088219217 0.0020837968 -0.0012716119 1.8507553e-05 -0.0015618842 0.0031505832 -0.0006478005 -0.0025482618 -0.0010553903 0.001979082 0.000118612414 -0.0016145778 -0.0027650537 -0.0024999506 -0.0011844565 0.0024492717 -0.0017869006 0.0007771875 0.00019276411 0.0010088367 -0.0034238447 0.0025845515 -0.0013128388 0.0008063012 -0.002727984 0.0013303292 -0.0025046533 -0.0012285812 -0.0007166744 -0.0010350498 -0.00012402753 -0.00041312358 0.001444153 -0.0006510901 -0.0012909633 -0.0021138696 0.0027449399 0.0011127074 0.0037094522 0.0024552194 -0.0012997481 0.0030412285 -0.0019057572 0.001319902 -0.0008681065 -2.9412565e-06 0.0009784326 -0.0002839213 -0.0018149742 -9.819463e-05 0.00028128774 0.0020385645 -0.0017849767 0.0017583588 -0.0016003501 -0.0028705595 -0.0019098552 0.00071928353 0.0026562358 0.0029839987 0.0028496569 0.0023905826 -0.0014811555 -0.0011190512 0.0030230412 0.0022829778 0.0025769626 0.0016918097 0.00086127344 0.0013608717 -0.0033744466 0.0025194318 0.0028073096 -0.0016108525 -5.528112e-05 0.002503246 0.000987482 0.003852592 0.0024517914 -0.00067932525 0.0025336607 0.0023491583 0.00013425908 0.0002944574 0.0036117362 0.0017852974 -0.002012948 -0.0012239922 -0.00065374654 0.0020751762 0.00092112494 -0.0032239985 0.0007575428 0.0036345061 0.0006372194 0.0010953953 0.00091675733 0.0029278414 0.0029410971 0.0003692786 -0.00070463656 0.0012170558 -0.003196901 0.0028468168 -0.0018048984 0.0032995318 -0.0030284638 -0.00043644872 0.0024391764 -0.0006664555 -0.0006850175 0.0020299298 0.0035526834 -0.0010707569 -0.002319616 0.0039827744 -0.0023189439 0.00014195334 0.001575487 -0.0018648029 -0.0020284906 -0.0036741893 -0.00035554715 0.0023009118 -0.0025002633 -0.00057381537 0.003456185 -0.002638424 0.00086349156 0.0015433544 -0.0017931605 -0.0020902697 0.0020518203 -0.0015116388 0.003399195 -0.0016476406 0.0007140441 0.0022532279 0.0007754847 0.0010183642 -0.0027151164 0.002056044 -7.282795e-05 -0.0018765398 0.0017107149 0.0020212284 -0.0018211383 -0.00024522687 0.0016362973 -0.00019635049 -0.0006487629 0.0027372567 0.0021640053 -0.0010681263 -0.00094534195 0.0031140072 -0.0008544426 -0.0027661494 -0.00090780546 -0.001987511 -6.0641636e-05 0.00067855045 -0.001934955 -0.00040949407 0.0022386834 0.0013471437 0.0011956054 0.0010892954 0.0028262774 -0.0018827474 0.002060135 -0.0010555387 -0.0025016363 -0.0034650096 -0.0007875116 0.0029803214 8.701677e-05 -0.0029634421 -9.1861664e-05 -0.0010709045 -7.283857e-05 0.0036889764 0.002120981 -0.00081872416 0.0011245538 0.0001048165 -0.0041007586 0.0009926921 0.0023967822 0.00092211395 0.0009396096 -0.0018424 0.0004699703 -0.0026117656 0.0007686234 0.0009228341 -0.0001877117 1.8663175e-06 0.00093244173 0.00059346465 0.00058820297 0.0033555469 0.0011774754 0.00024657752 -0.0011702139 -0.002947809 -0.0031922343 -0.0016055332 0.002180057 0.0017360909 -0.00023016646 -0.002734744 0.00016470348 -0.0017655373 -8.387204e-05 0.0028090107 0.0018212287 -0.0010065625 -0.002333623 0.0009797724 0.0034090322 0.0025233245 -0.0014387991 0.0027842482 0.0032487754 -0.0038496442 0.0028990558 0.00039118264 -0.0020070255 0.0015954418 0.0025499433 -0.0027680274 0.0022242065 -0.0036143744 -0.0021819333 0.0012191783 -0.0015670547 0.0017750439 0.0028894045 0.0021541496 0.0019327154 -0.0031120807 0.0012295065 -0.0025629154 0.00044358935 0.0034014664 -0.0010816919 0.0014983142 -0.0026661155 -0.0031989077 0.0035526224 0.0011167501 0.0014424765 0.0003976026 0.00042083606 0.0014600997 -0.0020668579 0.0009418224 -0.0027989452 0.0017315059 -0.0013405149 0.0009790916 0.00039127097 -0.0004639385 -0.0027463369 -0.0020424842 -0.0028393278 0.0035951645 -0.000838597 0.00040702114 -0.0023943502 -0.0012395296 -0.002739835 0.00091091264 0.0020250375 0.0011735723 0.002991471 0.0008255003 0.00310731 0.0029034538 8.778881e-05 0.0010919091 -0.002220392 -0.00026569268 0.0021882008 -0.0015787099 0.0010428823 -0.002172483 0.004019825 0.0010157626 0.0003859786 -0.0018667044 0.0025968216 -0.0029818944
