61 300
die -0.00022181717 0.00016010035 0.0016672955 0.0030029344 -0.0030881371 -0.002483826 0.0022002852 0.0031395545 -0.0016943619 -0.0013221179 0.002509037 -0.00054552703 -0.0015594299 0.0022269404 -0.001643739 -0.00064061343 0.0010429373 0.00027845695 -0.0027806766 -0.0032496583 0.0023961128 0.001653884 0.0022787524 0.00029490984 0.002066501 -0.0011134746 -0.00044681676 0.0019722418 -0.0025671546 -0.0013658801 -0.0024624749 -0.0003179246 0.003174672 -0.002475525 -0.00077172683 -0.0005775112 0.002759042 -0.0020533167 3.848368e-05 -0.001584373 -0.003221494 0.0016553267 -0.0029359239 -0.0015237181 9.479869e-05 -3.4867444e-05 -0.0025527542 0.003239918 0.001699695 0.0031188554 -0.002713083 0.0015263482 -0.0013477313 0.00034910062 0.0028729348 -0.0014569206 0.0015145045 -0.0022072878 -0.0011353727 0.003194902 -0.00053780735 8.074605e-05 -0.0013021672 -0.0025492108 -0.0004999766 0.00087933394 -0.00022765668 0.0019391269 -0.00095201563 0.00077010837 0.0018272143 0.0028279095 -0.0004656049 -0.0030959346 0.0015116846 0.00022518361 0.0024135024 -0.00027681908 -0.0009137836 -0.0029810774 -0.00035830043 0.0009667527 0.0017700003 0.002546643 -0.0018728679 0.0006014775 0.0021260988 -0.0016116502 -0.0009869214 0.002279582 0.00054126536 6.1217994e-05 0.0012183144 0.00010942022 0.0033255552 0.0017305462 -0.0029594724 -0.0024162252 0.00030932372 0.0021255983 -0.0029097628 0.0012166353 0.0016928642 0.0019419314 0.0024934758 -0.0021539833 0.00037338684 0.002020856 -0.0010392078 -0.002010791 -0.00018485209 -0.0027911358 -0.0018776067 0.0024021282 0.0011331021 0.002451398 0.0022775137 0.0025001995 -0.0011939215 -0.00030742976 0.0007863088 -0.0014488738 0.0028340972 -0.0032881184 0.0022462578 0.0010614968 -0.0016142884 0.00140353 -0.0005218549 0.0022751938 0.0034026685 -0.0014277425 -6.825454e-05 -0.0020379422 0.0013521411 0.0010073659 0.0022633492 0.002015001 0.0031002052 0.003027825 0.0026973218 -0.0024686307 -0.003170102 -5.4827105e-05 -0.0010160139 0.002658046 0.0018993656 -0.0005521909 0.0005359263 0.0005164826 0.0026760707 -0.003205979 -5.851031e-05 0.0011477417 -0.00035285755 0.0028695506 0.0029174387 0.002147513 -0.0002837491 0.0026504686 -0.002833138 0.0011150463 -0.0016110417 -0.001653002 0.0012165202 0.0018371979 0.0026108464 -0.0018897428 0.0024835723 0.0023335165 -0.0012961216 -0.0028943254 0.0018131579 0.0022188898 -0.00015053483 -0.0022285641 -0.0024086602 -0.0008212054 0.0017923096 -0.0012264232 -0.0031675946 0.0012922423 0.0015558937 -0.002178183 0.00034437064 -0.00070475857 0.00014870748 -0.0032021797 0.0009189811 -0.0016398835 0.0004199371 -0.00047003676 0.00065492233 -0.0026207787 -0.00090535596 0.0008330541 0.0018047834 -0.0008323773 -0.003173006 0.0015367989 -5.504084e-06 0.0010186614 -0.0022826907 -0.0005417877 0.002605182 0.0024117297 -0.0012162587 0.00096150854 -0.0027686758 0.0020575342 -0.0015395576 -0.0011563867 0.0031139636 0.00020584371 0.0025386661 -0.0020853288 0.0016426219 0.0031597435 -0.0029105693 -0.001739255 -0.0023440996 -0.0015866719 -0.0013235859 -0.0029115824 0.0026051544 -0.0016640194 0.0029137798 0.0017138603 -0.0022640869 0.0013400282 0.0018625581 -0.0025680764 -0.0025231368 -0.00082030776 -0.002982447 -0.00046871146 -7.938377e-05 0.0011268723 0.0005484325 -0.00038920136 -0.0018254214 0.0004866361 -0.00034397127 0.0023157434 0.0013806185 0.0014485875 0.0005225502 -0.0009083113 -0.0014502523 -0.0003156858 0.0005297212 -0.00093176716 -0.0022626878 -0.002644076 -0.0030706315 -0.0020145832 -0.0005205424 -0.0014752749 -0.002284724 -0.0012812288 0.0014299618 -0.0012182634 0.0029375835 0.00037529154 -0.0024715224 0.0031859477 0.0026343896 0.0019556512 -0.0023796652 0.001987763 0.0013341354 0.0017047 0.0014578698 0.00066051167 -0.0010265447 0.0028747558 0.003240035 0.0013257858 -0.0010423702 -8.308791e-06 0.00045880713 -0.002845566 -0.002798421 -2.3065371e-05 0.00037969675 -0.0019345484 -0.001639326 -0.00242539 0.0027889109 0.00010068109 -0.0014139161 0.0020631948 0.0031446097 -0.0013124425 0.0028273424 0.0018473525 0.0020056972 0.00012525672 0.0028080274 -0.0024480764
. -0.0028192499 0.0032463553 -0.000110599336 -0.00066408893 0.0015472911 -0.0015661046 0.0010026118 0.0025627126 0.0019758719 -0.0026379942 0.0032037776 0.0014795668 0.0012518229 -0.0020002264 0.0027937363 -0.0007746538 0.0030937158 -0.0018580661 -0.0027606722 0.0021136864 0.00047035408 -0.00079060043 0.0032090272 0.003260376 -0.0033546318 0.00086108316 0.0018465006 0.0013745651 0.00056880683 3.1584223e-05 0.00029977487 -0.0012715977 -0.0023969817 -0.0007490641 0.0013182681 0.003058627 0.003237047 -0.0021289198 -0.0030866542 0.0032776394 0.0011159051 0.0017047704 0.0020598315 -0.0010519569 0.0026370955 0.0010417842 0.00097454025 -0.00072952895 -0.0009559225 -0.0007243874 0.0014284723 8.649423e-05 -0.0031530464 -0.0031051307 -0.0019785468 3.752875e-06 0.0006768186 0.0032380486 0.0019725598 -0.0013325515 7.000727e-05 0.0016188398 0.0026919937 -0.0003482483 0.0014472611 -0.001850498 -0.0001589648 0.0028539181 -0.00085549225 -0.003176158 0.0019430147 -0.0012309299 -0.0003607994 0.0032688095 -0.0006654358 -0.0015097422 -0.0018697754 0.00232675 -0.0019461842 0.0006230818 -0.0018611521 0.0020635119 0.0014235603 0.0011898197 -0.00043420267 -0.0009405694 0.003142855 0.0017289711 -0.00062228774 -0.0031152554 -0.0024767756 -0.00036376528 -0.00016476102 -0.0007818346 0.0034209106 -9.02441e-05 0.0019942692 -0.002599669 -0.00081836444 -0.0018681269 -0.0024302409 0.00043902613 -0.0024398474 -0.00069478183 0.0012538559 0.00178985 0.0004082014 0.0007350345 -0.0015433483 0.0024799246 -0.0021952158 0.0015541993 -0.0027636692 0.00072002993 -0.0016307419 -0.0013407352 -0.0010243984 0.0018671122 0.0020434645 -0.0018791814 0.00024912562 -0.0027510438 0.0026696043 0.0030791017 -0.0009395069 0.00042329184 0.00028861043 0.0017263461 -0.002772107 0.0002603214 0.0024229777 0.00080282515 0.0005815119 -0.0033319138 0.0029459337 -0.0019448412 -0.001041832 0.001133198 -0.00039298862 0.00035471562 0.0007008575 -0.0025097274 -0.0034421687 0.0031096276 0.0020809092 -0.0022920992 0.0009938016 -1.3479649e-06 0.0016463535 -0.002519152 0.0014525843 0.0013782664 0.0033421346 -0.0015055976 -0.00051721284 -0.0023132858 -0.0034011852 -0.0030785399 -0.00041533876 -0.0020545574 0.0016441918 -0.001979597 0.00071771885 0.00032255924 -0.0010965925 -0.00024335847 0.003365559 0.0030946631 -0.0014857131 0.0032231438 -0.0020092004 0.0020292483 -0.0010472934 0.0012147664 0.0011891013 0.0023408087 -0.0008705054 0.0029436725 0.0026646021 -0.0031739343 -0.0027373491 -0.002509918 0.00084499095 -0.00097309443 -0.002413016 -0.0027290462 0.0030191767 0.0008353928 -0.0030699074 -0.0017071118 0.0011445895 -0.0014908008 0.0016346592 -0.0014039525 0.00087196205 -0.0027873667 0.0020963317 0.0015591728 0.00026368673 0.0010712339 -0.0029620356 0.0007066255 -0.0003102819 -0.0032693462 -0.003047365 -0.0005153707 0.0014871871 0.0013667272 -0.0021698703 -0.0022871532 -0.0016572579 -0.00093058415 -0.0023867574 -0.003355282 -0.0008531485 -0.0029058887 -0.002149949 -0.0021574153 -0.0009343207 -0.0006299828 -0.0029568651 -0.00020256564 0.0026390099 0.0024598013 -0.002495231 -0.001324781 0.0012169713 -0.0032620318 0.00036428982 0.0022146236 0.0019954424 -0.0030653917 -0.0016076033 -0.002705829 -0.00016360724 0.0031839765 0.0020765197 0.0017259174 0.0017896306 -0.00124476 0.003257919 -0.0026078948 -0.002502041 -0.00066218304 -0.00018722577 -0.0011696835 -0.000110452995 0.0024786417 -0.00020191375 -0.00048432287 0.0010044264 -0.0028790354 0.0027851688 0.0027718532 -0.0032576395 0.0007655837 0.0034683035 -0.002597185 -0.0025648111 -0.0026519615 0.002812321 -0.00019735545 0.00328852 -0.0029584102 0.0011560218 0.0009444229 0.00041751534 0.00096882513 -0.0026646685 -0.0030303812 0.00076389394 0.0020077508 0.0027180274 0.0019513979 -0.00021639759 0.0029078752 -0.0030354098 0.0012478671 -6.7259316e-05 0.0012711578 0.002534895 -0.0022549666 0.001768996 -0.003095103 -0.00032955196 -0.0029504998 -0.0018091769 0.0031556021 -0.0005649258 0.0010893737 0.0031929272 0.0032350074 -0.0026060792 -0.00092570076 0.003578774 0.0017898282 -0.0004543815 -0.0029882612 0.0011067257 -0.0024000714
, 0.002655904 -0.0013864556 -0.00040979622 0.0003205568 -7.757412e-05 0.00027015994 0.0021252104 0.0001983974 -0.0011276011 -0.0006144101 0.002016526 0.00044975805 -0.00031447186 0.0031593328 -0.0016704436 -0.00032076074 0.0031791702 0.0021949867 0.00047754092 -0.0030816942 0.00031372582 -0.00078395073 0.003154944 0.0004753055 0.00044018522 0.0008337514 -0.0007854628 -0.0016194864 2.4600915e-06 -0.0007537918 0.0022403316 0.0029785293 -0.00024768 0.0009417877 -0.0020280655 0.00066654175 -0.0022155012 -0.0029959292 -0.0019188977 -0.0029841575 0.0024087797 -0.0019317594 0.0027304448 -0.0024923699 0.0012746745 0.0033142113 -0.0025900465 -0.003241144 -0.001401286 -0.00085876905 -8.28167e-05 -0.0028993879 -0.002834645 0.000997826 -0.0026734953 -0.002971362 -0.0007840825 -0.0028107853 -0.0022855073 -0.0027224198 -0.00012897106 -0.0015506342 0.0022981244 0.0005355737 -0.001104052 0.0021062214 -0.0019239543 -0.0014111372 -0.0024476834 -0.0014070687 -0.0005849029 0.0022453177 -0.0008783429 0.0015975819 0.0023733198 -0.0024304513 0.001446525 0.0020281614 -0.0010146966 0.00217032 0.0019664885 -0.0021288747 -0.0022618815 0.0010987006 -0.00047097346 -0.002038197 0.0032888711 -0.001718501 -0.0021191523 -5.764378e-06 -0.00087074534 0.0001494408 -0.0010850994 -8.8193e-05 -0.000101036225 0.00034861488 0.002768981 -0.0020059058 -0.00053522934 0.0018489428 0.0026686545 -0.0014529371 0.0029560723 0.0027937058 -0.0014875756 -4.1992655e-05 0.0014273772 -0.0012915723 -0.001983532 -0.0021252835 -0.00027770066 -0.00010172096 0.0014730382 -0.00079264055 -2.5685731e-05 0.00087380904 0.0016443637 -2.3930517e-05 -0.0020075615 -0.0032505111 1.9549881e-05 0.0022960298 0.00053909974 -0.0029698862 -0.0026398948 0.0022993109 -0.0012453314 0.0019901176 -0.0021504958 0.0029013038 -0.0020741257 0.0011370452 -0.0001942525 -0.002444849 -0.0010209817 -0.00026689962 -0.0018548348 -0.0004066459 -0.002617325 0.00078917394 0.0031213418 -0.0009682507 -0.0004616383 0.0012517832 0.0029017082 -0.001954366 -0.002402658 -0.0010292042 0.0031248138 0.00019484939 -0.0028012514 -0.00053934794 0.0031785849 -0.0025203214 -0.0018361417 0.003196062 -0.0030872577 0.0012521641 0.00016205634 0.0023263777 0.002789063 -0.00087620266 -0.0014261516 0.003030222 0.0007129888 0.0021601557 -0.003112474 0.003232562 -0.00045679844 -0.0018541487 0.0009068457 -9.388227e-05 0.0015750134 -0.0007010194 -0.0012517796 0.000799074 0.0027124886 -0.0016611475 0.0009809609 -0.0026628936 -0.0023145794 -0.000119740165 -0.0030303807 0.0009081701 0.00044200695 -0.0007694401 0.0018486038 0.0033881215 0.002858786 -0.00069730944 0.0007427929 -0.0012724763 -0.0028517726 0.0020935936 -0.00066952646 -0.00029417014 -0.0005686276 -0.0015661864 0.0013505053 -0.001362219 -0.0032209423 0.0029696587 0.0013646836 0.0029376408 0.0023067223 0.0009407004 0.0032666964 -0.0013822805 -0.002271786 0.0014064716 0.0012651016 -0.002020738 0.0032530534 -0.0013065125 0.0032527596 0.0002143981 -0.0022212942 -0.00085847406 -0.002589733 -0.0010669718 0.00039791607 0.0032025115 0.0030492425 -0.0022792986 0.0010770984 0.0006849794 -0.0006739548 -0.0031229241 0.00024228936 -0.002700969 0.0021512646 -0.0020377485 0.0017613142 0.003273709 -0.0001959122 0.001576613 -0.000548479 0.0024733685 0.0013686001 -0.0030938836 -0.00075473153 0.0011188876 -8.14073e-05 -0.00031046703 -0.00027662056 -0.0006310049 0.00025030941 0.0013457163 -0.0013767264 -0.0012403863 6.6018074e-05 5.9440386e-05 5.7207966e-05 -0.0016587077 0.0013987356 -0.0007710465 0.00080896704 0.00023177672 0.0017980301 -0.0023284538 -0.0022795047 -0.00145873 0.0033280381 -0.0007035317 -0.0032236427 -0.00012675807 -0.0013687221 0.0021348482 -0.0033206122 0.0010137548 -0.0031375529 0.00037636558 0.0020219237 0.0024728552 -0.0024946374 -0.0019211181 -0.002196379 -0.0025685471 -0.0032925133 -0.0007126621 -0.00025178227 -0.002431584 0.0021763607 0.00043745298 0.0018847573 0.00047811255 0.00017146324 -0.002415776 -0.000678326 0.0015238019 -0.0015643319 0.0005827282 0.0010615815 -0.0004544949 0.0035271132 0.002862061 0.0008865063 0.00230467 0.0020631466 -0.001980831
@card@ -0.0017734065 -0.0021355762 -0.002633391 0.0027809967 -0.0006658865 -0.0024148612 -0.001315516 0.0018938356 -0.0009969276 -0.0013465056 0.00059148093 -0.0009805768 -0.0005789487 0.000419807 -0.0010158626 0.0027959866 0.0014148616 -0.00337958 0.0020559581 -0.0023655081 0.00020737392 0.0014302154 -0.0016730198 -0.0006503821 0.0026559818 -0.0014169139 -0.0026981065 0.0031489618 -0.00078769 -0.0016543334 0.002909032 0.0014284034 0.001424938 0.0030594768 -0.0028251454 0.0018394595 0.0007888447 0.001297782 0.0005996423 0.0015012808 0.0014740439 0.0020326986 -0.0011021172 -0.001618616 -5.4038546e-06 0.000910729 -0.0010891329 0.0020640874 0.001451222 0.0026344624 0.0008503952 0.0027539537 -0.0004358007 0.0027736954 0.001293927 -0.0026502886 -0.0013027205 -0.00076872273 0.0017097221 -0.00020760384 -0.0009708233 0.00258646 0.0031986118 -0.00052212994 -0.0017306387 -0.0015088121 -0.0015519006 -0.003100509 0.00041335414 -0.001377761 0.0008579735 0.0019378051 -0.0013326579 -0.0032468056 0.00057254476 -0.0022082487 0.0007706704 -0.0012674175 0.0023270797 0.00015735655 0.0011155332 -0.0009117766 -0.0005787247 0.0027740982 0.0005123903 -0.0019626508 -0.0025107076 0.00039730483 0.0022291923 0.0018787824 -0.0030044522 0.002862628 0.0014318039 0.002531604 0.003391166 -0.002385029 -0.00299773 0.0018667697 0.0031387834 0.0011610076 0.0023209471 -0.0005125926 0.0026251492 -0.003136016 -0.0026650596 -0.0023222307 -0.0013313511 0.0016934499 -0.0013922165 -0.0027249265 0.0027550014 -0.0012564431 0.0028687532 -0.0015918277 0.0013209532 0.001698196 0.00081662164 -0.00094999396 0.001029167 -0.002900147 -0.00091935345 -0.000812905 0.002466973 -0.0011598797 -0.0022259676 0.0015576497 -0.00011994601 -0.0012585776 0.0023608964 0.0013332728 -0.001193843 0.00029954725 0.0031919274 0.0024313245 0.0022011176 0.0016571716 0.00076458935 -0.00062351365 -0.0022155936 -0.00018030831 -0.00044327683 -0.00034225194 -0.0022317441 0.0025392356 -0.0021903925 -0.0023971233 -0.0010198071 -0.0005572275 -0.0024945564 0.0001422921 -0.0017233607 -0.00048007068 -0.0024489171 0.00064776995 0.001061594 8.279435e-05 -0.001920994 -0.00059899566 0.0023199418 0.0013362442 -0.002943872 -0.0010938714 0.0006959402 0.00076864264 -0.0031476098 0.0015931159 -0.0028570401 -0.0024416507 0.001175019 -0.0010112292 0.0010962664 0.0029945108 -0.0011902959 0.003165186 0.0006915167 0.003305347 0.0018579952 -0.0030468788 -0.0010236435 0.0021896842 0.0018184464 0.00292966 0.0022202828 0.0026530435 -0.0033517098 0.0014136122 -0.0015130811 0.0012818947 0.0020423944 0.0013875706 0.002568695 0.0005576617 -0.0005071557 0.0019307018 -0.0018920889 -5.474622e-05 0.0031659196 -0.0018751962 0.0012660342 -0.0026394606 0.0032297352 0.0027175306 0.00040981948 0.0015945131 0.0005382218 -0.002181352 -0.00047037288 0.0022426115 -0.0015509292 -0.001330055 0.0016580208 0.00079477846 -0.0005785225 -0.0010568677 0.0020520627 -0.0019913742 -0.0011710621 -0.0023405415 -0.0015288626 -0.002905013 -0.0014706273 -0.0028039776 0.0003893567 -0.002955998 -0.0033612305 -0.0028016372 -0.002138965 0.0021737874 0.0011722263 0.0001473723 -0.00093548204 -0.0025806192 9.5230185e-05 0.00017424108 -5.4646254e-05 0.0003465179 0.00031892819 1.2688635e-06 -0.0026005004 -0.0020732963 -0.0027564901 -0.0005443592 0.00055803277 0.002547737 -0.0005935847 -0.00085240375 0.0032175188 1.8045042e-05 -0.0007897649 0.002912371 0.0009609369 -0.0018473429 0.0022951928 0.0014425295 -0.0023948615 -0.00013379968 0.0003949525 0.0018854475 -0.0007519438 -0.000997155 0.0005806621 0.00031322418 0.00057293096 -0.0010407933 -0.0020589568 0.002494055 0.0026498612 0.0028947815 -0.0029896835 0.00093978277 -0.0011977303 0.0031888483 0.0010041338 0.0015660361 0.0008231841 0.0022994485 -0.0018516019 0.0027136733 -0.00092338305 -0.0015245536 -0.00065114716 0.0032294749 -0.0023591227 -0.00067863986 0.0022886978 -5.5304376e-05 -0.0021913666 -0.002094846 0.003032065 0.0022334214 0.0016976022 -0.0008980387 -0.0029932505 0.0013227472 0.0025896265 -0.0018152363 -0.00257098 -0.0010491103 -0.0015656032 -0.0008877665
“ -0.0007353918 -0.0015931961 0.0030883176 -0.0030945519 0.001498297 0.0015745123 -0.00035014114 0.0033344973 0.0032280467 -0.0020088158 -0.0019190889 -0.00232897 -0.0027368262 -0.00091768877 -0.001907349 -0.0028382116 0.00045085335 0.0008950307 0.0020725632 -0.0010784164 -0.0015900666 0.00035165288 0.00018467812 0.0028207973 -2.533202e-05 0.0024423378 -0.0030225064 0.0029258337 -0.0007545611 0.00277855 -0.002455644 0.0005992333 0.0003211672 -6.5127846e-05 -0.0017005497 -0.0029280533 -0.0022525582 -0.0028265936 0.0007097013 0.00018118523 -0.0006504456 0.0023673575 -0.000860414 -0.00059814804 -0.002726762 -0.003198596 0.0029938277 -0.001817717 -0.002042987 0.0018197485 0.0022216158 -0.002187602 0.0003608652 -0.0018812545 0.0006541675 -0.0013704967 -0.0011452333 0.00084203656 0.0030062394 0.0023714735 -0.0032724352 -0.0019188344 0.0027804833 0.000709626 -0.0014186498 0.000311755 0.003319263 -0.00015695413 -0.0032141707 0.00059683184 0.0021289147 0.002206948 0.0014112009 -0.0019623574 -9.621538e-06 5.7326808e-05 0.0014166284 -0.0027000057 -0.0027175164 -1.8968949e-05 -0.0029966666 0.0019567981 -0.00016418319 0.0037237364 -0.001693418 -0.00018358251 0.0027978518 -0.0013621281 -0.0015531154 0.0005778793 0.00090109033 -0.00086555065 0.0022929613 -0.002471053 0.0013669385 0.00025132517 0.002935838 0.0018476193 0.002308135 0.0025931473 -0.0032538346 0.0032274474 -0.0026508572 -0.000826883 -0.0016333851 -0.001864727 -0.0026817739 -0.0025547657 -0.0017248571 -0.00033877525 -0.0018044433 0.0020509744 -0.0032051783 -0.0017081307 0.0031954274 0.0024221097 0.0025902733 0.0013956424 0.00032144572 -0.002256239 0.0019996946 0.0009870224 0.0026539175 0.0021303704 0.0026324831 0.0030725743 -0.003262068 -0.0023828717 0.00057000446 0.0022336072 0.0026361747 0.0018944816 0.0028228292 -0.0019882224 0.0023470921 -0.0011865142 -0.0030554645 0.0030336834 0.0002924103 -0.0010531023 -0.0006825886 -0.0016951372 0.0013499738 0.0015894932 -0.00087695324 -0.0024180424 -0.001361478 -0.00019420947 0.002119732 -0.0011141745 0.000102068465 0.00020068882 -0.0023497376 0.000679008 -0.00053948996 0.0011030703 0.0014455479 -0.00049134466 -0.0010039264 0.0027230184 0.0017047465 0.0023329637 0.0013604863 0.0029849876 0.0025233398 -0.0002509927 0.0029813899 0.0015773927 0.0018052757 -0.00020075339 -0.00083714986 -0.0014178006 -0.0028468901 0.0011285074 0.00317962 0.0030292305 -0.0007533934 0.0020453802 0.0014131354 -0.0014035098 0.00058487937 -0.0017547195 0.0025947138 0.0017718567 0.00093135366 0.0013389208 0.003181822 0.0026394422 -0.00022539808 -0.002467533 0.0029073148 0.002517592 0.00043449656 -0.00044827463 -0.0019855306 -0.0016323247 0.00292393 -0.0011114101 -0.0021246856 0.0033940542 0.002524302 0.0030291774 0.00033919106 -0.0029728813 0.0029313 -0.0012922323 0.0019212979 0.0016302536 0.003209044 -0.0031081524 0.0030959991 -0.0032834646 -0.002278833 -0.0032174154 -0.001757718 0.0023284839 0.002891847 -0.0014227057 0.0010381642 -0.0013029671 0.0026720178 0.0020192887 -0.00010947451 -0.0013550846 -0.00252132 0.0014628257 0.00073032524 -0.00094114913 0.0024488757 -0.001285171 -0.002956513 -0.00094252336 -8.754801e-05 -0.0022111607 -0.0020596574 -0.002739611 0.0031924956 0.002517592 3.1346162e-06 0.0022848942 0.0027294846 -0.00043989922 0.0021069709 0.0013967328 0.0018013587 0.0023090737 -0.0014744664 -0.00077879056 0.00032254975 0.0014893754 0.0012183022 0.0015985926 0.0017092527 -0.0029148168 -0.0011474948 -0.002472535 0.0034195802 0.0016457962 -0.00025796774 0.00127487 -0.00255216 -0.0020391266 0.0013190184 0.0018855152 0.001194871 0.002110626 -0.00044760405 -0.0008863304 -0.00015406658 -0.00096019974 -0.0018929833 -0.0026383349 0.0022471866 -0.00033596795 -0.00058110425 -0.0024215896 0.003223752 0.00042836939 0.00037388311 0.0008228844 -0.0023832957 0.0005128054 0.00085457595 -0.0027524126 0.0015721467 0.00075671554 0.0023384243 0.0017497978 -0.0009426973 -0.002242482 0.0025663658 0.00096483686 0.0018989829 0.0022345444 0.0009989559 -0.0019385369 0.0001125183 0.0026581304 -0.0018818007 0.0029387632
„ -0.0024673308 0.0015359937 0.0006648841 0.0024830038 -0.0016457544 -0.0016784817 -0.0019383584 0.0013501291 -0.0015540223 0.0027097764 -0.0013768272 -0.003100678 -0.0016902664 0.0022119354 -0.0021781477 -0.0017982126 -0.0022996452 0.0019346676 0.0010813834 0.0007845824 -0.0011384409 0.0019661495 -0.0020219767 -0.00058227574 -0.0020567582 -0.0002946032 -0.00090064347 0.0029071323 -6.7424815e-05 -0.0029521212 -0.0017603296 -0.0022922426 0.00087523356 0.0030843841 -0.0019389363 0.0028687338 0.002964673 -0.0024871174 -0.0029003962 0.0031565337 0.0027603218 -0.0015769897 -0.0022805668 0.0024983236 0.0014452718 0.002788429 -0.0025292155 -0.0031010555 0.00059489574 -0.003211173 -0.001633886 -0.0010915112 0.0032601482 0.002978305 -0.00087310857 0.0019902743 0.0027407736 -0.0006801824 0.0032632942 0.0024919321 0.00064452866 -0.0013351581 -0.0015833873 -0.0009815013 0.0026327604 -0.001972891 -0.0008635301 0.0032235258 0.0010896687 0.002079973 -0.0026516113 -0.00014323948 0.001878898 -0.0016323653 0.0025883082 0.0031664872 -0.0002252752 -0.00070902775 -0.00022731637 -0.002006882 -0.002897443 -0.00049293373 -0.0008730379 0.0017677399 -0.0022250025 0.0017799062 -0.0020925736 -0.0026295225 0.0029141563 0.0030206153 -0.0011398251 0.0011639652 -0.0018160779 -0.00285837 -0.0016606604 0.0023272065 0.0021673483 0.003036125 0.0023745506 0.0022493342 0.0003698535 -0.0032524038 0.00149222 -0.0001319357 0.002110998 0.00042446385 -0.0010473131 0.0026124357 0.00035581217 8.2027334e-05 -0.0016100142 -0.0028183288 -0.002597225 0.002928496 -0.0029366806 0.0030885397 -0.0030683333 -9.806446e-05 -0.0005047687 -0.0031794794 0.0028740412 0.0023572883 0.0010624739 0.0016114117 2.784238e-05 0.0032878397 0.0023753354 -0.0033995572 -0.0013772115 -0.00036707427 0.0011352265 -0.0013946078 0.00069604936 -0.00282748 0.001024794 0.0017246221 0.0016014754 -0.0010792353 -0.0029254186 -0.0031867512 -0.00011024591 -0.0026634657 -0.0024515488 0.0021343098 0.002399789 0.0007392218 -0.00278203 -0.0019539224 0.0027537541 0.0011701367 -0.0016484048 -0.0025268642 0.00027832517 0.0011501746 0.0006384321 0.0011612689 -0.0020015894 -0.0033185345 -0.0024039256 0.00019574926 0.0015664174 0.0015975228 0.00050746737 0.0018070115 -9.858485e-06 0.0014576474 -0.0030061926 0.002600104 0.002047079 0.0019049109 0.0022893192 0.00286151 0.0002519472 -0.0004885078 0.00034530374 -0.003067794 0.0027246198 -0.0021227726 0.0029225315 -0.0013987672 0.0001443016 -0.0030127696 -0.0033181382 -0.002644102 -0.0026767876 0.000115201634 -0.0021785465 -0.0014888083 -0.0017084151 -0.0015104349 0.0024235193 0.0016945997 0.002764087 0.0023814056 -0.0019109638 0.0023275206 -0.0030852642 -0.000935987 -0.0025966011 0.0014780678 0.0005778399 0.0023340592 0.0009669515 -0.0024752957 0.0026800244 -0.0020405843 0.003003441 0.0011087642 -0.001339711 -0.0015651042 -0.0014470363 -0.0022161256 0.0031476915 -0.0010301454 0.002668216 -0.003314736 0.00058091973 -0.0006560636 0.0023658087 -0.0030860645 0.0025361804 -0.001645459 -0.0021076032 -0.0019984366 -0.0012100482 -0.0012177561 -0.0008782545 -0.0025527715 0.000108893655 -0.00015398292 -0.00049484643 0.0011145734 -0.0026371474 -0.0010669125 0.0015454671 0.0029199487 -0.003189128 0.0024164396 0.0018516202 -0.001429821 0.0029053877 -0.003206247 0.0023510894 0.0018877131 0.0005220839 -0.0018190021 -0.001319906 -0.0011566044 0.00056904875 0.0005826051 0.002557448 0.0032653625 0.0030940087 -0.0014211214 0.0031678444 -0.00025656112 0.0017616274 0.00085222634 -0.0004397204 0.0011603846 -0.0018006221 -0.0018718312 -0.00231362 0.00042234917 0.0020704411 0.000363507 0.0005715472 0.0012349286 0.0025600966 -0.002479107 0.00070880586 -0.0025455058 0.0012760618 0.0031877786 0.0025480618 0.0022663842 0.0027632401 0.0022833445 0.0021196678 0.0028834494 -0.0016003194 0.0030557092 0.001579145 -0.00061610906 0.0027630492 0.0016740478 0.0031042045 0.00097374554 0.0033351553 0.0005078038 0.003198005 0.0014404027 0.002325352 -0.001121413 0.002535218 0.0025013199 -0.0006247687 -0.0006989095 0.0013182269 -0.0025025036
und 0.0032046493 -0.0031939659 -0.0021939555 0.0009302991 0.0021492536 -0.0018740084 0.00094921543 0.0031575128 -0.0022815699 -0.0021007718 -0.0016246013 -0.001247123 0.00060134695 0.0032368286 0.0021347622 0.0001132145 0.0008933579 0.0027637037 0.0030182404 0.0018040148 0.001942991 -0.0025665648 -0.0012567678 -0.0018554074 0.0020179993 -0.00073645054 -0.0030167901 0.0025867973 0.002759605 -0.0011458922 0.0030639833 -0.00023810752 -0.0012311765 -0.000168992 7.2500465e-05 -0.0011092209 0.000996572 0.0018407487 0.0023022115 -0.0029561908 -0.0007458439 -0.0018249119 0.0024949906 0.0021074265 -0.0013557106 0.0008050691 -0.0019790651 0.000105610205 0.0031771683 -0.0008441825 -0.0017285647 -0.0024262643 -0.00095542683 -0.00023678727 0.0012072133 0.0032599058 -0.0011294538 0.00068513525 0.003263407 0.0005653919 0.00032577143 0.003246995 0.003162332 0.0025786853 -0.00205422 0.0033644247 0.0020072884 0.003097477 -0.0006940974 0.0011273855 0.002298748 -0.0012644607 0.0022236542 0.00082953315 0.0031324672 -0.0009848147 -0.0010835375 0.0020729934 -0.003034482 -0.0024715364 -0.0022229545 -0.00023420226 -0.0007999881 0.002402787 0.0031032066 -0.0003202719 0.0005532997 0.0006838604 -0.00063669385 -0.0026715014 0.0024735075 -0.0014399511 0.0015838683 0.0030621255 0.0011086027 0.0010605549 0.0013620396 -0.0009639045 0.0012885709 9.981358e-05 0.0018538868 0.0018414493 0.0005812434 0.0019336164 -0.0029735093 0.0021214315 0.0030719654 -0.0013978394 0.00045875032 -0.0016990979 0.00031643282 0.0009268835 0.0026981304 0.00019845484 0.0008651845 0.0004651302 0.002808553 -0.0019073293 -0.0020312865 -0.0012973698 -0.00078167015 0.0017128987 -0.002681241 -0.0009386022 -0.002746906 0.0017815266 -0.00083157164 -0.00305005 0.001398059 0.003024172 -0.00093872985 -0.001928166 0.0011039897 -0.00023316755 -0.0032584376 0.0028689522 -0.0024517574 -0.0016538972 -0.00093474746 -0.0018662858 0.0006300432 0.0031306248 0.0014243962 0.0027447653 -0.00015721344 0.00022863719 -0.00095101254 -0.0029427684 0.0011695736 0.0006170092 -0.0030845385 -0.0016727629 -0.003225002 -0.0019137088 0.0013284595 0.0029323993 0.0013048155 0.0007866786 0.0026867103 -0.0003496052 -0.00046341334 -0.0028857128 -9.603496e-05 -0.0008340558 0.00014444812 0.0024628423 -0.0023106374 -0.0013032203 -0.002223493 -0.0010868679 -0.0011662445 0.0007296293 0.001091801 -0.0015983877 -0.0014307337 0.00039525417 0.0017803115 0.0018138866 -0.0009279342 -0.0014169236 -0.0019111017 -0.00017174879 0.00061203545 0.00048711585 0.0023930613 -0.0009242802 7.658743e-05 -0.0017750283 -0.0003698482 -0.002600541 -0.0002812416 0.00047933884 -0.0029133132 0.002912702 -0.0030754062 -0.0032632176 -0.00282176 0.0024188578 0.0018311343 0.0031147262 0.0008424937 0.00027822607 -0.00085873995 0.0030429277 0.00095411326 0.0013457636 -0.00038869 0.00036453316 0.0022044221 -0.00024449083 0.0011162395 -0.0002836513 0.0017427526 0.0011289942 0.0008887547 -0.0018198643 -0.001625101 0.0013212821 -0.0020310539 -9.0571666e-05 -0.00021658397 0.0011819135 -0.002841181 0.0028971967 -0.0005305867 -0.0018209083 0.0014379357 -0.0006672972 -0.002646843 -0.0014618264 -8.842373e-05 -0.003063964 0.00015004592 0.0008119269 -0.0011572452 0.000891686 0.00087820436 0.0033372927 0.00052086025 0.0006083956 0.0009571398 -0.0007648219 -0.0029449523 0.0027185716 -0.00061107153 -0.0032646875 -0.0021320581 -0.0013228047 0.0013163547 0.0017126276 0.0020666043 -0.0023126495 0.00029640994 -0.0009401791 -0.0017707285 0.002312323 0.001391445 -0.0010691519 -0.0028668826 -0.0017627142 -0.00020633107 0.0026282077 0.0021188955 -0.002919457 -0.0032128242 0.0024220378 -0.0006992054 -0.0011447702 0.0018328758 -0.0019159341 0.0016927521 -8.192811e-05 -0.0022516956 -9.3219176e-05 0.0021290907 0.0031684649 0.0007548196 0.0017388953 -0.001723884 -0.00027248514 -0.0017252143 0.0003691986 -0.00063950307 -0.0011761857 -0.0023558682 0.0031963538 0.0009309592 -0.0007341731 -0.0013767806 0.0026280147 -0.0020878892 0.0011563617 0.00031537315 0.0028020737 0.0024216142 -0.0009368726 0.0008735348 -0.00060114526 -0.003098841 -0.0009494525
von 0.0004181421 0.0022258558 0.0033070263 0.0030228065 -0.0026780148 0.0021058063 -0.0018712617 -0.00022807818 0.0001443672 0.0021380608 0.0015137314 0.0015140367 0.0031326117 0.00015152604 -0.0020234904 -0.0021247687 0.0021953345 -0.0017768891 -0.00096492487 0.0012974115 -0.0007939317 -0.002015652 -0.00075652875 0.00043446367 0.00070242037 0.0020380418 -0.0018237277 0.0010617274 0.0023798659 0.0006975604 0.001808496 -0.0016067453 0.0020309722 -0.0025630067 0.0011668429 -0.003057826 -0.00082226197 -0.0030721072 -0.0005032465 -0.001783556 -0.001333771 0.00038633964 0.00091735215 -0.0005560769 -0.0026500248 -0.0019399419 0.00027305834 -0.0012807135 -0.0031189001 -0.00023772659 0.0022050415 0.002021131 -0.0032879908 0.0010732538 -0.001954598 -0.003048388 5.9519538e-05 -8.7294444e-05 -0.0022958887 -0.0020539884 -0.0008245293 0.0023473247 -0.0024705809 0.002575292 -0.00015695713 0.00039769613 0.0032049401 0.0016446532 -0.0012123111 0.0012710607 0.0011892085 0.0021464073 3.7148144e-05 -0.0014976698 0.00047286222 -0.0017838492 0.00043619037 0.0016377303 0.0017098077 0.0030233068 -0.0025389711 -0.0017993876 0.0021529088 0.00056641485 -0.0021704645 0.00028667058 0.0009523767 -0.0008376086 -0.0016157365 0.001682149 0.0032221908 -0.0024579857 6.442023e-06 -0.00082905765 -0.0020546736 -0.0004304916 -0.0017434164 0.0029723875 -0.0019198981 0.001224127 -0.000100692276 0.0014229055 0.0006874025 0.0033547366 0.00021113479 -0.0018759011 -0.00039564996 0.0006946465 -0.001187351 -0.002585692 -0.0018989589 -0.0022467044 0.0021057148 0.0013211963 0.002750659 0.0021941205 -0.0020320804 0.00090014946 0.0028772312 0.00045725654 0.0010195368 0.0019699512 -0.0029270633 0.003051522 0.002268257 0.002884885 -0.0027319102 0.0020209274 0.0022447773 -0.00042677973 -0.0020435955 0.0017905578 -0.0022102841 -0.0018526018 0.0012120019 0.002747653 0.0028910418 -0.0014705672 -0.0030977894 0.0031580948 0.002143029 -0.0014107228 -0.0029002167 -0.0015384196 -0.0013223963 -0.0010785231 0.00021730039 -0.0001206324 -0.0010029422 -0.0020449492 0.0031814151 -0.0015947435 -0.002412266 0.0025549878 0.0008221398 0.0029218693 -0.0015346654 -0.0023043137 0.0003075408 -0.00035384033 -0.0031306883 -0.0005033413 0.0009692656 0.0022030608 0.0022895494 0.0010984816 -0.0014586805 -0.00060821796 -0.0013174346 0.0020057063 -0.00216579 0.0007253042 -0.0004505933 -0.0019036244 -0.0023527557 0.001959862 -0.0028188182 -0.00022188638 0.0009865346 0.002583042 -0.0024638213 0.0011208865 0.0032229347 -0.002335314 -0.0012190534 0.0016986195 0.0018347154 0.0006041265 0.002680314 0.0002457562 0.000650763 -0.0005052146 -0.002766534 0.0010848128 0.0006416009 -0.002940713 -0.00021884424 3.4102106e-06 3.9936904e-06 0.0029282724 -0.00084417977 -0.0019689358 0.0024816976 -0.0024845866 -0.0029458224 -0.00060718576 -0.0027899097 0.00018237025 0.00064052164 -0.0008204106 -0.0021443549 -0.00016733746 -0.00035710324 0.0011109539 0.0027352723 0.0019165586 0.0027664881 -0.0030838775 0.003083119 -0.0008191322 0.0029115004 0.00081338163 0.0011618132 -0.003233775 -0.0031900117 0.0029594281 -0.00088846224 0.0009214009 0.0020856496 -7.613978e-05 0.0032657525 -0.00039719007 -0.0032625 -0.0023503029 -0.00041434148 -0.0028664332 0.0025070177 0.0012106508 -0.0028837002 0.002778125 0.0029889653 0.001901916 0.0022777396 -0.0031418377 0.000201624 -0.0030944205 -0.0011927533 6.5154534e-05 -8.696631e-05 0.00051525206 0.0011346777 0.00068437535 0.0018144924 0.0024800058 -0.0019830768 0.0026365924 0.0020539656 0.0032624095 0.0014486578 -0.0011403272 -0.0012443828 -0.0001927935 -0.0004734777 0.0032055997 0.0003380839 0.0013593707 0.0012039104 -0.0028868963 0.002180834 0.002759557 -0.0005785746 0.0007609874 -0.0021479593 -0.002032361 0.002748161 -0.00096043764 0.0022802877 0.0005566447 -0.00072141073 0.0010226631 -0.0013195672 -0.0006002266 0.00041906792 0.0016599641 -0.0004888901 0.00021151763 -0.0026913092 0.0031801478 -0.0028954227 0.0024031762 0.0013620909 -0.0022330254 -0.0017161771 -0.0026157682 -0.0015951596 0.0023879628 0.003249727 0.00068142463 0.00025981563 0.0031177946
haben -0.0016989891 -0.0003661357 0.0010640022 -0.0021384615 -0.0032332658 -0.0031802466 0.0030515015 0.0019155033 -0.001626356 -0.0028523735 0.00046698863 0.0009113863 -0.00045246576 0.00046412295 -0.0014554971 0.0015722088 0.0005704066 0.002917709 -0.0033460252 -0.0018295422 -0.0030772886 -0.00013660881 -0.0026009257 0.0017207062 -0.0021682188 -0.0019851266 0.0015774083 -0.0026760525 0.00043949304 -0.0024731075 0.0033296614 0.0028802995 0.00057303905 0.0019120816 0.0015277496 -0.0019406782 0.0033308286 -0.003283598 0.0027106532 0.0009322264 -0.0010262586 -0.0011836932 0.0030032217 -0.0018757327 0.0028215414 -0.0019569371 0.002811448 -0.0001464585 0.002693495 -0.0010152734 0.001991776 0.002969481 0.00086777704 0.0004896222 0.001722924 0.0026885811 0.0028605752 0.0028734263 0.002413855 0.0027181827 0.0028469714 -2.4726754e-05 -0.0002686345 0.0005770959 1.2270917e-06 0.00026332 -0.0028200035 -0.0031256624 -0.00080417824 0.0029986254 -0.0011952658 -0.0022833853 0.0016489581 0.0003241515 0.0006623232 0.001242874 0.0011295974 0.00190356 0.00038329547 0.00024399391 0.0029683341 0.0009232004 -0.0015768586 0.0023411873 0.001774078 0.0009439521 -0.0009740254 0.0011034496 0.002171511 0.002376204 0.00031018406 -0.0028453148 0.00013759903 0.00016224005 0.001415317 -0.003129172 0.0032480354 -0.002380238 0.0019322553 -0.0031544557 0.0031851751 0.0024551828 0.00039954847 -0.0011222067 -0.0001521031 6.6144436e-05 -0.002142725 0.0019304551 0.00071253005 0.0012914261 -0.0024577037 0.002848652 0.00016056278 -4.705777e-05 -0.0030060795 0.001386605 0.0022697523 0.0024345496 -0.0020848343 -0.0027250743 -0.001852701 -0.00016605588 -0.0027336907 -0.0027521267 -0.0006505014 0.0004587249 -0.0031554217 -0.0012934671 0.00026348297 0.0023062946 0.00064301403 -0.00018260257 -0.0023906687 -0.002353685 -0.0001760441 0.002561487 0.0017881744 -0.0005032743 0.00032353078 -0.0032597957 -0.00041283527 -0.0016515125 0.0018411932 -0.00073078054 -0.0015859087 -0.0031591435 -0.0004712544 -0.0024364253 -0.00052567484 -0.0014211396 -0.0007502851 -0.0011137761 -0.0027146116 -0.00042291635 0.0005481597 -0.0012868074 -0.0026218374 -0.0012127879 -0.0030455675 -0.00019261225 0.0019737852 -0.0009588266 0.0009947807 0.0017055904 0.0028295224 0.0019150372 0.0031824491 -0.0031997128 -0.0026514134 -0.0021570923 -0.0025548774 -0.0026202272 -0.0025963818 -0.0009395007 0.00055661186 -0.00092902343 -0.0029732015 0.001665897 0.00036404762 0.0015369505 0.002366683 0.0025733078 -0.0003232963 0.0012112081 -0.0017593914 0.0006259614 0.0016268131 0.0033847122 -0.0010516442 0.00089130027 -0.0018621042 -0.0007023549 0.002654521 -0.0012990625 -0.00040798864 -0.003142726 -0.0031553556 0.0029343283 -0.001908716 0.0017232304 -0.0023361307 -0.00081590336 -0.0026946932 0.0024267524 0.0020893016 0.0017342546 0.0027943118 -0.00016534243 -0.0031166754 0.0030384688 -0.0016248636 0.002542308 0.0018632049 -0.00043009364 -0.0025262686 -0.0005526542 0.0020200177 -0.002454906 0.00039504582 -0.0026901718 0.0029245534 -0.0009352288 0.003101024 -0.0019526886 -0.003284092 -0.0029299578 -0.0012682453 0.0015361921 -0.00014173145 0.0030983067 0.0010668072 0.001180749 0.00093815144 0.0027106416 -0.0008790024 0.0025076687 -0.0031390816 0.0009899397 -0.0001856093 7.000029e-05 0.0023073298 -0.0010225957 -0.00081779057 2.0813328e-05 -0.00013689917 -0.0012412843 0.0021289135 -0.0021973557 0.0026472737 3.818193e-06 0.00091845845 0.0010273018 -1.991341e-05 0.0005316445 -0.0010822638 0.0015600835 0.000163791 -0.0010995811 -0.003033411 -0.0033720378 0.000112901165 -0.0018938391 -0.00024906348 -0.001519178 -0.0029340975 0.00038773956 0.0020521972 -0.0006421374 -0.0024851686 0.001095188 -0.00013740655 -0.0018542549 -0.000343514 -0.00019755804 -0.0010364387 -0.003256778 0.0025861915 0.0013066777 -0.0009215681 0.0024328688 0.00017983864 0.0023887032 -0.00056824007 0.002529143 -4.5369008e-05 -0.0020527826 -0.0016352424 0.0032397928 0.00022752734 0.00041347046 0.0028997106 -0.0019677742 -0.0005300554 -0.0026792674 -0.0020880336 -0.0028241284 0.0013515876 0.0008606249 0.0019242857 0.00077486236
Correctiv 0.0006765291 0.0019660296 -0.00073574943 0.0010566522 0.0028094756 5.0327606e-05 0.0021380202 -0.0021415302 0.002163457 0.0015142567 0.0017218128 -0.003339813 -0.00017918918 0.0011072876 -0.001953775 -0.00225404 0.0021885347 -0.0023147815 -0.0017380151 0.0026403782 -0.0023651123 0.002831794 0.00023441449 0.0015042898 -0.00103172 -0.0017987613 -0.0030770118 -0.00016877402 -0.0017466039 -0.0010741783 0.0027411447 -0.0025553368 -0.0021114366 -0.0017721467 -0.0022041702 -0.002897803 -0.00031419276 0.00309768 0.0026995554 -0.0017534734 -0.0027260224 -0.00076274434 -0.0031048837 -0.0017277997 -0.0019067166 0.0010565867 -0.00251832 0.00044925493 0.0007921553 0.0017956212 -0.0006706641 -0.003230594 0.0017570445 -0.0019246266 0.0016589857 0.0006818199 0.0029377195 0.000543662 -0.0005675301 0.0022053185 -0.0023709477 -0.0028113124 0.0013124311 -0.0008421516 -0.0013935266 -0.0006023539 -0.0032573207 0.00015117718 -0.0003761006 -0.00097167655 0.000845193 0.001598985 0.0021326223 -0.0026624412 -0.0016292658 -0.0029022174 -0.0030285888 -0.0012477922 -0.00044438298 -0.0027642741 -0.0018346338 -0.0007128277 0.002108833 0.00066073425 0.0028069513 -0.0027787234 -0.001463486 -0.0002769896 0.002978403 0.00038279808 0.0005119431 0.00042930298 0.001018765 -0.0031063852 0.0011620068 0.0018549204 0.0017731455 0.0014367916 -0.0026905201 -0.0013564058 0.0027540948 -0.00018463361 -0.0031602627 0.0016087071 -0.002020758 0.0021534197 0.0017927907 -0.0016637248 0.0007906419 0.0018341098 -0.0012256689 -0.0005032712 0.003052864 0.003040968 -0.0031189935 0.002551376 0.003302433 -0.0009590559 0.00087235915 -0.0010245265 0.0028891247 -5.739589e-05 0.0019108371 0.0030681286 0.0013648074 -0.0023060804 -0.000624183 0.0002780618 0.0007211474 0.00101953 0.0032002141 0.0014917307 0.003392978 -0.0029843103 -0.0018718367 0.00072417577 0.0011928652 -0.00033954903 -0.0023636802 -0.0011157591 -0.0027961654 0.0030475801 0.0011617927 -0.0025835186 0.001071272 0.0014036733 -0.0019418462 -0.0020016017 0.00038059853 0.0029387625 -0.003177202 -3.0320869e-05 -0.0022862991 -0.00031324368 0.0010009292 -0.0016242572 -0.0009868471 0.00020822918 -0.0021480513 0.0024872066 0.0014686337 -0.0028193893 -0.00076540373 0.0010924031 -0.0027723557 -0.0023178451 -0.0028072463 -0.0018079883 0.0029539114 0.002449281 0.000920855 -0.0028255968 0.0019181417 0.0015756735 0.000111969384 -0.0029313932 -0.00065691967 6.13142e-05 -0.0025422042 0.00083325483 0.00013282488 -0.0023307672 -0.0028148808 0.0020002201 -0.0028245205 -0.0018659853 0.001958727 -8.561285e-05 -0.0010050241 -0.0017750438 -0.00035853527 0.0017899051 -0.0020390642 -0.0016566458 -0.001653132 -0.0016212045 -0.0026487992 -0.0032823056 0.0025196897 0.002696592 -0.0014458307 -0.0031129227 -0.0006356564 -0.0013022519 0.0030730113 0.0009532992 -0.0019892508 -0.0010650419 -0.0033038524 0.0006468647 -0.0013126504 -0.00097243395 0.0017421894 0.0024776128 0.0014964014 -0.0023180824 0.0021751085 -0.0033165766 -0.0023981826 -0.002702116 -0.00073568756 0.00018189974 -0.00130257 0.0005612535 0.0030284836 0.0021831281 -0.0002717965 0.0030046308 0.00047031452 -0.00064666255 -0.0021668093 0.0021022903 -0.0030690671 -0.00063295313 0.0024915778 -0.00081805344 0.00056660944 -0.0024313147 0.0016978034 0.0023864324 -0.0030798109 -0.0011543413 0.002604462 0.0010217074 4.1990967e-05 6.91429e-05 -0.003257944 0.0032993671 -0.0006518932 -0.0016096968 0.00095737184 0.00031889378 -0.0019081737 0.0018959526 -0.0008595039 -0.0020840683 0.0024820215 0.0021471856 0.002835827 0.0003605429 0.00017226917 -0.0026253867 0.001657712 0.003021057 -0.00027207544 -0.00055991136 -0.0012089963 -8.682858e-05 -0.002614952 0.0019283853 0.00048097447 0.003079157 -0.002123323 -0.0016844693 -0.002054279 -0.002370244 0.0009577883 0.0016729212 0.00036752736 0.0011765361 -0.003105831 -0.00035840995 -0.0026283038 0.0010173672 -0.00092049746 0.0029448082 -0.0011954476 0.0023015833 0.0013967425 0.00050608045 5.5449334e-05 0.0028354006 0.00084578956 0.0027919856 0.001228672 0.0018485594 0.0017353324 -0.0025781372 -0.0018775242 0.00033881658
in 3.0762843e-05 0.0007843497 0.00032359394 0.002523896 -0.0014833339 1.4722327e-05 0.002397436 0.00088741863 0.001381654 0.0013570079 -0.00038442953 -0.0028048325 0.0009628521 -0.002913761 -0.0009128417 -0.003151105 -8.486227e-05 -0.0026562572 0.0024390828 -0.0017198216 0.0032553982 -0.003029777 -0.0014174809 0.00069046504 -0.0010384234 0.0004997962 -0.0013418071 -0.00026163057 -0.0019727787 -0.0033273983 0.0021449937 0.00012784546 0.0021652798 -0.0025188092 0.0012187734 -0.0032247393 0.0026083468 0.0019114059 -0.002006601 0.0027404304 -0.0018700344 -0.0028695539 0.00048121248 0.0009996878 -0.0025935555 -0.0029093088 0.003056393 0.00059474417 0.0003355675 0.00086175144 -0.0011684062 0.0006123255 0.0006805516 0.0033264882 -0.0018282979 0.00079068117 0.0021075113 -0.0021771237 -0.0029329697 0.0029381232 0.0022548053 -0.0013657667 0.0019731217 0.00028411904 -0.0016649311 -0.0003964543 -0.0015767813 0.002124904 0.00062090444 -0.0027473236 -3.8117367e-05 -0.0008260301 0.0022322345 -0.0004090215 0.002615692 0.0006756717 -0.0013205474 0.0027129971 0.0009648941 -0.0013606764 -0.0019142666 -0.0010192873 -0.0017195288 0.0013194305 -0.0030553655 -0.0019479488 0.0011929506 5.95998e-05 0.0020528638 -0.0011704902 1.3638384e-05 0.000834732 0.0018763262 0.00056878885 0.0033698021 0.0012875454 -0.002374467 -0.00053900643 -0.0027873127 -0.0017764773 -0.0007690444 -0.003219947 0.0030767557 0.00070795685 -0.00038445747 -0.0019238883 -0.002834023 -0.003279169 0.0028935247 -0.0007981818 0.001484493 -0.0015097585 0.0033194784 0.0012477282 0.0003620779 -0.0013159662 0.0004132579 -0.00088659336 0.002522777 0.0013734524 0.00033361337 0.0012134534 0.0012685556 -0.0022591203 0.0029699286 0.000653174 -0.0019164351 0.0028232373 -0.00037652245 0.0027709631 -0.0004334219 0.002362842 0.0010248132 -0.001569161 -0.0011940007 0.0031436097 0.0005056523 -0.0020056206 5.257964e-05 -0.0007096579 0.0005923835 -0.0026940792 0.0023612024 0.00048417778 0.002629562 0.0014973115 -0.001535774 0.0012136918 -0.00017577654 -0.0033469517 0.0028037718 0.0031793164 0.003227816 -0.0012787104 -0.00284945 0.0016795485 -0.0026267392 0.002826259 0.00088409195 0.0019473545 0.002056777 0.00020181036 -0.0007685302 0.00030071908 0.0032853624 -0.0023303758 -0.0005058683 -0.0007677938 0.0016201674 0.0022590153 -0.0014325889 0.0012427918 -0.0014892062 0.0011282897 0.0028189302 0.0012281922 -0.0015628609 -0.0010118767 0.0026871255 0.003206047 0.001902913 -0.001063876 -0.0006845109 -0.0021006695 -0.0014914984 0.0011171602 -0.0020345654 -0.0021104808 0.0027327586 0.003113353 0.0027679445 0.0005425846 -0.0029995241 -0.0025292234 0.0005199077 -0.0032233987 -0.002459975 0.00063725404 -0.0009755851 -0.0030135876 0.002117739 -0.0029839815 -0.0024644663 -0.0006645815 0.0006333347 -0.00036895738 -0.0017348011 0.002264873 0.002924278 -0.0024743527 0.0032700808 0.0023653812 -0.0024694323 -0.00071034423 0.0014617073 0.0023097163 -0.0012978443 -0.0024674279 0.0014860583 -0.003052413 -0.0019291441 -0.00039356167 0.0017859194 -0.0019521639 0.001553248 -0.00018864647 0.0009897759 0.002096848 0.00039648794 0.0025905373 -7.377612e-05 -0.0028341827 0.0030097568 -0.0016077595 0.0014767803 -0.0012525923 -0.0024038802 -0.0021599324 0.001607917 -0.00030171135 0.000512238 -0.003044321 -0.0017545134 -0.0019688804 0.002850246 -0.0029509815 0.0017124246 -0.00030848722 8.736001e-05 0.0029575373 -0.001149782 -0.0023383084 0.00032847168 0.0025355846 0.0030163925 -0.0012608642 0.0009939994 0.00164575 -0.0018881855 0.002247746 -0.002158518 0.00072067144 0.0016462376 0.0013436385 -0.0016158337 0.00091629743 0.0025230537 0.0029623548 -0.0032573198 0.0019081354 0.0016283714 -0.00055639725 0.003079256 -0.0013857202 -0.0005685037 -0.002220748 -0.001205284 0.0001370886 -0.0011810977 -0.0018042672 0.0022206411 -0.0017740038 -0.0021549517 0.0025985308 0.003181719 0.0013120655 -5.4016775e-05 0.00029115067 -0.00029594495 0.0023422826 -0.0020015847 0.00030498474 0.0015024035 -0.00066002575 0.00044905458 0.0012925537 0.0032836446 0.00068383693 0.0032267105 -0.002032099
mit 0.0015546245 -0.0011269875 -0.001454179 0.00041283376 -0.0013629654 -0.001996731 0.0010977134 0.0029286921 -0.0022190448 -0.0031216901 -0.0010653842 0.0024738363 -0.0032567335 0.0032400042 -0.00014469757 0.00074872514 -0.00052331766 -0.0019722304 0.0010003017 0.0019709498 -0.0024009151 -0.00042633383 0.00054528035 0.0014607356 0.0023356392 -0.0011638105 0.0022975127 -0.0017977706 -0.0007916911 0.0029628836 0.0018470129 -0.0028144477 -0.00058250484 -0.002991644 -0.0005386093 0.0019493403 -0.002392305 0.0017615843 0.002061696 -0.0012513977 -0.003239953 -0.00085277244 -0.0008624369 0.0011833808 0.0030950753 0.0007114448 -0.0006988671 0.0010337409 -0.0022256796 -0.00039388557 -0.00051043154 0.003247883 -0.0019256853 -0.0022765556 0.00083684444 0.0009004548 -0.0023813632 -0.0018970896 -0.0003376006 -0.001035863 -0.002995109 -0.001369132 -0.0009038344 0.0021896383 0.00031978675 0.0005896523 0.00016396806 -0.0010246864 0.0009949183 0.00026844052 0.0020310073 -0.00021728937 -0.0029479107 0.000264493 0.003355134 -0.0017123607 -0.0017961422 -0.00083568564 0.0028416172 -0.00034346897 0.003078867 -0.002772444 0.002991452 -0.0030617842 0.0031182233 0.0006100274 0.0009898712 -0.0019442795 0.0028762764 0.002030696 -0.0018223489 -0.0031800382 0.002392221 -0.0017932082 -0.003000861 0.00089208107 -0.00164524 -0.0025285035 0.0032572325 -0.000545546 -0.00052586134 -0.0013321235 -0.0014900056 -0.0015208189 -0.0018653221 -0.0018476229 -0.0026689717 0.0031828657 0.0020386581 -0.0011501869 0.0007749173 -0.0025338423 0.0025001492 0.0027867004 0.0002814069 -0.0022360198 -0.0009720008 0.0015618448 -0.00091668713 0.00092660455 0.0031144158 0.0014950914 -0.0016962832 0.0018151515 -0.0009826748 -0.0020433755 0.0023539152 -0.0031426286 -0.00031003833 -0.00042502064 -0.0027247884 -0.000343377 0.0019913088 -0.0018760188 -0.0022616205 0.0021650093 -0.001151501 -0.0026249555 2.0223e-05 -8.7401095e-05 0.0025834506 6.0605915e-05 0.002499282 -0.0032069134 0.0013453362 0.002093026 0.00025369643 -0.0009752637 0.00038236743 -0.00036598276 -0.002641851 -0.0022929767 0.00041519685 -0.00067725027 0.0031587933 -0.00023112383 0.0019526468 0.0006680933 0.0026675821 -0.0030521702 0.0008061049 -0.0004476498 0.0006434471 -3.878403e-05 -0.0021953366 0.003062915 -0.00091960037 0.0006502106 -0.0021567075 0.001357721 0.0032559272 -0.00037092628 0.0021795963 1.1430421e-05 0.0027384409 0.003231618 -0.00017533643 -0.0005459596 -0.0031051193 0.0033150513 -0.00088602555 0.0007559636 -0.0006286627 0.0027548817 0.0027190482 0.0004885097 0.0010985212 0.0022430834 0.0007758723 0.002100457 9.701249e-05 -0.00071267004 0.0016991597 -0.0011319573 -0.0008795347 0.002861063 -0.003053394 -0.001162973 -0.000965291 0.0019369076 0.0026280326 -0.0021522697 0.001907206 -0.00015833117 -0.002954717 -0.00084328704 -0.0005247728 -0.0014160752 -0.00028071416 -0.0017326754 0.001986424 0.0030162348 -0.00051884557 0.0010424743 -0.00021312188 -0.00030813666 -0.0024103154 0.0003420086 0.0012038279 0.0022568442 0.0021908875 0.0012041407 0.001508755 -0.0025307157 -0.0005115045 -0.0019930606 0.0023875623 0.0025896537 -0.0015061395 0.0004323484 0.0017527343 0.0005099943 0.00020427718 -0.0022473792 0.0031723476 -0.0023723617 -0.0019515578 -0.0018695857 -0.0020548122 -0.0012546863 -0.0031044069 0.0002967337 -0.0013016652 -0.0007898003 0.0019735293 0.0011343622 0.0006728485 -0.00047110335 0.0033078806 0.00013453659 0.0017266776 0.0029394696 -0.0031697135 -0.0030823953 0.003262591 0.0009010328 -0.00053584477 0.0015528897 -0.0015872918 -0.0021944034 -0.0027368893 0.0024340407 -0.0006746602 -0.0026555625 -0.0020255921 0.0021127206 -0.0007255836 -0.0019382571 -0.0006531969 -0.00044856576 -0.0011009759 -0.0007072589 0.0014048734 0.00049865415 -0.0011493146 0.0009942098 0.0017738839 -0.0029870672 -0.0026231804 0.002092461 -0.0029271122 0.0001550809 -0.003060543 0.0028436205 -0.0014636351 -0.0022316144 -0.00053684233 -0.00034542097 0.0025372696 0.0031264634 -2.7656377e-05 0.0010500489 0.0016505689 9.487167e-05 -0.0017445853 -0.00015840065 0.0007833604 0.0027121399 -0.0011352111 -0.0033805
Bundesregierung 0.0017501131 0.0033407041 -0.0023777632 -0.00019494654 -0.0016843864 0.0020540324 0.0032726515 1.6579172e-05 0.0016883148 0.002110022 0.0015084483 -0.00270412 0.0009964178 -0.00046029544 -0.00073975814 0.0017773724 -0.00036690474 0.0032767688 -0.00023992355 5.9728222e-06 -0.0008046953 -0.0028610064 -0.0032582167 0.0016850873 -0.0022393032 0.0010007765 0.000817125 -0.0023012664 -0.0010957045 -0.001992025 -0.0028244723 1.6900856e-05 0.003248229 -0.0022565753 -0.0014478742 0.0028294034 0.0031707324 0.0032105232 -0.0032674216 0.0016803136 -0.0022314142 0.0022899345 0.0020344749 -0.0011787865 0.0023843695 -0.0025765698 0.0015190162 0.0015713781 0.00201521 0.0019957805 -0.0008902664 0.0013297528 -0.002018012 -0.002100861 0.000955493 -0.0031265367 -9.531625e-05 0.00041393016 0.0027095224 -0.0022813939 -0.00078112155 -0.0013911806 -0.0016797149 -0.00014692736 0.0015385177 -0.0016202083 -0.0004951734 0.0029659306 -0.000471994 -0.0011680402 0.0024966407 0.00045466315 -9.3065886e-05 0.0031316378 0.0027530359 0.0011734938 0.0010712994 -0.00076392264 0.0026720844 0.0016412406 -0.0018514454 -0.0020258273 -0.00021760647 -0.0024832196 0.0011579474 -0.0030869136 -0.00043127072 0.0011081776 0.0010593254 0.0010763222 -0.0030131259 0.0011388139 0.0018324576 0.0011941752 0.0026944652 0.00058226933 0.0021109944 0.0028829032 -0.00029935178 -0.0002836017 0.00071681495 -0.0025043671 0.0018584117 -0.0016487766 -0.0010801535 -0.00068801694 0.002735062 0.00075345626 -0.0003773858 -0.0009144445 -0.0007420181 -0.00041923305 -0.0017037302 -0.0013563257 8.319855e-05 0.0015634983 0.00061882316 0.0022984112 0.00026423455 -0.0011805925 -0.002474307 0.0020437255 0.002349901 -0.0020283929 0.0015504332 0.003235336 -0.0021156212 -0.0010207676 -0.002979177 0.0011136554 -0.0010824174 0.00070117856 0.0032400428 -0.002896745 -0.0030526218 0.00065505883 -0.0026930587 -0.0030344771 -0.0031806747 -0.0001609055 -0.0003098207 0.00013863514 -0.0005335899 0.003065978 0.0029318512 -0.0020973082 0.0028285775 -0.003041221 -0.00041588524 0.000782361 2.105596e-05 -0.0012987064 0.00016389282 0.00033395083 -0.00317102 -0.0015688082 -0.0026345265 0.0012568716 -0.00033845706 -0.0024392602 0.001885838 0.000118015516 0.0008353028 0.0018475672 -0.0013902885 0.0026503948 -0.0025958011 -0.0011380354 -0.0024572709 0.0004135096 -0.002519981 0.003042012 0.0018411148 -0.0023668143 0.0021420869 0.002214267 -0.0025182255 0.0015641995 -0.0025154671 0.003109142 0.001534283 -5.746816e-05 -0.0030400835 -0.00032553347 -0.00014745661 0.00029441886 0.0029998869 -0.00084755244 -0.002872113 -0.002987332 -0.0003213929 0.0004956753 -3.3513887e-05 -0.0007336318 0.002846722 -1.4749834e-05 0.0021396887 0.0013046777 -0.002405905 -0.0006725155 -0.002614909 -0.002257808 -0.0010695992 0.0021342493 -0.000223521 0.002941342 -0.00076272903 -0.0017068209 0.0012889294 0.0007528074 -9.014342e-05 -0.0008983336 -0.001989361 0.001279331 -0.0025068559 -0.0030248547 -0.003114816 0.0026786388 0.0012522751 0.002323371 0.003323364 -0.002393777 0.0013037736 0.0008910754 0.0020119494 -0.0011755691 0.003206585 -0.001956082 0.002276341 0.0023470744 -0.00010617237 0.0016180217 0.0021675364 0.00051387516 0.002369073 0.0008467456 -0.0004723665 0.0024827714 0.001612244 -0.001124357 0.00057629775 -0.00011594798 0.0016187397 -0.0017580799 -0.0013563076 -0.0003618904 0.0013210301 -0.0022103214 0.0026330978 -0.0010006679 0.001960785 0.0009107607 0.0023471839 -0.0015219017 -0.0010938025 0.0009987238 -0.0008548106 0.0019752895 -0.0020985526 0.0008227264 -0.00023809963 -0.00019169661 0.0009641443 -0.0008378233 -0.001474905 -0.0028094142 0.0009096313 0.0018716054 -0.002037902 0.0030788467 0.0013328333 -0.0017465752 -0.0004179224 0.0013145321 -0.0023154574 0.0007551665 0.0018744471 0.002144512 0.0017291426 0.0012157297 -0.0008784571 -0.0020393946 0.0026659137 -0.0023950436 -0.0005749853 -0.0011050929 0.0021042044 -0.0020735736 0.0011565497 0.0007488171 -0.0012849327 -0.0026290326 -0.0026193128 0.0012057975 -0.0030491622 0.0019410037 -0.0009225656 -0.0030957775 -0.0016545608 0.0024972674
Treffen -0.0006256691 0.0022286603 -0.003121028 -0.0030456928 -0.0017431563 0.00019877736 -0.0023222545 -0.0029700585 -0.0029948016 -0.00024985743 0.0025164164 -0.0028464904 -0.0018335907 0.0005586063 0.0010762507 -0.002853508 0.0027185872 -0.0027851416 0.00155028 0.003026046 0.0018235788 0.0020233039 0.0027721545 0.0012134521 -0.0024370332 0.0019298774 -0.0029239743 -0.0018447697 0.0019020068 -0.0027209334 -0.0019105515 -0.0011832644 0.0011145015 0.0017106801 0.0006843934 0.0017816707 -0.00077615894 0.001352518 -0.0023127352 -0.00054478936 -0.0025980892 4.9212653e-05 0.00154778 0.0015169196 -0.0014180336 0.0006473227 0.002609673 -0.0018122914 -0.0012133518 -0.00015346226 -0.001579081 0.00294624 0.002546441 0.0031454142 0.0031755895 -0.0027845353 -0.0001471143 -0.0024767967 -0.0015317522 -0.002881594 0.0011086348 5.9827817e-06 -0.0022250786 0.0026751834 0.00032694318 0.00015794598 -0.0011100457 -0.0009971997 -0.0009254437 0.0025805302 0.0008128396 -0.0016595951 0.0016102907 0.00029339243 -0.0008411137 0.002612964 -0.001371181 0.0024702451 -0.0014389252 -0.0025070035 -0.0015684068 -0.0012918353 -0.00025311921 -0.00039386348 0.0017482705 0.0018031665 -0.00046857662 0.0012320429 -0.0006106996 0.0002745981 -0.00044555348 -0.00082696654 -0.0015081174 -0.0013731688 0.00016920795 0.00060378853 -0.003128103 0.001948407 -0.00055216596 -0.0010011346 -0.0016449856 -0.0014199375 -0.0016308504 -0.0032319326 -0.00025097307 -0.0027055598 -0.0016071664 -0.0024320076 0.0031973699 -0.00040896915 -0.002645716 0.0018421118 -0.0027127853 -0.00060629926 0.00093984377 -0.0023023204 -0.0028929089 -0.0022230379 0.0025701567 0.0028732156 0.0013243457 0.0008620357 0.0014242376 -0.001358461 0.0032443549 0.0024017948 0.001387158 0.0029067528 -0.0027298096 0.00035954025 0.0030494991 -0.000276116 -0.0021054388 -0.000910231 -0.0008498708 -0.00073023315 -0.0006349464 0.0024159034 -0.00019360756 0.0013364928 -0.0011752476 0.002576187 -0.0023057547 -0.0030477436 -0.0013696821 -0.0024473695 -0.0017311027 0.0001188899 0.0008488937 0.00048713665 0.0017424888 -0.0005120271 0.000777202 0.00011079471 0.0025761588 0.002771903 -0.000764845 0.00039288405 -0.0020562836 -0.0015047602 -0.0022962114 5.2784362e-05 -0.0017172527 -0.0012958467 0.00052439386 0.00092576817 -0.0030161424 0.0006154612 0.0017111069 0.0015257222 -0.0010562493 0.0032025652 0.0031453571 4.2024607e-05 0.0004021041 -0.0030527331 -0.0016522384 -2.3962572e-05 0.001437865 5.7915397e-05 -0.002960242 0.0019626184 -0.00256175 0.0028257372 0.0017704885 -0.0022703693 0.001113783 0.0026937544 -0.0020059908 -0.0022486134 0.0031356306 0.0006522852 0.0031558136 -0.0032926565 -0.0005143006 0.0022386732 -0.00047616588 -0.0006215594 -0.0023680711 -0.001833153 -0.0022005448 0.0029683546 -0.000547689 -0.0028697634 0.0027439287 -0.0010122134 -0.0004333044 -0.00013741835 0.0009322207 -0.0015751916 -7.035652e-05 -0.0010605532 0.002941077 0.002192373 0.00040915931 -0.0020968872 0.00095379003 0.0001921963 -0.0021531843 -0.0019695282 -0.0009995813 0.00083491416 -0.0027640415 -0.0017331376 0.0026414632 -0.0012940813 0.0027852166 0.00012990698 -0.0019339474 -0.0016193812 -1.7261913e-05 0.0014349084 -0.002100565 -0.0018353419 -0.0023963382 0.0023034997 -0.00074204826 0.001361281 -0.00047893584 -0.002575963 -0.00037652123 3.3258715e-05 0.0011474832 -0.0028207938 -0.0022149945 -0.0022513568 0.0010559229 -0.0012746927 0.00035770948 0.0014302215 0.0015695074 0.00074134767 -0.00085600826 0.000153945 -0.0018379996 -0.002150162 0.0030170865 -0.0013540526 -0.0032738012 0.0011961928 0.0028150391 -3.286665e-05 0.00091273943 -0.0013379777 -0.0014667275 -0.0028272346 -0.002499904 -0.0029014056 -0.002101933 0.0028854918 0.0031202855 -0.0005886209 4.0431503e-05 0.0026426874 0.00045401795 -0.0016281862 0.0009358084 0.0006785646 -0.0013538784 -0.0016305805 0.0032612658 0.0025406706 -0.0029213147 -0.0017884979 0.0004318363 0.00027331797 -0.0028622274 0.0031452365 -0.0017590283 0.0016176702 0.0031917181 0.00054292474 0.0015042351 -0.0008499116 -0.0030302987 0.00026040408 -0.0002988293 -0.003364736 0.0024169558 -0.0025704629
es 0.001679577 -0.0014121261 -0.0030822996 -0.0030266603 0.0020823968 -0.001818108 0.0017911514 -0.0004260326 0.003210052 0.0023352439 0.003322647 0.0027725631 -0.0026619826 -0.0031606064 -0.0018800294 -0.0002857904 0.001722069 0.0011952701 -0.000701957 0.001613493 -0.0011748198 -0.0022919104 0.0015830752 -0.003256038 0.0002677677 -0.0016522586 0.00244759 -0.0012209675 0.0008900099 -0.0021243058 0.0032275142 -0.0018655873 0.001184839 0.0010493014 0.002979604 -0.0018069065 -0.001411176 -0.0021232457 0.002076036 -0.0015263213 0.0015943634 -0.0003106145 0.0024132389 -0.0020521842 4.6966943e-05 1.6209575e-05 -0.002848223 0.0029448734 -0.00067418575 0.0021690459 2.9317698e-05 0.001698261 0.0007560208 0.0029962496 -0.0027521532 0.0028371261 0.0028843367 0.00038550753 0.0015084136 0.001314531 0.0013429961 -0.0010025281 0.0009935119 0.00027182687 0.001611354 0.00283921 -0.0025375357 0.000112834496 -0.0029373597 -0.00050779915 -0.0029991863 0.0010949408 -0.0005089076 -0.00024770977 0.0021839119 -0.0026710278 0.0003413069 -0.0008121931 -0.0012586574 -0.0024594273 -0.0026911222 0.0027745615 -0.002488077 0.0017322358 -0.0012383398 -0.00041137115 0.0010030216 -0.002872716 -0.0018429287 -0.0025530283 -0.0031260995 -0.0015800379 -0.0010145338 0.00018321711 -0.00016607296 -0.002590707 -0.0012465477 -0.00096148776 -0.002122017 -0.0021262427 -0.00089439616 -0.0026405673 -0.0027675603 -0.0025127744 0.0011818839 -0.0025975308 -0.0012386333 0.0022162343 0.0024050674 -0.0021021166 0.0022335008 -0.002589367 4.4941316e-05 0.0022228751 -0.00093076774 0.0031008183 -0.00010438978 0.0015624207 0.0023678099 -0.0029359665 -0.0020229924 -0.0023896075 -0.0003704716 -0.0023621074 3.323962e-05 -0.0026243725 0.00018477192 -0.00018649863 0.0021992764 -0.002931236 -0.0010080839 0.001988892 0.0031624346 -0.0006857172 0.0002952167 -0.0019643146 0.0002543006 -0.0027256575 -0.0026005574 0.00041143186 2.3808516e-05 0.0017647331 -0.0033137868 0.00058825867 0.0005325799 -0.0017325265 -3.0772215e-05 0.0019944077 -0.0021813419 4.0899955e-05 0.0013443545 0.0005397102 0.0009611789 0.0027162542 0.0022042787 0.0012186135 0.0026050142 -0.0025724564 0.0024810508 0.0013483175 -0.0019520172 -0.0013616174 0.0020806298 0.0019687463 -0.0032737188 0.00044244155 -0.00012159847 0.00028669141 0.0023552042 -0.0023113214 0.0031773862 -0.003134868 0.0020717245 0.0031969515 -0.0012022346 -0.0031163273 0.0020254091 -0.0029877755 -0.0027206454 -0.0002712877 -0.0022383945 0.0029291587 0.002557542 0.0002586928 0.0026230398 0.0032738752 0.0018247261 0.001507626 0.0018091833 0.002101137 0.001610699 0.0021591762 -0.0025343278 0.002955004 0.0027636653 0.0030902983 -0.0030003176 -0.0011796507 -0.00011984002 0.0014142874 -0.0027535455 5.260215e-05 0.0020002252 0.0031334 -0.00090443576 0.00058303186 0.0021061385 -0.000613529 0.00064928114 -0.0031091124 0.0002382221 0.0014562602 0.0015053358 -0.003300975 -0.0016870762 0.00095743797 0.00048008238 -0.0016647734 0.0018801233 0.0011468016 -0.0025869736 0.0032982521 -0.002605808 -0.0010542917 0.0032169728 0.00035345802 -0.0017729544 0.00035689553 -0.0014164655 -0.0022285099 -0.0025635725 0.001531342 -0.0030469273 0.0013580697 -0.0019073058 0.0018446724 -0.0014230368 -0.0018525589 0.0021548348 -0.0029364377 0.0004660315 -0.00076512154 -0.002258713 -0.0025254574 0.0022853275 -0.001525875 0.0015594536 -0.0032304665 0.00065988174 -0.0006376097 -0.0019317514 -0.00095137255 -0.0028261153 -0.0011887434 -0.0008734235 -0.0007840488 -0.0016459437 -0.0030672464 0.0016959105 -0.00045539698 0.0020486934 0.0010340257 0.0029379646 -0.0012586559 -0.0030119002 0.00047377954 -0.002936672 0.002088899 0.0027527937 0.00020469571 0.002549064 0.0028192475 0.0014155087 0.001811376 0.0030565318 0.0004408048 -0.0027172503 -0.00273536 -0.0006615273 -0.00021187469 0.0029669313 -0.0031100928 -0.0008994091 0.0030788821 -0.00050921395 -0.0030349505 0.000628269 -0.0019310085 -0.0018154916 -0.0020697531 0.00010307909 0.0025059872 0.0014259282 0.0027461112 0.0030539609 0.0015430452 -0.0019782137 0.0023328257 -0.0031313766 -0.001667313
in+die 0.0026491638 0.0026562468 -0.0018209093 -0.002660993 0.0026956494 -0.0013041373 -0.001332444 0.0024413054 0.0018001462 0.0012448347 -0.0003933037 0.002871579 0.0028020001 0.0023383657 0.0030220759 -0.0019353064 0.00036767917 -0.00055967976 0.0021118554 0.0032380242 0.0017136349 0.0013496333 0.0021840483 0.0019771135 2.1702363e-05 -0.0027838065 -0.0007687842 0.0030453661 -0.0017077287 0.0003093355 0.0016446338 -0.0023110732 0.0027203641 0.00049192307 0.0008076199 0.0027912043 0.0005214691 0.0002744022 -0.003131977 0.00328983 -0.0032902576 0.0028522215 0.0016788942 -3.5524652e-05 -0.002594629 0.0031372325 -0.00045132553 0.0017997267 -0.0009910013 -0.0016236472 6.369828e-05 -0.0026682962 -0.0022067025 -0.0031395887 0.001798396 0.00015486669 -0.00029895882 0.0017238468 -0.000629549 -0.0024422046 0.0009483178 -0.001983099 0.0001944368 0.003163391 -0.0003193314 0.0020590937 0.0014985896 -0.0011479177 -0.0017524475 0.0029574775 0.0007042262 -0.00014259006 0.00030527983 -0.0016529768 0.0011925882 -0.0010245896 0.0013790048 -0.0015158228 -0.00028624714 0.0012942917 -0.0024046076 -0.0008336449 -0.0029107083 0.0005858412 0.00069041 0.00080149545 0.00038658342 2.8172934e-05 0.00075373653 -0.000315403 0.0019732558 -0.0009848112 -0.0016780826 -0.001761633 -0.003182255 -0.0026915297 0.00071729266 0.0013039119 -0.0019189662 -0.0032325324 -0.0020630108 0.0015636607 -0.0030357565 0.0016980205 0.002114728 0.0020142414 -0.00253574 0.00094852236 -0.001851352 0.0030293316 -0.0014538028 -0.0007777802 0.0017343445 -0.00026802134 0.0016970863 -0.001395459 0.0016661885 -0.0032733718 0.0020447655 -0.00045697883 -0.0018667118 3.2023472e-06 -0.00038575102 -0.00023457801 -0.00059275836 -0.0030662299 -0.0025916626 -0.002285155 -0.0028583757 -0.0014946728 0.0030883262 -0.0005967682 -0.0024969564 -0.0020106372 0.0012236628 -0.00088067376 -0.0005336855 -0.00142071 0.001957953 -0.0026317565 -0.002487483 0.0024679485 -0.0023606273 0.0007430506 0.0001306986 0.0032226848 0.0013866883 0.00066937425 0.0009373544 0.0007487532 0.0007450524 -0.0009233868 0.0013614121 0.002030066 0.002972896 -0.00022758824 -0.00044218046 0.0021388622 -0.0028371145 -0.00018970825 -0.002220476 0.0016034163 -0.0030032347 0.0010981736 0.003000401 -0.00067354966 -0.0029375323 -0.0027113855 0.0010820029 -0.0017409968 0.0021243256 -0.00037904293 0.0026177564 -0.00015479198 -0.0020425026 -0.0018883776 0.00024446184 -0.0015846973 0.0022076967 -0.0011757229 -0.0018873714 0.00032418378 -0.0016468226 -0.0027422626 -0.001770654 -0.000620673 0.00019187693 0.0012467819 0.0022873802 0.0022161987 0.0019696204 0.000117233474 -0.0019636007 0.0030012093 -0.00022276094 0.0015482276 -0.00046498358 0.0019251078 0.0017647138 -0.0024159343 -0.0009287673 3.2647356e-05 0.0006699716 -0.0031285314 0.0016286962 0.0011148404 -5.718538e-05 -0.0011414062 -0.002533619 0.0025348708 -0.0028611529 -0.0024906164 0.0014923356 -0.002862737 -0.0010836245 -0.0007275867 -0.0006600033 -0.0023335244 0.0013926445 0.00031389866 0.0012256051 -0.00043606377 0.0022920517 -0.003191593 0.0019275658 -0.00173514 0.00060198223 -0.002331169 -0.00084507273 -0.0021380233 -0.0011065906 0.0032190299 0.00087163504 0.0005317413 -0.0020633724 0.0018809121 -0.0026965742 -0.00075251044 -0.0021396803 -0.0021552788 0.0007782635 -0.0011241554 0.0007993256 0.001331494 -0.0020804764 -0.0006046085 -0.0009115932 -0.0032706975 -0.0032736987 0.000380927 0.0014787843 6.164329e-05 -0.0015910451 0.0012036662 0.00054545596 -0.0031560974 0.0024344758 0.002585716 -0.0026256177 -0.00027046475 0.0020188896 -0.0009189799 -5.9362865e-05 -0.0014552642 0.002017402 0.0023410192 0.0007231583 -0.0015317852 -0.00064707745 -0.0013249516 -0.0032580774 0.002599529 -0.00019805496 -0.00019600752 0.0023752737 -0.002987973 0.0021252092 -0.0024993848 -0.0018185907 0.0016884917 -0.0011545835 -0.0011581499 -0.0021209763 -0.0012988152 -0.0009024086 -0.0013729588 0.0031257346 0.0031693117 -0.00011375081 -7.156288e-05 -0.001847067 0.0026925094 -0.0016256521 0.0019849727 0.0030891106 0.0019344254 -0.00029546194 0.0018235861 0.0023372003 -0.0013246633
zu 0.00019509764 0.0022120543 0.0019354691 -5.5984954e-05 0.000792643 -0.0022418008 -0.003081796 -0.0015500665 -0.0018187838 0.00014359393 -0.0012999341 -0.00015313052 0.0025157789 0.003273402 0.0026022512 0.00077571307 -0.0008510102 0.00078099815 -0.00091665227 -0.003048731 0.0022629001 -0.0029105635 0.0012786901 -0.0012940398 -0.0018740456 -0.0003428661 -0.002278416 0.0028949792 -0.0023247153 -0.003026878 0.0019491629 0.0014899228 0.0015714571 0.00078574754 -0.0012374701 -0.0016602892 0.00064016465 0.0027300927 -0.0018652884 -0.0007936416 0.0006035299 0.002233523 -0.002143941 -0.0015597463 -0.0008057825 0.00047908793 0.0017883236 0.0018713954 -0.002875661 0.0024518166 -0.0008446925 -0.00091798464 -0.0029247242 -0.0018716853 0.0031790042 0.0010507116 -0.0026834272 0.0009661192 -0.002319824 -0.002977145 0.0012785408 0.0006549091 0.00046694366 0.002968132 0.002086747 -0.0016551409 0.0009601493 0.00090883207 0.0007713636 0.0027957966 -0.0022910808 -0.0007262226 0.00035431073 0.002103379 -0.00017759361 0.0026587753 -0.0015832081 -0.003021118 -0.0023644813 -0.0014244361 0.0031480705 -0.0017095767 -0.0016301979 0.0028421779 -0.002468051 0.0006587909 0.0019707617 -0.0025181079 -5.0723538e-05 -0.0007773762 0.0018580325 -0.0015252805 -0.0021535435 0.0033241578 -0.0014631414 0.0025595173 -0.002817986 0.002295403 -0.0011251747 -0.0026127298 -0.0004148765 -0.00079106516 -0.00062468037 -0.00037461723 -0.0021659397 -0.0012452025 -0.0010719723 0.0025831137 0.0018967338 -0.0002733323 -0.0016365604 0.0017605191 -0.0029435346 0.00057264866 0.0013507196 -0.0006152381 -0.001495657 -0.0027512738 -0.002712586 0.002302531 0.0012062904 -9.3948416e-05 0.0032560865 -0.0028607992 0.00018777268 -8.685036e-05 -0.0026732534 -0.0030696609 0.0024363354 -0.0011938994 -0.002581857 0.0026706834 -0.001999832 -0.0011154783 0.00063486095 -0.0010592521 -0.002671117 -0.0013209933 -0.0030508651 0.0004210486 -0.0014936582 -9.221585e-05 0.00083547604 -0.0007568216 0.002942843 0.0023607723 -0.00024426475 -0.00023410938 0.00030539103 0.002190684 0.003023859 -0.0006585582 -0.0005222507 -0.000993517 0.0001487749 -0.0021006055 -0.00067215564 -0.0028860283 0.00019280247 0.0005177001 0.0012558737 -0.00093345443 0.0019313621 -0.002334007 0.0032839011 0.0002097095 0.00077532773 0.0014602214 0.00015018223 0.00093871634 0.00049383036 -0.0031894918 -0.0010489717 -0.0008286847 -0.0030131543 0.0011567398 0.0015712251 -0.0006929007 0.0025254833 -0.00039419517 -0.00012278243 0.0019471494 -0.0028713504 -0.0023218119 0.002413581 -0.002205875 0.0029101572 0.0018429714 -0.002658099 0.002769161 0.002145025 -0.0022003327 -0.002868992 -0.0029338633 0.0012705273 0.0020790098 -0.0007159401 0.00042183566 -0.002796751 -0.0016758754 0.0015613493 -0.0030279218 -0.003092857 0.0002880536 -0.0028243614 -0.0023278827 0.0015876092 0.002721641 -0.0024524073 0.0026954205 0.0031337023 0.0015114803 -0.0014604827 0.0031654523 -0.0025541745 -0.0013389802 0.0005960313 -0.0026397794 -0.0033477445 0.0009340211 0.0027393429 -0.0016818255 -0.0014737813 0.0012546844 0.00020743806 -0.002877638 0.0022591155 -0.0010751167 0.0011306683 0.0010711452 0.0029844083 0.0028545123 0.0023982243 -0.002754441 0.00033658082 -0.00029643398 0.00032711518 0.0029833564 0.0016282354 -0.0030361186 0.003289255 -0.0003526188 9.9701e-05 0.0016844283 -0.00203744 -0.00017562472 0.0004974028 0.0023411477 0.0014348439 -0.00062164984 -0.0027882862 -0.0013358215 0.0029776923 -0.0032010418 0.0032648153 -6.6292305e-05 -0.00031788176 0.003189241 0.0030978825 0.0027264857 0.0029943916 -0.0033025767 0.0025908805 -0.0032086824 -0.0026095728 -0.0029135288 0.00077940244 0.0024721643 -0.002165334 -0.0008655455 -0.00078744773 -0.0015066094 -0.00041081556 0.0016297806 0.0012535527 -0.001031082 -0.0012102968 -0.0007352682 -0.0011395416 0.00131339 0.0032759113 0.0026049307 -0.0025624495 -0.0021132012 -0.003066845 -0.0019952916 0.0011675599 -0.001996145 0.0005805728 0.0030107514 0.0011696497 0.0005036495 0.0030321344 0.0021761772 -0.00036729506 -0.0020393305 -0.00032403908 0.0023951924 0.0025368745 -0.0014066605
sich 0.0033126033 0.0008070213 0.0017091947 -0.0018905404 0.0014612917 7.65033e-05 -0.0031923805 0.001697032 -0.0030068043 -0.0021611834 0.00093058485 0.0030913271 -0.00071076804 0.0023315507 0.0016876421 0.0013551712 -0.002061124 0.0016917405 -0.0027744852 -0.0014465025 0.0018110266 -0.0027189367 0.0019122091 -0.0011603037 4.003286e-06 -0.0024471553 -0.002087021 -0.0011009829 0.0028618837 0.0017790069 -0.0032295727 -0.0021914863 0.001144957 -0.0028403562 0.002218655 0.0020559495 -0.0030955703 0.0028798205 0.0026159568 -0.00059632026 0.0005936804 -0.0019016948 0.002071673 0.0025620523 0.0013562713 -0.0029488853 0.0016494823 -0.0010189574 -0.00073121686 0.0020385906 0.0006150542 0.0015439542 -0.0020904813 0.0017523844 -0.0011775206 -0.00012487579 0.0020729024 0.0013629914 0.0024945403 -0.0013029417 0.001182515 0.0024331936 -0.0010919248 0.001923126 -0.003136555 0.0029513869 0.0012566885 0.0017734227 0.001546532 0.0015247813 -0.0011020919 -0.0020670136 -0.00075767585 0.00045984093 -0.000976402 -0.002825679 -0.0020978404 0.0027790852 0.003112835 0.0019836738 -0.0013712894 0.00023151636 -0.0028605945 0.00222969 0.00015688369 0.0024579684 -0.0017856242 -0.00094975746 0.00095727306 0.0011553556 -0.002180658 -0.0024547032 0.00068074104 -0.0030018524 0.0019360243 0.0018247236 -0.0012711012 -0.0018855917 -0.00277599 -0.00063230103 0.002324473 -6.8759786e-05 -0.0026505142 0.002966907 -0.0028500212 0.0018464442 0.002156117 0.00032764202 -0.0029035017 0.0020603656 -0.00262163 -0.0016729336 0.0032103318 -0.0027583514 -0.0025420934 -0.0016315822 0.0011534016 0.0006368075 -0.0018485126 -0.0011004275 0.002861561 0.00325949 0.0033067993 0.00034641856 0.0013445137 0.0004609551 0.0005585909 0.0016087291 0.0007382118 0.00010067099 -0.0010444218 -0.0021719278 0.002671457 -0.0019977223 0.00093171344 -0.0003038466 -0.0012198065 -0.0016491823 0.0010687679 -0.001955901 -0.0024953086 -0.00088934647 0.0015573128 0.0020160258 -0.00048552235 0.0024329626 -0.0025358407 -0.0015805057 -0.0026198742 -0.0020206396 0.002438087 -0.0030950145 -0.002882411 -0.0032739388 0.0030652871 -0.0008831445 0.0003256906 -0.0020442673 -0.0008480081 2.9022314e-05 -0.00083059154 -0.0024540122 -0.0020691915 0.00084836624 -0.003163068 0.00038454795 -0.000662067 0.0027607717 -0.00013235286 0.0020771015 -0.002366167 -0.0025223722 0.001848382 0.00031500086 -0.0016885004 -0.00088402757 0.0029204357 -0.0030607725 -0.0012189025 0.0003353705 -7.30744e-05 0.0031742419 -0.0006518278 -0.00236571 -0.0025627287 -0.0033008573 -0.0025968673 -0.0020047107 -0.0019806032 -0.00047419814 -0.00017539307 -0.001568299 0.00070866715 0.0012888826 0.0030110627 -0.0015554612 0.001709182 0.0024153858 -0.0012523803 -0.0024759816 -0.0011140922 -0.0022974308 0.0021643867 0.0031246848 0.0027611102 -0.0028476696 0.0016827866 0.0017053129 0.001877586 -0.002774963 5.141694e-06 -0.0022818088 -0.0029709106 0.0008261382 0.0033120762 0.0021627452 -0.0023609952 0.0007690473 -0.0013054385 0.0033088212 -0.0029330356 0.0032432065 -0.0021736163 -0.00234047 0.0005402578 -0.00022709019 -0.0028322875 -0.00020712722 -0.00012516961 -0.002088395 0.0019177157 0.0010533228 0.002798698 0.0024691192 -0.0022198888 0.0015972762 0.0019012891 0.0019269605 0.0017393446 -0.0016009383 0.0014416676 0.00043420412 1.9861767e-05 -0.0021505808 0.00050915446 0.0017508084 -0.0030671535 0.002869436 0.0010004179 -1.3055557e-05 -0.0011200858 0.000115900126 0.0020352805 0.0015871365 -0.0019847713 0.0026221818 -0.00020668088 -0.0027214542 0.002948857 0.001688483 0.0012088135 0.0026358697 -0.0025015755 -0.0019517418 -0.0006728439 -0.0013644965 -0.00052777736 -0.00018883243 -0.0028015343 0.0006395152 0.00085206825 -0.00028394448 0.0016255518 0.00048945576 0.0019945486 -0.0007419583 0.0028455346 -0.00051817775 0.0010198526 -0.0012621892 0.0020463066 0.0010265198 0.00017866457 0.0029237778 -0.0026146574 0.0032341385 0.00025761765 -0.0007827405 -0.0013755012 -0.0030320366 -0.0007338443 0.00090494717 0.002198243 0.0030280442 -0.0029064557 0.0030228426 -0.002944463 0.001242423 0.0026799256 -0.0008432809
sein -0.002636946 -0.0027452467 0.00036192997 -0.00026169076 -0.0031662348 0.0009858648 0.0007852637 0.0015525253 0.0014521582 0.0010353082 -0.0032537782 0.0019006582 0.0013979449 -0.0025616856 -0.00070328114 0.0001063299 -0.00016426649 -0.00034805894 -0.0018603371 -1.8680274e-05 0.0014486406 -0.00023765478 0.00027985082 0.00072426215 -0.0013400016 -0.0026115023 0.003003761 -0.0032521123 -0.0008493317 -0.0004511678 -0.0025276204 0.00058302743 0.002632906 -0.0005300357 0.0027061168 0.00013590693 -0.0018885552 -0.00069050724 -0.00022553623 0.0020854753 0.0023642865 0.0020655314 -0.0020044583 -0.0023457238 0.002077954 0.0008523082 0.0017856082 0.00018420698 0.002631742 -0.0029521585 0.003297627 -0.0027272534 -0.0005715953 0.0021026658 -0.0030604054 0.0014609649 -0.0023334227 -0.002254524 0.0007966879 0.0006057858 -0.0009346182 0.0026212188 -0.0023031137 0.00017049577 0.0029060293 0.0006991486 -0.0022651707 0.0012251766 -0.0016912138 0.000202365 0.0009718706 0.0025531559 0.0024691753 -0.001642539 0.0031943796 -0.0018117203 0.0025107276 -0.0026597606 -0.0026131487 -0.00037429555 -0.002736683 -0.0011499908 -0.00016254278 7.3939605e-05 -0.0032854679 -0.0021737032 -0.00242703 -0.00012985927 0.0017556344 -1.6162841e-05 0.0033202835 -0.0013002155 0.0027265025 0.002043278 0.0027918404 5.1848976e-05 -0.0001273371 0.0005973393 -0.003297758 0.0030084979 -0.0008123854 0.0025182914 0.0006685189 0.00096650893 -0.0004248685 -0.003343937 0.00047177213 0.0009724312 -0.0033081912 -0.001278474 -0.00079366454 -0.001685661 0.001326294 0.0007117798 0.0014490731 -0.0021437565 -0.0019944669 0.0015690075 0.0022935206 0.0017807202 0.0016006131 -0.0023962627 0.0027341417 -0.0023124318 -0.0025601725 0.0028710624 -0.00080970203 -0.0031625722 -0.001004106 0.0020095536 -0.00092872913 0.0016573229 8.856614e-05 0.00128717 0.0004215315 -0.0030615504 -0.0012288776 0.0029408818 0.00047685782 -0.0019929293 0.0023692597 0.0024375024 0.0023684253 3.31561e-05 -0.0030402746 -0.0011538871 0.0016813178 -0.0021809484 0.0032711884 -0.0032903505 -0.0026885709 -0.0017940575 0.0020109713 -0.0025514283 0.0028743113 -0.003259252 0.001133143 0.0010885161 3.391108e-06 0.0032048656 0.0017019875 0.000112255024 0.0015714298 0.0021697374 0.0009973322 0.00316451 -0.00042892122 -0.0027803318 -0.0014996557 -0.00043827455 -0.0024510738 -0.00050478557 0.0026470094 -0.0016552246 0.0017374023 0.0014710271 -0.0002582833 0.00036182234 0.0019257126 -0.0021964784 0.0012770714 0.0029851208 -0.0012055562 -0.0025424422 -0.0030965116 -0.0030028936 0.0013504211 0.0017582119 0.002349368 -0.0005064323 0.00033155154 0.001036901 -0.003326471 -0.0031378912 0.0015278996 -0.0028326057 -0.001054099 -0.001453377 0.0019695952 -0.0011137493 0.0033165305 0.00017920752 -0.0017199927 -0.0012612916 0.0004414857 -0.0018050874 0.0024599459 0.0030329544 0.0014249263 -0.0024463392 -0.0019724353 -2.158796e-05 -0.00033031436 -0.0018819979 0.0026690832 0.0020509555 -0.0014312073 0.0007356393 0.0016700808 0.00077858084 0.0028771446 -0.00041578183 -0.0021972312 -0.00030578533 -0.0028076274 0.003244197 -0.0028145001 -0.00051063515 -0.0009768893 0.0010579681 0.0016769147 -0.0027799886 -0.0015029133 0.00015488546 0.0012895967 0.0017330114 -0.00044481113 -0.0002008388 -0.0025921494 0.0014851947 -0.0025327548 0.0010586588 -0.0011640191 -0.0025731851 0.0023147133 -0.00017830498 -0.0031656479 -0.0031360176 0.0002198363 -0.002721117 0.0012750005 0.0011379246 0.0011582741 -0.0018835528 0.0026369626 -0.0029991807 0.002517033 -0.00021196686 -0.00056439097 0.0012999804 -0.0008312547 -0.0014471316 -0.00073267915 -0.0021276912 -0.00014296015 -0.0017663207 0.0015684643 -0.003137957 -0.0015043693 -0.0030402406 -0.0032232273 -0.000257854 -0.0026818465 -0.0018995429 0.00094039843 -0.00044308254 0.0010642359 0.0027752952 -0.003261222 0.002026512 -0.0026476372 0.0021690254 0.0024544303 0.0028811204 -0.0026810088 0.0011029786 -0.002652332 -0.00039703475 -0.0017181428 -0.0028094668 0.0016854878 0.0015466209 -0.001325372 -0.0025759777 0.0012513108 -0.0012840171 -0.0029254803 -0.0014842097 -0.0006936107 0.0028754484
aus -0.0021933806 0.0025134746 0.002004032 -0.001638248 -0.000601372 -0.00091807405 0.0010957512 -9.129621e-06 -0.0009573992 -0.0030969766 0.0021811656 -0.0032438906 -0.0029331301 0.00049962546 0.0009591002 -2.1078848e-05 0.00020148496 0.0008222958 0.00057935214 0.0024317077 -0.0011978791 -0.0024285237 -0.0026087891 0.0026827483 0.00061572547 -0.0019224692 0.0020071235 0.002855134 0.0025981902 -0.0023323253 -0.0016889385 -0.0006681187 -0.002220816 0.0015501911 0.0018869801 -0.001928043 0.0024674125 -0.0026204702 0.0021011608 -0.0015390532 0.00064247276 -0.0010967728 0.001113556 0.0025091474 -0.00036082766 -0.0016035757 -0.0028490121 0.0012575411 0.0014438096 0.0022659823 -0.00143794 -0.0032039182 0.0023025558 -0.0014511662 0.0015228903 0.0027122237 -0.0013134737 0.0005819721 -0.0011490239 -0.0021536201 -0.0019154435 -7.1502e-05 -0.0024498117 -0.00064786506 -0.000822126 0.0022856994 0.0005154156 0.0020406265 0.0012404057 -0.0011410931 -0.0016768855 0.003277817 0.0023855953 -0.0030409875 0.0018021258 0.0027638178 0.0030192717 -0.0026963705 -0.00069222256 0.0003228807 0.00092188513 -0.00053923734 -0.0015829777 0.0023279246 0.0023535986 -0.00013996472 -0.0018627205 -0.0014658185 -0.0016655477 0.0014439798 0.0001873731 -0.0007843431 -0.0029732054 -0.00046023363 0.002242409 0.0021551226 0.00142284 -0.0010191168 0.0030277874 0.0001950001 0.00033562566 0.0020729161 -0.002219017 0.002205226 0.0032627052 0.0011275989 0.0011332098 0.0014124579 -0.00073156663 -0.0026649125 0.00045096935 0.00030469502 -0.0022815207 0.00067737384 0.0018451638 -0.0023535534 0.0008535334 0.0025802897 -0.0028020428 0.001063918 -0.002864511 -0.0025890954 0.0024015028 -0.0025231992 -0.00045261224 -0.002558352 -0.0026145594 -0.0024298262 0.00018948206 0.0006451289 -0.002570737 -0.0026595567 -0.00095118134 -0.00072488596 -0.002001763 -0.0013248048 0.0011864132 0.0010265368 0.0021360223 0.0013510749 -0.00022878172 0.00079990993 0.0029180464 0.0006867169 0.0006046142 0.00038358636 -0.0031756386 0.0017484331 0.0017273888 -5.6812645e-05 0.0031300613 -0.001941246 0.001094054 -0.0026094222 -0.0030124905 0.0007392444 0.0015180793 0.0020277395 -0.0029329336 0.001523303 0.0008159674 0.0014314369 -0.0002920547 0.0018877923 0.0024404796 -0.002749581 -0.003297301 0.0023564484 -0.00031886733 -0.0030182719 -0.0014268241 0.00043622145 0.0028173223 -0.00051770185 -0.00024578313 -0.0024359142 -0.0025941243 0.00048482596 -9.201167e-05 -0.0025648337 0.00025452784 -0.002967922 -0.00089596136 0.0013930959 0.00031182045 0.0026020806 0.0023104262 -0.00030191048 0.0016795741 0.001994948 0.002957637 0.0030651698 0.0015844178 0.0015413442 0.0023848615 -0.00056368916 -0.0018771129 0.0029201529 0.00039326728 -0.0016457594 -0.00030592576 -0.0017422617 0.0030172996 0.0010549999 0.0014936755 0.002147213 0.002726213 -0.0015260295 -0.002130042 -0.0012487744 -0.0012219504 -0.0032350325 -0.00018993979 -0.0027751755 0.0033015602 -0.0011840317 -0.002180173 -0.0028375166 -0.0012821166 -0.0032323978 0.0002894541 0.0018325918 -0.0010102639 0.0024968935 -0.000669611 -0.002469007 -0.0009343412 -0.0010789696 -0.0024421245 -0.003202277 -0.0013239492 -0.00060450216 0.0016077161 -0.002532748 -0.0017560793 0.00049546635 -0.00051751727 0.0011957234 -0.00058620377 0.0013684 0.00268699 -0.0027018606 0.0012240268 0.0020544017 -0.00014738034 0.0022061858 -0.0017593224 -0.0015547085 -0.0025955504 0.0031915132 -0.0030804174 -0.0011094279 -7.420906e-05 -0.0016647239 0.003129743 -0.0023124923 -0.002596189 0.0030882384 -0.002901937 0.0031920972 -0.0013725491 0.0019170792 -1.904771e-05 -0.0014510046 -0.0025647625 -0.0020576348 0.0023672122 0.0022025802 -3.4238135e-05 0.0021822306 0.0012580515 0.0012512511 0.0009097886 -0.003230523 0.0031136135 -0.0026657903 -0.0009530264 0.00053521764 0.0016594472 -0.003072796 0.0005954157 0.0021101618 -0.0029783198 0.003227927 -0.0017733872 0.0031712567 -0.002243706 0.0022227843 0.003146931 -0.0030106977 0.00018573302 -0.00243901 0.0027796112 0.003237785 -0.0018663948 0.0003302275 -0.0006945846 -0.0026343495 0.000338613 -0.0033862418
eine 0.0008407005 -0.0025124394 0.0018737506 0.0025161235 -0.0008518352 -0.0014030313 -0.0031688137 0.0017366257 0.0009532354 0.002859687 0.001129648 -0.0009970593 0.0011611427 0.0028956104 0.0030698173 0.0025266293 -0.0027929402 -0.0025606346 0.0024076495 -0.0025357816 0.0010501376 0.0026586223 -0.001048606 0.002291543 -0.0027530992 0.0021702368 0.001776233 0.0011430698 -0.0027438295 0.0030142842 0.0027741338 -0.0005214195 0.0013562683 0.0021027115 -0.0005767868 0.0018744197 -0.0013001948 -0.00047780928 -0.0003887284 -0.0013809117 -0.000244997 -0.0025642258 0.0012020967 0.002977524 0.001663932 0.0021633725 -0.0015679366 0.0016407404 -0.0022073714 -0.0016330626 0.0032932193 0.0021555375 -0.0016506382 -0.001990544 0.0024359142 0.000918037 0.0021961194 -0.002215765 -0.00028262736 -0.00027802054 -8.68161e-05 0.0007311879 -0.0021998952 0.0014741862 -0.00091111765 0.0028115523 -0.0003025944 0.0031163825 -0.00030398605 0.0017528656 -0.0025152569 -0.002998885 -9.742477e-05 -0.00076978875 0.0033506264 0.0015302922 -0.0018937438 0.0024513393 0.0001780173 -0.0032094717 0.0018621949 -0.0006624518 -0.0031426318 0.0030233238 0.0024422267 0.0028366495 0.00018255564 0.0025641243 0.0017622022 -0.0023014457 0.003090423 -0.0011944838 -0.0032056614 0.002880142 -0.0016976671 0.0028209987 -0.002604313 0.003051826 -0.0019699114 0.0013255294 0.0032335597 0.0014112471 -0.000731038 -0.0016399598 -0.0032401315 0.0013462879 0.0024814531 -0.0015666138 0.0019086287 0.0023100998 -0.0030344978 0.0007028755 -0.002293348 -0.0014267685 0.00029645173 -0.0023120327 -0.0013690141 -0.002510309 -0.002296982 -0.002392521 0.0033012747 0.0028030162 -3.7243895e-05 -0.000874055 0.0020786377 0.0005077084 -0.0029863021 -0.0023898322 0.00037698323 0.0026743452 0.0011153304 0.0032989848 0.0022653716 9.4827865e-06 0.0029339965 0.0030514535 0.0026679668 0.0031269602 -0.0031791094 0.0011308442 -0.0025640954 -0.0024709308 -0.002884611 0.0011080467 4.181481e-06 -0.0021132436 0.0017947961 0.0026108096 0.0014621546 0.0025578465 -0.0013841823 -0.0021548038 0.0013345049 -0.0009748105 -0.0024053573 0.0012697984 -0.0011651819 -0.0017457971 0.0008504851 0.002324162 0.0021423541 7.344913e-05 0.0028438393 0.0010141609 0.002197379 -0.0002656126 0.0007181565 0.0020747462 -0.003263668 0.0020245034 0.0003801654 0.0020514668 -0.00048730467 -0.0008706081 -0.0017939641 -0.0009337279 -0.00088518346 -0.001704063 0.00037068996 0.0026679486 0.0016783461 -0.0025343345 -0.0025172548 -0.0009791263 0.0012643585 -0.0031171045 0.0021304004 0.0011108374 -0.0009277736 0.0030265683 0.002719211 0.00026578427 0.0015644248 -0.00309772 -0.0029366806 -0.0010199439 0.0031042746 0.0010568036 0.0018725034 -0.0022234134 0.0013926585 0.00013217462 -0.00031422172 -0.0011467456 0.0016878323 -0.0030477075 0.001713475 0.0019356554 -0.00081982766 -0.0014041591 -0.002453927 -0.0021884674 -0.0016962974 0.0009934582 -0.0015736908 -0.00044400524 -0.0030228102 -0.0012673668 -0.0003237514 -0.0026739438 0.0010993014 0.0032701842 0.0014275202 0.0005853615 -0.0016639068 -0.00041492278 0.00082480616 0.00055316655 0.0028902655 -0.00029220706 0.0023674762 0.0018716791 0.00096860074 0.00243341 -0.0017157635 -0.0012824504 0.0023645908 0.0028851458 0.0010897963 -0.0014234963 0.002570744 0.00084906403 -0.0001052636 0.0029926938 0.0014629829 0.0012835877 2.9726169e-05 -0.0029831626 -0.0010335178 0.00083196163 -0.0018275413 0.0023432886 0.0025438694 -0.0030124804 -0.0018255161 -0.0020128773 -0.00015399093 -0.0006103029 -0.00077789696 -0.0007653632 0.0011984443 0.0032280092 -0.0014345272 -0.0028494196 0.0012122168 -0.0021245042 0.0022878284 0.0009570671 -0.0026907432 -0.0025634957 -0.0030951337 0.0007767447 0.00093770085 0.0008843879 8.1996426e-05 0.0003985539 0.0010491189 -0.0004750191 -0.0027374802 -0.000207719 0.0012594137 -0.0008756263 -0.0007452169 -0.00072474574 0.0023996506 -0.0010304805 0.003101412 -0.0012727397 -0.003300809 -0.0021377876 -0.0013919356 0.0005207813 0.0017562514 0.00073781284 0.0031241404 0.00033137307 0.001906567 1.41660885e-05 -0.00066062086 0.0020152123
Zeitung 0.000649957 0.0027993557 -0.00278593 -0.002922487 -0.00019269568 -0.0006822319 -0.00074816216 -0.00010990364 -0.0017153983 -0.0027184135 0.0027681757 -0.0011449662 -0.0009828033 -0.0005184001 -0.0004297099 -0.0030784206 -0.0005550165 -0.00047223375 0.002869739 -0.002710214 -0.0016203434 -0.0006382808 0.0009766624 -0.001969979 -0.0018781162 -0.0026431133 0.0017684537 -0.0028856313 -0.0011174289 6.0839306e-05 0.00050029333 -0.0033185491 0.0028842324 -0.00069955824 0.00011592322 -0.0028859244 -0.0026787287 0.0012114741 0.001356761 0.0010022924 0.0019484694 -0.002315603 -0.00043144423 -0.00094448176 -0.00040419048 0.0015339251 0.00045986383 -0.0024531884 0.0011003324 0.0021012016 -0.0020310953 0.00109923 -0.0014163275 0.0029722615 0.0014023215 0.00069854624 -0.00034106497 -0.0030145587 0.002922781 -0.00057559373 0.0024390724 0.0012432461 -0.0027223593 -0.00018948368 0.0009231117 -0.00082704466 0.003277789 -0.0016059037 -0.0024076765 0.0012869602 -0.0011865329 -0.0022598088 0.0007018726 0.0017371493 -0.0017967223 -0.0014344322 -0.0024191309 0.000503118 -0.0015979757 0.0027996164 0.0002085637 0.00061861426 -0.0011116343 0.0025670405 -0.00019503561 -0.002742085 -0.0024004225 5.709172e-05 0.0026121913 0.0010495712 -0.0017639677 -0.0022467982 -0.0032460245 0.0013271734 -0.00311696 0.0010959862 0.0005650515 -0.00031079768 -0.003314742 0.0019630839 -5.824538e-05 -0.0032996323 -0.0025261694 0.00287232 0.00062027323 -0.0027907875 -0.0002755498 0.001820862 -0.0031637012 -0.0022726126 -0.0003697103 -0.0032586858 0.00015576543 0.0006642844 0.0028621766 0.0003505101 0.0004363232 0.0016204714 -0.0013823356 0.0023393412 6.223919e-05 -0.00019346498 -0.0032044689 0.00017719058 0.0022680878 0.0006416968 -0.002687864 -0.0011561596 -0.0019790332 0.0020342283 -0.0021174138 0.0017756998 -0.0016773365 -0.0023488146 -0.0024975792 0.001319813 -0.0029500506 -0.0019061252 -0.0024007636 -0.0014756841 -0.0013014334 0.00041675274 0.0021030651 -0.00036990046 -0.0018237819 0.00051949744 0.0018282221 -0.0017809694 -0.0017457082 0.0016798631 0.0021253391 -0.0026142402 0.002745815 -0.0032846879 -0.002485629 -0.0019200725 0.00055863016 4.805775e-06 0.0011342723 0.002386182 0.0016159392 -0.0010312635 -0.002183319 -0.0027170244 -0.00015713353 0.003280032 -0.0025500823 0.0012369351 0.0014580837 -0.0013721487 -0.0023578575 -0.0017863197 -0.0016768463 -0.0023094786 0.0020363408 -0.0025651064 -0.0010041812 0.0014518369 0.000103754115 -0.002558762 -0.0015842381 0.0012135889 0.0007941605 -0.00065397506 -0.000279251 0.0008518976 0.00055447925 -0.000818295 0.001796311 -0.002586941 0.002157923 -0.0033063283 -0.0007940739 0.0022305641 -0.0012084121 0.0021513142 0.0018215113 -0.0024928604 -9.0786285e-05 -0.0014731997 -0.0026935423 -0.0003007246 0.0021217035 0.0028527398 -0.0016417284 -0.00090517325 -0.0020113841 0.00042941674 0.0008899315 -0.0032851791 0.00081669475 -0.0029949876 0.0001377572 0.0015337731 -0.0017218214 5.9174028e-05 -0.00077302544 -0.0029868905 -0.0008563539 0.0014594212 -0.002834198 -0.0019582468 -0.00021560266 0.0026390143 0.00043207608 0.0032241542 -0.0024936425 0.0029705628 -0.0016173944 -0.0021107972 -0.0025869522 0.0005754252 -0.0009583601 0.0025149123 -0.00022920968 0.0008632701 0.0020100314 -0.002876377 -0.00066731166 -0.0016396065 -0.0028678456 0.001097992 0.00078648794 -0.00076493795 -0.0006108253 -0.002275248 -0.0010667067 0.00041954062 0.002602964 0.0023681216 -0.0011659702 0.0011966045 -0.000806631 -0.0016071135 -0.0012221789 -0.002072024 0.0012145014 -0.0025878889 -0.002587967 -0.0015108502 0.0024566983 0.00062150863 0.0018950546 0.0026619527 -0.0021151688 -0.0015245241 0.002609682 0.0017041618 0.0015020967 0.0030292475 0.002912896 -0.0009131825 0.00035788855 0.0018391901 0.0029864411 0.0033191259 -0.002712838 -0.001677607 0.0016059852 0.00031963218 6.240337e-05 0.0025042465 0.0021020574 -0.0023813725 -0.0008922936 -0.002838922 0.0023118418 0.0009403866 -0.00072348927 0.0006612901 0.002617912 0.0027996798 0.0021037967 0.0010816398 0.0006053242 0.0027511278 0.00046746279 0.00011844992 -0.0031446621 0.00078916125
weit -0.0028466645 0.0022132413 -0.001960317 -0.00058265956 0.00032724164 -0.00070300506 -0.002984887 0.0014489343 -0.0022017467 -0.0030055558 0.0013343594 -0.00026594274 0.0021317536 -0.0023212938 0.00024183156 -0.00024497643 0.001976596 -0.0032752326 0.001947156 -0.0030641214 -0.002638039 0.00021109375 -0.0008542109 -0.001260066 -0.0018143641 0.0013854298 -0.0032064868 0.00043018506 0.0013662131 -0.00013687722 -0.00014586326 0.0023887919 -0.0032001107 -0.0030463429 0.0014927947 0.0029746464 -0.0025381027 -0.0028299654 -0.00019149207 -0.0030015518 0.0006881356 0.003082133 -0.0020474764 -0.0023203916 0.00306546 -0.00021464711 -0.0012492171 -0.0008625354 -0.002889793 -0.0015131952 -0.0013829288 0.00012451032 0.0002547302 0.0025915666 0.002311426 -0.00047430082 -0.0033205552 0.00091703096 -0.0019994664 0.0030865043 0.001261124 -0.0003637547 0.0022713158 -0.0011447103 -0.0012232503 -7.148298e-05 0.002862138 0.002059446 0.00048875256 0.0012729011 -0.0009776067 0.00313185 -0.0023634054 -0.0011029588 -0.0017104165 0.0029157076 -0.0010847632 -0.0007963392 0.002370878 -0.0032946102 -0.0010249869 0.0009810452 -0.0021081972 0.0030585995 0.00041009893 -0.0017673069 0.0017353328 0.0026673349 0.0003506553 0.002275737 -0.0022711728 -0.0012068285 0.0033770376 0.0019178209 0.00063053233 -0.0011344838 0.0014762705 0.0007730772 0.0027951468 -1.7099548e-05 0.0028370405 -0.001954085 -0.0025681965 -0.00044206815 0.0010000812 -0.0007398124 0.0019578019 -0.0028021259 -0.003078506 0.0025624782 0.0020719203 -0.001372364 -0.0013404562 -0.0011594126 -1.7197814e-05 0.00305501 0.00033481998 -0.0006847242 -0.0010568039 -0.0007879522 -0.0030663346 0.0023093969 -0.0029821473 -0.0010233927 -0.0023835325 0.0030758237 0.0019543867 -0.00019388279 0.0013400458 -0.0007991868 0.0033523897 -0.0011855947 0.0017272338 -0.0013634678 0.003240804 0.0032280278 0.002065709 -9.663565e-05 -0.00060922373 -0.0029421945 0.0031629691 -0.0029247198 -0.002287268 0.0019093675 -0.000754948 0.0026710466 -0.0026851024 0.0030443743 0.0007755978 -0.0029291622 0.0013735822 -0.0016641003 0.002155134 0.0021863023 -0.0029480213 0.0022124678 0.0016886756 0.002146765 -0.0023794498 -0.0021486585 -0.0029456269 0.0017773663 -0.0013957173 0.0016247462 0.0016051403 0.0027326904 0.00078353356 -0.00035253895 0.0004914145 0.001092796 -0.0029833794 -0.001972572 -0.00031729537 0.0016864161 3.2747495e-05 -0.0031989547 -0.00025332987 0.0023913297 0.002179478 0.0011620707 -0.0015813609 -0.0012154614 -0.0007457824 -0.0020216033 -0.002920818 -0.00020184314 0.0007157993 0.0016846288 0.0012219627 0.0028248036 -0.0022161105 0.003135368 -0.0011717777 0.00027073617 -0.0014328231 -0.0013980486 -0.0004884929 -0.0025262432 0.0029985786 0.001557937 -0.00076124613 0.00062223565 0.0025903217 -0.0019418792 0.0013157079 0.00021807043 0.0009673045 -0.0006437446 -0.003288294 0.0019440176 -0.00047480996 -0.002839453 0.00023350456 -0.0021418966 0.0025800844 -0.0021764203 -0.0006102366 -0.00025439134 -0.0014952355 -0.0011666983 0.00245079 0.00064536225 -0.0031616073 -0.00014663312 -0.0032020516 -0.0011035862 0.0017471064 0.0012069525 -0.0019888051 0.00051588035 0.001965574 -0.0025766885 -0.0011663642 -0.0008110379 -0.0030500768 0.0007364274 0.002210548 0.0008092815 0.00083737716 -0.0003323741 -0.0002415131 -0.002157621 -0.00022074264 0.0022404618 0.0010409663 0.0001402299 0.0026481573 0.0009123645 -0.002461039 0.0024665296 0.003226202 -0.0030789631 0.0024635107 -0.0025582293 -0.0001512559 0.0015246978 -0.0018447486 -0.002669675 -0.0025404897 -0.0033397723 -0.0022231166 0.0032137537 0.0010819093 -0.0031342723 0.0027892205 0.00244137 0.0026958487 0.0032926395 -0.0029721472 -0.00069477933 0.00068904203 0.0007926491 0.0016515942 -0.002556166 0.0016103176 0.0033776427 -0.002955056 0.002674638 0.0009937491 -0.001383692 -0.00047521215 -0.00285925 -0.0025468078 0.0018841688 -0.0010772893 0.0033036107 -0.0027292778 -0.002338006 0.0020598362 0.0026747282 0.0013019921 0.0025519123 0.0022272514 -0.0018837042 0.0030484644 -0.0020696064 -0.0009216032 -0.002027923 0.0020888385 -0.0015425714
dies 0.0009937832 -0.00047407378 -0.000429061 -0.0019488448 -0.0019260857 -0.0012819164 0.0001703345 0.00060824846 -0.0011338037 0.0005748961 -0.0018630837 0.0033031045 -0.00031907717 -0.0022777396 -0.00063408114 0.002630405 -0.00030107802 -0.0017463978 -0.0027224722 -0.0020275344 -0.0011080976 0.0025577103 -0.002381288 0.0005270579 -5.336841e-05 0.0013160213 -0.0027510084 0.0026878335 -0.0009773327 0.00171523 -0.0031369627 0.0016983472 -0.0027613658 -0.0011078945 -0.00039563395 -0.0011533682 -0.00016979733 -4.271698e-05 0.00153774 -0.0007285369 -0.0013487455 -0.0020606874 0.0027571756 0.0014757676 0.0031199232 0.0018752767 -0.0015293204 0.0028072891 -0.0022700378 0.0010547842 -0.0011149683 0.00012939025 0.0012696121 -0.0008998803 -0.0014352009 -0.0006236991 0.00017547024 0.0022042566 -0.0018933455 0.0016075171 -0.0012580013 -0.0026650403 -0.0018065082 0.000646472 0.0029284426 0.00266258 0.0031053333 0.0023622059 -0.0010217219 -0.0007808264 0.0029668575 0.0022038403 0.002025026 0.0022625064 0.00058587966 0.0008084145 -0.002772891 0.0025039334 0.0031301416 -0.0023904843 0.00034181873 0.0029118601 0.0012188298 0.002457264 0.0025817892 -0.0006459517 0.0030276538 0.0019911777 -0.0005787871 3.757528e-05 0.0032416212 0.0019453607 -0.0021661597 -0.0011350096 -0.0010729388 0.0010666264 0.00037743076 -0.0029313352 0.0007306167 0.0031972602 0.00075242145 0.0014446339 0.0006387265 0.0027221679 0.0029557983 0.0009751177 -0.00081313687 0.0012238475 -0.0026509122 0.002699446 -0.0013769179 0.0033098045 -0.0031841137 -0.0008279791 0.0029714757 -0.001326075 -0.0006408813 0.0016697826 0.003163303 -0.00022630054 -0.0022666345 0.0033598612 -0.0031372875 0.0004157345 0.0018438933 -0.0025486192 -0.0018621433 -0.0030887187 2.0816111e-05 0.0016891813 -0.0026769822 -0.0009992642 0.0029011427 -0.0015830991 0.0011115771 0.0012359305 -0.0012150732 -0.0017323364 0.0027194181 -0.00089068996 0.003036539 -0.0009024619 0.00092251896 0.0019074136 0.00018377809 0.0014715947 -0.0020494761 0.002763622 -0.00051555526 -0.0015297104 0.0017445649 0.0032859996 -0.0018870218 0.00026941582 0.0014352718 -0.0008600328 0.00014747513 0.0029242057 0.0025478215 -0.0020986523 -0.001060545 0.00309902 -0.00016617643 -0.0031505362 -0.00024716734 -0.0022271248 0.00033119266 0.00027965644 -0.0014671499 -0.0014354504 0.0028748515 0.0015567855 0.00085545424 0.00065825565 0.0028292192 -0.0016300451 0.0019993929 -0.00033361232 -0.0025017674 -0.003211066 -0.0005849253 0.0027467017 0.00068416423 -0.002995809 0.0003540294 -0.0012214727 -0.0012378481 0.002792921 0.0019606855 6.7666995e-05 0.00085628766 0.00033415144 -0.003365738 0.0009980815 0.002386553 0.0012855739 0.0008307279 -0.0012123184 0.00077666884 -0.0024995802 0.0013960112 0.0007956966 -0.0001592265 -0.00026643273 0.0009291003 0.00071621593 0.00048705845 0.0031085277 0.0011744701 0.00046620113 -0.0009670857 -0.00208871 -0.0030899316 -0.0011538177 0.0014759897 0.002474649 0.00015217757 -0.0017116986 0.0011212509 -0.0013313408 -0.00023491491 0.0029744778 0.0026857657 -0.00019971405 -0.002002789 0.0011820606 0.0033575837 0.0028630542 -0.00070220884 0.002407396 0.0031108675 -0.0032474059 0.002910942 1.3181569e-05 -0.0018079978 0.0012613591 0.0030216624 -0.0024104584 0.0023259819 -0.0022126636 -0.002576349 0.0017734503 -0.0015603272 0.0016376119 0.0024898576 0.0031709783 0.0019400213 -0.002974095 0.0011121246 -0.0029749246 -7.6368975e-05 0.003220074 -0.0016402492 0.0013337592 -0.0019480134 -0.0026969688 0.0027479113 0.0010807432 0.0023419322 0.0009420427 0.00039301452 0.0012580703 -0.0026976808 0.0020874315 -0.0015485379 0.001571862 -0.0017459004 0.00042752438 0.00125463 -0.0007806692 -0.002532549 -0.0020304893 -0.0032940158 0.0032418345 -0.0014557672 -0.00029245834 -0.0029485575 -0.0014711679 -0.0017149143 0.0010144707 0.0019027551 0.0011717433 0.003238123 0.0006686186 0.0032518038 0.0024819307 0.0008607937 0.000739412 -0.0024757662 -0.00073190697 0.0019607306 -0.0025860288 0.00080646574 -0.0024794897 0.0033498432 1.7345903e-06 0.00034757797 -0.0016294704 0.0020870895 -0.0024448263
